encog,SVM,java,3.1.0,1,1401122090715
[SVM]
[SVM:PARAMS]
[SVM:SVM-PARAM]
inputCount=30
C=1
cacheSize=100
coef0=0
degree=3
eps=0.2641711204
gamma=0.0333333333
kernelType=2
nrWeight=0
nu=0.5
p=0.1
probability=0
shrinking=1
svmType=3
weight=
weightLabel=
[SVM:SVM-MODEL]
svm_type epsilon_svr
kernel_type rbf
gamma 0.03333333333333333
nr_class 2
total_sv 2
rho -0.6714285714285715
SV
-1.0 1:0.6714285714285715 2:0.6714285714285715 3:0.6714285714285715 4:0.6714285714285715 5:0.6714285714285715 6:0.6714285714285715 7:0.6714285714285715 8:0.6714285714285715 9:0.6714285714285715 10:0.6714285714285715 11:0.6714285714285715 12:0.6714285714285715 13:0.6714285714285715 14:0.6714285714285715 15:0.6714285714285715 16:0.6714285714285715 17:0.6714285714285715 18:0.6714285714285715 19:0.6714285714285715 20:0.6714285714285715 21:0.6714285714285715 22:0.6714285714285715 23:0.6714285714285715 24:0.6714285714285715 25:0.6714285714285715 26:0.6714285714285715 27:0.6714285714285715 28:0.6714285714285715 29:0.6714285714285715 30:0.6714285714285715 
1.0 1:0.6714285714285715 2:0.6714285714285715 3:0.6714285714285715 4:0.6714285714285715 5:0.6714285714285715 6:0.6714285714285715 7:0.6714285714285715 8:0.6714285714285715 9:0.6714285714285715 10:0.6714285714285715 11:0.6714285714285715 12:0.6714285714285715 13:0.6714285714285715 14:0.6714285714285715 15:0.6714285714285715 16:0.6714285714285715 17:0.6714285714285715 18:0.6714285714285715 19:0.6714285714285715 20:0.6714285714285715 21:0.6714285714285715 22:0.6714285714285715 23:0.6714285714285715 24:0.6714285714285715 25:0.6714285714285715 26:0.6714285714285715 27:0.6714285714285715 28:0.6714285714285715 29:0.6714285714285715 30:0.6714285714285715 
