encog,BasicNetwork,java,3.1.0,1,1400520219185
[BASIC]
[BASIC:PARAMS]
[BASIC:NETWORK]
beginTraining=0
connectionLimit=0
contextTargetOffset=0,0,0
contextTargetSize=0,0,0
endTraining=2
hasContext=f
inputCount=30
layerCounts=1,6,31
layerFeedCounts=1,5,30
layerContextCount=0,0,0
layerIndex=0,1,7
output=0.7190180355,0.9960674787,0.9997491625,0.9996892611,-0.6038600956,-0.9731604551,1,0.74,0.74,0.74,0.74,0.7666666667,0.74,0.74,0.74,0.74,0.58,0.74,0.74,0.74,0.74,0.5266666667,0.74,0.74,0.74,0.74,0.5,0.74,0.74,0.74,0.74,0.5266666667,0.74,0.74,0.74,0.74,0.66,1
outputCount=1
weightIndex=0,6,161
weights=0.2207424251,0.2399470766,0.1651844984,0.0297537968,0.0338244661,0.3315983612,0.1896832729,0.047559598,0.3261005626,0.0205772664,0.0377114182,0.12796031,0.2217956685,0.1252802624,0.0109121558,0.3141550507,0.2121432259,0.3011179135,0.069592344,0.31439914,0.0538147071,0.1472617741,0.2621381648,0.1673190416,0.0549175154,0.2255506898,0.0298950723,0.2803134324,0.1785736128,0.1297491508,0.2725345631,0.1354183027,0.0912630458,0.2366495179,0.0508920284,0.0142439442,-0.1516680647,0.2033367413,0.1298200371,0.2989999311,0.260634629,0.218170601,0.176043742,0.074571493,0.0752345776,0.3576551395,0.2037681312,0.2196943275,0.2059033814,0.0172312692,0.1021713032,0.2723859738,0.3620894448,0.0850766663,0.3656358495,0.1336701966,0.3774291491,0.2270943808,0.1994378018,0.3423109801,0.2238879481,0.2190585326,0.1400847176,0.3566010349,0.1792777534,0.3720336673,0.3602375481,-0.2591726545,0.2824090909,0.2375597989,0.053759072,0.0305126858,0.2255999023,0.3668442116,0.3137641707,0.1596235871,0.1976907699,0.3697979945,0.3282034272,0.081726402,0.2789351596,0.2785143902,0.3779000446,0.0157653094,0.3542656601,0.02323018,0.3386628556,0.1779398899,0.0876002044,0.3060931567,0.1157474252,0.0984223448,0.0992782337,0.3640746556,0.2578472536,0.1030744171,0.0413134571,0.3429459824,-0.0588696803,-0.0373725256,0.0238340762,0.1065781312,-0.1401406339,0.1091876817,0.1201454285,-0.1778100309,0.0114071176,0.0024434333,-0.127789099,-0.1099410416,0.1449764315,0.0816634848,0.0052672556,-0.189045932,-0.0512815949,-0.1728699268,-0.1251204845,-0.1163353542,0.0155607835,0.025385927,0.0380637791,0.0187383541,0.0921717923,-0.0143924135,-0.064568203,0.0618195947,-0.137953938,-0.2003312046,-0.208190202,-0.0271138037,-0.0936002834,-0.233957929,0.0017429447,0.0091217378,-0.1311297795,-0.1984293829,0.0863786002,0.0690420554,-0.1706159476,0.0990453391,-0.2241317647,-0.1635078184,0.0889983126,-0.0882365407,-0.1647473928,-0.2186712934,-0.1336746471,0.0446170791,-0.093694912,-0.1069156247,-0.2549563482,-0.1467815106,0.0758999142,-0.2485490321,-0.0834948318,0.0158129827,-0.1518474571,-0.1261193525,-0.1706944947,-0.0939855812,-0.138309237
biasActivation=0,1,1
[BASIC:ACTIVATION]
"ActivationTANH"
"ActivationTANH"
"ActivationLinear"
