encog,BasicNetwork,java,3.1.0,1,1400516096739
[BASIC]
[BASIC:PARAMS]
[BASIC:NETWORK]
beginTraining=0
connectionLimit=0
contextTargetOffset=0,0,0,0
contextTargetSize=0,0,0,0
endTraining=3
hasContext=f
inputCount=30
layerCounts=1,2,6,31
layerFeedCounts=1,1,5,30
layerContextCount=0,0,0,0
layerIndex=0,1,3,9
output=0.6627543594,0.928383528,1,0.2425532481,-0.127244685,0.4300343095,0.9999999387,0.0425103257,1,0.6848739496,0.6848739496,0.6848739496,0.5235294118,0.6848739496,0.6848739496,0.6848739496,0.6848739496,0.4697478992,0.6848739496,0.6848739496,0.6848739496,0.6848739496,0.631092437,0.6848739496,0.6848739496,0.6848739496,0.6848739496,0.4697478992,0.6848739496,0.6848739496,0.6848739496,0.6848739496,0.6848739496,0.6848739496,0.6848739496,0.6848739496,0.5235294118,0.6848739496,0.6848739496,1
outputCount=1
weightIndex=0,2,8,163
weights=0.4424223023,0.3869720173,0.4166752336,0.4624869353,0.5314735217,0.699711299,0.5489228023,0.6527412193,-0.2416665493,-0.1961766847,0.0344905411,-0.1879364402,-0.1100271316,-0.2042554974,-0.11782875,0.0429283058,-0.1827295597,-0.1227366429,0.7222460447,-0.0698886876,-0.0535969451,-0.1894567063,-0.0824902685,0.6052422662,0.0838799667,0.0675297076,0.0711803565,-0.1558011178,0.5821993157,-0.1868660448,-0.1257597435,-0.2151055385,0.0522735695,0.8018792418,-0.0048129804,-0.0200075307,-0.2280979341,-0.1971537869,0.0623232452,-0.0129368856,-0.1901847675,0.0696675639,0.033755036,-0.2003728138,0.5144951777,-0.1651769291,-0.0384603104,0.010338236,-0.1813212581,0.5028246312,-0.2120389843,-0.14627466,-0.0642664111,-0.2410189329,0.4763969706,-0.0224149402,-0.213354443,-0.2162734295,-0.051603453,0.5096390775,-0.2515859845,0.1011220312,-0.0385159715,-0.1712049029,0.5239659522,-0.0541054187,-0.1911629677,-0.0093867335,-0.0739692003,-0.1987479605,-0.188231935,-0.1939758839,0.0893794714,0.0195301089,0.0204910443,0.0301313316,-0.0292015275,-0.037088322,0.0869128429,0.0641751207,0.687421644,0.1073040557,-0.1211247262,-0.2344906613,-0.092495535,0.573503583,-0.0698742648,-0.0254567226,-0.1986624816,-0.1988356885,0.7022873473,-0.1423342842,-0.0706786195,0.078908473,0.1121351383,0.7519099823,-0.2372047707,-0.1513501059,-0.1428135095,0.0651093526,-0.4577585557,0.6817206431,0.5386796945,0.5426753411,0.535519911,0.3067693589,0.6871132138,0.2940329819,0.329151542,0.5146243247,0.311611711,0.7235217627,0.4270572531,0.2178988144,0.2943525662,0.3549539131,0.8235387387,0.1941860787,0.404922745,0.5166515278,0.251058636,0.5066814693,0.4143590187,0.5298429007,0.2007275264,0.5036053763,0.4035196661,0.2518987881,0.2988807376,0.5099909278,0.2091871267,0.2711562635,0.0954450214,0.0928910718,-0.030670642,-0.0131205782,-0.100940181,0.4473528358,0.1110543997,-0.2429258289,-0.0969883225,-0.1214080915,0.8544815549,0.1057150545,-0.0876880445,-0.2257274145,-0.1325054165,0.6330716164,-0.1311649999,-0.1366684607,-0.1240377155,-0.1334324069,0.555960831,-0.1259594646,-0.1225425076,-0.1572614261,-0.1116712985,0.1653397153,-0.0672338887,-0.0989116779,-0.2114895178,-0.0886350653,-0.3778906545
biasActivation=0,1,1,1
[BASIC:ACTIVATION]
"ActivationTANH"
"ActivationTANH"
"ActivationTANH"
"ActivationLinear"
