encog,SVM,java,3.1.0,1,1400509578806
[SVM]
[SVM:PARAMS]
[SVM:SVM-PARAM]
inputCount=30
C=1
cacheSize=100
coef0=0
degree=3
eps=0.001
gamma=0.0333333333
kernelType=2
nrWeight=0
nu=0.5
p=0.1
probability=0
shrinking=1
svmType=3
weight=
weightLabel=
[SVM:SVM-MODEL]
svm_type epsilon_svr
kernel_type rbf
gamma 0.03333333333333333
nr_class 2
total_sv 181
rho -0.7995070292368174
SV
-1.0 1:0.9 2:0.9 3:0.9 4:0.9 5:0.9 6:0.9 7:0.9 8:0.9 9:0.9 10:0.9 11:0.9 12:0.9 13:0.9 14:0.9 15:0.9 16:0.9 17:0.9 18:0.9 19:0.9 20:0.9 21:0.1 22:0.9 23:0.9 24:0.9 25:0.9 26:0.9 27:0.9 28:0.9 29:0.9 30:0.9 
0.04011083838642845 1:0.9 2:0.9 3:0.9 4:0.9 5:0.9 6:0.9 7:0.9 8:0.9 9:0.9 10:0.9 11:0.9 12:0.9 13:0.9 14:0.9 15:0.9 16:0.1 17:0.9 18:0.9 19:0.9 20:0.9 21:0.9 22:0.9 23:0.9 24:0.9 25:0.9 26:0.1 27:0.9 28:0.9 29:0.9 30:0.9 
-1.0 1:0.9 2:0.9 3:0.9 4:0.9 5:0.9 6:0.9 7:0.9 8:0.9 9:0.9 10:0.9 11:0.1 12:0.9 13:0.9 14:0.9 15:0.9 16:0.9 17:0.9 18:0.9 19:0.9 20:0.9 21:0.1 22:0.9 23:0.9 24:0.9 25:0.9 26:0.9 27:0.9 28:0.9 29:0.9 30:0.9 
-1.0 1:0.9 2:0.9 3:0.9 4:0.9 5:0.9 6:0.1 7:0.9 8:0.9 9:0.9 10:0.9 11:0.9 12:0.9 13:0.9 14:0.9 15:0.9 16:0.1 17:0.9 18:0.9 19:0.9 20:0.9 21:0.9 22:0.9 23:0.9 24:0.9 25:0.9 26:0.1 27:0.9 28:0.9 29:0.9 30:0.9 
1.0 1:0.1 2:0.9 3:0.9 4:0.9 5:0.9 6:0.9 7:0.9 8:0.9 9:0.9 10:0.9 11:0.1 12:0.9 13:0.9 14:0.9 15:0.9 16:0.9 17:0.9 18:0.9 19:0.9 20:0.9 21:0.1 22:0.9 23:0.9 24:0.9 25:0.9 26:0.1 27:0.9 28:0.9 29:0.9 30:0.9 
-1.0 1:0.9 2:0.9 3:0.9 4:0.9 5:0.9 6:0.1 7:0.9 8:0.9 9:0.9 10:0.9 11:0.9 12:0.9 13:0.9 14:0.9 15:0.9 16:0.1 17:0.9 18:0.9 19:0.9 20:0.9 21:0.1 22:0.9 23:0.9 24:0.9 25:0.9 26:0.9 27:0.9 28:0.9 29:0.9 30:0.9 
-1.0 1:0.1 2:0.9 3:0.9 4:0.9 5:0.9 6:0.1 7:0.9 8:0.9 9:0.9 10:0.9 11:0.9 12:0.9 13:0.9 14:0.9 15:0.9 16:0.1 17:0.9 18:0.9 19:0.9 20:0.9 21:0.9 22:0.9 23:0.9 24:0.9 25:0.9 26:0.9 27:0.9 28:0.9 29:0.9 30:0.9 
-1.0 1:0.9 2:0.9 3:0.9 4:0.9 5:0.9 6:0.9 7:0.9 8:0.9 9:0.9 10:0.9 11:0.1 12:0.9 13:0.9 14:0.9 15:0.9 16:0.9 17:0.9 18:0.9 19:0.9 20:0.9 21:0.9 22:0.9 23:0.9 24:0.9 25:0.9 26:0.9 27:0.9 28:0.9 29:0.9 30:0.9 
-1.0 1:0.9 2:0.9 3:0.9 4:0.9 5:0.9 6:0.9 7:0.9 8:0.9 9:0.9 10:0.9 11:0.1 12:0.9 13:0.9 14:0.9 15:0.9 16:0.9 17:0.9 18:0.9 19:0.9 20:0.9 21:0.9 22:0.9 23:0.9 24:0.9 25:0.9 26:0.9 27:0.9 28:0.9 29:0.9 30:0.9 
0.8726419991728385 1:0.9 2:0.9 3:0.9 4:0.9 5:0.9 6:0.1 7:0.9 8:0.9 9:0.9 10:0.9 11:0.9 12:0.9 13:0.9 14:0.9 15:0.9 16:0.9 17:0.9 18:0.9 19:0.9 20:0.9 21:0.9 22:0.9 23:0.9 24:0.9 25:0.9 26:0.1 27:0.9 28:0.9 29:0.9 30:0.9 
-1.0 1:0.1 2:0.9 3:0.9 4:0.9 5:0.9 6:0.9 7:0.9 8:0.9 9:0.9 10:0.9 11:0.9 12:0.9 13:0.9 14:0.9 15:0.9 16:0.9 17:0.9 18:0.9 19:0.9 20:0.9 21:0.1 22:0.9 23:0.9 24:0.9 25:0.9 26:0.9 27:0.9 28:0.9 29:0.9 30:0.9 
1.0 1:0.9 2:0.9 3:0.9 4:0.9 5:0.9 6:0.9 7:0.9 8:0.9 9:0.9 10:0.9 11:0.9 12:0.9 13:0.9 14:0.9 15:0.9 16:0.1 17:0.9 18:0.9 19:0.9 20:0.9 21:0.9 22:0.9 23:0.9 24:0.9 25:0.9 26:0.1 27:0.9 28:0.9 29:0.9 30:0.9 
-1.0 1:0.9 2:0.9 3:0.9 4:0.9 5:0.9 6:0.9 7:0.9 8:0.9 9:0.9 10:0.9 11:0.1 12:0.9 13:0.9 14:0.9 15:0.9 16:0.9 17:0.9 18:0.9 19:0.9 20:0.9 21:0.1 22:0.9 23:0.9 24:0.9 25:0.9 26:0.9 27:0.9 28:0.9 29:0.9 30:0.9 
1.0 1:0.9 2:0.9 3:0.9 4:0.9 5:0.9 6:0.1 7:0.9 8:0.9 9:0.9 10:0.9 11:0.9 12:0.9 13:0.9 14:0.9 15:0.9 16:0.1 17:0.9 18:0.9 19:0.9 20:0.9 21:0.9 22:0.9 23:0.9 24:0.9 25:0.9 26:0.1 27:0.9 28:0.9 29:0.9 30:0.9 
-1.0 1:0.1 2:0.9 3:0.9 4:0.9 5:0.9 6:0.9 7:0.9 8:0.9 9:0.9 10:0.9 11:0.1 12:0.9 13:0.9 14:0.9 15:0.9 16:0.9 17:0.9 18:0.9 19:0.9 20:0.9 21:0.1 22:0.9 23:0.9 24:0.9 25:0.9 26:0.9 27:0.9 28:0.9 29:0.9 30:0.9 
1.0 1:0.9 2:0.9 3:0.9 4:0.9 5:0.9 6:0.1 7:0.9 8:0.9 9:0.9 10:0.9 11:0.9 12:0.9 13:0.9 14:0.9 15:0.9 16:0.1 17:0.9 18:0.9 19:0.9 20:0.9 21:0.9 22:0.9 23:0.9 24:0.9 25:0.9 26:0.1 27:0.9 28:0.9 29:0.9 30:0.9 
0.1540116364099314 1:0.1 2:0.9 3:0.9 4:0.9 5:0.9 6:0.9 7:0.9 8:0.9 9:0.9 10:0.9 11:0.1 12:0.9 13:0.9 14:0.9 15:0.9 16:0.9 17:0.9 18:0.9 19:0.9 20:0.9 21:0.1 22:0.9 23:0.9 24:0.9 25:0.9 26:0.9 27:0.9 28:0.9 29:0.9 30:0.9 
1.0 1:0.9 2:0.9 3:0.9 4:0.9 5:0.9 6:0.1 7:0.9 8:0.9 9:0.9 10:0.9 11:0.9 12:0.9 13:0.9 14:0.9 15:0.9 16:0.1 17:0.9 18:0.9 19:0.9 20:0.9 21:0.9 22:0.9 23:0.9 24:0.9 25:0.9 26:0.9 27:0.9 28:0.9 29:0.9 30:0.9 
-1.0 1:0.1 2:0.9 3:0.9 4:0.9 5:0.9 6:0.9 7:0.9 8:0.9 9:0.9 10:0.9 11:0.9 12:0.9 13:0.9 14:0.9 15:0.9 16:0.9 17:0.9 18:0.9 19:0.9 20:0.9 21:0.9 22:0.9 23:0.9 24:0.9 25:0.9 26:0.9 27:0.9 28:0.9 29:0.9 30:0.9 
-1.0 1:0.9 2:0.9 3:0.9 4:0.9 5:0.9 6:0.9 7:0.9 8:0.9 9:0.9 10:0.9 11:0.9 12:0.9 13:0.9 14:0.9 15:0.9 16:0.9 17:0.9 18:0.9 19:0.9 20:0.9 21:0.9 22:0.9 23:0.9 24:0.9 25:0.9 26:0.1 27:0.9 28:0.9 29:0.9 30:0.9 
-1.0 1:0.9 2:0.9 3:0.9 4:0.9 5:0.9 6:0.9 7:0.9 8:0.9 9:0.9 10:0.9 11:0.9 12:0.9 13:0.9 14:0.9 15:0.9 16:0.9 17:0.9 18:0.9 19:0.9 20:0.9 21:0.1 22:0.9 23:0.9 24:0.9 25:0.9 26:0.1 27:0.9 28:0.9 29:0.9 30:0.9 
1.0 1:0.9 2:0.9 3:0.9 4:0.9 5:0.9 6:0.9 7:0.9 8:0.9 9:0.9 10:0.9 11:0.9 12:0.9 13:0.9 14:0.9 15:0.9 16:0.1 17:0.9 18:0.9 19:0.9 20:0.9 21:0.1 22:0.9 23:0.9 24:0.9 25:0.9 26:0.1 27:0.9 28:0.9 29:0.9 30:0.9 
-1.0 1:0.1 2:0.9 3:0.9 4:0.9 5:0.9 6:0.1 7:0.9 8:0.9 9:0.9 10:0.9 11:0.9 12:0.9 13:0.9 14:0.9 15:0.9 16:0.9 17:0.9 18:0.9 19:0.9 20:0.9 21:0.9 22:0.9 23:0.9 24:0.9 25:0.9 26:0.9 27:0.9 28:0.9 29:0.9 30:0.9 
-1.0 1:0.9 2:0.9 3:0.9 4:0.9 5:0.9 6:0.9 7:0.9 8:0.9 9:0.9 10:0.9 11:0.9 12:0.9 13:0.9 14:0.9 15:0.9 16:0.9 17:0.9 18:0.9 19:0.9 20:0.9 21:0.1 22:0.9 23:0.9 24:0.9 25:0.9 26:0.9 27:0.9 28:0.9 29:0.9 30:0.9 
-1.0 1:0.9 2:0.9 3:0.9 4:0.9 5:0.9 6:0.9 7:0.9 8:0.9 9:0.9 10:0.9 11:0.9 12:0.9 13:0.9 14:0.9 15:0.9 16:0.1 17:0.9 18:0.9 19:0.9 20:0.9 21:0.9 22:0.9 23:0.9 24:0.9 25:0.9 26:0.1 27:0.9 28:0.9 29:0.9 30:0.9 
1.0 1:0.9 2:0.9 3:0.9 4:0.9 5:0.9 6:0.9 7:0.9 8:0.9 9:0.9 10:0.9 11:0.1 12:0.9 13:0.9 14:0.9 15:0.9 16:0.9 17:0.9 18:0.9 19:0.9 20:0.9 21:0.1 22:0.9 23:0.9 24:0.9 25:0.9 26:0.1 27:0.9 28:0.9 29:0.9 30:0.9 
-1.0 1:0.9 2:0.9 3:0.9 4:0.9 5:0.9 6:0.1 7:0.9 8:0.9 9:0.9 10:0.9 11:0.9 12:0.9 13:0.9 14:0.9 15:0.9 16:0.1 17:0.9 18:0.9 19:0.9 20:0.9 21:0.1 22:0.9 23:0.9 24:0.9 25:0.9 26:0.9 27:0.9 28:0.9 29:0.9 30:0.9 
4.75359930839081E-5 1:0.9 2:0.9 3:0.9 4:0.9 5:0.9 6:0.1 7:0.9 8:0.9 9:0.9 10:0.9 11:0.1 12:0.9 13:0.9 14:0.9 15:0.9 16:0.9 17:0.9 18:0.9 19:0.9 20:0.9 21:0.1 22:0.9 23:0.9 24:0.9 25:0.9 26:0.9 27:0.9 28:0.9 29:0.9 30:0.9 
1.0 1:0.1 2:0.9 3:0.9 4:0.9 5:0.9 6:0.1 7:0.9 8:0.9 9:0.9 10:0.9 11:0.9 12:0.9 13:0.9 14:0.9 15:0.9 16:0.1 17:0.9 18:0.9 19:0.9 20:0.9 21:0.9 22:0.9 23:0.9 24:0.9 25:0.9 26:0.9 27:0.9 28:0.9 29:0.9 30:0.9 
-1.0 1:0.9 2:0.9 3:0.9 4:0.9 5:0.9 6:0.9 7:0.9 8:0.9 9:0.9 10:0.9 11:0.9 12:0.9 13:0.9 14:0.9 15:0.9 16:0.9 17:0.9 18:0.9 19:0.9 20:0.9 21:0.9 22:0.9 23:0.9 24:0.9 25:0.9 26:0.9 27:0.9 28:0.9 29:0.9 30:0.9 
-1.0 1:0.9 2:0.9 3:0.9 4:0.9 5:0.9 6:0.9 7:0.9 8:0.9 9:0.9 10:0.9 11:0.9 12:0.9 13:0.9 14:0.9 15:0.9 16:0.9 17:0.9 18:0.9 19:0.9 20:0.9 21:0.9 22:0.9 23:0.9 24:0.9 25:0.9 26:0.1 27:0.9 28:0.9 29:0.9 30:0.9 
1.0 1:0.9 2:0.9 3:0.9 4:0.9 5:0.9 6:0.9 7:0.9 8:0.9 9:0.9 10:0.9 11:0.9 12:0.9 13:0.9 14:0.9 15:0.9 16:0.9 17:0.9 18:0.9 19:0.9 20:0.9 21:0.1 22:0.9 23:0.9 24:0.9 25:0.9 26:0.1 27:0.9 28:0.9 29:0.9 30:0.9 
1.0 1:0.9 2:0.9 3:0.9 4:0.9 5:0.9 6:0.9 7:0.9 8:0.9 9:0.9 10:0.9 11:0.9 12:0.9 13:0.9 14:0.9 15:0.9 16:0.1 17:0.9 18:0.9 19:0.9 20:0.9 21:0.1 22:0.9 23:0.9 24:0.9 25:0.9 26:0.9 27:0.9 28:0.9 29:0.9 30:0.9 
1.0 1:0.1 2:0.9 3:0.9 4:0.9 5:0.9 6:0.1 7:0.9 8:0.9 9:0.9 10:0.9 11:0.9 12:0.9 13:0.9 14:0.9 15:0.9 16:0.9 17:0.9 18:0.9 19:0.9 20:0.9 21:0.9 22:0.9 23:0.9 24:0.9 25:0.9 26:0.9 27:0.9 28:0.9 29:0.9 30:0.9 
-1.0 1:0.9 2:0.9 3:0.1 4:0.9 5:0.9 6:0.9 7:0.9 8:0.9 9:0.9 10:0.9 11:0.9 12:0.9 13:0.9 14:0.9 15:0.9 16:0.9 17:0.9 18:0.9 19:0.9 20:0.9 21:0.9 22:0.9 23:0.9 24:0.9 25:0.9 26:0.9 27:0.9 28:0.9 29:0.9 30:0.9 
-1.0 1:0.9 2:0.9 3:0.9 4:0.9 5:0.9 6:0.9 7:0.9 8:0.9 9:0.9 10:0.9 11:0.9 12:0.9 13:0.9 14:0.9 15:0.9 16:0.1 17:0.9 18:0.9 19:0.9 20:0.9 21:0.9 22:0.9 23:0.9 24:0.9 25:0.9 26:0.9 27:0.9 28:0.9 29:0.9 30:0.9 
-1.0 1:0.9 2:0.9 3:0.9 4:0.9 5:0.9 6:0.9 7:0.9 8:0.9 9:0.9 10:0.9 11:0.1 12:0.9 13:0.9 14:0.9 15:0.9 16:0.9 17:0.9 18:0.9 19:0.9 20:0.9 21:0.9 22:0.9 23:0.9 24:0.9 25:0.9 26:0.1 27:0.9 28:0.9 29:0.9 30:0.9 
-1.0 1:0.9 2:0.9 3:0.9 4:0.9 5:0.9 6:0.1 7:0.9 8:0.9 9:0.9 10:0.9 11:0.9 12:0.9 13:0.9 14:0.9 15:0.9 16:0.9 17:0.9 18:0.9 19:0.9 20:0.9 21:0.1 22:0.9 23:0.9 24:0.9 25:0.9 26:0.1 27:0.9 28:0.9 29:0.9 30:0.9 
-1.0 1:0.1 2:0.9 3:0.9 4:0.9 5:0.9 6:0.9 7:0.9 8:0.9 9:0.9 10:0.9 11:0.9 12:0.9 13:0.9 14:0.9 15:0.9 16:0.1 17:0.9 18:0.9 19:0.9 20:0.9 21:0.1 22:0.9 23:0.9 24:0.9 25:0.9 26:0.1 27:0.9 28:0.9 29:0.9 30:0.9 
1.0 1:0.9 2:0.9 3:0.9 4:0.9 5:0.9 6:0.9 7:0.9 8:0.9 9:0.9 10:0.9 11:0.1 12:0.9 13:0.9 14:0.9 15:0.9 16:0.1 17:0.9 18:0.9 19:0.9 20:0.9 21:0.1 22:0.9 23:0.9 24:0.9 25:0.9 26:0.1 27:0.9 28:0.9 29:0.9 30:0.9 
-1.0 1:0.9 2:0.9 3:0.9 4:0.9 5:0.9 6:0.1 7:0.9 8:0.9 9:0.9 10:0.9 11:0.1 12:0.9 13:0.9 14:0.9 15:0.9 16:0.1 17:0.9 18:0.9 19:0.9 20:0.9 21:0.1 22:0.9 23:0.9 24:0.9 25:0.9 26:0.9 27:0.9 28:0.9 29:0.9 30:0.9 
-1.0 1:0.1 2:0.9 3:0.9 4:0.9 5:0.9 6:0.1 7:0.9 8:0.9 9:0.9 10:0.9 11:0.1 12:0.9 13:0.9 14:0.9 15:0.9 16:0.1 17:0.9 18:0.9 19:0.9 20:0.9 21:0.9 22:0.9 23:0.9 24:0.9 25:0.9 26:0.1 27:0.9 28:0.9 29:0.9 30:0.9 
-1.0 1:0.1 2:0.9 3:0.9 4:0.9 5:0.9 6:0.1 7:0.9 8:0.9 9:0.9 10:0.9 11:0.1 12:0.9 13:0.9 14:0.9 15:0.9 16:0.9 17:0.9 18:0.9 19:0.9 20:0.9 21:0.1 22:0.9 23:0.9 24:0.9 25:0.9 26:0.1 27:0.9 28:0.9 29:0.9 30:0.9 
-1.0 1:0.1 2:0.9 3:0.9 4:0.9 5:0.9 6:0.1 7:0.9 8:0.9 9:0.9 10:0.9 11:0.9 12:0.9 13:0.9 14:0.9 15:0.9 16:0.1 17:0.9 18:0.9 19:0.9 20:0.9 21:0.1 22:0.9 23:0.9 24:0.9 25:0.9 26:0.1 27:0.9 28:0.9 29:0.9 30:0.9 
-1.0 1:0.1 2:0.9 3:0.9 4:0.9 5:0.9 6:0.9 7:0.9 8:0.9 9:0.9 10:0.9 11:0.1 12:0.9 13:0.9 14:0.9 15:0.9 16:0.1 17:0.9 18:0.9 19:0.9 20:0.9 21:0.1 22:0.9 23:0.9 24:0.9 25:0.9 26:0.1 27:0.9 28:0.9 29:0.9 30:0.9 
1.0 1:0.9 2:0.9 3:0.9 4:0.9 5:0.9 6:0.1 7:0.9 8:0.9 9:0.9 10:0.9 11:0.1 12:0.9 13:0.9 14:0.9 15:0.9 16:0.1 17:0.9 18:0.9 19:0.9 20:0.9 21:0.1 22:0.9 23:0.9 24:0.9 25:0.9 26:0.1 27:0.9 28:0.9 29:0.9 30:0.9 
1.0 1:0.1 2:0.9 3:0.9 4:0.9 5:0.9 6:0.1 7:0.9 8:0.9 9:0.9 10:0.9 11:0.1 12:0.9 13:0.9 14:0.9 15:0.9 16:0.1 17:0.9 18:0.9 19:0.9 20:0.9 21:0.1 22:0.9 23:0.9 24:0.9 25:0.9 26:0.9 27:0.9 28:0.9 29:0.9 30:0.9 
1.0 1:0.1 2:0.9 3:0.9 4:0.9 5:0.9 6:0.1 7:0.9 8:0.9 9:0.9 10:0.9 11:0.9 12:0.9 13:0.9 14:0.9 15:0.9 16:0.9 17:0.9 18:0.9 19:0.9 20:0.9 21:0.9 22:0.9 23:0.9 24:0.9 25:0.9 26:0.9 27:0.9 28:0.9 29:0.9 30:0.9 
-1.0 1:0.9 2:0.9 3:0.9 4:0.9 5:0.9 6:0.9 7:0.9 8:0.9 9:0.9 10:0.9 11:0.9 12:0.9 13:0.9 14:0.9 15:0.9 16:0.9 17:0.9 18:0.9 19:0.9 20:0.9 21:0.9 22:0.9 23:0.9 24:0.9 25:0.9 26:0.9 27:0.9 28:0.9 29:0.9 30:0.9 
-1.0 1:0.9 2:0.9 3:0.9 4:0.9 5:0.9 6:0.9 7:0.9 8:0.9 9:0.9 10:0.9 11:0.9 12:0.9 13:0.1 14:0.9 15:0.9 16:0.9 17:0.9 18:0.9 19:0.9 20:0.9 21:0.9 22:0.9 23:0.9 24:0.9 25:0.9 26:0.9 27:0.9 28:0.9 29:0.9 30:0.9 
-1.0 1:0.9 2:0.9 3:0.9 4:0.9 5:0.9 6:0.9 7:0.9 8:0.1 9:0.9 10:0.9 11:0.9 12:0.9 13:0.9 14:0.9 15:0.9 16:0.9 17:0.9 18:0.9 19:0.9 20:0.9 21:0.9 22:0.9 23:0.9 24:0.9 25:0.9 26:0.1 27:0.9 28:0.9 29:0.9 30:0.9 
-1.0 1:0.9 2:0.9 3:0.1 4:0.9 5:0.9 6:0.9 7:0.9 8:0.9 9:0.9 10:0.9 11:0.9 12:0.9 13:0.9 14:0.9 15:0.9 16:0.9 17:0.9 18:0.9 19:0.9 20:0.9 21:0.1 22:0.9 23:0.9 24:0.9 25:0.9 26:0.1 27:0.9 28:0.9 29:0.9 30:0.9 
-1.0 1:0.9 2:0.9 3:0.9 4:0.9 5:0.9 6:0.9 7:0.9 8:0.9 9:0.9 10:0.9 11:0.9 12:0.9 13:0.9 14:0.9 15:0.9 16:0.1 17:0.9 18:0.9 19:0.9 20:0.9 21:0.1 22:0.9 23:0.9 24:0.9 25:0.9 26:0.1 27:0.9 28:0.9 29:0.9 30:0.9 
-1.0 1:0.9 2:0.9 3:0.9 4:0.9 5:0.9 6:0.9 7:0.9 8:0.9 9:0.9 10:0.9 11:0.1 12:0.9 13:0.9 14:0.9 15:0.9 16:0.1 17:0.9 18:0.9 19:0.9 20:0.9 21:0.1 22:0.9 23:0.9 24:0.9 25:0.9 26:0.1 27:0.9 28:0.9 29:0.9 30:0.9 
-1.0 1:0.9 2:0.9 3:0.9 4:0.9 5:0.9 6:0.1 7:0.9 8:0.9 9:0.9 10:0.9 11:0.1 12:0.9 13:0.9 14:0.9 15:0.9 16:0.1 17:0.9 18:0.9 19:0.9 20:0.9 21:0.1 22:0.9 23:0.9 24:0.9 25:0.9 26:0.1 27:0.9 28:0.9 29:0.9 30:0.9 
1.0 1:0.1 2:0.9 3:0.9 4:0.9 5:0.9 6:0.1 7:0.9 8:0.9 9:0.9 10:0.9 11:0.1 12:0.9 13:0.9 14:0.9 15:0.9 16:0.1 17:0.9 18:0.9 19:0.9 20:0.9 21:0.1 22:0.9 23:0.9 24:0.9 25:0.9 26:0.1 27:0.9 28:0.9 29:0.9 30:0.9 
-1.0 1:0.1 2:0.9 3:0.9 4:0.9 5:0.9 6:0.1 7:0.9 8:0.9 9:0.9 10:0.9 11:0.1 12:0.9 13:0.9 14:0.9 15:0.9 16:0.1 17:0.9 18:0.9 19:0.9 20:0.9 21:0.1 22:0.9 23:0.9 24:0.9 25:0.9 26:0.9 27:0.9 28:0.9 29:0.9 30:0.9 
1.0 1:0.1 2:0.9 3:0.9 4:0.9 5:0.9 6:0.1 7:0.9 8:0.9 9:0.9 10:0.9 11:0.1 12:0.9 13:0.9 14:0.9 15:0.9 16:0.1 17:0.9 18:0.9 19:0.9 20:0.9 21:0.9 22:0.9 23:0.9 24:0.9 25:0.9 26:0.1 27:0.9 28:0.9 29:0.9 30:0.9 
1.0 1:0.1 2:0.9 3:0.9 4:0.9 5:0.9 6:0.1 7:0.9 8:0.9 9:0.9 10:0.9 11:0.1 12:0.9 13:0.9 14:0.9 15:0.9 16:0.9 17:0.9 18:0.9 19:0.9 20:0.9 21:0.1 22:0.9 23:0.9 24:0.9 25:0.9 26:0.9 27:0.9 28:0.9 29:0.9 30:0.9 
-1.0 1:0.1 2:0.9 3:0.9 4:0.9 5:0.9 6:0.1 7:0.9 8:0.9 9:0.9 10:0.9 11:0.9 12:0.9 13:0.9 14:0.9 15:0.9 16:0.1 17:0.9 18:0.9 19:0.9 20:0.9 21:0.9 22:0.9 23:0.9 24:0.9 25:0.9 26:0.9 27:0.9 28:0.9 29:0.9 30:0.9 
0.9111347567293379 1:0.9 2:0.9 3:0.9 4:0.9 5:0.9 6:0.1 7:0.9 8:0.9 9:0.9 10:0.9 11:0.9 12:0.9 13:0.9 14:0.9 15:0.9 16:0.9 17:0.9 18:0.9 19:0.9 20:0.9 21:0.1 22:0.9 23:0.9 24:0.9 25:0.9 26:0.9 27:0.9 28:0.9 29:0.9 30:0.9 
-1.0 1:0.9 2:0.9 3:0.9 4:0.9 5:0.9 6:0.9 7:0.9 8:0.9 9:0.9 10:0.9 11:0.9 12:0.9 13:0.9 14:0.9 15:0.9 16:0.9 17:0.9 18:0.9 19:0.9 20:0.9 21:0.9 22:0.9 23:0.9 24:0.9 25:0.9 26:0.9 27:0.9 28:0.9 29:0.9 30:0.9 
-1.0 1:0.9 2:0.9 3:0.9 4:0.9 5:0.9 6:0.9 7:0.9 8:0.9 9:0.9 10:0.9 11:0.9 12:0.9 13:0.9 14:0.9 15:0.9 16:0.9 17:0.9 18:0.9 19:0.9 20:0.9 21:0.9 22:0.9 23:0.9 24:0.9 25:0.9 26:0.1 27:0.9 28:0.9 29:0.9 30:0.9 
-1.0 1:0.9 2:0.9 3:0.9 4:0.9 5:0.9 6:0.9 7:0.9 8:0.9 9:0.9 10:0.9 11:0.9 12:0.9 13:0.9 14:0.9 15:0.9 16:0.9 17:0.9 18:0.9 19:0.9 20:0.9 21:0.1 22:0.9 23:0.9 24:0.9 25:0.9 26:0.1 27:0.9 28:0.9 29:0.9 30:0.9 
-1.0 1:0.9 2:0.9 3:0.9 4:0.9 5:0.9 6:0.9 7:0.9 8:0.9 9:0.9 10:0.9 11:0.9 12:0.9 13:0.9 14:0.9 15:0.9 16:0.1 17:0.9 18:0.9 19:0.9 20:0.9 21:0.1 22:0.9 23:0.9 24:0.9 25:0.9 26:0.1 27:0.9 28:0.9 29:0.9 30:0.9 
1.0 1:0.9 2:0.9 3:0.9 4:0.9 5:0.9 6:0.9 7:0.9 8:0.9 9:0.9 10:0.9 11:0.1 12:0.9 13:0.9 14:0.9 15:0.9 16:0.1 17:0.9 18:0.9 19:0.9 20:0.9 21:0.1 22:0.9 23:0.9 24:0.9 25:0.9 26:0.1 27:0.9 28:0.9 29:0.9 30:0.9 
0.2360345122687763 1:0.9 2:0.9 3:0.9 4:0.9 5:0.9 6:0.1 7:0.9 8:0.9 9:0.9 10:0.9 11:0.1 12:0.9 13:0.9 14:0.9 15:0.9 16:0.1 17:0.9 18:0.9 19:0.9 20:0.9 21:0.1 22:0.9 23:0.9 24:0.9 25:0.9 26:0.9 27:0.9 28:0.9 29:0.9 30:0.9 
-1.0 1:0.1 2:0.9 3:0.9 4:0.9 5:0.9 6:0.1 7:0.9 8:0.9 9:0.9 10:0.9 11:0.1 12:0.9 13:0.9 14:0.9 15:0.9 16:0.9 17:0.9 18:0.9 19:0.9 20:0.9 21:0.9 22:0.9 23:0.9 24:0.9 25:0.9 26:0.9 27:0.9 28:0.9 29:0.9 30:0.9 
-1.0 1:0.1 2:0.9 3:0.9 4:0.9 5:0.9 6:0.1 7:0.9 8:0.9 9:0.9 10:0.9 11:0.9 12:0.9 13:0.9 14:0.9 15:0.9 16:0.9 17:0.9 18:0.9 19:0.9 20:0.9 21:0.9 22:0.9 23:0.9 24:0.9 25:0.9 26:0.1 27:0.9 28:0.9 29:0.9 30:0.9 
1.0 1:0.1 2:0.9 3:0.9 4:0.9 5:0.9 6:0.9 7:0.9 8:0.9 9:0.9 10:0.9 11:0.9 12:0.9 13:0.9 14:0.9 15:0.9 16:0.9 17:0.9 18:0.9 19:0.9 20:0.9 21:0.1 22:0.9 23:0.9 24:0.9 25:0.9 26:0.1 27:0.9 28:0.9 29:0.9 30:0.9 
1.0 1:0.9 2:0.9 3:0.9 4:0.9 5:0.9 6:0.9 7:0.9 8:0.9 9:0.9 10:0.9 11:0.9 12:0.9 13:0.9 14:0.9 15:0.9 16:0.1 17:0.9 18:0.9 19:0.9 20:0.9 21:0.1 22:0.9 23:0.9 24:0.9 25:0.9 26:0.9 27:0.9 28:0.9 29:0.9 30:0.9 
0.45773807290426877 1:0.9 2:0.9 3:0.9 4:0.9 5:0.9 6:0.9 7:0.9 8:0.1 9:0.9 10:0.9 11:0.9 12:0.9 13:0.1 14:0.9 15:0.9 16:0.9 17:0.9 18:0.9 19:0.9 20:0.9 21:0.9 22:0.9 23:0.9 24:0.9 25:0.9 26:0.9 27:0.9 28:0.9 29:0.9 30:0.9 
0.8976733376554477 1:0.1 2:0.9 3:0.9 4:0.9 5:0.9 6:0.1 7:0.9 8:0.9 9:0.9 10:0.9 11:0.9 12:0.9 13:0.9 14:0.9 15:0.9 16:0.9 17:0.9 18:0.9 19:0.9 20:0.9 21:0.9 22:0.9 23:0.9 24:0.9 25:0.9 26:0.9 27:0.9 28:0.9 29:0.9 30:0.9 
-1.0 1:0.9 2:0.9 3:0.9 4:0.9 5:0.9 6:0.9 7:0.9 8:0.9 9:0.9 10:0.9 11:0.9 12:0.9 13:0.9 14:0.9 15:0.9 16:0.9 17:0.9 18:0.9 19:0.9 20:0.9 21:0.9 22:0.9 23:0.9 24:0.9 25:0.9 26:0.9 27:0.9 28:0.9 29:0.9 30:0.9 
-1.0 1:0.9 2:0.9 3:0.9 4:0.9 5:0.9 6:0.9 7:0.9 8:0.9 9:0.9 10:0.9 11:0.9 12:0.9 13:0.9 14:0.9 15:0.9 16:0.9 17:0.9 18:0.9 19:0.9 20:0.9 21:0.9 22:0.9 23:0.9 24:0.9 25:0.9 26:0.1 27:0.9 28:0.9 29:0.9 30:0.9 
-1.0 1:0.9 2:0.9 3:0.9 4:0.9 5:0.9 6:0.9 7:0.9 8:0.9 9:0.9 10:0.9 11:0.9 12:0.9 13:0.9 14:0.9 15:0.9 16:0.9 17:0.9 18:0.9 19:0.9 20:0.9 21:0.1 22:0.9 23:0.9 24:0.9 25:0.9 26:0.1 27:0.9 28:0.9 29:0.9 30:0.9 
1.0 1:0.9 2:0.9 3:0.9 4:0.9 5:0.9 6:0.9 7:0.9 8:0.9 9:0.9 10:0.9 11:0.9 12:0.9 13:0.9 14:0.9 15:0.9 16:0.1 17:0.9 18:0.9 19:0.9 20:0.9 21:0.1 22:0.9 23:0.9 24:0.9 25:0.9 26:0.1 27:0.9 28:0.9 29:0.9 30:0.9 
-1.0 1:0.9 2:0.9 3:0.1 4:0.9 5:0.9 6:0.9 7:0.9 8:0.1 9:0.9 10:0.9 11:0.9 12:0.9 13:0.9 14:0.9 15:0.9 16:0.9 17:0.9 18:0.9 19:0.9 20:0.9 21:0.9 22:0.9 23:0.9 24:0.9 25:0.9 26:0.9 27:0.9 28:0.9 29:0.9 30:0.9 
-1.0 1:0.9 2:0.9 3:0.9 4:0.1 5:0.9 6:0.9 7:0.9 8:0.9 9:0.9 10:0.9 11:0.9 12:0.9 13:0.9 14:0.9 15:0.9 16:0.9 17:0.9 18:0.9 19:0.9 20:0.9 21:0.9 22:0.9 23:0.9 24:0.9 25:0.9 26:0.9 27:0.1 28:0.9 29:0.9 30:0.9 
0.4896832669538927 1:0.9 2:0.9 3:0.9 4:0.9 5:0.9 6:0.9 7:0.9 8:0.9 9:0.9 10:0.9 11:0.9 12:0.9 13:0.9 14:0.9 15:0.9 16:0.9 17:0.9 18:0.9 19:0.9 20:0.9 21:0.1 22:0.9 23:0.9 24:0.9 25:0.1 26:0.9 27:0.9 28:0.9 29:0.9 30:0.9 
0.07213952796100113 1:0.9 2:0.9 3:0.9 4:0.9 5:0.9 6:0.9 7:0.9 8:0.9 9:0.9 10:0.9 11:0.9 12:0.1 13:0.9 14:0.9 15:0.9 16:0.1 17:0.9 18:0.9 19:0.9 20:0.9 21:0.9 22:0.9 23:0.9 24:0.9 25:0.9 26:0.9 27:0.9 28:0.9 29:0.9 30:0.9 
0.16171673871390851 1:0.9 2:0.9 3:0.9 4:0.9 5:0.9 6:0.9 7:0.9 8:0.1 9:0.9 10:0.9 11:0.9 12:0.1 13:0.9 14:0.9 15:0.9 16:0.9 17:0.9 18:0.9 19:0.9 20:0.9 21:0.9 22:0.9 23:0.9 24:0.9 25:0.9 26:0.9 27:0.9 28:0.9 29:0.9 30:0.9 
0.02850042872170065 1:0.1 2:0.9 3:0.9 4:0.9 5:0.1 6:0.9 7:0.9 8:0.9 9:0.9 10:0.9 11:0.9 12:0.9 13:0.9 14:0.9 15:0.9 16:0.9 17:0.9 18:0.9 19:0.9 20:0.9 21:0.9 22:0.9 23:0.9 24:0.9 25:0.9 26:0.9 27:0.9 28:0.9 29:0.9 30:0.9 
-1.0 1:0.9 2:0.9 3:0.9 4:0.9 5:0.9 6:0.9 7:0.9 8:0.9 9:0.9 10:0.9 11:0.9 12:0.9 13:0.9 14:0.9 15:0.9 16:0.9 17:0.9 18:0.9 19:0.9 20:0.9 21:0.9 22:0.9 23:0.9 24:0.9 25:0.9 26:0.9 27:0.9 28:0.9 29:0.9 30:0.9 
-1.0 1:0.9 2:0.9 3:0.9 4:0.9 5:0.9 6:0.1 7:0.9 8:0.9 9:0.9 10:0.9 11:0.9 12:0.9 13:0.9 14:0.9 15:0.9 16:0.9 17:0.9 18:0.9 19:0.9 20:0.9 21:0.9 22:0.9 23:0.9 24:0.9 25:0.9 26:0.9 27:0.9 28:0.9 29:0.9 30:0.9 
0.7085994829417386 1:0.1 2:0.9 3:0.9 4:0.9 5:0.9 6:0.9 7:0.9 8:0.9 9:0.9 10:0.9 11:0.9 12:0.9 13:0.9 14:0.9 15:0.9 16:0.9 17:0.9 18:0.9 19:0.9 20:0.9 21:0.9 22:0.9 23:0.9 24:0.9 25:0.9 26:0.1 27:0.9 28:0.9 29:0.9 30:0.9 
-1.0 1:0.9 2:0.9 3:0.9 4:0.9 5:0.9 6:0.9 7:0.9 8:0.9 9:0.9 10:0.9 11:0.9 12:0.1 13:0.9 14:0.9 15:0.9 16:0.9 17:0.9 18:0.9 19:0.9 20:0.9 21:0.9 22:0.9 23:0.9 24:0.9 25:0.9 26:0.9 27:0.9 28:0.9 29:0.9 30:0.9 
-1.0 1:0.9 2:0.9 3:0.9 4:0.9 5:0.9 6:0.1 7:0.9 8:0.9 9:0.9 10:0.9 11:0.9 12:0.9 13:0.9 14:0.9 15:0.9 16:0.9 17:0.9 18:0.9 19:0.9 20:0.9 21:0.9 22:0.9 23:0.9 24:0.9 25:0.1 26:0.9 27:0.9 28:0.9 29:0.9 30:0.9 
-1.0 1:0.9 2:0.9 3:0.9 4:0.9 5:0.9 6:0.9 7:0.9 8:0.1 9:0.9 10:0.9 11:0.9 12:0.9 13:0.9 14:0.1 15:0.9 16:0.9 17:0.9 18:0.9 19:0.9 20:0.9 21:0.9 22:0.9 23:0.9 24:0.9 25:0.9 26:0.9 27:0.9 28:0.9 29:0.9 30:0.9 
0.01950863230525668 1:0.9 2:0.9 3:0.9 4:0.9 5:0.1 6:0.9 7:0.9 8:0.9 9:0.9 10:0.9 11:0.1 12:0.9 13:0.9 14:0.9 15:0.9 16:0.9 17:0.9 18:0.9 19:0.9 20:0.9 21:0.9 22:0.9 23:0.9 24:0.9 25:0.9 26:0.9 27:0.9 28:0.1 29:0.9 30:0.9 
0.011185619722972195 1:0.9 2:0.1 3:0.9 4:0.9 5:0.9 6:0.9 7:0.9 8:0.1 9:0.9 10:0.9 11:0.9 12:0.9 13:0.9 14:0.9 15:0.9 16:0.9 17:0.9 18:0.9 19:0.9 20:0.9 21:0.9 22:0.9 23:0.9 24:0.9 25:0.1 26:0.9 27:0.9 28:0.9 29:0.9 30:0.9 
0.1092210854148779 1:0.9 2:0.9 3:0.9 4:0.9 5:0.9 6:0.9 7:0.9 8:0.9 9:0.9 10:0.9 11:0.1 12:0.9 13:0.9 14:0.9 15:0.9 16:0.9 17:0.9 18:0.9 19:0.9 20:0.9 21:0.9 22:0.9 23:0.9 24:0.9 25:0.9 26:0.9 27:0.9 28:0.9 29:0.9 30:0.9 
-1.0 1:0.9 2:0.9 3:0.9 4:0.9 5:0.9 6:0.9 7:0.9 8:0.9 9:0.9 10:0.9 11:0.9 12:0.9 13:0.9 14:0.9 15:0.9 16:0.9 17:0.9 18:0.9 19:0.9 20:0.9 21:0.9 22:0.9 23:0.9 24:0.9 25:0.9 26:0.9 27:0.9 28:0.9 29:0.9 30:0.9 
1.0 1:0.9 2:0.9 3:0.9 4:0.9 5:0.9 6:0.9 7:0.9 8:0.9 9:0.9 10:0.9 11:0.9 12:0.9 13:0.9 14:0.9 15:0.9 16:0.9 17:0.9 18:0.9 19:0.9 20:0.9 21:0.9 22:0.9 23:0.9 24:0.9 25:0.9 26:0.1 27:0.9 28:0.9 29:0.9 30:0.9 
-1.0 1:0.9 2:0.9 3:0.9 4:0.9 5:0.9 6:0.9 7:0.9 8:0.9 9:0.9 10:0.9 11:0.9 12:0.9 13:0.9 14:0.9 15:0.9 16:0.1 17:0.9 18:0.9 19:0.9 20:0.9 21:0.9 22:0.9 23:0.9 24:0.9 25:0.9 26:0.9 27:0.9 28:0.9 29:0.9 30:0.9 
1.0 1:0.9 2:0.9 3:0.9 4:0.9 5:0.9 6:0.1 7:0.9 8:0.9 9:0.9 10:0.9 11:0.9 12:0.9 13:0.9 14:0.9 15:0.9 16:0.9 17:0.9 18:0.9 19:0.9 20:0.9 21:0.1 22:0.9 23:0.9 24:0.9 25:0.9 26:0.9 27:0.9 28:0.9 29:0.9 30:0.9 
-1.0 1:0.1 2:0.9 3:0.9 4:0.9 5:0.9 6:0.9 7:0.9 8:0.9 9:0.9 10:0.9 11:0.9 12:0.9 13:0.9 14:0.9 15:0.9 16:0.1 17:0.9 18:0.9 19:0.9 20:0.9 21:0.9 22:0.9 23:0.9 24:0.9 25:0.9 26:0.9 27:0.9 28:0.9 29:0.9 30:0.9 
0.49402725782800716 1:0.9 2:0.9 3:0.9 4:0.9 5:0.9 6:0.9 7:0.9 8:0.9 9:0.9 10:0.9 11:0.1 12:0.9 13:0.9 14:0.9 15:0.9 16:0.9 17:0.9 18:0.9 19:0.9 20:0.9 21:0.9 22:0.9 23:0.9 24:0.9 25:0.9 26:0.1 27:0.9 28:0.9 29:0.9 30:0.9 
1.0 1:0.9 2:0.9 3:0.9 4:0.9 5:0.9 6:0.1 7:0.9 8:0.9 9:0.9 10:0.9 11:0.9 12:0.9 13:0.9 14:0.9 15:0.9 16:0.9 17:0.9 18:0.9 19:0.9 20:0.9 21:0.1 22:0.9 23:0.9 24:0.9 25:0.9 26:0.9 27:0.9 28:0.9 29:0.9 30:0.9 
0.14271299668875287 1:0.1 2:0.9 3:0.9 4:0.9 5:0.9 6:0.9 7:0.9 8:0.9 9:0.9 10:0.9 11:0.9 12:0.9 13:0.9 14:0.9 15:0.9 16:0.1 17:0.9 18:0.9 19:0.9 20:0.9 21:0.9 22:0.9 23:0.9 24:0.9 25:0.9 26:0.9 27:0.9 28:0.9 29:0.9 30:0.9 
1.0 1:0.9 2:0.9 3:0.9 4:0.9 5:0.9 6:0.9 7:0.9 8:0.9 9:0.9 10:0.9 11:0.1 12:0.9 13:0.9 14:0.9 15:0.9 16:0.9 17:0.9 18:0.9 19:0.9 20:0.9 21:0.9 22:0.9 23:0.9 24:0.9 25:0.9 26:0.9 27:0.9 28:0.9 29:0.9 30:0.9 
-1.0 1:0.9 2:0.9 3:0.9 4:0.9 5:0.9 6:0.9 7:0.9 8:0.9 9:0.9 10:0.9 11:0.9 12:0.9 13:0.9 14:0.9 15:0.9 16:0.9 17:0.9 18:0.9 19:0.9 20:0.9 21:0.9 22:0.9 23:0.9 24:0.9 25:0.9 26:0.9 27:0.9 28:0.9 29:0.9 30:0.9 
1.0 1:0.9 2:0.9 3:0.9 4:0.9 5:0.9 6:0.9 7:0.9 8:0.9 9:0.9 10:0.9 11:0.9 12:0.9 13:0.9 14:0.9 15:0.9 16:0.9 17:0.9 18:0.9 19:0.9 20:0.9 21:0.9 22:0.9 23:0.9 24:0.9 25:0.9 26:0.1 27:0.9 28:0.9 29:0.9 30:0.9 
-1.0 1:0.9 2:0.9 3:0.9 4:0.9 5:0.9 6:0.9 7:0.9 8:0.9 9:0.9 10:0.9 11:0.1 12:0.9 13:0.9 14:0.9 15:0.9 16:0.9 17:0.9 18:0.9 19:0.9 20:0.9 21:0.9 22:0.9 23:0.9 24:0.9 25:0.9 26:0.9 27:0.9 28:0.9 29:0.9 30:0.9 
1.0 1:0.9 2:0.9 3:0.9 4:0.9 5:0.9 6:0.1 7:0.9 8:0.9 9:0.9 10:0.9 11:0.9 12:0.9 13:0.9 14:0.9 15:0.9 16:0.9 17:0.9 18:0.9 19:0.9 20:0.9 21:0.9 22:0.9 23:0.9 24:0.9 25:0.9 26:0.1 27:0.9 28:0.9 29:0.9 30:0.9 
0.46393285191643774 1:0.9 2:0.9 3:0.9 4:0.9 5:0.1 6:0.9 7:0.9 8:0.9 9:0.9 10:0.9 11:0.9 12:0.9 13:0.9 14:0.9 15:0.9 16:0.9 17:0.9 18:0.9 19:0.9 20:0.9 21:0.9 22:0.9 23:0.9 24:0.9 25:0.1 26:0.9 27:0.9 28:0.9 29:0.9 30:0.9 
1.0 1:0.9 2:0.9 3:0.9 4:0.9 5:0.9 6:0.9 7:0.9 8:0.9 9:0.9 10:0.9 11:0.1 12:0.9 13:0.9 14:0.9 15:0.9 16:0.9 17:0.9 18:0.9 19:0.9 20:0.9 21:0.9 22:0.9 23:0.9 24:0.9 25:0.9 26:0.9 27:0.9 28:0.9 29:0.9 30:0.9 
1.0 1:0.9 2:0.9 3:0.9 4:0.9 5:0.9 6:0.9 7:0.1 8:0.9 9:0.9 10:0.9 11:0.9 12:0.9 13:0.9 14:0.9 15:0.9 16:0.9 17:0.9 18:0.9 19:0.9 20:0.9 21:0.9 22:0.9 23:0.9 24:0.9 25:0.9 26:0.9 27:0.9 28:0.9 29:0.9 30:0.9 
0.42831980257107927 1:0.9 2:0.9 3:0.9 4:0.9 5:0.1 6:0.9 7:0.9 8:0.9 9:0.9 10:0.9 11:0.9 12:0.9 13:0.9 14:0.9 15:0.9 16:0.9 17:0.9 18:0.9 19:0.9 20:0.9 21:0.9 22:0.9 23:0.9 24:0.9 25:0.9 26:0.9 27:0.9 28:0.9 29:0.9 30:0.9 
-1.0 1:0.9 2:0.9 3:0.9 4:0.9 5:0.9 6:0.9 7:0.9 8:0.9 9:0.9 10:0.9 11:0.9 12:0.9 13:0.9 14:0.9 15:0.9 16:0.9 17:0.9 18:0.9 19:0.9 20:0.9 21:0.9 22:0.9 23:0.9 24:0.9 25:0.9 26:0.9 27:0.9 28:0.9 29:0.9 30:0.9 
1.0 1:0.9 2:0.9 3:0.9 4:0.9 5:0.9 6:0.9 7:0.9 8:0.9 9:0.9 10:0.9 11:0.9 12:0.9 13:0.9 14:0.9 15:0.9 16:0.9 17:0.9 18:0.9 19:0.9 20:0.9 21:0.9 22:0.9 23:0.9 24:0.9 25:0.9 26:0.1 27:0.9 28:0.9 29:0.9 30:0.9 
-1.0 1:0.9 2:0.9 3:0.9 4:0.9 5:0.9 6:0.9 7:0.9 8:0.9 9:0.9 10:0.9 11:0.9 12:0.9 13:0.9 14:0.9 15:0.9 16:0.9 17:0.9 18:0.9 19:0.9 20:0.1 21:0.9 22:0.9 23:0.9 24:0.9 25:0.9 26:0.9 27:0.9 28:0.9 29:0.9 30:0.9 
1.0 1:0.9 2:0.9 3:0.9 4:0.9 5:0.9 6:0.9 7:0.9 8:0.9 9:0.9 10:0.9 11:0.9 12:0.9 13:0.9 14:0.9 15:0.1 16:0.9 17:0.9 18:0.9 19:0.9 20:0.9 21:0.9 22:0.9 23:0.9 24:0.9 25:0.9 26:0.1 27:0.9 28:0.9 29:0.9 30:0.9 
0.00834573043209615 1:0.9 2:0.9 3:0.9 4:0.9 5:0.9 6:0.9 7:0.9 8:0.9 9:0.9 10:0.9 11:0.9 12:0.9 13:0.9 14:0.1 15:0.9 16:0.9 17:0.9 18:0.9 19:0.9 20:0.9 21:0.9 22:0.9 23:0.9 24:0.9 25:0.1 26:0.9 27:0.9 28:0.9 29:0.9 30:0.9 
-1.0 1:0.9 2:0.9 3:0.9 4:0.9 5:0.1 6:0.9 7:0.9 8:0.9 9:0.9 10:0.9 11:0.9 12:0.9 13:0.9 14:0.9 15:0.9 16:0.1 17:0.9 18:0.9 19:0.9 20:0.9 21:0.9 22:0.9 23:0.9 24:0.9 25:0.9 26:0.9 27:0.9 28:0.9 29:0.9 30:0.9 
-1.0 1:0.9 2:0.9 3:0.9 4:0.9 5:0.9 6:0.9 7:0.9 8:0.9 9:0.9 10:0.9 11:0.1 12:0.9 13:0.9 14:0.9 15:0.9 16:0.9 17:0.9 18:0.9 19:0.9 20:0.9 21:0.9 22:0.9 23:0.9 24:0.9 25:0.9 26:0.1 27:0.9 28:0.9 29:0.9 30:0.9 
1.0 1:0.9 2:0.9 3:0.9 4:0.9 5:0.9 6:0.1 7:0.9 8:0.9 9:0.9 10:0.9 11:0.9 12:0.9 13:0.9 14:0.9 15:0.9 16:0.9 17:0.9 18:0.9 19:0.9 20:0.9 21:0.1 22:0.9 23:0.9 24:0.9 25:0.9 26:0.1 27:0.9 28:0.9 29:0.9 30:0.9 
1.0 1:0.1 2:0.9 3:0.9 4:0.9 5:0.9 6:0.9 7:0.9 8:0.9 9:0.9 10:0.9 11:0.9 12:0.9 13:0.9 14:0.9 15:0.9 16:0.1 17:0.9 18:0.9 19:0.9 20:0.9 21:0.1 22:0.9 23:0.9 24:0.9 25:0.9 26:0.9 27:0.9 28:0.9 29:0.9 30:0.9 
-1.0 1:0.9 2:0.9 3:0.9 4:0.9 5:0.9 6:0.9 7:0.9 8:0.9 9:0.9 10:0.9 11:0.1 12:0.9 13:0.9 14:0.9 15:0.9 16:0.1 17:0.9 18:0.9 19:0.9 20:0.9 21:0.9 22:0.9 23:0.9 24:0.9 25:0.9 26:0.9 27:0.9 28:0.9 29:0.9 30:0.9 
1.0 1:0.1 2:0.9 3:0.9 4:0.9 5:0.9 6:0.1 7:0.9 8:0.9 9:0.9 10:0.9 11:0.9 12:0.9 13:0.9 14:0.9 15:0.9 16:0.9 17:0.9 18:0.9 19:0.9 20:0.9 21:0.1 22:0.9 23:0.9 24:0.9 25:0.9 26:0.9 27:0.9 28:0.9 29:0.9 30:0.9 
1.0 1:0.1 2:0.9 3:0.9 4:0.9 5:0.9 6:0.9 7:0.9 8:0.9 9:0.9 10:0.9 11:0.9 12:0.9 13:0.9 14:0.9 15:0.9 16:0.1 17:0.9 18:0.9 19:0.9 20:0.9 21:0.9 22:0.9 23:0.9 24:0.9 25:0.9 26:0.9 27:0.9 28:0.9 29:0.9 30:0.9 
-1.0 1:0.9 2:0.9 3:0.9 4:0.9 5:0.9 6:0.9 7:0.9 8:0.9 9:0.9 10:0.9 11:0.9 12:0.9 13:0.1 14:0.9 15:0.9 16:0.9 17:0.9 18:0.9 19:0.9 20:0.9 21:0.9 22:0.9 23:0.9 24:0.9 25:0.9 26:0.9 27:0.9 28:0.9 29:0.9 30:0.9 
1.0 1:0.9 2:0.9 3:0.9 4:0.9 5:0.9 6:0.9 7:0.9 8:0.1 9:0.9 10:0.9 11:0.9 12:0.9 13:0.9 14:0.9 15:0.9 16:0.9 17:0.9 18:0.9 19:0.9 20:0.9 21:0.9 22:0.9 23:0.9 24:0.9 25:0.9 26:0.1 27:0.9 28:0.9 29:0.9 30:0.9 
0.9625120060332013 1:0.9 2:0.9 3:0.1 4:0.9 5:0.9 6:0.9 7:0.9 8:0.9 9:0.9 10:0.9 11:0.9 12:0.9 13:0.9 14:0.9 15:0.9 16:0.9 17:0.9 18:0.9 19:0.9 20:0.9 21:0.1 22:0.9 23:0.9 24:0.9 25:0.9 26:0.9 27:0.9 28:0.9 29:0.9 30:0.9 
-1.0 1:0.9 2:0.9 3:0.9 4:0.9 5:0.9 6:0.9 7:0.9 8:0.9 9:0.9 10:0.9 11:0.9 12:0.9 13:0.9 14:0.9 15:0.9 16:0.1 17:0.9 18:0.9 19:0.9 20:0.9 21:0.9 22:0.9 23:0.9 24:0.9 25:0.9 26:0.9 27:0.9 28:0.9 29:0.9 30:0.9 
-1.0 1:0.9 2:0.9 3:0.9 4:0.9 5:0.9 6:0.1 7:0.9 8:0.9 9:0.9 10:0.9 11:0.9 12:0.9 13:0.9 14:0.9 15:0.9 16:0.9 17:0.9 18:0.9 19:0.9 20:0.9 21:0.1 22:0.9 23:0.9 24:0.9 25:0.9 26:0.9 27:0.9 28:0.9 29:0.9 30:0.9 
1.0 1:0.1 2:0.9 3:0.9 4:0.9 5:0.9 6:0.9 7:0.9 8:0.9 9:0.9 10:0.9 11:0.9 12:0.9 13:0.9 14:0.9 15:0.9 16:0.1 17:0.9 18:0.9 19:0.9 20:0.9 21:0.9 22:0.9 23:0.9 24:0.9 25:0.9 26:0.1 27:0.9 28:0.9 29:0.9 30:0.9 
1.0 1:0.9 2:0.9 3:0.9 4:0.9 5:0.9 6:0.9 7:0.9 8:0.9 9:0.9 10:0.9 11:0.1 12:0.9 13:0.9 14:0.9 15:0.9 16:0.9 17:0.9 18:0.9 19:0.9 20:0.9 21:0.1 22:0.9 23:0.9 24:0.9 25:0.9 26:0.9 27:0.9 28:0.9 29:0.9 30:0.9 
1.0 1:0.9 2:0.9 3:0.9 4:0.9 5:0.9 6:0.1 7:0.9 8:0.9 9:0.9 10:0.9 11:0.9 12:0.9 13:0.9 14:0.9 15:0.9 16:0.1 17:0.9 18:0.9 19:0.9 20:0.9 21:0.9 22:0.9 23:0.9 24:0.9 25:0.9 26:0.9 27:0.9 28:0.9 29:0.9 30:0.9 
0.3006000114985416 1:0.9 2:0.9 3:0.1 4:0.9 5:0.9 6:0.9 7:0.9 8:0.9 9:0.9 10:0.9 11:0.9 12:0.9 13:0.1 14:0.9 15:0.9 16:0.9 17:0.9 18:0.9 19:0.9 20:0.9 21:0.9 22:0.9 23:0.9 24:0.9 25:0.9 26:0.9 27:0.9 28:0.9 29:0.9 30:0.9 
0.019854411257434347 1:0.1 2:0.9 3:0.9 4:0.9 5:0.9 6:0.9 7:0.9 8:0.9 9:0.9 10:0.9 11:0.1 12:0.9 13:0.9 14:0.9 15:0.9 16:0.9 17:0.9 18:0.9 19:0.9 20:0.9 21:0.9 22:0.9 23:0.9 24:0.9 25:0.9 26:0.9 27:0.9 28:0.9 29:0.9 30:0.9 
-1.0 1:0.9 2:0.9 3:0.9 4:0.9 5:0.9 6:0.9 7:0.1 8:0.9 9:0.9 10:0.9 11:0.9 12:0.9 13:0.9 14:0.9 15:0.9 16:0.9 17:0.9 18:0.9 19:0.9 20:0.9 21:0.9 22:0.9 23:0.9 24:0.9 25:0.9 26:0.9 27:0.9 28:0.9 29:0.9 30:0.9 
0.013059667959133759 1:0.9 2:0.9 3:0.9 4:0.9 5:0.9 6:0.9 7:0.9 8:0.9 9:0.9 10:0.9 11:0.9 12:0.9 13:0.9 14:0.9 15:0.9 16:0.9 17:0.9 18:0.9 19:0.9 20:0.9 21:0.1 22:0.9 23:0.9 24:0.9 25:0.9 26:0.9 27:0.9 28:0.9 29:0.9 30:0.9 
1.0 1:0.9 2:0.9 3:0.9 4:0.9 5:0.9 6:0.9 7:0.9 8:0.9 9:0.9 10:0.9 11:0.9 12:0.9 13:0.9 14:0.9 15:0.9 16:0.1 17:0.9 18:0.9 19:0.9 20:0.9 21:0.9 22:0.9 23:0.9 24:0.9 25:0.9 26:0.9 27:0.9 28:0.9 29:0.9 30:0.9 
1.0 1:0.9 2:0.9 3:0.9 4:0.9 5:0.9 6:0.9 7:0.9 8:0.9 9:0.9 10:0.9 11:0.1 12:0.9 13:0.9 14:0.9 15:0.9 16:0.9 17:0.9 18:0.9 19:0.9 20:0.9 21:0.9 22:0.9 23:0.9 24:0.9 25:0.9 26:0.9 27:0.9 28:0.9 29:0.9 30:0.9 
0.3754987595738129 1:0.9 2:0.9 3:0.9 4:0.9 5:0.9 6:0.9 7:0.9 8:0.1 9:0.9 10:0.9 11:0.9 12:0.9 13:0.9 14:0.9 15:0.9 16:0.9 17:0.9 18:0.9 19:0.9 20:0.9 21:0.9 22:0.9 23:0.9 24:0.9 25:0.9 26:0.9 27:0.9 28:0.9 29:0.9 30:0.9 
-1.0 1:0.9 2:0.9 3:0.9 4:0.9 5:0.9 6:0.9 7:0.1 8:0.9 9:0.9 10:0.9 11:0.9 12:0.9 13:0.9 14:0.9 15:0.9 16:0.9 17:0.9 18:0.9 19:0.9 20:0.9 21:0.9 22:0.9 23:0.9 24:0.9 25:0.9 26:0.9 27:0.9 28:0.9 29:0.9 30:0.9 
0.007987334505120056 1:0.1 2:0.9 3:0.9 4:0.9 5:0.9 6:0.9 7:0.9 8:0.9 9:0.9 10:0.9 11:0.9 12:0.9 13:0.9 14:0.9 15:0.9 16:0.9 17:0.9 18:0.9 19:0.9 20:0.9 21:0.9 22:0.9 23:0.9 24:0.9 25:0.1 26:0.9 27:0.9 28:0.9 29:0.9 30:0.9 
1.0 1:0.9 2:0.9 3:0.9 4:0.9 5:0.9 6:0.9 7:0.9 8:0.9 9:0.9 10:0.9 11:0.9 12:0.9 13:0.9 14:0.9 15:0.9 16:0.9 17:0.9 18:0.9 19:0.9 20:0.9 21:0.1 22:0.9 23:0.9 24:0.9 25:0.9 26:0.9 27:0.9 28:0.9 29:0.9 30:0.9 
1.0 1:0.9 2:0.9 3:0.9 4:0.9 5:0.9 6:0.9 7:0.9 8:0.9 9:0.9 10:0.9 11:0.9 12:0.9 13:0.9 14:0.9 15:0.9 16:0.9 17:0.9 18:0.9 19:0.9 20:0.1 21:0.9 22:0.9 23:0.9 24:0.9 25:0.9 26:0.9 27:0.9 28:0.9 29:0.9 30:0.9 
1.0 1:0.9 2:0.9 3:0.9 4:0.9 5:0.9 6:0.9 7:0.9 8:0.9 9:0.9 10:0.9 11:0.9 12:0.9 13:0.9 14:0.9 15:0.9 16:0.1 17:0.9 18:0.9 19:0.9 20:0.9 21:0.9 22:0.9 23:0.9 24:0.9 25:0.9 26:0.9 27:0.9 28:0.9 29:0.9 30:0.9 
0.24774750416153968 1:0.9 2:0.9 3:0.9 4:0.9 5:0.9 6:0.9 7:0.9 8:0.9 9:0.9 10:0.9 11:0.9 12:0.9 13:0.1 14:0.9 15:0.9 16:0.9 17:0.9 18:0.9 19:0.9 20:0.9 21:0.9 22:0.9 23:0.9 24:0.9 25:0.9 26:0.9 27:0.9 28:0.9 29:0.9 30:0.9 
1.0 1:0.9 2:0.9 3:0.9 4:0.9 5:0.9 6:0.9 7:0.9 8:0.9 9:0.9 10:0.9 11:0.1 12:0.9 13:0.9 14:0.9 15:0.9 16:0.9 17:0.9 18:0.9 19:0.9 20:0.9 21:0.9 22:0.9 23:0.9 24:0.9 25:0.9 26:0.9 27:0.9 28:0.9 29:0.9 30:0.9 
1.0 1:0.9 2:0.9 3:0.9 4:0.9 5:0.9 6:0.9 7:0.9 8:0.1 9:0.9 10:0.9 11:0.9 12:0.9 13:0.9 14:0.9 15:0.9 16:0.9 17:0.9 18:0.9 19:0.9 20:0.9 21:0.9 22:0.9 23:0.9 24:0.9 25:0.9 26:0.9 27:0.9 28:0.9 29:0.9 30:0.9 
1.0 1:0.9 2:0.9 3:0.9 4:0.9 5:0.9 6:0.9 7:0.1 8:0.9 9:0.9 10:0.9 11:0.9 12:0.9 13:0.9 14:0.9 15:0.9 16:0.9 17:0.9 18:0.9 19:0.9 20:0.9 21:0.9 22:0.9 23:0.9 24:0.9 25:0.9 26:0.9 27:0.9 28:0.9 29:0.9 30:0.9 
1.0 1:0.9 2:0.9 3:0.9 4:0.9 5:0.1 6:0.9 7:0.9 8:0.9 9:0.9 10:0.9 11:0.9 12:0.9 13:0.9 14:0.9 15:0.9 16:0.9 17:0.9 18:0.9 19:0.9 20:0.9 21:0.9 22:0.9 23:0.9 24:0.9 25:0.9 26:0.9 27:0.9 28:0.9 29:0.9 30:0.9 
1.0 1:0.9 2:0.9 3:0.9 4:0.9 5:0.9 6:0.9 7:0.9 8:0.9 9:0.9 10:0.9 11:0.9 12:0.9 13:0.9 14:0.9 15:0.9 16:0.9 17:0.9 18:0.9 19:0.9 20:0.9 21:0.9 22:0.9 23:0.9 24:0.9 25:0.9 26:0.9 27:0.9 28:0.9 29:0.9 30:0.9 
1.0 1:0.9 2:0.9 3:0.9 4:0.9 5:0.9 6:0.9 7:0.9 8:0.9 9:0.9 10:0.9 11:0.9 12:0.9 13:0.9 14:0.9 15:0.9 16:0.9 17:0.9 18:0.9 19:0.9 20:0.9 21:0.9 22:0.9 23:0.9 24:0.9 25:0.9 26:0.9 27:0.9 28:0.9 29:0.9 30:0.9 
1.0 1:0.9 2:0.9 3:0.9 4:0.9 5:0.9 6:0.9 7:0.9 8:0.9 9:0.9 10:0.9 11:0.9 12:0.9 13:0.9 14:0.9 15:0.9 16:0.9 17:0.9 18:0.9 19:0.9 20:0.9 21:0.9 22:0.9 23:0.9 24:0.9 25:0.9 26:0.9 27:0.9 28:0.9 29:0.9 30:0.9 
1.0 1:0.9 2:0.9 3:0.9 4:0.9 5:0.9 6:0.9 7:0.9 8:0.9 9:0.9 10:0.9 11:0.9 12:0.9 13:0.9 14:0.9 15:0.9 16:0.9 17:0.9 18:0.9 19:0.9 20:0.9 21:0.9 22:0.9 23:0.9 24:0.9 25:0.9 26:0.9 27:0.9 28:0.9 29:0.9 30:0.9 
1.0 1:0.9 2:0.9 3:0.9 4:0.9 5:0.9 6:0.9 7:0.9 8:0.9 9:0.9 10:0.9 11:0.9 12:0.9 13:0.9 14:0.9 15:0.9 16:0.9 17:0.9 18:0.9 19:0.9 20:0.9 21:0.9 22:0.9 23:0.9 24:0.9 25:0.9 26:0.9 27:0.9 28:0.9 29:0.9 30:0.9 
0.8614328377875341 1:0.9 2:0.9 3:0.9 4:0.9 5:0.9 6:0.9 7:0.9 8:0.9 9:0.9 10:0.9 11:0.9 12:0.9 13:0.9 14:0.9 15:0.9 16:0.9 17:0.9 18:0.9 19:0.9 20:0.9 21:0.9 22:0.9 23:0.9 24:0.9 25:0.9 26:0.9 27:0.9 28:0.9 29:0.9 30:0.9 
-1.0 1:0.9 2:0.9 3:0.9 4:0.9 5:0.9 6:0.9 7:0.9 8:0.9 9:0.9 10:0.9 11:0.9 12:0.9 13:0.9 14:0.9 15:0.9 16:0.9 17:0.9 18:0.9 19:0.9 20:0.9 21:0.9 22:0.9 23:0.9 24:0.9 25:0.9 26:0.9 27:0.9 28:0.9 29:0.9 30:0.9 
0.9037973921666033 1:0.9 2:0.9 3:0.9 4:0.9 5:0.9 6:0.9 7:0.9 8:0.9 9:0.9 10:0.9 11:0.9 12:0.9 13:0.9 14:0.9 15:0.9 16:0.9 17:0.9 18:0.9 19:0.9 20:0.9 21:0.9 22:0.9 23:0.9 24:0.9 25:0.9 26:0.1 27:0.9 28:0.9 29:0.9 30:0.9 
1.0 1:0.9 2:0.9 3:0.9 4:0.9 5:0.9 6:0.9 7:0.9 8:0.9 9:0.9 10:0.9 11:0.9 12:0.9 13:0.9 14:0.9 15:0.9 16:0.9 17:0.9 18:0.9 19:0.9 20:0.9 21:0.1 22:0.9 23:0.9 24:0.9 25:0.9 26:0.9 27:0.9 28:0.9 29:0.9 30:0.9 
-1.0 1:0.9 2:0.9 3:0.9 4:0.9 5:0.9 6:0.9 7:0.9 8:0.9 9:0.9 10:0.9 11:0.9 12:0.9 13:0.9 14:0.9 15:0.9 16:0.9 17:0.9 18:0.9 19:0.9 20:0.1 21:0.9 22:0.9 23:0.9 24:0.9 25:0.9 26:0.9 27:0.9 28:0.9 29:0.9 30:0.9 
-1.0 1:0.9 2:0.9 3:0.9 4:0.9 5:0.9 6:0.9 7:0.9 8:0.9 9:0.9 10:0.9 11:0.9 12:0.9 13:0.9 14:0.9 15:0.1 16:0.9 17:0.9 18:0.9 19:0.9 20:0.9 21:0.9 22:0.9 23:0.9 24:0.9 25:0.9 26:0.1 27:0.9 28:0.9 29:0.9 30:0.9 
0.13096343959912354 1:0.9 2:0.9 3:0.9 4:0.9 5:0.9 6:0.9 7:0.9 8:0.9 9:0.9 10:0.1 11:0.9 12:0.9 13:0.9 14:0.9 15:0.9 16:0.9 17:0.9 18:0.9 19:0.9 20:0.9 21:0.1 22:0.9 23:0.9 24:0.9 25:0.9 26:0.1 27:0.9 28:0.9 29:0.9 30:0.9 
-1.0 1:0.9 2:0.9 3:0.9 4:0.9 5:0.1 6:0.9 7:0.9 8:0.9 9:0.9 10:0.9 11:0.9 12:0.9 13:0.9 14:0.9 15:0.9 16:0.1 17:0.9 18:0.9 19:0.9 20:0.9 21:0.1 22:0.9 23:0.9 24:0.9 25:0.9 26:0.9 27:0.9 28:0.9 29:0.9 30:0.9 
-1.0 1:0.9 2:0.9 3:0.9 4:0.9 5:0.9 6:0.1 7:0.9 8:0.9 9:0.9 10:0.9 11:0.1 12:0.9 13:0.9 14:0.9 15:0.9 16:0.9 17:0.9 18:0.9 19:0.9 20:0.9 21:0.1 22:0.9 23:0.9 24:0.9 25:0.9 26:0.9 27:0.9 28:0.9 29:0.9 30:0.9 
-1.0 1:0.1 2:0.9 3:0.9 4:0.9 5:0.9 6:0.1 7:0.9 8:0.9 9:0.9 10:0.9 11:0.9 12:0.9 13:0.9 14:0.9 15:0.9 16:0.1 17:0.9 18:0.9 19:0.9 20:0.9 21:0.9 22:0.9 23:0.9 24:0.9 25:0.9 26:0.1 27:0.9 28:0.9 29:0.9 30:0.9 
-1.0 1:0.1 2:0.9 3:0.9 4:0.9 5:0.9 6:0.9 7:0.9 8:0.9 9:0.9 10:0.9 11:0.1 12:0.9 13:0.9 14:0.9 15:0.9 16:0.9 17:0.9 18:0.9 19:0.9 20:0.9 21:0.1 22:0.9 23:0.9 24:0.9 25:0.9 26:0.1 27:0.9 28:0.9 29:0.9 30:0.9 
-1.0 1:0.9 2:0.9 3:0.9 4:0.9 5:0.9 6:0.1 7:0.9 8:0.9 9:0.9 10:0.9 11:0.9 12:0.9 13:0.9 14:0.9 15:0.9 16:0.1 17:0.9 18:0.9 19:0.9 20:0.9 21:0.1 22:0.9 23:0.9 24:0.9 25:0.9 26:0.1 27:0.9 28:0.9 29:0.9 30:0.9 
1.0 1:0.1 2:0.9 3:0.9 4:0.9 5:0.9 6:0.9 7:0.9 8:0.9 9:0.9 10:0.9 11:0.1 12:0.9 13:0.9 14:0.9 15:0.9 16:0.1 17:0.9 18:0.9 19:0.9 20:0.9 21:0.1 22:0.9 23:0.9 24:0.9 25:0.9 26:0.1 27:0.9 28:0.9 29:0.9 30:0.9 
1.0 1:0.9 2:0.9 3:0.9 4:0.9 5:0.9 6:0.1 7:0.9 8:0.9 9:0.9 10:0.9 11:0.1 12:0.9 13:0.9 14:0.9 15:0.9 16:0.1 17:0.9 18:0.9 19:0.9 20:0.9 21:0.1 22:0.9 23:0.9 24:0.9 25:0.9 26:0.9 27:0.9 28:0.9 29:0.9 30:0.9 
0.502687697721422 1:0.1 2:0.9 3:0.9 4:0.9 5:0.9 6:0.1 7:0.9 8:0.9 9:0.9 10:0.9 11:0.1 12:0.9 13:0.9 14:0.9 15:0.9 16:0.1 17:0.9 18:0.9 19:0.9 20:0.9 21:0.9 22:0.9 23:0.9 24:0.9 25:0.9 26:0.9 27:0.9 28:0.9 29:0.9 30:0.9 
0.513170145794611 1:0.1 2:0.9 3:0.9 4:0.9 5:0.9 6:0.1 7:0.9 8:0.9 9:0.9 10:0.9 11:0.1 12:0.9 13:0.9 14:0.9 15:0.9 16:0.9 17:0.9 18:0.9 19:0.9 20:0.9 21:0.9 22:0.9 23:0.9 24:0.9 25:0.9 26:0.9 27:0.9 28:0.9 29:0.9 30:0.9 
0.9762602813787323 1:0.9 2:0.9 3:0.1 4:0.9 5:0.9 6:0.9 7:0.9 8:0.1 9:0.9 10:0.9 11:0.9 12:0.9 13:0.9 14:0.9 15:0.9 16:0.9 17:0.9 18:0.9 19:0.9 20:0.9 21:0.9 22:0.9 23:0.9 24:0.9 25:0.9 26:0.9 27:0.9 28:0.9 29:0.9 30:0.9 
-1.0 1:0.1 2:0.9 3:0.9 4:0.9 5:0.9 6:0.1 7:0.9 8:0.9 9:0.9 10:0.9 11:0.9 12:0.9 13:0.9 14:0.9 15:0.9 16:0.9 17:0.9 18:0.9 19:0.9 20:0.9 21:0.9 22:0.9 23:0.9 24:0.9 25:0.9 26:0.9 27:0.9 28:0.9 29:0.9 30:0.9 
1.0 1:0.1 2:0.9 3:0.9 4:0.9 5:0.9 6:0.9 7:0.9 8:0.9 9:0.9 10:0.9 11:0.9 12:0.9 13:0.9 14:0.9 15:0.9 16:0.9 17:0.9 18:0.9 19:0.9 20:0.9 21:0.9 22:0.9 23:0.9 24:0.9 25:0.9 26:0.1 27:0.9 28:0.9 29:0.9 30:0.9 
0.00885090550635589 1:0.9 2:0.9 3:0.9 4:0.9 5:0.9 6:0.9 7:0.9 8:0.9 9:0.9 10:0.9 11:0.9 12:0.9 13:0.9 14:0.9 15:0.9 16:0.9 17:0.9 18:0.9 19:0.9 20:0.9 21:0.9 22:0.9 23:0.9 24:0.9 25:0.1 26:0.9 27:0.9 28:0.9 29:0.9 30:0.9 
1.0 1:0.9 2:0.9 3:0.9 4:0.9 5:0.9 6:0.9 7:0.9 8:0.9 9:0.9 10:0.9 11:0.9 12:0.9 13:0.9 14:0.9 15:0.9 16:0.9 17:0.9 18:0.9 19:0.9 20:0.9 21:0.1 22:0.9 23:0.9 24:0.9 25:0.9 26:0.9 27:0.9 28:0.9 29:0.9 30:0.9 
1.0 1:0.9 2:0.9 3:0.9 4:0.9 5:0.9 6:0.9 7:0.9 8:0.9 9:0.9 10:0.9 11:0.9 12:0.9 13:0.9 14:0.9 15:0.9 16:0.9 17:0.9 18:0.9 19:0.9 20:0.1 21:0.9 22:0.9 23:0.9 24:0.9 25:0.9 26:0.9 27:0.9 28:0.9 29:0.9 30:0.9 
0.9575845640332713 1:0.9 2:0.9 3:0.9 4:0.9 5:0.9 6:0.9 7:0.9 8:0.9 9:0.9 10:0.9 11:0.9 12:0.9 13:0.9 14:0.9 15:0.9 16:0.1 17:0.9 18:0.9 19:0.9 20:0.9 21:0.9 22:0.9 23:0.9 24:0.9 25:0.9 26:0.9 27:0.9 28:0.9 29:0.9 30:0.9 
0.9718484470500544 1:0.9 2:0.9 3:0.9 4:0.9 5:0.9 6:0.9 7:0.9 8:0.9 9:0.9 10:0.9 11:0.9 12:0.9 13:0.9 14:0.1 15:0.9 16:0.9 17:0.9 18:0.9 19:0.9 20:0.9 21:0.9 22:0.9 23:0.9 24:0.9 25:0.9 26:0.9 27:0.9 28:0.9 29:0.9 30:0.9 
1.0 1:0.9 2:0.9 3:0.9 4:0.9 5:0.9 6:0.9 7:0.9 8:0.9 9:0.9 10:0.9 11:0.9 12:0.9 13:0.1 14:0.9 15:0.9 16:0.9 17:0.9 18:0.9 19:0.9 20:0.9 21:0.9 22:0.9 23:0.9 24:0.9 25:0.9 26:0.9 27:0.9 28:0.9 29:0.9 30:0.9 
0.7714999965307278 1:0.9 2:0.9 3:0.9 4:0.9 5:0.9 6:0.9 7:0.9 8:0.9 9:0.9 10:0.9 11:0.9 12:0.1 13:0.9 14:0.9 15:0.9 16:0.9 17:0.9 18:0.9 19:0.9 20:0.9 21:0.9 22:0.9 23:0.9 24:0.9 25:0.9 26:0.9 27:0.9 28:0.9 29:0.9 30:0.9 
1.0 1:0.9 2:0.9 3:0.9 4:0.9 5:0.9 6:0.9 7:0.9 8:0.9 9:0.9 10:0.9 11:0.1 12:0.9 13:0.9 14:0.9 15:0.9 16:0.9 17:0.9 18:0.9 19:0.9 20:0.9 21:0.9 22:0.9 23:0.9 24:0.9 25:0.9 26:0.9 27:0.9 28:0.9 29:0.9 30:0.9 
-1.0 1:0.9 2:0.9 3:0.9 4:0.9 5:0.9 6:0.9 7:0.9 8:0.1 9:0.9 10:0.9 11:0.9 12:0.9 13:0.9 14:0.9 15:0.9 16:0.9 17:0.9 18:0.9 19:0.9 20:0.9 21:0.9 22:0.9 23:0.9 24:0.9 25:0.9 26:0.9 27:0.9 28:0.9 29:0.9 30:0.9 
1.0 1:0.9 2:0.9 3:0.9 4:0.1 5:0.9 6:0.9 7:0.9 8:0.9 9:0.9 10:0.9 11:0.9 12:0.9 13:0.9 14:0.9 15:0.9 16:0.9 17:0.9 18:0.9 19:0.9 20:0.9 21:0.9 22:0.9 23:0.9 24:0.9 25:0.9 26:0.9 27:0.1 28:0.9 29:0.9 30:0.9 
0.7673584857509463 1:0.9 2:0.9 3:0.1 4:0.9 5:0.9 6:0.9 7:0.9 8:0.9 9:0.9 10:0.9 11:0.9 12:0.9 13:0.9 14:0.9 15:0.9 16:0.9 17:0.9 18:0.9 19:0.9 20:0.9 21:0.9 22:0.9 23:0.9 24:0.9 25:0.9 26:0.1 27:0.9 28:0.9 29:0.9 30:0.9 
