encog,SVM,java,3.1.0,1,1400510381009
[SVM]
[SVM:PARAMS]
[SVM:SVM-PARAM]
inputCount=30
C=1
cacheSize=100
coef0=0
degree=3
eps=0.001
gamma=0.0333333333
kernelType=2
nrWeight=0
nu=0.5
p=0.1
probability=0
shrinking=1
svmType=3
weight=
weightLabel=
[SVM:SVM-MODEL]
svm_type epsilon_svr
kernel_type rbf
gamma 0.03333333333333333
nr_class 2
total_sv 34
rho -0.7343302960594722
SV
-1.0 1:0.7958333333333333 2:0.7791666666666667 3:0.7791666666666667 4:0.7791666666666667 5:0.7791666666666667 6:0.7791666666666667 7:0.7791666666666667 8:0.7791666666666667 9:0.7791666666666667 10:0.7791666666666667 11:0.7791666666666667 12:0.7791666666666667 13:0.7791666666666667 14:0.7791666666666667 15:0.7791666666666667 16:0.7791666666666667 17:0.7791666666666667 18:0.7791666666666667 19:0.7791666666666667 20:0.7791666666666667 21:0.7750000000000001 22:0.7791666666666667 23:0.7791666666666667 24:0.7791666666666667 25:0.7791666666666667 26:0.7791666666666667 27:0.7791666666666667 28:0.7791666666666667 29:0.7791666666666667 30:0.7791666666666667 
-1.0 1:0.7791666666666667 2:0.7791666666666667 3:0.7791666666666667 4:0.7791666666666667 5:0.7791666666666667 6:0.7791666666666667 7:0.7791666666666667 8:0.7791666666666667 9:0.7791666666666667 10:0.7791666666666667 11:0.7833333333333334 12:0.7791666666666667 13:0.7791666666666667 14:0.7791666666666667 15:0.7791666666666667 16:0.7750000000000001 17:0.7791666666666667 18:0.7791666666666667 19:0.7791666666666667 20:0.7791666666666667 21:0.7833333333333334 22:0.7791666666666667 23:0.7791666666666667 24:0.7791666666666667 25:0.7791666666666667 26:0.7791666666666667 27:0.7791666666666667 28:0.7791666666666667 29:0.7791666666666667 30:0.7791666666666667 
1.0 1:0.7750000000000001 2:0.7791666666666667 3:0.7791666666666667 4:0.7791666666666667 5:0.7791666666666667 6:0.7750000000000001 7:0.7791666666666667 8:0.7791666666666667 9:0.7791666666666667 10:0.7791666666666667 11:0.7750000000000001 12:0.7791666666666667 13:0.7791666666666667 14:0.7791666666666667 15:0.7791666666666667 16:0.7875 17:0.7791666666666667 18:0.7791666666666667 19:0.7791666666666667 20:0.7791666666666667 21:0.7750000000000001 22:0.7791666666666667 23:0.7791666666666667 24:0.7791666666666667 25:0.7791666666666667 26:0.7374999999999999 27:0.7791666666666667 28:0.7791666666666667 29:0.7791666666666667 30:0.7791666666666667 
0.7721267570391095 1:0.7875 2:0.7791666666666667 3:0.7791666666666667 4:0.7791666666666667 5:0.7791666666666667 6:0.7750000000000001 7:0.7791666666666667 8:0.7791666666666667 9:0.7791666666666667 10:0.7791666666666667 11:0.7374999999999999 12:0.7791666666666667 13:0.7791666666666667 14:0.7791666666666667 15:0.7791666666666667 16:0.8166666666666667 17:0.7791666666666667 18:0.7791666666666667 19:0.7791666666666667 20:0.7791666666666667 21:0.7666666666666667 22:0.7791666666666667 23:0.7791666666666667 24:0.7791666666666667 25:0.7791666666666667 26:0.7541666666666667 27:0.7791666666666667 28:0.7791666666666667 29:0.7791666666666667 30:0.7791666666666667 
1.0 1:0.7791666666666667 2:0.7791666666666667 3:0.7791666666666667 4:0.7791666666666667 5:0.7791666666666667 6:0.7875 7:0.7791666666666667 8:0.7791666666666667 9:0.7791666666666667 10:0.7791666666666667 11:0.7750000000000001 12:0.7791666666666667 13:0.7791666666666667 14:0.7791666666666667 15:0.7791666666666667 16:0.7625000000000001 17:0.7791666666666667 18:0.7791666666666667 19:0.7791666666666667 20:0.7791666666666667 21:0.7916666666666669 22:0.7791666666666667 23:0.7791666666666667 24:0.7791666666666667 25:0.7791666666666667 26:0.7833333333333334 27:0.7791666666666667 28:0.7791666666666667 29:0.7791666666666667 30:0.7791666666666667 
1.0 1:0.7875 2:0.7791666666666667 3:0.7791666666666667 4:0.7791666666666667 5:0.7791666666666667 6:0.7750000000000001 7:0.7791666666666667 8:0.7791666666666667 9:0.7791666666666667 10:0.7791666666666667 11:0.7625000000000001 12:0.7791666666666667 13:0.7791666666666667 14:0.7791666666666667 15:0.7791666666666667 16:0.7916666666666669 17:0.7791666666666667 18:0.7791666666666667 19:0.7791666666666667 20:0.7791666666666667 21:0.7833333333333334 22:0.7791666666666667 23:0.7791666666666667 24:0.7791666666666667 25:0.7791666666666667 26:0.8125 27:0.7791666666666667 28:0.7791666666666667 29:0.7791666666666667 30:0.7791666666666667 
-1.0 1:0.7791666666666667 2:0.7791666666666667 3:0.7833333333333334 4:0.7791666666666667 5:0.7791666666666667 6:0.7791666666666667 7:0.7791666666666667 8:0.8125 9:0.7791666666666667 10:0.7791666666666667 11:0.7791666666666667 12:0.7791666666666667 13:0.8125 14:0.7791666666666667 15:0.7791666666666667 16:0.7791666666666667 17:0.7791666666666667 18:0.7791666666666667 19:0.7791666666666667 20:0.7791666666666667 21:0.7750000000000001 22:0.7791666666666667 23:0.7791666666666667 24:0.7791666666666667 25:0.7791666666666667 26:0.7791666666666667 27:0.7791666666666667 28:0.7791666666666667 29:0.7791666666666667 30:0.7791666666666667 
1.0 1:0.7875 2:0.7791666666666667 3:0.7791666666666667 4:0.7791666666666667 5:0.7791666666666667 6:0.7750000000000001 7:0.7791666666666667 8:0.7791666666666667 9:0.7791666666666667 10:0.7791666666666667 11:0.7666666666666667 12:0.7791666666666667 13:0.7791666666666667 14:0.7791666666666667 15:0.7791666666666667 16:0.7958333333333333 17:0.7791666666666667 18:0.7791666666666667 19:0.7791666666666667 20:0.7791666666666667 21:0.7958333333333333 22:0.7791666666666667 23:0.7791666666666667 24:0.7791666666666667 25:0.7791666666666667 26:0.7791666666666667 27:0.7791666666666667 28:0.7791666666666667 29:0.7791666666666667 30:0.7791666666666667 
1.0 1:0.7791666666666667 2:0.7791666666666667 3:0.7791666666666667 4:0.7791666666666667 5:0.7958333333333333 6:0.7791666666666667 7:0.7791666666666667 8:0.7791666666666667 9:0.7791666666666667 10:0.7791666666666667 11:0.7791666666666667 12:0.7791666666666667 13:0.7791666666666667 14:0.7791666666666667 15:0.8083333333333335 16:0.7791666666666667 17:0.7791666666666667 18:0.7791666666666667 19:0.7791666666666667 20:0.7791666666666667 21:0.7791666666666667 22:0.7791666666666667 23:0.8041666666666667 24:0.7791666666666667 25:0.7791666666666667 26:0.7791666666666667 27:0.7791666666666667 28:0.7791666666666667 29:0.7791666666666667 30:0.7791666666666667 
-1.0 1:0.7791666666666667 2:0.7791666666666667 3:0.7666666666666667 4:0.7791666666666667 5:0.7791666666666667 6:0.7791666666666667 7:0.7791666666666667 8:0.7875 9:0.7791666666666667 10:0.7791666666666667 11:0.7791666666666667 12:0.7791666666666667 13:0.7750000000000001 14:0.7791666666666667 15:0.7791666666666667 16:0.7791666666666667 17:0.7791666666666667 18:0.7958333333333333 19:0.7791666666666667 20:0.7791666666666667 21:0.7791666666666667 22:0.7791666666666667 23:0.7791666666666667 24:0.7791666666666667 25:0.7791666666666667 26:0.7791666666666667 27:0.7791666666666667 28:0.7791666666666667 29:0.7791666666666667 30:0.7791666666666667 
1.0 1:0.7791666666666667 2:0.7791666666666667 3:0.7791666666666667 4:0.7875 5:0.7791666666666667 6:0.7791666666666667 7:0.7791666666666667 8:0.7791666666666667 9:0.7750000000000001 10:0.7791666666666667 11:0.7791666666666667 12:0.7791666666666667 13:0.7791666666666667 14:0.7958333333333333 15:0.7791666666666667 16:0.7791666666666667 17:0.7791666666666667 18:0.7791666666666667 19:0.7791666666666667 20:0.7791666666666667 21:0.7791666666666667 22:0.7791666666666667 23:0.7791666666666667 24:0.7791666666666667 25:0.7791666666666667 26:0.7791666666666667 27:0.1375 28:0.7791666666666667 29:0.7791666666666667 30:0.7791666666666667 
-1.0 1:0.7958333333333333 2:0.7791666666666667 3:0.7791666666666667 4:0.7791666666666667 5:0.7791666666666667 6:0.7791666666666667 7:0.7791666666666667 8:0.7791666666666667 9:0.7791666666666667 10:0.7791666666666667 11:0.7791666666666667 12:0.7791666666666667 13:0.7791666666666667 14:0.1375 15:0.7791666666666667 16:0.7791666666666667 17:0.7791666666666667 18:0.9 19:0.7791666666666667 20:0.7791666666666667 21:0.7791666666666667 22:0.7791666666666667 23:0.7791666666666667 24:0.7791666666666667 25:0.7791666666666667 26:0.7791666666666667 27:0.7791666666666667 28:0.7791666666666667 29:0.7791666666666667 30:0.7791666666666667 
0.18197333100290536 1:0.9 2:0.7791666666666667 3:0.7791666666666667 4:0.7791666666666667 5:0.7791666666666667 6:0.7791666666666667 7:0.7791666666666667 8:0.7791666666666667 9:0.7791666666666667 10:0.7791666666666667 11:0.7791666666666667 12:0.7791666666666667 13:0.7791666666666667 14:0.14166666666666666 15:0.7791666666666667 16:0.7791666666666667 17:0.7791666666666667 18:0.7791666666666667 19:0.7791666666666667 20:0.7791666666666667 21:0.7791666666666667 22:0.6541666666666667 23:0.7791666666666667 24:0.7791666666666667 25:0.7791666666666667 26:0.7791666666666667 27:0.7791666666666667 28:0.7791666666666667 29:0.7791666666666667 30:0.7791666666666667 
-1.0 1:0.7791666666666667 2:0.7791666666666667 3:0.7791666666666667 4:0.7791666666666667 5:0.7791666666666667 6:0.7791666666666667 7:0.7791666666666667 8:0.7791666666666667 9:0.7791666666666667 10:0.7791666666666667 11:0.7791666666666667 12:0.7791666666666667 13:0.7791666666666667 14:0.7791666666666667 15:0.7791666666666667 16:0.7791666666666667 17:0.7791666666666667 18:0.7791666666666667 19:0.7791666666666667 20:0.7791666666666667 21:0.7791666666666667 22:0.7791666666666667 23:0.7791666666666667 24:0.7791666666666667 25:0.7791666666666667 26:0.7791666666666667 27:0.7791666666666667 28:0.7791666666666667 29:0.7791666666666667 30:0.7791666666666667 
1.0 1:0.7791666666666667 2:0.7791666666666667 3:0.7791666666666667 4:0.7791666666666667 5:0.7791666666666667 6:0.7791666666666667 7:0.7791666666666667 8:0.7791666666666667 9:0.7791666666666667 10:0.7791666666666667 11:0.7791666666666667 12:0.7791666666666667 13:0.7791666666666667 14:0.7791666666666667 15:0.7791666666666667 16:0.7791666666666667 17:0.7791666666666667 18:0.7791666666666667 19:0.7791666666666667 20:0.7791666666666667 21:0.7791666666666667 22:0.7791666666666667 23:0.7791666666666667 24:0.7791666666666667 25:0.7791666666666667 26:0.7791666666666667 27:0.7791666666666667 28:0.7791666666666667 29:0.7791666666666667 30:0.7791666666666667 
-1.0 1:0.7791666666666667 2:0.7791666666666667 3:0.7791666666666667 4:0.7791666666666667 5:0.7791666666666667 6:0.7791666666666667 7:0.8000000000000002 8:0.7791666666666667 9:0.7791666666666667 10:0.7791666666666667 11:0.7791666666666667 12:0.7750000000000001 13:0.7791666666666667 14:0.7791666666666667 15:0.7791666666666667 16:0.7791666666666667 17:0.7750000000000001 18:0.7791666666666667 19:0.7791666666666667 20:0.7791666666666667 21:0.7791666666666667 22:0.7875 23:0.7791666666666667 24:0.7791666666666667 25:0.7791666666666667 26:0.7791666666666667 27:0.7791666666666667 28:0.7791666666666667 29:0.7791666666666667 30:0.7791666666666667 
0.22682610574672768 1:0.7750000000000001 2:0.7791666666666667 3:0.7791666666666667 4:0.7791666666666667 5:0.7791666666666667 6:0.7750000000000001 7:0.7791666666666667 8:0.7791666666666667 9:0.7791666666666667 10:0.7791666666666667 11:0.7875 12:0.7791666666666667 13:0.7791666666666667 14:0.7791666666666667 15:0.7791666666666667 16:0.7791666666666667 17:0.7791666666666667 18:0.7791666666666667 19:0.7791666666666667 20:0.14166666666666666 21:0.7791666666666667 22:0.7791666666666667 23:0.7791666666666667 24:0.7791666666666667 25:0.7791666666666667 26:0.6541666666666667 27:0.7791666666666667 28:0.7791666666666667 29:0.7791666666666667 30:0.7791666666666667 
0.6694022003506348 1:0.7750000000000001 2:0.7791666666666667 3:0.7791666666666667 4:0.7791666666666667 5:0.7791666666666667 6:0.7875 7:0.7791666666666667 8:0.7791666666666667 9:0.7791666666666667 10:0.7791666666666667 11:0.7791666666666667 12:0.7791666666666667 13:0.7791666666666667 14:0.7791666666666667 15:0.14166666666666666 16:0.7791666666666667 17:0.7791666666666667 18:0.7791666666666667 19:0.7791666666666667 20:0.7791666666666667 21:0.6541666666666667 22:0.7791666666666667 23:0.7791666666666667 24:0.7791666666666667 25:0.7791666666666667 26:0.7875 27:0.7791666666666667 28:0.7791666666666667 29:0.7791666666666667 30:0.7791666666666667 
1.0 1:0.7791666666666667 2:0.7791666666666667 3:0.7708333333333334 4:0.7791666666666667 5:0.7791666666666667 6:0.7791666666666667 7:0.7791666666666667 8:0.7791666666666667 9:0.7791666666666667 10:0.7791666666666667 11:0.7791666666666667 12:0.7791666666666667 13:0.7791666666666667 14:0.7791666666666667 15:0.7791666666666667 16:0.6708333333333334 17:0.7791666666666667 18:0.7791666666666667 19:0.7791666666666667 20:0.7791666666666667 21:0.7791666666666667 22:0.7791666666666667 23:0.7791666666666667 24:0.7791666666666667 25:0.7791666666666667 26:0.7625000000000001 27:0.7791666666666667 28:0.7791666666666667 29:0.7791666666666667 30:0.7791666666666667 
-1.0 1:0.7791666666666667 2:0.7791666666666667 3:0.7791666666666667 4:0.7791666666666667 5:0.7791666666666667 6:0.7791666666666667 7:0.8000000000000002 8:0.7791666666666667 9:0.7791666666666667 10:0.7791666666666667 11:0.7791666666666667 12:0.7583333333333334 13:0.7791666666666667 14:0.7791666666666667 15:0.7791666666666667 16:0.7791666666666667 17:0.7875 18:0.7791666666666667 19:0.7791666666666667 20:0.7791666666666667 21:0.7791666666666667 22:0.7833333333333334 23:0.7791666666666667 24:0.7791666666666667 25:0.7791666666666667 26:0.7791666666666667 27:0.7791666666666667 28:0.7791666666666667 29:0.7791666666666667 30:0.7791666666666667 
0.02668585049662553 1:0.7791666666666667 2:0.7791666666666667 3:0.7791666666666667 4:0.7791666666666667 5:0.7833333333333334 6:0.7791666666666667 7:0.7791666666666667 8:0.7791666666666667 9:0.7791666666666667 10:0.7791666666666667 11:0.7791666666666667 12:0.7791666666666667 13:0.7791666666666667 14:0.14166666666666666 15:0.7791666666666667 16:0.7791666666666667 17:0.7791666666666667 18:0.7791666666666667 19:0.7791666666666667 20:0.6416666666666666 21:0.7791666666666667 22:0.7791666666666667 23:0.7791666666666667 24:0.7791666666666667 25:0.7666666666666667 26:0.7791666666666667 27:0.7791666666666667 28:0.7791666666666667 29:0.7791666666666667 30:0.7791666666666667 
1.0 1:0.7791666666666667 2:0.7791666666666667 3:0.7833333333333334 4:0.7791666666666667 5:0.7791666666666667 6:0.7791666666666667 7:0.7791666666666667 8:0.7791666666666667 9:0.7791666666666667 10:0.7791666666666667 11:0.7791666666666667 12:0.14166666666666666 13:0.7791666666666667 14:0.7791666666666667 15:0.7791666666666667 16:0.7791666666666667 17:0.7791666666666667 18:0.6416666666666666 19:0.7791666666666667 20:0.7791666666666667 21:0.7791666666666667 22:0.7791666666666667 23:0.7666666666666667 24:0.7791666666666667 25:0.7791666666666667 26:0.7791666666666667 27:0.7791666666666667 28:0.7791666666666667 29:0.7791666666666667 30:0.7791666666666667 
-1.0 1:0.7791666666666667 2:0.7791666666666667 3:0.7791666666666667 4:0.7791666666666667 5:0.7791666666666667 6:0.8541666666666667 7:0.7791666666666667 8:0.7791666666666667 9:0.7791666666666667 10:0.7791666666666667 11:0.7750000000000001 12:0.7791666666666667 13:0.7791666666666667 14:0.7791666666666667 15:0.7791666666666667 16:0.7750000000000001 17:0.7791666666666667 18:0.7791666666666667 19:0.7791666666666667 20:0.7791666666666667 21:0.7791666666666667 22:0.7791666666666667 23:0.7791666666666667 24:0.7791666666666667 25:0.7791666666666667 26:0.7791666666666667 27:0.7791666666666667 28:0.7791666666666667 29:0.7791666666666667 30:0.7791666666666667 
-1.0 1:0.7791666666666667 2:0.7750000000000001 3:0.7791666666666667 4:0.7791666666666667 5:0.7791666666666667 6:0.7791666666666667 7:0.7750000000000001 8:0.7791666666666667 9:0.7791666666666667 10:0.7791666666666667 11:0.7791666666666667 12:0.7791666666666667 13:0.7791666666666667 14:0.7791666666666667 15:0.7791666666666667 16:0.7791666666666667 17:0.7791666666666667 18:0.7791666666666667 19:0.7791666666666667 20:0.7791666666666667 21:0.7791666666666667 22:0.11666666666666664 23:0.7791666666666667 24:0.7791666666666667 25:0.7791666666666667 26:0.7791666666666667 27:0.7791666666666667 28:0.7791666666666667 29:0.7791666666666667 30:0.7791666666666667 
-1.0 1:0.7791666666666667 2:0.7791666666666667 3:0.7791666666666667 4:0.7791666666666667 5:0.7791666666666667 6:0.7791666666666667 7:0.11666666666666664 8:0.7791666666666667 9:0.7791666666666667 10:0.7791666666666667 11:0.7791666666666667 12:0.7791666666666667 13:0.7791666666666667 14:0.7791666666666667 15:0.7791666666666667 16:0.14166666666666666 17:0.7791666666666667 18:0.7791666666666667 19:0.7791666666666667 20:0.7791666666666667 21:0.7791666666666667 22:0.6666666666666666 23:0.7791666666666667 24:0.7791666666666667 25:0.7791666666666667 26:0.7791666666666667 27:0.7791666666666667 28:0.7791666666666667 29:0.7791666666666667 30:0.7791666666666667 
-1.0 1:0.7791666666666667 2:0.7791666666666667 3:0.7791666666666667 4:0.7791666666666667 5:0.14166666666666666 6:0.7791666666666667 7:0.7791666666666667 8:0.7791666666666667 9:0.7791666666666667 10:0.7791666666666667 11:0.6666666666666666 12:0.7791666666666667 13:0.7791666666666667 14:0.7791666666666667 15:0.7791666666666667 16:0.7791666666666667 17:0.7791666666666667 18:0.7791666666666667 19:0.7791666666666667 20:0.14166666666666666 21:0.7791666666666667 22:0.7791666666666667 23:0.7791666666666667 24:0.7791666666666667 25:0.7791666666666667 26:0.7791666666666667 27:0.7791666666666667 28:0.7791666666666667 29:0.7791666666666667 30:0.7791666666666667 
0.49197371775198473 1:0.6666666666666666 2:0.7791666666666667 3:0.7791666666666667 4:0.7791666666666667 5:0.7791666666666667 6:0.7791666666666667 7:0.7791666666666667 8:0.7791666666666667 9:0.7791666666666667 10:0.14166666666666666 11:0.7791666666666667 12:0.7791666666666667 13:0.7791666666666667 14:0.7791666666666667 15:0.7791666666666667 16:0.7791666666666667 17:0.7791666666666667 18:0.7791666666666667 19:0.7791666666666667 20:0.7791666666666667 21:0.1 22:0.7791666666666667 23:0.7791666666666667 24:0.7791666666666667 25:0.7791666666666667 26:0.7833333333333334 27:0.7791666666666667 28:0.7791666666666667 29:0.7791666666666667 30:0.7791666666666667 
1.0 1:0.7791666666666667 2:0.7791666666666667 3:0.7791666666666667 4:0.7791666666666667 5:0.14166666666666666 6:0.7791666666666667 7:0.7791666666666667 8:0.7791666666666667 9:0.7791666666666667 10:0.7791666666666667 11:0.7791666666666667 12:0.7791666666666667 13:0.7791666666666667 14:0.7791666666666667 15:0.7791666666666667 16:0.1 17:0.7791666666666667 18:0.7791666666666667 19:0.7791666666666667 20:0.7791666666666667 21:0.7833333333333334 22:0.7791666666666667 23:0.7791666666666667 24:0.7791666666666667 25:0.7791666666666667 26:0.8375 27:0.7791666666666667 28:0.7791666666666667 29:0.7791666666666667 30:0.7791666666666667 
0.4034039213266405 1:0.7791666666666667 2:0.7791666666666667 3:0.7791666666666667 4:0.7791666666666667 5:0.7791666666666667 6:0.1 7:0.7791666666666667 8:0.7791666666666667 9:0.7791666666666667 10:0.7791666666666667 11:0.7833333333333334 12:0.7791666666666667 13:0.7791666666666667 14:0.7791666666666667 15:0.7791666666666667 16:0.8375 17:0.7791666666666667 18:0.7791666666666667 19:0.7791666666666667 20:0.7791666666666667 21:0.7875 22:0.7791666666666667 23:0.7791666666666667 24:0.7791666666666667 25:0.7791666666666667 26:0.7833333333333334 27:0.7791666666666667 28:0.7791666666666667 29:0.7791666666666667 30:0.7791666666666667 
-1.0 1:0.7833333333333334 2:0.7791666666666667 3:0.7791666666666667 4:0.7791666666666667 5:0.7791666666666667 6:0.825 7:0.7791666666666667 8:0.7791666666666667 9:0.7791666666666667 10:0.7791666666666667 11:0.7750000000000001 12:0.7791666666666667 13:0.7791666666666667 14:0.7791666666666667 15:0.7791666666666667 16:0.7875 17:0.7791666666666667 18:0.7791666666666667 19:0.7791666666666667 20:0.7791666666666667 21:0.7916666666666669 22:0.7791666666666667 23:0.7791666666666667 24:0.7791666666666667 25:0.7791666666666667 26:0.7791666666666667 27:0.7791666666666667 28:0.7791666666666667 29:0.7791666666666667 30:0.7791666666666667 
-1.0 1:0.7875 2:0.7791666666666667 3:0.7791666666666667 4:0.7791666666666667 5:0.7791666666666667 6:0.7916666666666669 7:0.7791666666666667 8:0.7791666666666667 9:0.7791666666666667 10:0.7791666666666667 11:0.7791666666666667 12:0.7791666666666667 13:0.7791666666666667 14:0.7791666666666667 15:0.7791666666666667 16:0.11666666666666664 17:0.7791666666666667 18:0.7791666666666667 19:0.7791666666666667 20:0.7791666666666667 21:0.7916666666666669 22:0.7791666666666667 23:0.7791666666666667 24:0.7791666666666667 25:0.7791666666666667 26:0.7791666666666667 27:0.7791666666666667 28:0.7791666666666667 29:0.7791666666666667 30:0.7791666666666667 
0.4437602471426072 1:0.7916666666666669 2:0.7791666666666667 3:0.7791666666666667 4:0.7791666666666667 5:0.7791666666666667 6:0.7791666666666667 7:0.7791666666666667 8:0.7791666666666667 9:0.7791666666666667 10:0.7791666666666667 11:0.11666666666666664 12:0.7791666666666667 13:0.7791666666666667 14:0.7791666666666667 15:0.7791666666666667 16:0.7916666666666669 17:0.7791666666666667 18:0.7791666666666667 19:0.7791666666666667 20:0.7791666666666667 21:0.7791666666666667 22:0.7791666666666667 23:0.7791666666666667 24:0.7791666666666667 25:0.7791666666666667 26:0.12083333333333332 27:0.7791666666666667 28:0.7791666666666667 29:0.7791666666666667 30:0.7791666666666667 
0.6003813197603396 1:0.7791666666666667 2:0.7791666666666667 3:0.7791666666666667 4:0.7791666666666667 5:0.7791666666666667 6:0.7791666666666667 7:0.11666666666666664 8:0.7791666666666667 9:0.7791666666666667 10:0.7791666666666667 11:0.7791666666666667 12:0.7916666666666669 13:0.7791666666666667 14:0.7791666666666667 15:0.7791666666666667 16:0.7791666666666667 17:0.7791666666666667 18:0.7791666666666667 19:0.7791666666666667 20:0.7791666666666667 21:0.7791666666666667 22:0.12083333333333332 23:0.7791666666666667 24:0.7791666666666667 25:0.7791666666666667 26:0.7791666666666667 27:0.8291666666666667 28:0.7791666666666667 29:0.7791666666666667 30:0.7791666666666667 
0.18346654938242493 1:0.11666666666666664 2:0.7791666666666667 3:0.7791666666666667 4:0.7791666666666667 5:0.7791666666666667 6:0.7916666666666669 7:0.7791666666666667 8:0.7791666666666667 9:0.7791666666666667 10:0.7791666666666667 11:0.7791666666666667 12:0.7791666666666667 13:0.7791666666666667 14:0.7791666666666667 15:0.7791666666666667 16:0.12083333333333332 17:0.7791666666666667 18:0.7791666666666667 19:0.7791666666666667 20:0.7791666666666667 21:0.8291666666666667 22:0.7791666666666667 23:0.7791666666666667 24:0.7791666666666667 25:0.7791666666666667 26:0.7791666666666667 27:0.7791666666666667 28:0.7791666666666667 29:0.7791666666666667 30:0.7791666666666667 
