encog,SVM,java,3.1.0,1,1400508910862
[SVM]
[SVM:PARAMS]
[SVM:SVM-PARAM]
inputCount=30
C=1
cacheSize=100
coef0=0
degree=3
eps=0.001
gamma=0.0333333333
kernelType=2
nrWeight=0
nu=0.5
p=0.1
probability=0
shrinking=1
svmType=3
weight=
weightLabel=
[SVM:SVM-MODEL]
svm_type epsilon_svr
kernel_type rbf
gamma 0.03333333333333333
nr_class 2
total_sv 97
rho -0.5997926106315297
SV
0.5095109408473073 1:0.15378151260504203 2:0.6848739495798319 3:0.6848739495798319 4:0.6848739495798319 5:0.6848739495798319 6:0.20756302521008402 7:0.6848739495798319 8:0.6848739495798319 9:0.6848739495798319 10:0.6848739495798319 11:0.20756302521008402 12:0.6848739495798319 13:0.6848739495798319 14:0.6848739495798319 15:0.6848739495798319 16:0.6848739495798319 17:0.6848739495798319 18:0.6848739495798319 19:0.1 20:0.6848739495798319 21:0.6848739495798319 22:0.6848739495798319 23:0.6848739495798319 24:0.261344537815126 25:0.6848739495798319 26:0.6848739495798319 27:0.6848739495798319 28:0.6848739495798319 29:0.1 30:0.6848739495798319 
-1.0 1:0.6848739495798319 2:0.6848739495798319 3:0.20756302521008402 4:0.6848739495798319 5:0.6848739495798319 6:0.6848739495798319 7:0.6848739495798319 8:0.20756302521008402 9:0.6848739495798319 10:0.6848739495798319 11:0.6848739495798319 12:0.6848739495798319 13:0.6848739495798319 14:0.6848739495798319 15:0.6848739495798319 16:0.1 17:0.6848739495798319 18:0.6848739495798319 19:0.6848739495798319 20:0.6848739495798319 21:0.261344537815126 22:0.6848739495798319 23:0.6848739495798319 24:0.6848739495798319 25:0.6848739495798319 26:0.1 27:0.6848739495798319 28:0.6848739495798319 29:0.6848739495798319 30:0.6848739495798319 
-1.0 1:0.6848739495798319 2:0.6848739495798319 3:0.20756302521008402 4:0.6848739495798319 5:0.6848739495798319 6:0.6848739495798319 7:0.6848739495798319 8:0.6848739495798319 9:0.6848739495798319 10:0.6848739495798319 11:0.1 12:0.6848739495798319 13:0.6848739495798319 14:0.6848739495798319 15:0.6848739495798319 16:0.261344537815126 17:0.6848739495798319 18:0.6848739495798319 19:0.6848739495798319 20:0.6848739495798319 21:0.1 22:0.6848739495798319 23:0.6848739495798319 24:0.6848739495798319 25:0.6848739495798319 26:0.20756302521008402 27:0.6848739495798319 28:0.6848739495798319 29:0.6848739495798319 30:0.6848739495798319 
-1.0 1:0.6848739495798319 2:0.6848739495798319 3:0.6848739495798319 4:0.6848739495798319 5:0.6848739495798319 6:0.1 7:0.6848739495798319 8:0.6848739495798319 9:0.6848739495798319 10:0.6848739495798319 11:0.261344537815126 12:0.6848739495798319 13:0.6848739495798319 14:0.6848739495798319 15:0.6848739495798319 16:0.1 17:0.6848739495798319 18:0.6848739495798319 19:0.6848739495798319 20:0.6848739495798319 21:0.20756302521008402 22:0.6848739495798319 23:0.6848739495798319 24:0.6848739495798319 25:0.6848739495798319 26:0.20756302521008402 27:0.6848739495798319 28:0.6848739495798319 29:0.6848739495798319 30:0.6848739495798319 
0.5161030946628654 1:0.1 2:0.6848739495798319 3:0.6848739495798319 4:0.6848739495798319 5:0.6848739495798319 6:0.20756302521008402 7:0.6848739495798319 8:0.6848739495798319 9:0.6848739495798319 10:0.6848739495798319 11:0.20756302521008402 12:0.6848739495798319 13:0.6848739495798319 14:0.6848739495798319 15:0.6848739495798319 16:0.20756302521008402 17:0.6848739495798319 18:0.6848739495798319 19:0.6848739495798319 20:0.6848739495798319 21:0.42268907563025204 22:0.6848739495798319 23:0.6848739495798319 24:0.6848739495798319 25:0.6848739495798319 26:0.469747899159664 27:0.6848739495798319 28:0.6848739495798319 29:0.6848739495798319 30:0.6848739495798319 
-1.0 1:0.20756302521008402 2:0.6848739495798319 3:0.6848739495798319 4:0.6848739495798319 5:0.6848739495798319 6:0.20756302521008402 7:0.6848739495798319 8:0.6848739495798319 9:0.6848739495798319 10:0.6848739495798319 11:0.20756302521008402 12:0.6848739495798319 13:0.6848739495798319 14:0.6848739495798319 15:0.6848739495798319 16:0.42268907563025204 17:0.6848739495798319 18:0.6848739495798319 19:0.6848739495798319 20:0.6848739495798319 21:0.469747899159664 22:0.6848739495798319 23:0.6848739495798319 24:0.6848739495798319 25:0.6848739495798319 26:0.523529411764706 27:0.6848739495798319 28:0.6848739495798319 29:0.6848739495798319 30:0.6848739495798319 
1.0 1:0.20756302521008402 2:0.6848739495798319 3:0.6848739495798319 4:0.6848739495798319 5:0.6848739495798319 6:0.20756302521008402 7:0.6848739495798319 8:0.6848739495798319 9:0.6848739495798319 10:0.6848739495798319 11:0.42268907563025204 12:0.6848739495798319 13:0.6848739495798319 14:0.6848739495798319 15:0.6848739495798319 16:0.469747899159664 17:0.6848739495798319 18:0.6848739495798319 19:0.6848739495798319 20:0.6848739495798319 21:0.523529411764706 22:0.6848739495798319 23:0.6848739495798319 24:0.6848739495798319 25:0.6848739495798319 26:0.31512605042016806 27:0.6848739495798319 28:0.6848739495798319 29:0.6848739495798319 30:0.6848739495798319 
-1.0 1:0.469747899159664 2:0.6848739495798319 3:0.6848739495798319 4:0.6848739495798319 5:0.6848739495798319 6:0.523529411764706 7:0.6848739495798319 8:0.6848739495798319 9:0.6848739495798319 10:0.6848739495798319 11:0.31512605042016806 12:0.6848739495798319 13:0.6848739495798319 14:0.6848739495798319 15:0.6848739495798319 16:0.577310924369748 17:0.6848739495798319 18:0.6848739495798319 19:0.6848739495798319 20:0.6848739495798319 21:0.523529411764706 22:0.6848739495798319 23:0.6848739495798319 24:0.6848739495798319 25:0.6848739495798319 26:0.469747899159664 27:0.6848739495798319 28:0.6848739495798319 29:0.6848739495798319 30:0.6848739495798319 
-1.0 1:0.523529411764706 2:0.6848739495798319 3:0.6848739495798319 4:0.6848739495798319 5:0.6848739495798319 6:0.31512605042016806 7:0.6848739495798319 8:0.6848739495798319 9:0.6848739495798319 10:0.6848739495798319 11:0.577310924369748 12:0.6848739495798319 13:0.6848739495798319 14:0.6848739495798319 15:0.6848739495798319 16:0.523529411764706 17:0.6848739495798319 18:0.6848739495798319 19:0.6848739495798319 20:0.6848739495798319 21:0.469747899159664 22:0.6848739495798319 23:0.6848739495798319 24:0.6848739495798319 25:0.6848739495798319 26:0.42268907563025204 27:0.6848739495798319 28:0.6848739495798319 29:0.6848739495798319 30:0.6848739495798319 
-0.7398162128375408 1:0.31512605042016806 2:0.6848739495798319 3:0.6848739495798319 4:0.6848739495798319 5:0.6848739495798319 6:0.577310924369748 7:0.6848739495798319 8:0.6848739495798319 9:0.6848739495798319 10:0.6848739495798319 11:0.523529411764706 12:0.6848739495798319 13:0.6848739495798319 14:0.6848739495798319 15:0.6848739495798319 16:0.469747899159664 17:0.6848739495798319 18:0.6848739495798319 19:0.6848739495798319 20:0.6848739495798319 21:0.42268907563025204 22:0.6848739495798319 23:0.6848739495798319 24:0.6848739495798319 25:0.6848739495798319 26:0.36890756302521 27:0.6848739495798319 28:0.6848739495798319 29:0.6848739495798319 30:0.6848739495798319 
1.0 1:0.523529411764706 2:0.6848739495798319 3:0.6848739495798319 4:0.6848739495798319 5:0.6848739495798319 6:0.469747899159664 7:0.6848739495798319 8:0.6848739495798319 9:0.6848739495798319 10:0.6848739495798319 11:0.42268907563025204 12:0.6848739495798319 13:0.6848739495798319 14:0.6848739495798319 15:0.6848739495798319 16:0.36890756302521 17:0.6848739495798319 18:0.6848739495798319 19:0.6848739495798319 20:0.6848739495798319 21:0.42268907563025204 22:0.6848739495798319 23:0.6848739495798319 24:0.6848739495798319 25:0.6848739495798319 26:0.523529411764706 27:0.6848739495798319 28:0.6848739495798319 29:0.6848739495798319 30:0.6848739495798319 
1.0 1:0.42268907563025204 2:0.6848739495798319 3:0.6848739495798319 4:0.6848739495798319 5:0.6848739495798319 6:0.36890756302521 7:0.6848739495798319 8:0.6848739495798319 9:0.6848739495798319 10:0.6848739495798319 11:0.42268907563025204 12:0.6848739495798319 13:0.6848739495798319 14:0.6848739495798319 15:0.6848739495798319 16:0.523529411764706 17:0.6848739495798319 18:0.6848739495798319 19:0.6848739495798319 20:0.6848739495798319 21:0.63109243697479 22:0.6848739495798319 23:0.6848739495798319 24:0.6848739495798319 25:0.6848739495798319 26:0.523529411764706 27:0.6848739495798319 28:0.6848739495798319 29:0.6848739495798319 30:0.6848739495798319 
-1.0 1:0.6848739495798319 2:0.6848739495798319 3:0.6848739495798319 4:0.6848739495798319 5:0.6848739495798319 6:0.577310924369748 7:0.6848739495798319 8:0.6848739495798319 9:0.6848739495798319 10:0.6848739495798319 11:0.577310924369748 12:0.6848739495798319 13:0.6848739495798319 14:0.6848739495798319 15:0.6848739495798319 16:0.577310924369748 17:0.6848739495798319 18:0.6848739495798319 19:0.6848739495798319 20:0.6848739495798319 21:0.63109243697479 22:0.6848739495798319 23:0.6848739495798319 24:0.6848739495798319 25:0.6848739495798319 26:0.6848739495798319 27:0.6848739495798319 28:0.6848739495798319 29:0.6848739495798319 30:0.6848739495798319 
-1.0 1:0.577310924369748 2:0.6848739495798319 3:0.6848739495798319 4:0.6848739495798319 5:0.6848739495798319 6:0.63109243697479 7:0.6848739495798319 8:0.6848739495798319 9:0.6848739495798319 10:0.6848739495798319 11:0.6848739495798319 12:0.6848739495798319 13:0.6848739495798319 14:0.6848739495798319 15:0.6848739495798319 16:0.42268907563025204 17:0.6848739495798319 18:0.6848739495798319 19:0.6848739495798319 20:0.6848739495798319 21:0.6848739495798319 22:0.6848739495798319 23:0.6848739495798319 24:0.6848739495798319 25:0.6848739495798319 26:0.6848739495798319 27:0.6848739495798319 28:0.6848739495798319 29:0.6848739495798319 30:0.6848739495798319 
-1.0 1:0.6848739495798319 2:0.6848739495798319 3:0.6848739495798319 4:0.6848739495798319 5:0.6848739495798319 6:0.42268907563025204 7:0.6848739495798319 8:0.6848739495798319 9:0.6848739495798319 10:0.6848739495798319 11:0.6848739495798319 12:0.6848739495798319 13:0.6848739495798319 14:0.6848739495798319 15:0.6848739495798319 16:0.6848739495798319 17:0.6848739495798319 18:0.6848739495798319 19:0.6848739495798319 20:0.6848739495798319 21:0.469747899159664 22:0.6848739495798319 23:0.6848739495798319 24:0.6848739495798319 25:0.6848739495798319 26:0.6848739495798319 27:0.6848739495798319 28:0.6848739495798319 29:0.6848739495798319 30:0.6848739495798319 
-1.0 1:0.42268907563025204 2:0.6848739495798319 3:0.6848739495798319 4:0.6848739495798319 5:0.6848739495798319 6:0.6848739495798319 7:0.6848739495798319 8:0.6848739495798319 9:0.6848739495798319 10:0.6848739495798319 11:0.6848739495798319 12:0.6848739495798319 13:0.6848739495798319 14:0.6848739495798319 15:0.6848739495798319 16:0.469747899159664 17:0.6848739495798319 18:0.6848739495798319 19:0.6848739495798319 20:0.6848739495798319 21:0.6848739495798319 22:0.6848739495798319 23:0.6848739495798319 24:0.6848739495798319 25:0.6848739495798319 26:0.469747899159664 27:0.6848739495798319 28:0.6848739495798319 29:0.6848739495798319 30:0.6848739495798319 
-1.0 1:0.63109243697479 2:0.6848739495798319 3:0.6848739495798319 4:0.6848739495798319 5:0.6848739495798319 6:0.6848739495798319 7:0.6848739495798319 8:0.6848739495798319 9:0.6848739495798319 10:0.6848739495798319 11:0.6848739495798319 12:0.6848739495798319 13:0.6848739495798319 14:0.6848739495798319 15:0.6848739495798319 16:0.577310924369748 17:0.6848739495798319 18:0.6848739495798319 19:0.6848739495798319 20:0.6848739495798319 21:0.738655462184874 22:0.6848739495798319 23:0.6848739495798319 24:0.6848739495798319 25:0.6848739495798319 26:0.6848739495798319 27:0.6848739495798319 28:0.6848739495798319 29:0.6848739495798319 30:0.6848739495798319 
-1.0 1:0.738655462184874 2:0.6848739495798319 3:0.6848739495798319 4:0.6848739495798319 5:0.6848739495798319 6:0.6848739495798319 7:0.6848739495798319 8:0.6848739495798319 9:0.6848739495798319 10:0.6848739495798319 11:0.577310924369748 12:0.6848739495798319 13:0.6848739495798319 14:0.6848739495798319 15:0.6848739495798319 16:0.577310924369748 17:0.6848739495798319 18:0.6848739495798319 19:0.6848739495798319 20:0.6848739495798319 21:0.738655462184874 22:0.6848739495798319 23:0.6848739495798319 24:0.6848739495798319 25:0.6848739495798319 26:0.63109243697479 27:0.6848739495798319 28:0.6848739495798319 29:0.6848739495798319 30:0.6848739495798319 
-1.0 1:0.6848739495798319 2:0.6848739495798319 3:0.6848739495798319 4:0.6848739495798319 5:0.6848739495798319 6:0.738655462184874 7:0.6848739495798319 8:0.6848739495798319 9:0.6848739495798319 10:0.6848739495798319 11:0.63109243697479 12:0.6848739495798319 13:0.6848739495798319 14:0.6848739495798319 15:0.6848739495798319 16:0.6848739495798319 17:0.6848739495798319 18:0.6848739495798319 19:0.6848739495798319 20:0.6848739495798319 21:0.6848739495798319 22:0.6848739495798319 23:0.6848739495798319 24:0.6848739495798319 25:0.6848739495798319 26:0.6848739495798319 27:0.6848739495798319 28:0.6848739495798319 29:0.6848739495798319 30:0.6848739495798319 
1.0 1:0.738655462184874 2:0.6848739495798319 3:0.6848739495798319 4:0.6848739495798319 5:0.6848739495798319 6:0.63109243697479 7:0.6848739495798319 8:0.6848739495798319 9:0.6848739495798319 10:0.6848739495798319 11:0.6848739495798319 12:0.6848739495798319 13:0.6848739495798319 14:0.6848739495798319 15:0.6848739495798319 16:0.6848739495798319 17:0.6848739495798319 18:0.6848739495798319 19:0.6848739495798319 20:0.6848739495798319 21:0.6848739495798319 22:0.6848739495798319 23:0.6848739495798319 24:0.6848739495798319 25:0.6848739495798319 26:0.577310924369748 27:0.6848739495798319 28:0.6848739495798319 29:0.6848739495798319 30:0.6848739495798319 
0.9744659740937371 1:0.63109243697479 2:0.6848739495798319 3:0.6848739495798319 4:0.6848739495798319 5:0.6848739495798319 6:0.6848739495798319 7:0.6848739495798319 8:0.6848739495798319 9:0.6848739495798319 10:0.6848739495798319 11:0.6848739495798319 12:0.6848739495798319 13:0.6848739495798319 14:0.6848739495798319 15:0.6848739495798319 16:0.6848739495798319 17:0.6848739495798319 18:0.6848739495798319 19:0.6848739495798319 20:0.6848739495798319 21:0.577310924369748 22:0.6848739495798319 23:0.6848739495798319 24:0.6848739495798319 25:0.6848739495798319 26:0.792436974789916 27:0.6848739495798319 28:0.6848739495798319 29:0.6848739495798319 30:0.6848739495798319 
-1.0 1:0.6848739495798319 2:0.6848739495798319 3:0.6848739495798319 4:0.6848739495798319 5:0.6848739495798319 6:0.6848739495798319 7:0.6848739495798319 8:0.6848739495798319 9:0.6848739495798319 10:0.6848739495798319 11:0.6848739495798319 12:0.6848739495798319 13:0.6848739495798319 14:0.6848739495798319 15:0.6848739495798319 16:0.577310924369748 17:0.6848739495798319 18:0.6848739495798319 19:0.6848739495798319 20:0.6848739495798319 21:0.792436974789916 22:0.6848739495798319 23:0.6848739495798319 24:0.6848739495798319 25:0.6848739495798319 26:0.792436974789916 27:0.6848739495798319 28:0.6848739495798319 29:0.6848739495798319 30:0.6848739495798319 
0.040378852168974945 1:0.6848739495798319 2:0.6848739495798319 3:0.6848739495798319 4:0.6848739495798319 5:0.6848739495798319 6:0.6848739495798319 7:0.6848739495798319 8:0.6848739495798319 9:0.6848739495798319 10:0.6848739495798319 11:0.577310924369748 12:0.6848739495798319 13:0.6848739495798319 14:0.6848739495798319 15:0.6848739495798319 16:0.792436974789916 17:0.6848739495798319 18:0.6848739495798319 19:0.6848739495798319 20:0.6848739495798319 21:0.792436974789916 22:0.6848739495798319 23:0.6848739495798319 24:0.6848739495798319 25:0.6848739495798319 26:0.577310924369748 27:0.6848739495798319 28:0.6848739495798319 29:0.6848739495798319 30:0.6848739495798319 
-1.0 1:0.792436974789916 2:0.6848739495798319 3:0.6848739495798319 4:0.6848739495798319 5:0.6848739495798319 6:0.577310924369748 7:0.6848739495798319 8:0.6848739495798319 9:0.6848739495798319 10:0.6848739495798319 11:0.792436974789916 12:0.6848739495798319 13:0.6848739495798319 14:0.6848739495798319 15:0.6848739495798319 16:0.792436974789916 17:0.6848739495798319 18:0.6848739495798319 19:0.6848739495798319 20:0.6848739495798319 21:0.63109243697479 22:0.6848739495798319 23:0.6848739495798319 24:0.6848739495798319 25:0.6848739495798319 26:0.738655462184874 27:0.6848739495798319 28:0.6848739495798319 29:0.6848739495798319 30:0.6848739495798319 
-1.0 1:0.792436974789916 2:0.6848739495798319 3:0.6848739495798319 4:0.6848739495798319 5:0.6848739495798319 6:0.792436974789916 7:0.6848739495798319 8:0.6848739495798319 9:0.6848739495798319 10:0.6848739495798319 11:0.63109243697479 12:0.6848739495798319 13:0.6848739495798319 14:0.6848739495798319 15:0.6848739495798319 16:0.738655462184874 17:0.6848739495798319 18:0.6848739495798319 19:0.6848739495798319 20:0.6848739495798319 21:0.577310924369748 22:0.6848739495798319 23:0.6848739495798319 24:0.6848739495798319 25:0.6848739495798319 26:0.6848739495798319 27:0.6848739495798319 28:0.6848739495798319 29:0.6848739495798319 30:0.6848739495798319 
1.0 1:0.738655462184874 2:0.6848739495798319 3:0.6848739495798319 4:0.6848739495798319 5:0.6848739495798319 6:0.577310924369748 7:0.6848739495798319 8:0.6848739495798319 9:0.6848739495798319 10:0.6848739495798319 11:0.6848739495798319 12:0.6848739495798319 13:0.6848739495798319 14:0.6848739495798319 15:0.6848739495798319 16:0.577310924369748 17:0.6848739495798319 18:0.6848739495798319 19:0.6848739495798319 20:0.6848739495798319 21:0.738655462184874 22:0.6848739495798319 23:0.6848739495798319 24:0.6848739495798319 25:0.6848739495798319 26:0.738655462184874 27:0.6848739495798319 28:0.6848739495798319 29:0.6848739495798319 30:0.6848739495798319 
-1.0 1:0.577310924369748 2:0.6848739495798319 3:0.6848739495798319 4:0.6848739495798319 5:0.6848739495798319 6:0.738655462184874 7:0.6848739495798319 8:0.6848739495798319 9:0.6848739495798319 10:0.6848739495798319 11:0.738655462184874 12:0.6848739495798319 13:0.6848739495798319 14:0.6848739495798319 15:0.6848739495798319 16:0.792436974789916 17:0.6848739495798319 18:0.6848739495798319 19:0.6848739495798319 20:0.6848739495798319 21:0.792436974789916 22:0.6848739495798319 23:0.6848739495798319 24:0.6848739495798319 25:0.6848739495798319 26:0.738655462184874 27:0.6848739495798319 28:0.6848739495798319 29:0.6848739495798319 30:0.6848739495798319 
-1.0 1:0.738655462184874 2:0.6848739495798319 3:0.6848739495798319 4:0.6848739495798319 5:0.6848739495798319 6:0.792436974789916 7:0.6848739495798319 8:0.6848739495798319 9:0.6848739495798319 10:0.6848739495798319 11:0.792436974789916 12:0.6848739495798319 13:0.6848739495798319 14:0.6848739495798319 15:0.6848739495798319 16:0.738655462184874 17:0.6848739495798319 18:0.6848739495798319 19:0.6848739495798319 20:0.6848739495798319 21:0.63109243697479 22:0.6848739495798319 23:0.6848739495798319 24:0.6848739495798319 25:0.6848739495798319 26:0.63109243697479 27:0.6848739495798319 28:0.6848739495798319 29:0.6848739495798319 30:0.6848739495798319 
1.0 1:0.792436974789916 2:0.6848739495798319 3:0.6848739495798319 4:0.6848739495798319 5:0.6848739495798319 6:0.792436974789916 7:0.6848739495798319 8:0.6848739495798319 9:0.6848739495798319 10:0.6848739495798319 11:0.738655462184874 12:0.6848739495798319 13:0.6848739495798319 14:0.6848739495798319 15:0.6848739495798319 16:0.63109243697479 17:0.6848739495798319 18:0.6848739495798319 19:0.6848739495798319 20:0.6848739495798319 21:0.63109243697479 22:0.6848739495798319 23:0.6848739495798319 24:0.6848739495798319 25:0.6848739495798319 26:0.577310924369748 27:0.6848739495798319 28:0.6848739495798319 29:0.6848739495798319 30:0.6848739495798319 
-1.0 1:0.6848739495798319 2:0.6848739495798319 3:0.6848739495798319 4:0.6848739495798319 5:0.6848739495798319 6:0.738655462184874 7:0.6848739495798319 8:0.6848739495798319 9:0.6848739495798319 10:0.6848739495798319 11:0.738655462184874 12:0.6848739495798319 13:0.6848739495798319 14:0.6848739495798319 15:0.6848739495798319 16:0.6848739495798319 17:0.6848739495798319 18:0.6848739495798319 19:0.6848739495798319 20:0.6848739495798319 21:0.792436974789916 22:0.6848739495798319 23:0.6848739495798319 24:0.6848739495798319 25:0.6848739495798319 26:0.63109243697479 27:0.6848739495798319 28:0.6848739495798319 29:0.6848739495798319 30:0.6848739495798319 
-1.0 1:0.738655462184874 2:0.6848739495798319 3:0.6848739495798319 4:0.6848739495798319 5:0.6848739495798319 6:0.6848739495798319 7:0.6848739495798319 8:0.6848739495798319 9:0.6848739495798319 10:0.6848739495798319 11:0.792436974789916 12:0.6848739495798319 13:0.6848739495798319 14:0.6848739495798319 15:0.6848739495798319 16:0.63109243697479 17:0.6848739495798319 18:0.6848739495798319 19:0.6848739495798319 20:0.6848739495798319 21:0.577310924369748 22:0.6848739495798319 23:0.6848739495798319 24:0.6848739495798319 25:0.6848739495798319 26:0.6848739495798319 27:0.6848739495798319 28:0.6848739495798319 29:0.6848739495798319 30:0.6848739495798319 
1.0 1:0.6848739495798319 2:0.6848739495798319 3:0.6848739495798319 4:0.6848739495798319 5:0.6848739495798319 6:0.792436974789916 7:0.6848739495798319 8:0.6848739495798319 9:0.6848739495798319 10:0.6848739495798319 11:0.63109243697479 12:0.6848739495798319 13:0.6848739495798319 14:0.6848739495798319 15:0.6848739495798319 16:0.577310924369748 17:0.6848739495798319 18:0.6848739495798319 19:0.6848739495798319 20:0.6848739495798319 21:0.6848739495798319 22:0.6848739495798319 23:0.6848739495798319 24:0.6848739495798319 25:0.6848739495798319 26:0.577310924369748 27:0.6848739495798319 28:0.6848739495798319 29:0.6848739495798319 30:0.6848739495798319 
1.0 1:0.792436974789916 2:0.6848739495798319 3:0.6848739495798319 4:0.6848739495798319 5:0.6848739495798319 6:0.63109243697479 7:0.6848739495798319 8:0.6848739495798319 9:0.6848739495798319 10:0.6848739495798319 11:0.577310924369748 12:0.6848739495798319 13:0.6848739495798319 14:0.6848739495798319 15:0.6848739495798319 16:0.6848739495798319 17:0.6848739495798319 18:0.6848739495798319 19:0.6848739495798319 20:0.6848739495798319 21:0.577310924369748 22:0.6848739495798319 23:0.6848739495798319 24:0.6848739495798319 25:0.6848739495798319 26:0.792436974789916 27:0.6848739495798319 28:0.6848739495798319 29:0.6848739495798319 30:0.6848739495798319 
-1.0 1:0.792436974789916 2:0.6848739495798319 3:0.6848739495798319 4:0.6848739495798319 5:0.6848739495798319 6:0.792436974789916 7:0.6848739495798319 8:0.6848739495798319 9:0.6848739495798319 10:0.6848739495798319 11:0.6848739495798319 12:0.6848739495798319 13:0.6848739495798319 14:0.6848739495798319 15:0.6848739495798319 16:0.792436974789916 17:0.6848739495798319 18:0.6848739495798319 19:0.6848739495798319 20:0.6848739495798319 21:0.63109243697479 22:0.6848739495798319 23:0.6848739495798319 24:0.6848739495798319 25:0.6848739495798319 26:0.792436974789916 27:0.6848739495798319 28:0.6848739495798319 29:0.6848739495798319 30:0.6848739495798319 
1.0 1:0.6848739495798319 2:0.6848739495798319 3:0.6848739495798319 4:0.6848739495798319 5:0.6848739495798319 6:0.792436974789916 7:0.6848739495798319 8:0.6848739495798319 9:0.6848739495798319 10:0.6848739495798319 11:0.63109243697479 12:0.6848739495798319 13:0.6848739495798319 14:0.6848739495798319 15:0.6848739495798319 16:0.792436974789916 17:0.6848739495798319 18:0.6848739495798319 19:0.6848739495798319 20:0.6848739495798319 21:0.577310924369748 22:0.6848739495798319 23:0.6848739495798319 24:0.6848739495798319 25:0.6848739495798319 26:0.63109243697479 27:0.6848739495798319 28:0.6848739495798319 29:0.6848739495798319 30:0.6848739495798319 
-1.0 1:0.6848739495798319 2:0.6848739495798319 3:0.63109243697479 4:0.6848739495798319 5:0.6848739495798319 6:0.6848739495798319 7:0.6848739495798319 8:0.792436974789916 9:0.6848739495798319 10:0.6848739495798319 11:0.6848739495798319 12:0.6848739495798319 13:0.6848739495798319 14:0.6848739495798319 15:0.6848739495798319 16:0.6848739495798319 17:0.6848739495798319 18:0.6848739495798319 19:0.6848739495798319 20:0.6848739495798319 21:0.63109243697479 22:0.6848739495798319 23:0.6848739495798319 24:0.6848739495798319 25:0.6848739495798319 26:0.63109243697479 27:0.6848739495798319 28:0.6848739495798319 29:0.6848739495798319 30:0.6848739495798319 
1.0 1:0.738655462184874 2:0.6848739495798319 3:0.6848739495798319 4:0.6848739495798319 5:0.6848739495798319 6:0.738655462184874 7:0.6848739495798319 8:0.6848739495798319 9:0.6848739495798319 10:0.6848739495798319 11:0.63109243697479 12:0.6848739495798319 13:0.6848739495798319 14:0.6848739495798319 15:0.6848739495798319 16:0.63109243697479 17:0.6848739495798319 18:0.6848739495798319 19:0.6848739495798319 20:0.6848739495798319 21:0.63109243697479 22:0.6848739495798319 23:0.6848739495798319 24:0.6848739495798319 25:0.6848739495798319 26:0.577310924369748 27:0.6848739495798319 28:0.6848739495798319 29:0.6848739495798319 30:0.6848739495798319 
-1.0 1:0.63109243697479 2:0.6848739495798319 3:0.6848739495798319 4:0.6848739495798319 5:0.6848739495798319 6:0.577310924369748 7:0.6848739495798319 8:0.6848739495798319 9:0.6848739495798319 10:0.6848739495798319 11:0.792436974789916 12:0.6848739495798319 13:0.6848739495798319 14:0.6848739495798319 15:0.6848739495798319 16:0.63109243697479 17:0.6848739495798319 18:0.6848739495798319 19:0.6848739495798319 20:0.6848739495798319 21:0.738655462184874 22:0.6848739495798319 23:0.6848739495798319 24:0.6848739495798319 25:0.6848739495798319 26:0.63109243697479 27:0.6848739495798319 28:0.6848739495798319 29:0.6848739495798319 30:0.6848739495798319 
1.0 1:0.792436974789916 2:0.6848739495798319 3:0.6848739495798319 4:0.6848739495798319 5:0.6848739495798319 6:0.63109243697479 7:0.6848739495798319 8:0.6848739495798319 9:0.6848739495798319 10:0.6848739495798319 11:0.738655462184874 12:0.6848739495798319 13:0.6848739495798319 14:0.6848739495798319 15:0.6848739495798319 16:0.63109243697479 17:0.6848739495798319 18:0.6848739495798319 19:0.6848739495798319 20:0.6848739495798319 21:0.577310924369748 22:0.6848739495798319 23:0.6848739495798319 24:0.6848739495798319 25:0.6848739495798319 26:0.577310924369748 27:0.6848739495798319 28:0.6848739495798319 29:0.6848739495798319 30:0.6848739495798319 
1.0 1:0.792436974789916 2:0.6848739495798319 3:0.6848739495798319 4:0.6848739495798319 5:0.6848739495798319 6:0.6848739495798319 7:0.6848739495798319 8:0.6848739495798319 9:0.6848739495798319 10:0.6848739495798319 11:0.63109243697479 12:0.6848739495798319 13:0.6848739495798319 14:0.6848739495798319 15:0.6848739495798319 16:0.63109243697479 17:0.6848739495798319 18:0.6848739495798319 19:0.6848739495798319 20:0.6848739495798319 21:0.738655462184874 22:0.6848739495798319 23:0.6848739495798319 24:0.6848739495798319 25:0.6848739495798319 26:0.63109243697479 27:0.6848739495798319 28:0.6848739495798319 29:0.6848739495798319 30:0.6848739495798319 
1.0 1:0.6848739495798319 2:0.6848739495798319 3:0.6848739495798319 4:0.6848739495798319 5:0.6848739495798319 6:0.63109243697479 7:0.6848739495798319 8:0.6848739495798319 9:0.6848739495798319 10:0.6848739495798319 11:0.63109243697479 12:0.6848739495798319 13:0.6848739495798319 14:0.6848739495798319 15:0.6848739495798319 16:0.738655462184874 17:0.6848739495798319 18:0.6848739495798319 19:0.6848739495798319 20:0.6848739495798319 21:0.63109243697479 22:0.6848739495798319 23:0.6848739495798319 24:0.6848739495798319 25:0.6848739495798319 26:0.846218487394958 27:0.6848739495798319 28:0.6848739495798319 29:0.6848739495798319 30:0.6848739495798319 
-0.8517252857018288 1:0.63109243697479 2:0.6848739495798319 3:0.6848739495798319 4:0.6848739495798319 5:0.6848739495798319 6:0.63109243697479 7:0.6848739495798319 8:0.6848739495798319 9:0.6848739495798319 10:0.6848739495798319 11:0.738655462184874 12:0.6848739495798319 13:0.6848739495798319 14:0.6848739495798319 15:0.6848739495798319 16:0.63109243697479 17:0.6848739495798319 18:0.6848739495798319 19:0.6848739495798319 20:0.6848739495798319 21:0.846218487394958 22:0.6848739495798319 23:0.6848739495798319 24:0.6848739495798319 25:0.6848739495798319 26:0.846218487394958 27:0.6848739495798319 28:0.6848739495798319 29:0.6848739495798319 30:0.6848739495798319 
1.0 1:0.63109243697479 2:0.6848739495798319 3:0.6848739495798319 4:0.6848739495798319 5:0.6848739495798319 6:0.846218487394958 7:0.6848739495798319 8:0.6848739495798319 9:0.6848739495798319 10:0.6848739495798319 11:0.846218487394958 12:0.6848739495798319 13:0.6848739495798319 14:0.6848739495798319 15:0.6848739495798319 16:0.63109243697479 17:0.6848739495798319 18:0.6848739495798319 19:0.6848739495798319 20:0.6848739495798319 21:0.738655462184874 22:0.6848739495798319 23:0.6848739495798319 24:0.6848739495798319 25:0.6848739495798319 26:0.792436974789916 27:0.6848739495798319 28:0.6848739495798319 29:0.6848739495798319 30:0.6848739495798319 
1.0 1:0.6848739495798319 2:0.6848739495798319 3:0.63109243697479 4:0.6848739495798319 5:0.6848739495798319 6:0.6848739495798319 7:0.6848739495798319 8:0.738655462184874 9:0.6848739495798319 10:0.6848739495798319 11:0.6848739495798319 12:0.6848739495798319 13:0.792436974789916 14:0.6848739495798319 15:0.6848739495798319 16:0.6848739495798319 17:0.6848739495798319 18:0.846218487394958 19:0.6848739495798319 20:0.6848739495798319 21:0.6848739495798319 22:0.6848739495798319 23:0.846218487394958 24:0.6848739495798319 25:0.6848739495798319 26:0.6848739495798319 27:0.6848739495798319 28:0.6848739495798319 29:0.6848739495798319 30:0.6848739495798319 
-1.0 1:0.6848739495798319 2:0.6848739495798319 3:0.846218487394958 4:0.6848739495798319 5:0.6848739495798319 6:0.6848739495798319 7:0.6848739495798319 8:0.6848739495798319 9:0.6848739495798319 10:0.6848739495798319 11:0.846218487394958 12:0.6848739495798319 13:0.6848739495798319 14:0.6848739495798319 15:0.6848739495798319 16:0.6848739495798319 17:0.6848739495798319 18:0.6848739495798319 19:0.6848739495798319 20:0.6848739495798319 21:0.792436974789916 22:0.6848739495798319 23:0.6848739495798319 24:0.6848739495798319 25:0.6848739495798319 26:0.792436974789916 27:0.6848739495798319 28:0.6848739495798319 29:0.6848739495798319 30:0.6848739495798319 
-1.0 1:0.846218487394958 2:0.6848739495798319 3:0.6848739495798319 4:0.6848739495798319 5:0.6848739495798319 6:0.6848739495798319 7:0.6848739495798319 8:0.6848739495798319 9:0.6848739495798319 10:0.6848739495798319 11:0.792436974789916 12:0.6848739495798319 13:0.6848739495798319 14:0.6848739495798319 15:0.6848739495798319 16:0.792436974789916 17:0.6848739495798319 18:0.6848739495798319 19:0.6848739495798319 20:0.6848739495798319 21:0.63109243697479 22:0.6848739495798319 23:0.6848739495798319 24:0.6848739495798319 25:0.6848739495798319 26:0.63109243697479 27:0.6848739495798319 28:0.6848739495798319 29:0.6848739495798319 30:0.6848739495798319 
1.0 1:0.792436974789916 2:0.6848739495798319 3:0.6848739495798319 4:0.6848739495798319 5:0.6848739495798319 6:0.63109243697479 7:0.6848739495798319 8:0.6848739495798319 9:0.6848739495798319 10:0.6848739495798319 11:0.63109243697479 12:0.6848739495798319 13:0.6848739495798319 14:0.6848739495798319 15:0.6848739495798319 16:0.577310924369748 17:0.6848739495798319 18:0.6848739495798319 19:0.6848739495798319 20:0.6848739495798319 21:0.6848739495798319 22:0.6848739495798319 23:0.6848739495798319 24:0.6848739495798319 25:0.6848739495798319 26:0.738655462184874 27:0.6848739495798319 28:0.6848739495798319 29:0.6848739495798319 30:0.6848739495798319 
1.0 1:0.63109243697479 2:0.6848739495798319 3:0.6848739495798319 4:0.6848739495798319 5:0.6848739495798319 6:0.63109243697479 7:0.6848739495798319 8:0.6848739495798319 9:0.6848739495798319 10:0.6848739495798319 11:0.577310924369748 12:0.6848739495798319 13:0.6848739495798319 14:0.6848739495798319 15:0.6848739495798319 16:0.6848739495798319 17:0.6848739495798319 18:0.6848739495798319 19:0.6848739495798319 20:0.6848739495798319 21:0.738655462184874 22:0.6848739495798319 23:0.6848739495798319 24:0.6848739495798319 25:0.6848739495798319 26:0.846218487394958 27:0.6848739495798319 28:0.6848739495798319 29:0.6848739495798319 30:0.6848739495798319 
-1.0 1:0.63109243697479 2:0.6848739495798319 3:0.6848739495798319 4:0.6848739495798319 5:0.6848739495798319 6:0.577310924369748 7:0.6848739495798319 8:0.6848739495798319 9:0.6848739495798319 10:0.6848739495798319 11:0.6848739495798319 12:0.6848739495798319 13:0.6848739495798319 14:0.6848739495798319 15:0.6848739495798319 16:0.738655462184874 17:0.6848739495798319 18:0.6848739495798319 19:0.6848739495798319 20:0.6848739495798319 21:0.846218487394958 22:0.6848739495798319 23:0.6848739495798319 24:0.6848739495798319 25:0.6848739495798319 26:0.846218487394958 27:0.6848739495798319 28:0.6848739495798319 29:0.6848739495798319 30:0.6848739495798319 
-0.5887436800650678 1:0.6848739495798319 2:0.6848739495798319 3:0.6848739495798319 4:0.6848739495798319 5:0.792436974789916 6:0.6848739495798319 7:0.6848739495798319 8:0.6848739495798319 9:0.6848739495798319 10:0.6848739495798319 11:0.6848739495798319 12:0.6848739495798319 13:0.792436974789916 14:0.6848739495798319 15:0.6848739495798319 16:0.6848739495798319 17:0.6848739495798319 18:0.6848739495798319 19:0.6848739495798319 20:0.6848739495798319 21:0.792436974789916 22:0.6848739495798319 23:0.6848739495798319 24:0.6848739495798319 25:0.6848739495798319 26:0.792436974789916 27:0.6848739495798319 28:0.6848739495798319 29:0.6848739495798319 30:0.6848739495798319 
-1.0 1:0.792436974789916 2:0.6848739495798319 3:0.6848739495798319 4:0.6848739495798319 5:0.6848739495798319 6:0.792436974789916 7:0.6848739495798319 8:0.6848739495798319 9:0.6848739495798319 10:0.6848739495798319 11:0.63109243697479 12:0.6848739495798319 13:0.6848739495798319 14:0.6848739495798319 15:0.6848739495798319 16:0.738655462184874 17:0.6848739495798319 18:0.6848739495798319 19:0.6848739495798319 20:0.6848739495798319 21:0.63109243697479 22:0.6848739495798319 23:0.6848739495798319 24:0.6848739495798319 25:0.6848739495798319 26:0.738655462184874 27:0.6848739495798319 28:0.6848739495798319 29:0.6848739495798319 30:0.6848739495798319 
1.0 1:0.792436974789916 2:0.6848739495798319 3:0.6848739495798319 4:0.6848739495798319 5:0.6848739495798319 6:0.63109243697479 7:0.6848739495798319 8:0.6848739495798319 9:0.6848739495798319 10:0.6848739495798319 11:0.738655462184874 12:0.6848739495798319 13:0.6848739495798319 14:0.6848739495798319 15:0.6848739495798319 16:0.63109243697479 17:0.6848739495798319 18:0.6848739495798319 19:0.6848739495798319 20:0.6848739495798319 21:0.738655462184874 22:0.6848739495798319 23:0.6848739495798319 24:0.6848739495798319 25:0.6848739495798319 26:0.577310924369748 27:0.6848739495798319 28:0.6848739495798319 29:0.6848739495798319 30:0.6848739495798319 
-1.0 1:0.6848739495798319 2:0.6848739495798319 3:0.63109243697479 4:0.6848739495798319 5:0.6848739495798319 6:0.6848739495798319 7:0.6848739495798319 8:0.738655462184874 9:0.6848739495798319 10:0.6848739495798319 11:0.6848739495798319 12:0.6848739495798319 13:0.577310924369748 14:0.6848739495798319 15:0.6848739495798319 16:0.6848739495798319 17:0.6848739495798319 18:0.792436974789916 19:0.6848739495798319 20:0.6848739495798319 21:0.6848739495798319 22:0.6848739495798319 23:0.6848739495798319 24:0.6848739495798319 25:0.6848739495798319 26:0.6848739495798319 27:0.6848739495798319 28:0.6848739495798319 29:0.6848739495798319 30:0.6848739495798319 
-1.0 1:0.6848739495798319 2:0.6848739495798319 3:0.6848739495798319 4:0.738655462184874 5:0.6848739495798319 6:0.6848739495798319 7:0.6848739495798319 8:0.6848739495798319 9:0.577310924369748 10:0.6848739495798319 11:0.6848739495798319 12:0.6848739495798319 13:0.6848739495798319 14:0.792436974789916 15:0.6848739495798319 16:0.6848739495798319 17:0.6848739495798319 18:0.6848739495798319 19:0.6848739495798319 20:0.6848739495798319 21:0.6848739495798319 22:0.6848739495798319 23:0.6848739495798319 24:0.6848739495798319 25:0.6848739495798319 26:0.6848739495798319 27:0.523529411764706 28:0.6848739495798319 29:0.6848739495798319 30:0.6848739495798319 
1.0 1:0.6848739495798319 2:0.6848739495798319 3:0.6848739495798319 4:0.6848739495798319 5:0.6848739495798319 6:0.6848739495798319 7:0.6848739495798319 8:0.6848739495798319 9:0.6848739495798319 10:0.6848739495798319 11:0.6848739495798319 12:0.6848739495798319 13:0.6848739495798319 14:0.6848739495798319 15:0.6848739495798319 16:0.6848739495798319 17:0.6848739495798319 18:0.6848739495798319 19:0.6848739495798319 20:0.6848739495798319 21:0.6848739495798319 22:0.6848739495798319 23:0.6848739495798319 24:0.6848739495798319 25:0.6848739495798319 26:0.6848739495798319 27:0.6848739495798319 28:0.6848739495798319 29:0.6848739495798319 30:0.6848739495798319 
-1.0 1:0.6848739495798319 2:0.6848739495798319 3:0.6848739495798319 4:0.6848739495798319 5:0.6848739495798319 6:0.6848739495798319 7:0.6848739495798319 8:0.6848739495798319 9:0.6848739495798319 10:0.6848739495798319 11:0.6848739495798319 12:0.6848739495798319 13:0.6848739495798319 14:0.6848739495798319 15:0.6848739495798319 16:0.6848739495798319 17:0.6848739495798319 18:0.6848739495798319 19:0.6848739495798319 20:0.6848739495798319 21:0.6848739495798319 22:0.6848739495798319 23:0.6848739495798319 24:0.6848739495798319 25:0.6848739495798319 26:0.6848739495798319 27:0.6848739495798319 28:0.6848739495798319 29:0.6848739495798319 30:0.6848739495798319 
-1.0 1:0.6848739495798319 2:0.6848739495798319 3:0.6848739495798319 4:0.6848739495798319 5:0.6848739495798319 6:0.6848739495798319 7:0.6848739495798319 8:0.6848739495798319 9:0.6848739495798319 10:0.6848739495798319 11:0.6848739495798319 12:0.6848739495798319 13:0.6848739495798319 14:0.6848739495798319 15:0.6848739495798319 16:0.6848739495798319 17:0.6848739495798319 18:0.6848739495798319 19:0.6848739495798319 20:0.6848739495798319 21:0.6848739495798319 22:0.6848739495798319 23:0.6848739495798319 24:0.6848739495798319 25:0.6848739495798319 26:0.523529411764706 27:0.6848739495798319 28:0.6848739495798319 29:0.6848739495798319 30:0.6848739495798319 
-1.0 1:0.6848739495798319 2:0.6848739495798319 3:0.6848739495798319 4:0.6848739495798319 5:0.6848739495798319 6:0.6848739495798319 7:0.6848739495798319 8:0.6848739495798319 9:0.6848739495798319 10:0.6848739495798319 11:0.6848739495798319 12:0.6848739495798319 13:0.6848739495798319 14:0.6848739495798319 15:0.6848739495798319 16:0.6848739495798319 17:0.6848739495798319 18:0.6848739495798319 19:0.6848739495798319 20:0.6848739495798319 21:0.523529411764706 22:0.6848739495798319 23:0.6848739495798319 24:0.6848739495798319 25:0.6848739495798319 26:0.31512605042016806 27:0.6848739495798319 28:0.6848739495798319 29:0.6848739495798319 30:0.6848739495798319 
-1.0 1:0.6848739495798319 2:0.6848739495798319 3:0.6848739495798319 4:0.6848739495798319 5:0.6848739495798319 6:0.523529411764706 7:0.6848739495798319 8:0.6848739495798319 9:0.6848739495798319 10:0.6848739495798319 11:0.31512605042016806 12:0.6848739495798319 13:0.6848739495798319 14:0.6848739495798319 15:0.6848739495798319 16:0.42268907563025204 17:0.6848739495798319 18:0.6848739495798319 19:0.6848739495798319 20:0.6848739495798319 21:0.523529411764706 22:0.6848739495798319 23:0.6848739495798319 24:0.6848739495798319 25:0.6848739495798319 26:0.577310924369748 27:0.6848739495798319 28:0.6848739495798319 29:0.6848739495798319 30:0.6848739495798319 
-1.0 1:0.523529411764706 2:0.6848739495798319 3:0.6848739495798319 4:0.6848739495798319 5:0.6848739495798319 6:0.577310924369748 7:0.6848739495798319 8:0.6848739495798319 9:0.6848739495798319 10:0.6848739495798319 11:0.36890756302521 12:0.6848739495798319 13:0.6848739495798319 14:0.6848739495798319 15:0.6848739495798319 16:0.523529411764706 17:0.6848739495798319 18:0.6848739495798319 19:0.6848739495798319 20:0.6848739495798319 21:0.469747899159664 22:0.6848739495798319 23:0.6848739495798319 24:0.6848739495798319 25:0.6848739495798319 26:0.63109243697479 27:0.6848739495798319 28:0.6848739495798319 29:0.6848739495798319 30:0.6848739495798319 
1.0 1:0.577310924369748 2:0.6848739495798319 3:0.6848739495798319 4:0.6848739495798319 5:0.6848739495798319 6:0.36890756302521 7:0.6848739495798319 8:0.6848739495798319 9:0.6848739495798319 10:0.6848739495798319 11:0.523529411764706 12:0.6848739495798319 13:0.6848739495798319 14:0.6848739495798319 15:0.6848739495798319 16:0.469747899159664 17:0.6848739495798319 18:0.6848739495798319 19:0.6848739495798319 20:0.6848739495798319 21:0.63109243697479 22:0.6848739495798319 23:0.6848739495798319 24:0.6848739495798319 25:0.6848739495798319 26:0.469747899159664 27:0.6848739495798319 28:0.6848739495798319 29:0.6848739495798319 30:0.6848739495798319 
-1.0 1:0.6848739495798319 2:0.36890756302521 3:0.6848739495798319 4:0.6848739495798319 5:0.6848739495798319 6:0.6848739495798319 7:0.523529411764706 8:0.6848739495798319 9:0.6848739495798319 10:0.6848739495798319 11:0.6848739495798319 12:0.469747899159664 13:0.6848739495798319 14:0.6848739495798319 15:0.6848739495798319 16:0.6848739495798319 17:0.63109243697479 18:0.6848739495798319 19:0.6848739495798319 20:0.6848739495798319 21:0.6848739495798319 22:0.469747899159664 23:0.6848739495798319 24:0.6848739495798319 25:0.6848739495798319 26:0.6848739495798319 27:0.6848739495798319 28:0.6848739495798319 29:0.6848739495798319 30:0.6848739495798319 
-1.0 1:0.6848739495798319 2:0.6848739495798319 3:0.6848739495798319 4:0.6848739495798319 5:0.6848739495798319 6:0.6848739495798319 7:0.6848739495798319 8:0.523529411764706 9:0.6848739495798319 10:0.6848739495798319 11:0.6848739495798319 12:0.6848739495798319 13:0.6848739495798319 14:0.577310924369748 15:0.6848739495798319 16:0.6848739495798319 17:0.6848739495798319 18:0.6848739495798319 19:0.6848739495798319 20:0.6848739495798319 21:0.6848739495798319 22:0.6848739495798319 23:0.6848739495798319 24:0.63109243697479 25:0.6848739495798319 26:0.6848739495798319 27:0.6848739495798319 28:0.6848739495798319 29:0.6848739495798319 30:0.6848739495798319 
-1.0 1:0.6848739495798319 2:0.523529411764706 3:0.6848739495798319 4:0.6848739495798319 5:0.6848739495798319 6:0.6848739495798319 7:0.6848739495798319 8:0.577310924369748 9:0.6848739495798319 10:0.6848739495798319 11:0.6848739495798319 12:0.6848739495798319 13:0.6848739495798319 14:0.6848739495798319 15:0.6848739495798319 16:0.6848739495798319 17:0.6848739495798319 18:0.63109243697479 19:0.6848739495798319 20:0.6848739495798319 21:0.6848739495798319 22:0.6848739495798319 23:0.6848739495798319 24:0.6848739495798319 25:0.577310924369748 26:0.6848739495798319 27:0.6848739495798319 28:0.6848739495798319 29:0.6848739495798319 30:0.6848739495798319 
-1.0 1:0.6848739495798319 2:0.6848739495798319 3:0.6848739495798319 4:0.6848739495798319 5:0.6848739495798319 6:0.523529411764706 7:0.6848739495798319 8:0.6848739495798319 9:0.6848739495798319 10:0.6848739495798319 11:0.63109243697479 12:0.6848739495798319 13:0.6848739495798319 14:0.6848739495798319 15:0.6848739495798319 16:0.738655462184874 17:0.6848739495798319 18:0.6848739495798319 19:0.6848739495798319 20:0.6848739495798319 21:0.738655462184874 22:0.6848739495798319 23:0.6848739495798319 24:0.6848739495798319 25:0.6848739495798319 26:0.738655462184874 27:0.6848739495798319 28:0.6848739495798319 29:0.6848739495798319 30:0.6848739495798319 
1.0 1:0.738655462184874 2:0.6848739495798319 3:0.6848739495798319 4:0.6848739495798319 5:0.6848739495798319 6:0.738655462184874 7:0.6848739495798319 8:0.6848739495798319 9:0.6848739495798319 10:0.6848739495798319 11:0.738655462184874 12:0.6848739495798319 13:0.6848739495798319 14:0.6848739495798319 15:0.6848739495798319 16:0.577310924369748 17:0.6848739495798319 18:0.6848739495798319 19:0.6848739495798319 20:0.6848739495798319 21:0.6848739495798319 22:0.6848739495798319 23:0.6848739495798319 24:0.6848739495798319 25:0.6848739495798319 26:0.6848739495798319 27:0.6848739495798319 28:0.6848739495798319 29:0.6848739495798319 30:0.6848739495798319 
-1.0 1:0.738655462184874 2:0.6848739495798319 3:0.6848739495798319 4:0.6848739495798319 5:0.6848739495798319 6:0.577310924369748 7:0.6848739495798319 8:0.6848739495798319 9:0.6848739495798319 10:0.6848739495798319 11:0.6848739495798319 12:0.6848739495798319 13:0.6848739495798319 14:0.6848739495798319 15:0.6848739495798319 16:0.6848739495798319 17:0.6848739495798319 18:0.6848739495798319 19:0.6848739495798319 20:0.6848739495798319 21:0.792436974789916 22:0.6848739495798319 23:0.6848739495798319 24:0.6848739495798319 25:0.6848739495798319 26:0.63109243697479 27:0.6848739495798319 28:0.6848739495798319 29:0.6848739495798319 30:0.6848739495798319 
1.0 1:0.577310924369748 2:0.6848739495798319 3:0.6848739495798319 4:0.6848739495798319 5:0.6848739495798319 6:0.738655462184874 7:0.6848739495798319 8:0.6848739495798319 9:0.6848739495798319 10:0.6848739495798319 11:0.738655462184874 12:0.6848739495798319 13:0.6848739495798319 14:0.6848739495798319 15:0.6848739495798319 16:0.792436974789916 17:0.6848739495798319 18:0.6848739495798319 19:0.6848739495798319 20:0.6848739495798319 21:0.63109243697479 22:0.6848739495798319 23:0.6848739495798319 24:0.6848739495798319 25:0.6848739495798319 26:0.792436974789916 27:0.6848739495798319 28:0.6848739495798319 29:0.6848739495798319 30:0.6848739495798319 
-1.0 1:0.738655462184874 2:0.6848739495798319 3:0.6848739495798319 4:0.6848739495798319 5:0.6848739495798319 6:0.738655462184874 7:0.6848739495798319 8:0.6848739495798319 9:0.6848739495798319 10:0.6848739495798319 11:0.792436974789916 12:0.6848739495798319 13:0.6848739495798319 14:0.6848739495798319 15:0.6848739495798319 16:0.63109243697479 17:0.6848739495798319 18:0.6848739495798319 19:0.6848739495798319 20:0.6848739495798319 21:0.792436974789916 22:0.6848739495798319 23:0.6848739495798319 24:0.6848739495798319 25:0.6848739495798319 26:0.846218487394958 27:0.6848739495798319 28:0.6848739495798319 29:0.6848739495798319 30:0.6848739495798319 
1.0 1:0.738655462184874 2:0.6848739495798319 3:0.6848739495798319 4:0.6848739495798319 5:0.6848739495798319 6:0.792436974789916 7:0.6848739495798319 8:0.6848739495798319 9:0.6848739495798319 10:0.6848739495798319 11:0.63109243697479 12:0.6848739495798319 13:0.6848739495798319 14:0.6848739495798319 15:0.6848739495798319 16:0.792436974789916 17:0.6848739495798319 18:0.6848739495798319 19:0.6848739495798319 20:0.6848739495798319 21:0.846218487394958 22:0.6848739495798319 23:0.6848739495798319 24:0.6848739495798319 25:0.6848739495798319 26:0.63109243697479 27:0.6848739495798319 28:0.6848739495798319 29:0.6848739495798319 30:0.6848739495798319 
1.0 1:0.792436974789916 2:0.6848739495798319 3:0.6848739495798319 4:0.6848739495798319 5:0.6848739495798319 6:0.846218487394958 7:0.6848739495798319 8:0.6848739495798319 9:0.6848739495798319 10:0.6848739495798319 11:0.63109243697479 12:0.6848739495798319 13:0.6848739495798319 14:0.6848739495798319 15:0.6848739495798319 16:0.846218487394958 17:0.6848739495798319 18:0.6848739495798319 19:0.6848739495798319 20:0.6848739495798319 21:0.6848739495798319 22:0.6848739495798319 23:0.6848739495798319 24:0.6848739495798319 25:0.6848739495798319 26:0.738655462184874 27:0.6848739495798319 28:0.6848739495798319 29:0.6848739495798319 30:0.6848739495798319 
1.0 1:0.846218487394958 2:0.6848739495798319 3:0.6848739495798319 4:0.6848739495798319 5:0.6848739495798319 6:0.63109243697479 7:0.6848739495798319 8:0.6848739495798319 9:0.6848739495798319 10:0.6848739495798319 11:0.846218487394958 12:0.6848739495798319 13:0.6848739495798319 14:0.6848739495798319 15:0.6848739495798319 16:0.6848739495798319 17:0.6848739495798319 18:0.6848739495798319 19:0.6848739495798319 20:0.6848739495798319 21:0.738655462184874 22:0.6848739495798319 23:0.6848739495798319 24:0.6848739495798319 25:0.6848739495798319 26:0.846218487394958 27:0.6848739495798319 28:0.6848739495798319 29:0.6848739495798319 30:0.6848739495798319 
-1.0 1:0.738655462184874 2:0.6848739495798319 3:0.6848739495798319 4:0.6848739495798319 5:0.6848739495798319 6:0.846218487394958 7:0.6848739495798319 8:0.6848739495798319 9:0.6848739495798319 10:0.6848739495798319 11:0.846218487394958 12:0.6848739495798319 13:0.6848739495798319 14:0.6848739495798319 15:0.6848739495798319 16:0.792436974789916 17:0.6848739495798319 18:0.6848739495798319 19:0.6848739495798319 20:0.6848739495798319 21:0.846218487394958 22:0.6848739495798319 23:0.6848739495798319 24:0.6848739495798319 25:0.6848739495798319 26:0.846218487394958 27:0.6848739495798319 28:0.6848739495798319 29:0.6848739495798319 30:0.6848739495798319 
1.0 1:0.6848739495798319 2:0.6848739495798319 3:0.6848739495798319 4:0.6848739495798319 5:0.6848739495798319 6:0.6848739495798319 7:0.6848739495798319 8:0.6848739495798319 9:0.738655462184874 10:0.6848739495798319 11:0.6848739495798319 12:0.6848739495798319 13:0.6848739495798319 14:0.792436974789916 15:0.6848739495798319 16:0.6848739495798319 17:0.6848739495798319 18:0.6848739495798319 19:0.846218487394958 20:0.6848739495798319 21:0.6848739495798319 22:0.6848739495798319 23:0.6848739495798319 24:0.6848739495798319 25:0.6848739495798319 26:0.6848739495798319 27:0.6848739495798319 28:0.6848739495798319 29:0.6848739495798319 30:0.6848739495798319 
1.0 1:0.6848739495798319 2:0.6848739495798319 3:0.6848739495798319 4:0.6848739495798319 5:0.6848739495798319 6:0.6848739495798319 7:0.6848739495798319 8:0.6848739495798319 9:0.6848739495798319 10:0.6848739495798319 11:0.738655462184874 12:0.6848739495798319 13:0.6848739495798319 14:0.6848739495798319 15:0.6848739495798319 16:0.6848739495798319 17:0.6848739495798319 18:0.6848739495798319 19:0.6848739495798319 20:0.6848739495798319 21:0.792436974789916 22:0.6848739495798319 23:0.6848739495798319 24:0.6848739495798319 25:0.6848739495798319 26:0.6848739495798319 27:0.6848739495798319 28:0.6848739495798319 29:0.6848739495798319 30:0.6848739495798319 
1.0 1:0.738655462184874 2:0.6848739495798319 3:0.6848739495798319 4:0.6848739495798319 5:0.6848739495798319 6:0.6848739495798319 7:0.6848739495798319 8:0.6848739495798319 9:0.6848739495798319 10:0.6848739495798319 11:0.792436974789916 12:0.6848739495798319 13:0.6848739495798319 14:0.6848739495798319 15:0.6848739495798319 16:0.6848739495798319 17:0.6848739495798319 18:0.6848739495798319 19:0.6848739495798319 20:0.6848739495798319 21:0.9 22:0.6848739495798319 23:0.6848739495798319 24:0.6848739495798319 25:0.6848739495798319 26:0.738655462184874 27:0.6848739495798319 28:0.6848739495798319 29:0.6848739495798319 30:0.6848739495798319 
1.0 1:0.6848739495798319 2:0.6848739495798319 3:0.6848739495798319 4:0.6848739495798319 5:0.6848739495798319 6:0.792436974789916 7:0.6848739495798319 8:0.6848739495798319 9:0.6848739495798319 10:0.6848739495798319 11:0.6848739495798319 12:0.6848739495798319 13:0.6848739495798319 14:0.6848739495798319 15:0.6848739495798319 16:0.9 17:0.6848739495798319 18:0.6848739495798319 19:0.6848739495798319 20:0.6848739495798319 21:0.738655462184874 22:0.6848739495798319 23:0.6848739495798319 24:0.6848739495798319 25:0.6848739495798319 26:0.846218487394958 27:0.6848739495798319 28:0.6848739495798319 29:0.6848739495798319 30:0.6848739495798319 
0.2769191058556695 1:0.6848739495798319 2:0.6848739495798319 3:0.6848739495798319 4:0.6848739495798319 5:0.6848739495798319 6:0.9 7:0.6848739495798319 8:0.6848739495798319 9:0.6848739495798319 10:0.6848739495798319 11:0.738655462184874 12:0.6848739495798319 13:0.6848739495798319 14:0.6848739495798319 15:0.6848739495798319 16:0.846218487394958 17:0.6848739495798319 18:0.6848739495798319 19:0.6848739495798319 20:0.6848739495798319 21:0.9 22:0.6848739495798319 23:0.6848739495798319 24:0.6848739495798319 25:0.6848739495798319 26:0.846218487394958 27:0.6848739495798319 28:0.6848739495798319 29:0.6848739495798319 30:0.6848739495798319 
-1.0 1:0.9 2:0.6848739495798319 3:0.6848739495798319 4:0.6848739495798319 5:0.6848739495798319 6:0.738655462184874 7:0.6848739495798319 8:0.6848739495798319 9:0.6848739495798319 10:0.6848739495798319 11:0.846218487394958 12:0.6848739495798319 13:0.6848739495798319 14:0.6848739495798319 15:0.6848739495798319 16:0.9 17:0.6848739495798319 18:0.6848739495798319 19:0.6848739495798319 20:0.6848739495798319 21:0.846218487394958 22:0.6848739495798319 23:0.6848739495798319 24:0.6848739495798319 25:0.6848739495798319 26:0.9 27:0.6848739495798319 28:0.6848739495798319 29:0.6848739495798319 30:0.6848739495798319 
1.0 1:0.6848739495798319 2:0.6848739495798319 3:0.9 4:0.6848739495798319 5:0.6848739495798319 6:0.6848739495798319 7:0.6848739495798319 8:0.846218487394958 9:0.6848739495798319 10:0.6848739495798319 11:0.6848739495798319 12:0.6848739495798319 13:0.9 14:0.6848739495798319 15:0.6848739495798319 16:0.6848739495798319 17:0.6848739495798319 18:0.6848739495798319 19:0.6848739495798319 20:0.6848739495798319 21:0.738655462184874 22:0.6848739495798319 23:0.6848739495798319 24:0.6848739495798319 25:0.6848739495798319 26:0.738655462184874 27:0.6848739495798319 28:0.6848739495798319 29:0.6848739495798319 30:0.6848739495798319 
1.0 1:0.738655462184874 2:0.6848739495798319 3:0.6848739495798319 4:0.6848739495798319 5:0.6848739495798319 6:0.738655462184874 7:0.6848739495798319 8:0.6848739495798319 9:0.6848739495798319 10:0.6848739495798319 11:0.9 12:0.6848739495798319 13:0.6848739495798319 14:0.6848739495798319 15:0.6848739495798319 16:0.792436974789916 17:0.6848739495798319 18:0.6848739495798319 19:0.6848739495798319 20:0.6848739495798319 21:0.738655462184874 22:0.6848739495798319 23:0.6848739495798319 24:0.6848739495798319 25:0.6848739495798319 26:0.846218487394958 27:0.6848739495798319 28:0.6848739495798319 29:0.6848739495798319 30:0.6848739495798319 
-1.0 1:0.792436974789916 2:0.6848739495798319 3:0.6848739495798319 4:0.6848739495798319 5:0.6848739495798319 6:0.738655462184874 7:0.6848739495798319 8:0.6848739495798319 9:0.6848739495798319 10:0.6848739495798319 11:0.846218487394958 12:0.6848739495798319 13:0.6848739495798319 14:0.6848739495798319 15:0.6848739495798319 16:0.9 17:0.6848739495798319 18:0.6848739495798319 19:0.6848739495798319 20:0.6848739495798319 21:0.846218487394958 22:0.6848739495798319 23:0.6848739495798319 24:0.6848739495798319 25:0.6848739495798319 26:0.846218487394958 27:0.6848739495798319 28:0.6848739495798319 29:0.6848739495798319 30:0.6848739495798319 
1.0 1:0.6848739495798319 2:0.738655462184874 3:0.6848739495798319 4:0.6848739495798319 5:0.6848739495798319 6:0.6848739495798319 7:0.846218487394958 8:0.6848739495798319 9:0.6848739495798319 10:0.6848739495798319 11:0.6848739495798319 12:0.9 13:0.6848739495798319 14:0.6848739495798319 15:0.6848739495798319 16:0.6848739495798319 17:0.846218487394958 18:0.6848739495798319 19:0.6848739495798319 20:0.6848739495798319 21:0.6848739495798319 22:0.846218487394958 23:0.6848739495798319 24:0.6848739495798319 25:0.6848739495798319 26:0.6848739495798319 27:0.6848739495798319 28:0.6848739495798319 29:0.6848739495798319 30:0.6848739495798319 
1.0 1:0.846218487394958 2:0.6848739495798319 3:0.6848739495798319 4:0.6848739495798319 5:0.6848739495798319 6:0.9 7:0.6848739495798319 8:0.6848739495798319 9:0.6848739495798319 10:0.6848739495798319 11:0.846218487394958 12:0.6848739495798319 13:0.6848739495798319 14:0.6848739495798319 15:0.6848739495798319 16:0.846218487394958 17:0.6848739495798319 18:0.6848739495798319 19:0.6848739495798319 20:0.6848739495798319 21:0.6848739495798319 22:0.6848739495798319 23:0.6848739495798319 24:0.6848739495798319 25:0.9 26:0.6848739495798319 27:0.6848739495798319 28:0.6848739495798319 29:0.6848739495798319 30:0.6848739495798319 
1.0 1:0.9 2:0.6848739495798319 3:0.6848739495798319 4:0.6848739495798319 5:0.6848739495798319 6:0.846218487394958 7:0.6848739495798319 8:0.6848739495798319 9:0.6848739495798319 10:0.6848739495798319 11:0.846218487394958 12:0.6848739495798319 13:0.6848739495798319 14:0.6848739495798319 15:0.6848739495798319 16:0.6848739495798319 17:0.6848739495798319 18:0.6848739495798319 19:0.6848739495798319 20:0.9 21:0.6848739495798319 22:0.6848739495798319 23:0.6848739495798319 24:0.6848739495798319 25:0.6848739495798319 26:0.9 27:0.6848739495798319 28:0.6848739495798319 29:0.6848739495798319 30:0.6848739495798319 
-0.13709278902411726 1:0.846218487394958 2:0.6848739495798319 3:0.6848739495798319 4:0.6848739495798319 5:0.6848739495798319 6:0.846218487394958 7:0.6848739495798319 8:0.6848739495798319 9:0.6848739495798319 10:0.6848739495798319 11:0.6848739495798319 12:0.6848739495798319 13:0.6848739495798319 14:0.6848739495798319 15:0.9 16:0.6848739495798319 17:0.6848739495798319 18:0.6848739495798319 19:0.6848739495798319 20:0.6848739495798319 21:0.9 22:0.6848739495798319 23:0.6848739495798319 24:0.6848739495798319 25:0.6848739495798319 26:0.9 27:0.6848739495798319 28:0.6848739495798319 29:0.6848739495798319 30:0.6848739495798319 
1.0 1:0.6848739495798319 2:0.6848739495798319 3:0.9 4:0.6848739495798319 5:0.6848739495798319 6:0.6848739495798319 7:0.6848739495798319 8:0.9 9:0.6848739495798319 10:0.6848739495798319 11:0.6848739495798319 12:0.6848739495798319 13:0.6848739495798319 14:0.6848739495798319 15:0.6848739495798319 16:0.738655462184874 17:0.6848739495798319 18:0.6848739495798319 19:0.6848739495798319 20:0.6848739495798319 21:0.792436974789916 22:0.6848739495798319 23:0.6848739495798319 24:0.6848739495798319 25:0.6848739495798319 26:0.792436974789916 27:0.6848739495798319 28:0.6848739495798319 29:0.6848739495798319 30:0.6848739495798319 
1.0 1:0.6848739495798319 2:0.792436974789916 3:0.6848739495798319 4:0.6848739495798319 5:0.6848739495798319 6:0.6848739495798319 7:0.792436974789916 8:0.6848739495798319 9:0.6848739495798319 10:0.6848739495798319 11:0.6848739495798319 12:0.9 13:0.6848739495798319 14:0.6848739495798319 15:0.6848739495798319 16:0.6848739495798319 17:0.6848739495798319 18:0.6848739495798319 19:0.6848739495798319 20:0.6848739495798319 21:0.6848739495798319 22:0.846218487394958 23:0.6848739495798319 24:0.6848739495798319 25:0.6848739495798319 26:0.6848739495798319 27:0.6848739495798319 28:0.6848739495798319 29:0.6848739495798319 30:0.6848739495798319 
1.0 1:0.6848739495798319 2:0.6848739495798319 3:0.6848739495798319 4:0.6848739495798319 5:0.9 6:0.6848739495798319 7:0.6848739495798319 8:0.6848739495798319 9:0.6848739495798319 10:0.6848739495798319 11:0.792436974789916 12:0.6848739495798319 13:0.6848739495798319 14:0.6848739495798319 15:0.6848739495798319 16:0.6848739495798319 17:0.6848739495798319 18:0.6848739495798319 19:0.6848739495798319 20:0.738655462184874 21:0.6848739495798319 22:0.6848739495798319 23:0.6848739495798319 24:0.6848739495798319 25:0.6848739495798319 26:0.6848739495798319 27:0.6848739495798319 28:0.6848739495798319 29:0.6848739495798319 30:0.6848739495798319 
1.0 1:0.6848739495798319 2:0.6848739495798319 3:0.6848739495798319 4:0.6848739495798319 5:0.6848739495798319 6:0.792436974789916 7:0.6848739495798319 8:0.6848739495798319 9:0.6848739495798319 10:0.6848739495798319 11:0.6848739495798319 12:0.6848739495798319 13:0.6848739495798319 14:0.6848739495798319 15:0.738655462184874 16:0.6848739495798319 17:0.6848739495798319 18:0.6848739495798319 19:0.6848739495798319 20:0.6848739495798319 21:0.6848739495798319 22:0.6848739495798319 23:0.6848739495798319 24:0.6848739495798319 25:0.6848739495798319 26:0.846218487394958 27:0.6848739495798319 28:0.6848739495798319 29:0.6848739495798319 30:0.6848739495798319 
1.0 1:0.6848739495798319 2:0.6848739495798319 3:0.6848739495798319 4:0.6848739495798319 5:0.738655462184874 6:0.6848739495798319 7:0.6848739495798319 8:0.6848739495798319 9:0.6848739495798319 10:0.6848739495798319 11:0.6848739495798319 12:0.6848739495798319 13:0.6848739495798319 14:0.6848739495798319 15:0.6848739495798319 16:0.846218487394958 17:0.6848739495798319 18:0.6848739495798319 19:0.6848739495798319 20:0.6848739495798319 21:0.846218487394958 22:0.6848739495798319 23:0.6848739495798319 24:0.6848739495798319 25:0.6848739495798319 26:0.738655462184874 27:0.6848739495798319 28:0.6848739495798319 29:0.6848739495798319 30:0.6848739495798319 
1.0 1:0.846218487394958 2:0.6848739495798319 3:0.6848739495798319 4:0.6848739495798319 5:0.6848739495798319 6:0.738655462184874 7:0.6848739495798319 8:0.6848739495798319 9:0.6848739495798319 10:0.6848739495798319 11:0.9 12:0.6848739495798319 13:0.6848739495798319 14:0.6848739495798319 15:0.6848739495798319 16:0.738655462184874 17:0.6848739495798319 18:0.6848739495798319 19:0.6848739495798319 20:0.6848739495798319 21:0.846218487394958 22:0.6848739495798319 23:0.6848739495798319 24:0.6848739495798319 25:0.6848739495798319 26:0.846218487394958 27:0.6848739495798319 28:0.6848739495798319 29:0.6848739495798319 30:0.6848739495798319 
-1.0 1:0.9 2:0.6848739495798319 3:0.6848739495798319 4:0.6848739495798319 5:0.6848739495798319 6:0.738655462184874 7:0.6848739495798319 8:0.6848739495798319 9:0.6848739495798319 10:0.6848739495798319 11:0.846218487394958 12:0.6848739495798319 13:0.6848739495798319 14:0.6848739495798319 15:0.6848739495798319 16:0.846218487394958 17:0.6848739495798319 18:0.6848739495798319 19:0.6848739495798319 20:0.6848739495798319 21:0.9 22:0.6848739495798319 23:0.6848739495798319 24:0.6848739495798319 25:0.6848739495798319 26:0.9 27:0.6848739495798319 28:0.6848739495798319 29:0.6848739495798319 30:0.6848739495798319 
1.0 1:0.738655462184874 2:0.6848739495798319 3:0.6848739495798319 4:0.6848739495798319 5:0.6848739495798319 6:0.846218487394958 7:0.6848739495798319 8:0.6848739495798319 9:0.6848739495798319 10:0.6848739495798319 11:0.846218487394958 12:0.6848739495798319 13:0.6848739495798319 14:0.6848739495798319 15:0.6848739495798319 16:0.9 17:0.6848739495798319 18:0.6848739495798319 19:0.6848739495798319 20:0.6848739495798319 21:0.9 22:0.6848739495798319 23:0.6848739495798319 24:0.6848739495798319 25:0.6848739495798319 26:0.6848739495798319 27:0.6848739495798319 28:0.6848739495798319 29:0.6848739495798319 30:0.6848739495798319 
1.0 1:0.9 2:0.6848739495798319 3:0.6848739495798319 4:0.6848739495798319 5:0.6848739495798319 6:0.6848739495798319 7:0.6848739495798319 8:0.6848739495798319 9:0.6848739495798319 10:0.6848739495798319 11:0.9 12:0.6848739495798319 13:0.6848739495798319 14:0.6848739495798319 15:0.6848739495798319 16:0.738655462184874 17:0.6848739495798319 18:0.6848739495798319 19:0.6848739495798319 20:0.6848739495798319 21:0.6848739495798319 22:0.6848739495798319 23:0.6848739495798319 24:0.6848739495798319 25:0.6848739495798319 26:0.846218487394958 27:0.6848739495798319 28:0.6848739495798319 29:0.6848739495798319 30:0.6848739495798319 
1.0 1:0.6848739495798319 2:0.6848739495798319 3:0.6848739495798319 4:0.6848739495798319 5:0.6848739495798319 6:0.9 7:0.6848739495798319 8:0.6848739495798319 9:0.6848739495798319 10:0.6848739495798319 11:0.738655462184874 12:0.6848739495798319 13:0.6848739495798319 14:0.6848739495798319 15:0.6848739495798319 16:0.6848739495798319 17:0.6848739495798319 18:0.6848739495798319 19:0.6848739495798319 20:0.6848739495798319 21:0.846218487394958 22:0.6848739495798319 23:0.6848739495798319 24:0.6848739495798319 25:0.6848739495798319 26:0.9 27:0.6848739495798319 28:0.6848739495798319 29:0.6848739495798319 30:0.6848739495798319 
1.0 1:0.6848739495798319 2:0.6848739495798319 3:0.6848739495798319 4:0.6848739495798319 5:0.9 6:0.6848739495798319 7:0.6848739495798319 8:0.6848739495798319 9:0.6848739495798319 10:0.9 11:0.6848739495798319 12:0.6848739495798319 13:0.6848739495798319 14:0.6848739495798319 15:0.738655462184874 16:0.6848739495798319 17:0.6848739495798319 18:0.6848739495798319 19:0.6848739495798319 20:0.6848739495798319 21:0.6848739495798319 22:0.6848739495798319 23:0.738655462184874 24:0.6848739495798319 25:0.6848739495798319 26:0.6848739495798319 27:0.6848739495798319 28:0.6848739495798319 29:0.6848739495798319 30:0.6848739495798319 
