encog,SVM,java,3.1.0,1,1400511879804
[SVM]
[SVM:PARAMS]
[SVM:SVM-PARAM]
inputCount=30
C=1
cacheSize=100
coef0=0
degree=3
eps=0.001
gamma=0.0333333333
kernelType=2
nrWeight=0
nu=0.5
p=0.1
probability=0
shrinking=1
svmType=3
weight=
weightLabel=
[SVM:SVM-MODEL]
svm_type epsilon_svr
kernel_type rbf
gamma 0.03333333333333333
nr_class 2
total_sv 78
rho -0.7340570723593565
SV
-0.0202735624394293 1:0.1 2:0.6333333333333333 3:0.6333333333333333 4:0.6333333333333333 5:0.1 6:0.6333333333333333 7:0.6333333333333333 8:0.6333333333333333 9:0.6333333333333333 10:0.6333333333333333 11:0.6333333333333333 12:0.6333333333333333 13:0.6333333333333333 14:0.6333333333333333 15:0.6333333333333333 16:0.6333333333333333 17:0.6333333333333333 18:0.1 19:0.6333333333333333 20:0.6333333333333333 21:0.6333333333333333 22:0.6333333333333333 23:0.6333333333333333 24:0.6333333333333333 25:0.6333333333333333 26:0.3666666666666667 27:0.6333333333333333 28:0.6333333333333333 29:0.6333333333333333 30:0.6333333333333333 
-0.37411903322114254 1:0.6333333333333333 2:0.6333333333333333 3:0.6333333333333333 4:0.6333333333333333 5:0.6333333333333333 6:0.6333333333333333 7:0.6333333333333333 8:0.6333333333333333 9:0.6333333333333333 10:0.6333333333333333 11:0.6333333333333333 12:0.6333333333333333 13:0.1 14:0.6333333333333333 15:0.6333333333333333 16:0.6333333333333333 17:0.6333333333333333 18:0.6333333333333333 19:0.6333333333333333 20:0.6333333333333333 21:0.3666666666666667 22:0.6333333333333333 23:0.6333333333333333 24:0.6333333333333333 25:0.6333333333333333 26:0.6333333333333333 27:0.6333333333333333 28:0.6333333333333333 29:0.6333333333333333 30:0.6333333333333333 
-1.0 1:0.6333333333333333 2:0.6333333333333333 3:0.6333333333333333 4:0.6333333333333333 5:0.6333333333333333 6:0.6333333333333333 7:0.6333333333333333 8:0.6333333333333333 9:0.6333333333333333 10:0.6333333333333333 11:0.6333333333333333 12:0.6333333333333333 13:0.6333333333333333 14:0.6333333333333333 15:0.6333333333333333 16:0.6333333333333333 17:0.6333333333333333 18:0.6333333333333333 19:0.6333333333333333 20:0.6333333333333333 21:0.6333333333333333 22:0.6333333333333333 23:0.6333333333333333 24:0.6333333333333333 25:0.6333333333333333 26:0.6333333333333333 27:0.6333333333333333 28:0.6333333333333333 29:0.6333333333333333 30:0.6333333333333333 
1.0 1:0.6333333333333333 2:0.6333333333333333 3:0.6333333333333333 4:0.6333333333333333 5:0.6333333333333333 6:0.6333333333333333 7:0.6333333333333333 8:0.6333333333333333 9:0.6333333333333333 10:0.6333333333333333 11:0.6333333333333333 12:0.6333333333333333 13:0.6333333333333333 14:0.6333333333333333 15:0.6333333333333333 16:0.6333333333333333 17:0.6333333333333333 18:0.6333333333333333 19:0.6333333333333333 20:0.6333333333333333 21:0.6333333333333333 22:0.6333333333333333 23:0.6333333333333333 24:0.6333333333333333 25:0.6333333333333333 26:0.6333333333333333 27:0.6333333333333333 28:0.6333333333333333 29:0.6333333333333333 30:0.6333333333333333 
-1.0 1:0.6333333333333333 2:0.6333333333333333 3:0.6333333333333333 4:0.6333333333333333 5:0.6333333333333333 6:0.6333333333333333 7:0.6333333333333333 8:0.6333333333333333 9:0.6333333333333333 10:0.6333333333333333 11:0.6333333333333333 12:0.6333333333333333 13:0.6333333333333333 14:0.6333333333333333 15:0.6333333333333333 16:0.6333333333333333 17:0.6333333333333333 18:0.6333333333333333 19:0.6333333333333333 20:0.6333333333333333 21:0.6333333333333333 22:0.6333333333333333 23:0.6333333333333333 24:0.6333333333333333 25:0.6333333333333333 26:0.9 27:0.6333333333333333 28:0.6333333333333333 29:0.6333333333333333 30:0.6333333333333333 
-1.0 1:0.6333333333333333 2:0.6333333333333333 3:0.6333333333333333 4:0.6333333333333333 5:0.6333333333333333 6:0.6333333333333333 7:0.6333333333333333 8:0.6333333333333333 9:0.6333333333333333 10:0.6333333333333333 11:0.6333333333333333 12:0.6333333333333333 13:0.6333333333333333 14:0.6333333333333333 15:0.6333333333333333 16:0.6333333333333333 17:0.6333333333333333 18:0.6333333333333333 19:0.6333333333333333 20:0.6333333333333333 21:0.9 22:0.6333333333333333 23:0.6333333333333333 24:0.6333333333333333 25:0.6333333333333333 26:0.6333333333333333 27:0.6333333333333333 28:0.6333333333333333 29:0.6333333333333333 30:0.6333333333333333 
1.0 1:0.6333333333333333 2:0.6333333333333333 3:0.6333333333333333 4:0.6333333333333333 5:0.6333333333333333 6:0.6333333333333333 7:0.6333333333333333 8:0.6333333333333333 9:0.6333333333333333 10:0.6333333333333333 11:0.6333333333333333 12:0.6333333333333333 13:0.6333333333333333 14:0.6333333333333333 15:0.6333333333333333 16:0.9 17:0.6333333333333333 18:0.6333333333333333 19:0.6333333333333333 20:0.6333333333333333 21:0.6333333333333333 22:0.6333333333333333 23:0.6333333333333333 24:0.6333333333333333 25:0.6333333333333333 26:0.6333333333333333 27:0.6333333333333333 28:0.6333333333333333 29:0.6333333333333333 30:0.6333333333333333 
1.0 1:0.6333333333333333 2:0.6333333333333333 3:0.6333333333333333 4:0.6333333333333333 5:0.6333333333333333 6:0.6333333333333333 7:0.6333333333333333 8:0.6333333333333333 9:0.6333333333333333 10:0.6333333333333333 11:0.9 12:0.6333333333333333 13:0.6333333333333333 14:0.6333333333333333 15:0.6333333333333333 16:0.6333333333333333 17:0.6333333333333333 18:0.6333333333333333 19:0.6333333333333333 20:0.6333333333333333 21:0.6333333333333333 22:0.6333333333333333 23:0.6333333333333333 24:0.6333333333333333 25:0.6333333333333333 26:0.9 27:0.6333333333333333 28:0.6333333333333333 29:0.6333333333333333 30:0.6333333333333333 
1.0 1:0.9 2:0.6333333333333333 3:0.6333333333333333 4:0.6333333333333333 5:0.6333333333333333 6:0.6333333333333333 7:0.6333333333333333 8:0.6333333333333333 9:0.6333333333333333 10:0.6333333333333333 11:0.6333333333333333 12:0.6333333333333333 13:0.6333333333333333 14:0.6333333333333333 15:0.6333333333333333 16:0.9 17:0.6333333333333333 18:0.6333333333333333 19:0.6333333333333333 20:0.6333333333333333 21:0.9 22:0.6333333333333333 23:0.6333333333333333 24:0.6333333333333333 25:0.6333333333333333 26:0.6333333333333333 27:0.6333333333333333 28:0.6333333333333333 29:0.6333333333333333 30:0.6333333333333333 
-1.0 1:0.6333333333333333 2:0.6333333333333333 3:0.6333333333333333 4:0.6333333333333333 5:0.6333333333333333 6:0.6333333333333333 7:0.6333333333333333 8:0.6333333333333333 9:0.6333333333333333 10:0.6333333333333333 11:0.9 12:0.6333333333333333 13:0.6333333333333333 14:0.6333333333333333 15:0.6333333333333333 16:0.9 17:0.6333333333333333 18:0.6333333333333333 19:0.6333333333333333 20:0.6333333333333333 21:0.6333333333333333 22:0.6333333333333333 23:0.6333333333333333 24:0.6333333333333333 25:0.6333333333333333 26:0.9 27:0.6333333333333333 28:0.6333333333333333 29:0.6333333333333333 30:0.6333333333333333 
1.0 1:0.6333333333333333 2:0.6333333333333333 3:0.6333333333333333 4:0.6333333333333333 5:0.6333333333333333 6:0.6333333333333333 7:0.9 8:0.6333333333333333 9:0.6333333333333333 10:0.6333333333333333 11:0.6333333333333333 12:0.3666666666666667 13:0.6333333333333333 14:0.6333333333333333 15:0.6333333333333333 16:0.6333333333333333 17:0.6333333333333333 18:0.6333333333333333 19:0.6333333333333333 20:0.6333333333333333 21:0.6333333333333333 22:0.6333333333333333 23:0.6333333333333333 24:0.6333333333333333 25:0.6333333333333333 26:0.6333333333333333 27:0.6333333333333333 28:0.6333333333333333 29:0.6333333333333333 30:0.6333333333333333 
-0.07243966057175491 1:0.9 2:0.6333333333333333 3:0.6333333333333333 4:0.6333333333333333 5:0.6333333333333333 6:0.3666666666666667 7:0.6333333333333333 8:0.6333333333333333 9:0.6333333333333333 10:0.6333333333333333 11:0.6333333333333333 12:0.6333333333333333 13:0.6333333333333333 14:0.6333333333333333 15:0.6333333333333333 16:0.6333333333333333 17:0.6333333333333333 18:0.6333333333333333 19:0.6333333333333333 20:0.6333333333333333 21:0.6333333333333333 22:0.6333333333333333 23:0.6333333333333333 24:0.6333333333333333 25:0.9 26:0.6333333333333333 27:0.6333333333333333 28:0.6333333333333333 29:0.6333333333333333 30:0.6333333333333333 
1.0 1:0.3666666666666667 2:0.6333333333333333 3:0.6333333333333333 4:0.6333333333333333 5:0.6333333333333333 6:0.6333333333333333 7:0.6333333333333333 8:0.6333333333333333 9:0.6333333333333333 10:0.6333333333333333 11:0.6333333333333333 12:0.6333333333333333 13:0.6333333333333333 14:0.6333333333333333 15:0.6333333333333333 16:0.6333333333333333 17:0.6333333333333333 18:0.6333333333333333 19:0.6333333333333333 20:0.9 21:0.6333333333333333 22:0.6333333333333333 23:0.6333333333333333 24:0.6333333333333333 25:0.6333333333333333 26:0.6333333333333333 27:0.6333333333333333 28:0.6333333333333333 29:0.6333333333333333 30:0.6333333333333333 
-0.9640860007990495 1:0.6333333333333333 2:0.6333333333333333 3:0.6333333333333333 4:0.6333333333333333 5:0.6333333333333333 6:0.6333333333333333 7:0.6333333333333333 8:0.6333333333333333 9:0.6333333333333333 10:0.9 11:0.6333333333333333 12:0.6333333333333333 13:0.6333333333333333 14:0.6333333333333333 15:0.6333333333333333 16:0.6333333333333333 17:0.6333333333333333 18:0.6333333333333333 19:0.6333333333333333 20:0.6333333333333333 21:0.9 22:0.6333333333333333 23:0.6333333333333333 24:0.6333333333333333 25:0.6333333333333333 26:0.6333333333333333 27:0.6333333333333333 28:0.6333333333333333 29:0.6333333333333333 30:0.6333333333333333 
1.0 1:0.6333333333333333 2:0.6333333333333333 3:0.6333333333333333 4:0.6333333333333333 5:0.6333333333333333 6:0.6333333333333333 7:0.6333333333333333 8:0.9 9:0.6333333333333333 10:0.6333333333333333 11:0.6333333333333333 12:0.6333333333333333 13:0.6333333333333333 14:0.6333333333333333 15:0.6333333333333333 16:0.6333333333333333 17:0.6333333333333333 18:0.6333333333333333 19:0.6333333333333333 20:0.6333333333333333 21:0.6333333333333333 22:0.6333333333333333 23:0.6333333333333333 24:0.6333333333333333 25:0.6333333333333333 26:0.6333333333333333 27:0.6333333333333333 28:0.6333333333333333 29:0.6333333333333333 30:0.6333333333333333 
1.0 1:0.6333333333333333 2:0.6333333333333333 3:0.9 4:0.6333333333333333 5:0.6333333333333333 6:0.6333333333333333 7:0.6333333333333333 8:0.6333333333333333 9:0.6333333333333333 10:0.6333333333333333 11:0.6333333333333333 12:0.6333333333333333 13:0.6333333333333333 14:0.6333333333333333 15:0.6333333333333333 16:0.6333333333333333 17:0.6333333333333333 18:0.6333333333333333 19:0.6333333333333333 20:0.6333333333333333 21:0.6333333333333333 22:0.6333333333333333 23:0.6333333333333333 24:0.6333333333333333 25:0.6333333333333333 26:0.9 27:0.6333333333333333 28:0.6333333333333333 29:0.6333333333333333 30:0.6333333333333333 
1.0 1:0.6333333333333333 2:0.6333333333333333 3:0.6333333333333333 4:0.6333333333333333 5:0.6333333333333333 6:0.6333333333333333 7:0.6333333333333333 8:0.6333333333333333 9:0.6333333333333333 10:0.6333333333333333 11:0.6333333333333333 12:0.6333333333333333 13:0.6333333333333333 14:0.6333333333333333 15:0.6333333333333333 16:0.6333333333333333 17:0.6333333333333333 18:0.6333333333333333 19:0.6333333333333333 20:0.6333333333333333 21:0.9 22:0.6333333333333333 23:0.6333333333333333 24:0.6333333333333333 25:0.6333333333333333 26:0.9 27:0.6333333333333333 28:0.6333333333333333 29:0.6333333333333333 30:0.6333333333333333 
1.0 1:0.6333333333333333 2:0.6333333333333333 3:0.6333333333333333 4:0.6333333333333333 5:0.6333333333333333 6:0.6333333333333333 7:0.6333333333333333 8:0.6333333333333333 9:0.6333333333333333 10:0.6333333333333333 11:0.6333333333333333 12:0.6333333333333333 13:0.6333333333333333 14:0.6333333333333333 15:0.6333333333333333 16:0.9 17:0.6333333333333333 18:0.6333333333333333 19:0.6333333333333333 20:0.6333333333333333 21:0.9 22:0.6333333333333333 23:0.6333333333333333 24:0.6333333333333333 25:0.6333333333333333 26:0.9 27:0.6333333333333333 28:0.6333333333333333 29:0.6333333333333333 30:0.6333333333333333 
-1.0 1:0.6333333333333333 2:0.6333333333333333 3:0.6333333333333333 4:0.6333333333333333 5:0.6333333333333333 6:0.6333333333333333 7:0.6333333333333333 8:0.6333333333333333 9:0.6333333333333333 10:0.6333333333333333 11:0.9 12:0.6333333333333333 13:0.6333333333333333 14:0.6333333333333333 15:0.6333333333333333 16:0.9 17:0.6333333333333333 18:0.6333333333333333 19:0.6333333333333333 20:0.6333333333333333 21:0.9 22:0.6333333333333333 23:0.6333333333333333 24:0.6333333333333333 25:0.6333333333333333 26:0.9 27:0.6333333333333333 28:0.6333333333333333 29:0.6333333333333333 30:0.6333333333333333 
1.0 1:0.9 2:0.6333333333333333 3:0.6333333333333333 4:0.6333333333333333 5:0.6333333333333333 6:0.9 7:0.6333333333333333 8:0.6333333333333333 9:0.6333333333333333 10:0.6333333333333333 11:0.9 12:0.6333333333333333 13:0.6333333333333333 14:0.6333333333333333 15:0.6333333333333333 16:0.9 17:0.6333333333333333 18:0.6333333333333333 19:0.6333333333333333 20:0.6333333333333333 21:0.6333333333333333 22:0.6333333333333333 23:0.6333333333333333 24:0.6333333333333333 25:0.6333333333333333 26:0.6333333333333333 27:0.6333333333333333 28:0.6333333333333333 29:0.6333333333333333 30:0.6333333333333333 
-0.037574822696197 1:0.9 2:0.6333333333333333 3:0.6333333333333333 4:0.6333333333333333 5:0.6333333333333333 6:0.9 7:0.6333333333333333 8:0.6333333333333333 9:0.6333333333333333 10:0.6333333333333333 11:0.9 12:0.6333333333333333 13:0.6333333333333333 14:0.6333333333333333 15:0.6333333333333333 16:0.6333333333333333 17:0.6333333333333333 18:0.6333333333333333 19:0.6333333333333333 20:0.6333333333333333 21:0.6333333333333333 22:0.6333333333333333 23:0.6333333333333333 24:0.6333333333333333 25:0.6333333333333333 26:0.9 27:0.6333333333333333 28:0.6333333333333333 29:0.6333333333333333 30:0.6333333333333333 
-1.0 1:0.9 2:0.6333333333333333 3:0.6333333333333333 4:0.6333333333333333 5:0.6333333333333333 6:0.6333333333333333 7:0.6333333333333333 8:0.6333333333333333 9:0.6333333333333333 10:0.6333333333333333 11:0.6333333333333333 12:0.6333333333333333 13:0.6333333333333333 14:0.6333333333333333 15:0.6333333333333333 16:0.9 17:0.6333333333333333 18:0.6333333333333333 19:0.6333333333333333 20:0.6333333333333333 21:0.6333333333333333 22:0.6333333333333333 23:0.6333333333333333 24:0.6333333333333333 25:0.6333333333333333 26:0.6333333333333333 27:0.6333333333333333 28:0.6333333333333333 29:0.6333333333333333 30:0.6333333333333333 
1.0 1:0.9 2:0.6333333333333333 3:0.6333333333333333 4:0.6333333333333333 5:0.6333333333333333 6:0.6333333333333333 7:0.6333333333333333 8:0.6333333333333333 9:0.6333333333333333 10:0.6333333333333333 11:0.6333333333333333 12:0.6333333333333333 13:0.6333333333333333 14:0.6333333333333333 15:0.6333333333333333 16:0.6333333333333333 17:0.6333333333333333 18:0.6333333333333333 19:0.6333333333333333 20:0.6333333333333333 21:0.6333333333333333 22:0.6333333333333333 23:0.6333333333333333 24:0.6333333333333333 25:0.6333333333333333 26:0.6333333333333333 27:0.6333333333333333 28:0.6333333333333333 29:0.6333333333333333 30:0.6333333333333333 
-1.0 1:0.6333333333333333 2:0.6333333333333333 3:0.6333333333333333 4:0.6333333333333333 5:0.6333333333333333 6:0.6333333333333333 7:0.6333333333333333 8:0.6333333333333333 9:0.6333333333333333 10:0.6333333333333333 11:0.6333333333333333 12:0.6333333333333333 13:0.6333333333333333 14:0.6333333333333333 15:0.6333333333333333 16:0.6333333333333333 17:0.6333333333333333 18:0.6333333333333333 19:0.6333333333333333 20:0.6333333333333333 21:0.6333333333333333 22:0.6333333333333333 23:0.6333333333333333 24:0.6333333333333333 25:0.6333333333333333 26:0.9 27:0.6333333333333333 28:0.6333333333333333 29:0.6333333333333333 30:0.6333333333333333 
1.0 1:0.6333333333333333 2:0.6333333333333333 3:0.6333333333333333 4:0.6333333333333333 5:0.6333333333333333 6:0.6333333333333333 7:0.6333333333333333 8:0.6333333333333333 9:0.6333333333333333 10:0.6333333333333333 11:0.6333333333333333 12:0.6333333333333333 13:0.6333333333333333 14:0.6333333333333333 15:0.6333333333333333 16:0.6333333333333333 17:0.6333333333333333 18:0.6333333333333333 19:0.6333333333333333 20:0.6333333333333333 21:0.9 22:0.6333333333333333 23:0.6333333333333333 24:0.6333333333333333 25:0.6333333333333333 26:0.6333333333333333 27:0.6333333333333333 28:0.6333333333333333 29:0.6333333333333333 30:0.6333333333333333 
-0.9624251773038031 1:0.6333333333333333 2:0.6333333333333333 3:0.6333333333333333 4:0.6333333333333333 5:0.6333333333333333 6:0.6333333333333333 7:0.6333333333333333 8:0.6333333333333333 9:0.6333333333333333 10:0.6333333333333333 11:0.6333333333333333 12:0.9 13:0.6333333333333333 14:0.6333333333333333 15:0.6333333333333333 16:0.6333333333333333 17:0.6333333333333333 18:0.6333333333333333 19:0.6333333333333333 20:0.6333333333333333 21:0.6333333333333333 22:0.9 23:0.6333333333333333 24:0.6333333333333333 25:0.6333333333333333 26:0.6333333333333333 27:0.6333333333333333 28:0.6333333333333333 29:0.6333333333333333 30:0.6333333333333333 
-1.0 1:0.6333333333333333 2:0.6333333333333333 3:0.6333333333333333 4:0.6333333333333333 5:0.6333333333333333 6:0.6333333333333333 7:0.6333333333333333 8:0.6333333333333333 9:0.6333333333333333 10:0.6333333333333333 11:0.9 12:0.6333333333333333 13:0.6333333333333333 14:0.6333333333333333 15:0.6333333333333333 16:0.6333333333333333 17:0.6333333333333333 18:0.6333333333333333 19:0.6333333333333333 20:0.6333333333333333 21:0.9 22:0.6333333333333333 23:0.6333333333333333 24:0.6333333333333333 25:0.6333333333333333 26:0.6333333333333333 27:0.6333333333333333 28:0.6333333333333333 29:0.6333333333333333 30:0.6333333333333333 
1.0 1:0.9 2:0.6333333333333333 3:0.6333333333333333 4:0.6333333333333333 5:0.6333333333333333 6:0.6333333333333333 7:0.6333333333333333 8:0.6333333333333333 9:0.6333333333333333 10:0.6333333333333333 11:0.6333333333333333 12:0.6333333333333333 13:0.6333333333333333 14:0.6333333333333333 15:0.6333333333333333 16:0.6333333333333333 17:0.6333333333333333 18:0.6333333333333333 19:0.6333333333333333 20:0.6333333333333333 21:0.6333333333333333 22:0.6333333333333333 23:0.6333333333333333 24:0.6333333333333333 25:0.6333333333333333 26:0.6333333333333333 27:0.6333333333333333 28:0.6333333333333333 29:0.6333333333333333 30:0.6333333333333333 
1.0 1:0.6333333333333333 2:0.6333333333333333 3:0.6333333333333333 4:0.6333333333333333 5:0.6333333333333333 6:0.6333333333333333 7:0.6333333333333333 8:0.6333333333333333 9:0.6333333333333333 10:0.6333333333333333 11:0.6333333333333333 12:0.6333333333333333 13:0.6333333333333333 14:0.6333333333333333 15:0.6333333333333333 16:0.6333333333333333 17:0.6333333333333333 18:0.6333333333333333 19:0.6333333333333333 20:0.6333333333333333 21:0.6333333333333333 22:0.6333333333333333 23:0.6333333333333333 24:0.6333333333333333 25:0.6333333333333333 26:0.9 27:0.6333333333333333 28:0.6333333333333333 29:0.6333333333333333 30:0.6333333333333333 
-0.06598923124639224 1:0.6333333333333333 2:0.6333333333333333 3:0.6333333333333333 4:0.6333333333333333 5:0.6333333333333333 6:0.6333333333333333 7:0.6333333333333333 8:0.6333333333333333 9:0.6333333333333333 10:0.6333333333333333 11:0.6333333333333333 12:0.6333333333333333 13:0.6333333333333333 14:0.6333333333333333 15:0.6333333333333333 16:0.6333333333333333 17:0.6333333333333333 18:0.6333333333333333 19:0.6333333333333333 20:0.6333333333333333 21:0.9 22:0.6333333333333333 23:0.6333333333333333 24:0.6333333333333333 25:0.6333333333333333 26:0.9 27:0.6333333333333333 28:0.6333333333333333 29:0.6333333333333333 30:0.6333333333333333 
1.0 1:0.6333333333333333 2:0.6333333333333333 3:0.6333333333333333 4:0.6333333333333333 5:0.6333333333333333 6:0.6333333333333333 7:0.6333333333333333 8:0.6333333333333333 9:0.6333333333333333 10:0.6333333333333333 11:0.9 12:0.6333333333333333 13:0.6333333333333333 14:0.6333333333333333 15:0.6333333333333333 16:0.9 17:0.6333333333333333 18:0.6333333333333333 19:0.6333333333333333 20:0.6333333333333333 21:0.6333333333333333 22:0.6333333333333333 23:0.6333333333333333 24:0.6333333333333333 25:0.6333333333333333 26:0.6333333333333333 27:0.6333333333333333 28:0.6333333333333333 29:0.6333333333333333 30:0.6333333333333333 
-0.7316697316168409 1:0.6333333333333333 2:0.6333333333333333 3:0.6333333333333333 4:0.6333333333333333 5:0.6333333333333333 6:0.9 7:0.6333333333333333 8:0.6333333333333333 9:0.6333333333333333 10:0.6333333333333333 11:0.9 12:0.6333333333333333 13:0.6333333333333333 14:0.6333333333333333 15:0.6333333333333333 16:0.6333333333333333 17:0.6333333333333333 18:0.6333333333333333 19:0.6333333333333333 20:0.6333333333333333 21:0.6333333333333333 22:0.6333333333333333 23:0.6333333333333333 24:0.6333333333333333 25:0.6333333333333333 26:0.9 27:0.6333333333333333 28:0.6333333333333333 29:0.6333333333333333 30:0.6333333333333333 
1.0 1:0.9 2:0.6333333333333333 3:0.6333333333333333 4:0.6333333333333333 5:0.6333333333333333 6:0.6333333333333333 7:0.6333333333333333 8:0.6333333333333333 9:0.6333333333333333 10:0.6333333333333333 11:0.6333333333333333 12:0.6333333333333333 13:0.6333333333333333 14:0.6333333333333333 15:0.6333333333333333 16:0.9 17:0.6333333333333333 18:0.6333333333333333 19:0.6333333333333333 20:0.6333333333333333 21:0.6333333333333333 22:0.6333333333333333 23:0.6333333333333333 24:0.6333333333333333 25:0.6333333333333333 26:0.6333333333333333 27:0.6333333333333333 28:0.6333333333333333 29:0.6333333333333333 30:0.6333333333333333 
1.0 1:0.6333333333333333 2:0.6333333333333333 3:0.6333333333333333 4:0.6333333333333333 5:0.6333333333333333 6:0.6333333333333333 7:0.6333333333333333 8:0.6333333333333333 9:0.6333333333333333 10:0.6333333333333333 11:0.9 12:0.6333333333333333 13:0.6333333333333333 14:0.6333333333333333 15:0.6333333333333333 16:0.6333333333333333 17:0.6333333333333333 18:0.6333333333333333 19:0.6333333333333333 20:0.6333333333333333 21:0.6333333333333333 22:0.6333333333333333 23:0.6333333333333333 24:0.6333333333333333 25:0.6333333333333333 26:0.9 27:0.6333333333333333 28:0.6333333333333333 29:0.6333333333333333 30:0.6333333333333333 
-1.0 1:0.9 2:0.6333333333333333 3:0.6333333333333333 4:0.6333333333333333 5:0.6333333333333333 6:0.6333333333333333 7:0.6333333333333333 8:0.6333333333333333 9:0.6333333333333333 10:0.6333333333333333 11:0.6333333333333333 12:0.6333333333333333 13:0.6333333333333333 14:0.6333333333333333 15:0.6333333333333333 16:0.9 17:0.6333333333333333 18:0.6333333333333333 19:0.6333333333333333 20:0.6333333333333333 21:0.9 22:0.6333333333333333 23:0.6333333333333333 24:0.6333333333333333 25:0.6333333333333333 26:0.6333333333333333 27:0.6333333333333333 28:0.6333333333333333 29:0.6333333333333333 30:0.6333333333333333 
-1.0 1:0.6333333333333333 2:0.6333333333333333 3:0.6333333333333333 4:0.6333333333333333 5:0.6333333333333333 6:0.6333333333333333 7:0.6333333333333333 8:0.6333333333333333 9:0.6333333333333333 10:0.6333333333333333 11:0.9 12:0.6333333333333333 13:0.6333333333333333 14:0.6333333333333333 15:0.6333333333333333 16:0.9 17:0.6333333333333333 18:0.6333333333333333 19:0.6333333333333333 20:0.6333333333333333 21:0.6333333333333333 22:0.6333333333333333 23:0.6333333333333333 24:0.6333333333333333 25:0.6333333333333333 26:0.6333333333333333 27:0.6333333333333333 28:0.6333333333333333 29:0.6333333333333333 30:0.6333333333333333 
-1.0 1:0.6333333333333333 2:0.6333333333333333 3:0.9 4:0.6333333333333333 5:0.6333333333333333 6:0.6333333333333333 7:0.6333333333333333 8:0.9 9:0.6333333333333333 10:0.6333333333333333 11:0.6333333333333333 12:0.6333333333333333 13:0.6333333333333333 14:0.6333333333333333 15:0.6333333333333333 16:0.6333333333333333 17:0.6333333333333333 18:0.6333333333333333 19:0.6333333333333333 20:0.6333333333333333 21:0.6333333333333333 22:0.6333333333333333 23:0.6333333333333333 24:0.6333333333333333 25:0.6333333333333333 26:0.6333333333333333 27:0.6333333333333333 28:0.6333333333333333 29:0.6333333333333333 30:0.6333333333333333 
1.0 1:0.6333333333333333 2:0.6333333333333333 3:0.6333333333333333 4:0.6333333333333333 5:0.6333333333333333 6:0.6333333333333333 7:0.6333333333333333 8:0.6333333333333333 9:0.6333333333333333 10:0.6333333333333333 11:0.6333333333333333 12:0.6333333333333333 13:0.6333333333333333 14:0.6333333333333333 15:0.6333333333333333 16:0.6333333333333333 17:0.6333333333333333 18:0.6333333333333333 19:0.6333333333333333 20:0.6333333333333333 21:0.3666666666666667 22:0.6333333333333333 23:0.6333333333333333 24:0.6333333333333333 25:0.6333333333333333 26:0.6333333333333333 27:0.6333333333333333 28:0.6333333333333333 29:0.6333333333333333 30:0.6333333333333333 
1.0 1:0.6333333333333333 2:0.6333333333333333 3:0.6333333333333333 4:0.6333333333333333 5:0.6333333333333333 6:0.6333333333333333 7:0.6333333333333333 8:0.6333333333333333 9:0.6333333333333333 10:0.6333333333333333 11:0.3666666666666667 12:0.6333333333333333 13:0.6333333333333333 14:0.6333333333333333 15:0.6333333333333333 16:0.6333333333333333 17:0.6333333333333333 18:0.6333333333333333 19:0.6333333333333333 20:0.6333333333333333 21:0.9 22:0.6333333333333333 23:0.6333333333333333 24:0.6333333333333333 25:0.6333333333333333 26:0.6333333333333333 27:0.6333333333333333 28:0.6333333333333333 29:0.6333333333333333 30:0.6333333333333333 
-0.2683302683831591 1:0.6333333333333333 2:0.6333333333333333 3:0.6333333333333333 4:0.6333333333333333 5:0.6333333333333333 6:0.3666666666666667 7:0.6333333333333333 8:0.6333333333333333 9:0.6333333333333333 10:0.6333333333333333 11:0.6333333333333333 12:0.6333333333333333 13:0.6333333333333333 14:0.6333333333333333 15:0.6333333333333333 16:0.9 17:0.6333333333333333 18:0.6333333333333333 19:0.6333333333333333 20:0.6333333333333333 21:0.6333333333333333 22:0.6333333333333333 23:0.6333333333333333 24:0.6333333333333333 25:0.6333333333333333 26:0.9 27:0.6333333333333333 28:0.6333333333333333 29:0.6333333333333333 30:0.6333333333333333 
1.0 1:0.3666666666666667 2:0.6333333333333333 3:0.6333333333333333 4:0.6333333333333333 5:0.6333333333333333 6:0.6333333333333333 7:0.6333333333333333 8:0.6333333333333333 9:0.6333333333333333 10:0.6333333333333333 11:0.9 12:0.6333333333333333 13:0.6333333333333333 14:0.6333333333333333 15:0.6333333333333333 16:0.6333333333333333 17:0.6333333333333333 18:0.6333333333333333 19:0.6333333333333333 20:0.6333333333333333 21:0.9 22:0.6333333333333333 23:0.6333333333333333 24:0.6333333333333333 25:0.6333333333333333 26:0.6333333333333333 27:0.6333333333333333 28:0.6333333333333333 29:0.6333333333333333 30:0.6333333333333333 
1.0 1:0.6333333333333333 2:0.6333333333333333 3:0.6333333333333333 4:0.6333333333333333 5:0.6333333333333333 6:0.9 7:0.6333333333333333 8:0.6333333333333333 9:0.6333333333333333 10:0.6333333333333333 11:0.6333333333333333 12:0.6333333333333333 13:0.6333333333333333 14:0.6333333333333333 15:0.6333333333333333 16:0.9 17:0.6333333333333333 18:0.6333333333333333 19:0.6333333333333333 20:0.6333333333333333 21:0.6333333333333333 22:0.6333333333333333 23:0.6333333333333333 24:0.6333333333333333 25:0.6333333333333333 26:0.9 27:0.6333333333333333 28:0.6333333333333333 29:0.6333333333333333 30:0.6333333333333333 
1.0 1:0.9 2:0.6333333333333333 3:0.6333333333333333 4:0.6333333333333333 5:0.6333333333333333 6:0.6333333333333333 7:0.6333333333333333 8:0.6333333333333333 9:0.6333333333333333 10:0.6333333333333333 11:0.9 12:0.6333333333333333 13:0.6333333333333333 14:0.6333333333333333 15:0.6333333333333333 16:0.6333333333333333 17:0.6333333333333333 18:0.6333333333333333 19:0.6333333333333333 20:0.6333333333333333 21:0.9 22:0.6333333333333333 23:0.6333333333333333 24:0.6333333333333333 25:0.6333333333333333 26:0.9 27:0.6333333333333333 28:0.6333333333333333 29:0.6333333333333333 30:0.6333333333333333 
-0.10817659490492589 1:0.9 2:0.6333333333333333 3:0.6333333333333333 4:0.6333333333333333 5:0.6333333333333333 6:0.6333333333333333 7:0.6333333333333333 8:0.6333333333333333 9:0.6333333333333333 10:0.6333333333333333 11:0.9 12:0.6333333333333333 13:0.6333333333333333 14:0.6333333333333333 15:0.6333333333333333 16:0.9 17:0.6333333333333333 18:0.6333333333333333 19:0.6333333333333333 20:0.6333333333333333 21:0.9 22:0.6333333333333333 23:0.6333333333333333 24:0.6333333333333333 25:0.6333333333333333 26:0.6333333333333333 27:0.6333333333333333 28:0.6333333333333333 29:0.6333333333333333 30:0.6333333333333333 
-0.9611065807831516 1:0.6333333333333333 2:0.6333333333333333 3:0.6333333333333333 4:0.6333333333333333 5:0.6333333333333333 6:0.9 7:0.6333333333333333 8:0.6333333333333333 9:0.6333333333333333 10:0.6333333333333333 11:0.9 12:0.6333333333333333 13:0.6333333333333333 14:0.6333333333333333 15:0.6333333333333333 16:0.9 17:0.6333333333333333 18:0.6333333333333333 19:0.6333333333333333 20:0.6333333333333333 21:0.6333333333333333 22:0.6333333333333333 23:0.6333333333333333 24:0.6333333333333333 25:0.6333333333333333 26:0.6333333333333333 27:0.6333333333333333 28:0.6333333333333333 29:0.6333333333333333 30:0.6333333333333333 
-1.0 1:0.6333333333333333 2:0.6333333333333333 3:0.9 4:0.6333333333333333 5:0.6333333333333333 6:0.6333333333333333 7:0.6333333333333333 8:0.6333333333333333 9:0.6333333333333333 10:0.6333333333333333 11:0.6333333333333333 12:0.6333333333333333 13:0.6333333333333333 14:0.6333333333333333 15:0.6333333333333333 16:0.6333333333333333 17:0.6333333333333333 18:0.6333333333333333 19:0.6333333333333333 20:0.6333333333333333 21:0.6333333333333333 22:0.6333333333333333 23:0.6333333333333333 24:0.6333333333333333 25:0.6333333333333333 26:0.6333333333333333 27:0.6333333333333333 28:0.6333333333333333 29:0.6333333333333333 30:0.6333333333333333 
-1.0 1:0.9 2:0.6333333333333333 3:0.6333333333333333 4:0.6333333333333333 5:0.6333333333333333 6:0.6333333333333333 7:0.6333333333333333 8:0.6333333333333333 9:0.6333333333333333 10:0.6333333333333333 11:0.6333333333333333 12:0.6333333333333333 13:0.6333333333333333 14:0.6333333333333333 15:0.6333333333333333 16:0.6333333333333333 17:0.6333333333333333 18:0.6333333333333333 19:0.6333333333333333 20:0.6333333333333333 21:0.6333333333333333 22:0.6333333333333333 23:0.6333333333333333 24:0.6333333333333333 25:0.6333333333333333 26:0.6333333333333333 27:0.6333333333333333 28:0.6333333333333333 29:0.6333333333333333 30:0.6333333333333333 
1.0 1:0.6333333333333333 2:0.6333333333333333 3:0.6333333333333333 4:0.6333333333333333 5:0.6333333333333333 6:0.6333333333333333 7:0.6333333333333333 8:0.6333333333333333 9:0.6333333333333333 10:0.6333333333333333 11:0.6333333333333333 12:0.6333333333333333 13:0.6333333333333333 14:0.6333333333333333 15:0.6333333333333333 16:0.6333333333333333 17:0.6333333333333333 18:0.6333333333333333 19:0.6333333333333333 20:0.6333333333333333 21:0.6333333333333333 22:0.6333333333333333 23:0.6333333333333333 24:0.6333333333333333 25:0.6333333333333333 26:0.6333333333333333 27:0.6333333333333333 28:0.6333333333333333 29:0.6333333333333333 30:0.6333333333333333 
1.0 1:0.6333333333333333 2:0.6333333333333333 3:0.6333333333333333 4:0.6333333333333333 5:0.6333333333333333 6:0.6333333333333333 7:0.6333333333333333 8:0.6333333333333333 9:0.6333333333333333 10:0.6333333333333333 11:0.6333333333333333 12:0.6333333333333333 13:0.6333333333333333 14:0.6333333333333333 15:0.6333333333333333 16:0.6333333333333333 17:0.6333333333333333 18:0.6333333333333333 19:0.6333333333333333 20:0.6333333333333333 21:0.6333333333333333 22:0.6333333333333333 23:0.6333333333333333 24:0.6333333333333333 25:0.6333333333333333 26:0.9 27:0.6333333333333333 28:0.6333333333333333 29:0.6333333333333333 30:0.6333333333333333 
-1.0 1:0.6333333333333333 2:0.6333333333333333 3:0.6333333333333333 4:0.6333333333333333 5:0.6333333333333333 6:0.6333333333333333 7:0.6333333333333333 8:0.6333333333333333 9:0.6333333333333333 10:0.6333333333333333 11:0.6333333333333333 12:0.6333333333333333 13:0.6333333333333333 14:0.6333333333333333 15:0.6333333333333333 16:0.6333333333333333 17:0.6333333333333333 18:0.6333333333333333 19:0.6333333333333333 20:0.6333333333333333 21:0.9 22:0.6333333333333333 23:0.6333333333333333 24:0.6333333333333333 25:0.6333333333333333 26:0.9 27:0.6333333333333333 28:0.6333333333333333 29:0.6333333333333333 30:0.6333333333333333 
1.0 1:0.6333333333333333 2:0.6333333333333333 3:0.6333333333333333 4:0.6333333333333333 5:0.6333333333333333 6:0.6333333333333333 7:0.6333333333333333 8:0.6333333333333333 9:0.6333333333333333 10:0.6333333333333333 11:0.6333333333333333 12:0.6333333333333333 13:0.6333333333333333 14:0.6333333333333333 15:0.6333333333333333 16:0.6333333333333333 17:0.9 18:0.6333333333333333 19:0.6333333333333333 20:0.6333333333333333 21:0.6333333333333333 22:0.9 23:0.6333333333333333 24:0.6333333333333333 25:0.6333333333333333 26:0.6333333333333333 27:0.6333333333333333 28:0.6333333333333333 29:0.6333333333333333 30:0.6333333333333333 
1.0 1:0.6333333333333333 2:0.6333333333333333 3:0.6333333333333333 4:0.6333333333333333 5:0.6333333333333333 6:0.6333333333333333 7:0.6333333333333333 8:0.6333333333333333 9:0.6333333333333333 10:0.6333333333333333 11:0.9 12:0.6333333333333333 13:0.6333333333333333 14:0.6333333333333333 15:0.6333333333333333 16:0.9 17:0.6333333333333333 18:0.6333333333333333 19:0.6333333333333333 20:0.6333333333333333 21:0.6333333333333333 22:0.6333333333333333 23:0.6333333333333333 24:0.6333333333333333 25:0.9 26:0.6333333333333333 27:0.6333333333333333 28:0.6333333333333333 29:0.6333333333333333 30:0.6333333333333333 
-0.13224404296620187 1:0.6333333333333333 2:0.6333333333333333 3:0.6333333333333333 4:0.6333333333333333 5:0.9 6:0.6333333333333333 7:0.6333333333333333 8:0.6333333333333333 9:0.6333333333333333 10:0.6333333333333333 11:0.9 12:0.6333333333333333 13:0.6333333333333333 14:0.6333333333333333 15:0.6333333333333333 16:0.6333333333333333 17:0.6333333333333333 18:0.6333333333333333 19:0.6333333333333333 20:0.6333333333333333 21:0.6333333333333333 22:0.6333333333333333 23:0.6333333333333333 24:0.6333333333333333 25:0.6333333333333333 26:0.6333333333333333 27:0.6333333333333333 28:0.6333333333333333 29:0.6333333333333333 30:0.6333333333333333 
1.0 1:0.6333333333333333 2:0.6333333333333333 3:0.9 4:0.6333333333333333 5:0.6333333333333333 6:0.6333333333333333 7:0.6333333333333333 8:0.6333333333333333 9:0.6333333333333333 10:0.6333333333333333 11:0.6333333333333333 12:0.6333333333333333 13:0.6333333333333333 14:0.6333333333333333 15:0.6333333333333333 16:0.6333333333333333 17:0.6333333333333333 18:0.6333333333333333 19:0.6333333333333333 20:0.6333333333333333 21:0.6333333333333333 22:0.6333333333333333 23:0.6333333333333333 24:0.6333333333333333 25:0.6333333333333333 26:0.6333333333333333 27:0.6333333333333333 28:0.6333333333333333 29:0.6333333333333333 30:0.6333333333333333 
-1.0 1:0.6333333333333333 2:0.6333333333333333 3:0.6333333333333333 4:0.6333333333333333 5:0.6333333333333333 6:0.6333333333333333 7:0.6333333333333333 8:0.6333333333333333 9:0.6333333333333333 10:0.6333333333333333 11:0.6333333333333333 12:0.6333333333333333 13:0.6333333333333333 14:0.6333333333333333 15:0.6333333333333333 16:0.6333333333333333 17:0.6333333333333333 18:0.6333333333333333 19:0.6333333333333333 20:0.6333333333333333 21:0.6333333333333333 22:0.6333333333333333 23:0.6333333333333333 24:0.6333333333333333 25:0.6333333333333333 26:0.9 27:0.6333333333333333 28:0.6333333333333333 29:0.6333333333333333 30:0.6333333333333333 
-0.22592615969847163 1:0.6333333333333333 2:0.6333333333333333 3:0.6333333333333333 4:0.6333333333333333 5:0.6333333333333333 6:0.6333333333333333 7:0.6333333333333333 8:0.6333333333333333 9:0.6333333333333333 10:0.6333333333333333 11:0.6333333333333333 12:0.6333333333333333 13:0.6333333333333333 14:0.6333333333333333 15:0.6333333333333333 16:0.6333333333333333 17:0.6333333333333333 18:0.6333333333333333 19:0.6333333333333333 20:0.6333333333333333 21:0.6333333333333333 22:0.6333333333333333 23:0.6333333333333333 24:0.6333333333333333 25:0.9 26:0.6333333333333333 27:0.6333333333333333 28:0.6333333333333333 29:0.6333333333333333 30:0.6333333333333333 
1.0 1:0.6333333333333333 2:0.6333333333333333 3:0.6333333333333333 4:0.6333333333333333 5:0.6333333333333333 6:0.6333333333333333 7:0.6333333333333333 8:0.6333333333333333 9:0.6333333333333333 10:0.6333333333333333 11:0.6333333333333333 12:0.6333333333333333 13:0.6333333333333333 14:0.6333333333333333 15:0.6333333333333333 16:0.6333333333333333 17:0.6333333333333333 18:0.6333333333333333 19:0.6333333333333333 20:0.6333333333333333 21:0.9 22:0.6333333333333333 23:0.6333333333333333 24:0.6333333333333333 25:0.6333333333333333 26:0.6333333333333333 27:0.6333333333333333 28:0.6333333333333333 29:0.6333333333333333 30:0.6333333333333333 
-1.0 1:0.6333333333333333 2:0.6333333333333333 3:0.6333333333333333 4:0.6333333333333333 5:0.6333333333333333 6:0.6333333333333333 7:0.6333333333333333 8:0.6333333333333333 9:0.6333333333333333 10:0.6333333333333333 11:0.6333333333333333 12:0.6333333333333333 13:0.6333333333333333 14:0.6333333333333333 15:0.6333333333333333 16:0.9 17:0.6333333333333333 18:0.6333333333333333 19:0.6333333333333333 20:0.6333333333333333 21:0.6333333333333333 22:0.6333333333333333 23:0.6333333333333333 24:0.6333333333333333 25:0.6333333333333333 26:0.9 27:0.6333333333333333 28:0.6333333333333333 29:0.6333333333333333 30:0.6333333333333333 
1.0 1:0.6333333333333333 2:0.6333333333333333 3:0.6333333333333333 4:0.6333333333333333 5:0.6333333333333333 6:0.6333333333333333 7:0.6333333333333333 8:0.6333333333333333 9:0.6333333333333333 10:0.6333333333333333 11:0.6333333333333333 12:0.9 13:0.6333333333333333 14:0.6333333333333333 15:0.6333333333333333 16:0.6333333333333333 17:0.6333333333333333 18:0.6333333333333333 19:0.6333333333333333 20:0.6333333333333333 21:0.6333333333333333 22:0.9 23:0.6333333333333333 24:0.6333333333333333 25:0.6333333333333333 26:0.6333333333333333 27:0.6333333333333333 28:0.6333333333333333 29:0.6333333333333333 30:0.6333333333333333 
-0.6258809667788574 1:0.6333333333333333 2:0.6333333333333333 3:0.6333333333333333 4:0.6333333333333333 5:0.6333333333333333 6:0.9 7:0.6333333333333333 8:0.6333333333333333 9:0.6333333333333333 10:0.6333333333333333 11:0.6333333333333333 12:0.6333333333333333 13:0.6333333333333333 14:0.6333333333333333 15:0.6333333333333333 16:0.9 17:0.6333333333333333 18:0.6333333333333333 19:0.6333333333333333 20:0.6333333333333333 21:0.6333333333333333 22:0.6333333333333333 23:0.6333333333333333 24:0.6333333333333333 25:0.9 26:0.6333333333333333 27:0.6333333333333333 28:0.6333333333333333 29:0.6333333333333333 30:0.6333333333333333 
-1.0 1:0.6333333333333333 2:0.6333333333333333 3:0.6333333333333333 4:0.6333333333333333 5:0.6333333333333333 6:0.6333333333333333 7:0.9 8:0.6333333333333333 9:0.6333333333333333 10:0.6333333333333333 11:0.6333333333333333 12:0.6333333333333333 13:0.6333333333333333 14:0.6333333333333333 15:0.6333333333333333 16:0.9 17:0.6333333333333333 18:0.6333333333333333 19:0.6333333333333333 20:0.6333333333333333 21:0.6333333333333333 22:0.6333333333333333 23:0.6333333333333333 24:0.6333333333333333 25:0.6333333333333333 26:0.6333333333333333 27:0.6333333333333333 28:0.6333333333333333 29:0.6333333333333333 30:0.6333333333333333 
-0.7740738403015284 1:0.3666666666666667 2:0.6333333333333333 3:0.6333333333333333 4:0.6333333333333333 5:0.6333333333333333 6:0.6333333333333333 7:0.6333333333333333 8:0.6333333333333333 9:0.6333333333333333 10:0.6333333333333333 11:0.6333333333333333 12:0.6333333333333333 13:0.6333333333333333 14:0.6333333333333333 15:0.6333333333333333 16:0.6333333333333333 17:0.6333333333333333 18:0.6333333333333333 19:0.6333333333333333 20:0.6333333333333333 21:0.6333333333333333 22:0.6333333333333333 23:0.6333333333333333 24:0.6333333333333333 25:0.6333333333333333 26:0.6333333333333333 27:0.6333333333333333 28:0.6333333333333333 29:0.6333333333333333 30:0.6333333333333333 
-1.0 1:0.6333333333333333 2:0.6333333333333333 3:0.6333333333333333 4:0.6333333333333333 5:0.6333333333333333 6:0.6333333333333333 7:0.6333333333333333 8:0.6333333333333333 9:0.6333333333333333 10:0.6333333333333333 11:0.6333333333333333 12:0.6333333333333333 13:0.6333333333333333 14:0.6333333333333333 15:0.6333333333333333 16:0.6333333333333333 17:0.6333333333333333 18:0.6333333333333333 19:0.6333333333333333 20:0.6333333333333333 21:0.6333333333333333 22:0.6333333333333333 23:0.6333333333333333 24:0.6333333333333333 25:0.6333333333333333 26:0.6333333333333333 27:0.6333333333333333 28:0.6333333333333333 29:0.6333333333333333 30:0.6333333333333333 
-0.9941082320915461 1:0.6333333333333333 2:0.6333333333333333 3:0.6333333333333333 4:0.6333333333333333 5:0.6333333333333333 6:0.6333333333333333 7:0.6333333333333333 8:0.6333333333333333 9:0.6333333333333333 10:0.6333333333333333 11:0.6333333333333333 12:0.6333333333333333 13:0.6333333333333333 14:0.6333333333333333 15:0.6333333333333333 16:0.6333333333333333 17:0.6333333333333333 18:0.6333333333333333 19:0.6333333333333333 20:0.6333333333333333 21:0.6333333333333333 22:0.6333333333333333 23:0.3666666666666667 24:0.6333333333333333 25:0.6333333333333333 26:0.6333333333333333 27:0.6333333333333333 28:0.6333333333333333 29:0.6333333333333333 30:0.6333333333333333 
-1.0 1:0.6333333333333333 2:0.6333333333333333 3:0.6333333333333333 4:0.6333333333333333 5:0.6333333333333333 6:0.6333333333333333 7:0.6333333333333333 8:0.6333333333333333 9:0.6333333333333333 10:0.6333333333333333 11:0.6333333333333333 12:0.6333333333333333 13:0.6333333333333333 14:0.6333333333333333 15:0.6333333333333333 16:0.3666666666666667 17:0.6333333333333333 18:0.6333333333333333 19:0.6333333333333333 20:0.6333333333333333 21:0.6333333333333333 22:0.6333333333333333 23:0.6333333333333333 24:0.6333333333333333 25:0.6333333333333333 26:0.6333333333333333 27:0.6333333333333333 28:0.6333333333333333 29:0.6333333333333333 30:0.6333333333333333 
1.0 1:0.3666666666666667 2:0.6333333333333333 3:0.6333333333333333 4:0.6333333333333333 5:0.6333333333333333 6:0.6333333333333333 7:0.6333333333333333 8:0.6333333333333333 9:0.6333333333333333 10:0.6333333333333333 11:0.6333333333333333 12:0.6333333333333333 13:0.6333333333333333 14:0.6333333333333333 15:0.6333333333333333 16:0.6333333333333333 17:0.6333333333333333 18:0.6333333333333333 19:0.6333333333333333 20:0.6333333333333333 21:0.6333333333333333 22:0.6333333333333333 23:0.6333333333333333 24:0.6333333333333333 25:0.6333333333333333 26:0.6333333333333333 27:0.6333333333333333 28:0.6333333333333333 29:0.6333333333333333 30:0.6333333333333333 
1.0 1:0.6333333333333333 2:0.6333333333333333 3:0.6333333333333333 4:0.6333333333333333 5:0.6333333333333333 6:0.6333333333333333 7:0.6333333333333333 8:0.6333333333333333 9:0.6333333333333333 10:0.6333333333333333 11:0.6333333333333333 12:0.6333333333333333 13:0.6333333333333333 14:0.6333333333333333 15:0.6333333333333333 16:0.6333333333333333 17:0.6333333333333333 18:0.6333333333333333 19:0.6333333333333333 20:0.6333333333333333 21:0.6333333333333333 22:0.6333333333333333 23:0.6333333333333333 24:0.6333333333333333 25:0.6333333333333333 26:0.9 27:0.6333333333333333 28:0.6333333333333333 29:0.6333333333333333 30:0.6333333333333333 
-1.0 1:0.6333333333333333 2:0.6333333333333333 3:0.6333333333333333 4:0.6333333333333333 5:0.6333333333333333 6:0.6333333333333333 7:0.6333333333333333 8:0.6333333333333333 9:0.6333333333333333 10:0.6333333333333333 11:0.6333333333333333 12:0.6333333333333333 13:0.6333333333333333 14:0.6333333333333333 15:0.6333333333333333 16:0.6333333333333333 17:0.6333333333333333 18:0.6333333333333333 19:0.6333333333333333 20:0.6333333333333333 21:0.9 22:0.6333333333333333 23:0.6333333333333333 24:0.6333333333333333 25:0.6333333333333333 26:0.9 27:0.6333333333333333 28:0.6333333333333333 29:0.6333333333333333 30:0.6333333333333333 
-1.0 1:0.6333333333333333 2:0.6333333333333333 3:0.6333333333333333 4:0.6333333333333333 5:0.6333333333333333 6:0.6333333333333333 7:0.6333333333333333 8:0.6333333333333333 9:0.6333333333333333 10:0.6333333333333333 11:0.6333333333333333 12:0.6333333333333333 13:0.6333333333333333 14:0.6333333333333333 15:0.6333333333333333 16:0.6333333333333333 17:0.9 18:0.6333333333333333 19:0.6333333333333333 20:0.6333333333333333 21:0.6333333333333333 22:0.9 23:0.6333333333333333 24:0.6333333333333333 25:0.6333333333333333 26:0.6333333333333333 27:0.6333333333333333 28:0.6333333333333333 29:0.6333333333333333 30:0.6333333333333333 
-1.0 1:0.6333333333333333 2:0.6333333333333333 3:0.6333333333333333 4:0.6333333333333333 5:0.6333333333333333 6:0.6333333333333333 7:0.6333333333333333 8:0.6333333333333333 9:0.6333333333333333 10:0.6333333333333333 11:0.6333333333333333 12:0.6333333333333333 13:0.9 14:0.6333333333333333 15:0.6333333333333333 16:0.6333333333333333 17:0.6333333333333333 18:0.9 19:0.6333333333333333 20:0.6333333333333333 21:0.6333333333333333 22:0.6333333333333333 23:0.6333333333333333 24:0.6333333333333333 25:0.6333333333333333 26:0.6333333333333333 27:0.6333333333333333 28:0.6333333333333333 29:0.6333333333333333 30:0.6333333333333333 
1.0 1:0.6333333333333333 2:0.6333333333333333 3:0.6333333333333333 4:0.6333333333333333 5:0.9 6:0.6333333333333333 7:0.6333333333333333 8:0.6333333333333333 9:0.6333333333333333 10:0.9 11:0.6333333333333333 12:0.6333333333333333 13:0.6333333333333333 14:0.6333333333333333 15:0.6333333333333333 16:0.6333333333333333 17:0.6333333333333333 18:0.6333333333333333 19:0.6333333333333333 20:0.6333333333333333 21:0.6333333333333333 22:0.6333333333333333 23:0.3666666666666667 24:0.6333333333333333 25:0.6333333333333333 26:0.6333333333333333 27:0.6333333333333333 28:0.6333333333333333 29:0.6333333333333333 30:0.6333333333333333 
-0.8918234050950741 1:0.6333333333333333 2:0.6333333333333333 3:0.6333333333333333 4:0.6333333333333333 5:0.9 6:0.6333333333333333 7:0.6333333333333333 8:0.6333333333333333 9:0.6333333333333333 10:0.6333333333333333 11:0.6333333333333333 12:0.6333333333333333 13:0.6333333333333333 14:0.6333333333333333 15:0.6333333333333333 16:0.6333333333333333 17:0.6333333333333333 18:0.3666666666666667 19:0.6333333333333333 20:0.6333333333333333 21:0.6333333333333333 22:0.6333333333333333 23:0.6333333333333333 24:0.6333333333333333 25:0.6333333333333333 26:0.9 27:0.6333333333333333 28:0.6333333333333333 29:0.6333333333333333 30:0.6333333333333333 
-0.20970617209480766 1:0.6333333333333333 2:0.6333333333333333 3:0.6333333333333333 4:0.6333333333333333 5:0.6333333333333333 6:0.6333333333333333 7:0.6333333333333333 8:0.6333333333333333 9:0.6333333333333333 10:0.6333333333333333 11:0.6333333333333333 12:0.6333333333333333 13:0.3666666666666667 14:0.6333333333333333 15:0.6333333333333333 16:0.6333333333333333 17:0.6333333333333333 18:0.6333333333333333 19:0.6333333333333333 20:0.6333333333333333 21:0.9 22:0.6333333333333333 23:0.6333333333333333 24:0.6333333333333333 25:0.6333333333333333 26:0.6333333333333333 27:0.6333333333333333 28:0.6333333333333333 29:0.6333333333333333 30:0.6333333333333333 
-0.979326878337482 1:0.6333333333333333 2:0.6333333333333333 3:0.6333333333333333 4:0.6333333333333333 5:0.6333333333333333 6:0.6333333333333333 7:0.6333333333333333 8:0.6333333333333333 9:0.6333333333333333 10:0.6333333333333333 11:0.6333333333333333 12:0.3666666666666667 13:0.6333333333333333 14:0.6333333333333333 15:0.6333333333333333 16:0.6333333333333333 17:0.6333333333333333 18:0.6333333333333333 19:0.6333333333333333 20:0.9 21:0.6333333333333333 22:0.6333333333333333 23:0.6333333333333333 24:0.6333333333333333 25:0.6333333333333333 26:0.6333333333333333 27:0.6333333333333333 28:0.6333333333333333 29:0.6333333333333333 30:0.6333333333333333 
-0.0023677578460439275 1:0.6333333333333333 2:0.6333333333333333 3:0.6333333333333333 4:0.6333333333333333 5:0.6333333333333333 6:0.6333333333333333 7:0.6333333333333333 8:0.9 9:0.6333333333333333 10:0.6333333333333333 11:0.6333333333333333 12:0.6333333333333333 13:0.6333333333333333 14:0.6333333333333333 15:0.6333333333333333 16:0.6333333333333333 17:0.6333333333333333 18:0.6333333333333333 19:0.6333333333333333 20:0.6333333333333333 21:0.6333333333333333 22:0.6333333333333333 23:0.6333333333333333 24:0.6333333333333333 25:0.6333333333333333 26:0.6333333333333333 27:0.6333333333333333 28:0.6333333333333333 29:0.6333333333333333 30:0.6333333333333333 
-3.9955922308865244E-4 1:0.6333333333333333 2:0.6333333333333333 3:0.9 4:0.6333333333333333 5:0.6333333333333333 6:0.6333333333333333 7:0.6333333333333333 8:0.6333333333333333 9:0.6333333333333333 10:0.6333333333333333 11:0.6333333333333333 12:0.6333333333333333 13:0.6333333333333333 14:0.6333333333333333 15:0.6333333333333333 16:0.6333333333333333 17:0.6333333333333333 18:0.6333333333333333 19:0.6333333333333333 20:0.6333333333333333 21:0.6333333333333333 22:0.6333333333333333 23:0.6333333333333333 24:0.6333333333333333 25:0.6333333333333333 26:0.6333333333333333 27:0.6333333333333333 28:0.6333333333333333 29:0.6333333333333333 30:0.6333333333333333 
-0.5979523216010522 1:0.9 2:0.6333333333333333 3:0.6333333333333333 4:0.6333333333333333 5:0.6333333333333333 6:0.6333333333333333 7:0.6333333333333333 8:0.6333333333333333 9:0.6333333333333333 10:0.6333333333333333 11:0.6333333333333333 12:0.6333333333333333 13:0.6333333333333333 14:0.6333333333333333 15:0.6333333333333333 16:0.6333333333333333 17:0.6333333333333333 18:0.6333333333333333 19:0.6333333333333333 20:0.6333333333333333 21:0.6333333333333333 22:0.6333333333333333 23:0.6333333333333333 24:0.6333333333333333 25:0.6333333333333333 26:0.6333333333333333 27:0.6333333333333333 28:0.6333333333333333 29:0.6333333333333333 30:0.6333333333333333 
-1.0 1:0.6333333333333333 2:0.6333333333333333 3:0.6333333333333333 4:0.6333333333333333 5:0.6333333333333333 6:0.6333333333333333 7:0.6333333333333333 8:0.6333333333333333 9:0.6333333333333333 10:0.6333333333333333 11:0.6333333333333333 12:0.6333333333333333 13:0.6333333333333333 14:0.6333333333333333 15:0.6333333333333333 16:0.6333333333333333 17:0.6333333333333333 18:0.6333333333333333 19:0.6333333333333333 20:0.6333333333333333 21:0.6333333333333333 22:0.6333333333333333 23:0.6333333333333333 24:0.6333333333333333 25:0.6333333333333333 26:0.6333333333333333 27:0.6333333333333333 28:0.6333333333333333 29:0.6333333333333333 30:0.6333333333333333 
