encog,SVM,java,3.1.0,1,1400507819063
[SVM]
[SVM:PARAMS]
[SVM:SVM-PARAM]
inputCount=30
C=1
cacheSize=100
coef0=0
degree=3
eps=0.001
gamma=0.0333333333
kernelType=2
nrWeight=0
nu=0.5
p=0.1
probability=0
shrinking=1
svmType=3
weight=
weightLabel=
[SVM:SVM-MODEL]
svm_type epsilon_svr
kernel_type rbf
gamma 0.03333333333333333
nr_class 2
total_sv 20
rho -0.7342028582537006
SV
-1.0 1:0.788135593220339 2:0.8288135593220339 3:0.8288135593220339 4:0.8288135593220339 5:0.8288135593220339 6:0.7915254237288136 7:0.8288135593220339 8:0.8288135593220339 9:0.8288135593220339 10:0.8288135593220339 11:0.811864406779661 12:0.8288135593220339 13:0.8288135593220339 14:0.8288135593220339 15:0.8288135593220339 16:0.7847457627118645 17:0.8288135593220339 18:0.8288135593220339 19:0.8288135593220339 20:0.8288135593220339 21:0.7067796610169491 22:0.8288135593220339 23:0.8288135593220339 24:0.8288135593220339 25:0.8288135593220339 26:0.7576271186440678 27:0.8288135593220339 28:0.8288135593220339 29:0.8288135593220339 30:0.8288135593220339 
-1.0 1:0.7915254237288136 2:0.8288135593220339 3:0.8288135593220339 4:0.8288135593220339 5:0.8288135593220339 6:0.811864406779661 7:0.8288135593220339 8:0.8288135593220339 9:0.8288135593220339 10:0.8288135593220339 11:0.7847457627118645 12:0.8288135593220339 13:0.8288135593220339 14:0.8288135593220339 15:0.8288135593220339 16:0.7067796610169491 17:0.8288135593220339 18:0.8288135593220339 19:0.8288135593220339 20:0.8288135593220339 21:0.7576271186440678 22:0.8288135593220339 23:0.8288135593220339 24:0.8288135593220339 25:0.8288135593220339 26:0.6491525423728813 27:0.8288135593220339 28:0.8288135593220339 29:0.8288135593220339 30:0.8288135593220339 
-1.0 1:0.7847457627118645 2:0.8288135593220339 3:0.8288135593220339 4:0.8288135593220339 5:0.8288135593220339 6:0.7067796610169491 7:0.8288135593220339 8:0.8288135593220339 9:0.8288135593220339 10:0.8288135593220339 11:0.7576271186440678 12:0.8288135593220339 13:0.8288135593220339 14:0.8288135593220339 15:0.8288135593220339 16:0.6491525423728813 17:0.8288135593220339 18:0.8288135593220339 19:0.8288135593220339 20:0.8288135593220339 21:0.1 22:0.8288135593220339 23:0.8288135593220339 24:0.8288135593220339 25:0.8288135593220339 26:0.5847457627118645 27:0.8288135593220339 28:0.8288135593220339 29:0.8288135593220339 30:0.8288135593220339 
-1.0 1:0.7576271186440678 2:0.8288135593220339 3:0.8288135593220339 4:0.8288135593220339 5:0.8288135593220339 6:0.6491525423728813 7:0.8288135593220339 8:0.8288135593220339 9:0.8288135593220339 10:0.8288135593220339 11:0.1 12:0.8288135593220339 13:0.8288135593220339 14:0.8288135593220339 15:0.8288135593220339 16:0.5847457627118645 17:0.8288135593220339 18:0.8288135593220339 19:0.8288135593220339 20:0.8288135593220339 21:0.2423728813559322 22:0.8288135593220339 23:0.8288135593220339 24:0.8288135593220339 25:0.8288135593220339 26:0.6559322033898305 27:0.8288135593220339 28:0.8288135593220339 29:0.8288135593220339 30:0.8288135593220339 
-1.0 1:0.6491525423728813 2:0.8288135593220339 3:0.8288135593220339 4:0.8288135593220339 5:0.8288135593220339 6:0.1 7:0.8288135593220339 8:0.8288135593220339 9:0.8288135593220339 10:0.8288135593220339 11:0.5847457627118645 12:0.8288135593220339 13:0.8288135593220339 14:0.8288135593220339 15:0.8288135593220339 16:0.2423728813559322 17:0.8288135593220339 18:0.8288135593220339 19:0.8288135593220339 20:0.8288135593220339 21:0.6559322033898305 22:0.8288135593220339 23:0.8288135593220339 24:0.8288135593220339 25:0.8288135593220339 26:0.41864406779661023 27:0.8288135593220339 28:0.8288135593220339 29:0.8288135593220339 30:0.8288135593220339 
1.0 1:0.1 2:0.8288135593220339 3:0.8288135593220339 4:0.8288135593220339 5:0.8288135593220339 6:0.5847457627118645 7:0.8288135593220339 8:0.8288135593220339 9:0.8288135593220339 10:0.8288135593220339 11:0.2423728813559322 12:0.8288135593220339 13:0.8288135593220339 14:0.8288135593220339 15:0.8288135593220339 16:0.6559322033898305 17:0.8288135593220339 18:0.8288135593220339 19:0.8288135593220339 20:0.8288135593220339 21:0.41864406779661023 22:0.8288135593220339 23:0.8288135593220339 24:0.8288135593220339 25:0.8288135593220339 26:0.4728813559322034 27:0.8288135593220339 28:0.8288135593220339 29:0.8288135593220339 30:0.8288135593220339 
0.3265666450175585 1:0.5847457627118645 2:0.8288135593220339 3:0.8288135593220339 4:0.8288135593220339 5:0.8288135593220339 6:0.2423728813559322 7:0.8288135593220339 8:0.8288135593220339 9:0.8288135593220339 10:0.8288135593220339 11:0.6559322033898305 12:0.8288135593220339 13:0.8288135593220339 14:0.8288135593220339 15:0.8288135593220339 16:0.41864406779661023 17:0.8288135593220339 18:0.8288135593220339 19:0.8288135593220339 20:0.8288135593220339 21:0.4728813559322034 22:0.8288135593220339 23:0.8288135593220339 24:0.8288135593220339 25:0.8288135593220339 26:0.8084745762711865 27:0.8288135593220339 28:0.8288135593220339 29:0.8288135593220339 30:0.8288135593220339 
-1.0 1:0.7203389830508475 2:0.8288135593220339 3:0.8288135593220339 4:0.8288135593220339 5:0.8288135593220339 6:0.7169491525423729 7:0.8288135593220339 8:0.8288135593220339 9:0.8288135593220339 10:0.8288135593220339 11:0.7237288135593221 12:0.8288135593220339 13:0.8288135593220339 14:0.8288135593220339 15:0.8288135593220339 16:0.7372881355932204 17:0.8288135593220339 18:0.8288135593220339 19:0.8288135593220339 20:0.8288135593220339 21:0.7338983050847457 22:0.8288135593220339 23:0.8288135593220339 24:0.8288135593220339 25:0.8288135593220339 26:0.7135593220338983 27:0.8288135593220339 28:0.8288135593220339 29:0.8288135593220339 30:0.8288135593220339 
-1.0 1:0.8288135593220339 2:0.8288135593220339 3:0.8288135593220339 4:0.8288135593220339 5:0.8288135593220339 6:0.8288135593220339 7:0.8288135593220339 8:0.8288135593220339 9:0.8288135593220339 10:0.7813559322033898 11:0.8288135593220339 12:0.8288135593220339 13:0.8288135593220339 14:0.8288135593220339 15:0.8288135593220339 16:0.8288135593220339 17:0.8288135593220339 18:0.7101694915254237 19:0.8288135593220339 20:0.8288135593220339 21:0.8288135593220339 22:0.8288135593220339 23:0.8288135593220339 24:0.8288135593220339 25:0.8288135593220339 26:0.7847457627118645 27:0.8288135593220339 28:0.8288135593220339 29:0.8288135593220339 30:0.8288135593220339 
-1.0 1:0.8288135593220339 2:0.8288135593220339 3:0.8288135593220339 4:0.8288135593220339 5:0.7813559322033898 6:0.8288135593220339 7:0.8288135593220339 8:0.8288135593220339 9:0.8288135593220339 10:0.8288135593220339 11:0.8288135593220339 12:0.8288135593220339 13:0.7101694915254237 14:0.8288135593220339 15:0.8288135593220339 16:0.8288135593220339 17:0.8288135593220339 18:0.8288135593220339 19:0.8288135593220339 20:0.8288135593220339 21:0.7847457627118645 22:0.8288135593220339 23:0.8288135593220339 24:0.8288135593220339 25:0.8288135593220339 26:0.3169491525423729 27:0.8288135593220339 28:0.8288135593220339 29:0.8288135593220339 30:0.8288135593220339 
-1.0 1:0.8288135593220339 2:0.8288135593220339 3:0.8288135593220339 4:0.8288135593220339 5:0.8288135593220339 6:0.8288135593220339 7:0.8288135593220339 8:0.7101694915254237 9:0.8288135593220339 10:0.8288135593220339 11:0.8288135593220339 12:0.8288135593220339 13:0.8288135593220339 14:0.8288135593220339 15:0.8288135593220339 16:0.7847457627118645 17:0.8288135593220339 18:0.8288135593220339 19:0.8288135593220339 20:0.8288135593220339 21:0.3169491525423729 22:0.8288135593220339 23:0.8288135593220339 24:0.8288135593220339 25:0.8288135593220339 26:0.5542372881355933 27:0.8288135593220339 28:0.8288135593220339 29:0.8288135593220339 30:0.8288135593220339 
0.4201369976079261 1:0.8288135593220339 2:0.8288135593220339 3:0.7101694915254237 4:0.8288135593220339 5:0.8288135593220339 6:0.8288135593220339 7:0.8288135593220339 8:0.8288135593220339 9:0.8288135593220339 10:0.8288135593220339 11:0.7847457627118645 12:0.8288135593220339 13:0.8288135593220339 14:0.8288135593220339 15:0.8288135593220339 16:0.3169491525423729 17:0.8288135593220339 18:0.8288135593220339 19:0.8288135593220339 20:0.8288135593220339 21:0.5542372881355933 22:0.8288135593220339 23:0.8288135593220339 24:0.8288135593220339 25:0.8288135593220339 26:0.33728813559322035 27:0.8288135593220339 28:0.8288135593220339 29:0.8288135593220339 30:0.8288135593220339 
0.363587536050998 1:0.8288135593220339 2:0.8288135593220339 3:0.8288135593220339 4:0.8288135593220339 5:0.8288135593220339 6:0.7847457627118645 7:0.8288135593220339 8:0.8288135593220339 9:0.8288135593220339 10:0.8288135593220339 11:0.3169491525423729 12:0.8288135593220339 13:0.8288135593220339 14:0.8288135593220339 15:0.8288135593220339 16:0.5542372881355933 17:0.8288135593220339 18:0.8288135593220339 19:0.8288135593220339 20:0.8288135593220339 21:0.33728813559322035 22:0.8288135593220339 23:0.8288135593220339 24:0.8288135593220339 25:0.8288135593220339 26:0.7813559322033898 27:0.8288135593220339 28:0.8288135593220339 29:0.8288135593220339 30:0.8288135593220339 
1.0 1:0.8288135593220339 2:0.8288135593220339 3:0.8288135593220339 4:0.8288135593220339 5:0.8288135593220339 6:0.8288135593220339 7:0.8288135593220339 8:0.8288135593220339 9:0.8288135593220339 10:0.8288135593220339 11:0.8288135593220339 12:0.8288135593220339 13:0.8288135593220339 14:0.8288135593220339 15:0.8288135593220339 16:0.8288135593220339 17:0.8288135593220339 18:0.8288135593220339 19:0.8288135593220339 20:0.8288135593220339 21:0.8288135593220339 22:0.8288135593220339 23:0.8288135593220339 24:0.8288135593220339 25:0.8288135593220339 26:0.8864406779661017 27:0.8288135593220339 28:0.8288135593220339 29:0.8288135593220339 30:0.8288135593220339 
1.0 1:0.8288135593220339 2:0.8932203389830509 3:0.8288135593220339 4:0.8288135593220339 5:0.8288135593220339 6:0.8288135593220339 7:0.8898305084745763 8:0.8288135593220339 9:0.8288135593220339 10:0.8288135593220339 11:0.8288135593220339 12:0.8762711864406779 13:0.8288135593220339 14:0.8288135593220339 15:0.8288135593220339 16:0.8288135593220339 17:0.8491525423728813 18:0.8288135593220339 19:0.8288135593220339 20:0.8288135593220339 21:0.8288135593220339 22:0.8491525423728813 23:0.8288135593220339 24:0.8288135593220339 25:0.8288135593220339 26:0.8288135593220339 27:0.8288135593220339 28:0.8288135593220339 29:0.8288135593220339 30:0.8288135593220339 
1.0 1:0.8288135593220339 2:0.8288135593220339 3:0.8288135593220339 4:0.8966101694915255 5:0.8288135593220339 6:0.8288135593220339 7:0.8288135593220339 8:0.8288135593220339 9:0.8830508474576271 10:0.8288135593220339 11:0.8288135593220339 12:0.8288135593220339 13:0.8288135593220339 14:0.8932203389830509 15:0.8288135593220339 16:0.8288135593220339 17:0.8288135593220339 18:0.8288135593220339 19:0.8932203389830509 20:0.8288135593220339 21:0.8288135593220339 22:0.8288135593220339 23:0.8288135593220339 24:0.8864406779661017 25:0.8288135593220339 26:0.8288135593220339 27:0.8288135593220339 28:0.8288135593220339 29:0.8288135593220339 30:0.8288135593220339 
1.0 1:0.8288135593220339 2:0.8288135593220339 3:0.8593220338983051 4:0.8288135593220339 5:0.8288135593220339 6:0.8288135593220339 7:0.8288135593220339 8:0.852542372881356 9:0.8288135593220339 10:0.8288135593220339 11:0.8288135593220339 12:0.8288135593220339 13:0.8491525423728813 14:0.8288135593220339 15:0.8288135593220339 16:0.8288135593220339 17:0.8288135593220339 18:0.852542372881356 19:0.8288135593220339 20:0.8288135593220339 21:0.8288135593220339 22:0.8288135593220339 23:0.8694915254237289 24:0.8288135593220339 25:0.8288135593220339 26:0.8288135593220339 27:0.8288135593220339 28:0.8288135593220339 29:0.8288135593220339 30:0.8288135593220339 
1.0 1:0.8288135593220339 2:0.8288135593220339 3:0.8288135593220339 4:0.8288135593220339 5:0.8491525423728813 6:0.8288135593220339 7:0.8288135593220339 8:0.8288135593220339 9:0.8288135593220339 10:0.8288135593220339 11:0.8796610169491526 12:0.8288135593220339 13:0.8288135593220339 14:0.8288135593220339 15:0.8288135593220339 16:0.8288135593220339 17:0.8288135593220339 18:0.8288135593220339 19:0.8288135593220339 20:0.8864406779661017 21:0.8288135593220339 22:0.8288135593220339 23:0.8288135593220339 24:0.8288135593220339 25:0.8288135593220339 26:0.8288135593220339 27:0.8288135593220339 28:0.8288135593220339 29:0.8288135593220339 30:0.8288135593220339 
0.8897088213235174 1:0.8661016949152542 2:0.8288135593220339 3:0.8288135593220339 4:0.8288135593220339 5:0.8288135593220339 6:0.8966101694915255 7:0.8288135593220339 8:0.8288135593220339 9:0.8288135593220339 10:0.8288135593220339 11:0.8627118644067797 12:0.8288135593220339 13:0.8288135593220339 14:0.8288135593220339 15:0.8288135593220339 16:0.8966101694915255 17:0.8288135593220339 18:0.8288135593220339 19:0.8288135593220339 20:0.8288135593220339 21:0.8593220338983051 22:0.8288135593220339 23:0.8288135593220339 24:0.8288135593220339 25:0.8288135593220339 26:0.8559322033898306 27:0.8288135593220339 28:0.8288135593220339 29:0.8288135593220339 30:0.8288135593220339 
1.0 1:0.9 2:0.8288135593220339 3:0.8288135593220339 4:0.8288135593220339 5:0.8288135593220339 6:0.8830508474576271 7:0.8288135593220339 8:0.8288135593220339 9:0.8288135593220339 10:0.8288135593220339 11:0.8288135593220339 12:0.8288135593220339 13:0.8288135593220339 14:0.8288135593220339 15:0.8288135593220339 16:0.8593220338983051 17:0.8288135593220339 18:0.8288135593220339 19:0.8288135593220339 20:0.8288135593220339 21:0.8864406779661017 22:0.8288135593220339 23:0.8288135593220339 24:0.8288135593220339 25:0.8288135593220339 26:0.8288135593220339 27:0.8288135593220339 28:0.8288135593220339 29:0.8288135593220339 30:0.8288135593220339 
