encog,SVM,java,3.1.0,1,1400510312743
[SVM]
[SVM:PARAMS]
[SVM:SVM-PARAM]
inputCount=30
C=1
cacheSize=100
coef0=0
degree=3
eps=0.001
gamma=0.0333333333
kernelType=2
nrWeight=0
nu=0.5
p=0.1
probability=0
shrinking=1
svmType=3
weight=
weightLabel=
[SVM:SVM-MODEL]
svm_type epsilon_svr
kernel_type rbf
gamma 0.03333333333333333
nr_class 2
total_sv 33
rho -0.7205811884988299
SV
1.0 1:0.7892307692307693 2:0.7687179487179486 3:0.7687179487179486 4:0.7687179487179486 5:0.7687179487179486 6:0.7892307692307693 7:0.7687179487179486 8:0.7687179487179486 9:0.7687179487179486 10:0.7687179487179486 11:0.7646153846153846 12:0.7687179487179486 13:0.7687179487179486 14:0.7687179487179486 15:0.7687179487179486 16:0.7769230769230768 17:0.7687179487179486 18:0.7687179487179486 19:0.7687179487179486 20:0.7687179487179486 21:0.785128205128205 22:0.7687179487179486 23:0.7687179487179486 24:0.7687179487179486 25:0.7687179487179486 26:0.7892307692307693 27:0.7687179487179486 28:0.7687179487179486 29:0.7687179487179486 30:0.7687179487179486 
-1.0 1:0.785128205128205 2:0.7687179487179486 3:0.7687179487179486 4:0.7687179487179486 5:0.7687179487179486 6:0.7687179487179486 7:0.7687179487179486 8:0.7687179487179486 9:0.7687179487179486 10:0.7687179487179486 11:0.7687179487179486 12:0.7687179487179486 13:0.7687179487179486 14:0.7687179487179486 15:0.7687179487179486 16:0.7687179487179486 17:0.7687179487179486 18:0.7687179487179486 19:0.7687179487179486 20:0.7687179487179486 21:0.7646153846153846 22:0.7687179487179486 23:0.7687179487179486 24:0.7687179487179486 25:0.7687179487179486 26:0.7687179487179486 27:0.7687179487179486 28:0.7687179487179486 29:0.7687179487179486 30:0.7687179487179486 
-1.0 1:0.7687179487179486 2:0.7687179487179486 3:0.7687179487179486 4:0.7687179487179486 5:0.7687179487179486 6:0.7687179487179486 7:0.7687179487179486 8:0.7687179487179486 9:0.7687179487179486 10:0.7687179487179486 11:0.7728205128205129 12:0.7687179487179486 13:0.7687179487179486 14:0.7687179487179486 15:0.7687179487179486 16:0.7646153846153846 17:0.7687179487179486 18:0.7687179487179486 19:0.7687179487179486 20:0.7687179487179486 21:0.7728205128205129 22:0.7687179487179486 23:0.7687179487179486 24:0.7687179487179486 25:0.7687179487179486 26:0.7687179487179486 27:0.7687179487179486 28:0.7687179487179486 29:0.7687179487179486 30:0.7687179487179486 
1.0 1:0.7646153846153846 2:0.7687179487179486 3:0.7687179487179486 4:0.7687179487179486 5:0.7687179487179486 6:0.7646153846153846 7:0.7687179487179486 8:0.7687179487179486 9:0.7687179487179486 10:0.7687179487179486 11:0.7646153846153846 12:0.7687179487179486 13:0.7687179487179486 14:0.7687179487179486 15:0.7687179487179486 16:0.7769230769230768 17:0.7687179487179486 18:0.7687179487179486 19:0.7687179487179486 20:0.7687179487179486 21:0.7646153846153846 22:0.7687179487179486 23:0.7687179487179486 24:0.7687179487179486 25:0.7687179487179486 26:0.7276923076923076 27:0.7687179487179486 28:0.7687179487179486 29:0.7687179487179486 30:0.7687179487179486 
1.0 1:0.7687179487179486 2:0.7687179487179486 3:0.7687179487179486 4:0.7687179487179486 5:0.7687179487179486 6:0.7769230769230768 7:0.7687179487179486 8:0.7687179487179486 9:0.7687179487179486 10:0.7687179487179486 11:0.7646153846153846 12:0.7687179487179486 13:0.7687179487179486 14:0.7687179487179486 15:0.7687179487179486 16:0.7523076923076922 17:0.7687179487179486 18:0.7687179487179486 19:0.7687179487179486 20:0.7687179487179486 21:0.781025641025641 22:0.7687179487179486 23:0.7687179487179486 24:0.7687179487179486 25:0.7687179487179486 26:0.7728205128205129 27:0.7687179487179486 28:0.7687179487179486 29:0.7687179487179486 30:0.7687179487179486 
1.0 1:0.7769230769230768 2:0.7687179487179486 3:0.7687179487179486 4:0.7687179487179486 5:0.7687179487179486 6:0.7646153846153846 7:0.7687179487179486 8:0.7687179487179486 9:0.7687179487179486 10:0.7687179487179486 11:0.7523076923076922 12:0.7687179487179486 13:0.7687179487179486 14:0.7687179487179486 15:0.7687179487179486 16:0.781025641025641 17:0.7687179487179486 18:0.7687179487179486 19:0.7687179487179486 20:0.7687179487179486 21:0.7728205128205129 22:0.7687179487179486 23:0.7687179487179486 24:0.7687179487179486 25:0.7687179487179486 26:0.8015384615384614 27:0.7687179487179486 28:0.7687179487179486 29:0.7687179487179486 30:0.7687179487179486 
-1.0 1:0.7687179487179486 2:0.7687179487179486 3:0.7728205128205129 4:0.7687179487179486 5:0.7687179487179486 6:0.7687179487179486 7:0.7687179487179486 8:0.8015384615384614 9:0.7687179487179486 10:0.7687179487179486 11:0.7687179487179486 12:0.7687179487179486 13:0.8015384615384614 14:0.7687179487179486 15:0.7687179487179486 16:0.7687179487179486 17:0.7687179487179486 18:0.7687179487179486 19:0.7687179487179486 20:0.7687179487179486 21:0.7646153846153846 22:0.7687179487179486 23:0.7687179487179486 24:0.7687179487179486 25:0.7687179487179486 26:0.7687179487179486 27:0.7687179487179486 28:0.7687179487179486 29:0.7687179487179486 30:0.7687179487179486 
1.0 1:0.7769230769230768 2:0.7687179487179486 3:0.7687179487179486 4:0.7687179487179486 5:0.7687179487179486 6:0.7646153846153846 7:0.7687179487179486 8:0.7687179487179486 9:0.7687179487179486 10:0.7687179487179486 11:0.7564102564102564 12:0.7687179487179486 13:0.7687179487179486 14:0.7687179487179486 15:0.7687179487179486 16:0.785128205128205 17:0.7687179487179486 18:0.7687179487179486 19:0.7687179487179486 20:0.7687179487179486 21:0.785128205128205 22:0.7687179487179486 23:0.7687179487179486 24:0.7687179487179486 25:0.7687179487179486 26:0.7687179487179486 27:0.7687179487179486 28:0.7687179487179486 29:0.7687179487179486 30:0.7687179487179486 
1.0 1:0.7687179487179486 2:0.7687179487179486 3:0.7687179487179486 4:0.7687179487179486 5:0.785128205128205 6:0.7687179487179486 7:0.7687179487179486 8:0.7687179487179486 9:0.7687179487179486 10:0.7687179487179486 11:0.7687179487179486 12:0.7687179487179486 13:0.7687179487179486 14:0.7687179487179486 15:0.7974358974358975 16:0.7687179487179486 17:0.7687179487179486 18:0.7687179487179486 19:0.7687179487179486 20:0.7687179487179486 21:0.7687179487179486 22:0.7687179487179486 23:0.7933333333333333 24:0.7687179487179486 25:0.7687179487179486 26:0.7687179487179486 27:0.7687179487179486 28:0.7687179487179486 29:0.7687179487179486 30:0.7687179487179486 
-1.0 1:0.7687179487179486 2:0.7687179487179486 3:0.7564102564102564 4:0.7687179487179486 5:0.7687179487179486 6:0.7687179487179486 7:0.7687179487179486 8:0.7769230769230768 9:0.7687179487179486 10:0.7687179487179486 11:0.7687179487179486 12:0.7687179487179486 13:0.7646153846153846 14:0.7687179487179486 15:0.7687179487179486 16:0.7687179487179486 17:0.7687179487179486 18:0.785128205128205 19:0.7687179487179486 20:0.7687179487179486 21:0.7687179487179486 22:0.7687179487179486 23:0.7687179487179486 24:0.7687179487179486 25:0.7687179487179486 26:0.7687179487179486 27:0.7687179487179486 28:0.7687179487179486 29:0.7687179487179486 30:0.7687179487179486 
1.0 1:0.7687179487179486 2:0.7687179487179486 3:0.7687179487179486 4:0.7769230769230768 5:0.7687179487179486 6:0.7687179487179486 7:0.7687179487179486 8:0.7687179487179486 9:0.7646153846153846 10:0.7687179487179486 11:0.7687179487179486 12:0.7687179487179486 13:0.7687179487179486 14:0.785128205128205 15:0.7687179487179486 16:0.7687179487179486 17:0.7687179487179486 18:0.7687179487179486 19:0.7687179487179486 20:0.7687179487179486 21:0.7687179487179486 22:0.7687179487179486 23:0.7687179487179486 24:0.7687179487179486 25:0.7687179487179486 26:0.7687179487179486 27:0.13692307692307693 28:0.7687179487179486 29:0.7687179487179486 30:0.7687179487179486 
-1.0 1:0.785128205128205 2:0.7687179487179486 3:0.7687179487179486 4:0.7687179487179486 5:0.7687179487179486 6:0.7687179487179486 7:0.7687179487179486 8:0.7687179487179486 9:0.7687179487179486 10:0.7687179487179486 11:0.7687179487179486 12:0.7687179487179486 13:0.7687179487179486 14:0.13692307692307693 15:0.7687179487179486 16:0.7687179487179486 17:0.7687179487179486 18:0.8876923076923076 19:0.7687179487179486 20:0.7687179487179486 21:0.7687179487179486 22:0.7687179487179486 23:0.7687179487179486 24:0.7687179487179486 25:0.7687179487179486 26:0.7687179487179486 27:0.7687179487179486 28:0.7687179487179486 29:0.7687179487179486 30:0.7687179487179486 
-1.0 1:0.7687179487179486 2:0.7687179487179486 3:0.7687179487179486 4:0.7687179487179486 5:0.7687179487179486 6:0.7687179487179486 7:0.7687179487179486 8:0.7687179487179486 9:0.7687179487179486 10:0.7687179487179486 11:0.7687179487179486 12:0.7687179487179486 13:0.7687179487179486 14:0.7687179487179486 15:0.7687179487179486 16:0.7687179487179486 17:0.7687179487179486 18:0.7687179487179486 19:0.7687179487179486 20:0.7687179487179486 21:0.7687179487179486 22:0.7687179487179486 23:0.7687179487179486 24:0.7687179487179486 25:0.7687179487179486 26:0.7687179487179486 27:0.7687179487179486 28:0.7687179487179486 29:0.7687179487179486 30:0.7687179487179486 
1.0 1:0.7687179487179486 2:0.7687179487179486 3:0.7687179487179486 4:0.7687179487179486 5:0.7687179487179486 6:0.7687179487179486 7:0.7687179487179486 8:0.7687179487179486 9:0.7687179487179486 10:0.7687179487179486 11:0.7687179487179486 12:0.7687179487179486 13:0.7687179487179486 14:0.7687179487179486 15:0.7687179487179486 16:0.7687179487179486 17:0.7687179487179486 18:0.7687179487179486 19:0.7687179487179486 20:0.7687179487179486 21:0.7687179487179486 22:0.7687179487179486 23:0.7687179487179486 24:0.7687179487179486 25:0.7687179487179486 26:0.7687179487179486 27:0.7687179487179486 28:0.7687179487179486 29:0.7687179487179486 30:0.7687179487179486 
-1.0 1:0.7687179487179486 2:0.7687179487179486 3:0.7687179487179486 4:0.7687179487179486 5:0.7687179487179486 6:0.7687179487179486 7:0.7892307692307693 8:0.7687179487179486 9:0.7687179487179486 10:0.7687179487179486 11:0.7687179487179486 12:0.7646153846153846 13:0.7687179487179486 14:0.7687179487179486 15:0.7687179487179486 16:0.7687179487179486 17:0.7646153846153846 18:0.7687179487179486 19:0.7687179487179486 20:0.7687179487179486 21:0.7687179487179486 22:0.7769230769230768 23:0.7687179487179486 24:0.7687179487179486 25:0.7687179487179486 26:0.7687179487179486 27:0.7687179487179486 28:0.7687179487179486 29:0.7687179487179486 30:0.7687179487179486 
0.12727101052164713 1:0.7646153846153846 2:0.7687179487179486 3:0.7687179487179486 4:0.7687179487179486 5:0.7687179487179486 6:0.7646153846153846 7:0.7687179487179486 8:0.7687179487179486 9:0.7687179487179486 10:0.7687179487179486 11:0.7769230769230768 12:0.7687179487179486 13:0.7687179487179486 14:0.7687179487179486 15:0.7687179487179486 16:0.7687179487179486 17:0.7687179487179486 18:0.7687179487179486 19:0.7687179487179486 20:0.14102564102564102 21:0.7687179487179486 22:0.7687179487179486 23:0.7687179487179486 24:0.7687179487179486 25:0.7687179487179486 26:0.6456410256410257 27:0.7687179487179486 28:0.7687179487179486 29:0.7687179487179486 30:0.7687179487179486 
0.6239681959357847 1:0.7646153846153846 2:0.7687179487179486 3:0.7687179487179486 4:0.7687179487179486 5:0.7687179487179486 6:0.7769230769230768 7:0.7687179487179486 8:0.7687179487179486 9:0.7687179487179486 10:0.7687179487179486 11:0.7687179487179486 12:0.7687179487179486 13:0.7687179487179486 14:0.7687179487179486 15:0.14102564102564102 16:0.7687179487179486 17:0.7687179487179486 18:0.7687179487179486 19:0.7687179487179486 20:0.7687179487179486 21:0.6456410256410257 22:0.7687179487179486 23:0.7687179487179486 24:0.7687179487179486 25:0.7687179487179486 26:0.7769230769230768 27:0.7687179487179486 28:0.7687179487179486 29:0.7687179487179486 30:0.7687179487179486 
1.0 1:0.7687179487179486 2:0.7687179487179486 3:0.7605128205128204 4:0.7687179487179486 5:0.7687179487179486 6:0.7687179487179486 7:0.7687179487179486 8:0.7687179487179486 9:0.7687179487179486 10:0.7687179487179486 11:0.7687179487179486 12:0.7687179487179486 13:0.7687179487179486 14:0.7687179487179486 15:0.7687179487179486 16:0.662051282051282 17:0.7687179487179486 18:0.7687179487179486 19:0.7687179487179486 20:0.7687179487179486 21:0.7687179487179486 22:0.7687179487179486 23:0.7687179487179486 24:0.7687179487179486 25:0.7687179487179486 26:0.7523076923076922 27:0.7687179487179486 28:0.7687179487179486 29:0.7687179487179486 30:0.7687179487179486 
-1.0 1:0.7687179487179486 2:0.7687179487179486 3:0.7687179487179486 4:0.7687179487179486 5:0.7687179487179486 6:0.7687179487179486 7:0.7892307692307693 8:0.7687179487179486 9:0.7687179487179486 10:0.7687179487179486 11:0.7687179487179486 12:0.7482051282051282 13:0.7687179487179486 14:0.7687179487179486 15:0.7687179487179486 16:0.7687179487179486 17:0.7769230769230768 18:0.7687179487179486 19:0.7687179487179486 20:0.7687179487179486 21:0.7687179487179486 22:0.7728205128205129 23:0.7687179487179486 24:0.7687179487179486 25:0.7687179487179486 26:0.7687179487179486 27:0.7687179487179486 28:0.7687179487179486 29:0.7687179487179486 30:0.7687179487179486 
0.14661601669312732 1:0.7687179487179486 2:0.7687179487179486 3:0.7687179487179486 4:0.7687179487179486 5:0.7728205128205129 6:0.7687179487179486 7:0.7687179487179486 8:0.7687179487179486 9:0.7687179487179486 10:0.7687179487179486 11:0.7687179487179486 12:0.7687179487179486 13:0.7687179487179486 14:0.14102564102564102 15:0.7687179487179486 16:0.7687179487179486 17:0.7687179487179486 18:0.7687179487179486 19:0.7687179487179486 20:0.6333333333333332 21:0.7687179487179486 22:0.7687179487179486 23:0.7687179487179486 24:0.7687179487179486 25:0.7564102564102564 26:0.7687179487179486 27:0.7687179487179486 28:0.7687179487179486 29:0.7687179487179486 30:0.7687179487179486 
1.0 1:0.7687179487179486 2:0.7687179487179486 3:0.7728205128205129 4:0.7687179487179486 5:0.7687179487179486 6:0.7687179487179486 7:0.7687179487179486 8:0.7687179487179486 9:0.7687179487179486 10:0.7687179487179486 11:0.7687179487179486 12:0.14102564102564102 13:0.7687179487179486 14:0.7687179487179486 15:0.7687179487179486 16:0.7687179487179486 17:0.7687179487179486 18:0.6333333333333332 19:0.7687179487179486 20:0.7687179487179486 21:0.7687179487179486 22:0.7687179487179486 23:0.7564102564102564 24:0.7687179487179486 25:0.7687179487179486 26:0.7687179487179486 27:0.7687179487179486 28:0.7687179487179486 29:0.7687179487179486 30:0.7687179487179486 
-1.0 1:0.7687179487179486 2:0.7687179487179486 3:0.7687179487179486 4:0.7687179487179486 5:0.7687179487179486 6:0.8425641025641025 7:0.7687179487179486 8:0.7687179487179486 9:0.7687179487179486 10:0.7687179487179486 11:0.7646153846153846 12:0.7687179487179486 13:0.7687179487179486 14:0.7687179487179486 15:0.7687179487179486 16:0.7646153846153846 17:0.7687179487179486 18:0.7687179487179486 19:0.7687179487179486 20:0.7687179487179486 21:0.7687179487179486 22:0.7687179487179486 23:0.7687179487179486 24:0.7687179487179486 25:0.7687179487179486 26:0.7687179487179486 27:0.7687179487179486 28:0.7687179487179486 29:0.7687179487179486 30:0.7687179487179486 
-1.0 1:0.7687179487179486 2:0.7646153846153846 3:0.7687179487179486 4:0.7687179487179486 5:0.7687179487179486 6:0.7687179487179486 7:0.7646153846153846 8:0.7687179487179486 9:0.7687179487179486 10:0.7687179487179486 11:0.7687179487179486 12:0.7687179487179486 13:0.7687179487179486 14:0.7687179487179486 15:0.7687179487179486 16:0.7687179487179486 17:0.7687179487179486 18:0.7687179487179486 19:0.7687179487179486 20:0.7687179487179486 21:0.7687179487179486 22:0.11641025641025639 23:0.7687179487179486 24:0.7687179487179486 25:0.7687179487179486 26:0.7687179487179486 27:0.7687179487179486 28:0.7687179487179486 29:0.7687179487179486 30:0.7687179487179486 
-1.0 1:0.7687179487179486 2:0.7687179487179486 3:0.7687179487179486 4:0.7687179487179486 5:0.7687179487179486 6:0.7687179487179486 7:0.11641025641025639 8:0.7687179487179486 9:0.7687179487179486 10:0.7687179487179486 11:0.7687179487179486 12:0.7687179487179486 13:0.7687179487179486 14:0.7687179487179486 15:0.7687179487179486 16:0.14102564102564102 17:0.7687179487179486 18:0.7687179487179486 19:0.7687179487179486 20:0.7687179487179486 21:0.7687179487179486 22:0.6579487179487178 23:0.7687179487179486 24:0.7687179487179486 25:0.7687179487179486 26:0.7687179487179486 27:0.7687179487179486 28:0.7687179487179486 29:0.7687179487179486 30:0.7687179487179486 
-1.0 1:0.7687179487179486 2:0.7687179487179486 3:0.7687179487179486 4:0.7687179487179486 5:0.14102564102564102 6:0.7687179487179486 7:0.7687179487179486 8:0.7687179487179486 9:0.7687179487179486 10:0.7687179487179486 11:0.6579487179487178 12:0.7687179487179486 13:0.7687179487179486 14:0.7687179487179486 15:0.7687179487179486 16:0.7687179487179486 17:0.7687179487179486 18:0.7687179487179486 19:0.7687179487179486 20:0.14102564102564102 21:0.7687179487179486 22:0.7687179487179486 23:0.7687179487179486 24:0.7687179487179486 25:0.7687179487179486 26:0.7687179487179486 27:0.7687179487179486 28:0.7687179487179486 29:0.7687179487179486 30:0.7687179487179486 
0.49986012625613263 1:0.6579487179487178 2:0.7687179487179486 3:0.7687179487179486 4:0.7687179487179486 5:0.7687179487179486 6:0.7687179487179486 7:0.7687179487179486 8:0.7687179487179486 9:0.7687179487179486 10:0.14102564102564102 11:0.7687179487179486 12:0.7687179487179486 13:0.7687179487179486 14:0.7687179487179486 15:0.7687179487179486 16:0.7687179487179486 17:0.7687179487179486 18:0.7687179487179486 19:0.7687179487179486 20:0.7687179487179486 21:0.1 22:0.7687179487179486 23:0.7687179487179486 24:0.7687179487179486 25:0.7687179487179486 26:0.7728205128205129 27:0.7687179487179486 28:0.7687179487179486 29:0.7687179487179486 30:0.7687179487179486 
1.0 1:0.7687179487179486 2:0.7687179487179486 3:0.7687179487179486 4:0.7687179487179486 5:0.14102564102564102 6:0.7687179487179486 7:0.7687179487179486 8:0.7687179487179486 9:0.7687179487179486 10:0.7687179487179486 11:0.7687179487179486 12:0.7687179487179486 13:0.7687179487179486 14:0.7687179487179486 15:0.7687179487179486 16:0.1 17:0.7687179487179486 18:0.7687179487179486 19:0.7687179487179486 20:0.7687179487179486 21:0.7728205128205129 22:0.7687179487179486 23:0.7687179487179486 24:0.7687179487179486 25:0.7687179487179486 26:0.8261538461538461 27:0.7687179487179486 28:0.7687179487179486 29:0.7687179487179486 30:0.7687179487179486 
0.409241461244171 1:0.7687179487179486 2:0.7687179487179486 3:0.7687179487179486 4:0.7687179487179486 5:0.7687179487179486 6:0.1 7:0.7687179487179486 8:0.7687179487179486 9:0.7687179487179486 10:0.7687179487179486 11:0.7728205128205129 12:0.7687179487179486 13:0.7687179487179486 14:0.7687179487179486 15:0.7687179487179486 16:0.8261538461538461 17:0.7687179487179486 18:0.7687179487179486 19:0.7687179487179486 20:0.7687179487179486 21:0.7769230769230768 22:0.7687179487179486 23:0.7687179487179486 24:0.7687179487179486 25:0.7687179487179486 26:0.7728205128205129 27:0.7687179487179486 28:0.7687179487179486 29:0.7687179487179486 30:0.7687179487179486 
-1.0 1:0.7728205128205129 2:0.7687179487179486 3:0.7687179487179486 4:0.7687179487179486 5:0.7687179487179486 6:0.8138461538461538 7:0.7687179487179486 8:0.7687179487179486 9:0.7687179487179486 10:0.7687179487179486 11:0.7646153846153846 12:0.7687179487179486 13:0.7687179487179486 14:0.7687179487179486 15:0.7687179487179486 16:0.7769230769230768 17:0.7687179487179486 18:0.7687179487179486 19:0.7687179487179486 20:0.7687179487179486 21:0.781025641025641 22:0.7687179487179486 23:0.7687179487179486 24:0.7687179487179486 25:0.7687179487179486 26:0.7687179487179486 27:0.7687179487179486 28:0.7687179487179486 29:0.7687179487179486 30:0.7687179487179486 
-1.0 1:0.7769230769230768 2:0.7687179487179486 3:0.7687179487179486 4:0.7687179487179486 5:0.7687179487179486 6:0.781025641025641 7:0.7687179487179486 8:0.7687179487179486 9:0.7687179487179486 10:0.7687179487179486 11:0.7687179487179486 12:0.7687179487179486 13:0.7687179487179486 14:0.7687179487179486 15:0.7687179487179486 16:0.11641025641025639 17:0.7687179487179486 18:0.7687179487179486 19:0.7687179487179486 20:0.7687179487179486 21:0.781025641025641 22:0.7687179487179486 23:0.7687179487179486 24:0.7687179487179486 25:0.7687179487179486 26:0.7687179487179486 27:0.7687179487179486 28:0.7687179487179486 29:0.7687179487179486 30:0.7687179487179486 
0.4867530367171541 1:0.781025641025641 2:0.7687179487179486 3:0.7687179487179486 4:0.7687179487179486 5:0.7687179487179486 6:0.7687179487179486 7:0.7687179487179486 8:0.7687179487179486 9:0.7687179487179486 10:0.7687179487179486 11:0.11641025641025639 12:0.7687179487179486 13:0.7687179487179486 14:0.7687179487179486 15:0.7687179487179486 16:0.781025641025641 17:0.7687179487179486 18:0.7687179487179486 19:0.7687179487179486 20:0.7687179487179486 21:0.7687179487179486 22:0.7687179487179486 23:0.7687179487179486 24:0.7687179487179486 25:0.7687179487179486 26:0.12051282051282049 27:0.7687179487179486 28:0.7687179487179486 29:0.7687179487179486 30:0.7687179487179486 
0.58278098121025 1:0.7687179487179486 2:0.7687179487179486 3:0.7687179487179486 4:0.7687179487179486 5:0.7687179487179486 6:0.7687179487179486 7:0.11641025641025639 8:0.7687179487179486 9:0.7687179487179486 10:0.7687179487179486 11:0.7687179487179486 12:0.781025641025641 13:0.7687179487179486 14:0.7687179487179486 15:0.7687179487179486 16:0.7687179487179486 17:0.7687179487179486 18:0.7687179487179486 19:0.7687179487179486 20:0.7687179487179486 21:0.7687179487179486 22:0.12051282051282049 23:0.7687179487179486 24:0.7687179487179486 25:0.7687179487179486 26:0.7687179487179486 27:0.8179487179487179 28:0.7687179487179486 29:0.7687179487179486 30:0.7687179487179486 
0.1235091714217332 1:0.11641025641025639 2:0.7687179487179486 3:0.7687179487179486 4:0.7687179487179486 5:0.7687179487179486 6:0.781025641025641 7:0.7687179487179486 8:0.7687179487179486 9:0.7687179487179486 10:0.7687179487179486 11:0.7687179487179486 12:0.7687179487179486 13:0.7687179487179486 14:0.7687179487179486 15:0.7687179487179486 16:0.12051282051282049 17:0.7687179487179486 18:0.7687179487179486 19:0.7687179487179486 20:0.7687179487179486 21:0.8179487179487179 22:0.7687179487179486 23:0.7687179487179486 24:0.7687179487179486 25:0.7687179487179486 26:0.7687179487179486 27:0.7687179487179486 28:0.7687179487179486 29:0.7687179487179486 30:0.7687179487179486 
