encog,SVM,java,3.1.0,1,1400508645354
[SVM]
[SVM:PARAMS]
[SVM:SVM-PARAM]
inputCount=30
C=1
cacheSize=100
coef0=0
degree=3
eps=0.001
gamma=0.0333333333
kernelType=2
nrWeight=0
nu=0.5
p=0.1
probability=0
shrinking=1
svmType=3
weight=
weightLabel=
[SVM:SVM-MODEL]
svm_type epsilon_svr
kernel_type rbf
gamma 0.03333333333333333
nr_class 2
total_sv 8
rho -0.7454405866390051
SV
-1.0 1:0.8395348837209302 2:0.8395348837209302 3:0.7930232558139535 4:0.8395348837209302 5:0.8395348837209302 6:0.8395348837209302 7:0.8395348837209302 8:0.8116279069767443 9:0.8395348837209302 10:0.8395348837209302 11:0.8395348837209302 12:0.8395348837209302 13:0.8302325581395349 14:0.8395348837209302 15:0.8395348837209302 16:0.8395348837209302 17:0.8395348837209302 18:0.8023255813953488 19:0.8395348837209302 20:0.8395348837209302 21:0.8395348837209302 22:0.8395348837209302 23:0.7372093023255814 24:0.8395348837209302 25:0.8395348837209302 26:0.8395348837209302 27:0.8395348837209302 28:0.8395348837209302 29:0.8395348837209302 30:0.8395348837209302 
-1.0 1:0.8395348837209302 2:0.8395348837209302 3:0.8395348837209302 4:0.8395348837209302 5:0.8023255813953488 6:0.8395348837209302 7:0.8395348837209302 8:0.8395348837209302 9:0.8395348837209302 10:0.7372093023255814 11:0.8395348837209302 12:0.8395348837209302 13:0.8395348837209302 14:0.8395348837209302 15:0.8395348837209302 16:0.8395348837209302 17:0.8395348837209302 18:0.6395348837209303 19:0.8395348837209302 20:0.8395348837209302 21:0.8395348837209302 22:0.8395348837209302 23:0.8395348837209302 24:0.8395348837209302 25:0.8395348837209302 26:0.7418604651162791 27:0.8395348837209302 28:0.8395348837209302 29:0.8395348837209302 30:0.8395348837209302 
-1.0 1:0.8395348837209302 2:0.8395348837209302 3:0.8395348837209302 4:0.8395348837209302 5:0.7372093023255814 6:0.8395348837209302 7:0.8395348837209302 8:0.8395348837209302 9:0.8395348837209302 10:0.8395348837209302 11:0.8395348837209302 12:0.8395348837209302 13:0.6395348837209303 14:0.8395348837209302 15:0.8395348837209302 16:0.8395348837209302 17:0.8395348837209302 18:0.8395348837209302 19:0.8395348837209302 20:0.8395348837209302 21:0.7418604651162791 22:0.8395348837209302 23:0.8395348837209302 24:0.8395348837209302 25:0.8395348837209302 26:0.1 27:0.8395348837209302 28:0.8395348837209302 29:0.8395348837209302 30:0.8395348837209302 
-1.0 1:0.8395348837209302 2:0.8395348837209302 3:0.8395348837209302 4:0.8395348837209302 5:0.8395348837209302 6:0.8395348837209302 7:0.8395348837209302 8:0.6395348837209303 9:0.8395348837209302 10:0.8395348837209302 11:0.8395348837209302 12:0.8395348837209302 13:0.8395348837209302 14:0.8395348837209302 15:0.8395348837209302 16:0.7418604651162791 17:0.8395348837209302 18:0.8395348837209302 19:0.8395348837209302 20:0.8395348837209302 21:0.1 22:0.8395348837209302 23:0.8395348837209302 24:0.8395348837209302 25:0.8395348837209302 26:0.4255813953488372 27:0.8395348837209302 28:0.8395348837209302 29:0.8395348837209302 30:0.8395348837209302 
1.0 1:0.8906976744186047 2:0.8395348837209302 3:0.8395348837209302 4:0.8395348837209302 5:0.8395348837209302 6:0.8813953488372093 7:0.8395348837209302 8:0.8395348837209302 9:0.8395348837209302 10:0.8395348837209302 11:0.8906976744186047 12:0.8395348837209302 13:0.8395348837209302 14:0.8395348837209302 15:0.8395348837209302 16:0.8488372093023256 17:0.8395348837209302 18:0.8395348837209302 19:0.8395348837209302 20:0.8395348837209302 21:0.8534883720930233 22:0.8395348837209302 23:0.8395348837209302 24:0.8395348837209302 25:0.8395348837209302 26:0.8395348837209302 27:0.8395348837209302 28:0.8395348837209302 29:0.8395348837209302 30:0.8395348837209302 
1.0 1:0.8395348837209302 2:0.8395348837209302 3:0.8395348837209302 4:0.8395348837209302 5:0.8302325581395349 6:0.8395348837209302 7:0.8395348837209302 8:0.8395348837209302 9:0.8395348837209302 10:0.8395348837209302 11:0.8720930232558141 12:0.8395348837209302 13:0.8395348837209302 14:0.8395348837209302 15:0.8395348837209302 16:0.8395348837209302 17:0.8395348837209302 18:0.8395348837209302 19:0.8395348837209302 20:0.8813953488372093 21:0.8395348837209302 22:0.8395348837209302 23:0.8395348837209302 24:0.8395348837209302 25:0.8395348837209302 26:0.8395348837209302 27:0.8395348837209302 28:0.8395348837209302 29:0.8395348837209302 30:0.8395348837209302 
1.0 1:0.8534883720930233 2:0.8395348837209302 3:0.8395348837209302 4:0.8395348837209302 5:0.8395348837209302 6:0.8953488372093024 7:0.8395348837209302 8:0.8395348837209302 9:0.8395348837209302 10:0.8395348837209302 11:0.8488372093023256 12:0.8395348837209302 13:0.8395348837209302 14:0.8395348837209302 15:0.8395348837209302 16:0.8953488372093024 17:0.8395348837209302 18:0.8395348837209302 19:0.8395348837209302 20:0.8395348837209302 21:0.8441860465116279 22:0.8395348837209302 23:0.8395348837209302 24:0.8395348837209302 25:0.8395348837209302 26:0.8395348837209302 27:0.8395348837209302 28:0.8395348837209302 29:0.8395348837209302 30:0.8395348837209302 
1.0 1:0.9 2:0.8395348837209302 3:0.8395348837209302 4:0.8395348837209302 5:0.8395348837209302 6:0.8767441860465116 7:0.8395348837209302 8:0.8395348837209302 9:0.8395348837209302 10:0.8395348837209302 11:0.8395348837209302 12:0.8395348837209302 13:0.8395348837209302 14:0.8395348837209302 15:0.8395348837209302 16:0.8441860465116279 17:0.8395348837209302 18:0.8395348837209302 19:0.8395348837209302 20:0.8395348837209302 21:0.8813953488372093 22:0.8395348837209302 23:0.8395348837209302 24:0.8395348837209302 25:0.8395348837209302 26:0.8395348837209302 27:0.8395348837209302 28:0.8395348837209302 29:0.8395348837209302 30:0.8395348837209302 
