encog,SVM,java,3.1.0,1,1400509845257
[SVM]
[SVM:PARAMS]
[SVM:SVM-PARAM]
inputCount=30
C=1
cacheSize=100
coef0=0
degree=3
eps=0.001
gamma=0.0333333333
kernelType=2
nrWeight=0
nu=0.5
p=0.1
probability=0
shrinking=1
svmType=3
weight=
weightLabel=
[SVM:SVM-MODEL]
svm_type epsilon_svr
kernel_type rbf
gamma 0.03333333333333333
nr_class 2
total_sv 17
rho -0.39481084846823117
SV
-0.28737085991713635 1:0.9 2:0.30425531914893533 3:0.30425531914893533 4:0.30425531914893533 5:0.30425531914893533 6:0.7297872340425534 7:0.30425531914893533 8:0.30425531914893533 9:0.30425531914893533 10:0.30425531914893533 11:0.6787234042553203 12:0.30425531914893533 13:0.30425531914893533 14:0.30425531914893533 15:0.30425531914893533 16:0.30425531914893533 17:0.30425531914893533 18:0.30425531914893533 19:0.7638297872340422 20:0.30425531914893533 21:0.30425531914893533 22:0.30425531914893533 23:0.30425531914893533 24:0.7297872340425534 25:0.30425531914893533 26:0.30425531914893533 27:0.30425531914893533 28:0.30425531914893533 29:0.7297872340425534 30:0.30425531914893533 
1.0 1:0.30425531914893533 2:0.30425531914893533 3:0.7297872340425534 4:0.30425531914893533 5:0.30425531914893533 6:0.30425531914893533 7:0.30425531914893533 8:0.6787234042553203 9:0.30425531914893533 10:0.30425531914893533 11:0.30425531914893533 12:0.30425531914893533 13:0.30425531914893533 14:0.30425531914893533 15:0.30425531914893533 16:0.7638297872340422 17:0.30425531914893533 18:0.30425531914893533 19:0.30425531914893533 20:0.30425531914893533 21:0.7297872340425534 22:0.30425531914893533 23:0.30425531914893533 24:0.30425531914893533 25:0.30425531914893533 26:0.7297872340425534 27:0.30425531914893533 28:0.30425531914893533 29:0.30425531914893533 30:0.30425531914893533 
0.9600582182505837 1:0.30425531914893533 2:0.30425531914893533 3:0.6787234042553203 4:0.30425531914893533 5:0.30425531914893533 6:0.30425531914893533 7:0.30425531914893533 8:0.30425531914893533 9:0.30425531914893533 10:0.30425531914893533 11:0.7638297872340422 12:0.30425531914893533 13:0.30425531914893533 14:0.30425531914893533 15:0.30425531914893533 16:0.7297872340425534 17:0.30425531914893533 18:0.30425531914893533 19:0.30425531914893533 20:0.30425531914893533 21:0.7297872340425534 22:0.30425531914893533 23:0.30425531914893533 24:0.30425531914893533 25:0.30425531914893533 26:0.7297872340425534 27:0.30425531914893533 28:0.30425531914893533 29:0.30425531914893533 30:0.30425531914893533 
1.0 1:0.7297872340425534 2:0.30425531914893533 3:0.30425531914893533 4:0.30425531914893533 5:0.30425531914893533 6:0.6446808510638316 7:0.30425531914893533 8:0.30425531914893533 9:0.30425531914893533 10:0.30425531914893533 11:0.6106382978723398 12:0.30425531914893533 13:0.30425531914893533 14:0.30425531914893533 15:0.30425531914893533 16:0.5595744680851068 17:0.30425531914893533 18:0.30425531914893533 19:0.30425531914893533 20:0.30425531914893533 21:0.5255319148936181 22:0.30425531914893533 23:0.30425531914893533 24:0.30425531914893533 25:0.30425531914893533 26:0.5595744680851068 27:0.30425531914893533 28:0.30425531914893533 29:0.30425531914893533 30:0.30425531914893533 
1.0 1:0.5255319148936181 2:0.30425531914893533 3:0.30425531914893533 4:0.30425531914893533 5:0.30425531914893533 6:0.5595744680851068 7:0.30425531914893533 8:0.30425531914893533 9:0.30425531914893533 10:0.30425531914893533 11:0.6106382978723398 12:0.30425531914893533 13:0.30425531914893533 14:0.30425531914893533 15:0.30425531914893533 16:0.5255319148936181 17:0.30425531914893533 18:0.30425531914893533 19:0.30425531914893533 20:0.30425531914893533 21:0.5255319148936181 22:0.30425531914893533 23:0.30425531914893533 24:0.30425531914893533 25:0.30425531914893533 26:0.5255319148936181 27:0.30425531914893533 28:0.30425531914893533 29:0.30425531914893533 30:0.30425531914893533 
1.0 1:0.5595744680851068 2:0.30425531914893533 3:0.30425531914893533 4:0.30425531914893533 5:0.30425531914893533 6:0.6106382978723398 7:0.30425531914893533 8:0.30425531914893533 9:0.30425531914893533 10:0.30425531914893533 11:0.5255319148936181 12:0.30425531914893533 13:0.30425531914893533 14:0.30425531914893533 15:0.30425531914893533 16:0.5255319148936181 17:0.30425531914893533 18:0.30425531914893533 19:0.30425531914893533 20:0.30425531914893533 21:0.5255319148936181 22:0.30425531914893533 23:0.30425531914893533 24:0.30425531914893533 25:0.30425531914893533 26:0.5595744680851068 27:0.30425531914893533 28:0.30425531914893533 29:0.30425531914893533 30:0.30425531914893533 
1.0 1:0.4404255319148932 2:0.30425531914893533 3:0.30425531914893533 4:0.30425531914893533 5:0.30425531914893533 6:0.5255319148936181 7:0.30425531914893533 8:0.30425531914893533 9:0.30425531914893533 10:0.30425531914893533 11:0.5255319148936181 12:0.30425531914893533 13:0.30425531914893533 14:0.30425531914893533 15:0.30425531914893533 16:0.5255319148936181 17:0.30425531914893533 18:0.30425531914893533 19:0.30425531914893533 20:0.30425531914893533 21:0.47446808510638194 22:0.30425531914893533 23:0.30425531914893533 24:0.30425531914893533 25:0.30425531914893533 26:0.5255319148936181 27:0.30425531914893533 28:0.30425531914893533 29:0.30425531914893533 30:0.30425531914893533 
1.0 1:0.30425531914893533 2:0.30425531914893533 3:0.30425531914893533 4:0.30425531914893533 5:0.30425531914893533 6:0.30425531914893533 7:0.30425531914893533 8:0.30425531914893533 9:0.30425531914893533 10:0.30425531914893533 11:0.35531914893617145 12:0.30425531914893533 13:0.30425531914893533 14:0.30425531914893533 15:0.30425531914893533 16:0.30425531914893533 17:0.30425531914893533 18:0.30425531914893533 19:0.30425531914893533 20:0.30425531914893533 21:0.30425531914893533 22:0.30425531914893533 23:0.30425531914893533 24:0.30425531914893533 25:0.30425531914893533 26:0.2702127659574466 27:0.30425531914893533 28:0.30425531914893533 29:0.30425531914893533 30:0.30425531914893533 
-1.0 1:0.30425531914893533 2:0.30425531914893533 3:0.2702127659574466 4:0.30425531914893533 5:0.30425531914893533 6:0.30425531914893533 7:0.30425531914893533 8:0.30425531914893533 9:0.30425531914893533 10:0.30425531914893533 11:0.30425531914893533 12:0.30425531914893533 13:0.30425531914893533 14:0.30425531914893533 15:0.30425531914893533 16:0.2702127659574466 17:0.30425531914893533 18:0.30425531914893533 19:0.30425531914893533 20:0.30425531914893533 21:0.2702127659574466 22:0.30425531914893533 23:0.30425531914893533 24:0.30425531914893533 25:0.30425531914893533 26:0.2361702127659579 27:0.30425531914893533 28:0.30425531914893533 29:0.30425531914893533 30:0.30425531914893533 
-1.0 1:0.2361702127659579 2:0.30425531914893533 3:0.30425531914893533 4:0.30425531914893533 5:0.30425531914893533 6:0.30425531914893533 7:0.30425531914893533 8:0.30425531914893533 9:0.30425531914893533 10:0.30425531914893533 11:0.2702127659574466 12:0.30425531914893533 13:0.30425531914893533 14:0.30425531914893533 15:0.30425531914893533 16:0.2361702127659579 17:0.30425531914893533 18:0.30425531914893533 19:0.30425531914893533 20:0.30425531914893533 21:0.30425531914893533 22:0.30425531914893533 23:0.30425531914893533 24:0.30425531914893533 25:0.30425531914893533 26:0.30425531914893533 27:0.30425531914893533 28:0.30425531914893533 29:0.30425531914893533 30:0.30425531914893533 
-1.0 1:0.30425531914893533 2:0.30425531914893533 3:0.30425531914893533 4:0.30425531914893533 5:0.30425531914893533 6:0.30425531914893533 7:0.30425531914893533 8:0.30425531914893533 9:0.30425531914893533 10:0.2361702127659579 11:0.30425531914893533 12:0.30425531914893533 13:0.30425531914893533 14:0.30425531914893533 15:0.30425531914893533 16:0.30425531914893533 17:0.30425531914893533 18:0.2361702127659579 19:0.30425531914893533 20:0.30425531914893533 21:0.30425531914893533 22:0.30425531914893533 23:0.30425531914893533 24:0.30425531914893533 25:0.30425531914893533 26:0.30425531914893533 27:0.30425531914893533 28:0.30425531914893533 29:0.30425531914893533 30:0.30425531914893533 
-0.6726873583334474 1:0.30425531914893533 2:0.30425531914893533 3:0.2361702127659579 4:0.30425531914893533 5:0.30425531914893533 6:0.30425531914893533 7:0.30425531914893533 8:0.30425531914893533 9:0.30425531914893533 10:0.30425531914893533 11:0.30425531914893533 12:0.30425531914893533 13:0.30425531914893533 14:0.30425531914893533 15:0.30425531914893533 16:0.1 17:0.30425531914893533 18:0.30425531914893533 19:0.30425531914893533 20:0.30425531914893533 21:0.1851063829787218 22:0.30425531914893533 23:0.30425531914893533 24:0.30425531914893533 25:0.30425531914893533 26:0.2361702127659579 27:0.30425531914893533 28:0.30425531914893533 29:0.30425531914893533 30:0.30425531914893533 
-1.0 1:0.30425531914893533 2:0.30425531914893533 3:0.30425531914893533 4:0.30425531914893533 5:0.30425531914893533 6:0.30425531914893533 7:0.30425531914893533 8:0.30425531914893533 9:0.30425531914893533 10:0.30425531914893533 11:0.1 12:0.30425531914893533 13:0.30425531914893533 14:0.30425531914893533 15:0.30425531914893533 16:0.1851063829787218 17:0.30425531914893533 18:0.30425531914893533 19:0.30425531914893533 20:0.30425531914893533 21:0.2361702127659579 22:0.30425531914893533 23:0.30425531914893533 24:0.30425531914893533 25:0.30425531914893533 26:0.1510638297872331 27:0.30425531914893533 28:0.30425531914893533 29:0.30425531914893533 30:0.30425531914893533 
-1.0 1:0.30425531914893533 2:0.30425531914893533 3:0.30425531914893533 4:0.1 5:0.30425531914893533 6:0.30425531914893533 7:0.30425531914893533 8:0.30425531914893533 9:0.1510638297872331 10:0.30425531914893533 11:0.30425531914893533 12:0.30425531914893533 13:0.30425531914893533 14:0.2361702127659579 15:0.30425531914893533 16:0.30425531914893533 17:0.30425531914893533 18:0.30425531914893533 19:0.30425531914893533 20:0.30425531914893533 21:0.30425531914893533 22:0.30425531914893533 23:0.30425531914893533 24:0.30425531914893533 25:0.30425531914893533 26:0.30425531914893533 27:0.2702127659574466 28:0.30425531914893533 29:0.30425531914893533 30:0.30425531914893533 
-1.0 1:0.2361702127659579 2:0.30425531914893533 3:0.30425531914893533 4:0.30425531914893533 5:0.30425531914893533 6:0.30425531914893533 7:0.30425531914893533 8:0.30425531914893533 9:0.30425531914893533 10:0.30425531914893533 11:0.30425531914893533 12:0.30425531914893533 13:0.30425531914893533 14:0.2702127659574466 15:0.30425531914893533 16:0.30425531914893533 17:0.30425531914893533 18:0.1851063829787218 19:0.30425531914893533 20:0.30425531914893533 21:0.30425531914893533 22:0.30425531914893533 23:0.30425531914893533 24:0.30425531914893533 25:0.30425531914893533 26:0.30425531914893533 27:0.30425531914893533 28:0.30425531914893533 29:0.30425531914893533 30:0.30425531914893533 
-1.0 1:0.30425531914893533 2:0.30425531914893533 3:0.30425531914893533 4:0.30425531914893533 5:0.30425531914893533 6:0.30425531914893533 7:0.30425531914893533 8:0.30425531914893533 9:0.30425531914893533 10:0.30425531914893533 11:0.30425531914893533 12:0.30425531914893533 13:0.30425531914893533 14:0.30425531914893533 15:0.30425531914893533 16:0.30425531914893533 17:0.30425531914893533 18:0.30425531914893533 19:0.30425531914893533 20:0.30425531914893533 21:0.30425531914893533 22:0.30425531914893533 23:0.30425531914893533 24:0.30425531914893533 25:0.30425531914893533 26:0.30425531914893533 27:0.30425531914893533 28:0.30425531914893533 29:0.30425531914893533 30:0.30425531914893533 
1.0 1:0.30425531914893533 2:0.30425531914893533 3:0.30425531914893533 4:0.30425531914893533 5:0.30425531914893533 6:0.30425531914893533 7:0.30425531914893533 8:0.30425531914893533 9:0.30425531914893533 10:0.30425531914893533 11:0.30425531914893533 12:0.30425531914893533 13:0.30425531914893533 14:0.30425531914893533 15:0.30425531914893533 16:0.30425531914893533 17:0.30425531914893533 18:0.30425531914893533 19:0.30425531914893533 20:0.30425531914893533 21:0.30425531914893533 22:0.30425531914893533 23:0.30425531914893533 24:0.30425531914893533 25:0.30425531914893533 26:0.30425531914893533 27:0.30425531914893533 28:0.30425531914893533 29:0.30425531914893533 30:0.30425531914893533 
