encog,SVM,java,3.1.0,1,1400258815172
[SVM]
[SVM:PARAMS]
[SVM:SVM-PARAM]
inputCount=30
C=1
cacheSize=100
coef0=0
degree=3
eps=0.001
gamma=0.0333333333
kernelType=2
nrWeight=0
nu=0.5
p=0.1
probability=0
shrinking=1
svmType=3
weight=
weightLabel=
[SVM:SVM-MODEL]
svm_type epsilon_svr
kernel_type rbf
gamma 0.03333333333333333
nr_class 2
total_sv 179
rho -0.4124336026631624
SV
0.05542069526456303 1:0.6839518555667001 2:0.6799398194583752 3:0.6839518555667001 4:0.6799398194583752 5:0.6761283851554665 6:0.6819458375125377 7:0.6819458375125377 8:0.6839518555667001 9:0.6761283851554665 10:0.6819458375125377 11:0.6819458375125377 12:0.6839518555667001 13:0.6761283851554665 14:0.6839518555667001 15:0.6839518555667001 16:0.6819458375125377 17:0.6761283851554665 18:0.6799398194583752 19:0.6741223671013039 20:0.6779338014042127 21:0.6761283851554665 22:0.6819458375125377 23:0.6819458375125377 24:0.6761283851554665 25:0.6761283851554665 26:0.6761283851554665 27:0.6819458375125377 28:0.6761283851554665 29:0.5992978936810432 30:0.6761283851554665 
1.0 1:0.6819458375125377 2:0.6819458375125377 3:0.6839518555667001 4:0.6761283851554665 5:0.6819458375125377 6:0.6819458375125377 7:0.6839518555667001 8:0.6761283851554665 9:0.6839518555667001 10:0.6839518555667001 11:0.6819458375125377 12:0.6761283851554665 13:0.6799398194583752 14:0.6741223671013039 15:0.6779338014042127 16:0.6761283851554665 17:0.6819458375125377 18:0.6819458375125377 19:0.6761283851554665 20:0.6761283851554665 21:0.6761283851554665 22:0.6819458375125377 23:0.6761283851554665 24:0.5992978936810432 25:0.6761283851554665 26:0.6761283851554665 27:0.6761283851554665 28:0.6360080240722167 29:0.5884653961885657 30:0.6761283851554665 
1.0 1:0.6839518555667001 2:0.6819458375125377 3:0.6761283851554665 4:0.6799398194583752 5:0.6741223671013039 6:0.6779338014042127 7:0.6761283851554665 8:0.6819458375125377 9:0.6819458375125377 10:0.6761283851554665 11:0.6761283851554665 12:0.6761283851554665 13:0.6819458375125377 14:0.6761283851554665 15:0.5992978936810432 16:0.6761283851554665 17:0.6761283851554665 18:0.6761283851554665 19:0.6360080240722167 20:0.5884653961885657 21:0.6761283851554665 22:0.6761283851554665 23:0.6761283851554665 24:0.581444332998997 25:0.6761283851554665 26:0.6229689067201606 27:0.6434302908726179 28:0.6510531594784353 29:0.6761283851554665 30:0.6761283851554665 
1.0 1:0.6761283851554665 2:0.6761283851554665 3:0.6761283851554665 4:0.6819458375125377 5:0.6761283851554665 6:0.5992978936810432 7:0.6761283851554665 8:0.6761283851554665 9:0.6761283851554665 10:0.6360080240722167 11:0.5884653961885657 12:0.6761283851554665 13:0.6761283851554665 14:0.6761283851554665 15:0.581444332998997 16:0.6761283851554665 17:0.6229689067201606 18:0.6434302908726179 19:0.6510531594784353 20:0.6761283851554665 21:0.6761283851554665 22:0.6761283851554665 23:0.6761283851554665 24:0.5866599799398196 25:0.6267803410230692 26:0.6761283851554665 27:0.6434302908726179 28:0.6568706118355065 29:0.6624874623871615 30:0.6761283851554665 
1.0 1:0.6761283851554665 2:0.6761283851554665 3:0.6819458375125377 4:0.6761283851554665 5:0.5992978936810432 6:0.6761283851554665 7:0.6761283851554665 8:0.6761283851554665 9:0.6360080240722167 10:0.5884653961885657 11:0.6761283851554665 12:0.6761283851554665 13:0.6761283851554665 14:0.581444332998997 15:0.6761283851554665 16:0.6229689067201606 17:0.6434302908726179 18:0.6510531594784353 19:0.6761283851554665 20:0.6761283851554665 21:0.6761283851554665 22:0.6761283851554665 23:0.5866599799398196 24:0.6267803410230692 25:0.6761283851554665 26:0.6434302908726179 27:0.6568706118355065 28:0.6624874623871615 29:0.6761283851554665 30:0.6683049147442327 
1.0 1:0.5992978936810432 2:0.6761283851554665 3:0.6761283851554665 4:0.6761283851554665 5:0.6360080240722167 6:0.5884653961885657 7:0.6761283851554665 8:0.6761283851554665 9:0.6761283851554665 10:0.581444332998997 11:0.6761283851554665 12:0.6229689067201606 13:0.6434302908726179 14:0.6510531594784353 15:0.6761283851554665 16:0.6761283851554665 17:0.6761283851554665 18:0.6761283851554665 19:0.5866599799398196 20:0.6267803410230692 21:0.6761283851554665 22:0.6434302908726179 23:0.6568706118355065 24:0.6624874623871615 25:0.6761283851554665 26:0.6683049147442327 27:0.6721163490471415 28:0.6761283851554665 29:0.6761283851554665 30:0.6741223671013039 
1.0 1:0.6761283851554665 2:0.6761283851554665 3:0.6761283851554665 4:0.6761283851554665 5:0.6761283851554665 6:0.6761283851554665 7:0.6761283851554665 8:0.6761283851554665 9:0.6761283851554665 10:0.6761283851554665 11:0.6761283851554665 12:0.6761283851554665 13:0.6761283851554665 14:0.6761283851554665 15:0.6761283851554665 16:0.6761283851554665 17:0.6761283851554665 18:0.6761283851554665 19:0.6761283851554665 20:0.6761283851554665 21:0.6761283851554665 22:0.6761283851554665 23:0.6761283851554665 24:0.6761283851554665 25:0.6761283851554665 26:0.6761283851554665 27:0.6761283851554665 28:0.6761283851554665 29:0.6761283851554665 30:0.6761283851554665 
1.0 1:0.6761283851554665 2:0.6761283851554665 3:0.6761283851554665 4:0.6761283851554665 5:0.6761283851554665 6:0.6761283851554665 7:0.6761283851554665 8:0.6761283851554665 9:0.6761283851554665 10:0.6761283851554665 11:0.6761283851554665 12:0.6761283851554665 13:0.6761283851554665 14:0.6761283851554665 15:0.6761283851554665 16:0.6761283851554665 17:0.6761283851554665 18:0.6761283851554665 19:0.6761283851554665 20:0.6761283851554665 21:0.6761283851554665 22:0.6761283851554665 23:0.6761283851554665 24:0.6761283851554665 25:0.6761283851554665 26:0.6761283851554665 27:0.6761283851554665 28:0.6761283851554665 29:0.6761283851554665 30:0.9 
-1.0 1:0.6761283851554665 2:0.6761283851554665 3:0.6761283851554665 4:0.6761283851554665 5:0.6761283851554665 6:0.6761283851554665 7:0.6761283851554665 8:0.6761283851554665 9:0.6761283851554665 10:0.6761283851554665 11:0.6761283851554665 12:0.6761283851554665 13:0.6761283851554665 14:0.6761283851554665 15:0.6761283851554665 16:0.6761283851554665 17:0.6761283851554665 18:0.6761283851554665 19:0.6761283851554665 20:0.6761283851554665 21:0.6761283851554665 22:0.6761283851554665 23:0.6761283851554665 24:0.6761283851554665 25:0.6761283851554665 26:0.6761283851554665 27:0.6761283851554665 28:0.9 29:0.6761283851554665 30:0.6761283851554665 
-1.0 1:0.6761283851554665 2:0.6761283851554665 3:0.6761283851554665 4:0.6761283851554665 5:0.6761283851554665 6:0.6761283851554665 7:0.6761283851554665 8:0.6761283851554665 9:0.6761283851554665 10:0.6761283851554665 11:0.6761283851554665 12:0.6761283851554665 13:0.6761283851554665 14:0.6761283851554665 15:0.6761283851554665 16:0.6761283851554665 17:0.6761283851554665 18:0.6761283851554665 19:0.6761283851554665 20:0.6761283851554665 21:0.6761283851554665 22:0.6761283851554665 23:0.6761283851554665 24:0.6761283851554665 25:0.6761283851554665 26:0.9 27:0.6761283851554665 28:0.6761283851554665 29:0.19267803410230694 30:0.6761283851554665 
1.0 1:0.6761283851554665 2:0.6761283851554665 3:0.6761283851554665 4:0.6761283851554665 5:0.6761283851554665 6:0.6761283851554665 7:0.6761283851554665 8:0.6761283851554665 9:0.6761283851554665 10:0.6761283851554665 11:0.6761283851554665 12:0.6761283851554665 13:0.6761283851554665 14:0.6761283851554665 15:0.6761283851554665 16:0.6761283851554665 17:0.6761283851554665 18:0.6761283851554665 19:0.6761283851554665 20:0.6761283851554665 21:0.6761283851554665 22:0.6761283851554665 23:0.6761283851554665 24:0.9 25:0.6761283851554665 26:0.6761283851554665 27:0.19267803410230694 28:0.6761283851554665 29:0.1595787362086259 30:0.6761283851554665 
1.0 1:0.6761283851554665 2:0.6761283851554665 3:0.6761283851554665 4:0.6761283851554665 5:0.6761283851554665 6:0.6761283851554665 7:0.6761283851554665 8:0.6761283851554665 9:0.6761283851554665 10:0.6761283851554665 11:0.6761283851554665 12:0.6761283851554665 13:0.6761283851554665 14:0.6761283851554665 15:0.6761283851554665 16:0.6761283851554665 17:0.6761283851554665 18:0.6761283851554665 19:0.6761283851554665 20:0.6761283851554665 21:0.6761283851554665 22:0.6761283851554665 23:0.9 24:0.6761283851554665 25:0.6761283851554665 26:0.19267803410230694 27:0.6761283851554665 28:0.1595787362086259 29:0.6761283851554665 30:0.6761283851554665 
-1.0 1:0.6761283851554665 2:0.6761283851554665 3:0.6761283851554665 4:0.6761283851554665 5:0.6761283851554665 6:0.6761283851554665 7:0.6761283851554665 8:0.6761283851554665 9:0.6761283851554665 10:0.6761283851554665 11:0.6761283851554665 12:0.6761283851554665 13:0.6761283851554665 14:0.6761283851554665 15:0.6761283851554665 16:0.6761283851554665 17:0.6761283851554665 18:0.6761283851554665 19:0.6761283851554665 20:0.6761283851554665 21:0.9 22:0.6761283851554665 23:0.6761283851554665 24:0.19267803410230694 25:0.6761283851554665 26:0.1595787362086259 27:0.6761283851554665 28:0.6761283851554665 29:0.6761283851554665 30:0.6761283851554665 
1.0 1:0.6761283851554665 2:0.6761283851554665 3:0.6761283851554665 4:0.6761283851554665 5:0.6761283851554665 6:0.6761283851554665 7:0.6761283851554665 8:0.6761283851554665 9:0.6761283851554665 10:0.6761283851554665 11:0.6761283851554665 12:0.6761283851554665 13:0.6761283851554665 14:0.6761283851554665 15:0.6761283851554665 16:0.6761283851554665 17:0.6761283851554665 18:0.6761283851554665 19:0.9 20:0.6761283851554665 21:0.6761283851554665 22:0.19267803410230694 23:0.6761283851554665 24:0.1595787362086259 25:0.6761283851554665 26:0.6761283851554665 27:0.6761283851554665 28:0.6761283851554665 29:0.14032096288866602 30:0.6761283851554665 
1.0 1:0.6761283851554665 2:0.6761283851554665 3:0.6761283851554665 4:0.6761283851554665 5:0.6761283851554665 6:0.6761283851554665 7:0.6761283851554665 8:0.6761283851554665 9:0.6761283851554665 10:0.6761283851554665 11:0.6761283851554665 12:0.6761283851554665 13:0.6761283851554665 14:0.6761283851554665 15:0.6761283851554665 16:0.6761283851554665 17:0.6761283851554665 18:0.9 19:0.6761283851554665 20:0.6761283851554665 21:0.19267803410230694 22:0.6761283851554665 23:0.1595787362086259 24:0.6761283851554665 25:0.6761283851554665 26:0.6761283851554665 27:0.6761283851554665 28:0.14032096288866602 29:0.6761283851554665 30:0.6761283851554665 
-1.0 1:0.6761283851554665 2:0.6761283851554665 3:0.6761283851554665 4:0.6761283851554665 5:0.6761283851554665 6:0.6761283851554665 7:0.6761283851554665 8:0.6761283851554665 9:0.6761283851554665 10:0.6761283851554665 11:0.6761283851554665 12:0.6761283851554665 13:0.6761283851554665 14:0.6761283851554665 15:0.6761283851554665 16:0.9 17:0.6761283851554665 18:0.6761283851554665 19:0.19267803410230694 20:0.6761283851554665 21:0.1595787362086259 22:0.6761283851554665 23:0.6761283851554665 24:0.6761283851554665 25:0.6761283851554665 26:0.14032096288866602 27:0.6761283851554665 28:0.6761283851554665 29:0.6761283851554665 30:0.6761283851554665 
-0.4252491361662167 1:0.6761283851554665 2:0.6761283851554665 3:0.6761283851554665 4:0.6761283851554665 5:0.6761283851554665 6:0.6761283851554665 7:0.6761283851554665 8:0.6761283851554665 9:0.6761283851554665 10:0.6761283851554665 11:0.6761283851554665 12:0.6761283851554665 13:0.6761283851554665 14:0.6761283851554665 15:0.9 16:0.6761283851554665 17:0.6761283851554665 18:0.19267803410230694 19:0.6761283851554665 20:0.1595787362086259 21:0.6761283851554665 22:0.6761283851554665 23:0.6761283851554665 24:0.6761283851554665 25:0.14032096288866602 26:0.6761283851554665 27:0.6761283851554665 28:0.6761283851554665 29:0.6761283851554665 30:0.14834503510531596 
1.0 1:0.6761283851554665 2:0.6761283851554665 3:0.6761283851554665 4:0.6761283851554665 5:0.6761283851554665 6:0.6761283851554665 7:0.6761283851554665 8:0.6761283851554665 9:0.6761283851554665 10:0.6761283851554665 11:0.6761283851554665 12:0.6761283851554665 13:0.6761283851554665 14:0.9 15:0.6761283851554665 16:0.6761283851554665 17:0.19267803410230694 18:0.6761283851554665 19:0.1595787362086259 20:0.6761283851554665 21:0.6761283851554665 22:0.6761283851554665 23:0.6761283851554665 24:0.14032096288866602 25:0.6761283851554665 26:0.6761283851554665 27:0.6761283851554665 28:0.6761283851554665 29:0.14834503510531596 30:0.6761283851554665 
-1.0 1:0.6761283851554665 2:0.6761283851554665 3:0.6761283851554665 4:0.6761283851554665 5:0.6761283851554665 6:0.6761283851554665 7:0.6761283851554665 8:0.6761283851554665 9:0.6761283851554665 10:0.6761283851554665 11:0.6761283851554665 12:0.6761283851554665 13:0.9 14:0.6761283851554665 15:0.6761283851554665 16:0.19267803410230694 17:0.6761283851554665 18:0.1595787362086259 19:0.6761283851554665 20:0.6761283851554665 21:0.6761283851554665 22:0.6761283851554665 23:0.14032096288866602 24:0.6761283851554665 25:0.6761283851554665 26:0.6761283851554665 27:0.6761283851554665 28:0.14834503510531596 29:0.6761283851554665 30:0.6761283851554665 
-0.44643780435210273 1:0.6761283851554665 2:0.6761283851554665 3:0.6761283851554665 4:0.6761283851554665 5:0.6761283851554665 6:0.6761283851554665 7:0.6761283851554665 8:0.6761283851554665 9:0.6761283851554665 10:0.6761283851554665 11:0.6761283851554665 12:0.9 13:0.6761283851554665 14:0.6761283851554665 15:0.19267803410230694 16:0.6761283851554665 17:0.1595787362086259 18:0.6761283851554665 19:0.6761283851554665 20:0.6761283851554665 21:0.6761283851554665 22:0.14032096288866602 23:0.6761283851554665 24:0.6761283851554665 25:0.6761283851554665 26:0.6761283851554665 27:0.14834503510531596 28:0.6761283851554665 29:0.6761283851554665 30:0.13711133400200604 
-1.0 1:0.6761283851554665 2:0.6761283851554665 3:0.6761283851554665 4:0.6761283851554665 5:0.6761283851554665 6:0.6761283851554665 7:0.6761283851554665 8:0.6761283851554665 9:0.6761283851554665 10:0.6761283851554665 11:0.9 12:0.6761283851554665 13:0.6761283851554665 14:0.19267803410230694 15:0.6761283851554665 16:0.1595787362086259 17:0.6761283851554665 18:0.6761283851554665 19:0.6761283851554665 20:0.6761283851554665 21:0.14032096288866602 22:0.6761283851554665 23:0.6761283851554665 24:0.6761283851554665 25:0.6761283851554665 26:0.14834503510531596 27:0.6761283851554665 28:0.6761283851554665 29:0.13711133400200604 30:0.6761283851554665 
-1.0 1:0.6761283851554665 2:0.6761283851554665 3:0.6761283851554665 4:0.6761283851554665 5:0.6761283851554665 6:0.6761283851554665 7:0.6761283851554665 8:0.6761283851554665 9:0.6761283851554665 10:0.9 11:0.6761283851554665 12:0.6761283851554665 13:0.19267803410230694 14:0.6761283851554665 15:0.1595787362086259 16:0.6761283851554665 17:0.6761283851554665 18:0.6761283851554665 19:0.6761283851554665 20:0.14032096288866602 21:0.6761283851554665 22:0.6761283851554665 23:0.6761283851554665 24:0.6761283851554665 25:0.14834503510531596 26:0.6761283851554665 27:0.6761283851554665 28:0.13711133400200604 29:0.6761283851554665 30:0.14513540621865598 
-1.0 1:0.6761283851554665 2:0.6761283851554665 3:0.6761283851554665 4:0.6761283851554665 5:0.6761283851554665 6:0.6761283851554665 7:0.6761283851554665 8:0.6761283851554665 9:0.9 10:0.6761283851554665 11:0.6761283851554665 12:0.19267803410230694 13:0.6761283851554665 14:0.1595787362086259 15:0.6761283851554665 16:0.6761283851554665 17:0.6761283851554665 18:0.6761283851554665 19:0.14032096288866602 20:0.6761283851554665 21:0.6761283851554665 22:0.6761283851554665 23:0.6761283851554665 24:0.14834503510531596 25:0.6761283851554665 26:0.6761283851554665 27:0.13711133400200604 28:0.6761283851554665 29:0.14513540621865598 30:0.6761283851554665 
1.0 1:0.6761283851554665 2:0.6761283851554665 3:0.6761283851554665 4:0.6761283851554665 5:0.6761283851554665 6:0.9 7:0.6761283851554665 8:0.6761283851554665 9:0.19267803410230694 10:0.6761283851554665 11:0.1595787362086259 12:0.6761283851554665 13:0.6761283851554665 14:0.6761283851554665 15:0.6761283851554665 16:0.14032096288866602 17:0.6761283851554665 18:0.6761283851554665 19:0.6761283851554665 20:0.6761283851554665 21:0.14834503510531596 22:0.6761283851554665 23:0.6761283851554665 24:0.13711133400200604 25:0.6761283851554665 26:0.14513540621865598 27:0.6761283851554665 28:0.14834503510531596 29:0.6761283851554665 30:0.6761283851554665 
1.0 1:0.6761283851554665 2:0.6761283851554665 3:0.6761283851554665 4:0.9 5:0.6761283851554665 6:0.6761283851554665 7:0.19267803410230694 8:0.6761283851554665 9:0.1595787362086259 10:0.6761283851554665 11:0.6761283851554665 12:0.6761283851554665 13:0.6761283851554665 14:0.14032096288866602 15:0.6761283851554665 16:0.6761283851554665 17:0.6761283851554665 18:0.6761283851554665 19:0.14834503510531596 20:0.6761283851554665 21:0.6761283851554665 22:0.13711133400200604 23:0.6761283851554665 24:0.14513540621865598 25:0.6761283851554665 26:0.14834503510531596 27:0.6761283851554665 28:0.6761283851554665 29:0.6761283851554665 30:0.6761283851554665 
-1.0 1:0.6761283851554665 2:0.6761283851554665 3:0.9 4:0.6761283851554665 5:0.6761283851554665 6:0.19267803410230694 7:0.6761283851554665 8:0.1595787362086259 9:0.6761283851554665 10:0.6761283851554665 11:0.6761283851554665 12:0.6761283851554665 13:0.14032096288866602 14:0.6761283851554665 15:0.6761283851554665 16:0.6761283851554665 17:0.6761283851554665 18:0.14834503510531596 19:0.6761283851554665 20:0.6761283851554665 21:0.13711133400200604 22:0.6761283851554665 23:0.14513540621865598 24:0.6761283851554665 25:0.14834503510531596 26:0.6761283851554665 27:0.6761283851554665 28:0.6761283851554665 29:0.6761283851554665 30:0.6761283851554665 
-1.0 1:0.9 2:0.6761283851554665 3:0.6761283851554665 4:0.19267803410230694 5:0.6761283851554665 6:0.1595787362086259 7:0.6761283851554665 8:0.6761283851554665 9:0.6761283851554665 10:0.6761283851554665 11:0.14032096288866602 12:0.6761283851554665 13:0.6761283851554665 14:0.6761283851554665 15:0.6761283851554665 16:0.14834503510531596 17:0.6761283851554665 18:0.6761283851554665 19:0.13711133400200604 20:0.6761283851554665 21:0.14513540621865598 22:0.6761283851554665 23:0.14834503510531596 24:0.6761283851554665 25:0.6761283851554665 26:0.6761283851554665 27:0.6761283851554665 28:0.6761283851554665 29:0.14994984954864596 30:0.6761283851554665 
-1.0 1:0.6761283851554665 2:0.19267803410230694 3:0.6761283851554665 4:0.1595787362086259 5:0.6761283851554665 6:0.6761283851554665 7:0.6761283851554665 8:0.6761283851554665 9:0.14032096288866602 10:0.6761283851554665 11:0.6761283851554665 12:0.6761283851554665 13:0.6761283851554665 14:0.14834503510531596 15:0.6761283851554665 16:0.6761283851554665 17:0.13711133400200604 18:0.6761283851554665 19:0.14513540621865598 20:0.6761283851554665 21:0.14834503510531596 22:0.6761283851554665 23:0.6761283851554665 24:0.6761283851554665 25:0.6761283851554665 26:0.6761283851554665 27:0.14994984954864596 28:0.6761283851554665 29:0.13390170511534605 30:0.6761283851554665 
1.0 1:0.6761283851554665 2:0.1595787362086259 3:0.6761283851554665 4:0.6761283851554665 5:0.6761283851554665 6:0.6761283851554665 7:0.14032096288866602 8:0.6761283851554665 9:0.6761283851554665 10:0.6761283851554665 11:0.6761283851554665 12:0.14834503510531596 13:0.6761283851554665 14:0.6761283851554665 15:0.13711133400200604 16:0.6761283851554665 17:0.14513540621865598 18:0.6761283851554665 19:0.14834503510531596 20:0.6761283851554665 21:0.6761283851554665 22:0.6761283851554665 23:0.6761283851554665 24:0.6761283851554665 25:0.14994984954864596 26:0.6761283851554665 27:0.13390170511534605 28:0.6761283851554665 29:0.14353059177532598 30:0.6761283851554665 
-1.0 1:0.1595787362086259 2:0.6761283851554665 3:0.6761283851554665 4:0.6761283851554665 5:0.6761283851554665 6:0.14032096288866602 7:0.6761283851554665 8:0.6761283851554665 9:0.6761283851554665 10:0.6761283851554665 11:0.14834503510531596 12:0.6761283851554665 13:0.6761283851554665 14:0.13711133400200604 15:0.6761283851554665 16:0.14513540621865598 17:0.6761283851554665 18:0.14834503510531596 19:0.6761283851554665 20:0.6761283851554665 21:0.6761283851554665 22:0.6761283851554665 23:0.6761283851554665 24:0.14994984954864596 25:0.6761283851554665 26:0.13390170511534605 27:0.6761283851554665 28:0.14353059177532598 29:0.6761283851554665 30:0.6761283851554665 
1.0 1:0.6761283851554665 2:0.6761283851554665 3:0.6761283851554665 4:0.14032096288866602 5:0.6761283851554665 6:0.6761283851554665 7:0.6761283851554665 8:0.6761283851554665 9:0.14834503510531596 10:0.6761283851554665 11:0.6761283851554665 12:0.13711133400200604 13:0.6761283851554665 14:0.14513540621865598 15:0.6761283851554665 16:0.14834503510531596 17:0.6761283851554665 18:0.6761283851554665 19:0.6761283851554665 20:0.6761283851554665 21:0.6761283851554665 22:0.14994984954864596 23:0.6761283851554665 24:0.13390170511534605 25:0.6761283851554665 26:0.14353059177532598 27:0.6761283851554665 28:0.6761283851554665 29:0.14834503510531596 30:0.6761283851554665 
0.2764637965947624 1:0.6761283851554665 2:0.6761283851554665 3:0.14032096288866602 4:0.6761283851554665 5:0.6761283851554665 6:0.6761283851554665 7:0.6761283851554665 8:0.14834503510531596 9:0.6761283851554665 10:0.6761283851554665 11:0.13711133400200604 12:0.6761283851554665 13:0.14513540621865598 14:0.6761283851554665 15:0.14834503510531596 16:0.6761283851554665 17:0.6761283851554665 18:0.6761283851554665 19:0.6761283851554665 20:0.6761283851554665 21:0.14994984954864596 22:0.6761283851554665 23:0.13390170511534605 24:0.6761283851554665 25:0.14353059177532598 26:0.6761283851554665 27:0.6761283851554665 28:0.14834503510531596 29:0.6761283851554665 30:0.6761283851554665 
1.0 1:0.6761283851554665 2:0.14032096288866602 3:0.6761283851554665 4:0.6761283851554665 5:0.6761283851554665 6:0.6761283851554665 7:0.14834503510531596 8:0.6761283851554665 9:0.6761283851554665 10:0.13711133400200604 11:0.6761283851554665 12:0.14513540621865598 13:0.6761283851554665 14:0.14834503510531596 15:0.6761283851554665 16:0.6761283851554665 17:0.6761283851554665 18:0.6761283851554665 19:0.6761283851554665 20:0.14994984954864596 21:0.6761283851554665 22:0.13390170511534605 23:0.6761283851554665 24:0.14353059177532598 25:0.6761283851554665 26:0.6761283851554665 27:0.14834503510531596 28:0.6761283851554665 29:0.6761283851554665 30:0.6761283851554665 
-1.0 1:0.14032096288866602 2:0.6761283851554665 3:0.6761283851554665 4:0.6761283851554665 5:0.6761283851554665 6:0.14834503510531596 7:0.6761283851554665 8:0.6761283851554665 9:0.13711133400200604 10:0.6761283851554665 11:0.14513540621865598 12:0.6761283851554665 13:0.14834503510531596 14:0.6761283851554665 15:0.6761283851554665 16:0.6761283851554665 17:0.6761283851554665 18:0.6761283851554665 19:0.14994984954864596 20:0.6761283851554665 21:0.13390170511534605 22:0.6761283851554665 23:0.14353059177532598 24:0.6761283851554665 25:0.6761283851554665 26:0.14834503510531596 27:0.6761283851554665 28:0.6761283851554665 29:0.6761283851554665 30:0.6761283851554665 
-1.0 1:0.6761283851554665 2:0.6761283851554665 3:0.6761283851554665 4:0.14834503510531596 5:0.6761283851554665 6:0.6761283851554665 7:0.13711133400200604 8:0.6761283851554665 9:0.14513540621865598 10:0.6761283851554665 11:0.14834503510531596 12:0.6761283851554665 13:0.6761283851554665 14:0.6761283851554665 15:0.6761283851554665 16:0.6761283851554665 17:0.14994984954864596 18:0.6761283851554665 19:0.13390170511534605 20:0.6761283851554665 21:0.14353059177532598 22:0.6761283851554665 23:0.6761283851554665 24:0.14834503510531596 25:0.6761283851554665 26:0.6761283851554665 27:0.6761283851554665 28:0.6761283851554665 29:0.14834503510531596 30:0.6761283851554665 
-1.0 1:0.6761283851554665 2:0.14834503510531596 3:0.6761283851554665 4:0.6761283851554665 5:0.13711133400200604 6:0.6761283851554665 7:0.14513540621865598 8:0.6761283851554665 9:0.14834503510531596 10:0.6761283851554665 11:0.6761283851554665 12:0.6761283851554665 13:0.6761283851554665 14:0.6761283851554665 15:0.14994984954864596 16:0.6761283851554665 17:0.13390170511534605 18:0.6761283851554665 19:0.14353059177532598 20:0.6761283851554665 21:0.6761283851554665 22:0.14834503510531596 23:0.6761283851554665 24:0.6761283851554665 25:0.6761283851554665 26:0.6761283851554665 27:0.14834503510531596 28:0.6761283851554665 29:0.13390170511534605 30:0.6761283851554665 
1.0 1:0.14834503510531596 2:0.6761283851554665 3:0.6761283851554665 4:0.13711133400200604 5:0.6761283851554665 6:0.14513540621865598 7:0.6761283851554665 8:0.14834503510531596 9:0.6761283851554665 10:0.6761283851554665 11:0.6761283851554665 12:0.6761283851554665 13:0.6761283851554665 14:0.14994984954864596 15:0.6761283851554665 16:0.13390170511534605 17:0.6761283851554665 18:0.14353059177532598 19:0.6761283851554665 20:0.6761283851554665 21:0.14834503510531596 22:0.6761283851554665 23:0.6761283851554665 24:0.6761283851554665 25:0.6761283851554665 26:0.14834503510531596 27:0.6761283851554665 28:0.13390170511534605 29:0.6761283851554665 30:0.14674022066198597 
1.0 1:0.6761283851554665 2:0.6761283851554665 3:0.13711133400200604 4:0.6761283851554665 5:0.14513540621865598 6:0.6761283851554665 7:0.14834503510531596 8:0.6761283851554665 9:0.6761283851554665 10:0.6761283851554665 11:0.6761283851554665 12:0.6761283851554665 13:0.14994984954864596 14:0.6761283851554665 15:0.13390170511534605 16:0.6761283851554665 17:0.14353059177532598 18:0.6761283851554665 19:0.6761283851554665 20:0.14834503510531596 21:0.6761283851554665 22:0.6761283851554665 23:0.6761283851554665 24:0.6761283851554665 25:0.14834503510531596 26:0.6761283851554665 27:0.13390170511534605 28:0.6761283851554665 29:0.14674022066198597 30:0.6761283851554665 
-1.0 1:0.6761283851554665 2:0.13711133400200604 3:0.6761283851554665 4:0.14513540621865598 5:0.6761283851554665 6:0.14834503510531596 7:0.6761283851554665 8:0.6761283851554665 9:0.6761283851554665 10:0.6761283851554665 11:0.6761283851554665 12:0.14994984954864596 13:0.6761283851554665 14:0.13390170511534605 15:0.6761283851554665 16:0.14353059177532598 17:0.6761283851554665 18:0.6761283851554665 19:0.14834503510531596 20:0.6761283851554665 21:0.6761283851554665 22:0.6761283851554665 23:0.6761283851554665 24:0.14834503510531596 25:0.6761283851554665 26:0.13390170511534605 27:0.6761283851554665 28:0.14674022066198597 29:0.6761283851554665 30:0.6761283851554665 
-1.0 1:0.6761283851554665 2:0.14513540621865598 3:0.6761283851554665 4:0.14834503510531596 5:0.6761283851554665 6:0.6761283851554665 7:0.6761283851554665 8:0.6761283851554665 9:0.6761283851554665 10:0.14994984954864596 11:0.6761283851554665 12:0.13390170511534605 13:0.6761283851554665 14:0.14353059177532598 15:0.6761283851554665 16:0.6761283851554665 17:0.14834503510531596 18:0.6761283851554665 19:0.6761283851554665 20:0.6761283851554665 21:0.6761283851554665 22:0.14834503510531596 23:0.6761283851554665 24:0.13390170511534605 25:0.6761283851554665 26:0.14674022066198597 27:0.6761283851554665 28:0.6761283851554665 29:0.14834503510531596 30:0.6761283851554665 
-1.0 1:0.6761283851554665 2:0.14834503510531596 3:0.6761283851554665 4:0.6761283851554665 5:0.6761283851554665 6:0.6761283851554665 7:0.6761283851554665 8:0.14994984954864596 9:0.6761283851554665 10:0.13390170511534605 11:0.6761283851554665 12:0.14353059177532598 13:0.6761283851554665 14:0.6761283851554665 15:0.14834503510531596 16:0.6761283851554665 17:0.6761283851554665 18:0.6761283851554665 19:0.6761283851554665 20:0.14834503510531596 21:0.6761283851554665 22:0.13390170511534605 23:0.6761283851554665 24:0.14674022066198597 25:0.6761283851554665 26:0.6761283851554665 27:0.14834503510531596 28:0.6761283851554665 29:0.14834503510531596 30:0.6761283851554665 
1.0 1:0.14834503510531596 2:0.6761283851554665 3:0.6761283851554665 4:0.6761283851554665 5:0.6761283851554665 6:0.6761283851554665 7:0.14994984954864596 8:0.6761283851554665 9:0.13390170511534605 10:0.6761283851554665 11:0.14353059177532598 12:0.6761283851554665 13:0.6761283851554665 14:0.14834503510531596 15:0.6761283851554665 16:0.6761283851554665 17:0.6761283851554665 18:0.6761283851554665 19:0.14834503510531596 20:0.6761283851554665 21:0.13390170511534605 22:0.6761283851554665 23:0.14674022066198597 24:0.6761283851554665 25:0.6761283851554665 26:0.14834503510531596 27:0.6761283851554665 28:0.14834503510531596 29:0.6761283851554665 30:0.14834503510531596 
-0.680317754835308 1:0.6761283851554665 2:0.6761283851554665 3:0.6761283851554665 4:0.6761283851554665 5:0.14994984954864596 6:0.6761283851554665 7:0.13390170511534605 8:0.6761283851554665 9:0.14353059177532598 10:0.6761283851554665 11:0.6761283851554665 12:0.14834503510531596 13:0.6761283851554665 14:0.6761283851554665 15:0.6761283851554665 16:0.6761283851554665 17:0.14834503510531596 18:0.6761283851554665 19:0.13390170511534605 20:0.6761283851554665 21:0.14674022066198597 22:0.6761283851554665 23:0.6761283851554665 24:0.14834503510531596 25:0.6761283851554665 26:0.14834503510531596 27:0.6761283851554665 28:0.14834503510531596 29:0.6761283851554665 30:0.6761283851554665 
-1.0 1:0.14994984954864596 2:0.6761283851554665 3:0.13390170511534605 4:0.6761283851554665 5:0.14353059177532598 6:0.6761283851554665 7:0.6761283851554665 8:0.14834503510531596 9:0.6761283851554665 10:0.6761283851554665 11:0.6761283851554665 12:0.6761283851554665 13:0.14834503510531596 14:0.6761283851554665 15:0.13390170511534605 16:0.6761283851554665 17:0.14674022066198597 18:0.6761283851554665 19:0.6761283851554665 20:0.14834503510531596 21:0.6761283851554665 22:0.14834503510531596 23:0.6761283851554665 24:0.14834503510531596 25:0.6761283851554665 26:0.6761283851554665 27:0.14834503510531596 28:0.6761283851554665 29:0.14834503510531596 30:0.6761283851554665 
0.03634218575624791 1:0.6761283851554665 2:0.13390170511534605 3:0.6761283851554665 4:0.14353059177532598 5:0.6761283851554665 6:0.6761283851554665 7:0.14834503510531596 8:0.6761283851554665 9:0.6761283851554665 10:0.6761283851554665 11:0.6761283851554665 12:0.14834503510531596 13:0.6761283851554665 14:0.13390170511534605 15:0.6761283851554665 16:0.14674022066198597 17:0.6761283851554665 18:0.6761283851554665 19:0.14834503510531596 20:0.6761283851554665 21:0.14834503510531596 22:0.6761283851554665 23:0.14834503510531596 24:0.6761283851554665 25:0.6761283851554665 26:0.14834503510531596 27:0.6761283851554665 28:0.14834503510531596 29:0.6761283851554665 30:0.14834503510531596 
1.0 1:0.13390170511534605 2:0.6761283851554665 3:0.14353059177532598 4:0.6761283851554665 5:0.6761283851554665 6:0.14834503510531596 7:0.6761283851554665 8:0.6761283851554665 9:0.6761283851554665 10:0.6761283851554665 11:0.14834503510531596 12:0.6761283851554665 13:0.13390170511534605 14:0.6761283851554665 15:0.14674022066198597 16:0.6761283851554665 17:0.6761283851554665 18:0.14834503510531596 19:0.6761283851554665 20:0.14834503510531596 21:0.6761283851554665 22:0.14834503510531596 23:0.6761283851554665 24:0.6761283851554665 25:0.14834503510531596 26:0.6761283851554665 27:0.14834503510531596 28:0.6761283851554665 29:0.14834503510531596 30:0.6761283851554665 
-0.8835065026600645 1:0.6761283851554665 2:0.14353059177532598 3:0.6761283851554665 4:0.6761283851554665 5:0.14834503510531596 6:0.6761283851554665 7:0.6761283851554665 8:0.6761283851554665 9:0.6761283851554665 10:0.14834503510531596 11:0.6761283851554665 12:0.13390170511534605 13:0.6761283851554665 14:0.14674022066198597 15:0.6761283851554665 16:0.6761283851554665 17:0.14834503510531596 18:0.6761283851554665 19:0.14834503510531596 20:0.6761283851554665 21:0.14834503510531596 22:0.6761283851554665 23:0.6761283851554665 24:0.14834503510531596 25:0.6761283851554665 26:0.14834503510531596 27:0.6761283851554665 28:0.14834503510531596 29:0.6761283851554665 30:0.6761283851554665 
-1.0 1:0.14834503510531596 2:0.6761283851554665 3:0.6761283851554665 4:0.6761283851554665 5:0.6761283851554665 6:0.14834503510531596 7:0.6761283851554665 8:0.13390170511534605 9:0.6761283851554665 10:0.14674022066198597 11:0.6761283851554665 12:0.6761283851554665 13:0.14834503510531596 14:0.6761283851554665 15:0.14834503510531596 16:0.6761283851554665 17:0.14834503510531596 18:0.6761283851554665 19:0.6761283851554665 20:0.14834503510531596 21:0.6761283851554665 22:0.14834503510531596 23:0.6761283851554665 24:0.14834503510531596 25:0.6761283851554665 26:0.6761283851554665 27:0.14834503510531596 28:0.6761283851554665 29:0.14994984954864596 30:0.6761283851554665 
1.0 1:0.6761283851554665 2:0.6761283851554665 3:0.6761283851554665 4:0.6761283851554665 5:0.14834503510531596 6:0.6761283851554665 7:0.13390170511534605 8:0.6761283851554665 9:0.14674022066198597 10:0.6761283851554665 11:0.6761283851554665 12:0.14834503510531596 13:0.6761283851554665 14:0.14834503510531596 15:0.6761283851554665 16:0.14834503510531596 17:0.6761283851554665 18:0.6761283851554665 19:0.14834503510531596 20:0.6761283851554665 21:0.14834503510531596 22:0.6761283851554665 23:0.14834503510531596 24:0.6761283851554665 25:0.6761283851554665 26:0.14834503510531596 27:0.6761283851554665 28:0.14994984954864596 29:0.6761283851554665 30:0.14834503510531596 
-0.43848347508822555 1:0.6761283851554665 2:0.6761283851554665 3:0.14834503510531596 4:0.6761283851554665 5:0.13390170511534605 6:0.6761283851554665 7:0.14674022066198597 8:0.6761283851554665 9:0.6761283851554665 10:0.14834503510531596 11:0.6761283851554665 12:0.14834503510531596 13:0.6761283851554665 14:0.14834503510531596 15:0.6761283851554665 16:0.6761283851554665 17:0.14834503510531596 18:0.6761283851554665 19:0.14834503510531596 20:0.6761283851554665 21:0.14834503510531596 22:0.6761283851554665 23:0.6761283851554665 24:0.14834503510531596 25:0.6761283851554665 26:0.14994984954864596 27:0.6761283851554665 28:0.14834503510531596 29:0.6761283851554665 30:0.6761283851554665 
-1.0 1:0.13390170511534605 2:0.6761283851554665 3:0.14674022066198597 4:0.6761283851554665 5:0.6761283851554665 6:0.14834503510531596 7:0.6761283851554665 8:0.14834503510531596 9:0.6761283851554665 10:0.14834503510531596 11:0.6761283851554665 12:0.6761283851554665 13:0.14834503510531596 14:0.6761283851554665 15:0.14834503510531596 16:0.6761283851554665 17:0.14834503510531596 18:0.6761283851554665 19:0.6761283851554665 20:0.14834503510531596 21:0.6761283851554665 22:0.14994984954864596 23:0.6761283851554665 24:0.14834503510531596 25:0.6761283851554665 26:0.6761283851554665 27:0.14994984954864596 28:0.6761283851554665 29:0.15155466399197595 30:0.6761283851554665 
1.0 1:0.6761283851554665 2:0.14674022066198597 3:0.6761283851554665 4:0.6761283851554665 5:0.14834503510531596 6:0.6761283851554665 7:0.14834503510531596 8:0.6761283851554665 9:0.14834503510531596 10:0.6761283851554665 11:0.6761283851554665 12:0.14834503510531596 13:0.6761283851554665 14:0.14834503510531596 15:0.6761283851554665 16:0.14834503510531596 17:0.6761283851554665 18:0.6761283851554665 19:0.14834503510531596 20:0.6761283851554665 21:0.14994984954864596 22:0.6761283851554665 23:0.14834503510531596 24:0.6761283851554665 25:0.6761283851554665 26:0.14994984954864596 27:0.6761283851554665 28:0.15155466399197595 29:0.6761283851554665 30:0.14834503510531596 
1.0 1:0.14674022066198597 2:0.6761283851554665 3:0.6761283851554665 4:0.14834503510531596 5:0.6761283851554665 6:0.14834503510531596 7:0.6761283851554665 8:0.14834503510531596 9:0.6761283851554665 10:0.6761283851554665 11:0.14834503510531596 12:0.6761283851554665 13:0.14834503510531596 14:0.6761283851554665 15:0.14834503510531596 16:0.6761283851554665 17:0.6761283851554665 18:0.14834503510531596 19:0.6761283851554665 20:0.14994984954864596 21:0.6761283851554665 22:0.14834503510531596 23:0.6761283851554665 24:0.6761283851554665 25:0.14994984954864596 26:0.6761283851554665 27:0.15155466399197595 28:0.6761283851554665 29:0.14834503510531596 30:0.6761283851554665 
-1.0 1:0.6761283851554665 2:0.6761283851554665 3:0.14834503510531596 4:0.6761283851554665 5:0.14834503510531596 6:0.6761283851554665 7:0.14834503510531596 8:0.6761283851554665 9:0.6761283851554665 10:0.14834503510531596 11:0.6761283851554665 12:0.14834503510531596 13:0.6761283851554665 14:0.14834503510531596 15:0.6761283851554665 16:0.6761283851554665 17:0.14834503510531596 18:0.6761283851554665 19:0.14994984954864596 20:0.6761283851554665 21:0.14834503510531596 22:0.6761283851554665 23:0.6761283851554665 24:0.14994984954864596 25:0.6761283851554665 26:0.15155466399197595 27:0.6761283851554665 28:0.14834503510531596 29:0.6761283851554665 30:0.6761283851554665 
1.0 1:0.14834503510531596 2:0.6761283851554665 3:0.14834503510531596 4:0.6761283851554665 5:0.6761283851554665 6:0.14834503510531596 7:0.6761283851554665 8:0.14834503510531596 9:0.6761283851554665 10:0.14834503510531596 11:0.6761283851554665 12:0.6761283851554665 13:0.14834503510531596 14:0.6761283851554665 15:0.14994984954864596 16:0.6761283851554665 17:0.14834503510531596 18:0.6761283851554665 19:0.6761283851554665 20:0.14994984954864596 21:0.6761283851554665 22:0.15155466399197595 23:0.6761283851554665 24:0.14834503510531596 25:0.6761283851554665 26:0.6761283851554665 27:0.14994984954864596 28:0.6761283851554665 29:0.14674022066198597 30:0.6761283851554665 
-1.0 1:0.6761283851554665 2:0.14834503510531596 3:0.6761283851554665 4:0.6761283851554665 5:0.14834503510531596 6:0.6761283851554665 7:0.14834503510531596 8:0.6761283851554665 9:0.14834503510531596 10:0.6761283851554665 11:0.6761283851554665 12:0.14834503510531596 13:0.6761283851554665 14:0.14994984954864596 15:0.6761283851554665 16:0.14834503510531596 17:0.6761283851554665 18:0.6761283851554665 19:0.14994984954864596 20:0.6761283851554665 21:0.15155466399197595 22:0.6761283851554665 23:0.14834503510531596 24:0.6761283851554665 25:0.6761283851554665 26:0.14994984954864596 27:0.6761283851554665 28:0.14674022066198597 29:0.6761283851554665 30:0.6761283851554665 
-1.0 1:0.14834503510531596 2:0.6761283851554665 3:0.6761283851554665 4:0.14834503510531596 5:0.6761283851554665 6:0.14834503510531596 7:0.6761283851554665 8:0.14834503510531596 9:0.6761283851554665 10:0.6761283851554665 11:0.14834503510531596 12:0.6761283851554665 13:0.14994984954864596 14:0.6761283851554665 15:0.14834503510531596 16:0.6761283851554665 17:0.6761283851554665 18:0.14994984954864596 19:0.6761283851554665 20:0.15155466399197595 21:0.6761283851554665 22:0.14834503510531596 23:0.6761283851554665 24:0.6761283851554665 25:0.14994984954864596 26:0.6761283851554665 27:0.14674022066198597 28:0.6761283851554665 29:0.6761283851554665 30:0.13550651955867604 
-1.0 1:0.14834503510531596 2:0.6761283851554665 3:0.14834503510531596 4:0.6761283851554665 5:0.14834503510531596 6:0.6761283851554665 7:0.6761283851554665 8:0.14834503510531596 9:0.6761283851554665 10:0.14994984954864596 11:0.6761283851554665 12:0.14834503510531596 13:0.6761283851554665 14:0.6761283851554665 15:0.14994984954864596 16:0.6761283851554665 17:0.15155466399197595 18:0.6761283851554665 19:0.14834503510531596 20:0.6761283851554665 21:0.6761283851554665 22:0.14994984954864596 23:0.6761283851554665 24:0.14674022066198597 25:0.6761283851554665 26:0.6761283851554665 27:0.13550651955867604 28:0.6761283851554665 29:0.13550651955867604 30:0.6761283851554665 
0.5843001994763659 1:0.6761283851554665 2:0.14834503510531596 3:0.6761283851554665 4:0.14834503510531596 5:0.6761283851554665 6:0.6761283851554665 7:0.14834503510531596 8:0.6761283851554665 9:0.14994984954864596 10:0.6761283851554665 11:0.14834503510531596 12:0.6761283851554665 13:0.6761283851554665 14:0.14994984954864596 15:0.6761283851554665 16:0.15155466399197595 17:0.6761283851554665 18:0.14834503510531596 19:0.6761283851554665 20:0.6761283851554665 21:0.14994984954864596 22:0.6761283851554665 23:0.14674022066198597 24:0.6761283851554665 25:0.6761283851554665 26:0.13550651955867604 27:0.6761283851554665 28:0.13550651955867604 29:0.6761283851554665 30:0.13390170511534605 
1.0 1:0.14834503510531596 2:0.6761283851554665 3:0.14834503510531596 4:0.6761283851554665 5:0.6761283851554665 6:0.14834503510531596 7:0.6761283851554665 8:0.14994984954864596 9:0.6761283851554665 10:0.14834503510531596 11:0.6761283851554665 12:0.6761283851554665 13:0.14994984954864596 14:0.6761283851554665 15:0.15155466399197595 16:0.6761283851554665 17:0.14834503510531596 18:0.6761283851554665 19:0.6761283851554665 20:0.14994984954864596 21:0.6761283851554665 22:0.14674022066198597 23:0.6761283851554665 24:0.6761283851554665 25:0.13550651955867604 26:0.6761283851554665 27:0.13550651955867604 28:0.6761283851554665 29:0.13390170511534605 30:0.6761283851554665 
-1.0 1:0.6761283851554665 2:0.14834503510531596 3:0.6761283851554665 4:0.6761283851554665 5:0.14834503510531596 6:0.6761283851554665 7:0.14994984954864596 8:0.6761283851554665 9:0.14834503510531596 10:0.6761283851554665 11:0.6761283851554665 12:0.14994984954864596 13:0.6761283851554665 14:0.15155466399197595 15:0.6761283851554665 16:0.14834503510531596 17:0.6761283851554665 18:0.6761283851554665 19:0.14994984954864596 20:0.6761283851554665 21:0.14674022066198597 22:0.6761283851554665 23:0.6761283851554665 24:0.13550651955867604 25:0.6761283851554665 26:0.13550651955867604 27:0.6761283851554665 28:0.13390170511534605 29:0.6761283851554665 30:0.6761283851554665 
-1.0 1:0.14834503510531596 2:0.6761283851554665 3:0.14994984954864596 4:0.6761283851554665 5:0.14834503510531596 6:0.6761283851554665 7:0.6761283851554665 8:0.14994984954864596 9:0.6761283851554665 10:0.15155466399197595 11:0.6761283851554665 12:0.14834503510531596 13:0.6761283851554665 14:0.6761283851554665 15:0.14994984954864596 16:0.6761283851554665 17:0.14674022066198597 18:0.6761283851554665 19:0.6761283851554665 20:0.13550651955867604 21:0.6761283851554665 22:0.13550651955867604 23:0.6761283851554665 24:0.13390170511534605 25:0.6761283851554665 26:0.6761283851554665 27:0.13229689067201605 28:0.6761283851554665 29:0.13390170511534605 30:0.6761283851554665 
1.0 1:0.6761283851554665 2:0.14994984954864596 3:0.6761283851554665 4:0.14834503510531596 5:0.6761283851554665 6:0.6761283851554665 7:0.14994984954864596 8:0.6761283851554665 9:0.15155466399197595 10:0.6761283851554665 11:0.14834503510531596 12:0.6761283851554665 13:0.6761283851554665 14:0.14994984954864596 15:0.6761283851554665 16:0.14674022066198597 17:0.6761283851554665 18:0.6761283851554665 19:0.13550651955867604 20:0.6761283851554665 21:0.13550651955867604 22:0.6761283851554665 23:0.13390170511534605 24:0.6761283851554665 25:0.6761283851554665 26:0.13229689067201605 27:0.6761283851554665 28:0.13390170511534605 29:0.6761283851554665 30:0.13229689067201605 
-1.0 1:0.14994984954864596 2:0.6761283851554665 3:0.14834503510531596 4:0.6761283851554665 5:0.6761283851554665 6:0.14994984954864596 7:0.6761283851554665 8:0.15155466399197595 9:0.6761283851554665 10:0.14834503510531596 11:0.6761283851554665 12:0.6761283851554665 13:0.14994984954864596 14:0.6761283851554665 15:0.14674022066198597 16:0.6761283851554665 17:0.6761283851554665 18:0.13550651955867604 19:0.6761283851554665 20:0.13550651955867604 21:0.6761283851554665 22:0.13390170511534605 23:0.6761283851554665 24:0.6761283851554665 25:0.13229689067201605 26:0.6761283851554665 27:0.13390170511534605 28:0.6761283851554665 29:0.13229689067201605 30:0.6761283851554665 
1.0 1:0.6761283851554665 2:0.14834503510531596 3:0.6761283851554665 4:0.6761283851554665 5:0.14994984954864596 6:0.6761283851554665 7:0.15155466399197595 8:0.6761283851554665 9:0.14834503510531596 10:0.6761283851554665 11:0.6761283851554665 12:0.14994984954864596 13:0.6761283851554665 14:0.14674022066198597 15:0.6761283851554665 16:0.6761283851554665 17:0.13550651955867604 18:0.6761283851554665 19:0.13550651955867604 20:0.6761283851554665 21:0.13390170511534605 22:0.6761283851554665 23:0.6761283851554665 24:0.13229689067201605 25:0.6761283851554665 26:0.13390170511534605 27:0.6761283851554665 28:0.13229689067201605 29:0.6761283851554665 30:0.13229689067201605 
1.0 1:0.14834503510531596 2:0.6761283851554665 3:0.6761283851554665 4:0.14994984954864596 5:0.6761283851554665 6:0.15155466399197595 7:0.6761283851554665 8:0.14834503510531596 9:0.6761283851554665 10:0.6761283851554665 11:0.14994984954864596 12:0.6761283851554665 13:0.14674022066198597 14:0.6761283851554665 15:0.6761283851554665 16:0.13550651955867604 17:0.6761283851554665 18:0.13550651955867604 19:0.6761283851554665 20:0.13390170511534605 21:0.6761283851554665 22:0.6761283851554665 23:0.13229689067201605 24:0.6761283851554665 25:0.13390170511534605 26:0.6761283851554665 27:0.13229689067201605 28:0.6761283851554665 29:0.13229689067201605 30:0.6761283851554665 
1.0 1:0.6761283851554665 2:0.6761283851554665 3:0.14994984954864596 4:0.6761283851554665 5:0.15155466399197595 6:0.6761283851554665 7:0.14834503510531596 8:0.6761283851554665 9:0.6761283851554665 10:0.14994984954864596 11:0.6761283851554665 12:0.14674022066198597 13:0.6761283851554665 14:0.6761283851554665 15:0.13550651955867604 16:0.6761283851554665 17:0.13550651955867604 18:0.6761283851554665 19:0.13390170511534605 20:0.6761283851554665 21:0.6761283851554665 22:0.13229689067201605 23:0.6761283851554665 24:0.13390170511534605 25:0.6761283851554665 26:0.13229689067201605 27:0.6761283851554665 28:0.13229689067201605 29:0.6761283851554665 30:0.6761283851554665 
0.8964399336423879 1:0.6761283851554665 2:0.14994984954864596 3:0.6761283851554665 4:0.15155466399197595 5:0.6761283851554665 6:0.14834503510531596 7:0.6761283851554665 8:0.6761283851554665 9:0.14994984954864596 10:0.6761283851554665 11:0.14674022066198597 12:0.6761283851554665 13:0.6761283851554665 14:0.13550651955867604 15:0.6761283851554665 16:0.13550651955867604 17:0.6761283851554665 18:0.13390170511534605 19:0.6761283851554665 20:0.6761283851554665 21:0.13229689067201605 22:0.6761283851554665 23:0.13390170511534605 24:0.6761283851554665 25:0.13229689067201605 26:0.6761283851554665 27:0.13229689067201605 28:0.6761283851554665 29:0.6761283851554665 30:0.6761283851554665 
1.0 1:0.14994984954864596 2:0.6761283851554665 3:0.15155466399197595 4:0.6761283851554665 5:0.14834503510531596 6:0.6761283851554665 7:0.6761283851554665 8:0.14994984954864596 9:0.6761283851554665 10:0.14674022066198597 11:0.6761283851554665 12:0.6761283851554665 13:0.13550651955867604 14:0.6761283851554665 15:0.13550651955867604 16:0.6761283851554665 17:0.13390170511534605 18:0.6761283851554665 19:0.6761283851554665 20:0.13229689067201605 21:0.6761283851554665 22:0.13390170511534605 23:0.6761283851554665 24:0.13229689067201605 25:0.6761283851554665 26:0.13229689067201605 27:0.6761283851554665 28:0.6761283851554665 29:0.6761283851554665 30:0.6761283851554665 
0.08803142978789477 1:0.6761283851554665 2:0.15155466399197595 3:0.6761283851554665 4:0.14834503510531596 5:0.6761283851554665 6:0.6761283851554665 7:0.14994984954864596 8:0.6761283851554665 9:0.14674022066198597 10:0.6761283851554665 11:0.6761283851554665 12:0.13550651955867604 13:0.6761283851554665 14:0.13550651955867604 15:0.6761283851554665 16:0.13390170511534605 17:0.6761283851554665 18:0.6761283851554665 19:0.13229689067201605 20:0.6761283851554665 21:0.13390170511534605 22:0.6761283851554665 23:0.13229689067201605 24:0.6761283851554665 25:0.13229689067201605 26:0.6761283851554665 27:0.6761283851554665 28:0.6761283851554665 29:0.6761283851554665 30:0.6761283851554665 
1.0 1:0.15155466399197595 2:0.6761283851554665 3:0.14834503510531596 4:0.6761283851554665 5:0.6761283851554665 6:0.14994984954864596 7:0.6761283851554665 8:0.14674022066198597 9:0.6761283851554665 10:0.6761283851554665 11:0.13550651955867604 12:0.6761283851554665 13:0.13550651955867604 14:0.6761283851554665 15:0.13390170511534605 16:0.6761283851554665 17:0.6761283851554665 18:0.13229689067201605 19:0.6761283851554665 20:0.13390170511534605 21:0.6761283851554665 22:0.13229689067201605 23:0.6761283851554665 24:0.13229689067201605 25:0.6761283851554665 26:0.6761283851554665 27:0.6761283851554665 28:0.6761283851554665 29:0.6761283851554665 30:0.6761283851554665 
1.0 1:0.6761283851554665 2:0.14834503510531596 3:0.6761283851554665 4:0.6761283851554665 5:0.14994984954864596 6:0.6761283851554665 7:0.14674022066198597 8:0.6761283851554665 9:0.6761283851554665 10:0.13550651955867604 11:0.6761283851554665 12:0.13550651955867604 13:0.6761283851554665 14:0.13390170511534605 15:0.6761283851554665 16:0.6761283851554665 17:0.13229689067201605 18:0.6761283851554665 19:0.13390170511534605 20:0.6761283851554665 21:0.13229689067201605 22:0.6761283851554665 23:0.13229689067201605 24:0.6761283851554665 25:0.6761283851554665 26:0.6761283851554665 27:0.6761283851554665 28:0.6761283851554665 29:0.6761283851554665 30:0.6761283851554665 
1.0 1:0.14834503510531596 2:0.6761283851554665 3:0.6761283851554665 4:0.14994984954864596 5:0.6761283851554665 6:0.14674022066198597 7:0.6761283851554665 8:0.6761283851554665 9:0.13550651955867604 10:0.6761283851554665 11:0.13550651955867604 12:0.6761283851554665 13:0.13390170511534605 14:0.6761283851554665 15:0.6761283851554665 16:0.13229689067201605 17:0.6761283851554665 18:0.13390170511534605 19:0.6761283851554665 20:0.13229689067201605 21:0.6761283851554665 22:0.13229689067201605 23:0.6761283851554665 24:0.6761283851554665 25:0.6761283851554665 26:0.6761283851554665 27:0.6761283851554665 28:0.6761283851554665 29:0.6761283851554665 30:0.6761283851554665 
1.0 1:0.6761283851554665 2:0.6761283851554665 3:0.14994984954864596 4:0.6761283851554665 5:0.14674022066198597 6:0.6761283851554665 7:0.6761283851554665 8:0.13550651955867604 9:0.6761283851554665 10:0.13550651955867604 11:0.6761283851554665 12:0.13390170511534605 13:0.6761283851554665 14:0.6761283851554665 15:0.13229689067201605 16:0.6761283851554665 17:0.13390170511534605 18:0.6761283851554665 19:0.13229689067201605 20:0.6761283851554665 21:0.13229689067201605 22:0.6761283851554665 23:0.6761283851554665 24:0.6761283851554665 25:0.6761283851554665 26:0.6761283851554665 27:0.6761283851554665 28:0.6761283851554665 29:0.6761283851554665 30:0.6761283851554665 
0.9791421670378206 1:0.6761283851554665 2:0.14994984954864596 3:0.6761283851554665 4:0.14674022066198597 5:0.6761283851554665 6:0.6761283851554665 7:0.13550651955867604 8:0.6761283851554665 9:0.13550651955867604 10:0.6761283851554665 11:0.13390170511534605 12:0.6761283851554665 13:0.6761283851554665 14:0.13229689067201605 15:0.6761283851554665 16:0.13390170511534605 17:0.6761283851554665 18:0.13229689067201605 19:0.6761283851554665 20:0.13229689067201605 21:0.6761283851554665 22:0.6761283851554665 23:0.6761283851554665 24:0.6761283851554665 25:0.6761283851554665 26:0.6761283851554665 27:0.6761283851554665 28:0.6761283851554665 29:0.6761283851554665 30:0.6761283851554665 
-1.0 1:0.14994984954864596 2:0.6761283851554665 3:0.14674022066198597 4:0.6761283851554665 5:0.6761283851554665 6:0.13550651955867604 7:0.6761283851554665 8:0.13550651955867604 9:0.6761283851554665 10:0.13390170511534605 11:0.6761283851554665 12:0.6761283851554665 13:0.13229689067201605 14:0.6761283851554665 15:0.13390170511534605 16:0.6761283851554665 17:0.13229689067201605 18:0.6761283851554665 19:0.13229689067201605 20:0.6761283851554665 21:0.6761283851554665 22:0.6761283851554665 23:0.6761283851554665 24:0.6761283851554665 25:0.6761283851554665 26:0.6761283851554665 27:0.6761283851554665 28:0.6761283851554665 29:0.6761283851554665 30:0.6761283851554665 
-1.0 1:0.14674022066198597 2:0.6761283851554665 3:0.6761283851554665 4:0.13550651955867604 5:0.6761283851554665 6:0.13550651955867604 7:0.6761283851554665 8:0.13390170511534605 9:0.6761283851554665 10:0.6761283851554665 11:0.13229689067201605 12:0.6761283851554665 13:0.13390170511534605 14:0.6761283851554665 15:0.13229689067201605 16:0.6761283851554665 17:0.13229689067201605 18:0.6761283851554665 19:0.6761283851554665 20:0.6761283851554665 21:0.6761283851554665 22:0.6761283851554665 23:0.6761283851554665 24:0.6761283851554665 25:0.6761283851554665 26:0.6761283851554665 27:0.6761283851554665 28:0.6761283851554665 29:0.13229689067201605 30:0.6761283851554665 
-1.0 1:0.6761283851554665 2:0.13550651955867604 3:0.6761283851554665 4:0.13550651955867604 5:0.6761283851554665 6:0.13390170511534605 7:0.6761283851554665 8:0.6761283851554665 9:0.13229689067201605 10:0.6761283851554665 11:0.13390170511534605 12:0.6761283851554665 13:0.13229689067201605 14:0.6761283851554665 15:0.13229689067201605 16:0.6761283851554665 17:0.6761283851554665 18:0.6761283851554665 19:0.6761283851554665 20:0.6761283851554665 21:0.6761283851554665 22:0.6761283851554665 23:0.6761283851554665 24:0.6761283851554665 25:0.6761283851554665 26:0.6761283851554665 27:0.13229689067201605 28:0.6761283851554665 29:0.11464393179538615 30:0.6761283851554665 
1.0 1:0.13550651955867604 2:0.6761283851554665 3:0.13550651955867604 4:0.6761283851554665 5:0.13390170511534605 6:0.6761283851554665 7:0.6761283851554665 8:0.13229689067201605 9:0.6761283851554665 10:0.13390170511534605 11:0.6761283851554665 12:0.13229689067201605 13:0.6761283851554665 14:0.13229689067201605 15:0.6761283851554665 16:0.6761283851554665 17:0.6761283851554665 18:0.6761283851554665 19:0.6761283851554665 20:0.6761283851554665 21:0.6761283851554665 22:0.6761283851554665 23:0.6761283851554665 24:0.6761283851554665 25:0.6761283851554665 26:0.13229689067201605 27:0.6761283851554665 28:0.11464393179538615 29:0.6761283851554665 30:0.1258776328986961 
-1.0 1:0.13550651955867604 2:0.6761283851554665 3:0.13390170511534605 4:0.6761283851554665 5:0.6761283851554665 6:0.13229689067201605 7:0.6761283851554665 8:0.13390170511534605 9:0.6761283851554665 10:0.13229689067201605 11:0.6761283851554665 12:0.13229689067201605 13:0.6761283851554665 14:0.6761283851554665 15:0.6761283851554665 16:0.6761283851554665 17:0.6761283851554665 18:0.6761283851554665 19:0.6761283851554665 20:0.6761283851554665 21:0.6761283851554665 22:0.6761283851554665 23:0.6761283851554665 24:0.13229689067201605 25:0.6761283851554665 26:0.11464393179538615 27:0.6761283851554665 28:0.1258776328986961 29:0.6761283851554665 30:0.6761283851554665 
-1.0 1:0.13390170511534605 2:0.6761283851554665 3:0.6761283851554665 4:0.13229689067201605 5:0.6761283851554665 6:0.13390170511534605 7:0.6761283851554665 8:0.13229689067201605 9:0.6761283851554665 10:0.13229689067201605 11:0.6761283851554665 12:0.6761283851554665 13:0.6761283851554665 14:0.6761283851554665 15:0.6761283851554665 16:0.6761283851554665 17:0.6761283851554665 18:0.6761283851554665 19:0.6761283851554665 20:0.6761283851554665 21:0.6761283851554665 22:0.13229689067201605 23:0.6761283851554665 24:0.11464393179538615 25:0.6761283851554665 26:0.1258776328986961 27:0.6761283851554665 28:0.6761283851554665 29:0.1274824473420261 30:0.6761283851554665 
1.0 1:0.6761283851554665 2:0.13229689067201605 3:0.6761283851554665 4:0.13390170511534605 5:0.6761283851554665 6:0.13229689067201605 7:0.6761283851554665 8:0.13229689067201605 9:0.6761283851554665 10:0.6761283851554665 11:0.6761283851554665 12:0.6761283851554665 13:0.6761283851554665 14:0.6761283851554665 15:0.6761283851554665 16:0.6761283851554665 17:0.6761283851554665 18:0.6761283851554665 19:0.6761283851554665 20:0.13229689067201605 21:0.6761283851554665 22:0.11464393179538615 23:0.6761283851554665 24:0.1258776328986961 25:0.6761283851554665 26:0.6761283851554665 27:0.1274824473420261 28:0.6761283851554665 29:0.1274824473420261 30:0.6761283851554665 
1.0 1:0.13229689067201605 2:0.6761283851554665 3:0.13390170511534605 4:0.6761283851554665 5:0.13229689067201605 6:0.6761283851554665 7:0.13229689067201605 8:0.6761283851554665 9:0.6761283851554665 10:0.6761283851554665 11:0.6761283851554665 12:0.6761283851554665 13:0.6761283851554665 14:0.6761283851554665 15:0.6761283851554665 16:0.6761283851554665 17:0.6761283851554665 18:0.6761283851554665 19:0.13229689067201605 20:0.6761283851554665 21:0.11464393179538615 22:0.6761283851554665 23:0.1258776328986961 24:0.6761283851554665 25:0.6761283851554665 26:0.1274824473420261 27:0.6761283851554665 28:0.1274824473420261 29:0.6761283851554665 30:0.6761283851554665 
1.0 1:0.13390170511534605 2:0.6761283851554665 3:0.13229689067201605 4:0.6761283851554665 5:0.13229689067201605 6:0.6761283851554665 7:0.6761283851554665 8:0.6761283851554665 9:0.6761283851554665 10:0.6761283851554665 11:0.6761283851554665 12:0.6761283851554665 13:0.6761283851554665 14:0.6761283851554665 15:0.6761283851554665 16:0.6761283851554665 17:0.13229689067201605 18:0.6761283851554665 19:0.11464393179538615 20:0.6761283851554665 21:0.1258776328986961 22:0.6761283851554665 23:0.6761283851554665 24:0.1274824473420261 25:0.6761283851554665 26:0.1274824473420261 27:0.6761283851554665 28:0.6761283851554665 29:0.6761283851554665 30:0.6761283851554665 
-1.0 1:0.6761283851554665 2:0.13229689067201605 3:0.6761283851554665 4:0.13229689067201605 5:0.6761283851554665 6:0.6761283851554665 7:0.6761283851554665 8:0.6761283851554665 9:0.6761283851554665 10:0.6761283851554665 11:0.6761283851554665 12:0.6761283851554665 13:0.6761283851554665 14:0.6761283851554665 15:0.6761283851554665 16:0.13229689067201605 17:0.6761283851554665 18:0.11464393179538615 19:0.6761283851554665 20:0.1258776328986961 21:0.6761283851554665 22:0.6761283851554665 23:0.1274824473420261 24:0.6761283851554665 25:0.1274824473420261 26:0.6761283851554665 27:0.6761283851554665 28:0.6761283851554665 29:0.6761283851554665 30:0.6761283851554665 
0.7325570449050506 1:0.13229689067201605 2:0.6761283851554665 3:0.13229689067201605 4:0.6761283851554665 5:0.6761283851554665 6:0.6761283851554665 7:0.6761283851554665 8:0.6761283851554665 9:0.6761283851554665 10:0.6761283851554665 11:0.6761283851554665 12:0.6761283851554665 13:0.6761283851554665 14:0.6761283851554665 15:0.13229689067201605 16:0.6761283851554665 17:0.11464393179538615 18:0.6761283851554665 19:0.1258776328986961 20:0.6761283851554665 21:0.6761283851554665 22:0.1274824473420261 23:0.6761283851554665 24:0.1274824473420261 25:0.6761283851554665 26:0.6761283851554665 27:0.6761283851554665 28:0.6761283851554665 29:0.6761283851554665 30:0.1290872617853561 
-1.0 1:0.6761283851554665 2:0.13229689067201605 3:0.6761283851554665 4:0.6761283851554665 5:0.6761283851554665 6:0.6761283851554665 7:0.6761283851554665 8:0.6761283851554665 9:0.6761283851554665 10:0.6761283851554665 11:0.6761283851554665 12:0.6761283851554665 13:0.6761283851554665 14:0.13229689067201605 15:0.6761283851554665 16:0.11464393179538615 17:0.6761283851554665 18:0.1258776328986961 19:0.6761283851554665 20:0.6761283851554665 21:0.1274824473420261 22:0.6761283851554665 23:0.1274824473420261 24:0.6761283851554665 25:0.6761283851554665 26:0.6761283851554665 27:0.6761283851554665 28:0.6761283851554665 29:0.1290872617853561 30:0.6761283851554665 
1.0 1:0.6761283851554665 2:0.6761283851554665 3:0.6761283851554665 4:0.6761283851554665 5:0.6761283851554665 6:0.6761283851554665 7:0.6761283851554665 8:0.6761283851554665 9:0.6761283851554665 10:0.6761283851554665 11:0.6761283851554665 12:0.13229689067201605 13:0.6761283851554665 14:0.11464393179538615 15:0.6761283851554665 16:0.1258776328986961 17:0.6761283851554665 18:0.6761283851554665 19:0.1274824473420261 20:0.6761283851554665 21:0.1274824473420261 22:0.6761283851554665 23:0.6761283851554665 24:0.6761283851554665 25:0.6761283851554665 26:0.6761283851554665 27:0.1290872617853561 28:0.6761283851554665 29:0.11303911735205617 30:0.6761283851554665 
1.0 1:0.6761283851554665 2:0.6761283851554665 3:0.6761283851554665 4:0.6761283851554665 5:0.6761283851554665 6:0.6761283851554665 7:0.6761283851554665 8:0.6761283851554665 9:0.6761283851554665 10:0.6761283851554665 11:0.13229689067201605 12:0.6761283851554665 13:0.11464393179538615 14:0.6761283851554665 15:0.1258776328986961 16:0.6761283851554665 17:0.6761283851554665 18:0.1274824473420261 19:0.6761283851554665 20:0.1274824473420261 21:0.6761283851554665 22:0.6761283851554665 23:0.6761283851554665 24:0.6761283851554665 25:0.6761283851554665 26:0.1290872617853561 27:0.6761283851554665 28:0.11303911735205617 29:0.6761283851554665 30:0.6761283851554665 
-1.0 1:0.6761283851554665 2:0.6761283851554665 3:0.6761283851554665 4:0.6761283851554665 5:0.6761283851554665 6:0.6761283851554665 7:0.6761283851554665 8:0.6761283851554665 9:0.13229689067201605 10:0.6761283851554665 11:0.11464393179538615 12:0.6761283851554665 13:0.1258776328986961 14:0.6761283851554665 15:0.6761283851554665 16:0.1274824473420261 17:0.6761283851554665 18:0.1274824473420261 19:0.6761283851554665 20:0.6761283851554665 21:0.6761283851554665 22:0.6761283851554665 23:0.6761283851554665 24:0.1290872617853561 25:0.6761283851554665 26:0.11303911735205617 27:0.6761283851554665 28:0.6761283851554665 29:0.6761283851554665 30:0.6761283851554665 
-1.0 1:0.6761283851554665 2:0.6761283851554665 3:0.6761283851554665 4:0.6761283851554665 5:0.6761283851554665 6:0.6761283851554665 7:0.13229689067201605 8:0.6761283851554665 9:0.11464393179538615 10:0.6761283851554665 11:0.1258776328986961 12:0.6761283851554665 13:0.6761283851554665 14:0.1274824473420261 15:0.6761283851554665 16:0.1274824473420261 17:0.6761283851554665 18:0.6761283851554665 19:0.6761283851554665 20:0.6761283851554665 21:0.6761283851554665 22:0.1290872617853561 23:0.6761283851554665 24:0.11303911735205617 25:0.6761283851554665 26:0.6761283851554665 27:0.6761283851554665 28:0.6761283851554665 29:0.1258776328986961 30:0.6761283851554665 
1.0 1:0.6761283851554665 2:0.6761283851554665 3:0.6761283851554665 4:0.6761283851554665 5:0.13229689067201605 6:0.6761283851554665 7:0.11464393179538615 8:0.6761283851554665 9:0.1258776328986961 10:0.6761283851554665 11:0.6761283851554665 12:0.1274824473420261 13:0.6761283851554665 14:0.1274824473420261 15:0.6761283851554665 16:0.6761283851554665 17:0.6761283851554665 18:0.6761283851554665 19:0.6761283851554665 20:0.1290872617853561 21:0.6761283851554665 22:0.11303911735205617 23:0.6761283851554665 24:0.6761283851554665 25:0.6761283851554665 26:0.6761283851554665 27:0.1258776328986961 28:0.6761283851554665 29:0.11624874623871614 30:0.6761283851554665 
-1.0 1:0.6761283851554665 2:0.6761283851554665 3:0.6761283851554665 4:0.13229689067201605 5:0.6761283851554665 6:0.11464393179538615 7:0.6761283851554665 8:0.1258776328986961 9:0.6761283851554665 10:0.6761283851554665 11:0.1274824473420261 12:0.6761283851554665 13:0.1274824473420261 14:0.6761283851554665 15:0.6761283851554665 16:0.6761283851554665 17:0.6761283851554665 18:0.6761283851554665 19:0.1290872617853561 20:0.6761283851554665 21:0.11303911735205617 22:0.6761283851554665 23:0.6761283851554665 24:0.6761283851554665 25:0.6761283851554665 26:0.1258776328986961 27:0.6761283851554665 28:0.11624874623871614 29:0.6761283851554665 30:0.6761283851554665 
-0.16596002404307797 1:0.6761283851554665 2:0.6761283851554665 3:0.13229689067201605 4:0.6761283851554665 5:0.11464393179538615 6:0.6761283851554665 7:0.1258776328986961 8:0.6761283851554665 9:0.6761283851554665 10:0.1274824473420261 11:0.6761283851554665 12:0.1274824473420261 13:0.6761283851554665 14:0.6761283851554665 15:0.6761283851554665 16:0.6761283851554665 17:0.6761283851554665 18:0.1290872617853561 19:0.6761283851554665 20:0.11303911735205617 21:0.6761283851554665 22:0.6761283851554665 23:0.6761283851554665 24:0.6761283851554665 25:0.1258776328986961 26:0.6761283851554665 27:0.11624874623871614 28:0.6761283851554665 29:0.6761283851554665 30:0.12427281845536611 
1.0 1:0.6761283851554665 2:0.13229689067201605 3:0.6761283851554665 4:0.11464393179538615 5:0.6761283851554665 6:0.1258776328986961 7:0.6761283851554665 8:0.6761283851554665 9:0.1274824473420261 10:0.6761283851554665 11:0.1274824473420261 12:0.6761283851554665 13:0.6761283851554665 14:0.6761283851554665 15:0.6761283851554665 16:0.6761283851554665 17:0.1290872617853561 18:0.6761283851554665 19:0.11303911735205617 20:0.6761283851554665 21:0.6761283851554665 22:0.6761283851554665 23:0.6761283851554665 24:0.1258776328986961 25:0.6761283851554665 26:0.11624874623871614 27:0.6761283851554665 28:0.6761283851554665 29:0.12427281845536611 30:0.6761283851554665 
1.0 1:0.13229689067201605 2:0.6761283851554665 3:0.11464393179538615 4:0.6761283851554665 5:0.1258776328986961 6:0.6761283851554665 7:0.6761283851554665 8:0.1274824473420261 9:0.6761283851554665 10:0.1274824473420261 11:0.6761283851554665 12:0.6761283851554665 13:0.6761283851554665 14:0.6761283851554665 15:0.6761283851554665 16:0.1290872617853561 17:0.6761283851554665 18:0.11303911735205617 19:0.6761283851554665 20:0.6761283851554665 21:0.6761283851554665 22:0.6761283851554665 23:0.1258776328986961 24:0.6761283851554665 25:0.11624874623871614 26:0.6761283851554665 27:0.6761283851554665 28:0.12427281845536611 29:0.6761283851554665 30:0.6761283851554665 
1.0 1:0.6761283851554665 2:0.11464393179538615 3:0.6761283851554665 4:0.1258776328986961 5:0.6761283851554665 6:0.6761283851554665 7:0.1274824473420261 8:0.6761283851554665 9:0.1274824473420261 10:0.6761283851554665 11:0.6761283851554665 12:0.6761283851554665 13:0.6761283851554665 14:0.6761283851554665 15:0.1290872617853561 16:0.6761283851554665 17:0.11303911735205617 18:0.6761283851554665 19:0.6761283851554665 20:0.6761283851554665 21:0.6761283851554665 22:0.1258776328986961 23:0.6761283851554665 24:0.11624874623871614 25:0.6761283851554665 26:0.6761283851554665 27:0.12427281845536611 28:0.6761283851554665 29:0.6761283851554665 30:0.6761283851554665 
-1.0 1:0.11464393179538615 2:0.6761283851554665 3:0.1258776328986961 4:0.6761283851554665 5:0.6761283851554665 6:0.1274824473420261 7:0.6761283851554665 8:0.1274824473420261 9:0.6761283851554665 10:0.6761283851554665 11:0.6761283851554665 12:0.6761283851554665 13:0.6761283851554665 14:0.1290872617853561 15:0.6761283851554665 16:0.11303911735205617 17:0.6761283851554665 18:0.6761283851554665 19:0.6761283851554665 20:0.6761283851554665 21:0.1258776328986961 22:0.6761283851554665 23:0.11624874623871614 24:0.6761283851554665 25:0.6761283851554665 26:0.12427281845536611 27:0.6761283851554665 28:0.6761283851554665 29:0.6761283851554665 30:0.6761283851554665 
-1.0 1:0.6761283851554665 2:0.1258776328986961 3:0.6761283851554665 4:0.6761283851554665 5:0.1274824473420261 6:0.6761283851554665 7:0.1274824473420261 8:0.6761283851554665 9:0.6761283851554665 10:0.6761283851554665 11:0.6761283851554665 12:0.6761283851554665 13:0.1290872617853561 14:0.6761283851554665 15:0.11303911735205617 16:0.6761283851554665 17:0.6761283851554665 18:0.6761283851554665 19:0.6761283851554665 20:0.1258776328986961 21:0.6761283851554665 22:0.11624874623871614 23:0.6761283851554665 24:0.6761283851554665 25:0.12427281845536611 26:0.6761283851554665 27:0.6761283851554665 28:0.6761283851554665 29:0.6761283851554665 30:0.1290872617853561 
-0.7378286617776878 1:0.1258776328986961 2:0.6761283851554665 3:0.6761283851554665 4:0.1274824473420261 5:0.6761283851554665 6:0.1274824473420261 7:0.6761283851554665 8:0.6761283851554665 9:0.6761283851554665 10:0.6761283851554665 11:0.6761283851554665 12:0.1290872617853561 13:0.6761283851554665 14:0.11303911735205617 15:0.6761283851554665 16:0.6761283851554665 17:0.6761283851554665 18:0.6761283851554665 19:0.1258776328986961 20:0.6761283851554665 21:0.11624874623871614 22:0.6761283851554665 23:0.6761283851554665 24:0.12427281845536611 25:0.6761283851554665 26:0.6761283851554665 27:0.6761283851554665 28:0.6761283851554665 29:0.1290872617853561 30:0.6761283851554665 
1.0 1:0.6761283851554665 2:0.1274824473420261 3:0.6761283851554665 4:0.1274824473420261 5:0.6761283851554665 6:0.6761283851554665 7:0.6761283851554665 8:0.6761283851554665 9:0.6761283851554665 10:0.1290872617853561 11:0.6761283851554665 12:0.11303911735205617 13:0.6761283851554665 14:0.6761283851554665 15:0.6761283851554665 16:0.6761283851554665 17:0.1258776328986961 18:0.6761283851554665 19:0.11624874623871614 20:0.6761283851554665 21:0.6761283851554665 22:0.12427281845536611 23:0.6761283851554665 24:0.6761283851554665 25:0.6761283851554665 26:0.6761283851554665 27:0.1290872617853561 28:0.6761283851554665 29:0.11303911735205617 30:0.6761283851554665 
-1.0 1:0.1274824473420261 2:0.6761283851554665 3:0.1274824473420261 4:0.6761283851554665 5:0.6761283851554665 6:0.6761283851554665 7:0.6761283851554665 8:0.6761283851554665 9:0.1290872617853561 10:0.6761283851554665 11:0.11303911735205617 12:0.6761283851554665 13:0.6761283851554665 14:0.6761283851554665 15:0.6761283851554665 16:0.1258776328986961 17:0.6761283851554665 18:0.11624874623871614 19:0.6761283851554665 20:0.6761283851554665 21:0.12427281845536611 22:0.6761283851554665 23:0.6761283851554665 24:0.6761283851554665 25:0.6761283851554665 26:0.1290872617853561 27:0.6761283851554665 28:0.11303911735205617 29:0.6761283851554665 30:0.6761283851554665 
-1.0 1:0.6761283851554665 2:0.1274824473420261 3:0.6761283851554665 4:0.6761283851554665 5:0.6761283851554665 6:0.6761283851554665 7:0.6761283851554665 8:0.1290872617853561 9:0.6761283851554665 10:0.11303911735205617 11:0.6761283851554665 12:0.6761283851554665 13:0.6761283851554665 14:0.6761283851554665 15:0.1258776328986961 16:0.6761283851554665 17:0.11624874623871614 18:0.6761283851554665 19:0.6761283851554665 20:0.12427281845536611 21:0.6761283851554665 22:0.6761283851554665 23:0.6761283851554665 24:0.6761283851554665 25:0.1290872617853561 26:0.6761283851554665 27:0.11303911735205617 28:0.6761283851554665 29:0.6761283851554665 30:0.12427281845536611 
1.0 1:0.1274824473420261 2:0.6761283851554665 3:0.6761283851554665 4:0.6761283851554665 5:0.6761283851554665 6:0.6761283851554665 7:0.1290872617853561 8:0.6761283851554665 9:0.11303911735205617 10:0.6761283851554665 11:0.6761283851554665 12:0.6761283851554665 13:0.6761283851554665 14:0.1258776328986961 15:0.6761283851554665 16:0.11624874623871614 17:0.6761283851554665 18:0.6761283851554665 19:0.12427281845536611 20:0.6761283851554665 21:0.6761283851554665 22:0.6761283851554665 23:0.6761283851554665 24:0.1290872617853561 25:0.6761283851554665 26:0.11303911735205617 27:0.6761283851554665 28:0.6761283851554665 29:0.12427281845536611 30:0.6761283851554665 
1.0 1:0.6761283851554665 2:0.6761283851554665 3:0.6761283851554665 4:0.6761283851554665 5:0.1290872617853561 6:0.6761283851554665 7:0.11303911735205617 8:0.6761283851554665 9:0.6761283851554665 10:0.6761283851554665 11:0.6761283851554665 12:0.1258776328986961 13:0.6761283851554665 14:0.11624874623871614 15:0.6761283851554665 16:0.6761283851554665 17:0.12427281845536611 18:0.6761283851554665 19:0.6761283851554665 20:0.6761283851554665 21:0.6761283851554665 22:0.1290872617853561 23:0.6761283851554665 24:0.11303911735205617 25:0.6761283851554665 26:0.6761283851554665 27:0.12427281845536611 28:0.6761283851554665 29:0.6761283851554665 30:0.6761283851554665 
-1.0 1:0.6761283851554665 2:0.6761283851554665 3:0.6761283851554665 4:0.1290872617853561 5:0.6761283851554665 6:0.11303911735205617 7:0.6761283851554665 8:0.6761283851554665 9:0.6761283851554665 10:0.6761283851554665 11:0.1258776328986961 12:0.6761283851554665 13:0.11624874623871614 14:0.6761283851554665 15:0.6761283851554665 16:0.12427281845536611 17:0.6761283851554665 18:0.6761283851554665 19:0.6761283851554665 20:0.6761283851554665 21:0.1290872617853561 22:0.6761283851554665 23:0.11303911735205617 24:0.6761283851554665 25:0.6761283851554665 26:0.12427281845536611 27:0.6761283851554665 28:0.6761283851554665 29:0.6761283851554665 30:0.6761283851554665 
-0.25243463836221935 1:0.6761283851554665 2:0.6761283851554665 3:0.1290872617853561 4:0.6761283851554665 5:0.11303911735205617 6:0.6761283851554665 7:0.6761283851554665 8:0.6761283851554665 9:0.6761283851554665 10:0.1258776328986961 11:0.6761283851554665 12:0.11624874623871614 13:0.6761283851554665 14:0.6761283851554665 15:0.12427281845536611 16:0.6761283851554665 17:0.6761283851554665 18:0.6761283851554665 19:0.6761283851554665 20:0.1290872617853561 21:0.6761283851554665 22:0.11303911735205617 23:0.6761283851554665 24:0.6761283851554665 25:0.12427281845536611 26:0.6761283851554665 27:0.6761283851554665 28:0.6761283851554665 29:0.6761283851554665 30:0.11464393179538615 
1.0 1:0.6761283851554665 2:0.1290872617853561 3:0.6761283851554665 4:0.11303911735205617 5:0.6761283851554665 6:0.6761283851554665 7:0.6761283851554665 8:0.6761283851554665 9:0.1258776328986961 10:0.6761283851554665 11:0.11624874623871614 12:0.6761283851554665 13:0.6761283851554665 14:0.12427281845536611 15:0.6761283851554665 16:0.6761283851554665 17:0.6761283851554665 18:0.6761283851554665 19:0.1290872617853561 20:0.6761283851554665 21:0.11303911735205617 22:0.6761283851554665 23:0.6761283851554665 24:0.12427281845536611 25:0.6761283851554665 26:0.6761283851554665 27:0.6761283851554665 28:0.6761283851554665 29:0.11464393179538615 30:0.6761283851554665 
-1.0 1:0.1290872617853561 2:0.6761283851554665 3:0.11303911735205617 4:0.6761283851554665 5:0.6761283851554665 6:0.6761283851554665 7:0.6761283851554665 8:0.1258776328986961 9:0.6761283851554665 10:0.11624874623871614 11:0.6761283851554665 12:0.6761283851554665 13:0.12427281845536611 14:0.6761283851554665 15:0.6761283851554665 16:0.6761283851554665 17:0.6761283851554665 18:0.1290872617853561 19:0.6761283851554665 20:0.11303911735205617 21:0.6761283851554665 22:0.6761283851554665 23:0.12427281845536611 24:0.6761283851554665 25:0.6761283851554665 26:0.6761283851554665 27:0.6761283851554665 28:0.11464393179538615 29:0.6761283851554665 30:0.6761283851554665 
-0.6253440951036016 1:0.11303911735205617 2:0.6761283851554665 3:0.6761283851554665 4:0.6761283851554665 5:0.6761283851554665 6:0.1258776328986961 7:0.6761283851554665 8:0.11624874623871614 9:0.6761283851554665 10:0.6761283851554665 11:0.12427281845536611 12:0.6761283851554665 13:0.6761283851554665 14:0.6761283851554665 15:0.6761283851554665 16:0.1290872617853561 17:0.6761283851554665 18:0.11303911735205617 19:0.6761283851554665 20:0.6761283851554665 21:0.12427281845536611 22:0.6761283851554665 23:0.6761283851554665 24:0.6761283851554665 25:0.6761283851554665 26:0.11464393179538615 27:0.6761283851554665 28:0.6761283851554665 29:0.1 30:0.6761283851554665 
-1.0 1:0.6761283851554665 2:0.6761283851554665 3:0.6761283851554665 4:0.1258776328986961 5:0.6761283851554665 6:0.11624874623871614 7:0.6761283851554665 8:0.6761283851554665 9:0.12427281845536611 10:0.6761283851554665 11:0.6761283851554665 12:0.6761283851554665 13:0.6761283851554665 14:0.1290872617853561 15:0.6761283851554665 16:0.11303911735205617 17:0.6761283851554665 18:0.6761283851554665 19:0.12427281845536611 20:0.6761283851554665 21:0.6761283851554665 22:0.6761283851554665 23:0.6761283851554665 24:0.11464393179538615 25:0.6761283851554665 26:0.6761283851554665 27:0.1 28:0.6761283851554665 29:0.11464393179538615 30:0.6761283851554665 
0.2475383966973566 1:0.6761283851554665 2:0.6761283851554665 3:0.1258776328986961 4:0.6761283851554665 5:0.11624874623871614 6:0.6761283851554665 7:0.6761283851554665 8:0.12427281845536611 9:0.6761283851554665 10:0.6761283851554665 11:0.6761283851554665 12:0.6761283851554665 13:0.1290872617853561 14:0.6761283851554665 15:0.11303911735205617 16:0.6761283851554665 17:0.6761283851554665 18:0.12427281845536611 19:0.6761283851554665 20:0.6761283851554665 21:0.6761283851554665 22:0.6761283851554665 23:0.11464393179538615 24:0.6761283851554665 25:0.6761283851554665 26:0.1 27:0.6761283851554665 28:0.11464393179538615 29:0.6761283851554665 30:0.1258776328986961 
1.0 1:0.1258776328986961 2:0.6761283851554665 3:0.11624874623871614 4:0.6761283851554665 5:0.6761283851554665 6:0.12427281845536611 7:0.6761283851554665 8:0.6761283851554665 9:0.6761283851554665 10:0.6761283851554665 11:0.1290872617853561 12:0.6761283851554665 13:0.11303911735205617 14:0.6761283851554665 15:0.6761283851554665 16:0.12427281845536611 17:0.6761283851554665 18:0.6761283851554665 19:0.6761283851554665 20:0.6761283851554665 21:0.11464393179538615 22:0.6761283851554665 23:0.6761283851554665 24:0.1 25:0.6761283851554665 26:0.11464393179538615 27:0.6761283851554665 28:0.1258776328986961 29:0.6761283851554665 30:0.6761283851554665 
-1.0 1:0.11624874623871614 2:0.6761283851554665 3:0.6761283851554665 4:0.12427281845536611 5:0.6761283851554665 6:0.6761283851554665 7:0.6761283851554665 8:0.6761283851554665 9:0.1290872617853561 10:0.6761283851554665 11:0.11303911735205617 12:0.6761283851554665 13:0.6761283851554665 14:0.12427281845536611 15:0.6761283851554665 16:0.6761283851554665 17:0.6761283851554665 18:0.6761283851554665 19:0.11464393179538615 20:0.6761283851554665 21:0.6761283851554665 22:0.1 23:0.6761283851554665 24:0.11464393179538615 25:0.6761283851554665 26:0.1258776328986961 27:0.6761283851554665 28:0.6761283851554665 29:0.6761283851554665 30:0.6761283851554665 
1.0 1:0.6761283851554665 2:0.12427281845536611 3:0.6761283851554665 4:0.6761283851554665 5:0.6761283851554665 6:0.6761283851554665 7:0.1290872617853561 8:0.6761283851554665 9:0.11303911735205617 10:0.6761283851554665 11:0.6761283851554665 12:0.12427281845536611 13:0.6761283851554665 14:0.6761283851554665 15:0.6761283851554665 16:0.6761283851554665 17:0.11464393179538615 18:0.6761283851554665 19:0.6761283851554665 20:0.1 21:0.6761283851554665 22:0.11464393179538615 23:0.6761283851554665 24:0.1258776328986961 25:0.6761283851554665 26:0.6761283851554665 27:0.6761283851554665 28:0.6761283851554665 29:0.1290872617853561 30:0.6761283851554665 
-1.0 1:0.12427281845536611 2:0.6761283851554665 3:0.6761283851554665 4:0.6761283851554665 5:0.6761283851554665 6:0.1290872617853561 7:0.6761283851554665 8:0.11303911735205617 9:0.6761283851554665 10:0.6761283851554665 11:0.12427281845536611 12:0.6761283851554665 13:0.6761283851554665 14:0.6761283851554665 15:0.6761283851554665 16:0.11464393179538615 17:0.6761283851554665 18:0.6761283851554665 19:0.1 20:0.6761283851554665 21:0.11464393179538615 22:0.6761283851554665 23:0.1258776328986961 24:0.6761283851554665 25:0.6761283851554665 26:0.6761283851554665 27:0.6761283851554665 28:0.1290872617853561 29:0.6761283851554665 30:0.6761283851554665 
1.0 1:0.6761283851554665 2:0.6761283851554665 3:0.6761283851554665 4:0.1290872617853561 5:0.6761283851554665 6:0.11303911735205617 7:0.6761283851554665 8:0.6761283851554665 9:0.12427281845536611 10:0.6761283851554665 11:0.6761283851554665 12:0.6761283851554665 13:0.6761283851554665 14:0.11464393179538615 15:0.6761283851554665 16:0.6761283851554665 17:0.1 18:0.6761283851554665 19:0.11464393179538615 20:0.6761283851554665 21:0.1258776328986961 22:0.6761283851554665 23:0.6761283851554665 24:0.6761283851554665 25:0.6761283851554665 26:0.1290872617853561 27:0.6761283851554665 28:0.6761283851554665 29:0.12106318956870613 30:0.6761283851554665 
1.0 1:0.6761283851554665 2:0.1290872617853561 3:0.6761283851554665 4:0.11303911735205617 5:0.6761283851554665 6:0.6761283851554665 7:0.12427281845536611 8:0.6761283851554665 9:0.6761283851554665 10:0.6761283851554665 11:0.6761283851554665 12:0.11464393179538615 13:0.6761283851554665 14:0.6761283851554665 15:0.1 16:0.6761283851554665 17:0.11464393179538615 18:0.6761283851554665 19:0.1258776328986961 20:0.6761283851554665 21:0.6761283851554665 22:0.6761283851554665 23:0.6761283851554665 24:0.1290872617853561 25:0.6761283851554665 26:0.6761283851554665 27:0.12106318956870613 28:0.6761283851554665 29:0.6761283851554665 30:0.6761283851554665 
-1.0 1:0.1290872617853561 2:0.6761283851554665 3:0.11303911735205617 4:0.6761283851554665 5:0.6761283851554665 6:0.12427281845536611 7:0.6761283851554665 8:0.6761283851554665 9:0.6761283851554665 10:0.6761283851554665 11:0.11464393179538615 12:0.6761283851554665 13:0.6761283851554665 14:0.1 15:0.6761283851554665 16:0.11464393179538615 17:0.6761283851554665 18:0.1258776328986961 19:0.6761283851554665 20:0.6761283851554665 21:0.6761283851554665 22:0.6761283851554665 23:0.1290872617853561 24:0.6761283851554665 25:0.6761283851554665 26:0.12106318956870613 27:0.6761283851554665 28:0.6761283851554665 29:0.6761283851554665 30:0.6761283851554665 
1.0 1:0.11303911735205617 2:0.6761283851554665 3:0.6761283851554665 4:0.12427281845536611 5:0.6761283851554665 6:0.6761283851554665 7:0.6761283851554665 8:0.6761283851554665 9:0.11464393179538615 10:0.6761283851554665 11:0.6761283851554665 12:0.1 13:0.6761283851554665 14:0.11464393179538615 15:0.6761283851554665 16:0.1258776328986961 17:0.6761283851554665 18:0.6761283851554665 19:0.6761283851554665 20:0.6761283851554665 21:0.1290872617853561 22:0.6761283851554665 23:0.6761283851554665 24:0.12106318956870613 25:0.6761283851554665 26:0.6761283851554665 27:0.6761283851554665 28:0.6761283851554665 29:0.1290872617853561 30:0.6761283851554665 
-1.0 1:0.6761283851554665 2:0.6761283851554665 3:0.12427281845536611 4:0.6761283851554665 5:0.6761283851554665 6:0.6761283851554665 7:0.6761283851554665 8:0.11464393179538615 9:0.6761283851554665 10:0.6761283851554665 11:0.1 12:0.6761283851554665 13:0.11464393179538615 14:0.6761283851554665 15:0.1258776328986961 16:0.6761283851554665 17:0.6761283851554665 18:0.6761283851554665 19:0.6761283851554665 20:0.1290872617853561 21:0.6761283851554665 22:0.6761283851554665 23:0.12106318956870613 24:0.6761283851554665 25:0.6761283851554665 26:0.6761283851554665 27:0.6761283851554665 28:0.1290872617853561 29:0.6761283851554665 30:0.6761283851554665 
-1.0 1:0.12427281845536611 2:0.6761283851554665 3:0.6761283851554665 4:0.6761283851554665 5:0.6761283851554665 6:0.11464393179538615 7:0.6761283851554665 8:0.6761283851554665 9:0.1 10:0.6761283851554665 11:0.11464393179538615 12:0.6761283851554665 13:0.1258776328986961 14:0.6761283851554665 15:0.6761283851554665 16:0.6761283851554665 17:0.6761283851554665 18:0.1290872617853561 19:0.6761283851554665 20:0.6761283851554665 21:0.12106318956870613 22:0.6761283851554665 23:0.6761283851554665 24:0.6761283851554665 25:0.6761283851554665 26:0.1290872617853561 27:0.6761283851554665 28:0.6761283851554665 29:0.11464393179538615 30:0.6761283851554665 
-1.0 1:0.6761283851554665 2:0.6761283851554665 3:0.6761283851554665 4:0.11464393179538615 5:0.6761283851554665 6:0.6761283851554665 7:0.1 8:0.6761283851554665 9:0.11464393179538615 10:0.6761283851554665 11:0.1258776328986961 12:0.6761283851554665 13:0.6761283851554665 14:0.6761283851554665 15:0.6761283851554665 16:0.1290872617853561 17:0.6761283851554665 18:0.6761283851554665 19:0.12106318956870613 20:0.6761283851554665 21:0.6761283851554665 22:0.6761283851554665 23:0.6761283851554665 24:0.1290872617853561 25:0.6761283851554665 26:0.6761283851554665 27:0.11464393179538615 28:0.6761283851554665 29:0.1258776328986961 30:0.6761283851554665 
1.0 1:0.6761283851554665 2:0.6761283851554665 3:0.11464393179538615 4:0.6761283851554665 5:0.6761283851554665 6:0.1 7:0.6761283851554665 8:0.11464393179538615 9:0.6761283851554665 10:0.1258776328986961 11:0.6761283851554665 12:0.6761283851554665 13:0.6761283851554665 14:0.6761283851554665 15:0.1290872617853561 16:0.6761283851554665 17:0.6761283851554665 18:0.12106318956870613 19:0.6761283851554665 20:0.6761283851554665 21:0.6761283851554665 22:0.6761283851554665 23:0.1290872617853561 24:0.6761283851554665 25:0.6761283851554665 26:0.11464393179538615 27:0.6761283851554665 28:0.1258776328986961 29:0.6761283851554665 30:0.1290872617853561 
0.04234242521159222 1:0.6761283851554665 2:0.11464393179538615 3:0.6761283851554665 4:0.6761283851554665 5:0.1 6:0.6761283851554665 7:0.11464393179538615 8:0.6761283851554665 9:0.1258776328986961 10:0.6761283851554665 11:0.6761283851554665 12:0.6761283851554665 13:0.6761283851554665 14:0.1290872617853561 15:0.6761283851554665 16:0.6761283851554665 17:0.12106318956870613 18:0.6761283851554665 19:0.6761283851554665 20:0.6761283851554665 21:0.6761283851554665 22:0.1290872617853561 23:0.6761283851554665 24:0.6761283851554665 25:0.11464393179538615 26:0.6761283851554665 27:0.1258776328986961 28:0.6761283851554665 29:0.1290872617853561 30:0.6761283851554665 
1.0 1:0.11464393179538615 2:0.6761283851554665 3:0.6761283851554665 4:0.1 5:0.6761283851554665 6:0.11464393179538615 7:0.6761283851554665 8:0.1258776328986961 9:0.6761283851554665 10:0.6761283851554665 11:0.6761283851554665 12:0.6761283851554665 13:0.1290872617853561 14:0.6761283851554665 15:0.6761283851554665 16:0.12106318956870613 17:0.6761283851554665 18:0.6761283851554665 19:0.6761283851554665 20:0.6761283851554665 21:0.1290872617853561 22:0.6761283851554665 23:0.6761283851554665 24:0.11464393179538615 25:0.6761283851554665 26:0.1258776328986961 27:0.6761283851554665 28:0.1290872617853561 29:0.6761283851554665 30:0.6761283851554665 
1.0 1:0.6761283851554665 2:0.1 3:0.6761283851554665 4:0.11464393179538615 5:0.6761283851554665 6:0.1258776328986961 7:0.6761283851554665 8:0.6761283851554665 9:0.6761283851554665 10:0.6761283851554665 11:0.1290872617853561 12:0.6761283851554665 13:0.6761283851554665 14:0.12106318956870613 15:0.6761283851554665 16:0.6761283851554665 17:0.6761283851554665 18:0.6761283851554665 19:0.1290872617853561 20:0.6761283851554665 21:0.6761283851554665 22:0.11464393179538615 23:0.6761283851554665 24:0.1258776328986961 25:0.6761283851554665 26:0.1290872617853561 27:0.6761283851554665 28:0.6761283851554665 29:0.6761283851554665 30:0.6761283851554665 
-1.0 1:0.1 2:0.6761283851554665 3:0.11464393179538615 4:0.6761283851554665 5:0.1258776328986961 6:0.6761283851554665 7:0.6761283851554665 8:0.6761283851554665 9:0.6761283851554665 10:0.1290872617853561 11:0.6761283851554665 12:0.6761283851554665 13:0.12106318956870613 14:0.6761283851554665 15:0.6761283851554665 16:0.6761283851554665 17:0.6761283851554665 18:0.1290872617853561 19:0.6761283851554665 20:0.6761283851554665 21:0.11464393179538615 22:0.6761283851554665 23:0.1258776328986961 24:0.6761283851554665 25:0.1290872617853561 26:0.6761283851554665 27:0.6761283851554665 28:0.6761283851554665 29:0.6761283851554665 30:0.6761283851554665 
-1.0 1:0.11464393179538615 2:0.6761283851554665 3:0.1258776328986961 4:0.6761283851554665 5:0.6761283851554665 6:0.6761283851554665 7:0.6761283851554665 8:0.1290872617853561 9:0.6761283851554665 10:0.6761283851554665 11:0.12106318956870613 12:0.6761283851554665 13:0.6761283851554665 14:0.6761283851554665 15:0.6761283851554665 16:0.1290872617853561 17:0.6761283851554665 18:0.6761283851554665 19:0.11464393179538615 20:0.6761283851554665 21:0.1258776328986961 22:0.6761283851554665 23:0.1290872617853561 24:0.6761283851554665 25:0.6761283851554665 26:0.6761283851554665 27:0.6761283851554665 28:0.6761283851554665 29:0.13069207622868606 30:0.6761283851554665 
-1.0 1:0.1258776328986961 2:0.6761283851554665 3:0.6761283851554665 4:0.6761283851554665 5:0.6761283851554665 6:0.1290872617853561 7:0.6761283851554665 8:0.6761283851554665 9:0.12106318956870613 10:0.6761283851554665 11:0.6761283851554665 12:0.6761283851554665 13:0.6761283851554665 14:0.1290872617853561 15:0.6761283851554665 16:0.6761283851554665 17:0.11464393179538615 18:0.6761283851554665 19:0.1258776328986961 20:0.6761283851554665 21:0.1290872617853561 22:0.6761283851554665 23:0.6761283851554665 24:0.6761283851554665 25:0.6761283851554665 26:0.6761283851554665 27:0.13069207622868606 28:0.6761283851554665 29:0.11464393179538615 30:0.6761283851554665 
1.0 1:0.6761283851554665 2:0.6761283851554665 3:0.6761283851554665 4:0.1290872617853561 5:0.6761283851554665 6:0.6761283851554665 7:0.12106318956870613 8:0.6761283851554665 9:0.6761283851554665 10:0.6761283851554665 11:0.6761283851554665 12:0.1290872617853561 13:0.6761283851554665 14:0.6761283851554665 15:0.11464393179538615 16:0.6761283851554665 17:0.1258776328986961 18:0.6761283851554665 19:0.1290872617853561 20:0.6761283851554665 21:0.6761283851554665 22:0.6761283851554665 23:0.6761283851554665 24:0.6761283851554665 25:0.13069207622868606 26:0.6761283851554665 27:0.11464393179538615 28:0.6761283851554665 29:0.12427281845536611 30:0.6761283851554665 
-1.0 1:0.6761283851554665 2:0.6761283851554665 3:0.1290872617853561 4:0.6761283851554665 5:0.6761283851554665 6:0.12106318956870613 7:0.6761283851554665 8:0.6761283851554665 9:0.6761283851554665 10:0.6761283851554665 11:0.1290872617853561 12:0.6761283851554665 13:0.6761283851554665 14:0.11464393179538615 15:0.6761283851554665 16:0.1258776328986961 17:0.6761283851554665 18:0.1290872617853561 19:0.6761283851554665 20:0.6761283851554665 21:0.6761283851554665 22:0.6761283851554665 23:0.6761283851554665 24:0.13069207622868606 25:0.6761283851554665 26:0.11464393179538615 27:0.6761283851554665 28:0.12427281845536611 29:0.6761283851554665 30:0.6761283851554665 
-1.0 1:0.1290872617853561 2:0.6761283851554665 3:0.6761283851554665 4:0.12106318956870613 5:0.6761283851554665 6:0.6761283851554665 7:0.6761283851554665 8:0.6761283851554665 9:0.1290872617853561 10:0.6761283851554665 11:0.6761283851554665 12:0.11464393179538615 13:0.6761283851554665 14:0.1258776328986961 15:0.6761283851554665 16:0.1290872617853561 17:0.6761283851554665 18:0.6761283851554665 19:0.6761283851554665 20:0.6761283851554665 21:0.6761283851554665 22:0.13069207622868606 23:0.6761283851554665 24:0.11464393179538615 25:0.6761283851554665 26:0.12427281845536611 27:0.6761283851554665 28:0.6761283851554665 29:0.1274824473420261 30:0.6761283851554665 
-1.0 1:0.6761283851554665 2:0.12106318956870613 3:0.6761283851554665 4:0.6761283851554665 5:0.6761283851554665 6:0.6761283851554665 7:0.1290872617853561 8:0.6761283851554665 9:0.6761283851554665 10:0.11464393179538615 11:0.6761283851554665 12:0.1258776328986961 13:0.6761283851554665 14:0.1290872617853561 15:0.6761283851554665 16:0.6761283851554665 17:0.6761283851554665 18:0.6761283851554665 19:0.6761283851554665 20:0.13069207622868606 21:0.6761283851554665 22:0.11464393179538615 23:0.6761283851554665 24:0.12427281845536611 25:0.6761283851554665 26:0.6761283851554665 27:0.1274824473420261 28:0.6761283851554665 29:0.1290872617853561 30:0.6761283851554665 
1.0 1:0.12106318956870613 2:0.6761283851554665 3:0.6761283851554665 4:0.6761283851554665 5:0.6761283851554665 6:0.1290872617853561 7:0.6761283851554665 8:0.6761283851554665 9:0.11464393179538615 10:0.6761283851554665 11:0.1258776328986961 12:0.6761283851554665 13:0.1290872617853561 14:0.6761283851554665 15:0.6761283851554665 16:0.6761283851554665 17:0.6761283851554665 18:0.6761283851554665 19:0.13069207622868606 20:0.6761283851554665 21:0.11464393179538615 22:0.6761283851554665 23:0.12427281845536611 24:0.6761283851554665 25:0.6761283851554665 26:0.1274824473420261 27:0.6761283851554665 28:0.1290872617853561 29:0.6761283851554665 30:0.1274824473420261 
1.0 1:0.6761283851554665 2:0.6761283851554665 3:0.6761283851554665 4:0.6761283851554665 5:0.1290872617853561 6:0.6761283851554665 7:0.6761283851554665 8:0.11464393179538615 9:0.6761283851554665 10:0.1258776328986961 11:0.6761283851554665 12:0.1290872617853561 13:0.6761283851554665 14:0.6761283851554665 15:0.6761283851554665 16:0.6761283851554665 17:0.6761283851554665 18:0.13069207622868606 19:0.6761283851554665 20:0.11464393179538615 21:0.6761283851554665 22:0.12427281845536611 23:0.6761283851554665 24:0.6761283851554665 25:0.1274824473420261 26:0.6761283851554665 27:0.1290872617853561 28:0.6761283851554665 29:0.1274824473420261 30:0.6761283851554665 
-1.0 1:0.6761283851554665 2:0.6761283851554665 3:0.6761283851554665 4:0.1290872617853561 5:0.6761283851554665 6:0.6761283851554665 7:0.11464393179538615 8:0.6761283851554665 9:0.1258776328986961 10:0.6761283851554665 11:0.1290872617853561 12:0.6761283851554665 13:0.6761283851554665 14:0.6761283851554665 15:0.6761283851554665 16:0.6761283851554665 17:0.13069207622868606 18:0.6761283851554665 19:0.11464393179538615 20:0.6761283851554665 21:0.12427281845536611 22:0.6761283851554665 23:0.6761283851554665 24:0.1274824473420261 25:0.6761283851554665 26:0.1290872617853561 27:0.6761283851554665 28:0.1274824473420261 29:0.6761283851554665 30:0.6761283851554665 
-1.0 1:0.6761283851554665 2:0.1290872617853561 3:0.6761283851554665 4:0.6761283851554665 5:0.11464393179538615 6:0.6761283851554665 7:0.1258776328986961 8:0.6761283851554665 9:0.1290872617853561 10:0.6761283851554665 11:0.6761283851554665 12:0.6761283851554665 13:0.6761283851554665 14:0.6761283851554665 15:0.13069207622868606 16:0.6761283851554665 17:0.11464393179538615 18:0.6761283851554665 19:0.12427281845536611 20:0.6761283851554665 21:0.6761283851554665 22:0.1274824473420261 23:0.6761283851554665 24:0.1290872617853561 25:0.6761283851554665 26:0.1274824473420261 27:0.6761283851554665 28:0.6761283851554665 29:0.1274824473420261 30:0.6761283851554665 
-1.0 1:0.6761283851554665 2:0.6761283851554665 3:0.11464393179538615 4:0.6761283851554665 5:0.1258776328986961 6:0.6761283851554665 7:0.1290872617853561 8:0.6761283851554665 9:0.6761283851554665 10:0.6761283851554665 11:0.6761283851554665 12:0.6761283851554665 13:0.13069207622868606 14:0.6761283851554665 15:0.11464393179538615 16:0.6761283851554665 17:0.12427281845536611 18:0.6761283851554665 19:0.6761283851554665 20:0.1274824473420261 21:0.6761283851554665 22:0.1290872617853561 23:0.6761283851554665 24:0.1274824473420261 25:0.6761283851554665 26:0.6761283851554665 27:0.1274824473420261 28:0.6761283851554665 29:0.1290872617853561 30:0.6761283851554665 
1.0 1:0.6761283851554665 2:0.11464393179538615 3:0.6761283851554665 4:0.1258776328986961 5:0.6761283851554665 6:0.1290872617853561 7:0.6761283851554665 8:0.6761283851554665 9:0.6761283851554665 10:0.6761283851554665 11:0.6761283851554665 12:0.13069207622868606 13:0.6761283851554665 14:0.11464393179538615 15:0.6761283851554665 16:0.12427281845536611 17:0.6761283851554665 18:0.6761283851554665 19:0.1274824473420261 20:0.6761283851554665 21:0.1290872617853561 22:0.6761283851554665 23:0.1274824473420261 24:0.6761283851554665 25:0.6761283851554665 26:0.1274824473420261 27:0.6761283851554665 28:0.1290872617853561 29:0.6761283851554665 30:0.13069207622868606 
0.7586524161490563 1:0.11464393179538615 2:0.6761283851554665 3:0.1258776328986961 4:0.6761283851554665 5:0.1290872617853561 6:0.6761283851554665 7:0.6761283851554665 8:0.6761283851554665 9:0.6761283851554665 10:0.6761283851554665 11:0.13069207622868606 12:0.6761283851554665 13:0.11464393179538615 14:0.6761283851554665 15:0.12427281845536611 16:0.6761283851554665 17:0.6761283851554665 18:0.1274824473420261 19:0.6761283851554665 20:0.1290872617853561 21:0.6761283851554665 22:0.1274824473420261 23:0.6761283851554665 24:0.6761283851554665 25:0.1274824473420261 26:0.6761283851554665 27:0.1290872617853561 28:0.6761283851554665 29:0.13069207622868606 30:0.6761283851554665 
-1.0 1:0.6761283851554665 2:0.1258776328986961 3:0.6761283851554665 4:0.1290872617853561 5:0.6761283851554665 6:0.6761283851554665 7:0.6761283851554665 8:0.6761283851554665 9:0.6761283851554665 10:0.13069207622868606 11:0.6761283851554665 12:0.11464393179538615 13:0.6761283851554665 14:0.12427281845536611 15:0.6761283851554665 16:0.6761283851554665 17:0.1274824473420261 18:0.6761283851554665 19:0.1290872617853561 20:0.6761283851554665 21:0.1274824473420261 22:0.6761283851554665 23:0.6761283851554665 24:0.1274824473420261 25:0.6761283851554665 26:0.1290872617853561 27:0.6761283851554665 28:0.13069207622868606 29:0.6761283851554665 30:0.6761283851554665 
1.0 1:0.6761283851554665 2:0.1290872617853561 3:0.6761283851554665 4:0.6761283851554665 5:0.6761283851554665 6:0.6761283851554665 7:0.6761283851554665 8:0.13069207622868606 9:0.6761283851554665 10:0.11464393179538615 11:0.6761283851554665 12:0.12427281845536611 13:0.6761283851554665 14:0.6761283851554665 15:0.1274824473420261 16:0.6761283851554665 17:0.1290872617853561 18:0.6761283851554665 19:0.1274824473420261 20:0.6761283851554665 21:0.6761283851554665 22:0.1274824473420261 23:0.6761283851554665 24:0.1290872617853561 25:0.6761283851554665 26:0.13069207622868606 27:0.6761283851554665 28:0.6761283851554665 29:0.1290872617853561 30:0.6761283851554665 
-1.0 1:0.1290872617853561 2:0.6761283851554665 3:0.6761283851554665 4:0.6761283851554665 5:0.6761283851554665 6:0.6761283851554665 7:0.13069207622868606 8:0.6761283851554665 9:0.11464393179538615 10:0.6761283851554665 11:0.12427281845536611 12:0.6761283851554665 13:0.6761283851554665 14:0.1274824473420261 15:0.6761283851554665 16:0.1290872617853561 17:0.6761283851554665 18:0.1274824473420261 19:0.6761283851554665 20:0.6761283851554665 21:0.1274824473420261 22:0.6761283851554665 23:0.1290872617853561 24:0.6761283851554665 25:0.13069207622868606 26:0.6761283851554665 27:0.6761283851554665 28:0.1290872617853561 29:0.6761283851554665 30:0.6761283851554665 
-1.0 1:0.6761283851554665 2:0.6761283851554665 3:0.6761283851554665 4:0.6761283851554665 5:0.13069207622868606 6:0.6761283851554665 7:0.11464393179538615 8:0.6761283851554665 9:0.12427281845536611 10:0.6761283851554665 11:0.6761283851554665 12:0.1274824473420261 13:0.6761283851554665 14:0.1290872617853561 15:0.6761283851554665 16:0.1274824473420261 17:0.6761283851554665 18:0.6761283851554665 19:0.1274824473420261 20:0.6761283851554665 21:0.1290872617853561 22:0.6761283851554665 23:0.13069207622868606 24:0.6761283851554665 25:0.6761283851554665 26:0.1290872617853561 27:0.6761283851554665 28:0.6761283851554665 29:0.12427281845536611 30:0.6761283851554665 
1.0 1:0.6761283851554665 2:0.6761283851554665 3:0.13069207622868606 4:0.6761283851554665 5:0.11464393179538615 6:0.6761283851554665 7:0.12427281845536611 8:0.6761283851554665 9:0.6761283851554665 10:0.1274824473420261 11:0.6761283851554665 12:0.1290872617853561 13:0.6761283851554665 14:0.1274824473420261 15:0.6761283851554665 16:0.6761283851554665 17:0.1274824473420261 18:0.6761283851554665 19:0.1290872617853561 20:0.6761283851554665 21:0.13069207622868606 22:0.6761283851554665 23:0.6761283851554665 24:0.1290872617853561 25:0.6761283851554665 26:0.6761283851554665 27:0.12427281845536611 28:0.6761283851554665 29:0.1274824473420261 30:0.6761283851554665 
-1.0 1:0.6761283851554665 2:0.13069207622868606 3:0.6761283851554665 4:0.11464393179538615 5:0.6761283851554665 6:0.12427281845536611 7:0.6761283851554665 8:0.6761283851554665 9:0.1274824473420261 10:0.6761283851554665 11:0.1290872617853561 12:0.6761283851554665 13:0.1274824473420261 14:0.6761283851554665 15:0.6761283851554665 16:0.1274824473420261 17:0.6761283851554665 18:0.1290872617853561 19:0.6761283851554665 20:0.13069207622868606 21:0.6761283851554665 22:0.6761283851554665 23:0.1290872617853561 24:0.6761283851554665 25:0.6761283851554665 26:0.12427281845536611 27:0.6761283851554665 28:0.1274824473420261 29:0.6761283851554665 30:0.6761283851554665 
1.0 1:0.6761283851554665 2:0.11464393179538615 3:0.6761283851554665 4:0.12427281845536611 5:0.6761283851554665 6:0.6761283851554665 7:0.1274824473420261 8:0.6761283851554665 9:0.1290872617853561 10:0.6761283851554665 11:0.1274824473420261 12:0.6761283851554665 13:0.6761283851554665 14:0.1274824473420261 15:0.6761283851554665 16:0.1290872617853561 17:0.6761283851554665 18:0.13069207622868606 19:0.6761283851554665 20:0.6761283851554665 21:0.1290872617853561 22:0.6761283851554665 23:0.6761283851554665 24:0.12427281845536611 25:0.6761283851554665 26:0.1274824473420261 27:0.6761283851554665 28:0.6761283851554665 29:0.1290872617853561 30:0.6761283851554665 
0.9041208622931197 1:0.11464393179538615 2:0.6761283851554665 3:0.12427281845536611 4:0.6761283851554665 5:0.6761283851554665 6:0.1274824473420261 7:0.6761283851554665 8:0.1290872617853561 9:0.6761283851554665 10:0.1274824473420261 11:0.6761283851554665 12:0.6761283851554665 13:0.1274824473420261 14:0.6761283851554665 15:0.1290872617853561 16:0.6761283851554665 17:0.13069207622868606 18:0.6761283851554665 19:0.6761283851554665 20:0.1290872617853561 21:0.6761283851554665 22:0.6761283851554665 23:0.12427281845536611 24:0.6761283851554665 25:0.1274824473420261 26:0.6761283851554665 27:0.6761283851554665 28:0.1290872617853561 29:0.6761283851554665 30:0.6761283851554665 
1.0 1:0.6761283851554665 2:0.12427281845536611 3:0.6761283851554665 4:0.6761283851554665 5:0.1274824473420261 6:0.6761283851554665 7:0.1290872617853561 8:0.6761283851554665 9:0.1274824473420261 10:0.6761283851554665 11:0.6761283851554665 12:0.1274824473420261 13:0.6761283851554665 14:0.1290872617853561 15:0.6761283851554665 16:0.13069207622868606 17:0.6761283851554665 18:0.6761283851554665 19:0.1290872617853561 20:0.6761283851554665 21:0.6761283851554665 22:0.12427281845536611 23:0.6761283851554665 24:0.1274824473420261 25:0.6761283851554665 26:0.6761283851554665 27:0.1290872617853561 28:0.6761283851554665 29:0.6761283851554665 30:0.6761283851554665 
