encog,SVM,java,3.1.0,1,1400511844110
[SVM]
[SVM:PARAMS]
[SVM:SVM-PARAM]
inputCount=30
C=1
cacheSize=100
coef0=0
degree=3
eps=0.001
gamma=0.0333333333
kernelType=2
nrWeight=0
nu=0.5
p=0.1
probability=0
shrinking=1
svmType=3
weight=
weightLabel=
[SVM:SVM-MODEL]
svm_type epsilon_svr
kernel_type rbf
gamma 0.03333333333333333
nr_class 2
total_sv 97
rho -0.513272618368537
SV
-1.0 1:0.1 2:0.6333333333333333 3:0.6333333333333333 4:0.6333333333333333 5:0.6333333333333333 6:0.1 7:0.6333333333333333 8:0.6333333333333333 9:0.6333333333333333 10:0.6333333333333333 11:0.3666666666666667 12:0.6333333333333333 13:0.6333333333333333 14:0.6333333333333333 15:0.6333333333333333 16:0.3666666666666667 17:0.6333333333333333 18:0.6333333333333333 19:0.6333333333333333 20:0.6333333333333333 21:0.1 22:0.6333333333333333 23:0.6333333333333333 24:0.6333333333333333 25:0.6333333333333333 26:0.3666666666666667 27:0.6333333333333333 28:0.6333333333333333 29:0.6333333333333333 30:0.6333333333333333 
-1.0 1:0.1 2:0.6333333333333333 3:0.6333333333333333 4:0.6333333333333333 5:0.6333333333333333 6:0.3666666666666667 7:0.6333333333333333 8:0.6333333333333333 9:0.6333333333333333 10:0.6333333333333333 11:0.3666666666666667 12:0.6333333333333333 13:0.6333333333333333 14:0.6333333333333333 15:0.6333333333333333 16:0.3666666666666667 17:0.6333333333333333 18:0.6333333333333333 19:0.6333333333333333 20:0.6333333333333333 21:0.3666666666666667 22:0.6333333333333333 23:0.6333333333333333 24:0.6333333333333333 25:0.6333333333333333 26:0.3666666666666667 27:0.6333333333333333 28:0.6333333333333333 29:0.6333333333333333 30:0.6333333333333333 
-1.0 1:0.3666666666666667 2:0.6333333333333333 3:0.6333333333333333 4:0.6333333333333333 5:0.6333333333333333 6:0.3666666666666667 7:0.6333333333333333 8:0.6333333333333333 9:0.6333333333333333 10:0.6333333333333333 11:0.3666666666666667 12:0.6333333333333333 13:0.6333333333333333 14:0.6333333333333333 15:0.6333333333333333 16:0.3666666666666667 17:0.6333333333333333 18:0.6333333333333333 19:0.6333333333333333 20:0.6333333333333333 21:0.3666666666666667 22:0.6333333333333333 23:0.6333333333333333 24:0.6333333333333333 25:0.6333333333333333 26:0.1 27:0.6333333333333333 28:0.6333333333333333 29:0.6333333333333333 30:0.6333333333333333 
-0.7366122923993295 1:0.3666666666666667 2:0.6333333333333333 3:0.6333333333333333 4:0.6333333333333333 5:0.6333333333333333 6:0.3666666666666667 7:0.6333333333333333 8:0.6333333333333333 9:0.6333333333333333 10:0.6333333333333333 11:0.3666666666666667 12:0.6333333333333333 13:0.6333333333333333 14:0.6333333333333333 15:0.6333333333333333 16:0.3666666666666667 17:0.6333333333333333 18:0.6333333333333333 19:0.6333333333333333 20:0.6333333333333333 21:0.3666666666666667 22:0.6333333333333333 23:0.6333333333333333 24:0.6333333333333333 25:0.6333333333333333 26:0.3666666666666667 27:0.6333333333333333 28:0.6333333333333333 29:0.6333333333333333 30:0.6333333333333333 
1.0 1:0.3666666666666667 2:0.6333333333333333 3:0.6333333333333333 4:0.6333333333333333 5:0.6333333333333333 6:0.3666666666666667 7:0.6333333333333333 8:0.6333333333333333 9:0.6333333333333333 10:0.6333333333333333 11:0.3666666666666667 12:0.6333333333333333 13:0.6333333333333333 14:0.6333333333333333 15:0.6333333333333333 16:0.3666666666666667 17:0.6333333333333333 18:0.6333333333333333 19:0.6333333333333333 20:0.6333333333333333 21:0.3666666666666667 22:0.6333333333333333 23:0.6333333333333333 24:0.6333333333333333 25:0.6333333333333333 26:0.3666666666666667 27:0.6333333333333333 28:0.6333333333333333 29:0.6333333333333333 30:0.6333333333333333 
1.0 1:0.3666666666666667 2:0.6333333333333333 3:0.6333333333333333 4:0.6333333333333333 5:0.6333333333333333 6:0.3666666666666667 7:0.6333333333333333 8:0.6333333333333333 9:0.6333333333333333 10:0.6333333333333333 11:0.3666666666666667 12:0.6333333333333333 13:0.6333333333333333 14:0.6333333333333333 15:0.6333333333333333 16:0.3666666666666667 17:0.6333333333333333 18:0.6333333333333333 19:0.6333333333333333 20:0.6333333333333333 21:0.3666666666666667 22:0.6333333333333333 23:0.6333333333333333 24:0.6333333333333333 25:0.6333333333333333 26:0.6333333333333333 27:0.6333333333333333 28:0.6333333333333333 29:0.6333333333333333 30:0.6333333333333333 
-1.0 1:0.6333333333333333 2:0.6333333333333333 3:0.3666666666666667 4:0.6333333333333333 5:0.6333333333333333 6:0.6333333333333333 7:0.6333333333333333 8:0.3666666666666667 9:0.6333333333333333 10:0.6333333333333333 11:0.6333333333333333 12:0.6333333333333333 13:0.3666666666666667 14:0.6333333333333333 15:0.6333333333333333 16:0.6333333333333333 17:0.6333333333333333 18:0.3666666666666667 19:0.6333333333333333 20:0.6333333333333333 21:0.6333333333333333 22:0.6333333333333333 23:0.6333333333333333 24:0.6333333333333333 25:0.6333333333333333 26:0.6333333333333333 27:0.6333333333333333 28:0.6333333333333333 29:0.6333333333333333 30:0.6333333333333333 
-1.0 1:0.6333333333333333 2:0.6333333333333333 3:0.3666666666666667 4:0.6333333333333333 5:0.6333333333333333 6:0.6333333333333333 7:0.6333333333333333 8:0.3666666666666667 9:0.6333333333333333 10:0.6333333333333333 11:0.6333333333333333 12:0.6333333333333333 13:0.3666666666666667 14:0.6333333333333333 15:0.6333333333333333 16:0.6333333333333333 17:0.6333333333333333 18:0.6333333333333333 19:0.6333333333333333 20:0.6333333333333333 21:0.6333333333333333 22:0.6333333333333333 23:0.6333333333333333 24:0.6333333333333333 25:0.6333333333333333 26:0.3666666666666667 27:0.6333333333333333 28:0.6333333333333333 29:0.6333333333333333 30:0.6333333333333333 
-1.0 1:0.6333333333333333 2:0.6333333333333333 3:0.3666666666666667 4:0.6333333333333333 5:0.6333333333333333 6:0.6333333333333333 7:0.6333333333333333 8:0.3666666666666667 9:0.6333333333333333 10:0.6333333333333333 11:0.6333333333333333 12:0.6333333333333333 13:0.6333333333333333 14:0.6333333333333333 15:0.6333333333333333 16:0.6333333333333333 17:0.6333333333333333 18:0.6333333333333333 19:0.6333333333333333 20:0.6333333333333333 21:0.3666666666666667 22:0.6333333333333333 23:0.6333333333333333 24:0.6333333333333333 25:0.6333333333333333 26:0.3666666666666667 27:0.6333333333333333 28:0.6333333333333333 29:0.6333333333333333 30:0.6333333333333333 
-1.0 1:0.6333333333333333 2:0.6333333333333333 3:0.3666666666666667 4:0.6333333333333333 5:0.6333333333333333 6:0.6333333333333333 7:0.6333333333333333 8:0.6333333333333333 9:0.6333333333333333 10:0.6333333333333333 11:0.6333333333333333 12:0.6333333333333333 13:0.6333333333333333 14:0.6333333333333333 15:0.6333333333333333 16:0.3666666666666667 17:0.6333333333333333 18:0.6333333333333333 19:0.6333333333333333 20:0.6333333333333333 21:0.3666666666666667 22:0.6333333333333333 23:0.6333333333333333 24:0.6333333333333333 25:0.6333333333333333 26:0.3666666666666667 27:0.6333333333333333 28:0.6333333333333333 29:0.6333333333333333 30:0.6333333333333333 
-1.0 1:0.6333333333333333 2:0.6333333333333333 3:0.6333333333333333 4:0.6333333333333333 5:0.6333333333333333 6:0.6333333333333333 7:0.6333333333333333 8:0.6333333333333333 9:0.6333333333333333 10:0.6333333333333333 11:0.3666666666666667 12:0.6333333333333333 13:0.6333333333333333 14:0.6333333333333333 15:0.6333333333333333 16:0.3666666666666667 17:0.6333333333333333 18:0.6333333333333333 19:0.6333333333333333 20:0.6333333333333333 21:0.3666666666666667 22:0.6333333333333333 23:0.6333333333333333 24:0.6333333333333333 25:0.6333333333333333 26:0.1 27:0.6333333333333333 28:0.6333333333333333 29:0.6333333333333333 30:0.6333333333333333 
-1.0 1:0.6333333333333333 2:0.6333333333333333 3:0.6333333333333333 4:0.6333333333333333 5:0.6333333333333333 6:0.3666666666666667 7:0.6333333333333333 8:0.6333333333333333 9:0.6333333333333333 10:0.6333333333333333 11:0.3666666666666667 12:0.6333333333333333 13:0.6333333333333333 14:0.6333333333333333 15:0.6333333333333333 16:0.3666666666666667 17:0.6333333333333333 18:0.6333333333333333 19:0.6333333333333333 20:0.6333333333333333 21:0.1 22:0.6333333333333333 23:0.6333333333333333 24:0.6333333333333333 25:0.6333333333333333 26:0.1 27:0.6333333333333333 28:0.6333333333333333 29:0.6333333333333333 30:0.6333333333333333 
-1.0 1:0.3666666666666667 2:0.6333333333333333 3:0.6333333333333333 4:0.6333333333333333 5:0.6333333333333333 6:0.1 7:0.6333333333333333 8:0.6333333333333333 9:0.6333333333333333 10:0.6333333333333333 11:0.1 12:0.6333333333333333 13:0.6333333333333333 14:0.6333333333333333 15:0.6333333333333333 16:0.1 17:0.6333333333333333 18:0.6333333333333333 19:0.6333333333333333 20:0.6333333333333333 21:0.3666666666666667 22:0.6333333333333333 23:0.6333333333333333 24:0.6333333333333333 25:0.6333333333333333 26:0.3666666666666667 27:0.6333333333333333 28:0.6333333333333333 29:0.6333333333333333 30:0.6333333333333333 
1.0 1:0.3666666666666667 2:0.6333333333333333 3:0.6333333333333333 4:0.6333333333333333 5:0.6333333333333333 6:0.1 7:0.6333333333333333 8:0.6333333333333333 9:0.6333333333333333 10:0.6333333333333333 11:0.3666666666666667 12:0.6333333333333333 13:0.6333333333333333 14:0.6333333333333333 15:0.6333333333333333 16:0.3666666666666667 17:0.6333333333333333 18:0.6333333333333333 19:0.6333333333333333 20:0.6333333333333333 21:0.3666666666666667 22:0.6333333333333333 23:0.6333333333333333 24:0.6333333333333333 25:0.6333333333333333 26:0.3666666666666667 27:0.6333333333333333 28:0.6333333333333333 29:0.6333333333333333 30:0.6333333333333333 
-1.0 1:0.6333333333333333 2:0.6333333333333333 3:0.1 4:0.6333333333333333 5:0.6333333333333333 6:0.6333333333333333 7:0.6333333333333333 8:0.3666666666666667 9:0.6333333333333333 10:0.6333333333333333 11:0.6333333333333333 12:0.6333333333333333 13:0.3666666666666667 14:0.6333333333333333 15:0.6333333333333333 16:0.6333333333333333 17:0.6333333333333333 18:0.3666666666666667 19:0.6333333333333333 20:0.6333333333333333 21:0.6333333333333333 22:0.6333333333333333 23:0.3666666666666667 24:0.6333333333333333 25:0.6333333333333333 26:0.6333333333333333 27:0.6333333333333333 28:0.6333333333333333 29:0.6333333333333333 30:0.6333333333333333 
1.0 1:0.1 2:0.6333333333333333 3:0.6333333333333333 4:0.6333333333333333 5:0.6333333333333333 6:0.3666666666666667 7:0.6333333333333333 8:0.6333333333333333 9:0.6333333333333333 10:0.6333333333333333 11:0.3666666666666667 12:0.6333333333333333 13:0.6333333333333333 14:0.6333333333333333 15:0.6333333333333333 16:0.3666666666666667 17:0.6333333333333333 18:0.6333333333333333 19:0.6333333333333333 20:0.6333333333333333 21:0.3666666666666667 22:0.6333333333333333 23:0.6333333333333333 24:0.6333333333333333 25:0.6333333333333333 26:0.6333333333333333 27:0.6333333333333333 28:0.6333333333333333 29:0.3666666666666667 30:0.6333333333333333 
-1.0 1:0.6333333333333333 2:0.6333333333333333 3:0.3666666666666667 4:0.6333333333333333 5:0.6333333333333333 6:0.6333333333333333 7:0.6333333333333333 8:0.3666666666666667 9:0.6333333333333333 10:0.6333333333333333 11:0.6333333333333333 12:0.6333333333333333 13:0.3666666666666667 14:0.6333333333333333 15:0.6333333333333333 16:0.6333333333333333 17:0.6333333333333333 18:0.6333333333333333 19:0.6333333333333333 20:0.6333333333333333 21:0.3666666666666667 22:0.6333333333333333 23:0.6333333333333333 24:0.6333333333333333 25:0.6333333333333333 26:0.6333333333333333 27:0.6333333333333333 28:0.6333333333333333 29:0.6333333333333333 30:0.6333333333333333 
1.0 1:0.6333333333333333 2:0.6333333333333333 3:0.3666666666666667 4:0.6333333333333333 5:0.6333333333333333 6:0.6333333333333333 7:0.6333333333333333 8:0.3666666666666667 9:0.6333333333333333 10:0.6333333333333333 11:0.6333333333333333 12:0.6333333333333333 13:0.6333333333333333 14:0.6333333333333333 15:0.6333333333333333 16:0.3666666666666667 17:0.6333333333333333 18:0.6333333333333333 19:0.6333333333333333 20:0.6333333333333333 21:0.6333333333333333 22:0.6333333333333333 23:0.6333333333333333 24:0.6333333333333333 25:0.6333333333333333 26:0.3666666666666667 27:0.6333333333333333 28:0.6333333333333333 29:0.6333333333333333 30:0.6333333333333333 
-1.0 1:0.6333333333333333 2:0.6333333333333333 3:0.3666666666666667 4:0.6333333333333333 5:0.6333333333333333 6:0.6333333333333333 7:0.6333333333333333 8:0.6333333333333333 9:0.6333333333333333 10:0.6333333333333333 11:0.3666666666666667 12:0.6333333333333333 13:0.6333333333333333 14:0.6333333333333333 15:0.6333333333333333 16:0.6333333333333333 17:0.6333333333333333 18:0.6333333333333333 19:0.6333333333333333 20:0.6333333333333333 21:0.3666666666666667 22:0.6333333333333333 23:0.6333333333333333 24:0.6333333333333333 25:0.6333333333333333 26:0.6333333333333333 27:0.6333333333333333 28:0.6333333333333333 29:0.6333333333333333 30:0.6333333333333333 
-1.0 1:0.6333333333333333 2:0.6333333333333333 3:0.6333333333333333 4:0.6333333333333333 5:0.6333333333333333 6:0.3666666666666667 7:0.6333333333333333 8:0.6333333333333333 9:0.6333333333333333 10:0.6333333333333333 11:0.6333333333333333 12:0.6333333333333333 13:0.6333333333333333 14:0.6333333333333333 15:0.6333333333333333 16:0.3666666666666667 17:0.6333333333333333 18:0.6333333333333333 19:0.6333333333333333 20:0.6333333333333333 21:0.6333333333333333 22:0.6333333333333333 23:0.6333333333333333 24:0.6333333333333333 25:0.6333333333333333 26:0.1 27:0.6333333333333333 28:0.6333333333333333 29:0.6333333333333333 30:0.6333333333333333 
-1.0 1:0.3666666666666667 2:0.6333333333333333 3:0.6333333333333333 4:0.6333333333333333 5:0.6333333333333333 6:0.6333333333333333 7:0.6333333333333333 8:0.6333333333333333 9:0.6333333333333333 10:0.6333333333333333 11:0.3666666666666667 12:0.6333333333333333 13:0.6333333333333333 14:0.6333333333333333 15:0.6333333333333333 16:0.6333333333333333 17:0.6333333333333333 18:0.6333333333333333 19:0.6333333333333333 20:0.6333333333333333 21:0.1 22:0.6333333333333333 23:0.6333333333333333 24:0.6333333333333333 25:0.6333333333333333 26:0.1 27:0.6333333333333333 28:0.6333333333333333 29:0.6333333333333333 30:0.6333333333333333 
-1.0 1:0.3666666666666667 2:0.6333333333333333 3:0.6333333333333333 4:0.6333333333333333 5:0.6333333333333333 6:0.6333333333333333 7:0.6333333333333333 8:0.6333333333333333 9:0.6333333333333333 10:0.6333333333333333 11:0.1 12:0.6333333333333333 13:0.6333333333333333 14:0.6333333333333333 15:0.6333333333333333 16:0.1 17:0.6333333333333333 18:0.6333333333333333 19:0.6333333333333333 20:0.6333333333333333 21:0.1 22:0.6333333333333333 23:0.6333333333333333 24:0.6333333333333333 25:0.6333333333333333 26:0.3666666666666667 27:0.6333333333333333 28:0.6333333333333333 29:0.6333333333333333 30:0.6333333333333333 
0.9010667493601664 1:0.6333333333333333 2:0.6333333333333333 3:0.1 4:0.6333333333333333 5:0.6333333333333333 6:0.6333333333333333 7:0.6333333333333333 8:0.1 9:0.6333333333333333 10:0.6333333333333333 11:0.6333333333333333 12:0.6333333333333333 13:0.1 14:0.6333333333333333 15:0.6333333333333333 16:0.6333333333333333 17:0.6333333333333333 18:0.3666666666666667 19:0.6333333333333333 20:0.6333333333333333 21:0.6333333333333333 22:0.6333333333333333 23:0.1 24:0.6333333333333333 25:0.6333333333333333 26:0.6333333333333333 27:0.6333333333333333 28:0.3666666666666667 29:0.6333333333333333 30:0.6333333333333333 
-1.0 1:0.1 2:0.6333333333333333 3:0.6333333333333333 4:0.6333333333333333 5:0.6333333333333333 6:0.1 7:0.6333333333333333 8:0.6333333333333333 9:0.6333333333333333 10:0.6333333333333333 11:0.3666666666666667 12:0.6333333333333333 13:0.6333333333333333 14:0.6333333333333333 15:0.6333333333333333 16:0.1 17:0.6333333333333333 18:0.6333333333333333 19:0.6333333333333333 20:0.6333333333333333 21:0.3666666666666667 22:0.6333333333333333 23:0.6333333333333333 24:0.6333333333333333 25:0.6333333333333333 26:0.3666666666666667 27:0.6333333333333333 28:0.6333333333333333 29:0.6333333333333333 30:0.6333333333333333 
1.0 1:0.1 2:0.6333333333333333 3:0.6333333333333333 4:0.6333333333333333 5:0.6333333333333333 6:0.3666666666666667 7:0.6333333333333333 8:0.6333333333333333 9:0.6333333333333333 10:0.6333333333333333 11:0.3666666666666667 12:0.6333333333333333 13:0.6333333333333333 14:0.6333333333333333 15:0.6333333333333333 16:0.1 17:0.6333333333333333 18:0.6333333333333333 19:0.6333333333333333 20:0.6333333333333333 21:0.3666666666666667 22:0.6333333333333333 23:0.6333333333333333 24:0.6333333333333333 25:0.6333333333333333 26:0.3666666666666667 27:0.6333333333333333 28:0.6333333333333333 29:0.6333333333333333 30:0.6333333333333333 
-1.0 1:0.6333333333333333 2:0.6333333333333333 3:0.3666666666666667 4:0.6333333333333333 5:0.6333333333333333 6:0.6333333333333333 7:0.6333333333333333 8:0.3666666666666667 9:0.6333333333333333 10:0.6333333333333333 11:0.6333333333333333 12:0.6333333333333333 13:0.1 14:0.6333333333333333 15:0.6333333333333333 16:0.6333333333333333 17:0.6333333333333333 18:0.3666666666666667 19:0.6333333333333333 20:0.6333333333333333 21:0.6333333333333333 22:0.6333333333333333 23:0.3666666666666667 24:0.6333333333333333 25:0.6333333333333333 26:0.6333333333333333 27:0.6333333333333333 28:0.6333333333333333 29:0.6333333333333333 30:0.6333333333333333 
1.0 1:0.3666666666666667 2:0.6333333333333333 3:0.6333333333333333 4:0.6333333333333333 5:0.6333333333333333 6:0.3666666666666667 7:0.6333333333333333 8:0.6333333333333333 9:0.6333333333333333 10:0.6333333333333333 11:0.1 12:0.6333333333333333 13:0.6333333333333333 14:0.6333333333333333 15:0.6333333333333333 16:0.3666666666666667 17:0.6333333333333333 18:0.6333333333333333 19:0.6333333333333333 20:0.6333333333333333 21:0.3666666666666667 22:0.6333333333333333 23:0.6333333333333333 24:0.6333333333333333 25:0.6333333333333333 26:0.6333333333333333 27:0.6333333333333333 28:0.6333333333333333 29:0.3666666666666667 30:0.6333333333333333 
0.8795832875926201 1:0.6333333333333333 2:0.6333333333333333 3:0.3666666666666667 4:0.6333333333333333 5:0.6333333333333333 6:0.6333333333333333 7:0.6333333333333333 8:0.1 9:0.6333333333333333 10:0.6333333333333333 11:0.6333333333333333 12:0.6333333333333333 13:0.3666666666666667 14:0.6333333333333333 15:0.6333333333333333 16:0.6333333333333333 17:0.6333333333333333 18:0.3666666666666667 19:0.6333333333333333 20:0.6333333333333333 21:0.6333333333333333 22:0.6333333333333333 23:0.6333333333333333 24:0.6333333333333333 25:0.6333333333333333 26:0.3666666666666667 27:0.6333333333333333 28:0.6333333333333333 29:0.6333333333333333 30:0.6333333333333333 
-1.0 1:0.6333333333333333 2:0.6333333333333333 3:0.6333333333333333 4:0.6333333333333333 5:0.1 6:0.6333333333333333 7:0.6333333333333333 8:0.6333333333333333 9:0.6333333333333333 10:0.3666666666666667 11:0.6333333333333333 12:0.6333333333333333 13:0.6333333333333333 14:0.6333333333333333 15:0.3666666666666667 16:0.6333333333333333 17:0.6333333333333333 18:0.6333333333333333 19:0.6333333333333333 20:0.6333333333333333 21:0.6333333333333333 22:0.6333333333333333 23:0.3666666666666667 24:0.6333333333333333 25:0.6333333333333333 26:0.6333333333333333 27:0.6333333333333333 28:0.6333333333333333 29:0.6333333333333333 30:0.6333333333333333 
-1.0 1:0.6333333333333333 2:0.6333333333333333 3:0.6333333333333333 4:0.6333333333333333 5:0.3666666666666667 6:0.6333333333333333 7:0.6333333333333333 8:0.6333333333333333 9:0.6333333333333333 10:0.3666666666666667 11:0.6333333333333333 12:0.6333333333333333 13:0.6333333333333333 14:0.6333333333333333 15:0.6333333333333333 16:0.6333333333333333 17:0.6333333333333333 18:0.3666666666666667 19:0.6333333333333333 20:0.6333333333333333 21:0.6333333333333333 22:0.6333333333333333 23:0.6333333333333333 24:0.6333333333333333 25:0.6333333333333333 26:0.3666666666666667 27:0.6333333333333333 28:0.6333333333333333 29:0.6333333333333333 30:0.6333333333333333 
-1.0 1:0.6333333333333333 2:0.6333333333333333 3:0.6333333333333333 4:0.6333333333333333 5:0.3666666666666667 6:0.6333333333333333 7:0.6333333333333333 8:0.6333333333333333 9:0.6333333333333333 10:0.6333333333333333 11:0.6333333333333333 12:0.6333333333333333 13:0.3666666666666667 14:0.6333333333333333 15:0.6333333333333333 16:0.6333333333333333 17:0.6333333333333333 18:0.6333333333333333 19:0.6333333333333333 20:0.6333333333333333 21:0.3666666666666667 22:0.6333333333333333 23:0.6333333333333333 24:0.6333333333333333 25:0.6333333333333333 26:0.3666666666666667 27:0.6333333333333333 28:0.6333333333333333 29:0.6333333333333333 30:0.6333333333333333 
-1.0 1:0.6333333333333333 2:0.6333333333333333 3:0.6333333333333333 4:0.6333333333333333 5:0.6333333333333333 6:0.6333333333333333 7:0.6333333333333333 8:0.3666666666666667 9:0.6333333333333333 10:0.6333333333333333 11:0.6333333333333333 12:0.6333333333333333 13:0.6333333333333333 14:0.6333333333333333 15:0.6333333333333333 16:0.3666666666666667 17:0.6333333333333333 18:0.6333333333333333 19:0.6333333333333333 20:0.6333333333333333 21:0.3666666666666667 22:0.6333333333333333 23:0.6333333333333333 24:0.6333333333333333 25:0.6333333333333333 26:0.3666666666666667 27:0.6333333333333333 28:0.6333333333333333 29:0.6333333333333333 30:0.6333333333333333 
-0.440389128103663 1:0.6333333333333333 2:0.6333333333333333 3:0.3666666666666667 4:0.6333333333333333 5:0.6333333333333333 6:0.6333333333333333 7:0.6333333333333333 8:0.6333333333333333 9:0.6333333333333333 10:0.6333333333333333 11:0.3666666666666667 12:0.6333333333333333 13:0.6333333333333333 14:0.6333333333333333 15:0.6333333333333333 16:0.3666666666666667 17:0.6333333333333333 18:0.6333333333333333 19:0.6333333333333333 20:0.6333333333333333 21:0.3666666666666667 22:0.6333333333333333 23:0.6333333333333333 24:0.6333333333333333 25:0.6333333333333333 26:0.3666666666666667 27:0.6333333333333333 28:0.6333333333333333 29:0.6333333333333333 30:0.6333333333333333 
-1.0 1:0.6333333333333333 2:0.6333333333333333 3:0.6333333333333333 4:0.6333333333333333 5:0.6333333333333333 6:0.3666666666666667 7:0.6333333333333333 8:0.6333333333333333 9:0.6333333333333333 10:0.6333333333333333 11:0.3666666666666667 12:0.6333333333333333 13:0.6333333333333333 14:0.6333333333333333 15:0.6333333333333333 16:0.3666666666666667 17:0.6333333333333333 18:0.6333333333333333 19:0.6333333333333333 20:0.6333333333333333 21:0.3666666666666667 22:0.6333333333333333 23:0.6333333333333333 24:0.6333333333333333 25:0.6333333333333333 26:0.3666666666666667 27:0.6333333333333333 28:0.6333333333333333 29:0.6333333333333333 30:0.6333333333333333 
-1.0 1:0.3666666666666667 2:0.6333333333333333 3:0.6333333333333333 4:0.6333333333333333 5:0.6333333333333333 6:0.3666666666666667 7:0.6333333333333333 8:0.6333333333333333 9:0.6333333333333333 10:0.6333333333333333 11:0.3666666666666667 12:0.6333333333333333 13:0.6333333333333333 14:0.6333333333333333 15:0.6333333333333333 16:0.3666666666666667 17:0.6333333333333333 18:0.6333333333333333 19:0.6333333333333333 20:0.6333333333333333 21:0.3666666666666667 22:0.6333333333333333 23:0.6333333333333333 24:0.6333333333333333 25:0.6333333333333333 26:0.1 27:0.6333333333333333 28:0.6333333333333333 29:0.6333333333333333 30:0.6333333333333333 
1.0 1:0.3666666666666667 2:0.6333333333333333 3:0.6333333333333333 4:0.6333333333333333 5:0.6333333333333333 6:0.3666666666666667 7:0.6333333333333333 8:0.6333333333333333 9:0.6333333333333333 10:0.6333333333333333 11:0.3666666666666667 12:0.6333333333333333 13:0.6333333333333333 14:0.6333333333333333 15:0.6333333333333333 16:0.1 17:0.6333333333333333 18:0.6333333333333333 19:0.6333333333333333 20:0.6333333333333333 21:0.1 22:0.6333333333333333 23:0.6333333333333333 24:0.6333333333333333 25:0.6333333333333333 26:0.3666666666666667 27:0.6333333333333333 28:0.6333333333333333 29:0.6333333333333333 30:0.6333333333333333 
1.0 1:0.3666666666666667 2:0.6333333333333333 3:0.6333333333333333 4:0.6333333333333333 5:0.6333333333333333 6:0.3666666666666667 7:0.6333333333333333 8:0.6333333333333333 9:0.6333333333333333 10:0.6333333333333333 11:0.1 12:0.6333333333333333 13:0.6333333333333333 14:0.6333333333333333 15:0.6333333333333333 16:0.1 17:0.6333333333333333 18:0.6333333333333333 19:0.6333333333333333 20:0.6333333333333333 21:0.3666666666666667 22:0.6333333333333333 23:0.6333333333333333 24:0.6333333333333333 25:0.6333333333333333 26:0.6333333333333333 27:0.6333333333333333 28:0.6333333333333333 29:0.6333333333333333 30:0.6333333333333333 
-1.0 1:0.6333333333333333 2:0.6333333333333333 3:0.3666666666666667 4:0.6333333333333333 5:0.6333333333333333 6:0.6333333333333333 7:0.6333333333333333 8:0.1 9:0.6333333333333333 10:0.6333333333333333 11:0.6333333333333333 12:0.6333333333333333 13:0.1 14:0.6333333333333333 15:0.6333333333333333 16:0.6333333333333333 17:0.6333333333333333 18:0.3666666666666667 19:0.6333333333333333 20:0.6333333333333333 21:0.6333333333333333 22:0.6333333333333333 23:0.6333333333333333 24:0.6333333333333333 25:0.6333333333333333 26:0.6333333333333333 27:0.6333333333333333 28:0.6333333333333333 29:0.6333333333333333 30:0.6333333333333333 
-1.0 1:0.6333333333333333 2:0.6333333333333333 3:0.6333333333333333 4:0.1 5:0.6333333333333333 6:0.6333333333333333 7:0.6333333333333333 8:0.6333333333333333 9:0.1 10:0.6333333333333333 11:0.6333333333333333 12:0.6333333333333333 13:0.6333333333333333 14:0.3666666666666667 15:0.6333333333333333 16:0.6333333333333333 17:0.6333333333333333 18:0.6333333333333333 19:0.6333333333333333 20:0.6333333333333333 21:0.6333333333333333 22:0.6333333333333333 23:0.6333333333333333 24:0.6333333333333333 25:0.6333333333333333 26:0.6333333333333333 27:0.1 28:0.6333333333333333 29:0.6333333333333333 30:0.6333333333333333 
1.0 1:0.6333333333333333 2:0.6333333333333333 3:0.1 4:0.6333333333333333 5:0.6333333333333333 6:0.6333333333333333 7:0.6333333333333333 8:0.1 9:0.6333333333333333 10:0.6333333333333333 11:0.6333333333333333 12:0.6333333333333333 13:0.3666666666666667 14:0.6333333333333333 15:0.6333333333333333 16:0.6333333333333333 17:0.6333333333333333 18:0.6333333333333333 19:0.6333333333333333 20:0.6333333333333333 21:0.6333333333333333 22:0.6333333333333333 23:0.6333333333333333 24:0.6333333333333333 25:0.6333333333333333 26:0.1 27:0.6333333333333333 28:0.6333333333333333 29:0.6333333333333333 30:0.1 
0.9237660641987231 1:0.6333333333333333 2:0.6333333333333333 3:0.6333333333333333 4:0.1 5:0.6333333333333333 6:0.6333333333333333 7:0.6333333333333333 8:0.6333333333333333 9:0.3666666666666667 10:0.6333333333333333 11:0.6333333333333333 12:0.6333333333333333 13:0.6333333333333333 14:0.6333333333333333 15:0.6333333333333333 16:0.6333333333333333 17:0.6333333333333333 18:0.6333333333333333 19:0.6333333333333333 20:0.6333333333333333 21:0.6333333333333333 22:0.1 23:0.6333333333333333 24:0.6333333333333333 25:0.6333333333333333 26:0.1 27:0.6333333333333333 28:0.6333333333333333 29:0.6333333333333333 30:0.6333333333333333 
1.0 1:0.6333333333333333 2:0.6333333333333333 3:0.1 4:0.6333333333333333 5:0.6333333333333333 6:0.6333333333333333 7:0.6333333333333333 8:0.3666666666666667 9:0.6333333333333333 10:0.6333333333333333 11:0.6333333333333333 12:0.6333333333333333 13:0.6333333333333333 14:0.6333333333333333 15:0.6333333333333333 16:0.6333333333333333 17:0.6333333333333333 18:0.6333333333333333 19:0.6333333333333333 20:0.6333333333333333 21:0.1 22:0.6333333333333333 23:0.6333333333333333 24:0.6333333333333333 25:0.1 26:0.6333333333333333 27:0.6333333333333333 28:0.6333333333333333 29:0.6333333333333333 30:0.6333333333333333 
-1.0 1:0.3666666666666667 2:0.6333333333333333 3:0.6333333333333333 4:0.6333333333333333 5:0.6333333333333333 6:0.6333333333333333 7:0.6333333333333333 8:0.6333333333333333 9:0.6333333333333333 10:0.6333333333333333 11:0.6333333333333333 12:0.6333333333333333 13:0.6333333333333333 14:0.1 15:0.6333333333333333 16:0.6333333333333333 17:0.6333333333333333 18:0.1 19:0.6333333333333333 20:0.6333333333333333 21:0.6333333333333333 22:0.6333333333333333 23:0.6333333333333333 24:0.6333333333333333 25:0.6333333333333333 26:0.6333333333333333 27:0.6333333333333333 28:0.6333333333333333 29:0.6333333333333333 30:0.6333333333333333 
1.0 1:0.6333333333333333 2:0.6333333333333333 3:0.6333333333333333 4:0.6333333333333333 5:0.6333333333333333 6:0.6333333333333333 7:0.6333333333333333 8:0.6333333333333333 9:0.1 10:0.6333333333333333 11:0.6333333333333333 12:0.6333333333333333 13:0.1 14:0.6333333333333333 15:0.6333333333333333 16:0.6333333333333333 17:0.6333333333333333 18:0.6333333333333333 19:0.6333333333333333 20:0.6333333333333333 21:0.6333333333333333 22:0.6333333333333333 23:0.6333333333333333 24:0.6333333333333333 25:0.6333333333333333 26:0.1 27:0.6333333333333333 28:0.6333333333333333 29:0.6333333333333333 30:0.6333333333333333 
-1.0 1:0.6333333333333333 2:0.6333333333333333 3:0.6333333333333333 4:0.6333333333333333 5:0.6333333333333333 6:0.1 7:0.6333333333333333 8:0.6333333333333333 9:0.6333333333333333 10:0.1 11:0.6333333333333333 12:0.6333333333333333 13:0.6333333333333333 14:0.6333333333333333 15:0.6333333333333333 16:0.6333333333333333 17:0.6333333333333333 18:0.6333333333333333 19:0.6333333333333333 20:0.6333333333333333 21:0.6333333333333333 22:0.6333333333333333 23:0.1 24:0.6333333333333333 25:0.6333333333333333 26:0.6333333333333333 27:0.6333333333333333 28:0.6333333333333333 29:0.6333333333333333 30:0.6333333333333333 
1.0 1:0.1 2:0.6333333333333333 3:0.6333333333333333 4:0.6333333333333333 5:0.1 6:0.6333333333333333 7:0.6333333333333333 8:0.6333333333333333 9:0.6333333333333333 10:0.6333333333333333 11:0.6333333333333333 12:0.6333333333333333 13:0.6333333333333333 14:0.6333333333333333 15:0.6333333333333333 16:0.6333333333333333 17:0.6333333333333333 18:0.1 19:0.6333333333333333 20:0.6333333333333333 21:0.6333333333333333 22:0.6333333333333333 23:0.6333333333333333 24:0.6333333333333333 25:0.6333333333333333 26:0.3666666666666667 27:0.6333333333333333 28:0.6333333333333333 29:0.6333333333333333 30:0.6333333333333333 
-1.0 1:0.6333333333333333 2:0.6333333333333333 3:0.6333333333333333 4:0.6333333333333333 5:0.6333333333333333 6:0.6333333333333333 7:0.6333333333333333 8:0.6333333333333333 9:0.6333333333333333 10:0.6333333333333333 11:0.6333333333333333 12:0.6333333333333333 13:0.6333333333333333 14:0.6333333333333333 15:0.6333333333333333 16:0.6333333333333333 17:0.6333333333333333 18:0.6333333333333333 19:0.6333333333333333 20:0.6333333333333333 21:0.6333333333333333 22:0.6333333333333333 23:0.6333333333333333 24:0.6333333333333333 25:0.6333333333333333 26:0.6333333333333333 27:0.6333333333333333 28:0.6333333333333333 29:0.6333333333333333 30:0.6333333333333333 
1.0 1:0.6333333333333333 2:0.6333333333333333 3:0.6333333333333333 4:0.6333333333333333 5:0.6333333333333333 6:0.6333333333333333 7:0.6333333333333333 8:0.6333333333333333 9:0.6333333333333333 10:0.6333333333333333 11:0.6333333333333333 12:0.6333333333333333 13:0.6333333333333333 14:0.6333333333333333 15:0.6333333333333333 16:0.6333333333333333 17:0.6333333333333333 18:0.6333333333333333 19:0.6333333333333333 20:0.6333333333333333 21:0.6333333333333333 22:0.6333333333333333 23:0.6333333333333333 24:0.6333333333333333 25:0.6333333333333333 26:0.6333333333333333 27:0.6333333333333333 28:0.6333333333333333 29:0.6333333333333333 30:0.6333333333333333 
1.0 1:0.6333333333333333 2:0.6333333333333333 3:0.6333333333333333 4:0.6333333333333333 5:0.6333333333333333 6:0.6333333333333333 7:0.6333333333333333 8:0.6333333333333333 9:0.6333333333333333 10:0.6333333333333333 11:0.6333333333333333 12:0.6333333333333333 13:0.6333333333333333 14:0.6333333333333333 15:0.6333333333333333 16:0.9 17:0.6333333333333333 18:0.6333333333333333 19:0.6333333333333333 20:0.6333333333333333 21:0.6333333333333333 22:0.6333333333333333 23:0.6333333333333333 24:0.6333333333333333 25:0.6333333333333333 26:0.6333333333333333 27:0.6333333333333333 28:0.6333333333333333 29:0.6333333333333333 30:0.6333333333333333 
1.0 1:0.6333333333333333 2:0.6333333333333333 3:0.6333333333333333 4:0.6333333333333333 5:0.6333333333333333 6:0.6333333333333333 7:0.6333333333333333 8:0.6333333333333333 9:0.6333333333333333 10:0.6333333333333333 11:0.9 12:0.6333333333333333 13:0.6333333333333333 14:0.6333333333333333 15:0.6333333333333333 16:0.6333333333333333 17:0.6333333333333333 18:0.6333333333333333 19:0.6333333333333333 20:0.6333333333333333 21:0.6333333333333333 22:0.6333333333333333 23:0.6333333333333333 24:0.6333333333333333 25:0.6333333333333333 26:0.9 27:0.6333333333333333 28:0.6333333333333333 29:0.6333333333333333 30:0.6333333333333333 
-1.0 1:0.6333333333333333 2:0.6333333333333333 3:0.6333333333333333 4:0.6333333333333333 5:0.6333333333333333 6:0.9 7:0.6333333333333333 8:0.6333333333333333 9:0.6333333333333333 10:0.6333333333333333 11:0.6333333333333333 12:0.6333333333333333 13:0.6333333333333333 14:0.6333333333333333 15:0.6333333333333333 16:0.6333333333333333 17:0.6333333333333333 18:0.6333333333333333 19:0.6333333333333333 20:0.6333333333333333 21:0.9 22:0.6333333333333333 23:0.6333333333333333 24:0.6333333333333333 25:0.6333333333333333 26:0.9 27:0.6333333333333333 28:0.6333333333333333 29:0.6333333333333333 30:0.6333333333333333 
1.0 1:0.9 2:0.6333333333333333 3:0.6333333333333333 4:0.6333333333333333 5:0.6333333333333333 6:0.6333333333333333 7:0.6333333333333333 8:0.6333333333333333 9:0.6333333333333333 10:0.6333333333333333 11:0.6333333333333333 12:0.6333333333333333 13:0.6333333333333333 14:0.6333333333333333 15:0.6333333333333333 16:0.9 17:0.6333333333333333 18:0.6333333333333333 19:0.6333333333333333 20:0.6333333333333333 21:0.9 22:0.6333333333333333 23:0.6333333333333333 24:0.6333333333333333 25:0.6333333333333333 26:0.6333333333333333 27:0.6333333333333333 28:0.6333333333333333 29:0.6333333333333333 30:0.6333333333333333 
-1.0 1:0.6333333333333333 2:0.6333333333333333 3:0.6333333333333333 4:0.6333333333333333 5:0.6333333333333333 6:0.6333333333333333 7:0.6333333333333333 8:0.6333333333333333 9:0.6333333333333333 10:0.6333333333333333 11:0.9 12:0.6333333333333333 13:0.6333333333333333 14:0.6333333333333333 15:0.6333333333333333 16:0.9 17:0.6333333333333333 18:0.6333333333333333 19:0.6333333333333333 20:0.6333333333333333 21:0.6333333333333333 22:0.6333333333333333 23:0.6333333333333333 24:0.6333333333333333 25:0.6333333333333333 26:0.9 27:0.6333333333333333 28:0.6333333333333333 29:0.6333333333333333 30:0.6333333333333333 
1.0 1:0.6333333333333333 2:0.6333333333333333 3:0.6333333333333333 4:0.6333333333333333 5:0.6333333333333333 6:0.6333333333333333 7:0.9 8:0.6333333333333333 9:0.6333333333333333 10:0.6333333333333333 11:0.6333333333333333 12:0.3666666666666667 13:0.6333333333333333 14:0.6333333333333333 15:0.6333333333333333 16:0.6333333333333333 17:0.6333333333333333 18:0.6333333333333333 19:0.6333333333333333 20:0.6333333333333333 21:0.6333333333333333 22:0.6333333333333333 23:0.6333333333333333 24:0.6333333333333333 25:0.6333333333333333 26:0.6333333333333333 27:0.6333333333333333 28:0.6333333333333333 29:0.6333333333333333 30:0.6333333333333333 
1.0 1:0.3666666666666667 2:0.6333333333333333 3:0.6333333333333333 4:0.6333333333333333 5:0.6333333333333333 6:0.6333333333333333 7:0.6333333333333333 8:0.6333333333333333 9:0.6333333333333333 10:0.6333333333333333 11:0.6333333333333333 12:0.6333333333333333 13:0.6333333333333333 14:0.6333333333333333 15:0.6333333333333333 16:0.6333333333333333 17:0.6333333333333333 18:0.6333333333333333 19:0.6333333333333333 20:0.9 21:0.6333333333333333 22:0.6333333333333333 23:0.6333333333333333 24:0.6333333333333333 25:0.6333333333333333 26:0.6333333333333333 27:0.6333333333333333 28:0.6333333333333333 29:0.6333333333333333 30:0.6333333333333333 
1.0 1:0.6333333333333333 2:0.6333333333333333 3:0.6333333333333333 4:0.6333333333333333 5:0.6333333333333333 6:0.6333333333333333 7:0.6333333333333333 8:0.9 9:0.6333333333333333 10:0.6333333333333333 11:0.6333333333333333 12:0.6333333333333333 13:0.6333333333333333 14:0.6333333333333333 15:0.6333333333333333 16:0.6333333333333333 17:0.6333333333333333 18:0.6333333333333333 19:0.6333333333333333 20:0.6333333333333333 21:0.6333333333333333 22:0.6333333333333333 23:0.6333333333333333 24:0.6333333333333333 25:0.6333333333333333 26:0.6333333333333333 27:0.6333333333333333 28:0.6333333333333333 29:0.6333333333333333 30:0.6333333333333333 
1.0 1:0.6333333333333333 2:0.6333333333333333 3:0.9 4:0.6333333333333333 5:0.6333333333333333 6:0.6333333333333333 7:0.6333333333333333 8:0.6333333333333333 9:0.6333333333333333 10:0.6333333333333333 11:0.6333333333333333 12:0.6333333333333333 13:0.6333333333333333 14:0.6333333333333333 15:0.6333333333333333 16:0.6333333333333333 17:0.6333333333333333 18:0.6333333333333333 19:0.6333333333333333 20:0.6333333333333333 21:0.6333333333333333 22:0.6333333333333333 23:0.6333333333333333 24:0.6333333333333333 25:0.6333333333333333 26:0.9 27:0.6333333333333333 28:0.6333333333333333 29:0.6333333333333333 30:0.6333333333333333 
1.0 1:0.6333333333333333 2:0.6333333333333333 3:0.6333333333333333 4:0.6333333333333333 5:0.6333333333333333 6:0.6333333333333333 7:0.6333333333333333 8:0.6333333333333333 9:0.6333333333333333 10:0.6333333333333333 11:0.6333333333333333 12:0.6333333333333333 13:0.6333333333333333 14:0.6333333333333333 15:0.6333333333333333 16:0.6333333333333333 17:0.6333333333333333 18:0.6333333333333333 19:0.6333333333333333 20:0.6333333333333333 21:0.9 22:0.6333333333333333 23:0.6333333333333333 24:0.6333333333333333 25:0.6333333333333333 26:0.9 27:0.6333333333333333 28:0.6333333333333333 29:0.6333333333333333 30:0.6333333333333333 
1.0 1:0.6333333333333333 2:0.6333333333333333 3:0.6333333333333333 4:0.6333333333333333 5:0.6333333333333333 6:0.6333333333333333 7:0.6333333333333333 8:0.6333333333333333 9:0.6333333333333333 10:0.6333333333333333 11:0.6333333333333333 12:0.6333333333333333 13:0.6333333333333333 14:0.6333333333333333 15:0.6333333333333333 16:0.9 17:0.6333333333333333 18:0.6333333333333333 19:0.6333333333333333 20:0.6333333333333333 21:0.9 22:0.6333333333333333 23:0.6333333333333333 24:0.6333333333333333 25:0.6333333333333333 26:0.9 27:0.6333333333333333 28:0.6333333333333333 29:0.6333333333333333 30:0.6333333333333333 
-1.0 1:0.6333333333333333 2:0.6333333333333333 3:0.6333333333333333 4:0.6333333333333333 5:0.6333333333333333 6:0.6333333333333333 7:0.6333333333333333 8:0.6333333333333333 9:0.6333333333333333 10:0.6333333333333333 11:0.9 12:0.6333333333333333 13:0.6333333333333333 14:0.6333333333333333 15:0.6333333333333333 16:0.9 17:0.6333333333333333 18:0.6333333333333333 19:0.6333333333333333 20:0.6333333333333333 21:0.9 22:0.6333333333333333 23:0.6333333333333333 24:0.6333333333333333 25:0.6333333333333333 26:0.9 27:0.6333333333333333 28:0.6333333333333333 29:0.6333333333333333 30:0.6333333333333333 
-1.0 1:0.6333333333333333 2:0.6333333333333333 3:0.6333333333333333 4:0.6333333333333333 5:0.6333333333333333 6:0.9 7:0.6333333333333333 8:0.6333333333333333 9:0.6333333333333333 10:0.6333333333333333 11:0.9 12:0.6333333333333333 13:0.6333333333333333 14:0.6333333333333333 15:0.6333333333333333 16:0.9 17:0.6333333333333333 18:0.6333333333333333 19:0.6333333333333333 20:0.6333333333333333 21:0.9 22:0.6333333333333333 23:0.6333333333333333 24:0.6333333333333333 25:0.6333333333333333 26:0.6333333333333333 27:0.6333333333333333 28:0.6333333333333333 29:0.6333333333333333 30:0.6333333333333333 
1.0 1:0.9 2:0.6333333333333333 3:0.6333333333333333 4:0.6333333333333333 5:0.6333333333333333 6:0.9 7:0.6333333333333333 8:0.6333333333333333 9:0.6333333333333333 10:0.6333333333333333 11:0.9 12:0.6333333333333333 13:0.6333333333333333 14:0.6333333333333333 15:0.6333333333333333 16:0.9 17:0.6333333333333333 18:0.6333333333333333 19:0.6333333333333333 20:0.6333333333333333 21:0.6333333333333333 22:0.6333333333333333 23:0.6333333333333333 24:0.6333333333333333 25:0.6333333333333333 26:0.6333333333333333 27:0.6333333333333333 28:0.6333333333333333 29:0.6333333333333333 30:0.6333333333333333 
-1.0 1:0.9 2:0.6333333333333333 3:0.6333333333333333 4:0.6333333333333333 5:0.6333333333333333 6:0.9 7:0.6333333333333333 8:0.6333333333333333 9:0.6333333333333333 10:0.6333333333333333 11:0.9 12:0.6333333333333333 13:0.6333333333333333 14:0.6333333333333333 15:0.6333333333333333 16:0.6333333333333333 17:0.6333333333333333 18:0.6333333333333333 19:0.6333333333333333 20:0.6333333333333333 21:0.6333333333333333 22:0.6333333333333333 23:0.6333333333333333 24:0.6333333333333333 25:0.6333333333333333 26:0.9 27:0.6333333333333333 28:0.6333333333333333 29:0.6333333333333333 30:0.6333333333333333 
1.0 1:0.9 2:0.6333333333333333 3:0.6333333333333333 4:0.6333333333333333 5:0.6333333333333333 6:0.6333333333333333 7:0.6333333333333333 8:0.6333333333333333 9:0.6333333333333333 10:0.6333333333333333 11:0.6333333333333333 12:0.6333333333333333 13:0.6333333333333333 14:0.6333333333333333 15:0.6333333333333333 16:0.6333333333333333 17:0.6333333333333333 18:0.6333333333333333 19:0.6333333333333333 20:0.6333333333333333 21:0.6333333333333333 22:0.6333333333333333 23:0.6333333333333333 24:0.6333333333333333 25:0.6333333333333333 26:0.6333333333333333 27:0.6333333333333333 28:0.6333333333333333 29:0.6333333333333333 30:0.6333333333333333 
1.0 1:0.6333333333333333 2:0.6333333333333333 3:0.6333333333333333 4:0.6333333333333333 5:0.6333333333333333 6:0.6333333333333333 7:0.6333333333333333 8:0.6333333333333333 9:0.6333333333333333 10:0.6333333333333333 11:0.6333333333333333 12:0.6333333333333333 13:0.6333333333333333 14:0.6333333333333333 15:0.6333333333333333 16:0.6333333333333333 17:0.6333333333333333 18:0.6333333333333333 19:0.6333333333333333 20:0.6333333333333333 21:0.9 22:0.6333333333333333 23:0.6333333333333333 24:0.6333333333333333 25:0.6333333333333333 26:0.6333333333333333 27:0.6333333333333333 28:0.6333333333333333 29:0.6333333333333333 30:0.6333333333333333 
-0.8546918306530699 1:0.6333333333333333 2:0.6333333333333333 3:0.6333333333333333 4:0.6333333333333333 5:0.6333333333333333 6:0.6333333333333333 7:0.6333333333333333 8:0.6333333333333333 9:0.6333333333333333 10:0.6333333333333333 11:0.6333333333333333 12:0.6333333333333333 13:0.6333333333333333 14:0.6333333333333333 15:0.6333333333333333 16:0.9 17:0.6333333333333333 18:0.6333333333333333 19:0.6333333333333333 20:0.6333333333333333 21:0.6333333333333333 22:0.6333333333333333 23:0.6333333333333333 24:0.6333333333333333 25:0.6333333333333333 26:0.9 27:0.6333333333333333 28:0.6333333333333333 29:0.6333333333333333 30:0.6333333333333333 
1.0 1:0.9 2:0.6333333333333333 3:0.6333333333333333 4:0.6333333333333333 5:0.6333333333333333 6:0.6333333333333333 7:0.6333333333333333 8:0.6333333333333333 9:0.6333333333333333 10:0.6333333333333333 11:0.6333333333333333 12:0.6333333333333333 13:0.6333333333333333 14:0.6333333333333333 15:0.6333333333333333 16:0.6333333333333333 17:0.6333333333333333 18:0.6333333333333333 19:0.6333333333333333 20:0.6333333333333333 21:0.6333333333333333 22:0.6333333333333333 23:0.6333333333333333 24:0.6333333333333333 25:0.6333333333333333 26:0.6333333333333333 27:0.6333333333333333 28:0.6333333333333333 29:0.6333333333333333 30:0.6333333333333333 
1.0 1:0.6333333333333333 2:0.6333333333333333 3:0.6333333333333333 4:0.6333333333333333 5:0.6333333333333333 6:0.6333333333333333 7:0.6333333333333333 8:0.6333333333333333 9:0.6333333333333333 10:0.6333333333333333 11:0.6333333333333333 12:0.6333333333333333 13:0.6333333333333333 14:0.6333333333333333 15:0.6333333333333333 16:0.6333333333333333 17:0.6333333333333333 18:0.6333333333333333 19:0.6333333333333333 20:0.6333333333333333 21:0.6333333333333333 22:0.6333333333333333 23:0.6333333333333333 24:0.6333333333333333 25:0.6333333333333333 26:0.9 27:0.6333333333333333 28:0.6333333333333333 29:0.6333333333333333 30:0.6333333333333333 
-1.0 1:0.6333333333333333 2:0.6333333333333333 3:0.6333333333333333 4:0.6333333333333333 5:0.6333333333333333 6:0.6333333333333333 7:0.6333333333333333 8:0.6333333333333333 9:0.6333333333333333 10:0.6333333333333333 11:0.6333333333333333 12:0.6333333333333333 13:0.6333333333333333 14:0.6333333333333333 15:0.6333333333333333 16:0.6333333333333333 17:0.6333333333333333 18:0.6333333333333333 19:0.6333333333333333 20:0.6333333333333333 21:0.9 22:0.6333333333333333 23:0.6333333333333333 24:0.6333333333333333 25:0.6333333333333333 26:0.9 27:0.6333333333333333 28:0.6333333333333333 29:0.6333333333333333 30:0.6333333333333333 
1.0 1:0.6333333333333333 2:0.6333333333333333 3:0.6333333333333333 4:0.6333333333333333 5:0.6333333333333333 6:0.6333333333333333 7:0.6333333333333333 8:0.6333333333333333 9:0.6333333333333333 10:0.6333333333333333 11:0.9 12:0.6333333333333333 13:0.6333333333333333 14:0.6333333333333333 15:0.6333333333333333 16:0.9 17:0.6333333333333333 18:0.6333333333333333 19:0.6333333333333333 20:0.6333333333333333 21:0.6333333333333333 22:0.6333333333333333 23:0.6333333333333333 24:0.6333333333333333 25:0.6333333333333333 26:0.6333333333333333 27:0.6333333333333333 28:0.6333333333333333 29:0.6333333333333333 30:0.6333333333333333 
1.0 1:0.9 2:0.6333333333333333 3:0.6333333333333333 4:0.6333333333333333 5:0.6333333333333333 6:0.6333333333333333 7:0.6333333333333333 8:0.6333333333333333 9:0.6333333333333333 10:0.6333333333333333 11:0.6333333333333333 12:0.6333333333333333 13:0.6333333333333333 14:0.6333333333333333 15:0.6333333333333333 16:0.9 17:0.6333333333333333 18:0.6333333333333333 19:0.6333333333333333 20:0.6333333333333333 21:0.6333333333333333 22:0.6333333333333333 23:0.6333333333333333 24:0.6333333333333333 25:0.6333333333333333 26:0.6333333333333333 27:0.6333333333333333 28:0.6333333333333333 29:0.6333333333333333 30:0.6333333333333333 
1.0 1:0.6333333333333333 2:0.6333333333333333 3:0.6333333333333333 4:0.6333333333333333 5:0.6333333333333333 6:0.6333333333333333 7:0.6333333333333333 8:0.6333333333333333 9:0.6333333333333333 10:0.6333333333333333 11:0.9 12:0.6333333333333333 13:0.6333333333333333 14:0.6333333333333333 15:0.6333333333333333 16:0.6333333333333333 17:0.6333333333333333 18:0.6333333333333333 19:0.6333333333333333 20:0.6333333333333333 21:0.6333333333333333 22:0.6333333333333333 23:0.6333333333333333 24:0.6333333333333333 25:0.6333333333333333 26:0.9 27:0.6333333333333333 28:0.6333333333333333 29:0.6333333333333333 30:0.6333333333333333 
-1.0 1:0.6333333333333333 2:0.6333333333333333 3:0.6333333333333333 4:0.6333333333333333 5:0.6333333333333333 6:0.9 7:0.6333333333333333 8:0.6333333333333333 9:0.6333333333333333 10:0.6333333333333333 11:0.6333333333333333 12:0.6333333333333333 13:0.6333333333333333 14:0.6333333333333333 15:0.6333333333333333 16:0.6333333333333333 17:0.6333333333333333 18:0.6333333333333333 19:0.6333333333333333 20:0.6333333333333333 21:0.9 22:0.6333333333333333 23:0.6333333333333333 24:0.6333333333333333 25:0.6333333333333333 26:0.9 27:0.6333333333333333 28:0.6333333333333333 29:0.6333333333333333 30:0.6333333333333333 
-1.0 1:0.6333333333333333 2:0.6333333333333333 3:0.9 4:0.6333333333333333 5:0.6333333333333333 6:0.6333333333333333 7:0.6333333333333333 8:0.9 9:0.6333333333333333 10:0.6333333333333333 11:0.6333333333333333 12:0.6333333333333333 13:0.6333333333333333 14:0.6333333333333333 15:0.6333333333333333 16:0.6333333333333333 17:0.6333333333333333 18:0.6333333333333333 19:0.6333333333333333 20:0.6333333333333333 21:0.6333333333333333 22:0.6333333333333333 23:0.6333333333333333 24:0.6333333333333333 25:0.6333333333333333 26:0.6333333333333333 27:0.6333333333333333 28:0.6333333333333333 29:0.6333333333333333 30:0.6333333333333333 
1.0 1:0.6333333333333333 2:0.6333333333333333 3:0.6333333333333333 4:0.6333333333333333 5:0.6333333333333333 6:0.6333333333333333 7:0.6333333333333333 8:0.6333333333333333 9:0.6333333333333333 10:0.6333333333333333 11:0.6333333333333333 12:0.6333333333333333 13:0.6333333333333333 14:0.6333333333333333 15:0.6333333333333333 16:0.6333333333333333 17:0.6333333333333333 18:0.6333333333333333 19:0.6333333333333333 20:0.6333333333333333 21:0.3666666666666667 22:0.6333333333333333 23:0.6333333333333333 24:0.6333333333333333 25:0.6333333333333333 26:0.6333333333333333 27:0.6333333333333333 28:0.6333333333333333 29:0.6333333333333333 30:0.6333333333333333 
1.0 1:0.6333333333333333 2:0.6333333333333333 3:0.6333333333333333 4:0.6333333333333333 5:0.6333333333333333 6:0.6333333333333333 7:0.6333333333333333 8:0.6333333333333333 9:0.6333333333333333 10:0.6333333333333333 11:0.3666666666666667 12:0.6333333333333333 13:0.6333333333333333 14:0.6333333333333333 15:0.6333333333333333 16:0.6333333333333333 17:0.6333333333333333 18:0.6333333333333333 19:0.6333333333333333 20:0.6333333333333333 21:0.9 22:0.6333333333333333 23:0.6333333333333333 24:0.6333333333333333 25:0.6333333333333333 26:0.6333333333333333 27:0.6333333333333333 28:0.6333333333333333 29:0.6333333333333333 30:0.6333333333333333 
1.0 1:0.3666666666666667 2:0.6333333333333333 3:0.6333333333333333 4:0.6333333333333333 5:0.6333333333333333 6:0.6333333333333333 7:0.6333333333333333 8:0.6333333333333333 9:0.6333333333333333 10:0.6333333333333333 11:0.9 12:0.6333333333333333 13:0.6333333333333333 14:0.6333333333333333 15:0.6333333333333333 16:0.6333333333333333 17:0.6333333333333333 18:0.6333333333333333 19:0.6333333333333333 20:0.6333333333333333 21:0.9 22:0.6333333333333333 23:0.6333333333333333 24:0.6333333333333333 25:0.6333333333333333 26:0.6333333333333333 27:0.6333333333333333 28:0.6333333333333333 29:0.6333333333333333 30:0.6333333333333333 
1.0 1:0.6333333333333333 2:0.6333333333333333 3:0.6333333333333333 4:0.6333333333333333 5:0.6333333333333333 6:0.9 7:0.6333333333333333 8:0.6333333333333333 9:0.6333333333333333 10:0.6333333333333333 11:0.6333333333333333 12:0.6333333333333333 13:0.6333333333333333 14:0.6333333333333333 15:0.6333333333333333 16:0.9 17:0.6333333333333333 18:0.6333333333333333 19:0.6333333333333333 20:0.6333333333333333 21:0.6333333333333333 22:0.6333333333333333 23:0.6333333333333333 24:0.6333333333333333 25:0.6333333333333333 26:0.9 27:0.6333333333333333 28:0.6333333333333333 29:0.6333333333333333 30:0.6333333333333333 
1.0 1:0.9 2:0.6333333333333333 3:0.6333333333333333 4:0.6333333333333333 5:0.6333333333333333 6:0.6333333333333333 7:0.6333333333333333 8:0.6333333333333333 9:0.6333333333333333 10:0.6333333333333333 11:0.9 12:0.6333333333333333 13:0.6333333333333333 14:0.6333333333333333 15:0.6333333333333333 16:0.6333333333333333 17:0.6333333333333333 18:0.6333333333333333 19:0.6333333333333333 20:0.6333333333333333 21:0.9 22:0.6333333333333333 23:0.6333333333333333 24:0.6333333333333333 25:0.6333333333333333 26:0.9 27:0.6333333333333333 28:0.6333333333333333 29:0.6333333333333333 30:0.6333333333333333 
-1.0 1:0.6333333333333333 2:0.6333333333333333 3:0.6333333333333333 4:0.6333333333333333 5:0.6333333333333333 6:0.9 7:0.6333333333333333 8:0.6333333333333333 9:0.6333333333333333 10:0.6333333333333333 11:0.6333333333333333 12:0.6333333333333333 13:0.6333333333333333 14:0.6333333333333333 15:0.6333333333333333 16:0.9 17:0.6333333333333333 18:0.6333333333333333 19:0.6333333333333333 20:0.6333333333333333 21:0.9 22:0.6333333333333333 23:0.6333333333333333 24:0.6333333333333333 25:0.6333333333333333 26:0.9 27:0.6333333333333333 28:0.6333333333333333 29:0.6333333333333333 30:0.6333333333333333 
-1.0 1:0.9 2:0.6333333333333333 3:0.6333333333333333 4:0.6333333333333333 5:0.6333333333333333 6:0.6333333333333333 7:0.6333333333333333 8:0.6333333333333333 9:0.6333333333333333 10:0.6333333333333333 11:0.9 12:0.6333333333333333 13:0.6333333333333333 14:0.6333333333333333 15:0.6333333333333333 16:0.9 17:0.6333333333333333 18:0.6333333333333333 19:0.6333333333333333 20:0.6333333333333333 21:0.9 22:0.6333333333333333 23:0.6333333333333333 24:0.6333333333333333 25:0.6333333333333333 26:0.6333333333333333 27:0.6333333333333333 28:0.6333333333333333 29:0.6333333333333333 30:0.6333333333333333 
1.0 1:0.6333333333333333 2:0.6333333333333333 3:0.6333333333333333 4:0.6333333333333333 5:0.6333333333333333 6:0.6333333333333333 7:0.6333333333333333 8:0.6333333333333333 9:0.6333333333333333 10:0.6333333333333333 11:0.6333333333333333 12:0.6333333333333333 13:0.6333333333333333 14:0.6333333333333333 15:0.6333333333333333 16:0.6333333333333333 17:0.6333333333333333 18:0.6333333333333333 19:0.6333333333333333 20:0.6333333333333333 21:0.6333333333333333 22:0.6333333333333333 23:0.6333333333333333 24:0.6333333333333333 25:0.6333333333333333 26:0.6333333333333333 27:0.6333333333333333 28:0.6333333333333333 29:0.6333333333333333 30:0.6333333333333333 
1.0 1:0.6333333333333333 2:0.6333333333333333 3:0.6333333333333333 4:0.6333333333333333 5:0.6333333333333333 6:0.6333333333333333 7:0.6333333333333333 8:0.6333333333333333 9:0.6333333333333333 10:0.6333333333333333 11:0.6333333333333333 12:0.6333333333333333 13:0.6333333333333333 14:0.6333333333333333 15:0.6333333333333333 16:0.6333333333333333 17:0.6333333333333333 18:0.6333333333333333 19:0.6333333333333333 20:0.6333333333333333 21:0.6333333333333333 22:0.6333333333333333 23:0.6333333333333333 24:0.6333333333333333 25:0.6333333333333333 26:0.9 27:0.6333333333333333 28:0.6333333333333333 29:0.6333333333333333 30:0.6333333333333333 
-1.0 1:0.6333333333333333 2:0.6333333333333333 3:0.6333333333333333 4:0.6333333333333333 5:0.6333333333333333 6:0.6333333333333333 7:0.6333333333333333 8:0.6333333333333333 9:0.6333333333333333 10:0.6333333333333333 11:0.6333333333333333 12:0.6333333333333333 13:0.6333333333333333 14:0.6333333333333333 15:0.6333333333333333 16:0.6333333333333333 17:0.6333333333333333 18:0.6333333333333333 19:0.6333333333333333 20:0.6333333333333333 21:0.9 22:0.6333333333333333 23:0.6333333333333333 24:0.6333333333333333 25:0.6333333333333333 26:0.9 27:0.6333333333333333 28:0.6333333333333333 29:0.6333333333333333 30:0.6333333333333333 
1.0 1:0.6333333333333333 2:0.6333333333333333 3:0.6333333333333333 4:0.6333333333333333 5:0.6333333333333333 6:0.6333333333333333 7:0.6333333333333333 8:0.6333333333333333 9:0.6333333333333333 10:0.6333333333333333 11:0.6333333333333333 12:0.6333333333333333 13:0.6333333333333333 14:0.6333333333333333 15:0.6333333333333333 16:0.6333333333333333 17:0.9 18:0.6333333333333333 19:0.6333333333333333 20:0.6333333333333333 21:0.6333333333333333 22:0.9 23:0.6333333333333333 24:0.6333333333333333 25:0.6333333333333333 26:0.6333333333333333 27:0.6333333333333333 28:0.6333333333333333 29:0.6333333333333333 30:0.6333333333333333 
1.0 1:0.6333333333333333 2:0.6333333333333333 3:0.6333333333333333 4:0.6333333333333333 5:0.6333333333333333 6:0.6333333333333333 7:0.6333333333333333 8:0.6333333333333333 9:0.6333333333333333 10:0.6333333333333333 11:0.9 12:0.6333333333333333 13:0.6333333333333333 14:0.6333333333333333 15:0.6333333333333333 16:0.9 17:0.6333333333333333 18:0.6333333333333333 19:0.6333333333333333 20:0.6333333333333333 21:0.6333333333333333 22:0.6333333333333333 23:0.6333333333333333 24:0.6333333333333333 25:0.9 26:0.6333333333333333 27:0.6333333333333333 28:0.6333333333333333 29:0.6333333333333333 30:0.6333333333333333 
-0.6727228499954471 1:0.6333333333333333 2:0.6333333333333333 3:0.6333333333333333 4:0.6333333333333333 5:0.6333333333333333 6:0.9 7:0.6333333333333333 8:0.6333333333333333 9:0.6333333333333333 10:0.6333333333333333 11:0.9 12:0.6333333333333333 13:0.6333333333333333 14:0.6333333333333333 15:0.6333333333333333 16:0.6333333333333333 17:0.6333333333333333 18:0.6333333333333333 19:0.6333333333333333 20:0.9 21:0.6333333333333333 22:0.6333333333333333 23:0.6333333333333333 24:0.6333333333333333 25:0.6333333333333333 26:0.9 27:0.6333333333333333 28:0.6333333333333333 29:0.6333333333333333 30:0.6333333333333333 
1.0 1:0.6333333333333333 2:0.6333333333333333 3:0.9 4:0.6333333333333333 5:0.6333333333333333 6:0.6333333333333333 7:0.6333333333333333 8:0.6333333333333333 9:0.6333333333333333 10:0.6333333333333333 11:0.6333333333333333 12:0.6333333333333333 13:0.6333333333333333 14:0.6333333333333333 15:0.6333333333333333 16:0.6333333333333333 17:0.6333333333333333 18:0.6333333333333333 19:0.6333333333333333 20:0.6333333333333333 21:0.6333333333333333 22:0.6333333333333333 23:0.6333333333333333 24:0.6333333333333333 25:0.6333333333333333 26:0.6333333333333333 27:0.6333333333333333 28:0.6333333333333333 29:0.6333333333333333 30:0.6333333333333333 
1.0 1:0.6333333333333333 2:0.6333333333333333 3:0.6333333333333333 4:0.6333333333333333 5:0.6333333333333333 6:0.6333333333333333 7:0.6333333333333333 8:0.6333333333333333 9:0.6333333333333333 10:0.6333333333333333 11:0.6333333333333333 12:0.6333333333333333 13:0.6333333333333333 14:0.6333333333333333 15:0.6333333333333333 16:0.6333333333333333 17:0.6333333333333333 18:0.6333333333333333 19:0.6333333333333333 20:0.6333333333333333 21:0.9 22:0.6333333333333333 23:0.6333333333333333 24:0.6333333333333333 25:0.6333333333333333 26:0.6333333333333333 27:0.6333333333333333 28:0.6333333333333333 29:0.6333333333333333 30:0.6333333333333333 
1.0 1:0.6333333333333333 2:0.6333333333333333 3:0.6333333333333333 4:0.6333333333333333 5:0.6333333333333333 6:0.6333333333333333 7:0.6333333333333333 8:0.6333333333333333 9:0.6333333333333333 10:0.6333333333333333 11:0.6333333333333333 12:0.9 13:0.6333333333333333 14:0.6333333333333333 15:0.6333333333333333 16:0.6333333333333333 17:0.6333333333333333 18:0.6333333333333333 19:0.6333333333333333 20:0.6333333333333333 21:0.6333333333333333 22:0.9 23:0.6333333333333333 24:0.6333333333333333 25:0.6333333333333333 26:0.6333333333333333 27:0.6333333333333333 28:0.6333333333333333 29:0.6333333333333333 30:0.6333333333333333 
-1.0 1:0.6333333333333333 2:0.6333333333333333 3:0.6333333333333333 4:0.6333333333333333 5:0.6333333333333333 6:0.6333333333333333 7:0.9 8:0.6333333333333333 9:0.6333333333333333 10:0.6333333333333333 11:0.6333333333333333 12:0.6333333333333333 13:0.6333333333333333 14:0.6333333333333333 15:0.6333333333333333 16:0.9 17:0.6333333333333333 18:0.6333333333333333 19:0.6333333333333333 20:0.6333333333333333 21:0.6333333333333333 22:0.6333333333333333 23:0.6333333333333333 24:0.6333333333333333 25:0.6333333333333333 26:0.6333333333333333 27:0.6333333333333333 28:0.6333333333333333 29:0.6333333333333333 30:0.6333333333333333 
-1.0 1:0.6333333333333333 2:0.6333333333333333 3:0.6333333333333333 4:0.6333333333333333 5:0.6333333333333333 6:0.6333333333333333 7:0.6333333333333333 8:0.6333333333333333 9:0.6333333333333333 10:0.6333333333333333 11:0.6333333333333333 12:0.6333333333333333 13:0.6333333333333333 14:0.6333333333333333 15:0.6333333333333333 16:0.6333333333333333 17:0.6333333333333333 18:0.6333333333333333 19:0.6333333333333333 20:0.6333333333333333 21:0.6333333333333333 22:0.6333333333333333 23:0.6333333333333333 24:0.6333333333333333 25:0.6333333333333333 26:0.6333333333333333 27:0.6333333333333333 28:0.6333333333333333 29:0.6333333333333333 30:0.6333333333333333 
-1.0 1:0.6333333333333333 2:0.6333333333333333 3:0.6333333333333333 4:0.6333333333333333 5:0.6333333333333333 6:0.6333333333333333 7:0.6333333333333333 8:0.6333333333333333 9:0.6333333333333333 10:0.6333333333333333 11:0.6333333333333333 12:0.6333333333333333 13:0.6333333333333333 14:0.6333333333333333 15:0.6333333333333333 16:0.3666666666666667 17:0.6333333333333333 18:0.6333333333333333 19:0.6333333333333333 20:0.6333333333333333 21:0.6333333333333333 22:0.6333333333333333 23:0.6333333333333333 24:0.6333333333333333 25:0.6333333333333333 26:0.6333333333333333 27:0.6333333333333333 28:0.6333333333333333 29:0.6333333333333333 30:0.6333333333333333 
1.0 1:0.3666666666666667 2:0.6333333333333333 3:0.6333333333333333 4:0.6333333333333333 5:0.6333333333333333 6:0.6333333333333333 7:0.6333333333333333 8:0.6333333333333333 9:0.6333333333333333 10:0.6333333333333333 11:0.6333333333333333 12:0.6333333333333333 13:0.6333333333333333 14:0.6333333333333333 15:0.6333333333333333 16:0.6333333333333333 17:0.6333333333333333 18:0.6333333333333333 19:0.6333333333333333 20:0.6333333333333333 21:0.6333333333333333 22:0.6333333333333333 23:0.6333333333333333 24:0.6333333333333333 25:0.6333333333333333 26:0.6333333333333333 27:0.6333333333333333 28:0.6333333333333333 29:0.6333333333333333 30:0.6333333333333333 
1.0 1:0.6333333333333333 2:0.6333333333333333 3:0.6333333333333333 4:0.6333333333333333 5:0.6333333333333333 6:0.6333333333333333 7:0.6333333333333333 8:0.6333333333333333 9:0.6333333333333333 10:0.6333333333333333 11:0.6333333333333333 12:0.6333333333333333 13:0.6333333333333333 14:0.6333333333333333 15:0.6333333333333333 16:0.6333333333333333 17:0.6333333333333333 18:0.6333333333333333 19:0.6333333333333333 20:0.6333333333333333 21:0.6333333333333333 22:0.6333333333333333 23:0.6333333333333333 24:0.6333333333333333 25:0.6333333333333333 26:0.9 27:0.6333333333333333 28:0.6333333333333333 29:0.6333333333333333 30:0.6333333333333333 
-1.0 1:0.6333333333333333 2:0.6333333333333333 3:0.6333333333333333 4:0.6333333333333333 5:0.6333333333333333 6:0.6333333333333333 7:0.6333333333333333 8:0.6333333333333333 9:0.6333333333333333 10:0.6333333333333333 11:0.6333333333333333 12:0.6333333333333333 13:0.6333333333333333 14:0.6333333333333333 15:0.6333333333333333 16:0.6333333333333333 17:0.6333333333333333 18:0.6333333333333333 19:0.6333333333333333 20:0.6333333333333333 21:0.9 22:0.6333333333333333 23:0.6333333333333333 24:0.6333333333333333 25:0.6333333333333333 26:0.9 27:0.6333333333333333 28:0.6333333333333333 29:0.6333333333333333 30:0.6333333333333333 
-1.0 1:0.6333333333333333 2:0.6333333333333333 3:0.6333333333333333 4:0.6333333333333333 5:0.6333333333333333 6:0.6333333333333333 7:0.6333333333333333 8:0.6333333333333333 9:0.6333333333333333 10:0.6333333333333333 11:0.6333333333333333 12:0.6333333333333333 13:0.9 14:0.6333333333333333 15:0.6333333333333333 16:0.6333333333333333 17:0.6333333333333333 18:0.9 19:0.6333333333333333 20:0.6333333333333333 21:0.6333333333333333 22:0.6333333333333333 23:0.6333333333333333 24:0.6333333333333333 25:0.6333333333333333 26:0.6333333333333333 27:0.6333333333333333 28:0.6333333333333333 29:0.6333333333333333 30:0.6333333333333333 
