encog,SVM,java,3.1.0,1,1400429201397
[SVM]
[SVM:PARAMS]
[SVM:SVM-PARAM]
inputCount=30
C=1
cacheSize=100
coef0=0
degree=3
eps=0.001
gamma=0.0333333333
kernelType=2
nrWeight=0
nu=0.5
p=0.1
probability=0
shrinking=1
svmType=3
weight=
weightLabel=
[SVM:SVM-MODEL]
svm_type epsilon_svr
kernel_type rbf
gamma 0.03333333333333333
nr_class 2
total_sv 169
rho -0.29952067178119807
SV
-0.8244699747396018 1:0.1 2:0.1 3:0.1 4:0.1 5:0.1 6:0.1 7:0.1 8:0.1 9:0.1 10:0.1 11:0.1 12:0.1 13:0.1 14:0.1 15:0.1 16:0.1 17:0.1 18:0.1 19:0.1 20:0.1 21:0.1 22:0.1 23:0.1 24:0.1 25:0.1 26:0.1 27:0.1 28:0.1 29:0.1 30:0.1 
-1.0 1:0.1 2:0.1 3:0.1 4:0.1 5:0.1 6:0.1 7:0.1 8:0.1 9:0.1 10:0.1 11:0.1 12:0.1 13:0.1 14:0.1 15:0.1 16:0.1 17:0.1 18:0.1 19:0.1 20:0.1 21:0.1 22:0.1 23:0.1 24:0.1 25:0.1 26:0.1 27:0.1 28:0.1 29:0.1 30:0.1 
-1.0 1:0.1 2:0.1 3:0.1 4:0.1 5:0.1 6:0.1 7:0.1 8:0.1 9:0.1 10:0.1 11:0.1 12:0.1 13:0.1 14:0.1 15:0.1 16:0.1 17:0.1 18:0.1 19:0.1 20:0.1 21:0.1 22:0.1 23:0.1 24:0.1 25:0.1 26:0.1 27:0.1 28:0.1 29:0.1 30:0.1 
-1.0 1:0.1 2:0.1 3:0.1 4:0.1 5:0.1 6:0.1 7:0.1 8:0.1 9:0.1 10:0.1 11:0.1 12:0.1 13:0.1 14:0.1 15:0.1 16:0.1 17:0.1 18:0.1 19:0.1 20:0.1 21:0.1 22:0.1 23:0.1 24:0.1 25:0.1 26:0.1 27:0.1 28:0.1 29:0.1 30:0.1 
-1.0 1:0.1 2:0.1 3:0.1 4:0.1 5:0.1 6:0.1 7:0.1 8:0.1 9:0.1 10:0.1 11:0.1 12:0.1 13:0.1 14:0.1 15:0.1 16:0.1 17:0.1 18:0.1 19:0.1 20:0.1 21:0.1 22:0.1 23:0.1 24:0.1 25:0.1 26:0.1 27:0.1 28:0.1 29:0.1 30:0.1 
-1.0 1:0.1 2:0.1 3:0.1 4:0.1 5:0.1 6:0.1 7:0.1 8:0.1 9:0.1 10:0.1 11:0.1 12:0.1 13:0.1 14:0.1 15:0.1 16:0.1 17:0.1 18:0.1 19:0.1 20:0.1 21:0.1 22:0.1 23:0.1 24:0.1 25:0.1 26:0.1 27:0.1 28:0.1 29:0.1 30:0.1 
1.0 1:0.1 2:0.1 3:0.1 4:0.1 5:0.1 6:0.1 7:0.1 8:0.1 9:0.1 10:0.1 11:0.1 12:0.1 13:0.1 14:0.1 15:0.1 16:0.1 17:0.1 18:0.1 19:0.1 20:0.1 21:0.1 22:0.1 23:0.1 24:0.1 25:0.1 26:0.1 27:0.1 28:0.1 29:0.1 30:0.1 
0.010757011213914052 1:0.1 2:0.1 3:0.1 4:0.1 5:0.1 6:0.1 7:0.1 8:0.1 9:0.1 10:0.1 11:0.1 12:0.1 13:0.1 14:0.1 15:0.1 16:0.1 17:0.1 18:0.1 19:0.1 20:0.1 21:0.1 22:0.1 23:0.1 24:0.1 25:0.1 26:0.1 27:0.1 28:0.1 29:0.1 30:0.9 
-1.0 1:0.1 2:0.1 3:0.1 4:0.1 5:0.1 6:0.1 7:0.1 8:0.1 9:0.1 10:0.1 11:0.1 12:0.1 13:0.1 14:0.1 15:0.1 16:0.1 17:0.1 18:0.1 19:0.1 20:0.1 21:0.1 22:0.1 23:0.1 24:0.1 25:0.1 26:0.1 27:0.1 28:0.1 29:0.9 30:0.1 
1.0 1:0.1 2:0.1 3:0.1 4:0.1 5:0.1 6:0.1 7:0.1 8:0.1 9:0.1 10:0.1 11:0.1 12:0.1 13:0.1 14:0.1 15:0.1 16:0.1 17:0.1 18:0.1 19:0.1 20:0.1 21:0.1 22:0.1 23:0.1 24:0.1 25:0.1 26:0.1 27:0.1 28:0.9 29:0.1 30:0.1 
1.0 1:0.1 2:0.1 3:0.1 4:0.1 5:0.1 6:0.1 7:0.1 8:0.1 9:0.1 10:0.1 11:0.1 12:0.1 13:0.1 14:0.1 15:0.1 16:0.1 17:0.1 18:0.1 19:0.1 20:0.1 21:0.1 22:0.1 23:0.1 24:0.1 25:0.1 26:0.9 27:0.1 28:0.1 29:0.5845564074479737 30:0.1 
0.4006779435601414 1:0.1 2:0.1 3:0.1 4:0.1 5:0.1 6:0.1 7:0.1 8:0.1 9:0.1 10:0.1 11:0.1 12:0.1 13:0.1 14:0.1 15:0.1 16:0.1 17:0.1 18:0.1 19:0.1 20:0.1 21:0.1 22:0.1 23:0.1 24:0.1 25:0.9 26:0.1 27:0.1 28:0.5845564074479737 29:0.1 30:0.5608981380065717 
-1.0 1:0.1 2:0.1 3:0.1 4:0.1 5:0.1 6:0.1 7:0.1 8:0.1 9:0.1 10:0.1 11:0.1 12:0.1 13:0.1 14:0.1 15:0.1 16:0.1 17:0.1 18:0.1 19:0.1 20:0.1 21:0.1 22:0.1 23:0.1 24:0.9 25:0.1 26:0.1 27:0.5845564074479737 28:0.1 29:0.5608981380065717 30:0.1 
-1.0 1:0.1 2:0.1 3:0.1 4:0.1 5:0.1 6:0.1 7:0.1 8:0.1 9:0.1 10:0.1 11:0.1 12:0.1 13:0.1 14:0.1 15:0.1 16:0.1 17:0.1 18:0.1 19:0.1 20:0.1 21:0.1 22:0.1 23:0.9 24:0.1 25:0.1 26:0.5845564074479737 27:0.1 28:0.5608981380065717 29:0.1 30:0.1 
1.0 1:0.1 2:0.1 3:0.1 4:0.1 5:0.1 6:0.1 7:0.1 8:0.1 9:0.1 10:0.1 11:0.1 12:0.1 13:0.1 14:0.1 15:0.1 16:0.1 17:0.1 18:0.1 19:0.1 20:0.1 21:0.9 22:0.1 23:0.1 24:0.5845564074479737 25:0.1 26:0.5608981380065717 27:0.1 28:0.1 29:0.1 30:0.1 
0.3565602001377317 1:0.1 2:0.1 3:0.1 4:0.1 5:0.1 6:0.1 7:0.1 8:0.1 9:0.1 10:0.1 11:0.1 12:0.1 13:0.1 14:0.1 15:0.1 16:0.1 17:0.1 18:0.1 19:0.1 20:0.9 21:0.1 22:0.1 23:0.5845564074479737 24:0.1 25:0.5608981380065717 26:0.1 27:0.1 28:0.1 29:0.1 30:0.548630887185104 
-1.0 1:0.1 2:0.1 3:0.1 4:0.1 5:0.1 6:0.1 7:0.1 8:0.1 9:0.1 10:0.1 11:0.1 12:0.1 13:0.1 14:0.1 15:0.1 16:0.1 17:0.1 18:0.1 19:0.9 20:0.1 21:0.1 22:0.5845564074479737 23:0.1 24:0.5608981380065717 25:0.1 26:0.1 27:0.1 28:0.1 29:0.548630887185104 30:0.1 
-1.0 1:0.1 2:0.1 3:0.1 4:0.1 5:0.1 6:0.1 7:0.1 8:0.1 9:0.1 10:0.1 11:0.1 12:0.1 13:0.1 14:0.1 15:0.1 16:0.1 17:0.1 18:0.9 19:0.1 20:0.1 21:0.5845564074479737 22:0.1 23:0.5608981380065717 24:0.1 25:0.1 26:0.1 27:0.1 28:0.548630887185104 29:0.1 30:0.1 
1.0 1:0.1 2:0.1 3:0.1 4:0.1 5:0.1 6:0.1 7:0.1 8:0.1 9:0.1 10:0.1 11:0.1 12:0.1 13:0.1 14:0.1 15:0.1 16:0.9 17:0.1 18:0.1 19:0.5845564074479737 20:0.1 21:0.5608981380065717 22:0.1 23:0.1 24:0.1 25:0.1 26:0.548630887185104 27:0.1 28:0.1 29:0.1 30:0.1 
0.11333496967811121 1:0.1 2:0.1 3:0.1 4:0.1 5:0.1 6:0.1 7:0.1 8:0.1 9:0.1 10:0.1 11:0.1 12:0.1 13:0.1 14:0.1 15:0.9 16:0.1 17:0.1 18:0.5845564074479737 19:0.1 20:0.5608981380065717 21:0.1 22:0.1 23:0.1 24:0.1 25:0.548630887185104 26:0.1 27:0.1 28:0.1 29:0.1 30:0.5547645125958378 
-1.0 1:0.1 2:0.1 3:0.1 4:0.1 5:0.1 6:0.1 7:0.1 8:0.1 9:0.1 10:0.1 11:0.1 12:0.1 13:0.1 14:0.9 15:0.1 16:0.1 17:0.5845564074479737 18:0.1 19:0.5608981380065717 20:0.1 21:0.1 22:0.1 23:0.1 24:0.548630887185104 25:0.1 26:0.1 27:0.1 28:0.1 29:0.5547645125958378 30:0.1 
1.0 1:0.1 2:0.1 3:0.1 4:0.1 5:0.1 6:0.1 7:0.1 8:0.1 9:0.1 10:0.1 11:0.1 12:0.1 13:0.9 14:0.1 15:0.1 16:0.5845564074479737 17:0.1 18:0.5608981380065717 19:0.1 20:0.1 21:0.1 22:0.1 23:0.548630887185104 24:0.1 25:0.1 26:0.1 27:0.1 28:0.5547645125958378 29:0.1 30:0.1 
1.0 1:0.1 2:0.1 3:0.1 4:0.1 5:0.1 6:0.1 7:0.1 8:0.1 9:0.1 10:0.1 11:0.9 12:0.1 13:0.1 14:0.5845564074479737 15:0.1 16:0.5608981380065717 17:0.1 18:0.1 19:0.1 20:0.1 21:0.548630887185104 22:0.1 23:0.1 24:0.1 25:0.1 26:0.5547645125958378 27:0.1 28:0.1 29:0.5442497261774369 30:0.1 
1.0 1:0.1 2:0.1 3:0.1 4:0.1 5:0.1 6:0.1 7:0.1 8:0.1 9:0.9 10:0.1 11:0.1 12:0.5845564074479737 13:0.1 14:0.5608981380065717 15:0.1 16:0.1 17:0.1 18:0.1 19:0.548630887185104 20:0.1 21:0.1 22:0.1 23:0.1 24:0.5547645125958378 25:0.1 26:0.1 27:0.5442497261774369 28:0.1 29:0.5547645125958378 30:0.1 
-1.0 1:0.1 2:0.1 3:0.1 4:0.1 5:0.1 6:0.9 7:0.1 8:0.1 9:0.5845564074479737 10:0.1 11:0.5608981380065717 12:0.1 13:0.1 14:0.1 15:0.1 16:0.548630887185104 17:0.1 18:0.1 19:0.1 20:0.1 21:0.5547645125958378 22:0.1 23:0.1 24:0.5442497261774369 25:0.1 26:0.5547645125958378 27:0.1 28:0.5547645125958378 29:0.1 30:0.1 
-1.0 1:0.1 2:0.1 3:0.1 4:0.9 5:0.1 6:0.1 7:0.5845564074479737 8:0.1 9:0.5608981380065717 10:0.1 11:0.1 12:0.1 13:0.1 14:0.548630887185104 15:0.1 16:0.1 17:0.1 18:0.1 19:0.5547645125958378 20:0.1 21:0.1 22:0.5442497261774369 23:0.1 24:0.5547645125958378 25:0.1 26:0.5547645125958378 27:0.1 28:0.1 29:0.1 30:0.1 
1.0 1:0.1 2:0.1 3:0.9 4:0.1 5:0.1 6:0.5845564074479737 7:0.1 8:0.5608981380065717 9:0.1 10:0.1 11:0.1 12:0.1 13:0.548630887185104 14:0.1 15:0.1 16:0.1 17:0.1 18:0.5547645125958378 19:0.1 20:0.1 21:0.5442497261774369 22:0.1 23:0.5547645125958378 24:0.1 25:0.5547645125958378 26:0.1 27:0.1 28:0.1 29:0.1 30:0.1 
1.0 1:0.9 2:0.1 3:0.1 4:0.5845564074479737 5:0.1 6:0.5608981380065717 7:0.1 8:0.1 9:0.1 10:0.1 11:0.548630887185104 12:0.1 13:0.1 14:0.1 15:0.1 16:0.5547645125958378 17:0.1 18:0.1 19:0.5442497261774369 20:0.1 21:0.5547645125958378 22:0.1 23:0.5547645125958378 24:0.1 25:0.1 26:0.1 27:0.1 28:0.1 29:0.5573932092004381 30:0.1 
1.0 1:0.1 2:0.5845564074479737 3:0.1 4:0.5608981380065717 5:0.1 6:0.1 7:0.1 8:0.1 9:0.548630887185104 10:0.1 11:0.1 12:0.1 13:0.1 14:0.5547645125958378 15:0.1 16:0.1 17:0.5442497261774369 18:0.1 19:0.5547645125958378 20:0.1 21:0.5547645125958378 22:0.1 23:0.1 24:0.1 25:0.1 26:0.1 27:0.5573932092004381 28:0.1 29:0.5442497261774369 30:0.1 
-0.2926532766420338 1:0.5845564074479737 2:0.1 3:0.5608981380065717 4:0.1 5:0.1 6:0.1 7:0.1 8:0.548630887185104 9:0.1 10:0.1 11:0.1 12:0.1 13:0.5547645125958378 14:0.1 15:0.1 16:0.5442497261774369 17:0.1 18:0.5547645125958378 19:0.1 20:0.5547645125958378 21:0.1 22:0.1 23:0.1 24:0.1 25:0.1 26:0.5573932092004381 27:0.1 28:0.5442497261774369 29:0.1 30:0.553012048192771 
-1.0 1:0.1 2:0.5608981380065717 3:0.1 4:0.1 5:0.1 6:0.1 7:0.548630887185104 8:0.1 9:0.1 10:0.1 11:0.1 12:0.5547645125958378 13:0.1 14:0.1 15:0.5442497261774369 16:0.1 17:0.5547645125958378 18:0.1 19:0.5547645125958378 20:0.1 21:0.1 22:0.1 23:0.1 24:0.1 25:0.5573932092004381 26:0.1 27:0.5442497261774369 28:0.1 29:0.553012048192771 30:0.1 
1.0 1:0.5608981380065717 2:0.1 3:0.1 4:0.1 5:0.1 6:0.548630887185104 7:0.1 8:0.1 9:0.1 10:0.1 11:0.5547645125958378 12:0.1 13:0.1 14:0.5442497261774369 15:0.1 16:0.5547645125958378 17:0.1 18:0.5547645125958378 19:0.1 20:0.1 21:0.1 22:0.1 23:0.1 24:0.5573932092004381 25:0.1 26:0.5442497261774369 27:0.1 28:0.553012048192771 29:0.1 30:0.1 
-1.0 1:0.1 2:0.1 3:0.1 4:0.548630887185104 5:0.1 6:0.1 7:0.1 8:0.1 9:0.5547645125958378 10:0.1 11:0.1 12:0.5442497261774369 13:0.1 14:0.5547645125958378 15:0.1 16:0.5547645125958378 17:0.1 18:0.1 19:0.1 20:0.1 21:0.1 22:0.5573932092004381 23:0.1 24:0.5442497261774369 25:0.1 26:0.553012048192771 27:0.1 28:0.1 29:0.5547645125958378 30:0.1 
-1.0 1:0.1 2:0.1 3:0.548630887185104 4:0.1 5:0.1 6:0.1 7:0.1 8:0.5547645125958378 9:0.1 10:0.1 11:0.5442497261774369 12:0.1 13:0.5547645125958378 14:0.1 15:0.5547645125958378 16:0.1 17:0.1 18:0.1 19:0.1 20:0.1 21:0.5573932092004381 22:0.1 23:0.5442497261774369 24:0.1 25:0.553012048192771 26:0.1 27:0.1 28:0.5547645125958378 29:0.1 30:0.1 
-0.7587243826959394 1:0.1 2:0.548630887185104 3:0.1 4:0.1 5:0.1 6:0.1 7:0.5547645125958378 8:0.1 9:0.1 10:0.5442497261774369 11:0.1 12:0.5547645125958378 13:0.1 14:0.5547645125958378 15:0.1 16:0.1 17:0.1 18:0.1 19:0.1 20:0.5573932092004381 21:0.1 22:0.5442497261774369 23:0.1 24:0.553012048192771 25:0.1 26:0.1 27:0.5547645125958378 28:0.1 29:0.1 30:0.1 
1.0 1:0.548630887185104 2:0.1 3:0.1 4:0.1 5:0.1 6:0.5547645125958378 7:0.1 8:0.1 9:0.5442497261774369 10:0.1 11:0.5547645125958378 12:0.1 13:0.5547645125958378 14:0.1 15:0.1 16:0.1 17:0.1 18:0.1 19:0.5573932092004381 20:0.1 21:0.5442497261774369 22:0.1 23:0.553012048192771 24:0.1 25:0.1 26:0.5547645125958378 27:0.1 28:0.1 29:0.1 30:0.1 
1.0 1:0.1 2:0.1 3:0.1 4:0.5547645125958378 5:0.1 6:0.1 7:0.5442497261774369 8:0.1 9:0.5547645125958378 10:0.1 11:0.5547645125958378 12:0.1 13:0.1 14:0.1 15:0.1 16:0.1 17:0.5573932092004381 18:0.1 19:0.5442497261774369 20:0.1 21:0.553012048192771 22:0.1 23:0.1 24:0.5547645125958378 25:0.1 26:0.1 27:0.1 28:0.1 29:0.5547645125958378 30:0.1 
1.0 1:0.1 2:0.5547645125958378 3:0.1 4:0.1 5:0.5442497261774369 6:0.1 7:0.5547645125958378 8:0.1 9:0.5547645125958378 10:0.1 11:0.1 12:0.1 13:0.1 14:0.1 15:0.5573932092004381 16:0.1 17:0.5442497261774369 18:0.1 19:0.553012048192771 20:0.1 21:0.1 22:0.5547645125958378 23:0.1 24:0.1 25:0.1 26:0.1 27:0.5547645125958378 28:0.1 29:0.5416210295728366 30:0.1 
-1.0 1:0.5547645125958378 2:0.1 3:0.1 4:0.5442497261774369 5:0.1 6:0.5547645125958378 7:0.1 8:0.5547645125958378 9:0.1 10:0.1 11:0.1 12:0.1 13:0.1 14:0.5573932092004381 15:0.1 16:0.5442497261774369 17:0.1 18:0.553012048192771 19:0.1 20:0.1 21:0.5547645125958378 22:0.1 23:0.1 24:0.1 25:0.1 26:0.5547645125958378 27:0.1 28:0.5416210295728366 29:0.1 30:0.5608981380065717 
-1.0 1:0.1 2:0.1 3:0.5442497261774369 4:0.1 5:0.5547645125958378 6:0.1 7:0.5547645125958378 8:0.1 9:0.1 10:0.1 11:0.1 12:0.1 13:0.5573932092004381 14:0.1 15:0.5442497261774369 16:0.1 17:0.553012048192771 18:0.1 19:0.1 20:0.5547645125958378 21:0.1 22:0.1 23:0.1 24:0.1 25:0.5547645125958378 26:0.1 27:0.5416210295728366 28:0.1 29:0.5608981380065717 30:0.1 
1.0 1:0.1 2:0.5442497261774369 3:0.1 4:0.5547645125958378 5:0.1 6:0.5547645125958378 7:0.1 8:0.1 9:0.1 10:0.1 11:0.1 12:0.5573932092004381 13:0.1 14:0.5442497261774369 15:0.1 16:0.553012048192771 17:0.1 18:0.1 19:0.5547645125958378 20:0.1 21:0.1 22:0.1 23:0.1 24:0.5547645125958378 25:0.1 26:0.5416210295728366 27:0.1 28:0.5608981380065717 29:0.1 30:0.1 
1.0 1:0.1 2:0.5547645125958378 3:0.1 4:0.5547645125958378 5:0.1 6:0.1 7:0.1 8:0.1 9:0.1 10:0.5573932092004381 11:0.1 12:0.5442497261774369 13:0.1 14:0.553012048192771 15:0.1 16:0.1 17:0.5547645125958378 18:0.1 19:0.1 20:0.1 21:0.1 22:0.5547645125958378 23:0.1 24:0.5416210295728366 25:0.1 26:0.5608981380065717 27:0.1 28:0.1 29:0.5547645125958378 30:0.1 
1.0 1:0.1 2:0.5547645125958378 3:0.1 4:0.1 5:0.1 6:0.1 7:0.1 8:0.5573932092004381 9:0.1 10:0.5442497261774369 11:0.1 12:0.553012048192771 13:0.1 14:0.1 15:0.5547645125958378 16:0.1 17:0.1 18:0.1 19:0.1 20:0.5547645125958378 21:0.1 22:0.5416210295728366 23:0.1 24:0.5608981380065717 25:0.1 26:0.1 27:0.5547645125958378 28:0.1 29:0.5547645125958378 30:0.1 
-1.0 1:0.5547645125958378 2:0.1 3:0.1 4:0.1 5:0.1 6:0.1 7:0.5573932092004381 8:0.1 9:0.5442497261774369 10:0.1 11:0.553012048192771 12:0.1 13:0.1 14:0.5547645125958378 15:0.1 16:0.1 17:0.1 18:0.1 19:0.5547645125958378 20:0.1 21:0.5416210295728366 22:0.1 23:0.5608981380065717 24:0.1 25:0.1 26:0.5547645125958378 27:0.1 28:0.5547645125958378 29:0.1 30:0.553012048192771 
0.6965214457547325 1:0.1 2:0.1 3:0.1 4:0.1 5:0.5573932092004381 6:0.1 7:0.5442497261774369 8:0.1 9:0.553012048192771 10:0.1 11:0.1 12:0.5547645125958378 13:0.1 14:0.1 15:0.1 16:0.1 17:0.5547645125958378 18:0.1 19:0.5416210295728366 20:0.1 21:0.5608981380065717 22:0.1 23:0.1 24:0.5547645125958378 25:0.1 26:0.5547645125958378 27:0.1 28:0.553012048192771 29:0.1 30:0.1 
0.04716763249318587 1:0.1 2:0.1 3:0.5573932092004381 4:0.1 5:0.5442497261774369 6:0.1 7:0.553012048192771 8:0.1 9:0.1 10:0.5547645125958378 11:0.1 12:0.1 13:0.1 14:0.1 15:0.5547645125958378 16:0.1 17:0.5416210295728366 18:0.1 19:0.5608981380065717 20:0.1 21:0.1 22:0.5547645125958378 23:0.1 24:0.5547645125958378 25:0.1 26:0.553012048192771 27:0.1 28:0.1 29:0.553012048192771 30:0.1 
1.0 1:0.5573932092004381 2:0.1 3:0.5442497261774369 4:0.1 5:0.553012048192771 6:0.1 7:0.1 8:0.5547645125958378 9:0.1 10:0.1 11:0.1 12:0.1 13:0.5547645125958378 14:0.1 15:0.5416210295728366 16:0.1 17:0.5608981380065717 18:0.1 19:0.1 20:0.5547645125958378 21:0.1 22:0.5547645125958378 23:0.1 24:0.553012048192771 25:0.1 26:0.1 27:0.553012048192771 28:0.1 29:0.553012048192771 30:0.1 
-1.0 1:0.5442497261774369 2:0.1 3:0.553012048192771 4:0.1 5:0.1 6:0.5547645125958378 7:0.1 8:0.1 9:0.1 10:0.1 11:0.5547645125958378 12:0.1 13:0.5416210295728366 14:0.1 15:0.5608981380065717 16:0.1 17:0.1 18:0.5547645125958378 19:0.1 20:0.5547645125958378 21:0.1 22:0.553012048192771 23:0.1 24:0.1 25:0.553012048192771 26:0.1 27:0.553012048192771 28:0.1 29:0.553012048192771 30:0.1 
1.0 1:0.1 2:0.553012048192771 3:0.1 4:0.1 5:0.5547645125958378 6:0.1 7:0.1 8:0.1 9:0.1 10:0.5547645125958378 11:0.1 12:0.5416210295728366 13:0.1 14:0.5608981380065717 15:0.1 16:0.1 17:0.5547645125958378 18:0.1 19:0.5547645125958378 20:0.1 21:0.553012048192771 22:0.1 23:0.1 24:0.553012048192771 25:0.1 26:0.553012048192771 27:0.1 28:0.553012048192771 29:0.1 30:0.1 
1.0 1:0.5547645125958378 2:0.1 3:0.1 4:0.1 5:0.1 6:0.5547645125958378 7:0.1 8:0.5416210295728366 9:0.1 10:0.5608981380065717 11:0.1 12:0.1 13:0.5547645125958378 14:0.1 15:0.5547645125958378 16:0.1 17:0.553012048192771 18:0.1 19:0.1 20:0.553012048192771 21:0.1 22:0.553012048192771 23:0.1 24:0.553012048192771 25:0.1 26:0.1 27:0.553012048192771 28:0.1 29:0.5547645125958378 30:0.1 
-1.0 1:0.1 2:0.1 3:0.1 4:0.1 5:0.5547645125958378 6:0.1 7:0.5416210295728366 8:0.1 9:0.5608981380065717 10:0.1 11:0.1 12:0.5547645125958378 13:0.1 14:0.5547645125958378 15:0.1 16:0.553012048192771 17:0.1 18:0.1 19:0.553012048192771 20:0.1 21:0.553012048192771 22:0.1 23:0.553012048192771 24:0.1 25:0.1 26:0.553012048192771 27:0.1 28:0.5547645125958378 29:0.1 30:0.553012048192771 
1.0 1:0.1 2:0.1 3:0.5547645125958378 4:0.1 5:0.5416210295728366 6:0.1 7:0.5608981380065717 8:0.1 9:0.1 10:0.5547645125958378 11:0.1 12:0.5547645125958378 13:0.1 14:0.553012048192771 15:0.1 16:0.1 17:0.553012048192771 18:0.1 19:0.553012048192771 20:0.1 21:0.553012048192771 22:0.1 23:0.1 24:0.553012048192771 25:0.1 26:0.5547645125958378 27:0.1 28:0.553012048192771 29:0.1 30:0.1 
1.0 1:0.5416210295728366 2:0.1 3:0.5608981380065717 4:0.1 5:0.1 6:0.5547645125958378 7:0.1 8:0.5547645125958378 9:0.1 10:0.553012048192771 11:0.1 12:0.1 13:0.553012048192771 14:0.1 15:0.553012048192771 16:0.1 17:0.553012048192771 18:0.1 19:0.1 20:0.553012048192771 21:0.1 22:0.5547645125958378 23:0.1 24:0.553012048192771 25:0.1 26:0.1 27:0.5547645125958378 28:0.1 29:0.5442497261774369 30:0.1 
-1.0 1:0.1 2:0.5608981380065717 3:0.1 4:0.1 5:0.5547645125958378 6:0.1 7:0.5547645125958378 8:0.1 9:0.553012048192771 10:0.1 11:0.1 12:0.553012048192771 13:0.1 14:0.553012048192771 15:0.1 16:0.553012048192771 17:0.1 18:0.1 19:0.553012048192771 20:0.1 21:0.5547645125958378 22:0.1 23:0.553012048192771 24:0.1 25:0.1 26:0.5547645125958378 27:0.1 28:0.5442497261774369 29:0.1 30:0.5547645125958378 
0.6606217207768927 1:0.1 2:0.1 3:0.5547645125958378 4:0.1 5:0.5547645125958378 6:0.1 7:0.553012048192771 8:0.1 9:0.1 10:0.553012048192771 11:0.1 12:0.553012048192771 13:0.1 14:0.553012048192771 15:0.1 16:0.1 17:0.553012048192771 18:0.1 19:0.5547645125958378 20:0.1 21:0.553012048192771 22:0.1 23:0.1 24:0.5547645125958378 25:0.1 26:0.5442497261774369 27:0.1 28:0.5547645125958378 29:0.1 30:0.1 
-1.0 1:0.5547645125958378 2:0.1 3:0.553012048192771 4:0.1 5:0.1 6:0.553012048192771 7:0.1 8:0.553012048192771 9:0.1 10:0.553012048192771 11:0.1 12:0.1 13:0.553012048192771 14:0.1 15:0.5547645125958378 16:0.1 17:0.553012048192771 18:0.1 19:0.1 20:0.5547645125958378 21:0.1 22:0.5442497261774369 23:0.1 24:0.5547645125958378 25:0.1 26:0.1 27:0.553012048192771 28:0.1 29:0.548630887185104 30:0.1 
1.0 1:0.1 2:0.553012048192771 3:0.1 4:0.1 5:0.553012048192771 6:0.1 7:0.553012048192771 8:0.1 9:0.553012048192771 10:0.1 11:0.1 12:0.553012048192771 13:0.1 14:0.5547645125958378 15:0.1 16:0.553012048192771 17:0.1 18:0.1 19:0.5547645125958378 20:0.1 21:0.5442497261774369 22:0.1 23:0.5547645125958378 24:0.1 25:0.1 26:0.553012048192771 27:0.1 28:0.548630887185104 29:0.1 30:0.1 
1.0 1:0.553012048192771 2:0.1 3:0.553012048192771 4:0.1 5:0.553012048192771 6:0.1 7:0.1 8:0.553012048192771 9:0.1 10:0.5547645125958378 11:0.1 12:0.553012048192771 13:0.1 14:0.1 15:0.5547645125958378 16:0.1 17:0.5442497261774369 18:0.1 19:0.5547645125958378 20:0.1 21:0.1 22:0.553012048192771 23:0.1 24:0.548630887185104 25:0.1 26:0.1 27:0.5416210295728366 28:0.1 29:0.5398685651697699 30:0.1 
-1.0 1:0.553012048192771 2:0.1 3:0.553012048192771 4:0.1 5:0.1 6:0.553012048192771 7:0.1 8:0.5547645125958378 9:0.1 10:0.553012048192771 11:0.1 12:0.1 13:0.5547645125958378 14:0.1 15:0.5442497261774369 16:0.1 17:0.5547645125958378 18:0.1 19:0.1 20:0.553012048192771 21:0.1 22:0.548630887185104 23:0.1 24:0.1 25:0.5416210295728366 26:0.1 27:0.5398685651697699 28:0.1 29:0.5398685651697699 30:0.1 
0.4293899750543686 1:0.1 2:0.553012048192771 3:0.1 4:0.1 5:0.553012048192771 6:0.1 7:0.5547645125958378 8:0.1 9:0.553012048192771 10:0.1 11:0.1 12:0.5547645125958378 13:0.1 14:0.5442497261774369 15:0.1 16:0.5547645125958378 17:0.1 18:0.1 19:0.553012048192771 20:0.1 21:0.548630887185104 22:0.1 23:0.1 24:0.5416210295728366 25:0.1 26:0.5398685651697699 27:0.1 28:0.5398685651697699 29:0.1 30:0.1 
1.0 1:0.553012048192771 2:0.1 3:0.5547645125958378 4:0.1 5:0.553012048192771 6:0.1 7:0.1 8:0.5547645125958378 9:0.1 10:0.5442497261774369 11:0.1 12:0.5547645125958378 13:0.1 14:0.1 15:0.553012048192771 16:0.1 17:0.548630887185104 18:0.1 19:0.1 20:0.5416210295728366 21:0.1 22:0.5398685651697699 23:0.1 24:0.5398685651697699 25:0.1 26:0.1 27:0.5398685651697699 28:0.1 29:0.5381161007667031 30:0.1 
-1.0 1:0.1 2:0.5547645125958378 3:0.1 4:0.553012048192771 5:0.1 6:0.1 7:0.5547645125958378 8:0.1 9:0.5442497261774369 10:0.1 11:0.5547645125958378 12:0.1 13:0.1 14:0.553012048192771 15:0.1 16:0.548630887185104 17:0.1 18:0.1 19:0.5416210295728366 20:0.1 21:0.5398685651697699 22:0.1 23:0.5398685651697699 24:0.1 25:0.1 26:0.5398685651697699 27:0.1 28:0.5381161007667031 29:0.1 30:0.5381161007667031 
1.0 1:0.5547645125958378 2:0.1 3:0.553012048192771 4:0.1 5:0.1 6:0.5547645125958378 7:0.1 8:0.5442497261774369 9:0.1 10:0.5547645125958378 11:0.1 12:0.1 13:0.553012048192771 14:0.1 15:0.548630887185104 16:0.1 17:0.1 18:0.5416210295728366 19:0.1 20:0.5398685651697699 21:0.1 22:0.5398685651697699 23:0.1 24:0.1 25:0.5398685651697699 26:0.1 27:0.5381161007667031 28:0.1 29:0.5381161007667031 30:0.1 
-1.0 1:0.1 2:0.553012048192771 3:0.1 4:0.1 5:0.5547645125958378 6:0.1 7:0.5442497261774369 8:0.1 9:0.5547645125958378 10:0.1 11:0.1 12:0.553012048192771 13:0.1 14:0.548630887185104 15:0.1 16:0.1 17:0.5416210295728366 18:0.1 19:0.5398685651697699 20:0.1 21:0.5398685651697699 22:0.1 23:0.1 24:0.5398685651697699 25:0.1 26:0.5381161007667031 27:0.1 28:0.5381161007667031 29:0.1 30:0.5398685651697699 
-1.0 1:0.553012048192771 2:0.1 3:0.1 4:0.5547645125958378 5:0.1 6:0.5442497261774369 7:0.1 8:0.5547645125958378 9:0.1 10:0.1 11:0.553012048192771 12:0.1 13:0.548630887185104 14:0.1 15:0.1 16:0.5416210295728366 17:0.1 18:0.5398685651697699 19:0.1 20:0.5398685651697699 21:0.1 22:0.1 23:0.5398685651697699 24:0.1 25:0.5381161007667031 26:0.1 27:0.5381161007667031 28:0.1 29:0.5398685651697699 30:0.1 
-1.0 1:0.1 2:0.1 3:0.5547645125958378 4:0.1 5:0.5442497261774369 6:0.1 7:0.5547645125958378 8:0.1 9:0.1 10:0.553012048192771 11:0.1 12:0.548630887185104 13:0.1 14:0.1 15:0.5416210295728366 16:0.1 17:0.5398685651697699 18:0.1 19:0.5398685651697699 20:0.1 21:0.1 22:0.5398685651697699 23:0.1 24:0.5381161007667031 25:0.1 26:0.5381161007667031 27:0.1 28:0.5398685651697699 29:0.1 30:0.1 
-0.3586068391639318 1:0.1 2:0.5547645125958378 3:0.1 4:0.5442497261774369 5:0.1 6:0.5547645125958378 7:0.1 8:0.1 9:0.553012048192771 10:0.1 11:0.548630887185104 12:0.1 13:0.1 14:0.5416210295728366 15:0.1 16:0.5398685651697699 17:0.1 18:0.5398685651697699 19:0.1 20:0.1 21:0.5398685651697699 22:0.1 23:0.5381161007667031 24:0.1 25:0.5381161007667031 26:0.1 27:0.5398685651697699 28:0.1 29:0.1 30:0.1 
-1.0 1:0.5547645125958378 2:0.1 3:0.5442497261774369 4:0.1 5:0.5547645125958378 6:0.1 7:0.1 8:0.553012048192771 9:0.1 10:0.548630887185104 11:0.1 12:0.1 13:0.5416210295728366 14:0.1 15:0.5398685651697699 16:0.1 17:0.5398685651697699 18:0.1 19:0.1 20:0.5398685651697699 21:0.1 22:0.5381161007667031 23:0.1 24:0.5381161007667031 25:0.1 26:0.5398685651697699 27:0.1 28:0.1 29:0.1 30:0.1 
-1.0 1:0.5442497261774369 2:0.1 3:0.5547645125958378 4:0.1 5:0.1 6:0.553012048192771 7:0.1 8:0.548630887185104 9:0.1 10:0.1 11:0.5416210295728366 12:0.1 13:0.5398685651697699 14:0.1 15:0.5398685651697699 16:0.1 17:0.1 18:0.5398685651697699 19:0.1 20:0.5381161007667031 21:0.1 22:0.5381161007667031 23:0.1 24:0.5398685651697699 25:0.1 26:0.1 27:0.1 28:0.1 29:0.1 30:0.1 
-1.0 1:0.1 2:0.5547645125958378 3:0.1 4:0.1 5:0.553012048192771 6:0.1 7:0.548630887185104 8:0.1 9:0.1 10:0.5416210295728366 11:0.1 12:0.5398685651697699 13:0.1 14:0.5398685651697699 15:0.1 16:0.1 17:0.5398685651697699 18:0.1 19:0.5381161007667031 20:0.1 21:0.5381161007667031 22:0.1 23:0.5398685651697699 24:0.1 25:0.1 26:0.1 27:0.1 28:0.1 29:0.1 30:0.1 
-1.0 1:0.5547645125958378 2:0.1 3:0.1 4:0.553012048192771 5:0.1 6:0.548630887185104 7:0.1 8:0.1 9:0.5416210295728366 10:0.1 11:0.5398685651697699 12:0.1 13:0.5398685651697699 14:0.1 15:0.1 16:0.5398685651697699 17:0.1 18:0.5381161007667031 19:0.1 20:0.5381161007667031 21:0.1 22:0.5398685651697699 23:0.1 24:0.1 25:0.1 26:0.1 27:0.1 28:0.1 29:0.1 30:0.1 
-1.0 1:0.1 2:0.1 3:0.553012048192771 4:0.1 5:0.548630887185104 6:0.1 7:0.1 8:0.5416210295728366 9:0.1 10:0.5398685651697699 11:0.1 12:0.5398685651697699 13:0.1 14:0.1 15:0.5398685651697699 16:0.1 17:0.5381161007667031 18:0.1 19:0.5381161007667031 20:0.1 21:0.5398685651697699 22:0.1 23:0.1 24:0.1 25:0.1 26:0.1 27:0.1 28:0.1 29:0.1 30:0.1 
-0.4624295297804029 1:0.1 2:0.553012048192771 3:0.1 4:0.548630887185104 5:0.1 6:0.1 7:0.5416210295728366 8:0.1 9:0.5398685651697699 10:0.1 11:0.5398685651697699 12:0.1 13:0.1 14:0.5398685651697699 15:0.1 16:0.5381161007667031 17:0.1 18:0.5381161007667031 19:0.1 20:0.5398685651697699 21:0.1 22:0.1 23:0.1 24:0.1 25:0.1 26:0.1 27:0.1 28:0.1 29:0.1 30:0.1 
1.0 1:0.553012048192771 2:0.1 3:0.548630887185104 4:0.1 5:0.1 6:0.5416210295728366 7:0.1 8:0.5398685651697699 9:0.1 10:0.5398685651697699 11:0.1 12:0.1 13:0.5398685651697699 14:0.1 15:0.5381161007667031 16:0.1 17:0.5381161007667031 18:0.1 19:0.5398685651697699 20:0.1 21:0.1 22:0.1 23:0.1 24:0.1 25:0.1 26:0.1 27:0.1 28:0.1 29:0.1 30:0.1 
1.0 1:0.548630887185104 2:0.1 3:0.1 4:0.5416210295728366 5:0.1 6:0.5398685651697699 7:0.1 8:0.5398685651697699 9:0.1 10:0.1 11:0.5398685651697699 12:0.1 13:0.5381161007667031 14:0.1 15:0.5381161007667031 16:0.1 17:0.5398685651697699 18:0.1 19:0.1 20:0.1 21:0.1 22:0.1 23:0.1 24:0.1 25:0.1 26:0.1 27:0.1 28:0.1 29:0.5381161007667031 30:0.1 
1.0 1:0.1 2:0.5416210295728366 3:0.1 4:0.5398685651697699 5:0.1 6:0.5398685651697699 7:0.1 8:0.1 9:0.5398685651697699 10:0.1 11:0.5381161007667031 12:0.1 13:0.5381161007667031 14:0.1 15:0.5398685651697699 16:0.1 17:0.1 18:0.1 19:0.1 20:0.1 21:0.1 22:0.1 23:0.1 24:0.1 25:0.1 26:0.1 27:0.5381161007667031 28:0.1 29:0.5223439211391019 30:0.1 
-1.0 1:0.5416210295728366 2:0.1 3:0.5398685651697699 4:0.1 5:0.5398685651697699 6:0.1 7:0.1 8:0.5398685651697699 9:0.1 10:0.5381161007667031 11:0.1 12:0.5381161007667031 13:0.1 14:0.5398685651697699 15:0.1 16:0.1 17:0.1 18:0.1 19:0.1 20:0.1 21:0.1 22:0.1 23:0.1 24:0.1 25:0.1 26:0.5381161007667031 27:0.1 28:0.5223439211391019 29:0.1 30:0.5337349397590361 
-0.20340963152813168 1:0.1 2:0.5398685651697699 3:0.1 4:0.5398685651697699 5:0.1 6:0.1 7:0.5398685651697699 8:0.1 9:0.5381161007667031 10:0.1 11:0.5381161007667031 12:0.1 13:0.5398685651697699 14:0.1 15:0.1 16:0.1 17:0.1 18:0.1 19:0.1 20:0.1 21:0.1 22:0.1 23:0.1 24:0.1 25:0.5381161007667031 26:0.1 27:0.5223439211391019 28:0.1 29:0.5337349397590361 30:0.1 
0.2005762300439588 1:0.5398685651697699 2:0.1 3:0.5398685651697699 4:0.1 5:0.1 6:0.5398685651697699 7:0.1 8:0.5381161007667031 9:0.1 10:0.5381161007667031 11:0.1 12:0.5398685651697699 13:0.1 14:0.1 15:0.1 16:0.1 17:0.1 18:0.1 19:0.1 20:0.1 21:0.1 22:0.1 23:0.1 24:0.5381161007667031 25:0.1 26:0.5223439211391019 27:0.1 28:0.5337349397590361 29:0.1 30:0.1 
1.0 1:0.5398685651697699 2:0.1 3:0.1 4:0.5398685651697699 5:0.1 6:0.5381161007667031 7:0.1 8:0.5381161007667031 9:0.1 10:0.5398685651697699 11:0.1 12:0.1 13:0.1 14:0.1 15:0.1 16:0.1 17:0.1 18:0.1 19:0.1 20:0.1 21:0.1 22:0.5381161007667031 23:0.1 24:0.5223439211391019 25:0.1 26:0.5337349397590361 27:0.1 28:0.1 29:0.5337349397590361 30:0.1 
-1.0 1:0.1 2:0.5398685651697699 3:0.1 4:0.5381161007667031 5:0.1 6:0.5381161007667031 7:0.1 8:0.5398685651697699 9:0.1 10:0.1 11:0.1 12:0.1 13:0.1 14:0.1 15:0.1 16:0.1 17:0.1 18:0.1 19:0.1 20:0.5381161007667031 21:0.1 22:0.5223439211391019 23:0.1 24:0.5337349397590361 25:0.1 26:0.1 27:0.5337349397590361 28:0.1 29:0.5337349397590361 30:0.1 
-1.0 1:0.5398685651697699 2:0.1 3:0.5381161007667031 4:0.1 5:0.5381161007667031 6:0.1 7:0.5398685651697699 8:0.1 9:0.1 10:0.1 11:0.1 12:0.1 13:0.1 14:0.1 15:0.1 16:0.1 17:0.1 18:0.1 19:0.5381161007667031 20:0.1 21:0.5223439211391019 22:0.1 23:0.5337349397590361 24:0.1 25:0.1 26:0.5337349397590361 27:0.1 28:0.5337349397590361 29:0.1 30:0.1 
-1.0 1:0.5381161007667031 2:0.1 3:0.5381161007667031 4:0.1 5:0.5398685651697699 6:0.1 7:0.1 8:0.1 9:0.1 10:0.1 11:0.1 12:0.1 13:0.1 14:0.1 15:0.1 16:0.1 17:0.5381161007667031 18:0.1 19:0.5223439211391019 20:0.1 21:0.5337349397590361 22:0.1 23:0.1 24:0.5337349397590361 25:0.1 26:0.5337349397590361 27:0.1 28:0.1 29:0.1 30:0.1 
1.0 1:0.1 2:0.5381161007667031 3:0.1 4:0.5398685651697699 5:0.1 6:0.1 7:0.1 8:0.1 9:0.1 10:0.1 11:0.1 12:0.1 13:0.1 14:0.1 15:0.1 16:0.5381161007667031 17:0.1 18:0.5223439211391019 19:0.1 20:0.5337349397590361 21:0.1 22:0.1 23:0.5337349397590361 24:0.1 25:0.5337349397590361 26:0.1 27:0.1 28:0.1 29:0.1 30:0.1 
-0.02385189125661401 1:0.5381161007667031 2:0.1 3:0.5398685651697699 4:0.1 5:0.1 6:0.1 7:0.1 8:0.1 9:0.1 10:0.1 11:0.1 12:0.1 13:0.1 14:0.1 15:0.5381161007667031 16:0.1 17:0.5223439211391019 18:0.1 19:0.5337349397590361 20:0.1 21:0.1 22:0.5337349397590361 23:0.1 24:0.5337349397590361 25:0.1 26:0.1 27:0.1 28:0.1 29:0.1 30:0.535487404162103 
1.0 1:0.1 2:0.5398685651697699 3:0.1 4:0.1 5:0.1 6:0.1 7:0.1 8:0.1 9:0.1 10:0.1 11:0.1 12:0.1 13:0.1 14:0.5381161007667031 15:0.1 16:0.5223439211391019 17:0.1 18:0.5337349397590361 19:0.1 20:0.1 21:0.5337349397590361 22:0.1 23:0.5337349397590361 24:0.1 25:0.1 26:0.1 27:0.1 28:0.1 29:0.535487404162103 30:0.1 
-1.0 1:0.1 2:0.1 3:0.1 4:0.1 5:0.1 6:0.1 7:0.1 8:0.1 9:0.1 10:0.1 11:0.1 12:0.5381161007667031 13:0.1 14:0.5223439211391019 15:0.1 16:0.5337349397590361 17:0.1 18:0.1 19:0.5337349397590361 20:0.1 21:0.5337349397590361 22:0.1 23:0.1 24:0.1 25:0.1 26:0.1 27:0.535487404162103 28:0.1 29:0.5223439211391019 30:0.1 
-1.0 1:0.1 2:0.1 3:0.1 4:0.1 5:0.1 6:0.1 7:0.1 8:0.1 9:0.1 10:0.1 11:0.5381161007667031 12:0.1 13:0.5223439211391019 14:0.1 15:0.5337349397590361 16:0.1 17:0.1 18:0.5337349397590361 19:0.1 20:0.5337349397590361 21:0.1 22:0.1 23:0.1 24:0.1 25:0.1 26:0.535487404162103 27:0.1 28:0.5223439211391019 29:0.1 30:0.1 
1.0 1:0.1 2:0.1 3:0.1 4:0.1 5:0.1 6:0.1 7:0.1 8:0.1 9:0.5381161007667031 10:0.1 11:0.5223439211391019 12:0.1 13:0.5337349397590361 14:0.1 15:0.1 16:0.5337349397590361 17:0.1 18:0.5337349397590361 19:0.1 20:0.1 21:0.1 22:0.1 23:0.1 24:0.535487404162103 25:0.1 26:0.5223439211391019 27:0.1 28:0.1 29:0.1 30:0.1 
1.0 1:0.1 2:0.1 3:0.1 4:0.1 5:0.1 6:0.1 7:0.5381161007667031 8:0.1 9:0.5223439211391019 10:0.1 11:0.5337349397590361 12:0.1 13:0.1 14:0.5337349397590361 15:0.1 16:0.5337349397590361 17:0.1 18:0.1 19:0.1 20:0.1 21:0.1 22:0.535487404162103 23:0.1 24:0.5223439211391019 25:0.1 26:0.1 27:0.1 28:0.1 29:0.5311062431544359 30:0.1 
-1.0 1:0.1 2:0.1 3:0.1 4:0.1 5:0.5381161007667031 6:0.1 7:0.5223439211391019 8:0.1 9:0.5337349397590361 10:0.1 11:0.1 12:0.5337349397590361 13:0.1 14:0.5337349397590361 15:0.1 16:0.1 17:0.1 18:0.1 19:0.1 20:0.535487404162103 21:0.1 22:0.5223439211391019 23:0.1 24:0.1 25:0.1 26:0.1 27:0.5311062431544359 28:0.1 29:0.5223439211391019 30:0.1 
1.0 1:0.1 2:0.1 3:0.1 4:0.5381161007667031 5:0.1 6:0.5223439211391019 7:0.1 8:0.5337349397590361 9:0.1 10:0.1 11:0.5337349397590361 12:0.1 13:0.5337349397590361 14:0.1 15:0.1 16:0.1 17:0.1 18:0.1 19:0.535487404162103 20:0.1 21:0.5223439211391019 22:0.1 23:0.1 24:0.1 25:0.1 26:0.5311062431544359 27:0.1 28:0.5223439211391019 29:0.1 30:0.1 
-1.0 1:0.1 2:0.5381161007667031 3:0.1 4:0.5223439211391019 5:0.1 6:0.5337349397590361 7:0.1 8:0.1 9:0.5337349397590361 10:0.1 11:0.5337349397590361 12:0.1 13:0.1 14:0.1 15:0.1 16:0.1 17:0.535487404162103 18:0.1 19:0.5223439211391019 20:0.1 21:0.1 22:0.1 23:0.1 24:0.5311062431544359 25:0.1 26:0.5223439211391019 27:0.1 28:0.1 29:0.5337349397590361 30:0.1 
-1.0 1:0.5381161007667031 2:0.1 3:0.5223439211391019 4:0.1 5:0.5337349397590361 6:0.1 7:0.1 8:0.5337349397590361 9:0.1 10:0.5337349397590361 11:0.1 12:0.1 13:0.1 14:0.1 15:0.1 16:0.535487404162103 17:0.1 18:0.5223439211391019 19:0.1 20:0.1 21:0.1 22:0.1 23:0.5311062431544359 24:0.1 25:0.5223439211391019 26:0.1 27:0.1 28:0.5337349397590361 29:0.1 30:0.1 
-1.0 1:0.1 2:0.5223439211391019 3:0.1 4:0.5337349397590361 5:0.1 6:0.1 7:0.5337349397590361 8:0.1 9:0.5337349397590361 10:0.1 11:0.1 12:0.1 13:0.1 14:0.1 15:0.535487404162103 16:0.1 17:0.5223439211391019 18:0.1 19:0.1 20:0.1 21:0.1 22:0.5311062431544359 23:0.1 24:0.5223439211391019 25:0.1 26:0.1 27:0.5337349397590361 28:0.1 29:0.1 30:0.1 
1.0 1:0.5223439211391019 2:0.1 3:0.5337349397590361 4:0.1 5:0.1 6:0.5337349397590361 7:0.1 8:0.5337349397590361 9:0.1 10:0.1 11:0.1 12:0.1 13:0.1 14:0.535487404162103 15:0.1 16:0.5223439211391019 17:0.1 18:0.1 19:0.1 20:0.1 21:0.5311062431544359 22:0.1 23:0.5223439211391019 24:0.1 25:0.1 26:0.5337349397590361 27:0.1 28:0.1 29:0.1 30:0.1 
1.0 1:0.1 2:0.5337349397590361 3:0.1 4:0.1 5:0.5337349397590361 6:0.1 7:0.5337349397590361 8:0.1 9:0.1 10:0.1 11:0.1 12:0.1 13:0.535487404162103 14:0.1 15:0.5223439211391019 16:0.1 17:0.1 18:0.1 19:0.1 20:0.5311062431544359 21:0.1 22:0.5223439211391019 23:0.1 24:0.1 25:0.5337349397590361 26:0.1 27:0.1 28:0.1 29:0.1 30:0.5337349397590361 
1.0 1:0.5337349397590361 2:0.1 3:0.1 4:0.5337349397590361 5:0.1 6:0.5337349397590361 7:0.1 8:0.1 9:0.1 10:0.1 11:0.1 12:0.535487404162103 13:0.1 14:0.5223439211391019 15:0.1 16:0.1 17:0.1 18:0.1 19:0.5311062431544359 20:0.1 21:0.5223439211391019 22:0.1 23:0.1 24:0.5337349397590361 25:0.1 26:0.1 27:0.1 28:0.1 29:0.5337349397590361 30:0.1 
-1.0 1:0.1 2:0.5337349397590361 3:0.1 4:0.5337349397590361 5:0.1 6:0.1 7:0.1 8:0.1 9:0.1 10:0.535487404162103 11:0.1 12:0.5223439211391019 13:0.1 14:0.1 15:0.1 16:0.1 17:0.5311062431544359 18:0.1 19:0.5223439211391019 20:0.1 21:0.1 22:0.5337349397590361 23:0.1 24:0.1 25:0.1 26:0.1 27:0.5337349397590361 28:0.1 29:0.5205914567360351 30:0.1 
1.0 1:0.5337349397590361 2:0.1 3:0.5337349397590361 4:0.1 5:0.1 6:0.1 7:0.1 8:0.1 9:0.535487404162103 10:0.1 11:0.5223439211391019 12:0.1 13:0.1 14:0.1 15:0.1 16:0.5311062431544359 17:0.1 18:0.5223439211391019 19:0.1 20:0.1 21:0.5337349397590361 22:0.1 23:0.1 24:0.1 25:0.1 26:0.5337349397590361 27:0.1 28:0.5205914567360351 29:0.1 30:0.1 
-1.0 1:0.5337349397590361 2:0.1 3:0.1 4:0.1 5:0.1 6:0.1 7:0.535487404162103 8:0.1 9:0.5223439211391019 10:0.1 11:0.1 12:0.1 13:0.1 14:0.5311062431544359 15:0.1 16:0.5223439211391019 17:0.1 18:0.1 19:0.5337349397590361 20:0.1 21:0.1 22:0.1 23:0.1 24:0.5337349397590361 25:0.1 26:0.5205914567360351 27:0.1 28:0.1 29:0.5311062431544359 30:0.1 
-1.0 1:0.1 2:0.1 3:0.1 4:0.1 5:0.535487404162103 6:0.1 7:0.5223439211391019 8:0.1 9:0.1 10:0.1 11:0.1 12:0.5311062431544359 13:0.1 14:0.5223439211391019 15:0.1 16:0.1 17:0.5337349397590361 18:0.1 19:0.1 20:0.1 21:0.1 22:0.5337349397590361 23:0.1 24:0.5205914567360351 25:0.1 26:0.1 27:0.5311062431544359 28:0.1 29:0.1 30:0.1 
1.0 1:0.1 2:0.1 3:0.1 4:0.535487404162103 5:0.1 6:0.5223439211391019 7:0.1 8:0.1 9:0.1 10:0.1 11:0.5311062431544359 12:0.1 13:0.5223439211391019 14:0.1 15:0.1 16:0.5337349397590361 17:0.1 18:0.1 19:0.1 20:0.1 21:0.5337349397590361 22:0.1 23:0.5205914567360351 24:0.1 25:0.1 26:0.5311062431544359 27:0.1 28:0.1 29:0.1 30:0.1 
-1.0 1:0.1 2:0.535487404162103 3:0.1 4:0.5223439211391019 5:0.1 6:0.1 7:0.1 8:0.1 9:0.5311062431544359 10:0.1 11:0.5223439211391019 12:0.1 13:0.1 14:0.5337349397590361 15:0.1 16:0.1 17:0.1 18:0.1 19:0.5337349397590361 20:0.1 21:0.5205914567360351 22:0.1 23:0.1 24:0.5311062431544359 25:0.1 26:0.1 27:0.1 28:0.1 29:0.5223439211391019 30:0.1 
1.0 1:0.535487404162103 2:0.1 3:0.5223439211391019 4:0.1 5:0.1 6:0.1 7:0.1 8:0.5311062431544359 9:0.1 10:0.5223439211391019 11:0.1 12:0.1 13:0.5337349397590361 14:0.1 15:0.1 16:0.1 17:0.1 18:0.5337349397590361 19:0.1 20:0.5205914567360351 21:0.1 22:0.1 23:0.5311062431544359 24:0.1 25:0.1 26:0.1 27:0.1 28:0.5223439211391019 29:0.1 30:0.1 
1.0 1:0.1 2:0.1 3:0.1 4:0.5311062431544359 5:0.1 6:0.5223439211391019 7:0.1 8:0.1 9:0.5337349397590361 10:0.1 11:0.1 12:0.1 13:0.1 14:0.5337349397590361 15:0.1 16:0.5205914567360351 17:0.1 18:0.1 19:0.5311062431544359 20:0.1 21:0.1 22:0.1 23:0.1 24:0.5223439211391019 25:0.1 26:0.1 27:0.507447973713034 28:0.1 29:0.5223439211391019 30:0.1 
-1.0 1:0.5311062431544359 2:0.1 3:0.5223439211391019 4:0.1 5:0.1 6:0.5337349397590361 7:0.1 8:0.1 9:0.1 10:0.1 11:0.5337349397590361 12:0.1 13:0.5205914567360351 14:0.1 15:0.1 16:0.5311062431544359 17:0.1 18:0.1 19:0.1 20:0.1 21:0.5223439211391019 22:0.1 23:0.1 24:0.507447973713034 25:0.1 26:0.5223439211391019 27:0.1 28:0.5311062431544359 29:0.1 30:0.1 
1.0 1:0.5223439211391019 2:0.1 3:0.1 4:0.5337349397590361 5:0.1 6:0.1 7:0.1 8:0.1 9:0.5337349397590361 10:0.1 11:0.5205914567360351 12:0.1 13:0.1 14:0.5311062431544359 15:0.1 16:0.1 17:0.1 18:0.1 19:0.5223439211391019 20:0.1 21:0.1 22:0.507447973713034 23:0.1 24:0.5223439211391019 25:0.1 26:0.5311062431544359 27:0.1 28:0.1 29:0.1 30:0.1 
-1.0 1:0.1 2:0.5337349397590361 3:0.1 4:0.1 5:0.1 6:0.1 7:0.5337349397590361 8:0.1 9:0.5205914567360351 10:0.1 11:0.1 12:0.5311062431544359 13:0.1 14:0.1 15:0.1 16:0.1 17:0.5223439211391019 18:0.1 19:0.1 20:0.507447973713034 21:0.1 22:0.5223439211391019 23:0.1 24:0.5311062431544359 25:0.1 26:0.1 27:0.1 28:0.1 29:0.535487404162103 30:0.1 
1.0 1:0.5337349397590361 2:0.1 3:0.1 4:0.1 5:0.1 6:0.5337349397590361 7:0.1 8:0.5205914567360351 9:0.1 10:0.1 11:0.5311062431544359 12:0.1 13:0.1 14:0.1 15:0.1 16:0.5223439211391019 17:0.1 18:0.1 19:0.507447973713034 20:0.1 21:0.5223439211391019 22:0.1 23:0.5311062431544359 24:0.1 25:0.1 26:0.1 27:0.1 28:0.535487404162103 29:0.1 30:0.1 
-1.0 1:0.1 2:0.1 3:0.1 4:0.5337349397590361 5:0.1 6:0.5205914567360351 7:0.1 8:0.1 9:0.5311062431544359 10:0.1 11:0.1 12:0.1 13:0.1 14:0.5223439211391019 15:0.1 16:0.1 17:0.507447973713034 18:0.1 19:0.5223439211391019 20:0.1 21:0.5311062431544359 22:0.1 23:0.1 24:0.1 25:0.1 26:0.535487404162103 27:0.1 28:0.1 29:0.5293537787513691 30:0.1 
-1.0 1:0.1 2:0.5337349397590361 3:0.1 4:0.5205914567360351 5:0.1 6:0.1 7:0.5311062431544359 8:0.1 9:0.1 10:0.1 11:0.1 12:0.5223439211391019 13:0.1 14:0.1 15:0.507447973713034 16:0.1 17:0.5223439211391019 18:0.1 19:0.5311062431544359 20:0.1 21:0.1 22:0.1 23:0.1 24:0.535487404162103 25:0.1 26:0.1 27:0.5293537787513691 28:0.1 29:0.1 30:0.1 
1.0 1:0.5337349397590361 2:0.1 3:0.5205914567360351 4:0.1 5:0.1 6:0.5311062431544359 7:0.1 8:0.1 9:0.1 10:0.1 11:0.5223439211391019 12:0.1 13:0.1 14:0.507447973713034 15:0.1 16:0.5223439211391019 17:0.1 18:0.5311062431544359 19:0.1 20:0.1 21:0.1 22:0.1 23:0.535487404162103 24:0.1 25:0.1 26:0.5293537787513691 27:0.1 28:0.1 29:0.1 30:0.1 
-1.0 1:0.5205914567360351 2:0.1 3:0.1 4:0.5311062431544359 5:0.1 6:0.1 7:0.1 8:0.1 9:0.5223439211391019 10:0.1 11:0.1 12:0.507447973713034 13:0.1 14:0.5223439211391019 15:0.1 16:0.5311062431544359 17:0.1 18:0.1 19:0.1 20:0.1 21:0.535487404162103 22:0.1 23:0.1 24:0.5293537787513691 25:0.1 26:0.1 27:0.1 28:0.1 29:0.535487404162103 30:0.1 
1.0 1:0.1 2:0.1 3:0.5311062431544359 4:0.1 5:0.1 6:0.1 7:0.1 8:0.5223439211391019 9:0.1 10:0.1 11:0.507447973713034 12:0.1 13:0.5223439211391019 14:0.1 15:0.5311062431544359 16:0.1 17:0.1 18:0.1 19:0.1 20:0.535487404162103 21:0.1 22:0.1 23:0.5293537787513691 24:0.1 25:0.1 26:0.1 27:0.1 28:0.535487404162103 29:0.1 30:0.1 
0.8927457211693418 1:0.5311062431544359 2:0.1 3:0.1 4:0.1 5:0.1 6:0.5223439211391019 7:0.1 8:0.1 9:0.507447973713034 10:0.1 11:0.5223439211391019 12:0.1 13:0.5311062431544359 14:0.1 15:0.1 16:0.1 17:0.1 18:0.535487404162103 19:0.1 20:0.1 21:0.5293537787513691 22:0.1 23:0.1 24:0.1 25:0.1 26:0.535487404162103 27:0.1 28:0.1 29:0.5223439211391019 30:0.1 
1.0 1:0.1 2:0.1 3:0.1 4:0.5223439211391019 5:0.1 6:0.1 7:0.507447973713034 8:0.1 9:0.5223439211391019 10:0.1 11:0.5311062431544359 12:0.1 13:0.1 14:0.1 15:0.1 16:0.535487404162103 17:0.1 18:0.1 19:0.5293537787513691 20:0.1 21:0.1 22:0.1 23:0.1 24:0.535487404162103 25:0.1 26:0.1 27:0.5223439211391019 28:0.1 29:0.5311062431544359 30:0.1 
-1.0 1:0.5223439211391019 2:0.1 3:0.1 4:0.507447973713034 5:0.1 6:0.5223439211391019 7:0.1 8:0.5311062431544359 9:0.1 10:0.1 11:0.1 12:0.1 13:0.535487404162103 14:0.1 15:0.1 16:0.5293537787513691 17:0.1 18:0.1 19:0.1 20:0.1 21:0.535487404162103 22:0.1 23:0.1 24:0.5223439211391019 25:0.1 26:0.5311062431544359 27:0.1 28:0.535487404162103 29:0.1 30:0.1 
-1.0 1:0.1 2:0.507447973713034 3:0.1 4:0.5223439211391019 5:0.1 6:0.5311062431544359 7:0.1 8:0.1 9:0.1 10:0.1 11:0.535487404162103 12:0.1 13:0.1 14:0.5293537787513691 15:0.1 16:0.1 17:0.1 18:0.1 19:0.535487404162103 20:0.1 21:0.1 22:0.5223439211391019 23:0.1 24:0.5311062431544359 25:0.1 26:0.535487404162103 27:0.1 28:0.1 29:0.1 30:0.1 
1.0 1:0.507447973713034 2:0.1 3:0.5223439211391019 4:0.1 5:0.5311062431544359 6:0.1 7:0.1 8:0.1 9:0.1 10:0.535487404162103 11:0.1 12:0.1 13:0.5293537787513691 14:0.1 15:0.1 16:0.1 17:0.1 18:0.535487404162103 19:0.1 20:0.1 21:0.5223439211391019 22:0.1 23:0.5311062431544359 24:0.1 25:0.535487404162103 26:0.1 27:0.1 28:0.1 29:0.1 30:0.1 
0.9765125466150835 1:0.5223439211391019 2:0.1 3:0.5311062431544359 4:0.1 5:0.1 6:0.1 7:0.1 8:0.535487404162103 9:0.1 10:0.1 11:0.5293537787513691 12:0.1 13:0.1 14:0.1 15:0.1 16:0.535487404162103 17:0.1 18:0.1 19:0.5223439211391019 20:0.1 21:0.5311062431544359 22:0.1 23:0.535487404162103 24:0.1 25:0.1 26:0.1 27:0.1 28:0.1 29:0.5381161007667031 30:0.1 
1.0 1:0.5311062431544359 2:0.1 3:0.1 4:0.1 5:0.1 6:0.535487404162103 7:0.1 8:0.1 9:0.5293537787513691 10:0.1 11:0.1 12:0.1 13:0.1 14:0.535487404162103 15:0.1 16:0.1 17:0.5223439211391019 18:0.1 19:0.5311062431544359 20:0.1 21:0.535487404162103 22:0.1 23:0.1 24:0.1 25:0.1 26:0.1 27:0.5381161007667031 28:0.1 29:0.5223439211391019 30:0.1 
-0.512853039106414 1:0.1 2:0.1 3:0.1 4:0.535487404162103 5:0.1 6:0.1 7:0.5293537787513691 8:0.1 9:0.1 10:0.1 11:0.1 12:0.535487404162103 13:0.1 14:0.1 15:0.5223439211391019 16:0.1 17:0.5311062431544359 18:0.1 19:0.535487404162103 20:0.1 21:0.1 22:0.1 23:0.1 24:0.1 25:0.5381161007667031 26:0.1 27:0.5223439211391019 28:0.1 29:0.5311062431544359 30:0.1 
1.0 1:0.1 2:0.1 3:0.535487404162103 4:0.1 5:0.1 6:0.5293537787513691 7:0.1 8:0.1 9:0.1 10:0.1 11:0.535487404162103 12:0.1 13:0.1 14:0.5223439211391019 15:0.1 16:0.5311062431544359 17:0.1 18:0.535487404162103 19:0.1 20:0.1 21:0.1 22:0.1 23:0.1 24:0.5381161007667031 25:0.1 26:0.5223439211391019 27:0.1 28:0.5311062431544359 29:0.1 30:0.1 
0.47096706899093393 1:0.535487404162103 2:0.1 3:0.1 4:0.5293537787513691 5:0.1 6:0.1 7:0.1 8:0.1 9:0.535487404162103 10:0.1 11:0.1 12:0.5223439211391019 13:0.1 14:0.5311062431544359 15:0.1 16:0.535487404162103 17:0.1 18:0.1 19:0.1 20:0.1 21:0.1 22:0.5381161007667031 23:0.1 24:0.5223439211391019 25:0.1 26:0.5311062431544359 27:0.1 28:0.1 29:0.5337349397590361 30:0.1 
1.0 1:0.1 2:0.5293537787513691 3:0.1 4:0.1 5:0.1 6:0.1 7:0.535487404162103 8:0.1 9:0.1 10:0.5223439211391019 11:0.1 12:0.5311062431544359 13:0.1 14:0.535487404162103 15:0.1 16:0.1 17:0.1 18:0.1 19:0.1 20:0.5381161007667031 21:0.1 22:0.5223439211391019 23:0.1 24:0.5311062431544359 25:0.1 26:0.1 27:0.5337349397590361 28:0.1 29:0.5337349397590361 30:0.1 
-1.0 1:0.5293537787513691 2:0.1 3:0.1 4:0.1 5:0.1 6:0.535487404162103 7:0.1 8:0.1 9:0.5223439211391019 10:0.1 11:0.5311062431544359 12:0.1 13:0.535487404162103 14:0.1 15:0.1 16:0.1 17:0.1 18:0.1 19:0.5381161007667031 20:0.1 21:0.5223439211391019 22:0.1 23:0.5311062431544359 24:0.1 25:0.1 26:0.5337349397590361 27:0.1 28:0.5337349397590361 29:0.1 30:0.535487404162103 
1.0 1:0.1 2:0.1 3:0.1 4:0.535487404162103 5:0.1 6:0.1 7:0.5223439211391019 8:0.1 9:0.5311062431544359 10:0.1 11:0.535487404162103 12:0.1 13:0.1 14:0.1 15:0.1 16:0.1 17:0.5381161007667031 18:0.1 19:0.5223439211391019 20:0.1 21:0.5311062431544359 22:0.1 23:0.1 24:0.5337349397590361 25:0.1 26:0.5337349397590361 27:0.1 28:0.535487404162103 29:0.1 30:0.1 
1.0 1:0.1 2:0.535487404162103 3:0.1 4:0.1 5:0.5223439211391019 6:0.1 7:0.5311062431544359 8:0.1 9:0.535487404162103 10:0.1 11:0.1 12:0.1 13:0.1 14:0.1 15:0.5381161007667031 16:0.1 17:0.5223439211391019 18:0.1 19:0.5311062431544359 20:0.1 21:0.1 22:0.5337349397590361 23:0.1 24:0.5337349397590361 25:0.1 26:0.535487404162103 27:0.1 28:0.1 29:0.5337349397590361 30:0.1 
1.0 1:0.1 2:0.1 3:0.5223439211391019 4:0.1 5:0.5311062431544359 6:0.1 7:0.535487404162103 8:0.1 9:0.1 10:0.1 11:0.1 12:0.1 13:0.5381161007667031 14:0.1 15:0.5223439211391019 16:0.1 17:0.5311062431544359 18:0.1 19:0.1 20:0.5337349397590361 21:0.1 22:0.5337349397590361 23:0.1 24:0.535487404162103 25:0.1 26:0.1 27:0.5337349397590361 28:0.1 29:0.5337349397590361 30:0.1 
-1.0 1:0.1 2:0.5223439211391019 3:0.1 4:0.5311062431544359 5:0.1 6:0.535487404162103 7:0.1 8:0.1 9:0.1 10:0.1 11:0.1 12:0.5381161007667031 13:0.1 14:0.5223439211391019 15:0.1 16:0.5311062431544359 17:0.1 18:0.1 19:0.5337349397590361 20:0.1 21:0.5337349397590361 22:0.1 23:0.535487404162103 24:0.1 25:0.1 26:0.5337349397590361 27:0.1 28:0.5337349397590361 29:0.1 30:0.5381161007667031 
-1.0 1:0.5223439211391019 2:0.1 3:0.5311062431544359 4:0.1 5:0.535487404162103 6:0.1 7:0.1 8:0.1 9:0.1 10:0.1 11:0.5381161007667031 12:0.1 13:0.5223439211391019 14:0.1 15:0.5311062431544359 16:0.1 17:0.1 18:0.5337349397590361 19:0.1 20:0.5337349397590361 21:0.1 22:0.535487404162103 23:0.1 24:0.1 25:0.5337349397590361 26:0.1 27:0.5337349397590361 28:0.1 29:0.5381161007667031 30:0.1 
1.0 1:0.1 2:0.5311062431544359 3:0.1 4:0.535487404162103 5:0.1 6:0.1 7:0.1 8:0.1 9:0.1 10:0.5381161007667031 11:0.1 12:0.5223439211391019 13:0.1 14:0.5311062431544359 15:0.1 16:0.1 17:0.5337349397590361 18:0.1 19:0.5337349397590361 20:0.1 21:0.535487404162103 22:0.1 23:0.1 24:0.5337349397590361 25:0.1 26:0.5337349397590361 27:0.1 28:0.5381161007667031 29:0.1 30:0.1 
-1.0 1:0.1 2:0.535487404162103 3:0.1 4:0.1 5:0.1 6:0.1 7:0.1 8:0.5381161007667031 9:0.1 10:0.5223439211391019 11:0.1 12:0.5311062431544359 13:0.1 14:0.1 15:0.5337349397590361 16:0.1 17:0.5337349397590361 18:0.1 19:0.535487404162103 20:0.1 21:0.1 22:0.5337349397590361 23:0.1 24:0.5337349397590361 25:0.1 26:0.5381161007667031 27:0.1 28:0.1 29:0.5337349397590361 30:0.1 
1.0 1:0.535487404162103 2:0.1 3:0.1 4:0.1 5:0.1 6:0.1 7:0.5381161007667031 8:0.1 9:0.5223439211391019 10:0.1 11:0.5311062431544359 12:0.1 13:0.1 14:0.5337349397590361 15:0.1 16:0.5337349397590361 17:0.1 18:0.535487404162103 19:0.1 20:0.1 21:0.5337349397590361 22:0.1 23:0.5337349397590361 24:0.1 25:0.5381161007667031 26:0.1 27:0.1 28:0.5337349397590361 29:0.1 30:0.1 
0.8115890166601509 1:0.1 2:0.1 3:0.1 4:0.1 5:0.5381161007667031 6:0.1 7:0.5223439211391019 8:0.1 9:0.5311062431544359 10:0.1 11:0.1 12:0.5337349397590361 13:0.1 14:0.5337349397590361 15:0.1 16:0.535487404162103 17:0.1 18:0.1 19:0.5337349397590361 20:0.1 21:0.5337349397590361 22:0.1 23:0.5381161007667031 24:0.1 25:0.1 26:0.5337349397590361 27:0.1 28:0.1 29:0.5311062431544359 30:0.1 
-1.0 1:0.1 2:0.1 3:0.5381161007667031 4:0.1 5:0.5223439211391019 6:0.1 7:0.5311062431544359 8:0.1 9:0.1 10:0.5337349397590361 11:0.1 12:0.5337349397590361 13:0.1 14:0.535487404162103 15:0.1 16:0.1 17:0.5337349397590361 18:0.1 19:0.5337349397590361 20:0.1 21:0.5381161007667031 22:0.1 23:0.1 24:0.5337349397590361 25:0.1 26:0.1 27:0.5311062431544359 28:0.1 29:0.535487404162103 30:0.1 
1.0 1:0.1 2:0.5381161007667031 3:0.1 4:0.5223439211391019 5:0.1 6:0.5311062431544359 7:0.1 8:0.1 9:0.5337349397590361 10:0.1 11:0.5337349397590361 12:0.1 13:0.535487404162103 14:0.1 15:0.1 16:0.5337349397590361 17:0.1 18:0.5337349397590361 19:0.1 20:0.5381161007667031 21:0.1 22:0.1 23:0.5337349397590361 24:0.1 25:0.1 26:0.5311062431544359 27:0.1 28:0.535487404162103 29:0.1 30:0.1 
-1.0 1:0.1 2:0.5223439211391019 3:0.1 4:0.5311062431544359 5:0.1 6:0.1 7:0.5337349397590361 8:0.1 9:0.5337349397590361 10:0.1 11:0.535487404162103 12:0.1 13:0.1 14:0.5337349397590361 15:0.1 16:0.5337349397590361 17:0.1 18:0.5381161007667031 19:0.1 20:0.1 21:0.5337349397590361 22:0.1 23:0.1 24:0.5311062431544359 25:0.1 26:0.535487404162103 27:0.1 28:0.1 29:0.5337349397590361 30:0.1 
-1.0 1:0.5223439211391019 2:0.1 3:0.5311062431544359 4:0.1 5:0.1 6:0.5337349397590361 7:0.1 8:0.5337349397590361 9:0.1 10:0.535487404162103 11:0.1 12:0.1 13:0.5337349397590361 14:0.1 15:0.5337349397590361 16:0.1 17:0.5381161007667031 18:0.1 19:0.1 20:0.5337349397590361 21:0.1 22:0.1 23:0.5311062431544359 24:0.1 25:0.535487404162103 26:0.1 27:0.1 28:0.5337349397590361 29:0.1 30:0.1 
-1.0 1:0.1 2:0.5311062431544359 3:0.1 4:0.1 5:0.5337349397590361 6:0.1 7:0.5337349397590361 8:0.1 9:0.535487404162103 10:0.1 11:0.1 12:0.5337349397590361 13:0.1 14:0.5337349397590361 15:0.1 16:0.5381161007667031 17:0.1 18:0.1 19:0.5337349397590361 20:0.1 21:0.1 22:0.5311062431544359 23:0.1 24:0.535487404162103 25:0.1 26:0.1 27:0.5337349397590361 28:0.1 29:0.1 30:0.1 
-1.0 1:0.5311062431544359 2:0.1 3:0.1 4:0.5337349397590361 5:0.1 6:0.5337349397590361 7:0.1 8:0.535487404162103 9:0.1 10:0.1 11:0.5337349397590361 12:0.1 13:0.5337349397590361 14:0.1 15:0.5381161007667031 16:0.1 17:0.1 18:0.5337349397590361 19:0.1 20:0.1 21:0.5311062431544359 22:0.1 23:0.535487404162103 24:0.1 25:0.1 26:0.5337349397590361 27:0.1 28:0.1 29:0.1 30:0.1 
-1.0 1:0.1 2:0.5337349397590361 3:0.1 4:0.5337349397590361 5:0.1 6:0.535487404162103 7:0.1 8:0.1 9:0.5337349397590361 10:0.1 11:0.5337349397590361 12:0.1 13:0.5381161007667031 14:0.1 15:0.1 16:0.5337349397590361 17:0.1 18:0.1 19:0.5311062431544359 20:0.1 21:0.535487404162103 22:0.1 23:0.1 24:0.5337349397590361 25:0.1 26:0.1 27:0.1 28:0.1 29:0.1 30:0.1 
-1.0 1:0.5337349397590361 2:0.1 3:0.5337349397590361 4:0.1 5:0.535487404162103 6:0.1 7:0.1 8:0.5337349397590361 9:0.1 10:0.5337349397590361 11:0.1 12:0.5381161007667031 13:0.1 14:0.1 15:0.5337349397590361 16:0.1 17:0.1 18:0.5311062431544359 19:0.1 20:0.535487404162103 21:0.1 22:0.1 23:0.5337349397590361 24:0.1 25:0.1 26:0.1 27:0.1 28:0.1 29:0.1 30:0.1 
-1.0 1:0.5337349397590361 2:0.1 3:0.535487404162103 4:0.1 5:0.1 6:0.5337349397590361 7:0.1 8:0.5337349397590361 9:0.1 10:0.5381161007667031 11:0.1 12:0.1 13:0.5337349397590361 14:0.1 15:0.1 16:0.5311062431544359 17:0.1 18:0.535487404162103 19:0.1 20:0.1 21:0.5337349397590361 22:0.1 23:0.1 24:0.1 25:0.1 26:0.1 27:0.1 28:0.1 29:0.1 30:0.1 
1.0 1:0.1 2:0.535487404162103 3:0.1 4:0.1 5:0.5337349397590361 6:0.1 7:0.5337349397590361 8:0.1 9:0.5381161007667031 10:0.1 11:0.1 12:0.5337349397590361 13:0.1 14:0.1 15:0.5311062431544359 16:0.1 17:0.535487404162103 18:0.1 19:0.1 20:0.5337349397590361 21:0.1 22:0.1 23:0.1 24:0.1 25:0.1 26:0.1 27:0.1 28:0.1 29:0.1 30:0.1 
1.0 1:0.1 2:0.1 3:0.5337349397590361 4:0.1 5:0.5337349397590361 6:0.1 7:0.5381161007667031 8:0.1 9:0.1 10:0.5337349397590361 11:0.1 12:0.1 13:0.5311062431544359 14:0.1 15:0.535487404162103 16:0.1 17:0.1 18:0.5337349397590361 19:0.1 20:0.1 21:0.1 22:0.1 23:0.1 24:0.1 25:0.1 26:0.1 27:0.1 28:0.1 29:0.535487404162103 30:0.1 
-1.0 1:0.5337349397590361 2:0.1 3:0.5337349397590361 4:0.1 5:0.5381161007667031 6:0.1 7:0.1 8:0.5337349397590361 9:0.1 10:0.1 11:0.5311062431544359 12:0.1 13:0.535487404162103 14:0.1 15:0.1 16:0.5337349397590361 17:0.1 18:0.1 19:0.1 20:0.1 21:0.1 22:0.1 23:0.1 24:0.1 25:0.1 26:0.1 27:0.535487404162103 28:0.1 29:0.5205914567360351 30:0.1 
1.0 1:0.1 2:0.5337349397590361 3:0.1 4:0.5381161007667031 5:0.1 6:0.1 7:0.5337349397590361 8:0.1 9:0.1 10:0.5311062431544359 11:0.1 12:0.535487404162103 13:0.1 14:0.1 15:0.5337349397590361 16:0.1 17:0.1 18:0.1 19:0.1 20:0.1 21:0.1 22:0.1 23:0.1 24:0.1 25:0.1 26:0.535487404162103 27:0.1 28:0.5205914567360351 29:0.1 30:0.1 
0.33346844761158106 1:0.1 2:0.5381161007667031 3:0.1 4:0.1 5:0.5337349397590361 6:0.1 7:0.1 8:0.5311062431544359 9:0.1 10:0.535487404162103 11:0.1 12:0.1 13:0.5337349397590361 14:0.1 15:0.1 16:0.1 17:0.1 18:0.1 19:0.1 20:0.1 21:0.1 22:0.1 23:0.1 24:0.535487404162103 25:0.1 26:0.5205914567360351 27:0.1 28:0.1 29:0.5293537787513691 30:0.1 
1.0 1:0.1 2:0.1 3:0.5337349397590361 4:0.1 5:0.1 6:0.5311062431544359 7:0.1 8:0.535487404162103 9:0.1 10:0.1 11:0.5337349397590361 12:0.1 13:0.1 14:0.1 15:0.1 16:0.1 17:0.1 18:0.1 19:0.1 20:0.1 21:0.1 22:0.535487404162103 23:0.1 24:0.5205914567360351 25:0.1 26:0.1 27:0.5293537787513691 28:0.1 29:0.5311062431544359 30:0.1 
-0.9638913648470584 1:0.1 2:0.5337349397590361 3:0.1 4:0.1 5:0.5311062431544359 6:0.1 7:0.535487404162103 8:0.1 9:0.1 10:0.5337349397590361 11:0.1 12:0.1 13:0.1 14:0.1 15:0.1 16:0.1 17:0.1 18:0.1 19:0.1 20:0.1 21:0.535487404162103 22:0.1 23:0.5205914567360351 24:0.1 25:0.1 26:0.5293537787513691 27:0.1 28:0.5311062431544359 29:0.1 30:0.5311062431544359 
1.0 1:0.1 2:0.1 3:0.5311062431544359 4:0.1 5:0.535487404162103 6:0.1 7:0.1 8:0.5337349397590361 9:0.1 10:0.1 11:0.1 12:0.1 13:0.1 14:0.1 15:0.1 16:0.1 17:0.1 18:0.1 19:0.535487404162103 20:0.1 21:0.5205914567360351 22:0.1 23:0.1 24:0.5293537787513691 25:0.1 26:0.5311062431544359 27:0.1 28:0.5311062431544359 29:0.1 30:0.1 
1.0 1:0.1 2:0.5311062431544359 3:0.1 4:0.535487404162103 5:0.1 6:0.1 7:0.5337349397590361 8:0.1 9:0.1 10:0.1 11:0.1 12:0.1 13:0.1 14:0.1 15:0.1 16:0.1 17:0.1 18:0.535487404162103 19:0.1 20:0.5205914567360351 21:0.1 22:0.1 23:0.5293537787513691 24:0.1 25:0.5311062431544359 26:0.1 27:0.5311062431544359 28:0.1 29:0.1 30:0.5311062431544359 
1.0 1:0.535487404162103 2:0.1 3:0.1 4:0.5337349397590361 5:0.1 6:0.1 7:0.1 8:0.1 9:0.1 10:0.1 11:0.1 12:0.1 13:0.1 14:0.1 15:0.535487404162103 16:0.1 17:0.5205914567360351 18:0.1 19:0.1 20:0.5293537787513691 21:0.1 22:0.5311062431544359 23:0.1 24:0.5311062431544359 25:0.1 26:0.1 27:0.5311062431544359 28:0.1 29:0.5311062431544359 30:0.1 
-1.0 1:0.1 2:0.1 3:0.5337349397590361 4:0.1 5:0.1 6:0.1 7:0.1 8:0.1 9:0.1 10:0.1 11:0.1 12:0.1 13:0.1 14:0.535487404162103 15:0.1 16:0.5205914567360351 17:0.1 18:0.1 19:0.5293537787513691 20:0.1 21:0.5311062431544359 22:0.1 23:0.5311062431544359 24:0.1 25:0.1 26:0.5311062431544359 27:0.1 28:0.5311062431544359 29:0.1 30:0.535487404162103 
1.0 1:0.5337349397590361 2:0.1 3:0.1 4:0.1 5:0.1 6:0.1 7:0.1 8:0.1 9:0.1 10:0.1 11:0.1 12:0.535487404162103 13:0.1 14:0.5205914567360351 15:0.1 16:0.1 17:0.5293537787513691 18:0.1 19:0.5311062431544359 20:0.1 21:0.5311062431544359 22:0.1 23:0.1 24:0.5311062431544359 25:0.1 26:0.5311062431544359 27:0.1 28:0.535487404162103 29:0.1 30:0.1 
-1.0 1:0.1 2:0.1 3:0.1 4:0.1 5:0.1 6:0.1 7:0.1 8:0.1 9:0.1 10:0.535487404162103 11:0.1 12:0.5205914567360351 13:0.1 14:0.1 15:0.5293537787513691 16:0.1 17:0.5311062431544359 18:0.1 19:0.5311062431544359 20:0.1 21:0.1 22:0.5311062431544359 23:0.1 24:0.5311062431544359 25:0.1 26:0.535487404162103 27:0.1 28:0.1 29:0.5337349397590361 30:0.1 
-1.0 1:0.1 2:0.1 3:0.1 4:0.1 5:0.1 6:0.1 7:0.1 8:0.1 9:0.535487404162103 10:0.1 11:0.5205914567360351 12:0.1 13:0.1 14:0.5293537787513691 15:0.1 16:0.5311062431544359 17:0.1 18:0.5311062431544359 19:0.1 20:0.1 21:0.5311062431544359 22:0.1 23:0.5311062431544359 24:0.1 25:0.535487404162103 26:0.1 27:0.1 28:0.5337349397590361 29:0.1 30:0.1 
-1.0 1:0.1 2:0.1 3:0.1 4:0.1 5:0.1 6:0.1 7:0.1 8:0.535487404162103 9:0.1 10:0.5205914567360351 11:0.1 12:0.1 13:0.5293537787513691 14:0.1 15:0.5311062431544359 16:0.1 17:0.5311062431544359 18:0.1 19:0.1 20:0.5311062431544359 21:0.1 22:0.5311062431544359 23:0.1 24:0.535487404162103 25:0.1 26:0.1 27:0.5337349397590361 28:0.1 29:0.1 30:0.1 
1.0 1:0.1 2:0.1 3:0.1 4:0.1 5:0.1 6:0.1 7:0.535487404162103 8:0.1 9:0.5205914567360351 10:0.1 11:0.1 12:0.5293537787513691 13:0.1 14:0.5311062431544359 15:0.1 16:0.5311062431544359 17:0.1 18:0.1 19:0.5311062431544359 20:0.1 21:0.5311062431544359 22:0.1 23:0.535487404162103 24:0.1 25:0.1 26:0.5337349397590361 27:0.1 28:0.1 29:0.1 30:0.1 
1.0 1:0.1 2:0.1 3:0.535487404162103 4:0.1 5:0.5205914567360351 6:0.1 7:0.1 8:0.5293537787513691 9:0.1 10:0.5311062431544359 11:0.1 12:0.5311062431544359 13:0.1 14:0.1 15:0.5311062431544359 16:0.1 17:0.5311062431544359 18:0.1 19:0.535487404162103 20:0.1 21:0.1 22:0.5337349397590361 23:0.1 24:0.1 25:0.1 26:0.1 27:0.5337349397590361 28:0.1 29:0.5205914567360351 30:0.1 
-1.0 1:0.1 2:0.535487404162103 3:0.1 4:0.5205914567360351 5:0.1 6:0.1 7:0.5293537787513691 8:0.1 9:0.5311062431544359 10:0.1 11:0.5311062431544359 12:0.1 13:0.1 14:0.5311062431544359 15:0.1 16:0.5311062431544359 17:0.1 18:0.535487404162103 19:0.1 20:0.1 21:0.5337349397590361 22:0.1 23:0.1 24:0.1 25:0.1 26:0.5337349397590361 27:0.1 28:0.5205914567360351 29:0.1 30:0.5293537787513691 
-1.0 1:0.535487404162103 2:0.1 3:0.5205914567360351 4:0.1 5:0.1 6:0.5293537787513691 7:0.1 8:0.5311062431544359 9:0.1 10:0.5311062431544359 11:0.1 12:0.1 13:0.5311062431544359 14:0.1 15:0.5311062431544359 16:0.1 17:0.535487404162103 18:0.1 19:0.1 20:0.5337349397590361 21:0.1 22:0.1 23:0.1 24:0.1 25:0.5337349397590361 26:0.1 27:0.5205914567360351 28:0.1 29:0.5293537787513691 30:0.1 
1.0 1:0.1 2:0.5205914567360351 3:0.1 4:0.1 5:0.5293537787513691 6:0.1 7:0.5311062431544359 8:0.1 9:0.5311062431544359 10:0.1 11:0.1 12:0.5311062431544359 13:0.1 14:0.5311062431544359 15:0.1 16:0.535487404162103 17:0.1 18:0.1 19:0.5337349397590361 20:0.1 21:0.1 22:0.1 23:0.1 24:0.5337349397590361 25:0.1 26:0.5205914567360351 27:0.1 28:0.5293537787513691 29:0.1 30:0.1 
1.0 1:0.1 2:0.1 3:0.5293537787513691 4:0.1 5:0.5311062431544359 6:0.1 7:0.5311062431544359 8:0.1 9:0.1 10:0.5311062431544359 11:0.1 12:0.5311062431544359 13:0.1 14:0.535487404162103 15:0.1 16:0.1 17:0.5337349397590361 18:0.1 19:0.1 20:0.1 21:0.1 22:0.5337349397590361 23:0.1 24:0.5205914567360351 25:0.1 26:0.5293537787513691 27:0.1 28:0.1 29:0.5337349397590361 30:0.1 
1.0 1:0.5293537787513691 2:0.1 3:0.5311062431544359 4:0.1 5:0.5311062431544359 6:0.1 7:0.1 8:0.5311062431544359 9:0.1 10:0.5311062431544359 11:0.1 12:0.535487404162103 13:0.1 14:0.1 15:0.5337349397590361 16:0.1 17:0.1 18:0.1 19:0.1 20:0.5337349397590361 21:0.1 22:0.5205914567360351 23:0.1 24:0.5293537787513691 25:0.1 26:0.1 27:0.5337349397590361 28:0.1 29:0.5311062431544359 30:0.1 
-1.0 1:0.5311062431544359 2:0.1 3:0.5311062431544359 4:0.1 5:0.1 6:0.5311062431544359 7:0.1 8:0.5311062431544359 9:0.1 10:0.535487404162103 11:0.1 12:0.1 13:0.5337349397590361 14:0.1 15:0.1 16:0.1 17:0.1 18:0.5337349397590361 19:0.1 20:0.5205914567360351 21:0.1 22:0.5293537787513691 23:0.1 24:0.1 25:0.5337349397590361 26:0.1 27:0.5311062431544359 28:0.1 29:0.5337349397590361 30:0.1 
1.0 1:0.1 2:0.5311062431544359 3:0.1 4:0.1 5:0.5311062431544359 6:0.1 7:0.5311062431544359 8:0.1 9:0.535487404162103 10:0.1 11:0.1 12:0.5337349397590361 13:0.1 14:0.1 15:0.1 16:0.1 17:0.5337349397590361 18:0.1 19:0.5205914567360351 20:0.1 21:0.5293537787513691 22:0.1 23:0.1 24:0.5337349397590361 25:0.1 26:0.5311062431544359 27:0.1 28:0.5337349397590361 29:0.1 30:0.1 
