encog,SVM,java,3.1.0,1,1400211629755
[SVM]
[SVM:PARAMS]
[SVM:SVM-PARAM]
inputCount=30
C=1
cacheSize=100
coef0=0
degree=3
eps=0.001
gamma=0.0333333333
kernelType=2
nrWeight=0
nu=0.5
p=0.1
probability=0
shrinking=1
svmType=3
weight=
weightLabel=
[SVM:SVM-MODEL]
svm_type epsilon_svr
kernel_type rbf
gamma 0.03333333333333333
nr_class 2
total_sv 171
rho -0.4713669456138321
SV
-1.0 1:0.49835390946502056 2:0.3897119341563786 3:0.3436213991769548 4:0.5872427983539095 5:0.2909465020576132 6:0.42592592592592593 7:0.4555555555555556 8:0.5872427983539095 9:0.3074074074074074 10:0.13621399176954735 11:0.10987654320987655 12:0.5872427983539095 13:0.1 14:0.1131687242798354 15:0.16584362139917697 16:0.5872427983539095 17:0.18559670781893006 18:0.1263374485596708 19:0.1131687242798354 20:0.13950617283950617 21:0.5872427983539095 22:0.2777777777777778 23:0.4325102880658437 24:0.6465020576131687 25:0.5872427983539095 26:0.6432098765432099 27:0.5905349794238683 28:0.4390946502057613 29:0.5872427983539095 30:0.3699588477366256 
-1.0 1:0.3897119341563786 2:0.3436213991769548 3:0.5872427983539095 4:0.2909465020576132 5:0.42592592592592593 6:0.4555555555555556 7:0.5872427983539095 8:0.3074074074074074 9:0.13621399176954735 10:0.10987654320987655 11:0.5872427983539095 12:0.1 13:0.1131687242798354 14:0.16584362139917697 15:0.5872427983539095 16:0.18559670781893006 17:0.1263374485596708 18:0.1131687242798354 19:0.13950617283950617 20:0.5872427983539095 21:0.2777777777777778 22:0.4325102880658437 23:0.6465020576131687 24:0.5872427983539095 25:0.6432098765432099 26:0.5905349794238683 27:0.4390946502057613 28:0.5872427983539095 29:0.3699588477366256 30:0.34691358024691354 
-0.1604669837944845 1:0.42592592592592593 2:0.4555555555555556 3:0.5872427983539095 4:0.3074074074074074 5:0.13621399176954735 6:0.10987654320987655 7:0.5872427983539095 8:0.1 9:0.1131687242798354 10:0.16584362139917697 11:0.5872427983539095 12:0.18559670781893006 13:0.1263374485596708 14:0.1131687242798354 15:0.13950617283950617 16:0.5872427983539095 17:0.2777777777777778 18:0.4325102880658437 19:0.6465020576131687 20:0.5872427983539095 21:0.6432098765432099 22:0.5905349794238683 23:0.4390946502057613 24:0.5872427983539095 25:0.3699588477366256 26:0.34691358024691354 27:0.3008230452674897 28:0.5872427983539095 29:0.317283950617284 30:0.3106995884773663 
1.0 1:0.5872427983539095 2:0.2777777777777778 3:0.4325102880658437 4:0.6465020576131687 5:0.5872427983539095 6:0.6432098765432099 7:0.5905349794238683 8:0.4390946502057613 9:0.5872427983539095 10:0.3699588477366256 11:0.34691358024691354 12:0.3008230452674897 13:0.5872427983539095 14:0.317283950617284 15:0.3106995884773663 16:0.3008230452674897 17:0.5872427983539095 18:0.3436213991769548 19:0.39958847736625513 20:0.402880658436214 21:0.5872427983539095 22:0.38312757201646097 23:0.3930041152263375 24:0.39629629629629626 25:0.5872427983539095 26:0.402880658436214 27:0.4555555555555556 28:0.4588477366255145 29:0.5872427983539095 30:0.5378600823045268 
1.0 1:0.2777777777777778 2:0.4325102880658437 3:0.6465020576131687 4:0.5872427983539095 5:0.6432098765432099 6:0.5905349794238683 7:0.4390946502057613 8:0.5872427983539095 9:0.3699588477366256 10:0.34691358024691354 11:0.3008230452674897 12:0.5872427983539095 13:0.317283950617284 14:0.3106995884773663 15:0.3008230452674897 16:0.5872427983539095 17:0.3436213991769548 18:0.39958847736625513 19:0.402880658436214 20:0.5872427983539095 21:0.38312757201646097 22:0.3930041152263375 23:0.39629629629629626 24:0.5872427983539095 25:0.402880658436214 26:0.4555555555555556 27:0.4588477366255145 28:0.5872427983539095 29:0.5378600823045268 30:0.597119341563786 
1.0 1:0.6465020576131687 2:0.5872427983539095 3:0.6432098765432099 4:0.5905349794238683 5:0.4390946502057613 6:0.5872427983539095 7:0.3699588477366256 8:0.34691358024691354 9:0.3008230452674897 10:0.5872427983539095 11:0.317283950617284 12:0.3106995884773663 13:0.3008230452674897 14:0.5872427983539095 15:0.3436213991769548 16:0.39958847736625513 17:0.402880658436214 18:0.5872427983539095 19:0.38312757201646097 20:0.3930041152263375 21:0.39629629629629626 22:0.5872427983539095 23:0.402880658436214 24:0.4555555555555556 25:0.4588477366255145 26:0.5872427983539095 27:0.5378600823045268 28:0.597119341563786 29:0.6925925925925925 30:0.5872427983539095 
1.0 1:0.5872427983539095 2:0.6432098765432099 3:0.5905349794238683 4:0.4390946502057613 5:0.5872427983539095 6:0.3699588477366256 7:0.34691358024691354 8:0.3008230452674897 9:0.5872427983539095 10:0.317283950617284 11:0.3106995884773663 12:0.3008230452674897 13:0.5872427983539095 14:0.3436213991769548 15:0.39958847736625513 16:0.402880658436214 17:0.5872427983539095 18:0.38312757201646097 19:0.3930041152263375 20:0.39629629629629626 21:0.5872427983539095 22:0.402880658436214 23:0.4555555555555556 24:0.4588477366255145 25:0.5872427983539095 26:0.5378600823045268 27:0.597119341563786 28:0.6925925925925925 29:0.5872427983539095 30:0.7419753086419754 
-1.0 1:0.7452674897119341 2:0.5872427983539095 3:0.748559670781893 4:0.748559670781893 5:0.748559670781893 6:0.5872427983539095 7:0.748559670781893 8:0.748559670781893 9:0.748559670781893 10:0.5872427983539095 11:0.7452674897119341 12:0.7419753086419754 13:0.7353909465020577 14:0.5872427983539095 15:0.7320987654320987 16:0.7386831275720165 17:0.7419753086419754 18:0.5872427983539095 19:0.7452674897119341 20:0.7452674897119341 21:0.7452674897119341 22:0.5872427983539095 23:0.7452674897119341 24:0.7452674897119341 25:0.7452674897119341 26:0.5872427983539095 27:0.7452674897119341 28:0.7452674897119341 29:0.7452674897119341 30:0.7452674897119341 
1.0 1:0.7452674897119341 2:0.7452674897119341 3:0.7452674897119341 4:0.5872427983539095 5:0.7452674897119341 6:0.7419753086419754 7:0.7419753086419754 8:0.5872427983539095 9:0.7419753086419754 10:0.7353909465020577 11:0.72880658436214 12:0.5872427983539095 13:0.7222222222222222 14:0.7156378600823046 15:0.705761316872428 16:0.5872427983539095 17:0.7090534979423868 18:0.7222222222222222 19:0.7255144032921811 20:0.5872427983539095 21:0.72880658436214 22:0.7320987654320987 23:0.7386831275720165 24:0.5872427983539095 25:0.7419753086419754 26:0.7419753086419754 27:0.7386831275720165 28:0.5872427983539095 29:0.7320987654320987 30:0.7781893004115227 
1.0 1:0.7452674897119341 2:0.5872427983539095 3:0.7452674897119341 4:0.7419753086419754 5:0.7419753086419754 6:0.5872427983539095 7:0.7419753086419754 8:0.7353909465020577 9:0.72880658436214 10:0.5872427983539095 11:0.7222222222222222 12:0.7156378600823046 13:0.705761316872428 14:0.5872427983539095 15:0.7090534979423868 16:0.7222222222222222 17:0.7255144032921811 18:0.5872427983539095 19:0.72880658436214 20:0.7320987654320987 21:0.7386831275720165 22:0.5872427983539095 23:0.7419753086419754 24:0.7419753086419754 25:0.7386831275720165 26:0.5872427983539095 27:0.7320987654320987 28:0.7781893004115227 29:0.8308641975308642 30:0.5872427983539095 
1.0 1:0.5872427983539095 2:0.7452674897119341 3:0.7419753086419754 4:0.7419753086419754 5:0.5872427983539095 6:0.7419753086419754 7:0.7353909465020577 8:0.72880658436214 9:0.5872427983539095 10:0.7222222222222222 11:0.7156378600823046 12:0.705761316872428 13:0.5872427983539095 14:0.7090534979423868 15:0.7222222222222222 16:0.7255144032921811 17:0.5872427983539095 18:0.72880658436214 19:0.7320987654320987 20:0.7386831275720165 21:0.5872427983539095 22:0.7419753086419754 23:0.7419753086419754 24:0.7386831275720165 25:0.5872427983539095 26:0.7320987654320987 27:0.7781893004115227 28:0.8308641975308642 29:0.5872427983539095 30:0.880246913580247 
1.0 1:0.7452674897119341 2:0.7419753086419754 3:0.7419753086419754 4:0.5872427983539095 5:0.7419753086419754 6:0.7353909465020577 7:0.72880658436214 8:0.5872427983539095 9:0.7222222222222222 10:0.7156378600823046 11:0.705761316872428 12:0.5872427983539095 13:0.7090534979423868 14:0.7222222222222222 15:0.7255144032921811 16:0.5872427983539095 17:0.72880658436214 18:0.7320987654320987 19:0.7386831275720165 20:0.5872427983539095 21:0.7419753086419754 22:0.7419753086419754 23:0.7386831275720165 24:0.5872427983539095 25:0.7320987654320987 26:0.7781893004115227 27:0.8308641975308642 28:0.5872427983539095 29:0.880246913580247 30:0.8967078189300411 
-1.0 1:0.7419753086419754 2:0.7419753086419754 3:0.5872427983539095 4:0.7419753086419754 5:0.7353909465020577 6:0.72880658436214 7:0.5872427983539095 8:0.7222222222222222 9:0.7156378600823046 10:0.705761316872428 11:0.5872427983539095 12:0.7090534979423868 13:0.7222222222222222 14:0.7255144032921811 15:0.5872427983539095 16:0.72880658436214 17:0.7320987654320987 18:0.7386831275720165 19:0.5872427983539095 20:0.7419753086419754 21:0.7419753086419754 22:0.7386831275720165 23:0.5872427983539095 24:0.7320987654320987 25:0.7781893004115227 26:0.8308641975308642 27:0.5872427983539095 28:0.880246913580247 29:0.8967078189300411 30:0.8967078189300411 
1.0 1:0.7419753086419754 2:0.5872427983539095 3:0.7419753086419754 4:0.7353909465020577 5:0.72880658436214 6:0.5872427983539095 7:0.7222222222222222 8:0.7156378600823046 9:0.705761316872428 10:0.5872427983539095 11:0.7090534979423868 12:0.7222222222222222 13:0.7255144032921811 14:0.5872427983539095 15:0.72880658436214 16:0.7320987654320987 17:0.7386831275720165 18:0.5872427983539095 19:0.7419753086419754 20:0.7419753086419754 21:0.7386831275720165 22:0.5872427983539095 23:0.7320987654320987 24:0.7781893004115227 25:0.8308641975308642 26:0.5872427983539095 27:0.880246913580247 28:0.8967078189300411 29:0.8967078189300411 30:0.5872427983539095 
-1.0 1:0.7419753086419754 2:0.7353909465020577 3:0.72880658436214 4:0.5872427983539095 5:0.7222222222222222 6:0.7156378600823046 7:0.705761316872428 8:0.5872427983539095 9:0.7090534979423868 10:0.7222222222222222 11:0.7255144032921811 12:0.5872427983539095 13:0.72880658436214 14:0.7320987654320987 15:0.7386831275720165 16:0.5872427983539095 17:0.7419753086419754 18:0.7419753086419754 19:0.7386831275720165 20:0.5872427983539095 21:0.7320987654320987 22:0.7781893004115227 23:0.8308641975308642 24:0.5872427983539095 25:0.880246913580247 26:0.8967078189300411 27:0.8967078189300411 28:0.5872427983539095 29:0.9 30:0.8967078189300411 
1.0 1:0.7353909465020577 2:0.72880658436214 3:0.5872427983539095 4:0.7222222222222222 5:0.7156378600823046 6:0.705761316872428 7:0.5872427983539095 8:0.7090534979423868 9:0.7222222222222222 10:0.7255144032921811 11:0.5872427983539095 12:0.72880658436214 13:0.7320987654320987 14:0.7386831275720165 15:0.5872427983539095 16:0.7419753086419754 17:0.7419753086419754 18:0.7386831275720165 19:0.5872427983539095 20:0.7320987654320987 21:0.7781893004115227 22:0.8308641975308642 23:0.5872427983539095 24:0.880246913580247 25:0.8967078189300411 26:0.8967078189300411 27:0.5872427983539095 28:0.9 29:0.8967078189300411 30:0.5872427983539095 
1.0 1:0.72880658436214 2:0.5872427983539095 3:0.7222222222222222 4:0.7156378600823046 5:0.705761316872428 6:0.5872427983539095 7:0.7090534979423868 8:0.7222222222222222 9:0.7255144032921811 10:0.5872427983539095 11:0.72880658436214 12:0.7320987654320987 13:0.7386831275720165 14:0.5872427983539095 15:0.7419753086419754 16:0.7419753086419754 17:0.7386831275720165 18:0.5872427983539095 19:0.7320987654320987 20:0.7781893004115227 21:0.8308641975308642 22:0.5872427983539095 23:0.880246913580247 24:0.8967078189300411 25:0.8967078189300411 26:0.5872427983539095 27:0.9 28:0.8967078189300411 29:0.5872427983539095 30:0.8967078189300411 
1.0 1:0.5872427983539095 2:0.7222222222222222 3:0.7156378600823046 4:0.705761316872428 5:0.5872427983539095 6:0.7090534979423868 7:0.7222222222222222 8:0.7255144032921811 9:0.5872427983539095 10:0.72880658436214 11:0.7320987654320987 12:0.7386831275720165 13:0.5872427983539095 14:0.7419753086419754 15:0.7419753086419754 16:0.7386831275720165 17:0.5872427983539095 18:0.7320987654320987 19:0.7781893004115227 20:0.8308641975308642 21:0.5872427983539095 22:0.880246913580247 23:0.8967078189300411 24:0.8967078189300411 25:0.5872427983539095 26:0.9 27:0.8967078189300411 28:0.5872427983539095 29:0.8967078189300411 30:0.8967078189300411 
-1.0 1:0.7222222222222222 2:0.7156378600823046 3:0.705761316872428 4:0.5872427983539095 5:0.7090534979423868 6:0.7222222222222222 7:0.7255144032921811 8:0.5872427983539095 9:0.72880658436214 10:0.7320987654320987 11:0.7386831275720165 12:0.5872427983539095 13:0.7419753086419754 14:0.7419753086419754 15:0.7386831275720165 16:0.5872427983539095 17:0.7320987654320987 18:0.7781893004115227 19:0.8308641975308642 20:0.5872427983539095 21:0.880246913580247 22:0.8967078189300411 23:0.8967078189300411 24:0.5872427983539095 25:0.9 26:0.8967078189300411 27:0.5872427983539095 28:0.8967078189300411 29:0.8967078189300411 30:0.8967078189300411 
1.0 1:0.7156378600823046 2:0.705761316872428 3:0.5872427983539095 4:0.7090534979423868 5:0.7222222222222222 6:0.7255144032921811 7:0.5872427983539095 8:0.72880658436214 9:0.7320987654320987 10:0.7386831275720165 11:0.5872427983539095 12:0.7419753086419754 13:0.7419753086419754 14:0.7386831275720165 15:0.5872427983539095 16:0.7320987654320987 17:0.7781893004115227 18:0.8308641975308642 19:0.5872427983539095 20:0.880246913580247 21:0.8967078189300411 22:0.8967078189300411 23:0.5872427983539095 24:0.9 25:0.8967078189300411 26:0.5872427983539095 27:0.8967078189300411 28:0.8967078189300411 29:0.8967078189300411 30:0.5872427983539095 
1.0 1:0.705761316872428 2:0.5872427983539095 3:0.7090534979423868 4:0.7222222222222222 5:0.7255144032921811 6:0.5872427983539095 7:0.72880658436214 8:0.7320987654320987 9:0.7386831275720165 10:0.5872427983539095 11:0.7419753086419754 12:0.7419753086419754 13:0.7386831275720165 14:0.5872427983539095 15:0.7320987654320987 16:0.7781893004115227 17:0.8308641975308642 18:0.5872427983539095 19:0.880246913580247 20:0.8967078189300411 21:0.8967078189300411 22:0.5872427983539095 23:0.9 24:0.8967078189300411 25:0.5872427983539095 26:0.8967078189300411 27:0.8967078189300411 28:0.8967078189300411 29:0.5872427983539095 30:0.9 
1.0 1:0.5872427983539095 2:0.7090534979423868 3:0.7222222222222222 4:0.7255144032921811 5:0.5872427983539095 6:0.72880658436214 7:0.7320987654320987 8:0.7386831275720165 9:0.5872427983539095 10:0.7419753086419754 11:0.7419753086419754 12:0.7386831275720165 13:0.5872427983539095 14:0.7320987654320987 15:0.7781893004115227 16:0.8308641975308642 17:0.5872427983539095 18:0.880246913580247 19:0.8967078189300411 20:0.8967078189300411 21:0.5872427983539095 22:0.9 23:0.8967078189300411 24:0.5872427983539095 25:0.8967078189300411 26:0.8967078189300411 27:0.8967078189300411 28:0.5872427983539095 29:0.9 30:0.9 
-1.0 1:0.7090534979423868 2:0.7222222222222222 3:0.7255144032921811 4:0.5872427983539095 5:0.72880658436214 6:0.7320987654320987 7:0.7386831275720165 8:0.5872427983539095 9:0.7419753086419754 10:0.7419753086419754 11:0.7386831275720165 12:0.5872427983539095 13:0.7320987654320987 14:0.7781893004115227 15:0.8308641975308642 16:0.5872427983539095 17:0.880246913580247 18:0.8967078189300411 19:0.8967078189300411 20:0.5872427983539095 21:0.9 22:0.8967078189300411 23:0.5872427983539095 24:0.8967078189300411 25:0.8967078189300411 26:0.8967078189300411 27:0.5872427983539095 28:0.9 29:0.9 30:0.9 
-1.0 1:0.5872427983539095 2:0.880246913580247 3:0.8967078189300411 4:0.8967078189300411 5:0.5872427983539095 6:0.9 7:0.8967078189300411 8:0.5872427983539095 9:0.8967078189300411 10:0.8967078189300411 11:0.8967078189300411 12:0.5872427983539095 13:0.9 14:0.9 15:0.9 16:0.5872427983539095 17:0.8670781893004115 18:0.7814814814814816 19:0.7748971193415638 20:0.5872427983539095 21:0.7748971193415638 22:0.7748971193415638 23:0.7748971193415638 24:0.5872427983539095 25:0.7748971193415638 26:0.7748971193415638 27:0.7716049382716049 28:0.5872427983539095 29:0.7716049382716049 30:0.7716049382716049 
1.0 1:0.880246913580247 2:0.8967078189300411 3:0.8967078189300411 4:0.5872427983539095 5:0.9 6:0.8967078189300411 7:0.5872427983539095 8:0.8967078189300411 9:0.8967078189300411 10:0.8967078189300411 11:0.5872427983539095 12:0.9 13:0.9 14:0.9 15:0.5872427983539095 16:0.8670781893004115 17:0.7814814814814816 18:0.7748971193415638 19:0.5872427983539095 20:0.7748971193415638 21:0.7748971193415638 22:0.7748971193415638 23:0.5872427983539095 24:0.7748971193415638 25:0.7748971193415638 26:0.7716049382716049 27:0.5872427983539095 28:0.7716049382716049 29:0.7716049382716049 30:0.5872427983539095 
-1.0 1:0.8967078189300411 2:0.5872427983539095 3:0.9 4:0.8967078189300411 5:0.5872427983539095 6:0.8967078189300411 7:0.8967078189300411 8:0.8967078189300411 9:0.5872427983539095 10:0.9 11:0.9 12:0.9 13:0.5872427983539095 14:0.8670781893004115 15:0.7814814814814816 16:0.7748971193415638 17:0.5872427983539095 18:0.7748971193415638 19:0.7748971193415638 20:0.7748971193415638 21:0.5872427983539095 22:0.7748971193415638 23:0.7748971193415638 24:0.7716049382716049 25:0.5872427983539095 26:0.7716049382716049 27:0.7716049382716049 28:0.5872427983539095 29:0.7716049382716049 30:0.7716049382716049 
0.578718859509032 1:0.5872427983539095 2:0.9 3:0.8967078189300411 4:0.5872427983539095 5:0.8967078189300411 6:0.8967078189300411 7:0.8967078189300411 8:0.5872427983539095 9:0.9 10:0.9 11:0.9 12:0.5872427983539095 13:0.8670781893004115 14:0.7814814814814816 15:0.7748971193415638 16:0.5872427983539095 17:0.7748971193415638 18:0.7748971193415638 19:0.7748971193415638 20:0.5872427983539095 21:0.7748971193415638 22:0.7748971193415638 23:0.7716049382716049 24:0.5872427983539095 25:0.7716049382716049 26:0.7716049382716049 27:0.5872427983539095 28:0.7716049382716049 29:0.7716049382716049 30:0.5872427983539095 
-1.0 1:0.8967078189300411 2:0.5872427983539095 3:0.8967078189300411 4:0.8967078189300411 5:0.8967078189300411 6:0.5872427983539095 7:0.9 8:0.9 9:0.9 10:0.5872427983539095 11:0.8670781893004115 12:0.7814814814814816 13:0.7748971193415638 14:0.5872427983539095 15:0.7748971193415638 16:0.7748971193415638 17:0.7748971193415638 18:0.5872427983539095 19:0.7748971193415638 20:0.7748971193415638 21:0.7716049382716049 22:0.5872427983539095 23:0.7716049382716049 24:0.7716049382716049 25:0.5872427983539095 26:0.7716049382716049 27:0.7716049382716049 28:0.5872427983539095 29:0.7716049382716049 30:0.7716049382716049 
1.0 1:0.8967078189300411 2:0.5872427983539095 3:0.9 4:0.9 5:0.9 6:0.5872427983539095 7:0.8670781893004115 8:0.7814814814814816 9:0.7748971193415638 10:0.5872427983539095 11:0.7748971193415638 12:0.7748971193415638 13:0.7748971193415638 14:0.5872427983539095 15:0.7748971193415638 16:0.7748971193415638 17:0.7716049382716049 18:0.5872427983539095 19:0.7716049382716049 20:0.7716049382716049 21:0.5872427983539095 22:0.7716049382716049 23:0.7716049382716049 24:0.5872427983539095 25:0.7716049382716049 26:0.7716049382716049 27:0.5872427983539095 28:0.7716049382716049 29:0.5872427983539095 30:0.768312757201646 
-1.0 1:0.7814814814814816 2:0.7748971193415638 3:0.5872427983539095 4:0.7748971193415638 5:0.7748971193415638 6:0.7748971193415638 7:0.5872427983539095 8:0.7748971193415638 9:0.7748971193415638 10:0.7716049382716049 11:0.5872427983539095 12:0.7716049382716049 13:0.7716049382716049 14:0.5872427983539095 15:0.7716049382716049 16:0.7716049382716049 17:0.5872427983539095 18:0.7716049382716049 19:0.7716049382716049 20:0.5872427983539095 21:0.7716049382716049 22:0.5872427983539095 23:0.768312757201646 24:0.7650205761316873 25:0.5872427983539095 26:0.7617283950617284 27:0.7650205761316873 28:0.5872427983539095 29:0.7650205761316873 30:0.7650205761316873 
1.0 1:0.7748971193415638 2:0.5872427983539095 3:0.7748971193415638 4:0.7748971193415638 5:0.7748971193415638 6:0.5872427983539095 7:0.7748971193415638 8:0.7748971193415638 9:0.7716049382716049 10:0.5872427983539095 11:0.7716049382716049 12:0.7716049382716049 13:0.5872427983539095 14:0.7716049382716049 15:0.7716049382716049 16:0.5872427983539095 17:0.7716049382716049 18:0.7716049382716049 19:0.5872427983539095 20:0.7716049382716049 21:0.5872427983539095 22:0.768312757201646 23:0.7650205761316873 24:0.5872427983539095 25:0.7617283950617284 26:0.7650205761316873 27:0.5872427983539095 28:0.7650205761316873 29:0.7650205761316873 30:0.5872427983539095 
-1.0 1:0.7748971193415638 2:0.7748971193415638 3:0.7748971193415638 4:0.5872427983539095 5:0.7748971193415638 6:0.7748971193415638 7:0.7716049382716049 8:0.5872427983539095 9:0.7716049382716049 10:0.7716049382716049 11:0.5872427983539095 12:0.7716049382716049 13:0.7716049382716049 14:0.5872427983539095 15:0.7716049382716049 16:0.7716049382716049 17:0.5872427983539095 18:0.7716049382716049 19:0.5872427983539095 20:0.768312757201646 21:0.7650205761316873 22:0.5872427983539095 23:0.7617283950617284 24:0.7650205761316873 25:0.5872427983539095 26:0.7650205761316873 27:0.7650205761316873 28:0.5872427983539095 29:0.7650205761316873 30:0.7650205761316873 
-1.0 1:0.5872427983539095 2:0.7748971193415638 3:0.7748971193415638 4:0.7716049382716049 5:0.5872427983539095 6:0.7716049382716049 7:0.7716049382716049 8:0.5872427983539095 9:0.7716049382716049 10:0.7716049382716049 11:0.5872427983539095 12:0.7716049382716049 13:0.7716049382716049 14:0.5872427983539095 15:0.7716049382716049 16:0.5872427983539095 17:0.768312757201646 18:0.7650205761316873 19:0.5872427983539095 20:0.7617283950617284 21:0.7650205761316873 22:0.5872427983539095 23:0.7650205761316873 24:0.7650205761316873 25:0.5872427983539095 26:0.7650205761316873 27:0.7650205761316873 28:0.5872427983539095 29:0.768312757201646 30:0.768312757201646 
-1.0 1:0.7716049382716049 2:0.5872427983539095 3:0.7716049382716049 4:0.7716049382716049 5:0.5872427983539095 6:0.7716049382716049 7:0.7716049382716049 8:0.5872427983539095 9:0.7716049382716049 10:0.7716049382716049 11:0.5872427983539095 12:0.7716049382716049 13:0.5872427983539095 14:0.768312757201646 15:0.7650205761316873 16:0.5872427983539095 17:0.7617283950617284 18:0.7650205761316873 19:0.5872427983539095 20:0.7650205761316873 21:0.7650205761316873 22:0.5872427983539095 23:0.7650205761316873 24:0.7650205761316873 25:0.5872427983539095 26:0.768312757201646 27:0.768312757201646 28:0.5872427983539095 29:0.7584362139917696 30:0.7320987654320987 
1.0 1:0.7716049382716049 2:0.7716049382716049 3:0.5872427983539095 4:0.7716049382716049 5:0.7716049382716049 6:0.5872427983539095 7:0.7716049382716049 8:0.7716049382716049 9:0.5872427983539095 10:0.7716049382716049 11:0.5872427983539095 12:0.768312757201646 13:0.7650205761316873 14:0.5872427983539095 15:0.7617283950617284 16:0.7650205761316873 17:0.5872427983539095 18:0.7650205761316873 19:0.7650205761316873 20:0.5872427983539095 21:0.7650205761316873 22:0.7650205761316873 23:0.5872427983539095 24:0.768312757201646 25:0.768312757201646 26:0.5872427983539095 27:0.7584362139917696 28:0.7320987654320987 29:0.5872427983539095 30:0.7255144032921811 
1.0 1:0.7716049382716049 2:0.5872427983539095 3:0.7716049382716049 4:0.7716049382716049 5:0.5872427983539095 6:0.7716049382716049 7:0.7716049382716049 8:0.5872427983539095 9:0.7716049382716049 10:0.5872427983539095 11:0.768312757201646 12:0.7650205761316873 13:0.5872427983539095 14:0.7617283950617284 15:0.7650205761316873 16:0.5872427983539095 17:0.7650205761316873 18:0.7650205761316873 19:0.5872427983539095 20:0.7650205761316873 21:0.7650205761316873 22:0.5872427983539095 23:0.768312757201646 24:0.768312757201646 25:0.5872427983539095 26:0.7584362139917696 27:0.7320987654320987 28:0.5872427983539095 29:0.7255144032921811 30:0.7979423868312757 
-0.5813684082245448 1:0.5872427983539095 2:0.7716049382716049 3:0.7716049382716049 4:0.5872427983539095 5:0.7716049382716049 6:0.7716049382716049 7:0.5872427983539095 8:0.7716049382716049 9:0.5872427983539095 10:0.768312757201646 11:0.7650205761316873 12:0.5872427983539095 13:0.7617283950617284 14:0.7650205761316873 15:0.5872427983539095 16:0.7650205761316873 17:0.7650205761316873 18:0.5872427983539095 19:0.7650205761316873 20:0.7650205761316873 21:0.5872427983539095 22:0.768312757201646 23:0.768312757201646 24:0.5872427983539095 25:0.7584362139917696 26:0.7320987654320987 27:0.5872427983539095 28:0.7255144032921811 29:0.7979423868312757 30:0.8604938271604938 
1.0 1:0.7716049382716049 2:0.7716049382716049 3:0.5872427983539095 4:0.7716049382716049 5:0.7716049382716049 6:0.5872427983539095 7:0.7716049382716049 8:0.5872427983539095 9:0.768312757201646 10:0.7650205761316873 11:0.5872427983539095 12:0.7617283950617284 13:0.7650205761316873 14:0.5872427983539095 15:0.7650205761316873 16:0.7650205761316873 17:0.5872427983539095 18:0.7650205761316873 19:0.7650205761316873 20:0.5872427983539095 21:0.768312757201646 22:0.768312757201646 23:0.5872427983539095 24:0.7584362139917696 25:0.7320987654320987 26:0.5872427983539095 27:0.7255144032921811 28:0.7979423868312757 29:0.8604938271604938 30:0.5872427983539095 
1.0 1:0.7716049382716049 2:0.5872427983539095 3:0.7716049382716049 4:0.7716049382716049 5:0.5872427983539095 6:0.7716049382716049 7:0.5872427983539095 8:0.768312757201646 9:0.7650205761316873 10:0.5872427983539095 11:0.7617283950617284 12:0.7650205761316873 13:0.5872427983539095 14:0.7650205761316873 15:0.7650205761316873 16:0.5872427983539095 17:0.7650205761316873 18:0.7650205761316873 19:0.5872427983539095 20:0.768312757201646 21:0.768312757201646 22:0.5872427983539095 23:0.7584362139917696 24:0.7320987654320987 25:0.5872427983539095 26:0.7255144032921811 27:0.7979423868312757 28:0.8604938271604938 29:0.5872427983539095 30:0.880246913580247 
-1.0 1:0.5872427983539095 2:0.7716049382716049 3:0.7716049382716049 4:0.5872427983539095 5:0.7716049382716049 6:0.5872427983539095 7:0.768312757201646 8:0.7650205761316873 9:0.5872427983539095 10:0.7617283950617284 11:0.7650205761316873 12:0.5872427983539095 13:0.7650205761316873 14:0.7650205761316873 15:0.5872427983539095 16:0.7650205761316873 17:0.7650205761316873 18:0.5872427983539095 19:0.768312757201646 20:0.768312757201646 21:0.5872427983539095 22:0.7584362139917696 23:0.7320987654320987 24:0.5872427983539095 25:0.7255144032921811 26:0.7979423868312757 27:0.8604938271604938 28:0.5872427983539095 29:0.880246913580247 30:0.8835390946502057 
1.0 1:0.7716049382716049 2:0.7716049382716049 3:0.5872427983539095 4:0.7716049382716049 5:0.5872427983539095 6:0.768312757201646 7:0.7650205761316873 8:0.5872427983539095 9:0.7617283950617284 10:0.7650205761316873 11:0.5872427983539095 12:0.7650205761316873 13:0.7650205761316873 14:0.5872427983539095 15:0.7650205761316873 16:0.7650205761316873 17:0.5872427983539095 18:0.768312757201646 19:0.768312757201646 20:0.5872427983539095 21:0.7584362139917696 22:0.7320987654320987 23:0.5872427983539095 24:0.7255144032921811 25:0.7979423868312757 26:0.8604938271604938 27:0.5872427983539095 28:0.880246913580247 29:0.8835390946502057 30:0.5872427983539095 
1.0 1:0.7716049382716049 2:0.5872427983539095 3:0.7716049382716049 4:0.5872427983539095 5:0.768312757201646 6:0.7650205761316873 7:0.5872427983539095 8:0.7617283950617284 9:0.7650205761316873 10:0.5872427983539095 11:0.7650205761316873 12:0.7650205761316873 13:0.5872427983539095 14:0.7650205761316873 15:0.7650205761316873 16:0.5872427983539095 17:0.768312757201646 18:0.768312757201646 19:0.5872427983539095 20:0.7584362139917696 21:0.7320987654320987 22:0.5872427983539095 23:0.7255144032921811 24:0.7979423868312757 25:0.8604938271604938 26:0.5872427983539095 27:0.880246913580247 28:0.8835390946502057 29:0.5872427983539095 30:0.8967078189300411 
-1.0 1:0.5872427983539095 2:0.7716049382716049 3:0.5872427983539095 4:0.768312757201646 5:0.7650205761316873 6:0.5872427983539095 7:0.7617283950617284 8:0.7650205761316873 9:0.5872427983539095 10:0.7650205761316873 11:0.7650205761316873 12:0.5872427983539095 13:0.7650205761316873 14:0.7650205761316873 15:0.5872427983539095 16:0.768312757201646 17:0.768312757201646 18:0.5872427983539095 19:0.7584362139917696 20:0.7320987654320987 21:0.5872427983539095 22:0.7255144032921811 23:0.7979423868312757 24:0.8604938271604938 25:0.5872427983539095 26:0.880246913580247 27:0.8835390946502057 28:0.5872427983539095 29:0.8967078189300411 30:0.8835390946502057 
1.0 1:0.7716049382716049 2:0.5872427983539095 3:0.768312757201646 4:0.7650205761316873 5:0.5872427983539095 6:0.7617283950617284 7:0.7650205761316873 8:0.5872427983539095 9:0.7650205761316873 10:0.7650205761316873 11:0.5872427983539095 12:0.7650205761316873 13:0.7650205761316873 14:0.5872427983539095 15:0.768312757201646 16:0.768312757201646 17:0.5872427983539095 18:0.7584362139917696 19:0.7320987654320987 20:0.5872427983539095 21:0.7255144032921811 22:0.7979423868312757 23:0.8604938271604938 24:0.5872427983539095 25:0.880246913580247 26:0.8835390946502057 27:0.5872427983539095 28:0.8967078189300411 29:0.8835390946502057 30:0.5872427983539095 
-1.0 1:0.5872427983539095 2:0.768312757201646 3:0.7650205761316873 4:0.5872427983539095 5:0.7617283950617284 6:0.7650205761316873 7:0.5872427983539095 8:0.7650205761316873 9:0.7650205761316873 10:0.5872427983539095 11:0.7650205761316873 12:0.7650205761316873 13:0.5872427983539095 14:0.768312757201646 15:0.768312757201646 16:0.5872427983539095 17:0.7584362139917696 18:0.7320987654320987 19:0.5872427983539095 20:0.7255144032921811 21:0.7979423868312757 22:0.8604938271604938 23:0.5872427983539095 24:0.880246913580247 25:0.8835390946502057 26:0.5872427983539095 27:0.8967078189300411 28:0.8835390946502057 29:0.5872427983539095 30:0.8703703703703703 
0.9380533785720709 1:0.768312757201646 2:0.7650205761316873 3:0.5872427983539095 4:0.7617283950617284 5:0.7650205761316873 6:0.5872427983539095 7:0.7650205761316873 8:0.7650205761316873 9:0.5872427983539095 10:0.7650205761316873 11:0.7650205761316873 12:0.5872427983539095 13:0.768312757201646 14:0.768312757201646 15:0.5872427983539095 16:0.7584362139917696 17:0.7320987654320987 18:0.5872427983539095 19:0.7255144032921811 20:0.7979423868312757 21:0.8604938271604938 22:0.5872427983539095 23:0.880246913580247 24:0.8835390946502057 25:0.5872427983539095 26:0.8967078189300411 27:0.8835390946502057 28:0.5872427983539095 29:0.8703703703703703 30:0.5872427983539095 
1.0 1:0.7650205761316873 2:0.5872427983539095 3:0.7617283950617284 4:0.7650205761316873 5:0.5872427983539095 6:0.7650205761316873 7:0.7650205761316873 8:0.5872427983539095 9:0.7650205761316873 10:0.7650205761316873 11:0.5872427983539095 12:0.768312757201646 13:0.768312757201646 14:0.5872427983539095 15:0.7584362139917696 16:0.7320987654320987 17:0.5872427983539095 18:0.7255144032921811 19:0.7979423868312757 20:0.8604938271604938 21:0.5872427983539095 22:0.880246913580247 23:0.8835390946502057 24:0.5872427983539095 25:0.8967078189300411 26:0.8835390946502057 27:0.5872427983539095 28:0.8703703703703703 29:0.5872427983539095 30:0.8604938271604938 
-1.0 1:0.5872427983539095 2:0.7617283950617284 3:0.7650205761316873 4:0.5872427983539095 5:0.7650205761316873 6:0.7650205761316873 7:0.5872427983539095 8:0.7650205761316873 9:0.7650205761316873 10:0.5872427983539095 11:0.768312757201646 12:0.768312757201646 13:0.5872427983539095 14:0.7584362139917696 15:0.7320987654320987 16:0.5872427983539095 17:0.7255144032921811 18:0.7979423868312757 19:0.8604938271604938 20:0.5872427983539095 21:0.880246913580247 22:0.8835390946502057 23:0.5872427983539095 24:0.8967078189300411 25:0.8835390946502057 26:0.5872427983539095 27:0.8703703703703703 28:0.5872427983539095 29:0.8604938271604938 30:0.8506172839506173 
1.0 1:0.7617283950617284 2:0.7650205761316873 3:0.5872427983539095 4:0.7650205761316873 5:0.7650205761316873 6:0.5872427983539095 7:0.7650205761316873 8:0.7650205761316873 9:0.5872427983539095 10:0.768312757201646 11:0.768312757201646 12:0.5872427983539095 13:0.7584362139917696 14:0.7320987654320987 15:0.5872427983539095 16:0.7255144032921811 17:0.7979423868312757 18:0.8604938271604938 19:0.5872427983539095 20:0.880246913580247 21:0.8835390946502057 22:0.5872427983539095 23:0.8967078189300411 24:0.8835390946502057 25:0.5872427983539095 26:0.8703703703703703 27:0.5872427983539095 28:0.8604938271604938 29:0.8506172839506173 30:0.5872427983539095 
-1.0 1:0.5872427983539095 2:0.7650205761316873 3:0.7650205761316873 4:0.5872427983539095 5:0.7650205761316873 6:0.7650205761316873 7:0.5872427983539095 8:0.768312757201646 9:0.768312757201646 10:0.5872427983539095 11:0.7584362139917696 12:0.7320987654320987 13:0.5872427983539095 14:0.7255144032921811 15:0.7979423868312757 16:0.8604938271604938 17:0.5872427983539095 18:0.880246913580247 19:0.8835390946502057 20:0.5872427983539095 21:0.8967078189300411 22:0.8835390946502057 23:0.5872427983539095 24:0.8703703703703703 25:0.5872427983539095 26:0.8604938271604938 27:0.8506172839506173 28:0.5872427983539095 29:0.8374485596707819 30:0.7781893004115227 
-0.692106360108874 1:0.7650205761316873 2:0.5872427983539095 3:0.7650205761316873 4:0.7650205761316873 5:0.5872427983539095 6:0.768312757201646 7:0.768312757201646 8:0.5872427983539095 9:0.7584362139917696 10:0.7320987654320987 11:0.5872427983539095 12:0.7255144032921811 13:0.7979423868312757 14:0.8604938271604938 15:0.5872427983539095 16:0.880246913580247 17:0.8835390946502057 18:0.5872427983539095 19:0.8967078189300411 20:0.8835390946502057 21:0.5872427983539095 22:0.8703703703703703 23:0.5872427983539095 24:0.8604938271604938 25:0.8506172839506173 26:0.5872427983539095 27:0.8374485596707819 28:0.7781893004115227 29:0.5872427983539095 30:0.682716049382716 
-1.0 1:0.5872427983539095 2:0.7650205761316873 3:0.7650205761316873 4:0.5872427983539095 5:0.768312757201646 6:0.768312757201646 7:0.5872427983539095 8:0.7584362139917696 9:0.7320987654320987 10:0.5872427983539095 11:0.7255144032921811 12:0.7979423868312757 13:0.8604938271604938 14:0.5872427983539095 15:0.880246913580247 16:0.8835390946502057 17:0.5872427983539095 18:0.8967078189300411 19:0.8835390946502057 20:0.5872427983539095 21:0.8703703703703703 22:0.5872427983539095 23:0.8604938271604938 24:0.8506172839506173 25:0.5872427983539095 26:0.8374485596707819 27:0.7781893004115227 28:0.5872427983539095 29:0.682716049382716 30:0.6102880658436214 
1.0 1:0.8604938271604938 2:0.5872427983539095 3:0.880246913580247 4:0.8835390946502057 5:0.5872427983539095 6:0.8967078189300411 7:0.8835390946502057 8:0.5872427983539095 9:0.8703703703703703 10:0.5872427983539095 11:0.8604938271604938 12:0.8506172839506173 13:0.5872427983539095 14:0.8374485596707819 15:0.7781893004115227 16:0.5872427983539095 17:0.682716049382716 18:0.6102880658436214 19:0.5872427983539095 20:0.597119341563786 21:0.5609053497942388 22:0.5872427983539095 23:0.554320987654321 24:0.5938271604938271 25:0.620164609053498 26:0.5872427983539095 27:0.5806584362139918 28:0.5806584362139918 29:0.6563786008230453 30:0.5872427983539095 
1.0 1:0.5872427983539095 2:0.880246913580247 3:0.8835390946502057 4:0.5872427983539095 5:0.8967078189300411 6:0.8835390946502057 7:0.5872427983539095 8:0.8703703703703703 9:0.5872427983539095 10:0.8604938271604938 11:0.8506172839506173 12:0.5872427983539095 13:0.8374485596707819 14:0.7781893004115227 15:0.5872427983539095 16:0.682716049382716 17:0.6102880658436214 18:0.5872427983539095 19:0.597119341563786 20:0.5609053497942388 21:0.5872427983539095 22:0.554320987654321 23:0.5938271604938271 24:0.620164609053498 25:0.5872427983539095 26:0.5806584362139918 27:0.5806584362139918 28:0.6563786008230453 29:0.5872427983539095 30:0.705761316872428 
0.4217135209595528 1:0.8835390946502057 2:0.5872427983539095 3:0.8967078189300411 4:0.8835390946502057 5:0.5872427983539095 6:0.8703703703703703 7:0.5872427983539095 8:0.8604938271604938 9:0.8506172839506173 10:0.5872427983539095 11:0.8374485596707819 12:0.7781893004115227 13:0.5872427983539095 14:0.682716049382716 15:0.6102880658436214 16:0.5872427983539095 17:0.597119341563786 18:0.5609053497942388 19:0.5872427983539095 20:0.554320987654321 21:0.5938271604938271 22:0.620164609053498 23:0.5872427983539095 24:0.5806584362139918 25:0.5806584362139918 26:0.6563786008230453 27:0.5872427983539095 28:0.705761316872428 29:0.7156378600823046 30:0.5872427983539095 
-1.0 1:0.8967078189300411 2:0.8835390946502057 3:0.5872427983539095 4:0.8703703703703703 5:0.5872427983539095 6:0.8604938271604938 7:0.8506172839506173 8:0.5872427983539095 9:0.8374485596707819 10:0.7781893004115227 11:0.5872427983539095 12:0.682716049382716 13:0.6102880658436214 14:0.5872427983539095 15:0.597119341563786 16:0.5609053497942388 17:0.5872427983539095 18:0.554320987654321 19:0.5938271604938271 20:0.620164609053498 21:0.5872427983539095 22:0.5806584362139918 23:0.5806584362139918 24:0.6563786008230453 25:0.5872427983539095 26:0.705761316872428 27:0.7156378600823046 28:0.5872427983539095 29:0.7419753086419754 30:0.6728395061728395 
-1.0 1:0.5872427983539095 2:0.8703703703703703 3:0.5872427983539095 4:0.8604938271604938 5:0.8506172839506173 6:0.5872427983539095 7:0.8374485596707819 8:0.7781893004115227 9:0.5872427983539095 10:0.682716049382716 11:0.6102880658436214 12:0.5872427983539095 13:0.597119341563786 14:0.5609053497942388 15:0.5872427983539095 16:0.554320987654321 17:0.5938271604938271 18:0.620164609053498 19:0.5872427983539095 20:0.5806584362139918 21:0.5806584362139918 22:0.6563786008230453 23:0.5872427983539095 24:0.705761316872428 25:0.7156378600823046 26:0.5872427983539095 27:0.7419753086419754 28:0.6728395061728395 29:0.5279835390946502 30:0.5872427983539095 
-1.0 1:0.8703703703703703 2:0.5872427983539095 3:0.8604938271604938 4:0.8506172839506173 5:0.5872427983539095 6:0.8374485596707819 7:0.7781893004115227 8:0.5872427983539095 9:0.682716049382716 10:0.6102880658436214 11:0.5872427983539095 12:0.597119341563786 13:0.5609053497942388 14:0.5872427983539095 15:0.554320987654321 16:0.5938271604938271 17:0.620164609053498 18:0.5872427983539095 19:0.5806584362139918 20:0.5806584362139918 21:0.6563786008230453 22:0.5872427983539095 23:0.705761316872428 24:0.7156378600823046 25:0.5872427983539095 26:0.7419753086419754 27:0.6728395061728395 28:0.5279835390946502 29:0.5872427983539095 30:0.48847736625514404 
-1.0 1:0.5872427983539095 2:0.8604938271604938 3:0.8506172839506173 4:0.5872427983539095 5:0.8374485596707819 6:0.7781893004115227 7:0.5872427983539095 8:0.682716049382716 9:0.6102880658436214 10:0.5872427983539095 11:0.597119341563786 12:0.5609053497942388 13:0.5872427983539095 14:0.554320987654321 15:0.5938271604938271 16:0.620164609053498 17:0.5872427983539095 18:0.5806584362139918 19:0.5806584362139918 20:0.6563786008230453 21:0.5872427983539095 22:0.705761316872428 23:0.7156378600823046 24:0.5872427983539095 25:0.7419753086419754 26:0.6728395061728395 27:0.5279835390946502 28:0.5872427983539095 29:0.48847736625514404 30:0.4654320987654321 
-1.0 1:0.48847736625514404 2:0.4654320987654321 3:0.4555555555555556 4:0.5872427983539095 5:0.44567901234567897 6:0.43580246913580245 7:0.4292181069958848 8:0.5872427983539095 9:0.42263374485596705 10:0.4160493827160494 11:0.40946502057613177 12:0.5872427983539095 13:0.4061728395061729 14:0.4061728395061729 15:0.39629629629629626 16:0.5872427983539095 17:0.3930041152263375 18:0.3897119341563786 19:0.38641975308641974 20:0.5872427983539095 21:0.3798353909465021 22:0.34691358024691354 23:0.3534979423868313 24:0.5872427983539095 25:0.3534979423868313 26:0.3534979423868313 27:0.3502057613168724 28:0.5872427983539095 29:0.3502057613168724 30:0.337037037037037 
-1.0 1:0.4555555555555556 2:0.5872427983539095 3:0.44567901234567897 4:0.43580246913580245 5:0.4292181069958848 6:0.5872427983539095 7:0.42263374485596705 8:0.4160493827160494 9:0.40946502057613177 10:0.5872427983539095 11:0.4061728395061729 12:0.4061728395061729 13:0.39629629629629626 14:0.5872427983539095 15:0.3930041152263375 16:0.3897119341563786 17:0.38641975308641974 18:0.5872427983539095 19:0.3798353909465021 20:0.34691358024691354 21:0.3534979423868313 22:0.5872427983539095 23:0.3534979423868313 24:0.3534979423868313 25:0.3502057613168724 26:0.5872427983539095 27:0.3502057613168724 28:0.337037037037037 29:0.26790123456790127 30:0.5872427983539095 
-1.0 1:0.5872427983539095 2:0.44567901234567897 3:0.43580246913580245 4:0.4292181069958848 5:0.5872427983539095 6:0.42263374485596705 7:0.4160493827160494 8:0.40946502057613177 9:0.5872427983539095 10:0.4061728395061729 11:0.4061728395061729 12:0.39629629629629626 13:0.5872427983539095 14:0.3930041152263375 15:0.3897119341563786 16:0.38641975308641974 17:0.5872427983539095 18:0.3798353909465021 19:0.34691358024691354 20:0.3534979423868313 21:0.5872427983539095 22:0.3534979423868313 23:0.3534979423868313 24:0.3502057613168724 25:0.5872427983539095 26:0.3502057613168724 27:0.337037037037037 28:0.26790123456790127 29:0.5872427983539095 30:0.18888888888888888 
-1.0 1:0.44567901234567897 2:0.43580246913580245 3:0.4292181069958848 4:0.5872427983539095 5:0.42263374485596705 6:0.4160493827160494 7:0.40946502057613177 8:0.5872427983539095 9:0.4061728395061729 10:0.4061728395061729 11:0.39629629629629626 12:0.5872427983539095 13:0.3930041152263375 14:0.3897119341563786 15:0.38641975308641974 16:0.5872427983539095 17:0.3798353909465021 18:0.34691358024691354 19:0.3534979423868313 20:0.5872427983539095 21:0.3534979423868313 22:0.3534979423868313 23:0.3502057613168724 24:0.5872427983539095 25:0.3502057613168724 26:0.337037037037037 27:0.26790123456790127 28:0.5872427983539095 29:0.18888888888888888 30:0.18888888888888888 
1.0 1:0.43580246913580245 2:0.4292181069958848 3:0.5872427983539095 4:0.42263374485596705 5:0.4160493827160494 6:0.40946502057613177 7:0.5872427983539095 8:0.4061728395061729 9:0.4061728395061729 10:0.39629629629629626 11:0.5872427983539095 12:0.3930041152263375 13:0.3897119341563786 14:0.38641975308641974 15:0.5872427983539095 16:0.3798353909465021 17:0.34691358024691354 18:0.3534979423868313 19:0.5872427983539095 20:0.3534979423868313 21:0.3534979423868313 22:0.3502057613168724 23:0.5872427983539095 24:0.3502057613168724 25:0.337037037037037 26:0.26790123456790127 27:0.5872427983539095 28:0.18888888888888888 29:0.18888888888888888 30:0.1823045267489712 
-1.0 1:0.4292181069958848 2:0.5872427983539095 3:0.42263374485596705 4:0.4160493827160494 5:0.40946502057613177 6:0.5872427983539095 7:0.4061728395061729 8:0.4061728395061729 9:0.39629629629629626 10:0.5872427983539095 11:0.3930041152263375 12:0.3897119341563786 13:0.38641975308641974 14:0.5872427983539095 15:0.3798353909465021 16:0.34691358024691354 17:0.3534979423868313 18:0.5872427983539095 19:0.3534979423868313 20:0.3534979423868313 21:0.3502057613168724 22:0.5872427983539095 23:0.3502057613168724 24:0.337037037037037 25:0.26790123456790127 26:0.5872427983539095 27:0.18888888888888888 28:0.18888888888888888 29:0.1823045267489712 30:0.5872427983539095 
-1.0 1:0.5872427983539095 2:0.42263374485596705 3:0.4160493827160494 4:0.40946502057613177 5:0.5872427983539095 6:0.4061728395061729 7:0.4061728395061729 8:0.39629629629629626 9:0.5872427983539095 10:0.3930041152263375 11:0.3897119341563786 12:0.38641975308641974 13:0.5872427983539095 14:0.3798353909465021 15:0.34691358024691354 16:0.3534979423868313 17:0.5872427983539095 18:0.3534979423868313 19:0.3534979423868313 20:0.3502057613168724 21:0.5872427983539095 22:0.3502057613168724 23:0.337037037037037 24:0.26790123456790127 25:0.5872427983539095 26:0.18888888888888888 27:0.18888888888888888 28:0.1823045267489712 29:0.5872427983539095 30:0.1823045267489712 
-1.0 1:0.42263374485596705 2:0.4160493827160494 3:0.40946502057613177 4:0.5872427983539095 5:0.4061728395061729 6:0.4061728395061729 7:0.39629629629629626 8:0.5872427983539095 9:0.3930041152263375 10:0.3897119341563786 11:0.38641975308641974 12:0.5872427983539095 13:0.3798353909465021 14:0.34691358024691354 15:0.3534979423868313 16:0.5872427983539095 17:0.3534979423868313 18:0.3534979423868313 19:0.3502057613168724 20:0.5872427983539095 21:0.3502057613168724 22:0.337037037037037 23:0.26790123456790127 24:0.5872427983539095 25:0.18888888888888888 26:0.18888888888888888 27:0.1823045267489712 28:0.5872427983539095 29:0.1823045267489712 30:0.1823045267489712 
1.0 1:0.4160493827160494 2:0.40946502057613177 3:0.5872427983539095 4:0.4061728395061729 5:0.4061728395061729 6:0.39629629629629626 7:0.5872427983539095 8:0.3930041152263375 9:0.3897119341563786 10:0.38641975308641974 11:0.5872427983539095 12:0.3798353909465021 13:0.34691358024691354 14:0.3534979423868313 15:0.5872427983539095 16:0.3534979423868313 17:0.3534979423868313 18:0.3502057613168724 19:0.5872427983539095 20:0.3502057613168724 21:0.337037037037037 22:0.26790123456790127 23:0.5872427983539095 24:0.18888888888888888 25:0.18888888888888888 26:0.1823045267489712 27:0.5872427983539095 28:0.1823045267489712 29:0.1823045267489712 30:0.17901234567901236 
-1.0 1:0.40946502057613177 2:0.5872427983539095 3:0.4061728395061729 4:0.4061728395061729 5:0.39629629629629626 6:0.5872427983539095 7:0.3930041152263375 8:0.3897119341563786 9:0.38641975308641974 10:0.5872427983539095 11:0.3798353909465021 12:0.34691358024691354 13:0.3534979423868313 14:0.5872427983539095 15:0.3534979423868313 16:0.3534979423868313 17:0.3502057613168724 18:0.5872427983539095 19:0.3502057613168724 20:0.337037037037037 21:0.26790123456790127 22:0.5872427983539095 23:0.18888888888888888 24:0.18888888888888888 25:0.1823045267489712 26:0.5872427983539095 27:0.1823045267489712 28:0.1823045267489712 29:0.17901234567901236 30:0.5872427983539095 
-1.0 1:0.5872427983539095 2:0.4061728395061729 3:0.4061728395061729 4:0.39629629629629626 5:0.5872427983539095 6:0.3930041152263375 7:0.3897119341563786 8:0.38641975308641974 9:0.5872427983539095 10:0.3798353909465021 11:0.34691358024691354 12:0.3534979423868313 13:0.5872427983539095 14:0.3534979423868313 15:0.3534979423868313 16:0.3502057613168724 17:0.5872427983539095 18:0.3502057613168724 19:0.337037037037037 20:0.26790123456790127 21:0.5872427983539095 22:0.18888888888888888 23:0.18888888888888888 24:0.1823045267489712 25:0.5872427983539095 26:0.1823045267489712 27:0.1823045267489712 28:0.17901234567901236 29:0.5872427983539095 30:0.17572016460905351 
-1.0 1:0.4061728395061729 2:0.4061728395061729 3:0.39629629629629626 4:0.5872427983539095 5:0.3930041152263375 6:0.3897119341563786 7:0.38641975308641974 8:0.5872427983539095 9:0.3798353909465021 10:0.34691358024691354 11:0.3534979423868313 12:0.5872427983539095 13:0.3534979423868313 14:0.3534979423868313 15:0.3502057613168724 16:0.5872427983539095 17:0.3502057613168724 18:0.337037037037037 19:0.26790123456790127 20:0.5872427983539095 21:0.18888888888888888 22:0.18888888888888888 23:0.1823045267489712 24:0.5872427983539095 25:0.1823045267489712 26:0.1823045267489712 27:0.17901234567901236 28:0.5872427983539095 29:0.17572016460905351 30:0.17572016460905351 
1.0 1:0.4061728395061729 2:0.39629629629629626 3:0.5872427983539095 4:0.3930041152263375 5:0.3897119341563786 6:0.38641975308641974 7:0.5872427983539095 8:0.3798353909465021 9:0.34691358024691354 10:0.3534979423868313 11:0.5872427983539095 12:0.3534979423868313 13:0.3534979423868313 14:0.3502057613168724 15:0.5872427983539095 16:0.3502057613168724 17:0.337037037037037 18:0.26790123456790127 19:0.5872427983539095 20:0.18888888888888888 21:0.18888888888888888 22:0.1823045267489712 23:0.5872427983539095 24:0.1823045267489712 25:0.1823045267489712 26:0.17901234567901236 27:0.5872427983539095 28:0.17572016460905351 29:0.17572016460905351 30:0.17242798353909466 
-1.0 1:0.39629629629629626 2:0.5872427983539095 3:0.3930041152263375 4:0.3897119341563786 5:0.38641975308641974 6:0.5872427983539095 7:0.3798353909465021 8:0.34691358024691354 9:0.3534979423868313 10:0.5872427983539095 11:0.3534979423868313 12:0.3534979423868313 13:0.3502057613168724 14:0.5872427983539095 15:0.3502057613168724 16:0.337037037037037 17:0.26790123456790127 18:0.5872427983539095 19:0.18888888888888888 20:0.18888888888888888 21:0.1823045267489712 22:0.5872427983539095 23:0.1823045267489712 24:0.1823045267489712 25:0.17901234567901236 26:0.5872427983539095 27:0.17572016460905351 28:0.17572016460905351 29:0.17242798353909466 30:0.5872427983539095 
-0.36820679019065666 1:0.5872427983539095 2:0.3930041152263375 3:0.3897119341563786 4:0.38641975308641974 5:0.5872427983539095 6:0.3798353909465021 7:0.34691358024691354 8:0.3534979423868313 9:0.5872427983539095 10:0.3534979423868313 11:0.3534979423868313 12:0.3502057613168724 13:0.5872427983539095 14:0.3502057613168724 15:0.337037037037037 16:0.26790123456790127 17:0.5872427983539095 18:0.18888888888888888 19:0.18888888888888888 20:0.1823045267489712 21:0.5872427983539095 22:0.1823045267489712 23:0.1823045267489712 24:0.17901234567901236 25:0.5872427983539095 26:0.17572016460905351 27:0.17572016460905351 28:0.17242798353909466 29:0.5872427983539095 30:0.17242798353909466 
-1.0 1:0.3930041152263375 2:0.3897119341563786 3:0.38641975308641974 4:0.5872427983539095 5:0.3798353909465021 6:0.34691358024691354 7:0.3534979423868313 8:0.5872427983539095 9:0.3534979423868313 10:0.3534979423868313 11:0.3502057613168724 12:0.5872427983539095 13:0.3502057613168724 14:0.337037037037037 15:0.26790123456790127 16:0.5872427983539095 17:0.18888888888888888 18:0.18888888888888888 19:0.1823045267489712 20:0.5872427983539095 21:0.1823045267489712 22:0.1823045267489712 23:0.17901234567901236 24:0.5872427983539095 25:0.17572016460905351 26:0.17572016460905351 27:0.17242798353909466 28:0.5872427983539095 29:0.17242798353909466 30:0.1691358024691358 
1.0 1:0.3897119341563786 2:0.38641975308641974 3:0.5872427983539095 4:0.3798353909465021 5:0.34691358024691354 6:0.3534979423868313 7:0.5872427983539095 8:0.3534979423868313 9:0.3534979423868313 10:0.3502057613168724 11:0.5872427983539095 12:0.3502057613168724 13:0.337037037037037 14:0.26790123456790127 15:0.5872427983539095 16:0.18888888888888888 17:0.18888888888888888 18:0.1823045267489712 19:0.5872427983539095 20:0.1823045267489712 21:0.1823045267489712 22:0.17901234567901236 23:0.5872427983539095 24:0.17572016460905351 25:0.17572016460905351 26:0.17242798353909466 27:0.5872427983539095 28:0.17242798353909466 29:0.1691358024691358 30:0.1691358024691358 
-1.0 1:0.38641975308641974 2:0.5872427983539095 3:0.3798353909465021 4:0.34691358024691354 5:0.3534979423868313 6:0.5872427983539095 7:0.3534979423868313 8:0.3534979423868313 9:0.3502057613168724 10:0.5872427983539095 11:0.3502057613168724 12:0.337037037037037 13:0.26790123456790127 14:0.5872427983539095 15:0.18888888888888888 16:0.18888888888888888 17:0.1823045267489712 18:0.5872427983539095 19:0.1823045267489712 20:0.1823045267489712 21:0.17901234567901236 22:0.5872427983539095 23:0.17572016460905351 24:0.17572016460905351 25:0.17242798353909466 26:0.5872427983539095 27:0.17242798353909466 28:0.1691358024691358 29:0.1691358024691358 30:0.5872427983539095 
-1.0 1:0.3798353909465021 2:0.34691358024691354 3:0.3534979423868313 4:0.5872427983539095 5:0.3534979423868313 6:0.3534979423868313 7:0.3502057613168724 8:0.5872427983539095 9:0.3502057613168724 10:0.337037037037037 11:0.26790123456790127 12:0.5872427983539095 13:0.18888888888888888 14:0.18888888888888888 15:0.1823045267489712 16:0.5872427983539095 17:0.1823045267489712 18:0.1823045267489712 19:0.17901234567901236 20:0.5872427983539095 21:0.17572016460905351 22:0.17572016460905351 23:0.17242798353909466 24:0.5872427983539095 25:0.17242798353909466 26:0.1691358024691358 27:0.1691358024691358 28:0.5872427983539095 29:0.1691358024691358 30:0.1691358024691358 
-1.0 1:0.34691358024691354 2:0.3534979423868313 3:0.5872427983539095 4:0.3534979423868313 5:0.3534979423868313 6:0.3502057613168724 7:0.5872427983539095 8:0.3502057613168724 9:0.337037037037037 10:0.26790123456790127 11:0.5872427983539095 12:0.18888888888888888 13:0.18888888888888888 14:0.1823045267489712 15:0.5872427983539095 16:0.1823045267489712 17:0.1823045267489712 18:0.17901234567901236 19:0.5872427983539095 20:0.17572016460905351 21:0.17572016460905351 22:0.17242798353909466 23:0.5872427983539095 24:0.17242798353909466 25:0.1691358024691358 26:0.1691358024691358 27:0.5872427983539095 28:0.1691358024691358 29:0.1691358024691358 30:0.16584362139917697 
1.0 1:0.3534979423868313 2:0.5872427983539095 3:0.3534979423868313 4:0.3534979423868313 5:0.3502057613168724 6:0.5872427983539095 7:0.3502057613168724 8:0.337037037037037 9:0.26790123456790127 10:0.5872427983539095 11:0.18888888888888888 12:0.18888888888888888 13:0.1823045267489712 14:0.5872427983539095 15:0.1823045267489712 16:0.1823045267489712 17:0.17901234567901236 18:0.5872427983539095 19:0.17572016460905351 20:0.17572016460905351 21:0.17242798353909466 22:0.5872427983539095 23:0.17242798353909466 24:0.1691358024691358 25:0.1691358024691358 26:0.5872427983539095 27:0.1691358024691358 28:0.1691358024691358 29:0.16584362139917697 30:0.16584362139917697 
-0.2675395195682685 1:0.3534979423868313 2:0.3534979423868313 3:0.3502057613168724 4:0.5872427983539095 5:0.3502057613168724 6:0.337037037037037 7:0.26790123456790127 8:0.5872427983539095 9:0.18888888888888888 10:0.18888888888888888 11:0.1823045267489712 12:0.5872427983539095 13:0.1823045267489712 14:0.1823045267489712 15:0.17901234567901236 16:0.5872427983539095 17:0.17572016460905351 18:0.17572016460905351 19:0.17242798353909466 20:0.5872427983539095 21:0.17242798353909466 22:0.1691358024691358 23:0.1691358024691358 24:0.5872427983539095 25:0.1691358024691358 26:0.1691358024691358 27:0.16584362139917697 28:0.16584362139917697 29:0.5872427983539095 30:0.16584362139917697 
-1.0 1:0.3534979423868313 2:0.3502057613168724 3:0.5872427983539095 4:0.3502057613168724 5:0.337037037037037 6:0.26790123456790127 7:0.5872427983539095 8:0.18888888888888888 9:0.18888888888888888 10:0.1823045267489712 11:0.5872427983539095 12:0.1823045267489712 13:0.1823045267489712 14:0.17901234567901236 15:0.5872427983539095 16:0.17572016460905351 17:0.17572016460905351 18:0.17242798353909466 19:0.5872427983539095 20:0.17242798353909466 21:0.1691358024691358 22:0.1691358024691358 23:0.5872427983539095 24:0.1691358024691358 25:0.1691358024691358 26:0.16584362139917697 27:0.16584362139917697 28:0.5872427983539095 29:0.16584362139917697 30:0.16584362139917697 
1.0 1:0.3502057613168724 2:0.5872427983539095 3:0.3502057613168724 4:0.337037037037037 5:0.26790123456790127 6:0.5872427983539095 7:0.18888888888888888 8:0.18888888888888888 9:0.1823045267489712 10:0.5872427983539095 11:0.1823045267489712 12:0.1823045267489712 13:0.17901234567901236 14:0.5872427983539095 15:0.17572016460905351 16:0.17572016460905351 17:0.17242798353909466 18:0.5872427983539095 19:0.17242798353909466 20:0.1691358024691358 21:0.1691358024691358 22:0.5872427983539095 23:0.1691358024691358 24:0.1691358024691358 25:0.16584362139917697 26:0.16584362139917697 27:0.5872427983539095 28:0.16584362139917697 29:0.16584362139917697 30:0.16255144032921812 
0.41611673341437283 1:0.26790123456790127 2:0.5872427983539095 3:0.18888888888888888 4:0.18888888888888888 5:0.1823045267489712 6:0.5872427983539095 7:0.1823045267489712 8:0.1823045267489712 9:0.17901234567901236 10:0.5872427983539095 11:0.17572016460905351 12:0.17572016460905351 13:0.17242798353909466 14:0.5872427983539095 15:0.17242798353909466 16:0.1691358024691358 17:0.1691358024691358 18:0.5872427983539095 19:0.1691358024691358 20:0.1691358024691358 21:0.16584362139917697 22:0.16584362139917697 23:0.5872427983539095 24:0.16584362139917697 25:0.16584362139917697 26:0.16255144032921812 27:0.5872427983539095 28:0.16255144032921812 29:0.23497942386831278 30:0.2843621399176955 
-1.0 1:0.1823045267489712 2:0.1823045267489712 3:0.17901234567901236 4:0.5872427983539095 5:0.17572016460905351 6:0.17572016460905351 7:0.17242798353909466 8:0.5872427983539095 9:0.17242798353909466 10:0.1691358024691358 11:0.1691358024691358 12:0.5872427983539095 13:0.1691358024691358 14:0.1691358024691358 15:0.16584362139917697 16:0.16584362139917697 17:0.5872427983539095 18:0.16584362139917697 19:0.16584362139917697 20:0.16255144032921812 21:0.5872427983539095 22:0.16255144032921812 23:0.23497942386831278 24:0.2843621399176955 25:0.5872427983539095 26:0.28106995884773667 27:0.2843621399176955 28:0.28106995884773667 29:0.5872427983539095 30:0.24485596707818932 
-1.0 1:0.1823045267489712 2:0.17901234567901236 3:0.5872427983539095 4:0.17572016460905351 5:0.17572016460905351 6:0.17242798353909466 7:0.5872427983539095 8:0.17242798353909466 9:0.1691358024691358 10:0.1691358024691358 11:0.5872427983539095 12:0.1691358024691358 13:0.1691358024691358 14:0.16584362139917697 15:0.16584362139917697 16:0.5872427983539095 17:0.16584362139917697 18:0.16584362139917697 19:0.16255144032921812 20:0.5872427983539095 21:0.16255144032921812 22:0.23497942386831278 23:0.2843621399176955 24:0.5872427983539095 25:0.28106995884773667 26:0.2843621399176955 27:0.28106995884773667 28:0.5872427983539095 29:0.24485596707818932 30:0.17901234567901236 
-0.8445216111784536 1:0.5872427983539095 2:0.17572016460905351 3:0.17572016460905351 4:0.17242798353909466 5:0.5872427983539095 6:0.17242798353909466 7:0.1691358024691358 8:0.1691358024691358 9:0.5872427983539095 10:0.1691358024691358 11:0.1691358024691358 12:0.16584362139917697 13:0.16584362139917697 14:0.5872427983539095 15:0.16584362139917697 16:0.16584362139917697 17:0.16255144032921812 18:0.5872427983539095 19:0.16255144032921812 20:0.23497942386831278 21:0.2843621399176955 22:0.5872427983539095 23:0.28106995884773667 24:0.2843621399176955 25:0.28106995884773667 26:0.5872427983539095 27:0.24485596707818932 28:0.17901234567901236 29:0.1823045267489712 30:0.5872427983539095 
-0.9055530834969554 1:0.17572016460905351 2:0.17572016460905351 3:0.17242798353909466 4:0.5872427983539095 5:0.17242798353909466 6:0.1691358024691358 7:0.1691358024691358 8:0.5872427983539095 9:0.1691358024691358 10:0.1691358024691358 11:0.16584362139917697 12:0.16584362139917697 13:0.5872427983539095 14:0.16584362139917697 15:0.16584362139917697 16:0.16255144032921812 17:0.5872427983539095 18:0.16255144032921812 19:0.23497942386831278 20:0.2843621399176955 21:0.5872427983539095 22:0.28106995884773667 23:0.2843621399176955 24:0.28106995884773667 25:0.5872427983539095 26:0.24485596707818932 27:0.17901234567901236 28:0.1823045267489712 29:0.5872427983539095 30:0.18559670781893006 
0.9861774099732095 1:0.17242798353909466 2:0.5872427983539095 3:0.17242798353909466 4:0.1691358024691358 5:0.1691358024691358 6:0.5872427983539095 7:0.1691358024691358 8:0.1691358024691358 9:0.16584362139917697 10:0.16584362139917697 11:0.5872427983539095 12:0.16584362139917697 13:0.16584362139917697 14:0.16255144032921812 15:0.5872427983539095 16:0.16255144032921812 17:0.23497942386831278 18:0.2843621399176955 19:0.5872427983539095 20:0.28106995884773667 21:0.2843621399176955 22:0.28106995884773667 23:0.5872427983539095 24:0.24485596707818932 25:0.17901234567901236 26:0.1823045267489712 27:0.5872427983539095 28:0.18559670781893006 29:0.18888888888888888 30:0.19547325102880658 
1.0 1:0.1691358024691358 2:0.5872427983539095 3:0.1691358024691358 4:0.1691358024691358 5:0.16584362139917697 6:0.16584362139917697 7:0.5872427983539095 8:0.16584362139917697 9:0.16584362139917697 10:0.16255144032921812 11:0.5872427983539095 12:0.16255144032921812 13:0.23497942386831278 14:0.2843621399176955 15:0.5872427983539095 16:0.28106995884773667 17:0.2843621399176955 18:0.28106995884773667 19:0.5872427983539095 20:0.24485596707818932 21:0.17901234567901236 22:0.1823045267489712 23:0.5872427983539095 24:0.18559670781893006 25:0.18888888888888888 26:0.19547325102880658 27:0.5872427983539095 28:0.20205761316872428 29:0.21193415637860083 30:0.21851851851851853 
-0.22309205068491636 1:0.5872427983539095 2:0.1691358024691358 3:0.1691358024691358 4:0.16584362139917697 5:0.16584362139917697 6:0.5872427983539095 7:0.16584362139917697 8:0.16584362139917697 9:0.16255144032921812 10:0.5872427983539095 11:0.16255144032921812 12:0.23497942386831278 13:0.2843621399176955 14:0.5872427983539095 15:0.28106995884773667 16:0.2843621399176955 17:0.28106995884773667 18:0.5872427983539095 19:0.24485596707818932 20:0.17901234567901236 21:0.1823045267489712 22:0.5872427983539095 23:0.18559670781893006 24:0.18888888888888888 25:0.19547325102880658 26:0.5872427983539095 27:0.20205761316872428 28:0.21193415637860083 29:0.21851851851851853 30:0.5872427983539095 
1.0 1:0.1691358024691358 2:0.16584362139917697 3:0.16584362139917697 4:0.5872427983539095 5:0.16584362139917697 6:0.16584362139917697 7:0.16255144032921812 8:0.5872427983539095 9:0.16255144032921812 10:0.23497942386831278 11:0.2843621399176955 12:0.5872427983539095 13:0.28106995884773667 14:0.2843621399176955 15:0.28106995884773667 16:0.5872427983539095 17:0.24485596707818932 18:0.17901234567901236 19:0.1823045267489712 20:0.5872427983539095 21:0.18559670781893006 22:0.18888888888888888 23:0.19547325102880658 24:0.5872427983539095 25:0.20205761316872428 26:0.21193415637860083 27:0.21851851851851853 28:0.5872427983539095 29:0.2382716049382716 30:0.3304526748971194 
1.0 1:0.16584362139917697 2:0.5872427983539095 3:0.16584362139917697 4:0.16584362139917697 5:0.16255144032921812 6:0.5872427983539095 7:0.16255144032921812 8:0.23497942386831278 9:0.2843621399176955 10:0.5872427983539095 11:0.28106995884773667 12:0.2843621399176955 13:0.28106995884773667 14:0.5872427983539095 15:0.24485596707818932 16:0.17901234567901236 17:0.1823045267489712 18:0.5872427983539095 19:0.18559670781893006 20:0.18888888888888888 21:0.19547325102880658 22:0.5872427983539095 23:0.20205761316872428 24:0.21193415637860083 25:0.21851851851851853 26:0.5872427983539095 27:0.2382716049382716 28:0.3304526748971194 29:0.4292181069958848 30:0.5872427983539095 
1.0 1:0.5872427983539095 2:0.16584362139917697 3:0.16584362139917697 4:0.16255144032921812 5:0.5872427983539095 6:0.16255144032921812 7:0.23497942386831278 8:0.2843621399176955 9:0.5872427983539095 10:0.28106995884773667 11:0.2843621399176955 12:0.28106995884773667 13:0.5872427983539095 14:0.24485596707818932 15:0.17901234567901236 16:0.1823045267489712 17:0.5872427983539095 18:0.18559670781893006 19:0.18888888888888888 20:0.19547325102880658 21:0.5872427983539095 22:0.20205761316872428 23:0.21193415637860083 24:0.21851851851851853 25:0.5872427983539095 26:0.2382716049382716 27:0.3304526748971194 28:0.4292181069958848 29:0.5872427983539095 30:0.5246913580246914 
0.025786417206750345 1:0.5872427983539095 2:0.20205761316872428 3:0.21193415637860083 4:0.21851851851851853 5:0.5872427983539095 6:0.2382716049382716 7:0.3304526748971194 8:0.4292181069958848 9:0.5872427983539095 10:0.5246913580246914 11:0.5378600823045268 12:0.5345679012345679 13:0.5872427983539095 14:0.5576131687242798 15:0.5674897119341564 16:0.5477366255144033 17:0.5872427983539095 18:0.5246913580246914 19:0.5378600823045268 20:0.5674897119341564 21:0.5872427983539095 22:0.5839506172839507 23:0.577366255144033 24:0.5641975308641975 25:0.5872427983539095 26:0.5641975308641975 27:0.5740740740740741 28:0.6234567901234568 29:0.5872427983539095 30:0.6695473251028806 
-1.0 1:0.5839506172839507 2:0.577366255144033 3:0.5641975308641975 4:0.5872427983539095 5:0.5641975308641975 6:0.5740740740740741 7:0.6234567901234568 8:0.5872427983539095 9:0.6695473251028806 10:0.682716049382716 11:0.6761316872427984 12:0.5872427983539095 13:0.6465020576131687 14:0.6102880658436214 15:0.5872427983539095 16:0.5872427983539095 17:0.5740740740740741 18:0.5806584362139918 19:0.5938271604938271 20:0.5872427983539095 21:0.6037037037037037 22:0.616872427983539 23:0.6399176954732511 24:0.662962962962963 25:0.5872427983539095 26:0.6860082304526749 27:0.6958847736625515 28:0.6695473251028806 29:0.5872427983539095 30:0.5938271604938271 
-1.0 1:0.5740740740740741 2:0.5806584362139918 3:0.5938271604938271 4:0.5872427983539095 5:0.6037037037037037 6:0.616872427983539 7:0.6399176954732511 8:0.662962962962963 9:0.5872427983539095 10:0.6860082304526749 11:0.6958847736625515 12:0.6695473251028806 13:0.5872427983539095 14:0.5938271604938271 15:0.554320987654321 16:0.5707818930041152 17:0.5872427983539095 18:0.616872427983539 19:0.6333333333333333 20:0.620164609053498 21:0.5872427983539095 22:0.6102880658436214 23:0.6399176954732511 24:0.6596707818930041 25:0.5872427983539095 26:0.620164609053498 27:0.6102880658436214 28:0.5872427983539095 29:0.5872427983539095 30:0.5576131687242798 
-1.0 1:0.5806584362139918 2:0.5938271604938271 3:0.5872427983539095 4:0.6037037037037037 5:0.616872427983539 6:0.6399176954732511 7:0.662962962962963 8:0.5872427983539095 9:0.6860082304526749 10:0.6958847736625515 11:0.6695473251028806 12:0.5872427983539095 13:0.5938271604938271 14:0.554320987654321 15:0.5707818930041152 16:0.5872427983539095 17:0.616872427983539 18:0.6333333333333333 19:0.620164609053498 20:0.5872427983539095 21:0.6102880658436214 22:0.6399176954732511 23:0.6596707818930041 24:0.5872427983539095 25:0.620164609053498 26:0.6102880658436214 27:0.5872427983539095 28:0.5872427983539095 29:0.5576131687242798 30:0.4588477366255145 
-1.0 1:0.5872427983539095 2:0.6037037037037037 3:0.616872427983539 4:0.6399176954732511 5:0.662962962962963 6:0.5872427983539095 7:0.6860082304526749 8:0.6958847736625515 9:0.6695473251028806 10:0.5872427983539095 11:0.5938271604938271 12:0.554320987654321 13:0.5707818930041152 14:0.5872427983539095 15:0.616872427983539 16:0.6333333333333333 17:0.620164609053498 18:0.5872427983539095 19:0.6102880658436214 20:0.6399176954732511 21:0.6596707818930041 22:0.5872427983539095 23:0.620164609053498 24:0.6102880658436214 25:0.5872427983539095 26:0.5872427983539095 27:0.5576131687242798 28:0.4588477366255145 29:0.402880658436214 30:0.5872427983539095 
-0.10595398319147117 1:0.6037037037037037 2:0.616872427983539 3:0.6399176954732511 4:0.662962962962963 5:0.5872427983539095 6:0.6860082304526749 7:0.6958847736625515 8:0.6695473251028806 9:0.5872427983539095 10:0.5938271604938271 11:0.554320987654321 12:0.5707818930041152 13:0.5872427983539095 14:0.616872427983539 15:0.6333333333333333 16:0.620164609053498 17:0.5872427983539095 18:0.6102880658436214 19:0.6399176954732511 20:0.6596707818930041 21:0.5872427983539095 22:0.620164609053498 23:0.6102880658436214 24:0.5872427983539095 25:0.5872427983539095 26:0.5576131687242798 27:0.4588477366255145 28:0.402880658436214 29:0.5872427983539095 30:0.4061728395061729 
-1.0 1:0.616872427983539 2:0.6399176954732511 3:0.662962962962963 4:0.5872427983539095 5:0.6860082304526749 6:0.6958847736625515 7:0.6695473251028806 8:0.5872427983539095 9:0.5938271604938271 10:0.554320987654321 11:0.5707818930041152 12:0.5872427983539095 13:0.616872427983539 14:0.6333333333333333 15:0.620164609053498 16:0.5872427983539095 17:0.6102880658436214 18:0.6399176954732511 19:0.6596707818930041 20:0.5872427983539095 21:0.620164609053498 22:0.6102880658436214 23:0.5872427983539095 24:0.5872427983539095 25:0.5576131687242798 26:0.4588477366255145 27:0.402880658436214 28:0.5872427983539095 29:0.4061728395061729 30:0.4061728395061729 
-0.2612425836466779 1:0.5872427983539095 2:0.6860082304526749 3:0.6958847736625515 4:0.6695473251028806 5:0.5872427983539095 6:0.5938271604938271 7:0.554320987654321 8:0.5707818930041152 9:0.5872427983539095 10:0.616872427983539 11:0.6333333333333333 12:0.620164609053498 13:0.5872427983539095 14:0.6102880658436214 15:0.6399176954732511 16:0.6596707818930041 17:0.5872427983539095 18:0.620164609053498 19:0.6102880658436214 20:0.5872427983539095 21:0.5872427983539095 22:0.5576131687242798 23:0.4588477366255145 24:0.402880658436214 25:0.5872427983539095 26:0.4061728395061729 27:0.4061728395061729 28:0.3798353909465021 29:0.5872427983539095 30:0.3699588477366256 
-0.17640698007046143 1:0.5938271604938271 2:0.554320987654321 3:0.5707818930041152 4:0.5872427983539095 5:0.616872427983539 6:0.6333333333333333 7:0.620164609053498 8:0.5872427983539095 9:0.6102880658436214 10:0.6399176954732511 11:0.6596707818930041 12:0.5872427983539095 13:0.620164609053498 14:0.6102880658436214 15:0.5872427983539095 16:0.5872427983539095 17:0.5576131687242798 18:0.4588477366255145 19:0.402880658436214 20:0.5872427983539095 21:0.4061728395061729 22:0.4061728395061729 23:0.3798353909465021 24:0.5872427983539095 25:0.3699588477366256 26:0.3633744855967078 27:0.36008230452674905 28:0.5872427983539095 29:0.34691358024691354 30:0.337037037037037 
-0.0728004385661006 1:0.616872427983539 2:0.6333333333333333 3:0.620164609053498 4:0.5872427983539095 5:0.6102880658436214 6:0.6399176954732511 7:0.6596707818930041 8:0.5872427983539095 9:0.620164609053498 10:0.6102880658436214 11:0.5872427983539095 12:0.5872427983539095 13:0.5576131687242798 14:0.4588477366255145 15:0.402880658436214 16:0.5872427983539095 17:0.4061728395061729 18:0.4061728395061729 19:0.3798353909465021 20:0.5872427983539095 21:0.3699588477366256 22:0.3633744855967078 23:0.36008230452674905 24:0.5872427983539095 25:0.34691358024691354 26:0.337037037037037 27:0.3337448559670782 28:0.5872427983539095 29:0.3304526748971194 30:0.3238683127572016 
1.0 1:0.6399176954732511 2:0.6596707818930041 3:0.5872427983539095 4:0.620164609053498 5:0.6102880658436214 6:0.5872427983539095 7:0.5872427983539095 8:0.5576131687242798 9:0.4588477366255145 10:0.402880658436214 11:0.5872427983539095 12:0.4061728395061729 13:0.4061728395061729 14:0.3798353909465021 15:0.5872427983539095 16:0.3699588477366256 17:0.3633744855967078 18:0.36008230452674905 19:0.5872427983539095 20:0.34691358024691354 21:0.337037037037037 22:0.3337448559670782 23:0.5872427983539095 24:0.3304526748971194 25:0.3238683127572016 26:0.317283950617284 27:0.5872427983539095 28:0.3139917695473251 29:0.3106995884773663 30:0.3074074074074074 
1.0 1:0.6102880658436214 2:0.5872427983539095 3:0.5872427983539095 4:0.5576131687242798 5:0.4588477366255145 6:0.402880658436214 7:0.5872427983539095 8:0.4061728395061729 9:0.4061728395061729 10:0.3798353909465021 11:0.5872427983539095 12:0.3699588477366256 13:0.3633744855967078 14:0.36008230452674905 15:0.5872427983539095 16:0.34691358024691354 17:0.337037037037037 18:0.3337448559670782 19:0.5872427983539095 20:0.3304526748971194 21:0.3238683127572016 22:0.317283950617284 23:0.5872427983539095 24:0.3139917695473251 25:0.3106995884773663 26:0.3074074074074074 27:0.5872427983539095 28:0.3074074074074074 29:0.3074074074074074 30:0.3074074074074074 
-1.0 1:0.4588477366255145 2:0.402880658436214 3:0.5872427983539095 4:0.4061728395061729 5:0.4061728395061729 6:0.3798353909465021 7:0.5872427983539095 8:0.3699588477366256 9:0.3633744855967078 10:0.36008230452674905 11:0.5872427983539095 12:0.34691358024691354 13:0.337037037037037 14:0.3337448559670782 15:0.5872427983539095 16:0.3304526748971194 17:0.3238683127572016 18:0.317283950617284 19:0.5872427983539095 20:0.3139917695473251 21:0.3106995884773663 22:0.3074074074074074 23:0.5872427983539095 24:0.3074074074074074 25:0.3074074074074074 26:0.3074074074074074 27:0.5872427983539095 28:0.3074074074074074 29:0.317283950617284 30:0.32057613168724286 
1.0 1:0.402880658436214 2:0.5872427983539095 3:0.4061728395061729 4:0.4061728395061729 5:0.3798353909465021 6:0.5872427983539095 7:0.3699588477366256 8:0.3633744855967078 9:0.36008230452674905 10:0.5872427983539095 11:0.34691358024691354 12:0.337037037037037 13:0.3337448559670782 14:0.5872427983539095 15:0.3304526748971194 16:0.3238683127572016 17:0.317283950617284 18:0.5872427983539095 19:0.3139917695473251 20:0.3106995884773663 21:0.3074074074074074 22:0.5872427983539095 23:0.3074074074074074 24:0.3074074074074074 25:0.3074074074074074 26:0.5872427983539095 27:0.3074074074074074 28:0.317283950617284 29:0.32057613168724286 30:0.3139917695473251 
-1.0 1:0.4061728395061729 2:0.3798353909465021 3:0.5872427983539095 4:0.3699588477366256 5:0.3633744855967078 6:0.36008230452674905 7:0.5872427983539095 8:0.34691358024691354 9:0.337037037037037 10:0.3337448559670782 11:0.5872427983539095 12:0.3304526748971194 13:0.3238683127572016 14:0.317283950617284 15:0.5872427983539095 16:0.3139917695473251 17:0.3106995884773663 18:0.3074074074074074 19:0.5872427983539095 20:0.3074074074074074 21:0.3074074074074074 22:0.3074074074074074 23:0.5872427983539095 24:0.3074074074074074 25:0.317283950617284 26:0.32057613168724286 27:0.3139917695473251 28:0.5872427983539095 29:0.3139917695473251 30:0.317283950617284 
1.0 1:0.3798353909465021 2:0.5872427983539095 3:0.3699588477366256 4:0.3633744855967078 5:0.36008230452674905 6:0.5872427983539095 7:0.34691358024691354 8:0.337037037037037 9:0.3337448559670782 10:0.5872427983539095 11:0.3304526748971194 12:0.3238683127572016 13:0.317283950617284 14:0.5872427983539095 15:0.3139917695473251 16:0.3106995884773663 17:0.3074074074074074 18:0.5872427983539095 19:0.3074074074074074 20:0.3074074074074074 21:0.3074074074074074 22:0.5872427983539095 23:0.3074074074074074 24:0.317283950617284 25:0.32057613168724286 26:0.3139917695473251 27:0.5872427983539095 28:0.3139917695473251 29:0.317283950617284 30:0.337037037037037 
-1.0 1:0.5872427983539095 2:0.3139917695473251 3:0.3106995884773663 4:0.3074074074074074 5:0.5872427983539095 6:0.3074074074074074 7:0.3074074074074074 8:0.3074074074074074 9:0.5872427983539095 10:0.3074074074074074 11:0.317283950617284 12:0.32057613168724286 13:0.3139917695473251 14:0.5872427983539095 15:0.3139917695473251 16:0.317283950617284 17:0.337037037037037 18:0.5872427983539095 19:0.36008230452674905 20:0.4193415637860083 21:0.4786008230452675 22:0.5872427983539095 23:0.5082304526748972 24:0.47201646090534977 25:0.42263374485596705 26:0.5872427983539095 27:0.39958847736625513 28:0.402880658436214 29:0.3666666666666667 30:0.5872427983539095 
-1.0 1:0.3106995884773663 2:0.3074074074074074 3:0.5872427983539095 4:0.3074074074074074 5:0.3074074074074074 6:0.3074074074074074 7:0.5872427983539095 8:0.3074074074074074 9:0.317283950617284 10:0.32057613168724286 11:0.3139917695473251 12:0.5872427983539095 13:0.3139917695473251 14:0.317283950617284 15:0.337037037037037 16:0.5872427983539095 17:0.36008230452674905 18:0.4193415637860083 19:0.4786008230452675 20:0.5872427983539095 21:0.5082304526748972 22:0.47201646090534977 23:0.42263374485596705 24:0.5872427983539095 25:0.39958847736625513 26:0.402880658436214 27:0.3666666666666667 28:0.5872427983539095 29:0.32057613168724286 30:0.34691358024691354 
-0.40311186538113614 1:0.3074074074074074 2:0.3074074074074074 3:0.3074074074074074 4:0.5872427983539095 5:0.3074074074074074 6:0.317283950617284 7:0.32057613168724286 8:0.3139917695473251 9:0.5872427983539095 10:0.3139917695473251 11:0.317283950617284 12:0.337037037037037 13:0.5872427983539095 14:0.36008230452674905 15:0.4193415637860083 16:0.4786008230452675 17:0.5872427983539095 18:0.5082304526748972 19:0.47201646090534977 20:0.42263374485596705 21:0.5872427983539095 22:0.39958847736625513 23:0.402880658436214 24:0.3666666666666667 25:0.5872427983539095 26:0.32057613168724286 27:0.34691358024691354 28:0.32057613168724286 29:0.5872427983539095 30:0.3106995884773663 
0.028556656816766585 1:0.3074074074074074 2:0.5872427983539095 3:0.3074074074074074 4:0.317283950617284 5:0.32057613168724286 6:0.3139917695473251 7:0.5872427983539095 8:0.3139917695473251 9:0.317283950617284 10:0.337037037037037 11:0.5872427983539095 12:0.36008230452674905 13:0.4193415637860083 14:0.4786008230452675 15:0.5872427983539095 16:0.5082304526748972 17:0.47201646090534977 18:0.42263374485596705 19:0.5872427983539095 20:0.39958847736625513 21:0.402880658436214 22:0.3666666666666667 23:0.5872427983539095 24:0.32057613168724286 25:0.34691358024691354 26:0.32057613168724286 27:0.5872427983539095 28:0.3106995884773663 29:0.3074074074074074 30:0.3008230452674897 
1.0 1:0.32057613168724286 2:0.3139917695473251 3:0.5872427983539095 4:0.3139917695473251 5:0.317283950617284 6:0.337037037037037 7:0.5872427983539095 8:0.36008230452674905 9:0.4193415637860083 10:0.4786008230452675 11:0.5872427983539095 12:0.5082304526748972 13:0.47201646090534977 14:0.42263374485596705 15:0.5872427983539095 16:0.39958847736625513 17:0.402880658436214 18:0.3666666666666667 19:0.5872427983539095 20:0.32057613168724286 21:0.34691358024691354 22:0.32057613168724286 23:0.5872427983539095 24:0.3106995884773663 25:0.3074074074074074 26:0.3008230452674897 27:0.5872427983539095 28:0.3008230452674897 29:0.29753086419753083 30:0.29753086419753083 
1.0 1:0.317283950617284 2:0.337037037037037 3:0.5872427983539095 4:0.36008230452674905 5:0.4193415637860083 6:0.4786008230452675 7:0.5872427983539095 8:0.5082304526748972 9:0.47201646090534977 10:0.42263374485596705 11:0.5872427983539095 12:0.39958847736625513 13:0.402880658436214 14:0.3666666666666667 15:0.5872427983539095 16:0.32057613168724286 17:0.34691358024691354 18:0.32057613168724286 19:0.5872427983539095 20:0.3106995884773663 21:0.3074074074074074 22:0.3008230452674897 23:0.5872427983539095 24:0.3008230452674897 25:0.29753086419753083 26:0.29753086419753083 27:0.5872427983539095 28:0.29423868312757206 29:0.29423868312757206 30:0.29423868312757206 
1.0 1:0.4193415637860083 2:0.4786008230452675 3:0.5872427983539095 4:0.5082304526748972 5:0.47201646090534977 6:0.42263374485596705 7:0.5872427983539095 8:0.39958847736625513 9:0.402880658436214 10:0.3666666666666667 11:0.5872427983539095 12:0.32057613168724286 13:0.34691358024691354 14:0.32057613168724286 15:0.5872427983539095 16:0.3106995884773663 17:0.3074074074074074 18:0.3008230452674897 19:0.5872427983539095 20:0.3008230452674897 21:0.29753086419753083 22:0.29753086419753083 23:0.5872427983539095 24:0.29423868312757206 25:0.29423868312757206 26:0.29423868312757206 27:0.5872427983539095 28:0.29753086419753083 29:0.29753086419753083 30:0.29753086419753083 
1.0 1:0.47201646090534977 2:0.42263374485596705 3:0.5872427983539095 4:0.39958847736625513 5:0.402880658436214 6:0.3666666666666667 7:0.5872427983539095 8:0.32057613168724286 9:0.34691358024691354 10:0.32057613168724286 11:0.5872427983539095 12:0.3106995884773663 13:0.3074074074074074 14:0.3008230452674897 15:0.5872427983539095 16:0.3008230452674897 17:0.29753086419753083 18:0.29753086419753083 19:0.5872427983539095 20:0.29423868312757206 21:0.29423868312757206 22:0.29423868312757206 23:0.5872427983539095 24:0.29753086419753083 25:0.29753086419753083 26:0.29753086419753083 27:0.5872427983539095 28:0.3008230452674897 29:0.3008230452674897 30:0.3041152263374486 
1.0 1:0.39958847736625513 2:0.402880658436214 3:0.3666666666666667 4:0.5872427983539095 5:0.32057613168724286 6:0.34691358024691354 7:0.32057613168724286 8:0.5872427983539095 9:0.3106995884773663 10:0.3074074074074074 11:0.3008230452674897 12:0.5872427983539095 13:0.3008230452674897 14:0.29753086419753083 15:0.29753086419753083 16:0.5872427983539095 17:0.29423868312757206 18:0.29423868312757206 19:0.29423868312757206 20:0.5872427983539095 21:0.29753086419753083 22:0.29753086419753083 23:0.29753086419753083 24:0.5872427983539095 25:0.3008230452674897 26:0.3008230452674897 27:0.3041152263374486 28:0.5872427983539095 29:0.3106995884773663 30:0.3139917695473251 
-1.0 1:0.402880658436214 2:0.3666666666666667 3:0.5872427983539095 4:0.32057613168724286 5:0.34691358024691354 6:0.32057613168724286 7:0.5872427983539095 8:0.3106995884773663 9:0.3074074074074074 10:0.3008230452674897 11:0.5872427983539095 12:0.3008230452674897 13:0.29753086419753083 14:0.29753086419753083 15:0.5872427983539095 16:0.29423868312757206 17:0.29423868312757206 18:0.29423868312757206 19:0.5872427983539095 20:0.29753086419753083 21:0.29753086419753083 22:0.29753086419753083 23:0.5872427983539095 24:0.3008230452674897 25:0.3008230452674897 26:0.3041152263374486 27:0.5872427983539095 28:0.3106995884773663 29:0.3139917695473251 30:0.5872427983539095 
-1.0 1:0.3666666666666667 2:0.5872427983539095 3:0.32057613168724286 4:0.34691358024691354 5:0.32057613168724286 6:0.5872427983539095 7:0.3106995884773663 8:0.3074074074074074 9:0.3008230452674897 10:0.5872427983539095 11:0.3008230452674897 12:0.29753086419753083 13:0.29753086419753083 14:0.5872427983539095 15:0.29423868312757206 16:0.29423868312757206 17:0.29423868312757206 18:0.5872427983539095 19:0.29753086419753083 20:0.29753086419753083 21:0.29753086419753083 22:0.5872427983539095 23:0.3008230452674897 24:0.3008230452674897 25:0.3041152263374486 26:0.5872427983539095 27:0.3106995884773663 28:0.3139917695473251 29:0.5872427983539095 30:0.317283950617284 
1.0 1:0.32057613168724286 2:0.34691358024691354 3:0.32057613168724286 4:0.5872427983539095 5:0.3106995884773663 6:0.3074074074074074 7:0.3008230452674897 8:0.5872427983539095 9:0.3008230452674897 10:0.29753086419753083 11:0.29753086419753083 12:0.5872427983539095 13:0.29423868312757206 14:0.29423868312757206 15:0.29423868312757206 16:0.5872427983539095 17:0.29753086419753083 18:0.29753086419753083 19:0.29753086419753083 20:0.5872427983539095 21:0.3008230452674897 22:0.3008230452674897 23:0.3041152263374486 24:0.5872427983539095 25:0.3106995884773663 26:0.3139917695473251 27:0.5872427983539095 28:0.317283950617284 29:0.3238683127572016 30:0.3271604938271605 
1.0 1:0.3106995884773663 2:0.3074074074074074 3:0.3008230452674897 4:0.5872427983539095 5:0.3008230452674897 6:0.29753086419753083 7:0.29753086419753083 8:0.5872427983539095 9:0.29423868312757206 10:0.29423868312757206 11:0.29423868312757206 12:0.5872427983539095 13:0.29753086419753083 14:0.29753086419753083 15:0.29753086419753083 16:0.5872427983539095 17:0.3008230452674897 18:0.3008230452674897 19:0.3041152263374486 20:0.5872427983539095 21:0.3106995884773663 22:0.3139917695473251 23:0.5872427983539095 24:0.317283950617284 25:0.3238683127572016 26:0.3271604938271605 27:0.5872427983539095 28:0.337037037037037 29:0.3403292181069959 30:0.3502057613168724 
1.0 1:0.5872427983539095 2:0.29423868312757206 3:0.29423868312757206 4:0.29423868312757206 5:0.5872427983539095 6:0.29753086419753083 7:0.29753086419753083 8:0.29753086419753083 9:0.5872427983539095 10:0.3008230452674897 11:0.3008230452674897 12:0.3041152263374486 13:0.5872427983539095 14:0.3106995884773663 15:0.3139917695473251 16:0.5872427983539095 17:0.317283950617284 18:0.3238683127572016 19:0.3271604938271605 20:0.5872427983539095 21:0.337037037037037 22:0.3403292181069959 23:0.3502057613168724 24:0.5872427983539095 25:0.3567901234567902 26:0.38312757201646097 27:0.4193415637860083 28:0.5872427983539095 29:0.44897119341563785 30:0.5049382716049383 
1.0 1:0.3403292181069959 2:0.3502057613168724 3:0.5872427983539095 4:0.3567901234567902 5:0.38312757201646097 6:0.4193415637860083 7:0.5872427983539095 8:0.44897119341563785 9:0.5049382716049383 10:0.5707818930041152 11:0.5872427983539095 12:0.5576131687242798 13:0.5345679012345679 14:0.5411522633744856 15:0.5872427983539095 16:0.5477366255144033 17:0.4786008230452675 18:0.4917695473251029 19:0.5411522633744856 20:0.5872427983539095 21:0.5444444444444445 22:0.5444444444444445 23:0.5641975308641975 24:0.5872427983539095 25:0.6004115226337449 26:0.6234567901234568 27:0.6399176954732511 28:0.5872427983539095 29:0.6234567901234568 30:0.6761316872427984 
1.0 1:0.5872427983539095 2:0.3567901234567902 3:0.38312757201646097 4:0.4193415637860083 5:0.5872427983539095 6:0.44897119341563785 7:0.5049382716049383 8:0.5707818930041152 9:0.5872427983539095 10:0.5576131687242798 11:0.5345679012345679 12:0.5411522633744856 13:0.5872427983539095 14:0.5477366255144033 15:0.4786008230452675 16:0.4917695473251029 17:0.5411522633744856 18:0.5872427983539095 19:0.5444444444444445 20:0.5444444444444445 21:0.5641975308641975 22:0.5872427983539095 23:0.6004115226337449 24:0.6234567901234568 25:0.6399176954732511 26:0.5872427983539095 27:0.6234567901234568 28:0.6761316872427984 29:0.7386831275720165 30:0.5872427983539095 
1.0 1:0.3567901234567902 2:0.38312757201646097 3:0.4193415637860083 4:0.5872427983539095 5:0.44897119341563785 6:0.5049382716049383 7:0.5707818930041152 8:0.5872427983539095 9:0.5576131687242798 10:0.5345679012345679 11:0.5411522633744856 12:0.5872427983539095 13:0.5477366255144033 14:0.4786008230452675 15:0.4917695473251029 16:0.5411522633744856 17:0.5872427983539095 18:0.5444444444444445 19:0.5444444444444445 20:0.5641975308641975 21:0.5872427983539095 22:0.6004115226337449 23:0.6234567901234568 24:0.6399176954732511 25:0.5872427983539095 26:0.6234567901234568 27:0.6761316872427984 28:0.7386831275720165 29:0.5872427983539095 30:0.8012345679012346 
1.0 1:0.38312757201646097 2:0.4193415637860083 3:0.5872427983539095 4:0.44897119341563785 5:0.5049382716049383 6:0.5707818930041152 7:0.5872427983539095 8:0.5576131687242798 9:0.5345679012345679 10:0.5411522633744856 11:0.5872427983539095 12:0.5477366255144033 13:0.4786008230452675 14:0.4917695473251029 15:0.5411522633744856 16:0.5872427983539095 17:0.5444444444444445 18:0.5444444444444445 19:0.5641975308641975 20:0.5872427983539095 21:0.6004115226337449 22:0.6234567901234568 23:0.6399176954732511 24:0.5872427983539095 25:0.6234567901234568 26:0.6761316872427984 27:0.7386831275720165 28:0.5872427983539095 29:0.8012345679012346 30:0.7781893004115227 
-1.0 1:0.5049382716049383 2:0.5707818930041152 3:0.5872427983539095 4:0.5576131687242798 5:0.5345679012345679 6:0.5411522633744856 7:0.5872427983539095 8:0.5477366255144033 9:0.4786008230452675 10:0.4917695473251029 11:0.5411522633744856 12:0.5872427983539095 13:0.5444444444444445 14:0.5444444444444445 15:0.5641975308641975 16:0.5872427983539095 17:0.6004115226337449 18:0.6234567901234568 19:0.6399176954732511 20:0.5872427983539095 21:0.6234567901234568 22:0.6761316872427984 23:0.7386831275720165 24:0.5872427983539095 25:0.8012345679012346 26:0.7781893004115227 27:0.8012345679012346 28:0.5872427983539095 29:0.8012345679012346 30:0.7880658436213992 
-1.0 1:0.5872427983539095 2:0.5576131687242798 3:0.5345679012345679 4:0.5411522633744856 5:0.5872427983539095 6:0.5477366255144033 7:0.4786008230452675 8:0.4917695473251029 9:0.5411522633744856 10:0.5872427983539095 11:0.5444444444444445 12:0.5444444444444445 13:0.5641975308641975 14:0.5872427983539095 15:0.6004115226337449 16:0.6234567901234568 17:0.6399176954732511 18:0.5872427983539095 19:0.6234567901234568 20:0.6761316872427984 21:0.7386831275720165 22:0.5872427983539095 23:0.8012345679012346 24:0.7781893004115227 25:0.8012345679012346 26:0.5872427983539095 27:0.8012345679012346 28:0.7880658436213992 29:0.5872427983539095 30:0.5872427983539095 
1.0 1:0.5411522633744856 2:0.5872427983539095 3:0.5477366255144033 4:0.4786008230452675 5:0.4917695473251029 6:0.5411522633744856 7:0.5872427983539095 8:0.5444444444444445 9:0.5444444444444445 10:0.5641975308641975 11:0.5872427983539095 12:0.6004115226337449 13:0.6234567901234568 14:0.6399176954732511 15:0.5872427983539095 16:0.6234567901234568 17:0.6761316872427984 18:0.7386831275720165 19:0.5872427983539095 20:0.8012345679012346 21:0.7781893004115227 22:0.8012345679012346 23:0.5872427983539095 24:0.8012345679012346 25:0.7880658436213992 26:0.5872427983539095 27:0.5872427983539095 28:0.5872427983539095 29:0.7716049382716049 30:0.5872427983539095 
-1.0 1:0.5477366255144033 2:0.4786008230452675 3:0.4917695473251029 4:0.5411522633744856 5:0.5872427983539095 6:0.5444444444444445 7:0.5444444444444445 8:0.5641975308641975 9:0.5872427983539095 10:0.6004115226337449 11:0.6234567901234568 12:0.6399176954732511 13:0.5872427983539095 14:0.6234567901234568 15:0.6761316872427984 16:0.7386831275720165 17:0.5872427983539095 18:0.8012345679012346 19:0.7781893004115227 20:0.8012345679012346 21:0.5872427983539095 22:0.8012345679012346 23:0.7880658436213992 24:0.5872427983539095 25:0.5872427983539095 26:0.5872427983539095 27:0.7716049382716049 28:0.5872427983539095 29:0.7847736625514403 30:0.5872427983539095 
1.0 1:0.4917695473251029 2:0.5411522633744856 3:0.5872427983539095 4:0.5444444444444445 5:0.5444444444444445 6:0.5641975308641975 7:0.5872427983539095 8:0.6004115226337449 9:0.6234567901234568 10:0.6399176954732511 11:0.5872427983539095 12:0.6234567901234568 13:0.6761316872427984 14:0.7386831275720165 15:0.5872427983539095 16:0.8012345679012346 17:0.7781893004115227 18:0.8012345679012346 19:0.5872427983539095 20:0.8012345679012346 21:0.7880658436213992 22:0.5872427983539095 23:0.5872427983539095 24:0.5872427983539095 25:0.7716049382716049 26:0.5872427983539095 27:0.7847736625514403 28:0.5872427983539095 29:0.5872427983539095 30:0.5872427983539095 
-0.7914409493831083 1:0.5444444444444445 2:0.5641975308641975 3:0.5872427983539095 4:0.6004115226337449 5:0.6234567901234568 6:0.6399176954732511 7:0.5872427983539095 8:0.6234567901234568 9:0.6761316872427984 10:0.7386831275720165 11:0.5872427983539095 12:0.8012345679012346 13:0.7781893004115227 14:0.8012345679012346 15:0.5872427983539095 16:0.8012345679012346 17:0.7880658436213992 18:0.5872427983539095 19:0.5872427983539095 20:0.5872427983539095 21:0.7716049382716049 22:0.5872427983539095 23:0.7847736625514403 24:0.5872427983539095 25:0.5872427983539095 26:0.5872427983539095 27:0.7880658436213992 28:0.6860082304526749 29:0.5872427983539095 30:0.5872427983539095 
1.0 1:0.6596707818930041 2:0.6530864197530863 3:0.5872427983539095 4:0.5872427983539095 5:0.5872427983539095 6:0.5872427983539095 7:0.5905349794238683 8:0.5839506172839507 9:0.5872427983539095 10:0.5641975308641975 11:0.5444444444444445 12:0.5609053497942388 13:0.5872427983539095 14:0.5674897119341564 15:0.5378600823045268 16:0.5345679012345679 17:0.5872427983539095 18:0.620164609053498 19:0.6234567901234568 20:0.5740740740740741 21:0.5872427983539095 22:0.5740740740740741 23:0.5740740740740741 24:0.554320987654321 25:0.554320987654321 26:0.5872427983539095 27:0.5740740740740741 28:0.5839506172839507 29:0.6432098765432099 30:0.5872427983539095 
1.0 1:0.6530864197530863 2:0.5872427983539095 3:0.5872427983539095 4:0.5872427983539095 5:0.5872427983539095 6:0.5905349794238683 7:0.5839506172839507 8:0.5872427983539095 9:0.5641975308641975 10:0.5444444444444445 11:0.5609053497942388 12:0.5872427983539095 13:0.5674897119341564 14:0.5378600823045268 15:0.5345679012345679 16:0.5872427983539095 17:0.620164609053498 18:0.6234567901234568 19:0.5740740740740741 20:0.5872427983539095 21:0.5740740740740741 22:0.5740740740740741 23:0.554320987654321 24:0.554320987654321 25:0.5872427983539095 26:0.5740740740740741 27:0.5839506172839507 28:0.6432098765432099 29:0.5872427983539095 30:0.6991769547325103 
1.0 1:0.5872427983539095 2:0.5872427983539095 3:0.5872427983539095 4:0.5872427983539095 5:0.5905349794238683 6:0.5839506172839507 7:0.5872427983539095 8:0.5641975308641975 9:0.5444444444444445 10:0.5609053497942388 11:0.5872427983539095 12:0.5674897119341564 13:0.5378600823045268 14:0.5345679012345679 15:0.5872427983539095 16:0.620164609053498 17:0.6234567901234568 18:0.5740740740740741 19:0.5872427983539095 20:0.5740740740740741 21:0.5740740740740741 22:0.554320987654321 23:0.554320987654321 24:0.5872427983539095 25:0.5740740740740741 26:0.5839506172839507 27:0.6432098765432099 28:0.5872427983539095 29:0.6991769547325103 30:0.768312757201646 
-1.0 1:0.5674897119341564 2:0.5378600823045268 3:0.5345679012345679 4:0.5872427983539095 5:0.620164609053498 6:0.6234567901234568 7:0.5740740740740741 8:0.5872427983539095 9:0.5740740740740741 10:0.5740740740740741 11:0.554320987654321 12:0.554320987654321 13:0.5872427983539095 14:0.5740740740740741 15:0.5839506172839507 16:0.6432098765432099 17:0.5872427983539095 18:0.6991769547325103 19:0.768312757201646 20:0.7880658436213992 21:0.5872427983539095 22:0.7847736625514403 23:0.7716049382716049 24:0.7518518518518519 25:0.5872427983539095 26:0.7353909465020577 27:0.7123456790123457 28:0.6860082304526749 29:0.5872427983539095 30:0.6366255144032922 
-1.0 1:0.6234567901234568 2:0.5740740740740741 3:0.5872427983539095 4:0.5740740740740741 5:0.5740740740740741 6:0.554320987654321 7:0.554320987654321 8:0.5872427983539095 9:0.5740740740740741 10:0.5839506172839507 11:0.6432098765432099 12:0.5872427983539095 13:0.6991769547325103 14:0.768312757201646 15:0.7880658436213992 16:0.5872427983539095 17:0.7847736625514403 18:0.7716049382716049 19:0.7518518518518519 20:0.5872427983539095 21:0.7353909465020577 22:0.7123456790123457 23:0.6860082304526749 24:0.5872427983539095 25:0.6366255144032922 26:0.5378600823045268 27:0.5510288065843622 28:0.5872427983539095 29:0.5444444444444445 30:0.511522633744856 
-1.0 1:0.5872427983539095 2:0.5740740740740741 3:0.5740740740740741 4:0.554320987654321 5:0.554320987654321 6:0.5872427983539095 7:0.5740740740740741 8:0.5839506172839507 9:0.6432098765432099 10:0.5872427983539095 11:0.6991769547325103 12:0.768312757201646 13:0.7880658436213992 14:0.5872427983539095 15:0.7847736625514403 16:0.7716049382716049 17:0.7518518518518519 18:0.5872427983539095 19:0.7353909465020577 20:0.7123456790123457 21:0.6860082304526749 22:0.5872427983539095 23:0.6366255144032922 24:0.5378600823045268 25:0.5510288065843622 26:0.5872427983539095 27:0.5444444444444445 28:0.511522633744856 29:0.47530864197530864 30:0.5872427983539095 
-1.0 1:0.5740740740740741 2:0.5740740740740741 3:0.554320987654321 4:0.554320987654321 5:0.5872427983539095 6:0.5740740740740741 7:0.5839506172839507 8:0.6432098765432099 9:0.5872427983539095 10:0.6991769547325103 11:0.768312757201646 12:0.7880658436213992 13:0.5872427983539095 14:0.7847736625514403 15:0.7716049382716049 16:0.7518518518518519 17:0.5872427983539095 18:0.7353909465020577 19:0.7123456790123457 20:0.6860082304526749 21:0.5872427983539095 22:0.6366255144032922 23:0.5378600823045268 24:0.5510288065843622 25:0.5872427983539095 26:0.5444444444444445 27:0.511522633744856 28:0.47530864197530864 29:0.5872427983539095 30:0.44567901234567897 
-1.0 1:0.5740740740740741 2:0.554320987654321 3:0.554320987654321 4:0.5872427983539095 5:0.5740740740740741 6:0.5839506172839507 7:0.6432098765432099 8:0.5872427983539095 9:0.6991769547325103 10:0.768312757201646 11:0.7880658436213992 12:0.5872427983539095 13:0.7847736625514403 14:0.7716049382716049 15:0.7518518518518519 16:0.5872427983539095 17:0.7353909465020577 18:0.7123456790123457 19:0.6860082304526749 20:0.5872427983539095 21:0.6366255144032922 22:0.5378600823045268 23:0.5510288065843622 24:0.5872427983539095 25:0.5444444444444445 26:0.511522633744856 27:0.47530864197530864 28:0.5872427983539095 29:0.44567901234567897 30:0.43580246913580245 
-1.0 1:0.5378600823045268 2:0.5510288065843622 3:0.5872427983539095 4:0.5444444444444445 5:0.511522633744856 6:0.47530864197530864 7:0.5872427983539095 8:0.44567901234567897 9:0.43580246913580245 10:0.40946502057613177 11:0.5872427983539095 12:0.39629629629629626 13:0.41275720164609053 14:0.4061728395061729 15:0.5872427983539095 16:0.4061728395061729 17:0.39629629629629626 18:0.3930041152263375 19:0.5872427983539095 20:0.38641975308641974 21:0.3798353909465021 22:0.3798353909465021 23:0.5872427983539095 24:0.37325102880658434 25:0.37325102880658434 26:0.3699588477366256 27:0.5872427983539095 28:0.3666666666666667 29:0.3633744855967078 30:0.3633744855967078 
1.0 1:0.5510288065843622 2:0.5872427983539095 3:0.5444444444444445 4:0.511522633744856 5:0.47530864197530864 6:0.5872427983539095 7:0.44567901234567897 8:0.43580246913580245 9:0.40946502057613177 10:0.5872427983539095 11:0.39629629629629626 12:0.41275720164609053 13:0.4061728395061729 14:0.5872427983539095 15:0.4061728395061729 16:0.39629629629629626 17:0.3930041152263375 18:0.5872427983539095 19:0.38641975308641974 20:0.3798353909465021 21:0.3798353909465021 22:0.5872427983539095 23:0.37325102880658434 24:0.37325102880658434 25:0.3699588477366256 26:0.5872427983539095 27:0.3666666666666667 28:0.3633744855967078 29:0.3633744855967078 30:0.36008230452674905 
-1.0 1:0.511522633744856 2:0.47530864197530864 3:0.5872427983539095 4:0.44567901234567897 5:0.43580246913580245 6:0.40946502057613177 7:0.5872427983539095 8:0.39629629629629626 9:0.41275720164609053 10:0.4061728395061729 11:0.5872427983539095 12:0.4061728395061729 13:0.39629629629629626 14:0.3930041152263375 15:0.5872427983539095 16:0.38641975308641974 17:0.3798353909465021 18:0.3798353909465021 19:0.5872427983539095 20:0.37325102880658434 21:0.37325102880658434 22:0.3699588477366256 23:0.5872427983539095 24:0.3666666666666667 25:0.3633744855967078 26:0.3633744855967078 27:0.36008230452674905 28:0.5872427983539095 29:0.3567901234567902 30:0.3567901234567902 
1.0 1:0.47530864197530864 2:0.5872427983539095 3:0.44567901234567897 4:0.43580246913580245 5:0.40946502057613177 6:0.5872427983539095 7:0.39629629629629626 8:0.41275720164609053 9:0.4061728395061729 10:0.5872427983539095 11:0.4061728395061729 12:0.39629629629629626 13:0.3930041152263375 14:0.5872427983539095 15:0.38641975308641974 16:0.3798353909465021 17:0.3798353909465021 18:0.5872427983539095 19:0.37325102880658434 20:0.37325102880658434 21:0.3699588477366256 22:0.5872427983539095 23:0.3666666666666667 24:0.3633744855967078 25:0.3633744855967078 26:0.36008230452674905 27:0.5872427983539095 28:0.3567901234567902 29:0.3567901234567902 30:0.3534979423868313 
-1.0 1:0.5872427983539095 2:0.3666666666666667 3:0.3633744855967078 4:0.3633744855967078 5:0.36008230452674905 6:0.5872427983539095 7:0.3567901234567902 8:0.3567901234567902 9:0.3534979423868313 10:0.5872427983539095 11:0.3502057613168724 12:0.3502057613168724 13:0.34691358024691354 14:0.5872427983539095 15:0.3238683127572016 16:0.32057613168724286 17:0.317283950617284 18:0.5872427983539095 19:0.3106995884773663 20:0.3106995884773663 21:0.3106995884773663 22:0.5872427983539095 23:0.3139917695473251 24:0.3238683127572016 25:0.3238683127572016 26:0.5872427983539095 27:0.34691358024691354 28:0.44897119341563785 29:0.34691358024691354 30:0.5872427983539095 
1.0 1:0.3666666666666667 2:0.3633744855967078 3:0.3633744855967078 4:0.36008230452674905 5:0.5872427983539095 6:0.3567901234567902 7:0.3567901234567902 8:0.3534979423868313 9:0.5872427983539095 10:0.3502057613168724 11:0.3502057613168724 12:0.34691358024691354 13:0.5872427983539095 14:0.3238683127572016 15:0.32057613168724286 16:0.317283950617284 17:0.5872427983539095 18:0.3106995884773663 19:0.3106995884773663 20:0.3106995884773663 21:0.5872427983539095 22:0.3139917695473251 23:0.3238683127572016 24:0.3238683127572016 25:0.5872427983539095 26:0.34691358024691354 27:0.44897119341563785 28:0.34691358024691354 29:0.5872427983539095 30:0.2580246913580247 
1.0 1:0.3633744855967078 2:0.3633744855967078 3:0.36008230452674905 4:0.5872427983539095 5:0.3567901234567902 6:0.3567901234567902 7:0.3534979423868313 8:0.5872427983539095 9:0.3502057613168724 10:0.3502057613168724 11:0.34691358024691354 12:0.5872427983539095 13:0.3238683127572016 14:0.32057613168724286 15:0.317283950617284 16:0.5872427983539095 17:0.3106995884773663 18:0.3106995884773663 19:0.3106995884773663 20:0.5872427983539095 21:0.3139917695473251 22:0.3238683127572016 23:0.3238683127572016 24:0.5872427983539095 25:0.34691358024691354 26:0.44897119341563785 27:0.34691358024691354 28:0.5872427983539095 29:0.2580246913580247 30:0.5872427983539095 
1.0 1:0.36008230452674905 2:0.5872427983539095 3:0.3567901234567902 4:0.3567901234567902 5:0.3534979423868313 6:0.5872427983539095 7:0.3502057613168724 8:0.3502057613168724 9:0.34691358024691354 10:0.5872427983539095 11:0.3238683127572016 12:0.32057613168724286 13:0.317283950617284 14:0.5872427983539095 15:0.3106995884773663 16:0.3106995884773663 17:0.3106995884773663 18:0.5872427983539095 19:0.3139917695473251 20:0.3238683127572016 21:0.3238683127572016 22:0.5872427983539095 23:0.34691358024691354 24:0.44897119341563785 25:0.34691358024691354 26:0.5872427983539095 27:0.2580246913580247 28:0.5872427983539095 29:0.5872427983539095 30:0.5872427983539095 
-1.0 1:0.5872427983539095 2:0.5872427983539095 3:0.5872427983539095 4:0.5872427983539095 5:0.5872427983539095 6:0.5872427983539095 7:0.5872427983539095 8:0.5872427983539095 9:0.5872427983539095 10:0.5872427983539095 11:0.5872427983539095 12:0.5872427983539095 13:0.5872427983539095 14:0.5872427983539095 15:0.5872427983539095 16:0.5872427983539095 17:0.5872427983539095 18:0.5872427983539095 19:0.5872427983539095 20:0.5872427983539095 21:0.5872427983539095 22:0.5872427983539095 23:0.5872427983539095 24:0.5872427983539095 25:0.5872427983539095 26:0.5872427983539095 27:0.5872427983539095 28:0.5872427983539095 29:0.5872427983539095 30:0.5872427983539095 
