encog,SVM,java,3.1.0,1,1400512083044
[SVM]
[SVM:PARAMS]
[SVM:SVM-PARAM]
inputCount=30
C=1
cacheSize=100
coef0=0
degree=3
eps=0.001
gamma=0.0333333333
kernelType=2
nrWeight=0
nu=0.5
p=0.1
probability=0
shrinking=1
svmType=3
weight=
weightLabel=
[SVM:SVM-MODEL]
svm_type epsilon_svr
kernel_type rbf
gamma 0.03333333333333333
nr_class 2
total_sv 79
rho -0.5094665073872321
SV
-1.0 1:0.2142857142857143 2:0.6714285714285715 3:0.6714285714285715 4:0.6714285714285715 5:0.6714285714285715 6:0.2142857142857143 7:0.6714285714285715 8:0.6714285714285715 9:0.6714285714285715 10:0.6714285714285715 11:0.2142857142857143 12:0.6714285714285715 13:0.6714285714285715 14:0.6714285714285715 15:0.6714285714285715 16:0.32857142857142857 17:0.6714285714285715 18:0.6714285714285715 19:0.6714285714285715 20:0.6714285714285715 21:0.1 22:0.6714285714285715 23:0.6714285714285715 24:0.6714285714285715 25:0.6714285714285715 26:0.32857142857142857 27:0.6714285714285715 28:0.6714285714285715 29:0.6714285714285715 30:0.6714285714285715 
0.08674254978955147 1:0.6714285714285715 2:0.6714285714285715 3:0.2142857142857143 4:0.6714285714285715 5:0.6714285714285715 6:0.6714285714285715 7:0.6714285714285715 8:0.32857142857142857 9:0.6714285714285715 10:0.6714285714285715 11:0.6714285714285715 12:0.6714285714285715 13:0.1 14:0.6714285714285715 15:0.6714285714285715 16:0.6714285714285715 17:0.6714285714285715 18:0.32857142857142857 19:0.6714285714285715 20:0.6714285714285715 21:0.6714285714285715 22:0.6714285714285715 23:0.1 24:0.6714285714285715 25:0.6714285714285715 26:0.6714285714285715 27:0.6714285714285715 28:0.32857142857142857 29:0.6714285714285715 30:0.6714285714285715 
-1.0 1:0.1 2:0.6714285714285715 3:0.6714285714285715 4:0.6714285714285715 5:0.6714285714285715 6:0.32857142857142857 7:0.6714285714285715 8:0.6714285714285715 9:0.6714285714285715 10:0.6714285714285715 11:0.1 12:0.6714285714285715 13:0.6714285714285715 14:0.6714285714285715 15:0.6714285714285715 16:0.32857142857142857 17:0.6714285714285715 18:0.6714285714285715 19:0.6714285714285715 20:0.6714285714285715 21:0.32857142857142857 22:0.6714285714285715 23:0.6714285714285715 24:0.6714285714285715 25:0.6714285714285715 26:0.32857142857142857 27:0.6714285714285715 28:0.6714285714285715 29:0.6714285714285715 30:0.6714285714285715 
-1.0 1:0.1 2:0.6714285714285715 3:0.6714285714285715 4:0.6714285714285715 5:0.6714285714285715 6:0.32857142857142857 7:0.6714285714285715 8:0.6714285714285715 9:0.6714285714285715 10:0.6714285714285715 11:0.32857142857142857 12:0.6714285714285715 13:0.6714285714285715 14:0.6714285714285715 15:0.6714285714285715 16:0.32857142857142857 17:0.6714285714285715 18:0.6714285714285715 19:0.6714285714285715 20:0.6714285714285715 21:0.2142857142857143 22:0.6714285714285715 23:0.6714285714285715 24:0.6714285714285715 25:0.6714285714285715 26:0.32857142857142857 27:0.6714285714285715 28:0.6714285714285715 29:0.6714285714285715 30:0.6714285714285715 
-1.0 1:0.32857142857142857 2:0.6714285714285715 3:0.6714285714285715 4:0.6714285714285715 5:0.6714285714285715 6:0.32857142857142857 7:0.6714285714285715 8:0.6714285714285715 9:0.6714285714285715 10:0.6714285714285715 11:0.32857142857142857 12:0.6714285714285715 13:0.6714285714285715 14:0.6714285714285715 15:0.6714285714285715 16:0.2142857142857143 17:0.6714285714285715 18:0.6714285714285715 19:0.6714285714285715 20:0.6714285714285715 21:0.32857142857142857 22:0.6714285714285715 23:0.6714285714285715 24:0.6714285714285715 25:0.6714285714285715 26:0.2142857142857143 27:0.6714285714285715 28:0.6714285714285715 29:0.6714285714285715 30:0.6714285714285715 
-1.0 1:0.1 2:0.6714285714285715 3:0.6714285714285715 4:0.6714285714285715 5:0.6714285714285715 6:0.32857142857142857 7:0.6714285714285715 8:0.6714285714285715 9:0.6714285714285715 10:0.6714285714285715 11:0.2142857142857143 12:0.6714285714285715 13:0.6714285714285715 14:0.6714285714285715 15:0.6714285714285715 16:0.2142857142857143 17:0.6714285714285715 18:0.6714285714285715 19:0.6714285714285715 20:0.6714285714285715 21:0.32857142857142857 22:0.6714285714285715 23:0.6714285714285715 24:0.6714285714285715 25:0.6714285714285715 26:0.32857142857142857 27:0.6714285714285715 28:0.6714285714285715 29:0.6714285714285715 30:0.6714285714285715 
1.0 1:0.2142857142857143 2:0.6714285714285715 3:0.6714285714285715 4:0.6714285714285715 5:0.6714285714285715 6:0.32857142857142857 7:0.6714285714285715 8:0.6714285714285715 9:0.6714285714285715 10:0.6714285714285715 11:0.32857142857142857 12:0.6714285714285715 13:0.6714285714285715 14:0.6714285714285715 15:0.6714285714285715 16:0.2142857142857143 17:0.6714285714285715 18:0.6714285714285715 19:0.6714285714285715 20:0.6714285714285715 21:0.32857142857142857 22:0.6714285714285715 23:0.6714285714285715 24:0.6714285714285715 25:0.6714285714285715 26:0.32857142857142857 27:0.6714285714285715 28:0.6714285714285715 29:0.6714285714285715 30:0.6714285714285715 
-1.0 1:0.6714285714285715 2:0.6714285714285715 3:0.32857142857142857 4:0.6714285714285715 5:0.6714285714285715 6:0.6714285714285715 7:0.6714285714285715 8:0.32857142857142857 9:0.6714285714285715 10:0.6714285714285715 11:0.6714285714285715 12:0.6714285714285715 13:0.2142857142857143 14:0.6714285714285715 15:0.6714285714285715 16:0.6714285714285715 17:0.6714285714285715 18:0.32857142857142857 19:0.6714285714285715 20:0.6714285714285715 21:0.6714285714285715 22:0.6714285714285715 23:0.32857142857142857 24:0.6714285714285715 25:0.6714285714285715 26:0.6714285714285715 27:0.6714285714285715 28:0.6714285714285715 29:0.6714285714285715 30:0.6714285714285715 
1.0 1:0.32857142857142857 2:0.6714285714285715 3:0.6714285714285715 4:0.6714285714285715 5:0.6714285714285715 6:0.32857142857142857 7:0.6714285714285715 8:0.6714285714285715 9:0.6714285714285715 10:0.6714285714285715 11:0.2142857142857143 12:0.6714285714285715 13:0.6714285714285715 14:0.6714285714285715 15:0.6714285714285715 16:0.32857142857142857 17:0.6714285714285715 18:0.6714285714285715 19:0.6714285714285715 20:0.6714285714285715 21:0.32857142857142857 22:0.6714285714285715 23:0.6714285714285715 24:0.6714285714285715 25:0.6714285714285715 26:0.6714285714285715 27:0.6714285714285715 28:0.6714285714285715 29:0.32857142857142857 30:0.6714285714285715 
-1.0 1:0.6714285714285715 2:0.6714285714285715 3:0.32857142857142857 4:0.6714285714285715 5:0.6714285714285715 6:0.6714285714285715 7:0.6714285714285715 8:0.2142857142857143 9:0.6714285714285715 10:0.6714285714285715 11:0.6714285714285715 12:0.6714285714285715 13:0.32857142857142857 14:0.6714285714285715 15:0.6714285714285715 16:0.6714285714285715 17:0.6714285714285715 18:0.32857142857142857 19:0.6714285714285715 20:0.6714285714285715 21:0.6714285714285715 22:0.6714285714285715 23:0.6714285714285715 24:0.6714285714285715 25:0.6714285714285715 26:0.32857142857142857 27:0.6714285714285715 28:0.6714285714285715 29:0.6714285714285715 30:0.6714285714285715 
-1.0 1:0.6714285714285715 2:0.6714285714285715 3:0.2142857142857143 4:0.6714285714285715 5:0.6714285714285715 6:0.6714285714285715 7:0.6714285714285715 8:0.32857142857142857 9:0.6714285714285715 10:0.6714285714285715 11:0.6714285714285715 12:0.6714285714285715 13:0.32857142857142857 14:0.6714285714285715 15:0.6714285714285715 16:0.6714285714285715 17:0.6714285714285715 18:0.6714285714285715 19:0.6714285714285715 20:0.6714285714285715 21:0.32857142857142857 22:0.6714285714285715 23:0.6714285714285715 24:0.6714285714285715 25:0.6714285714285715 26:0.32857142857142857 27:0.6714285714285715 28:0.6714285714285715 29:0.6714285714285715 30:0.6714285714285715 
-1.0 1:0.6714285714285715 2:0.6714285714285715 3:0.32857142857142857 4:0.6714285714285715 5:0.6714285714285715 6:0.6714285714285715 7:0.6714285714285715 8:0.32857142857142857 9:0.6714285714285715 10:0.6714285714285715 11:0.6714285714285715 12:0.6714285714285715 13:0.6714285714285715 14:0.6714285714285715 15:0.6714285714285715 16:0.32857142857142857 17:0.6714285714285715 18:0.6714285714285715 19:0.6714285714285715 20:0.6714285714285715 21:0.32857142857142857 22:0.6714285714285715 23:0.6714285714285715 24:0.6714285714285715 25:0.6714285714285715 26:0.32857142857142857 27:0.6714285714285715 28:0.6714285714285715 29:0.6714285714285715 30:0.6714285714285715 
-1.0 1:0.6714285714285715 2:0.6714285714285715 3:0.32857142857142857 4:0.6714285714285715 5:0.6714285714285715 6:0.6714285714285715 7:0.6714285714285715 8:0.6714285714285715 9:0.6714285714285715 10:0.6714285714285715 11:0.32857142857142857 12:0.6714285714285715 13:0.6714285714285715 14:0.6714285714285715 15:0.6714285714285715 16:0.32857142857142857 17:0.6714285714285715 18:0.6714285714285715 19:0.6714285714285715 20:0.6714285714285715 21:0.32857142857142857 22:0.6714285714285715 23:0.6714285714285715 24:0.6714285714285715 25:0.6714285714285715 26:0.1 27:0.6714285714285715 28:0.6714285714285715 29:0.6714285714285715 30:0.6714285714285715 
-0.22390817038796218 1:0.6714285714285715 2:0.6714285714285715 3:0.6714285714285715 4:0.6714285714285715 5:0.6714285714285715 6:0.32857142857142857 7:0.6714285714285715 8:0.6714285714285715 9:0.6714285714285715 10:0.6714285714285715 11:0.32857142857142857 12:0.6714285714285715 13:0.6714285714285715 14:0.6714285714285715 15:0.6714285714285715 16:0.32857142857142857 17:0.6714285714285715 18:0.6714285714285715 19:0.6714285714285715 20:0.6714285714285715 21:0.1 22:0.6714285714285715 23:0.6714285714285715 24:0.6714285714285715 25:0.6714285714285715 26:0.2142857142857143 27:0.6714285714285715 28:0.6714285714285715 29:0.6714285714285715 30:0.6714285714285715 
-1.0 1:0.32857142857142857 2:0.6714285714285715 3:0.6714285714285715 4:0.6714285714285715 5:0.6714285714285715 6:0.1 7:0.6714285714285715 8:0.6714285714285715 9:0.6714285714285715 10:0.6714285714285715 11:0.2142857142857143 12:0.6714285714285715 13:0.6714285714285715 14:0.6714285714285715 15:0.6714285714285715 16:0.2142857142857143 17:0.6714285714285715 18:0.6714285714285715 19:0.6714285714285715 20:0.6714285714285715 21:0.32857142857142857 22:0.6714285714285715 23:0.6714285714285715 24:0.6714285714285715 25:0.6714285714285715 26:0.32857142857142857 27:0.6714285714285715 28:0.6714285714285715 29:0.6714285714285715 30:0.6714285714285715 
-1.0 1:0.2142857142857143 2:0.6714285714285715 3:0.6714285714285715 4:0.6714285714285715 5:0.6714285714285715 6:0.2142857142857143 7:0.6714285714285715 8:0.6714285714285715 9:0.6714285714285715 10:0.6714285714285715 11:0.32857142857142857 12:0.6714285714285715 13:0.6714285714285715 14:0.6714285714285715 15:0.6714285714285715 16:0.32857142857142857 17:0.6714285714285715 18:0.6714285714285715 19:0.6714285714285715 20:0.6714285714285715 21:0.2142857142857143 22:0.6714285714285715 23:0.6714285714285715 24:0.6714285714285715 25:0.6714285714285715 26:0.32857142857142857 27:0.6714285714285715 28:0.6714285714285715 29:0.6714285714285715 30:0.6714285714285715 
-1.0 1:0.32857142857142857 2:0.6714285714285715 3:0.6714285714285715 4:0.6714285714285715 5:0.6714285714285715 6:0.32857142857142857 7:0.6714285714285715 8:0.6714285714285715 9:0.6714285714285715 10:0.6714285714285715 11:0.2142857142857143 12:0.6714285714285715 13:0.6714285714285715 14:0.6714285714285715 15:0.6714285714285715 16:0.32857142857142857 17:0.6714285714285715 18:0.6714285714285715 19:0.6714285714285715 20:0.6714285714285715 21:0.2142857142857143 22:0.6714285714285715 23:0.6714285714285715 24:0.6714285714285715 25:0.6714285714285715 26:0.32857142857142857 27:0.6714285714285715 28:0.6714285714285715 29:0.6714285714285715 30:0.6714285714285715 
1.0 1:0.32857142857142857 2:0.6714285714285715 3:0.6714285714285715 4:0.6714285714285715 5:0.6714285714285715 6:0.2142857142857143 7:0.6714285714285715 8:0.6714285714285715 9:0.6714285714285715 10:0.6714285714285715 11:0.32857142857142857 12:0.6714285714285715 13:0.6714285714285715 14:0.6714285714285715 15:0.6714285714285715 16:0.2142857142857143 17:0.6714285714285715 18:0.6714285714285715 19:0.6714285714285715 20:0.6714285714285715 21:0.32857142857142857 22:0.6714285714285715 23:0.6714285714285715 24:0.6714285714285715 25:0.6714285714285715 26:0.2142857142857143 27:0.6714285714285715 28:0.6714285714285715 29:0.6714285714285715 30:0.6714285714285715 
-1.0 1:0.6714285714285715 2:0.6714285714285715 3:0.2142857142857143 4:0.6714285714285715 5:0.6714285714285715 6:0.6714285714285715 7:0.6714285714285715 8:0.32857142857142857 9:0.6714285714285715 10:0.6714285714285715 11:0.6714285714285715 12:0.6714285714285715 13:0.2142857142857143 14:0.6714285714285715 15:0.6714285714285715 16:0.6714285714285715 17:0.6714285714285715 18:0.32857142857142857 19:0.6714285714285715 20:0.6714285714285715 21:0.6714285714285715 22:0.6714285714285715 23:0.2142857142857143 24:0.6714285714285715 25:0.6714285714285715 26:0.6714285714285715 27:0.6714285714285715 28:0.6714285714285715 29:0.6714285714285715 30:0.6714285714285715 
1.0 1:0.2142857142857143 2:0.6714285714285715 3:0.6714285714285715 4:0.6714285714285715 5:0.6714285714285715 6:0.32857142857142857 7:0.6714285714285715 8:0.6714285714285715 9:0.6714285714285715 10:0.6714285714285715 11:0.2142857142857143 12:0.6714285714285715 13:0.6714285714285715 14:0.6714285714285715 15:0.6714285714285715 16:0.32857142857142857 17:0.6714285714285715 18:0.6714285714285715 19:0.6714285714285715 20:0.6714285714285715 21:0.2142857142857143 22:0.6714285714285715 23:0.6714285714285715 24:0.6714285714285715 25:0.6714285714285715 26:0.6714285714285715 27:0.6714285714285715 28:0.6714285714285715 29:0.32857142857142857 30:0.6714285714285715 
1.0 1:0.6714285714285715 2:0.6714285714285715 3:0.32857142857142857 4:0.6714285714285715 5:0.6714285714285715 6:0.6714285714285715 7:0.6714285714285715 8:0.2142857142857143 9:0.6714285714285715 10:0.6714285714285715 11:0.6714285714285715 12:0.6714285714285715 13:0.32857142857142857 14:0.6714285714285715 15:0.6714285714285715 16:0.6714285714285715 17:0.6714285714285715 18:0.2142857142857143 19:0.6714285714285715 20:0.6714285714285715 21:0.6714285714285715 22:0.6714285714285715 23:0.6714285714285715 24:0.6714285714285715 25:0.6714285714285715 26:0.32857142857142857 27:0.6714285714285715 28:0.6714285714285715 29:0.6714285714285715 30:0.6714285714285715 
1.0 1:0.32857142857142857 2:0.6714285714285715 3:0.6714285714285715 4:0.6714285714285715 5:0.6714285714285715 6:0.2142857142857143 7:0.6714285714285715 8:0.6714285714285715 9:0.6714285714285715 10:0.6714285714285715 11:0.32857142857142857 12:0.6714285714285715 13:0.6714285714285715 14:0.6714285714285715 15:0.6714285714285715 16:0.2142857142857143 17:0.6714285714285715 18:0.6714285714285715 19:0.6714285714285715 20:0.6714285714285715 21:0.6714285714285715 22:0.6714285714285715 23:0.6714285714285715 24:0.32857142857142857 25:0.6714285714285715 26:0.6714285714285715 27:0.6714285714285715 28:0.6714285714285715 29:0.6714285714285715 30:0.6714285714285715 
-1.0 1:0.6714285714285715 2:0.6714285714285715 3:0.2142857142857143 4:0.6714285714285715 5:0.6714285714285715 6:0.6714285714285715 7:0.6714285714285715 8:0.32857142857142857 9:0.6714285714285715 10:0.6714285714285715 11:0.6714285714285715 12:0.6714285714285715 13:0.2142857142857143 14:0.6714285714285715 15:0.6714285714285715 16:0.6714285714285715 17:0.6714285714285715 18:0.6714285714285715 19:0.6714285714285715 20:0.6714285714285715 21:0.32857142857142857 22:0.6714285714285715 23:0.6714285714285715 24:0.6714285714285715 25:0.6714285714285715 26:0.6714285714285715 27:0.6714285714285715 28:0.6714285714285715 29:0.6714285714285715 30:0.6714285714285715 
-1.0 1:0.6714285714285715 2:0.6714285714285715 3:0.32857142857142857 4:0.6714285714285715 5:0.6714285714285715 6:0.6714285714285715 7:0.6714285714285715 8:0.2142857142857143 9:0.6714285714285715 10:0.6714285714285715 11:0.6714285714285715 12:0.6714285714285715 13:0.6714285714285715 14:0.6714285714285715 15:0.6714285714285715 16:0.32857142857142857 17:0.6714285714285715 18:0.6714285714285715 19:0.6714285714285715 20:0.6714285714285715 21:0.6714285714285715 22:0.6714285714285715 23:0.6714285714285715 24:0.6714285714285715 25:0.6714285714285715 26:0.2142857142857143 27:0.6714285714285715 28:0.6714285714285715 29:0.6714285714285715 30:0.6714285714285715 
-1.0 1:0.6714285714285715 2:0.6714285714285715 3:0.2142857142857143 4:0.6714285714285715 5:0.6714285714285715 6:0.6714285714285715 7:0.6714285714285715 8:0.6714285714285715 9:0.6714285714285715 10:0.6714285714285715 11:0.32857142857142857 12:0.6714285714285715 13:0.6714285714285715 14:0.6714285714285715 15:0.6714285714285715 16:0.6714285714285715 17:0.6714285714285715 18:0.6714285714285715 19:0.6714285714285715 20:0.6714285714285715 21:0.2142857142857143 22:0.6714285714285715 23:0.6714285714285715 24:0.6714285714285715 25:0.6714285714285715 26:0.2142857142857143 27:0.6714285714285715 28:0.6714285714285715 29:0.6714285714285715 30:0.6714285714285715 
-1.0 1:0.6714285714285715 2:0.6714285714285715 3:0.6714285714285715 4:0.6714285714285715 5:0.6714285714285715 6:0.32857142857142857 7:0.6714285714285715 8:0.6714285714285715 9:0.6714285714285715 10:0.6714285714285715 11:0.6714285714285715 12:0.6714285714285715 13:0.6714285714285715 14:0.6714285714285715 15:0.6714285714285715 16:0.2142857142857143 17:0.6714285714285715 18:0.6714285714285715 19:0.6714285714285715 20:0.6714285714285715 21:0.2142857142857143 22:0.6714285714285715 23:0.6714285714285715 24:0.6714285714285715 25:0.6714285714285715 26:0.2142857142857143 27:0.6714285714285715 28:0.6714285714285715 29:0.6714285714285715 30:0.6714285714285715 
-1.0 1:0.32857142857142857 2:0.6714285714285715 3:0.6714285714285715 4:0.6714285714285715 5:0.6714285714285715 6:0.6714285714285715 7:0.6714285714285715 8:0.6714285714285715 9:0.6714285714285715 10:0.6714285714285715 11:0.2142857142857143 12:0.6714285714285715 13:0.6714285714285715 14:0.6714285714285715 15:0.6714285714285715 16:0.2142857142857143 17:0.6714285714285715 18:0.6714285714285715 19:0.6714285714285715 20:0.6714285714285715 21:0.2142857142857143 22:0.6714285714285715 23:0.6714285714285715 24:0.6714285714285715 25:0.6714285714285715 26:0.1 27:0.6714285714285715 28:0.6714285714285715 29:0.6714285714285715 30:0.6714285714285715 
1.0 1:0.6714285714285715 2:0.6714285714285715 3:0.2142857142857143 4:0.6714285714285715 5:0.6714285714285715 6:0.6714285714285715 7:0.6714285714285715 8:0.2142857142857143 9:0.6714285714285715 10:0.6714285714285715 11:0.6714285714285715 12:0.6714285714285715 13:0.2142857142857143 14:0.6714285714285715 15:0.6714285714285715 16:0.6714285714285715 17:0.6714285714285715 18:0.1 19:0.6714285714285715 20:0.6714285714285715 21:0.6714285714285715 22:0.6714285714285715 23:0.1 24:0.6714285714285715 25:0.6714285714285715 26:0.6714285714285715 27:0.6714285714285715 28:0.32857142857142857 29:0.6714285714285715 30:0.6714285714285715 
1.0 1:0.6714285714285715 2:0.6714285714285715 3:0.1 4:0.6714285714285715 5:0.6714285714285715 6:0.6714285714285715 7:0.6714285714285715 8:0.1 9:0.6714285714285715 10:0.6714285714285715 11:0.6714285714285715 12:0.6714285714285715 13:0.32857142857142857 14:0.6714285714285715 15:0.6714285714285715 16:0.6714285714285715 17:0.6714285714285715 18:0.2142857142857143 19:0.6714285714285715 20:0.6714285714285715 21:0.6714285714285715 22:0.6714285714285715 23:0.2142857142857143 24:0.6714285714285715 25:0.6714285714285715 26:0.6714285714285715 27:0.6714285714285715 28:0.32857142857142857 29:0.6714285714285715 30:0.6714285714285715 
-1.0 1:0.1 2:0.6714285714285715 3:0.6714285714285715 4:0.6714285714285715 5:0.6714285714285715 6:0.1 7:0.6714285714285715 8:0.6714285714285715 9:0.6714285714285715 10:0.6714285714285715 11:0.32857142857142857 12:0.6714285714285715 13:0.6714285714285715 14:0.6714285714285715 15:0.6714285714285715 16:0.2142857142857143 17:0.6714285714285715 18:0.6714285714285715 19:0.6714285714285715 20:0.6714285714285715 21:0.2142857142857143 22:0.6714285714285715 23:0.6714285714285715 24:0.6714285714285715 25:0.6714285714285715 26:0.32857142857142857 27:0.6714285714285715 28:0.6714285714285715 29:0.6714285714285715 30:0.6714285714285715 
1.0 1:0.2142857142857143 2:0.6714285714285715 3:0.6714285714285715 4:0.6714285714285715 5:0.6714285714285715 6:0.2142857142857143 7:0.6714285714285715 8:0.6714285714285715 9:0.6714285714285715 10:0.6714285714285715 11:0.32857142857142857 12:0.6714285714285715 13:0.6714285714285715 14:0.6714285714285715 15:0.6714285714285715 16:0.1 17:0.6714285714285715 18:0.6714285714285715 19:0.6714285714285715 20:0.6714285714285715 21:0.32857142857142857 22:0.6714285714285715 23:0.6714285714285715 24:0.6714285714285715 25:0.6714285714285715 26:0.2142857142857143 27:0.6714285714285715 28:0.6714285714285715 29:0.6714285714285715 30:0.6714285714285715 
-1.0 1:0.6714285714285715 2:0.6714285714285715 3:0.2142857142857143 4:0.6714285714285715 5:0.6714285714285715 6:0.6714285714285715 7:0.6714285714285715 8:0.32857142857142857 9:0.6714285714285715 10:0.6714285714285715 11:0.6714285714285715 12:0.6714285714285715 13:0.1 14:0.6714285714285715 15:0.6714285714285715 16:0.6714285714285715 17:0.6714285714285715 18:0.32857142857142857 19:0.6714285714285715 20:0.6714285714285715 21:0.6714285714285715 22:0.6714285714285715 23:0.2142857142857143 24:0.6714285714285715 25:0.6714285714285715 26:0.6714285714285715 27:0.6714285714285715 28:0.6714285714285715 29:0.6714285714285715 30:0.6714285714285715 
1.0 1:0.2142857142857143 2:0.6714285714285715 3:0.6714285714285715 4:0.6714285714285715 5:0.6714285714285715 6:0.32857142857142857 7:0.6714285714285715 8:0.6714285714285715 9:0.6714285714285715 10:0.6714285714285715 11:0.1 12:0.6714285714285715 13:0.6714285714285715 14:0.6714285714285715 15:0.6714285714285715 16:0.32857142857142857 17:0.6714285714285715 18:0.6714285714285715 19:0.6714285714285715 20:0.6714285714285715 21:0.2142857142857143 22:0.6714285714285715 23:0.6714285714285715 24:0.6714285714285715 25:0.6714285714285715 26:0.6714285714285715 27:0.6714285714285715 28:0.6714285714285715 29:0.2142857142857143 30:0.6714285714285715 
1.0 1:0.6714285714285715 2:0.6714285714285715 3:0.32857142857142857 4:0.6714285714285715 5:0.6714285714285715 6:0.6714285714285715 7:0.6714285714285715 8:0.1 9:0.6714285714285715 10:0.6714285714285715 11:0.6714285714285715 12:0.6714285714285715 13:0.32857142857142857 14:0.6714285714285715 15:0.6714285714285715 16:0.6714285714285715 17:0.6714285714285715 18:0.2142857142857143 19:0.6714285714285715 20:0.6714285714285715 21:0.6714285714285715 22:0.6714285714285715 23:0.6714285714285715 24:0.6714285714285715 25:0.6714285714285715 26:0.2142857142857143 27:0.6714285714285715 28:0.6714285714285715 29:0.6714285714285715 30:0.6714285714285715 
1.0 1:0.32857142857142857 2:0.6714285714285715 3:0.6714285714285715 4:0.6714285714285715 5:0.6714285714285715 6:0.1 7:0.6714285714285715 8:0.6714285714285715 9:0.6714285714285715 10:0.6714285714285715 11:0.32857142857142857 12:0.6714285714285715 13:0.6714285714285715 14:0.6714285714285715 15:0.6714285714285715 16:0.2142857142857143 17:0.6714285714285715 18:0.6714285714285715 19:0.6714285714285715 20:0.6714285714285715 21:0.6714285714285715 22:0.6714285714285715 23:0.6714285714285715 24:0.2142857142857143 25:0.6714285714285715 26:0.6714285714285715 27:0.6714285714285715 28:0.6714285714285715 29:0.6714285714285715 30:0.6714285714285715 
-1.0 1:0.6714285714285715 2:0.6714285714285715 3:0.6714285714285715 4:0.6714285714285715 5:0.1 6:0.6714285714285715 7:0.6714285714285715 8:0.6714285714285715 9:0.6714285714285715 10:0.32857142857142857 11:0.6714285714285715 12:0.6714285714285715 13:0.6714285714285715 14:0.6714285714285715 15:0.2142857142857143 16:0.6714285714285715 17:0.6714285714285715 18:0.6714285714285715 19:0.6714285714285715 20:0.6714285714285715 21:0.6714285714285715 22:0.6714285714285715 23:0.2142857142857143 24:0.6714285714285715 25:0.6714285714285715 26:0.6714285714285715 27:0.6714285714285715 28:0.6714285714285715 29:0.6714285714285715 30:0.6714285714285715 
1.0 1:0.6714285714285715 2:0.6714285714285715 3:0.1 4:0.6714285714285715 5:0.6714285714285715 6:0.6714285714285715 7:0.6714285714285715 8:0.32857142857142857 9:0.6714285714285715 10:0.6714285714285715 11:0.6714285714285715 12:0.6714285714285715 13:0.2142857142857143 14:0.6714285714285715 15:0.6714285714285715 16:0.6714285714285715 17:0.6714285714285715 18:0.6714285714285715 19:0.6714285714285715 20:0.6714285714285715 21:0.2142857142857143 22:0.6714285714285715 23:0.6714285714285715 24:0.6714285714285715 25:0.6714285714285715 26:0.6714285714285715 27:0.6714285714285715 28:0.6714285714285715 29:0.32857142857142857 30:0.6714285714285715 
0.3799508450849246 1:0.1 2:0.6714285714285715 3:0.6714285714285715 4:0.6714285714285715 5:0.6714285714285715 6:0.32857142857142857 7:0.6714285714285715 8:0.6714285714285715 9:0.6714285714285715 10:0.6714285714285715 11:0.2142857142857143 12:0.6714285714285715 13:0.6714285714285715 14:0.6714285714285715 15:0.6714285714285715 16:0.6714285714285715 17:0.6714285714285715 18:0.6714285714285715 19:0.2142857142857143 20:0.6714285714285715 21:0.6714285714285715 22:0.6714285714285715 23:0.6714285714285715 24:0.6714285714285715 25:0.6714285714285715 26:0.6714285714285715 27:0.32857142857142857 28:0.6714285714285715 29:0.6714285714285715 30:0.6714285714285715 
-1.0 1:0.6714285714285715 2:0.6714285714285715 3:0.6714285714285715 4:0.6714285714285715 5:0.32857142857142857 6:0.6714285714285715 7:0.6714285714285715 8:0.6714285714285715 9:0.6714285714285715 10:0.2142857142857143 11:0.6714285714285715 12:0.6714285714285715 13:0.6714285714285715 14:0.6714285714285715 15:0.6714285714285715 16:0.6714285714285715 17:0.6714285714285715 18:0.2142857142857143 19:0.6714285714285715 20:0.6714285714285715 21:0.6714285714285715 22:0.6714285714285715 23:0.6714285714285715 24:0.6714285714285715 25:0.6714285714285715 26:0.32857142857142857 27:0.6714285714285715 28:0.6714285714285715 29:0.6714285714285715 30:0.6714285714285715 
-1.0 1:0.6714285714285715 2:0.6714285714285715 3:0.6714285714285715 4:0.6714285714285715 5:0.2142857142857143 6:0.6714285714285715 7:0.6714285714285715 8:0.6714285714285715 9:0.6714285714285715 10:0.6714285714285715 11:0.6714285714285715 12:0.6714285714285715 13:0.2142857142857143 14:0.6714285714285715 15:0.6714285714285715 16:0.6714285714285715 17:0.6714285714285715 18:0.6714285714285715 19:0.6714285714285715 20:0.6714285714285715 21:0.32857142857142857 22:0.6714285714285715 23:0.6714285714285715 24:0.6714285714285715 25:0.6714285714285715 26:0.32857142857142857 27:0.6714285714285715 28:0.6714285714285715 29:0.6714285714285715 30:0.6714285714285715 
-1.0 1:0.6714285714285715 2:0.6714285714285715 3:0.6714285714285715 4:0.6714285714285715 5:0.6714285714285715 6:0.6714285714285715 7:0.6714285714285715 8:0.2142857142857143 9:0.6714285714285715 10:0.6714285714285715 11:0.6714285714285715 12:0.6714285714285715 13:0.6714285714285715 14:0.6714285714285715 15:0.6714285714285715 16:0.32857142857142857 17:0.6714285714285715 18:0.6714285714285715 19:0.6714285714285715 20:0.6714285714285715 21:0.32857142857142857 22:0.6714285714285715 23:0.6714285714285715 24:0.6714285714285715 25:0.6714285714285715 26:0.2142857142857143 27:0.6714285714285715 28:0.6714285714285715 29:0.6714285714285715 30:0.6714285714285715 
-1.0 1:0.6714285714285715 2:0.6714285714285715 3:0.6714285714285715 4:0.6714285714285715 5:0.6714285714285715 6:0.32857142857142857 7:0.6714285714285715 8:0.6714285714285715 9:0.6714285714285715 10:0.6714285714285715 11:0.32857142857142857 12:0.6714285714285715 13:0.6714285714285715 14:0.6714285714285715 15:0.6714285714285715 16:0.2142857142857143 17:0.6714285714285715 18:0.6714285714285715 19:0.6714285714285715 20:0.6714285714285715 21:0.2142857142857143 22:0.6714285714285715 23:0.6714285714285715 24:0.6714285714285715 25:0.6714285714285715 26:0.32857142857142857 27:0.6714285714285715 28:0.6714285714285715 29:0.6714285714285715 30:0.6714285714285715 
-1.0 1:0.32857142857142857 2:0.6714285714285715 3:0.6714285714285715 4:0.6714285714285715 5:0.6714285714285715 6:0.32857142857142857 7:0.6714285714285715 8:0.6714285714285715 9:0.6714285714285715 10:0.6714285714285715 11:0.2142857142857143 12:0.6714285714285715 13:0.6714285714285715 14:0.6714285714285715 15:0.6714285714285715 16:0.2142857142857143 17:0.6714285714285715 18:0.6714285714285715 19:0.6714285714285715 20:0.6714285714285715 21:0.32857142857142857 22:0.6714285714285715 23:0.6714285714285715 24:0.6714285714285715 25:0.6714285714285715 26:0.2142857142857143 27:0.6714285714285715 28:0.6714285714285715 29:0.6714285714285715 30:0.6714285714285715 
1.0 1:0.2142857142857143 2:0.6714285714285715 3:0.6714285714285715 4:0.6714285714285715 5:0.6714285714285715 6:0.2142857142857143 7:0.6714285714285715 8:0.6714285714285715 9:0.6714285714285715 10:0.6714285714285715 11:0.32857142857142857 12:0.6714285714285715 13:0.6714285714285715 14:0.6714285714285715 15:0.6714285714285715 16:0.2142857142857143 17:0.6714285714285715 18:0.6714285714285715 19:0.6714285714285715 20:0.6714285714285715 21:0.2142857142857143 22:0.6714285714285715 23:0.6714285714285715 24:0.6714285714285715 25:0.6714285714285715 26:0.32857142857142857 27:0.6714285714285715 28:0.6714285714285715 29:0.6714285714285715 30:0.6714285714285715 
1.0 1:0.2142857142857143 2:0.6714285714285715 3:0.6714285714285715 4:0.6714285714285715 5:0.6714285714285715 6:0.32857142857142857 7:0.6714285714285715 8:0.6714285714285715 9:0.6714285714285715 10:0.6714285714285715 11:0.2142857142857143 12:0.6714285714285715 13:0.6714285714285715 14:0.6714285714285715 15:0.6714285714285715 16:0.2142857142857143 17:0.6714285714285715 18:0.6714285714285715 19:0.6714285714285715 20:0.6714285714285715 21:0.32857142857142857 22:0.6714285714285715 23:0.6714285714285715 24:0.6714285714285715 25:0.6714285714285715 26:0.6714285714285715 27:0.6714285714285715 28:0.6714285714285715 29:0.6714285714285715 30:0.6714285714285715 
-1.0 1:0.6714285714285715 2:0.6714285714285715 3:0.32857142857142857 4:0.6714285714285715 5:0.6714285714285715 6:0.6714285714285715 7:0.6714285714285715 8:0.2142857142857143 9:0.6714285714285715 10:0.6714285714285715 11:0.6714285714285715 12:0.6714285714285715 13:0.2142857142857143 14:0.6714285714285715 15:0.6714285714285715 16:0.6714285714285715 17:0.6714285714285715 18:0.32857142857142857 19:0.6714285714285715 20:0.6714285714285715 21:0.6714285714285715 22:0.6714285714285715 23:0.6714285714285715 24:0.6714285714285715 25:0.6714285714285715 26:0.6714285714285715 27:0.6714285714285715 28:0.6714285714285715 29:0.6714285714285715 30:0.6714285714285715 
-1.0 1:0.6714285714285715 2:0.6714285714285715 3:0.6714285714285715 4:0.2142857142857143 5:0.6714285714285715 6:0.6714285714285715 7:0.6714285714285715 8:0.6714285714285715 9:0.2142857142857143 10:0.6714285714285715 11:0.6714285714285715 12:0.6714285714285715 13:0.6714285714285715 14:0.32857142857142857 15:0.6714285714285715 16:0.6714285714285715 17:0.6714285714285715 18:0.6714285714285715 19:0.6714285714285715 20:0.6714285714285715 21:0.6714285714285715 22:0.6714285714285715 23:0.6714285714285715 24:0.6714285714285715 25:0.6714285714285715 26:0.6714285714285715 27:0.1 28:0.6714285714285715 29:0.6714285714285715 30:0.6714285714285715 
1.0 1:0.6714285714285715 2:0.6714285714285715 3:0.2142857142857143 4:0.6714285714285715 5:0.6714285714285715 6:0.6714285714285715 7:0.6714285714285715 8:0.2142857142857143 9:0.6714285714285715 10:0.6714285714285715 11:0.6714285714285715 12:0.6714285714285715 13:0.32857142857142857 14:0.6714285714285715 15:0.6714285714285715 16:0.6714285714285715 17:0.6714285714285715 18:0.6714285714285715 19:0.6714285714285715 20:0.6714285714285715 21:0.6714285714285715 22:0.6714285714285715 23:0.6714285714285715 24:0.6714285714285715 25:0.6714285714285715 26:0.1 27:0.6714285714285715 28:0.6714285714285715 29:0.6714285714285715 30:0.2142857142857143 
0.46528713344948003 1:0.6714285714285715 2:0.6714285714285715 3:0.6714285714285715 4:0.6714285714285715 5:0.2142857142857143 6:0.6714285714285715 7:0.6714285714285715 8:0.6714285714285715 9:0.6714285714285715 10:0.32857142857142857 11:0.6714285714285715 12:0.6714285714285715 13:0.6714285714285715 14:0.6714285714285715 15:0.6714285714285715 16:0.6714285714285715 17:0.6714285714285715 18:0.6714285714285715 19:0.6714285714285715 20:0.6714285714285715 21:0.6714285714285715 22:0.6714285714285715 23:0.1 24:0.6714285714285715 25:0.6714285714285715 26:0.6714285714285715 27:0.2142857142857143 28:0.6714285714285715 29:0.6714285714285715 30:0.6714285714285715 
0.7730996065112645 1:0.6714285714285715 2:0.6714285714285715 3:0.6714285714285715 4:0.2142857142857143 5:0.6714285714285715 6:0.6714285714285715 7:0.6714285714285715 8:0.6714285714285715 9:0.32857142857142857 10:0.6714285714285715 11:0.6714285714285715 12:0.6714285714285715 13:0.6714285714285715 14:0.6714285714285715 15:0.6714285714285715 16:0.6714285714285715 17:0.6714285714285715 18:0.6714285714285715 19:0.6714285714285715 20:0.6714285714285715 21:0.6714285714285715 22:0.1 23:0.6714285714285715 24:0.6714285714285715 25:0.6714285714285715 26:0.2142857142857143 27:0.6714285714285715 28:0.6714285714285715 29:0.6714285714285715 30:0.6714285714285715 
1.0 1:0.6714285714285715 2:0.6714285714285715 3:0.2142857142857143 4:0.6714285714285715 5:0.6714285714285715 6:0.6714285714285715 7:0.6714285714285715 8:0.32857142857142857 9:0.6714285714285715 10:0.6714285714285715 11:0.6714285714285715 12:0.6714285714285715 13:0.6714285714285715 14:0.6714285714285715 15:0.6714285714285715 16:0.6714285714285715 17:0.6714285714285715 18:0.6714285714285715 19:0.6714285714285715 20:0.6714285714285715 21:0.1 22:0.6714285714285715 23:0.6714285714285715 24:0.6714285714285715 25:0.2142857142857143 26:0.6714285714285715 27:0.6714285714285715 28:0.6714285714285715 29:0.6714285714285715 30:0.6714285714285715 
0.5974670450032241 1:0.6714285714285715 2:0.6714285714285715 3:0.6714285714285715 4:0.32857142857142857 5:0.6714285714285715 6:0.6714285714285715 7:0.6714285714285715 8:0.6714285714285715 9:0.6714285714285715 10:0.6714285714285715 11:0.6714285714285715 12:0.6714285714285715 13:0.6714285714285715 14:0.6714285714285715 15:0.6714285714285715 16:0.6714285714285715 17:0.1 18:0.6714285714285715 19:0.6714285714285715 20:0.6714285714285715 21:0.2142857142857143 22:0.6714285714285715 23:0.6714285714285715 24:0.6714285714285715 25:0.6714285714285715 26:0.6714285714285715 27:0.6714285714285715 28:0.6714285714285715 29:0.6714285714285715 30:0.6714285714285715 
0.7214221596795815 1:0.6714285714285715 2:0.6714285714285715 3:0.32857142857142857 4:0.6714285714285715 5:0.6714285714285715 6:0.6714285714285715 7:0.6714285714285715 8:0.6714285714285715 9:0.6714285714285715 10:0.6714285714285715 11:0.6714285714285715 12:0.6714285714285715 13:0.6714285714285715 14:0.6714285714285715 15:0.6714285714285715 16:0.1 17:0.6714285714285715 18:0.6714285714285715 19:0.6714285714285715 20:0.2142857142857143 21:0.6714285714285715 22:0.6714285714285715 23:0.6714285714285715 24:0.6714285714285715 25:0.6714285714285715 26:0.6714285714285715 27:0.6714285714285715 28:0.6714285714285715 29:0.6714285714285715 30:0.6714285714285715 
-1.0 1:0.32857142857142857 2:0.6714285714285715 3:0.6714285714285715 4:0.6714285714285715 5:0.6714285714285715 6:0.6714285714285715 7:0.6714285714285715 8:0.6714285714285715 9:0.6714285714285715 10:0.6714285714285715 11:0.6714285714285715 12:0.6714285714285715 13:0.6714285714285715 14:0.1 15:0.6714285714285715 16:0.6714285714285715 17:0.6714285714285715 18:0.2142857142857143 19:0.6714285714285715 20:0.6714285714285715 21:0.6714285714285715 22:0.6714285714285715 23:0.6714285714285715 24:0.6714285714285715 25:0.6714285714285715 26:0.6714285714285715 27:0.6714285714285715 28:0.6714285714285715 29:0.6714285714285715 30:0.6714285714285715 
1.0 1:0.6714285714285715 2:0.6714285714285715 3:0.6714285714285715 4:0.6714285714285715 5:0.6714285714285715 6:0.6714285714285715 7:0.6714285714285715 8:0.6714285714285715 9:0.1 10:0.6714285714285715 11:0.6714285714285715 12:0.6714285714285715 13:0.2142857142857143 14:0.6714285714285715 15:0.6714285714285715 16:0.6714285714285715 17:0.6714285714285715 18:0.6714285714285715 19:0.6714285714285715 20:0.6714285714285715 21:0.6714285714285715 22:0.6714285714285715 23:0.6714285714285715 24:0.6714285714285715 25:0.6714285714285715 26:0.2142857142857143 27:0.6714285714285715 28:0.6714285714285715 29:0.6714285714285715 30:0.6714285714285715 
-1.0 1:0.6714285714285715 2:0.6714285714285715 3:0.6714285714285715 4:0.6714285714285715 5:0.6714285714285715 6:0.1 7:0.6714285714285715 8:0.6714285714285715 9:0.6714285714285715 10:0.2142857142857143 11:0.6714285714285715 12:0.6714285714285715 13:0.6714285714285715 14:0.6714285714285715 15:0.6714285714285715 16:0.6714285714285715 17:0.6714285714285715 18:0.6714285714285715 19:0.6714285714285715 20:0.6714285714285715 21:0.6714285714285715 22:0.6714285714285715 23:0.2142857142857143 24:0.6714285714285715 25:0.6714285714285715 26:0.6714285714285715 27:0.6714285714285715 28:0.6714285714285715 29:0.6714285714285715 30:0.6714285714285715 
1.0 1:0.1 2:0.6714285714285715 3:0.6714285714285715 4:0.6714285714285715 5:0.2142857142857143 6:0.6714285714285715 7:0.6714285714285715 8:0.6714285714285715 9:0.6714285714285715 10:0.6714285714285715 11:0.6714285714285715 12:0.6714285714285715 13:0.6714285714285715 14:0.6714285714285715 15:0.6714285714285715 16:0.6714285714285715 17:0.6714285714285715 18:0.2142857142857143 19:0.6714285714285715 20:0.6714285714285715 21:0.6714285714285715 22:0.6714285714285715 23:0.6714285714285715 24:0.6714285714285715 25:0.6714285714285715 26:0.32857142857142857 27:0.6714285714285715 28:0.6714285714285715 29:0.6714285714285715 30:0.6714285714285715 
-1.0 1:0.6714285714285715 2:0.6714285714285715 3:0.6714285714285715 4:0.6714285714285715 5:0.6714285714285715 6:0.6714285714285715 7:0.6714285714285715 8:0.6714285714285715 9:0.6714285714285715 10:0.6714285714285715 11:0.6714285714285715 12:0.6714285714285715 13:0.6714285714285715 14:0.6714285714285715 15:0.6714285714285715 16:0.6714285714285715 17:0.6714285714285715 18:0.6714285714285715 19:0.6714285714285715 20:0.6714285714285715 21:0.6714285714285715 22:0.6714285714285715 23:0.6714285714285715 24:0.6714285714285715 25:0.6714285714285715 26:0.6714285714285715 27:0.6714285714285715 28:0.6714285714285715 29:0.6714285714285715 30:0.6714285714285715 
1.0 1:0.6714285714285715 2:0.6714285714285715 3:0.6714285714285715 4:0.6714285714285715 5:0.6714285714285715 6:0.6714285714285715 7:0.6714285714285715 8:0.6714285714285715 9:0.6714285714285715 10:0.6714285714285715 11:0.6714285714285715 12:0.6714285714285715 13:0.6714285714285715 14:0.6714285714285715 15:0.6714285714285715 16:0.6714285714285715 17:0.6714285714285715 18:0.6714285714285715 19:0.6714285714285715 20:0.6714285714285715 21:0.6714285714285715 22:0.6714285714285715 23:0.6714285714285715 24:0.6714285714285715 25:0.6714285714285715 26:0.2142857142857143 27:0.6714285714285715 28:0.6714285714285715 29:0.6714285714285715 30:0.6714285714285715 
1.0 1:0.6714285714285715 2:0.6714285714285715 3:0.6714285714285715 4:0.6714285714285715 5:0.6714285714285715 6:0.6714285714285715 7:0.6714285714285715 8:0.6714285714285715 9:0.6714285714285715 10:0.6714285714285715 11:0.6714285714285715 12:0.6714285714285715 13:0.6714285714285715 14:0.6714285714285715 15:0.6714285714285715 16:0.6714285714285715 17:0.6714285714285715 18:0.6714285714285715 19:0.6714285714285715 20:0.6714285714285715 21:0.2142857142857143 22:0.6714285714285715 23:0.6714285714285715 24:0.6714285714285715 25:0.6714285714285715 26:0.6714285714285715 27:0.6714285714285715 28:0.6714285714285715 29:0.6714285714285715 30:0.6714285714285715 
1.0 1:0.6714285714285715 2:0.6714285714285715 3:0.6714285714285715 4:0.6714285714285715 5:0.6714285714285715 6:0.6714285714285715 7:0.6714285714285715 8:0.6714285714285715 9:0.6714285714285715 10:0.6714285714285715 11:0.6714285714285715 12:0.6714285714285715 13:0.6714285714285715 14:0.6714285714285715 15:0.6714285714285715 16:0.6714285714285715 17:0.6714285714285715 18:0.6714285714285715 19:0.6714285714285715 20:0.6714285714285715 21:0.6714285714285715 22:0.6714285714285715 23:0.6714285714285715 24:0.6714285714285715 25:0.6714285714285715 26:0.6714285714285715 27:0.6714285714285715 28:0.6714285714285715 29:0.6714285714285715 30:0.6714285714285715 
1.0 1:0.6714285714285715 2:0.6714285714285715 3:0.6714285714285715 4:0.6714285714285715 5:0.6714285714285715 6:0.6714285714285715 7:0.7857142857142857 8:0.6714285714285715 9:0.6714285714285715 10:0.6714285714285715 11:0.6714285714285715 12:0.7857142857142857 13:0.6714285714285715 14:0.6714285714285715 15:0.6714285714285715 16:0.6714285714285715 17:0.7857142857142857 18:0.6714285714285715 19:0.6714285714285715 20:0.6714285714285715 21:0.6714285714285715 22:0.6714285714285715 23:0.6714285714285715 24:0.6714285714285715 25:0.6714285714285715 26:0.6714285714285715 27:0.6714285714285715 28:0.6714285714285715 29:0.6714285714285715 30:0.6714285714285715 
1.0 1:0.7857142857142857 2:0.6714285714285715 3:0.6714285714285715 4:0.6714285714285715 5:0.6714285714285715 6:0.7857142857142857 7:0.6714285714285715 8:0.6714285714285715 9:0.6714285714285715 10:0.6714285714285715 11:0.6714285714285715 12:0.6714285714285715 13:0.6714285714285715 14:0.6714285714285715 15:0.6714285714285715 16:0.6714285714285715 17:0.6714285714285715 18:0.6714285714285715 19:0.6714285714285715 20:0.7857142857142857 21:0.6714285714285715 22:0.6714285714285715 23:0.6714285714285715 24:0.6714285714285715 25:0.6714285714285715 26:0.6714285714285715 27:0.6714285714285715 28:0.6714285714285715 29:0.6714285714285715 30:0.6714285714285715 
1.0 1:0.6714285714285715 2:0.6714285714285715 3:0.6714285714285715 4:0.6714285714285715 5:0.6714285714285715 6:0.6714285714285715 7:0.6714285714285715 8:0.7857142857142857 9:0.6714285714285715 10:0.6714285714285715 11:0.6714285714285715 12:0.6714285714285715 13:0.6714285714285715 14:0.6714285714285715 15:0.6714285714285715 16:0.6714285714285715 17:0.6714285714285715 18:0.6714285714285715 19:0.6714285714285715 20:0.6714285714285715 21:0.6714285714285715 22:0.6714285714285715 23:0.6714285714285715 24:0.6714285714285715 25:0.6714285714285715 26:0.6714285714285715 27:0.6714285714285715 28:0.6714285714285715 29:0.6714285714285715 30:0.6714285714285715 
-1.0 1:0.6714285714285715 2:0.6714285714285715 3:0.6714285714285715 4:0.6714285714285715 5:0.6714285714285715 6:0.6714285714285715 7:0.6714285714285715 8:0.7857142857142857 9:0.6714285714285715 10:0.6714285714285715 11:0.6714285714285715 12:0.6714285714285715 13:0.7857142857142857 14:0.6714285714285715 15:0.6714285714285715 16:0.6714285714285715 17:0.6714285714285715 18:0.6714285714285715 19:0.6714285714285715 20:0.6714285714285715 21:0.6714285714285715 22:0.6714285714285715 23:0.6714285714285715 24:0.6714285714285715 25:0.6714285714285715 26:0.6714285714285715 27:0.6714285714285715 28:0.6714285714285715 29:0.6714285714285715 30:0.6714285714285715 
1.0 1:0.6714285714285715 2:0.6714285714285715 3:0.6714285714285715 4:0.6714285714285715 5:0.6714285714285715 6:0.6714285714285715 7:0.6714285714285715 8:0.6714285714285715 9:0.6714285714285715 10:0.6714285714285715 11:0.6714285714285715 12:0.6714285714285715 13:0.6714285714285715 14:0.6714285714285715 15:0.6714285714285715 16:0.5571428571428572 17:0.6714285714285715 18:0.6714285714285715 19:0.6714285714285715 20:0.6714285714285715 21:0.6714285714285715 22:0.6714285714285715 23:0.6714285714285715 24:0.6714285714285715 25:0.6714285714285715 26:0.6714285714285715 27:0.6714285714285715 28:0.6714285714285715 29:0.6714285714285715 30:0.6714285714285715 
-1.0 1:0.6714285714285715 2:0.6714285714285715 3:0.6714285714285715 4:0.6714285714285715 5:0.6714285714285715 6:0.6714285714285715 7:0.6714285714285715 8:0.6714285714285715 9:0.6714285714285715 10:0.6714285714285715 11:0.5571428571428572 12:0.6714285714285715 13:0.6714285714285715 14:0.6714285714285715 15:0.6714285714285715 16:0.6714285714285715 17:0.6714285714285715 18:0.6714285714285715 19:0.6714285714285715 20:0.6714285714285715 21:0.6714285714285715 22:0.6714285714285715 23:0.6714285714285715 24:0.6714285714285715 25:0.6714285714285715 26:0.7857142857142857 27:0.6714285714285715 28:0.6714285714285715 29:0.6714285714285715 30:0.6714285714285715 
1.0 1:0.6714285714285715 2:0.6714285714285715 3:0.6714285714285715 4:0.6714285714285715 5:0.6714285714285715 6:0.5571428571428572 7:0.6714285714285715 8:0.6714285714285715 9:0.6714285714285715 10:0.6714285714285715 11:0.6714285714285715 12:0.6714285714285715 13:0.6714285714285715 14:0.6714285714285715 15:0.6714285714285715 16:0.6714285714285715 17:0.6714285714285715 18:0.6714285714285715 19:0.6714285714285715 20:0.6714285714285715 21:0.7857142857142857 22:0.6714285714285715 23:0.6714285714285715 24:0.6714285714285715 25:0.6714285714285715 26:0.5571428571428572 27:0.6714285714285715 28:0.6714285714285715 29:0.6714285714285715 30:0.6714285714285715 
1.0 1:0.6714285714285715 2:0.6714285714285715 3:0.7857142857142857 4:0.6714285714285715 5:0.6714285714285715 6:0.6714285714285715 7:0.6714285714285715 8:0.6714285714285715 9:0.6714285714285715 10:0.6714285714285715 11:0.6714285714285715 12:0.6714285714285715 13:0.6714285714285715 14:0.6714285714285715 15:0.6714285714285715 16:0.6714285714285715 17:0.6714285714285715 18:0.6714285714285715 19:0.6714285714285715 20:0.6714285714285715 21:0.6714285714285715 22:0.6714285714285715 23:0.6714285714285715 24:0.6714285714285715 25:0.6714285714285715 26:0.6714285714285715 27:0.6714285714285715 28:0.6714285714285715 29:0.6714285714285715 30:0.6714285714285715 
-1.0 1:0.6714285714285715 2:0.6714285714285715 3:0.6714285714285715 4:0.6714285714285715 5:0.6714285714285715 6:0.6714285714285715 7:0.6714285714285715 8:0.6714285714285715 9:0.6714285714285715 10:0.6714285714285715 11:0.6714285714285715 12:0.6714285714285715 13:0.6714285714285715 14:0.6714285714285715 15:0.6714285714285715 16:0.6714285714285715 17:0.6714285714285715 18:0.6714285714285715 19:0.6714285714285715 20:0.6714285714285715 21:0.6714285714285715 22:0.6714285714285715 23:0.6714285714285715 24:0.6714285714285715 25:0.6714285714285715 26:0.7857142857142857 27:0.6714285714285715 28:0.6714285714285715 29:0.6714285714285715 30:0.6714285714285715 
1.0 1:0.6714285714285715 2:0.6714285714285715 3:0.6714285714285715 4:0.6714285714285715 5:0.6714285714285715 6:0.7857142857142857 7:0.6714285714285715 8:0.6714285714285715 9:0.6714285714285715 10:0.6714285714285715 11:0.5571428571428572 12:0.6714285714285715 13:0.6714285714285715 14:0.6714285714285715 15:0.6714285714285715 16:0.6714285714285715 17:0.6714285714285715 18:0.6714285714285715 19:0.6714285714285715 20:0.6714285714285715 21:0.6714285714285715 22:0.6714285714285715 23:0.6714285714285715 24:0.6714285714285715 25:0.6714285714285715 26:0.6714285714285715 27:0.6714285714285715 28:0.6714285714285715 29:0.6714285714285715 30:0.6714285714285715 
0.1999388308699359 1:0.7857142857142857 2:0.6714285714285715 3:0.6714285714285715 4:0.6714285714285715 5:0.6714285714285715 6:0.5571428571428572 7:0.6714285714285715 8:0.6714285714285715 9:0.6714285714285715 10:0.6714285714285715 11:0.6714285714285715 12:0.6714285714285715 13:0.6714285714285715 14:0.6714285714285715 15:0.6714285714285715 16:0.6714285714285715 17:0.6714285714285715 18:0.6714285714285715 19:0.6714285714285715 20:0.6714285714285715 21:0.6714285714285715 22:0.6714285714285715 23:0.6714285714285715 24:0.6714285714285715 25:0.6714285714285715 26:0.7857142857142857 27:0.6714285714285715 28:0.6714285714285715 29:0.6714285714285715 30:0.6714285714285715 
1.0 1:0.6714285714285715 2:0.6714285714285715 3:0.6714285714285715 4:0.6714285714285715 5:0.6714285714285715 6:0.6714285714285715 7:0.6714285714285715 8:0.6714285714285715 9:0.6714285714285715 10:0.6714285714285715 11:0.6714285714285715 12:0.6714285714285715 13:0.6714285714285715 14:0.6714285714285715 15:0.6714285714285715 16:0.6714285714285715 17:0.7857142857142857 18:0.6714285714285715 19:0.6714285714285715 20:0.6714285714285715 21:0.6714285714285715 22:0.7857142857142857 23:0.6714285714285715 24:0.6714285714285715 25:0.6714285714285715 26:0.6714285714285715 27:0.6714285714285715 28:0.6714285714285715 29:0.6714285714285715 30:0.6714285714285715 
-1.0 1:0.6714285714285715 2:0.6714285714285715 3:0.6714285714285715 4:0.6714285714285715 5:0.6714285714285715 6:0.6714285714285715 7:0.7857142857142857 8:0.6714285714285715 9:0.6714285714285715 10:0.6714285714285715 11:0.6714285714285715 12:0.6714285714285715 13:0.7857142857142857 14:0.6714285714285715 15:0.6714285714285715 16:0.6714285714285715 17:0.6714285714285715 18:0.6714285714285715 19:0.6714285714285715 20:0.6714285714285715 21:0.6714285714285715 22:0.6714285714285715 23:0.6714285714285715 24:0.6714285714285715 25:0.6714285714285715 26:0.6714285714285715 27:0.6714285714285715 28:0.6714285714285715 29:0.6714285714285715 30:0.6714285714285715 
1.0 1:0.6714285714285715 2:0.6714285714285715 3:0.7857142857142857 4:0.6714285714285715 5:0.6714285714285715 6:0.6714285714285715 7:0.6714285714285715 8:0.6714285714285715 9:0.6714285714285715 10:0.6714285714285715 11:0.6714285714285715 12:0.6714285714285715 13:0.6714285714285715 14:0.6714285714285715 15:0.6714285714285715 16:0.6714285714285715 17:0.6714285714285715 18:0.6714285714285715 19:0.6714285714285715 20:0.6714285714285715 21:0.5571428571428572 22:0.6714285714285715 23:0.6714285714285715 24:0.6714285714285715 25:0.6714285714285715 26:0.6714285714285715 27:0.6714285714285715 28:0.6714285714285715 29:0.6714285714285715 30:0.6714285714285715 
1.0 1:0.6714285714285715 2:0.5571428571428572 3:0.6714285714285715 4:0.6714285714285715 5:0.6714285714285715 6:0.6714285714285715 7:0.6714285714285715 8:0.6714285714285715 9:0.6714285714285715 10:0.6714285714285715 11:0.6714285714285715 12:0.7857142857142857 13:0.6714285714285715 14:0.6714285714285715 15:0.6714285714285715 16:0.6714285714285715 17:0.6714285714285715 18:0.6714285714285715 19:0.6714285714285715 20:0.6714285714285715 21:0.6714285714285715 22:0.6714285714285715 23:0.6714285714285715 24:0.6714285714285715 25:0.6714285714285715 26:0.6714285714285715 27:0.6714285714285715 28:0.6714285714285715 29:0.6714285714285715 30:0.6714285714285715 
-1.0 1:0.6714285714285715 2:0.6714285714285715 3:0.6714285714285715 4:0.6714285714285715 5:0.6714285714285715 6:0.6714285714285715 7:0.6714285714285715 8:0.6714285714285715 9:0.6714285714285715 10:0.6714285714285715 11:0.6714285714285715 12:0.6714285714285715 13:0.6714285714285715 14:0.6714285714285715 15:0.6714285714285715 16:0.6714285714285715 17:0.6714285714285715 18:0.6714285714285715 19:0.6714285714285715 20:0.6714285714285715 21:0.6714285714285715 22:0.6714285714285715 23:0.6714285714285715 24:0.6714285714285715 25:0.6714285714285715 26:0.6714285714285715 27:0.6714285714285715 28:0.6714285714285715 29:0.6714285714285715 30:0.6714285714285715 
1.0 1:0.5571428571428572 2:0.6714285714285715 3:0.6714285714285715 4:0.6714285714285715 5:0.6714285714285715 6:0.6714285714285715 7:0.6714285714285715 8:0.6714285714285715 9:0.6714285714285715 10:0.6714285714285715 11:0.6714285714285715 12:0.6714285714285715 13:0.6714285714285715 14:0.6714285714285715 15:0.6714285714285715 16:0.6714285714285715 17:0.6714285714285715 18:0.6714285714285715 19:0.6714285714285715 20:0.6714285714285715 21:0.6714285714285715 22:0.6714285714285715 23:0.6714285714285715 24:0.6714285714285715 25:0.6714285714285715 26:0.6714285714285715 27:0.6714285714285715 28:0.6714285714285715 29:0.6714285714285715 30:0.6714285714285715 
1.0 1:0.6714285714285715 2:0.6714285714285715 3:0.6714285714285715 4:0.6714285714285715 5:0.7857142857142857 6:0.6714285714285715 7:0.6714285714285715 8:0.6714285714285715 9:0.6714285714285715 10:0.7857142857142857 11:0.6714285714285715 12:0.6714285714285715 13:0.6714285714285715 14:0.6714285714285715 15:0.6714285714285715 16:0.6714285714285715 17:0.6714285714285715 18:0.6714285714285715 19:0.6714285714285715 20:0.6714285714285715 21:0.6714285714285715 22:0.6714285714285715 23:0.6714285714285715 24:0.6714285714285715 25:0.6714285714285715 26:0.6714285714285715 27:0.6714285714285715 28:0.6714285714285715 29:0.6714285714285715 30:0.6714285714285715 
