encog,SVM,java,3.1.0,1,1400509685028
[SVM]
[SVM:PARAMS]
[SVM:SVM-PARAM]
inputCount=30
C=1
cacheSize=100
coef0=0
degree=3
eps=0.001
gamma=0.0333333333
kernelType=2
nrWeight=0
nu=0.5
p=0.1
probability=0
shrinking=1
svmType=3
weight=
weightLabel=
[SVM:SVM-MODEL]
svm_type epsilon_svr
kernel_type rbf
gamma 0.03333333333333333
nr_class 2
total_sv 174
rho -0.7998286158306084
SV
-1.0 1:0.9 2:0.9 3:0.9 4:0.9 5:0.9 6:0.9 7:0.9 8:0.9 9:0.9 10:0.9 11:0.9 12:0.9 13:0.9 14:0.9 15:0.9 16:0.9 17:0.9 18:0.9 19:0.9 20:0.9 21:0.1 22:0.9 23:0.9 24:0.9 25:0.9 26:0.9 27:0.9 28:0.9 29:0.9 30:0.9 
0.2930747392941996 1:0.9 2:0.9 3:0.9 4:0.9 5:0.9 6:0.9 7:0.9 8:0.9 9:0.9 10:0.9 11:0.9 12:0.9 13:0.9 14:0.9 15:0.9 16:0.1 17:0.9 18:0.9 19:0.9 20:0.9 21:0.9 22:0.9 23:0.9 24:0.9 25:0.9 26:0.1 27:0.9 28:0.9 29:0.9 30:0.9 
-1.0 1:0.9 2:0.9 3:0.9 4:0.9 5:0.9 6:0.9 7:0.9 8:0.9 9:0.9 10:0.9 11:0.1 12:0.9 13:0.9 14:0.9 15:0.9 16:0.9 17:0.9 18:0.9 19:0.9 20:0.9 21:0.1 22:0.9 23:0.9 24:0.9 25:0.9 26:0.9 27:0.9 28:0.9 29:0.9 30:0.9 
-1.0 1:0.9 2:0.9 3:0.9 4:0.9 5:0.9 6:0.1 7:0.9 8:0.9 9:0.9 10:0.9 11:0.9 12:0.9 13:0.9 14:0.9 15:0.9 16:0.1 17:0.9 18:0.9 19:0.9 20:0.9 21:0.9 22:0.9 23:0.9 24:0.9 25:0.9 26:0.1 27:0.9 28:0.9 29:0.9 30:0.9 
1.0 1:0.1 2:0.9 3:0.9 4:0.9 5:0.9 6:0.9 7:0.9 8:0.9 9:0.9 10:0.9 11:0.1 12:0.9 13:0.9 14:0.9 15:0.9 16:0.9 17:0.9 18:0.9 19:0.9 20:0.9 21:0.1 22:0.9 23:0.9 24:0.9 25:0.9 26:0.1 27:0.9 28:0.9 29:0.9 30:0.9 
-1.0 1:0.9 2:0.9 3:0.9 4:0.9 5:0.9 6:0.1 7:0.9 8:0.9 9:0.9 10:0.9 11:0.9 12:0.9 13:0.9 14:0.9 15:0.9 16:0.1 17:0.9 18:0.9 19:0.9 20:0.9 21:0.1 22:0.9 23:0.9 24:0.9 25:0.9 26:0.9 27:0.9 28:0.9 29:0.9 30:0.9 
-1.0 1:0.1 2:0.9 3:0.9 4:0.9 5:0.9 6:0.1 7:0.9 8:0.9 9:0.9 10:0.9 11:0.9 12:0.9 13:0.9 14:0.9 15:0.9 16:0.1 17:0.9 18:0.9 19:0.9 20:0.9 21:0.9 22:0.9 23:0.9 24:0.9 25:0.9 26:0.9 27:0.9 28:0.9 29:0.9 30:0.9 
-1.0 1:0.9 2:0.9 3:0.9 4:0.9 5:0.9 6:0.9 7:0.9 8:0.9 9:0.9 10:0.9 11:0.1 12:0.9 13:0.9 14:0.9 15:0.9 16:0.9 17:0.9 18:0.9 19:0.9 20:0.9 21:0.9 22:0.9 23:0.9 24:0.9 25:0.9 26:0.9 27:0.9 28:0.9 29:0.9 30:0.9 
0.07073720398516241 1:0.9 2:0.9 3:0.9 4:0.9 5:0.9 6:0.1 7:0.9 8:0.9 9:0.9 10:0.9 11:0.9 12:0.9 13:0.9 14:0.9 15:0.9 16:0.9 17:0.9 18:0.9 19:0.9 20:0.9 21:0.9 22:0.9 23:0.9 24:0.9 25:0.9 26:0.1 27:0.9 28:0.9 29:0.9 30:0.9 
0.023517182763956687 1:0.1 2:0.9 3:0.9 4:0.9 5:0.9 6:0.9 7:0.9 8:0.9 9:0.9 10:0.9 11:0.9 12:0.9 13:0.9 14:0.9 15:0.9 16:0.9 17:0.9 18:0.9 19:0.9 20:0.9 21:0.1 22:0.9 23:0.9 24:0.9 25:0.9 26:0.9 27:0.9 28:0.9 29:0.9 30:0.9 
-1.0 1:0.9 2:0.9 3:0.9 4:0.9 5:0.9 6:0.9 7:0.9 8:0.9 9:0.9 10:0.9 11:0.1 12:0.9 13:0.9 14:0.9 15:0.9 16:0.9 17:0.9 18:0.9 19:0.9 20:0.9 21:0.9 22:0.9 23:0.9 24:0.9 25:0.9 26:0.9 27:0.9 28:0.9 29:0.9 30:0.9 
1.0 1:0.9 2:0.9 3:0.9 4:0.9 5:0.9 6:0.1 7:0.9 8:0.9 9:0.9 10:0.9 11:0.9 12:0.9 13:0.9 14:0.9 15:0.9 16:0.9 17:0.9 18:0.9 19:0.9 20:0.9 21:0.9 22:0.9 23:0.9 24:0.9 25:0.9 26:0.1 27:0.9 28:0.9 29:0.9 30:0.9 
-1.0 1:0.1 2:0.9 3:0.9 4:0.9 5:0.9 6:0.9 7:0.9 8:0.9 9:0.9 10:0.9 11:0.9 12:0.9 13:0.9 14:0.9 15:0.9 16:0.9 17:0.9 18:0.9 19:0.9 20:0.9 21:0.1 22:0.9 23:0.9 24:0.9 25:0.9 26:0.9 27:0.9 28:0.9 29:0.9 30:0.9 
1.0 1:0.9 2:0.9 3:0.9 4:0.9 5:0.9 6:0.9 7:0.9 8:0.9 9:0.9 10:0.9 11:0.9 12:0.9 13:0.9 14:0.9 15:0.9 16:0.1 17:0.9 18:0.9 19:0.9 20:0.9 21:0.9 22:0.9 23:0.9 24:0.9 25:0.9 26:0.1 27:0.9 28:0.9 29:0.9 30:0.9 
-1.0 1:0.9 2:0.9 3:0.9 4:0.9 5:0.9 6:0.9 7:0.9 8:0.9 9:0.9 10:0.9 11:0.1 12:0.9 13:0.9 14:0.9 15:0.9 16:0.9 17:0.9 18:0.9 19:0.9 20:0.9 21:0.1 22:0.9 23:0.9 24:0.9 25:0.9 26:0.9 27:0.9 28:0.9 29:0.9 30:0.9 
1.0 1:0.9 2:0.9 3:0.9 4:0.9 5:0.9 6:0.1 7:0.9 8:0.9 9:0.9 10:0.9 11:0.9 12:0.9 13:0.9 14:0.9 15:0.9 16:0.1 17:0.9 18:0.9 19:0.9 20:0.9 21:0.9 22:0.9 23:0.9 24:0.9 25:0.9 26:0.1 27:0.9 28:0.9 29:0.9 30:0.9 
-1.0 1:0.1 2:0.9 3:0.9 4:0.9 5:0.9 6:0.9 7:0.9 8:0.9 9:0.9 10:0.9 11:0.1 12:0.9 13:0.9 14:0.9 15:0.9 16:0.9 17:0.9 18:0.9 19:0.9 20:0.9 21:0.1 22:0.9 23:0.9 24:0.9 25:0.9 26:0.9 27:0.9 28:0.9 29:0.9 30:0.9 
1.0 1:0.9 2:0.9 3:0.9 4:0.9 5:0.9 6:0.1 7:0.9 8:0.9 9:0.9 10:0.9 11:0.9 12:0.9 13:0.9 14:0.9 15:0.9 16:0.1 17:0.9 18:0.9 19:0.9 20:0.9 21:0.9 22:0.9 23:0.9 24:0.9 25:0.9 26:0.1 27:0.9 28:0.9 29:0.9 30:0.9 
1.0 1:0.9 2:0.9 3:0.9 4:0.9 5:0.9 6:0.1 7:0.9 8:0.9 9:0.9 10:0.9 11:0.9 12:0.9 13:0.9 14:0.9 15:0.9 16:0.1 17:0.9 18:0.9 19:0.9 20:0.9 21:0.9 22:0.9 23:0.9 24:0.9 25:0.9 26:0.9 27:0.9 28:0.9 29:0.9 30:0.9 
-1.0 1:0.1 2:0.9 3:0.9 4:0.9 5:0.9 6:0.9 7:0.9 8:0.9 9:0.9 10:0.9 11:0.9 12:0.9 13:0.9 14:0.9 15:0.9 16:0.9 17:0.9 18:0.9 19:0.9 20:0.9 21:0.9 22:0.9 23:0.9 24:0.9 25:0.9 26:0.9 27:0.9 28:0.9 29:0.9 30:0.9 
-1.0 1:0.9 2:0.9 3:0.9 4:0.9 5:0.9 6:0.9 7:0.9 8:0.9 9:0.9 10:0.9 11:0.9 12:0.9 13:0.9 14:0.9 15:0.9 16:0.9 17:0.9 18:0.9 19:0.9 20:0.9 21:0.9 22:0.9 23:0.9 24:0.9 25:0.9 26:0.1 27:0.9 28:0.9 29:0.9 30:0.9 
-1.0 1:0.9 2:0.9 3:0.9 4:0.9 5:0.9 6:0.9 7:0.9 8:0.9 9:0.9 10:0.9 11:0.9 12:0.9 13:0.9 14:0.9 15:0.9 16:0.9 17:0.9 18:0.9 19:0.9 20:0.9 21:0.1 22:0.9 23:0.9 24:0.9 25:0.9 26:0.1 27:0.9 28:0.9 29:0.9 30:0.9 
1.0 1:0.9 2:0.9 3:0.9 4:0.9 5:0.9 6:0.9 7:0.9 8:0.9 9:0.9 10:0.9 11:0.9 12:0.9 13:0.9 14:0.9 15:0.9 16:0.1 17:0.9 18:0.9 19:0.9 20:0.9 21:0.1 22:0.9 23:0.9 24:0.9 25:0.9 26:0.1 27:0.9 28:0.9 29:0.9 30:0.9 
-1.0 1:0.1 2:0.9 3:0.9 4:0.9 5:0.9 6:0.1 7:0.9 8:0.9 9:0.9 10:0.9 11:0.9 12:0.9 13:0.9 14:0.9 15:0.9 16:0.9 17:0.9 18:0.9 19:0.9 20:0.9 21:0.9 22:0.9 23:0.9 24:0.9 25:0.9 26:0.9 27:0.9 28:0.9 29:0.9 30:0.9 
-1.0 1:0.9 2:0.9 3:0.9 4:0.9 5:0.9 6:0.9 7:0.9 8:0.9 9:0.9 10:0.9 11:0.9 12:0.9 13:0.9 14:0.9 15:0.9 16:0.9 17:0.9 18:0.9 19:0.9 20:0.9 21:0.1 22:0.9 23:0.9 24:0.9 25:0.9 26:0.9 27:0.9 28:0.9 29:0.9 30:0.9 
-1.0 1:0.9 2:0.9 3:0.9 4:0.9 5:0.9 6:0.9 7:0.9 8:0.9 9:0.9 10:0.9 11:0.9 12:0.9 13:0.9 14:0.9 15:0.9 16:0.1 17:0.9 18:0.9 19:0.9 20:0.9 21:0.9 22:0.9 23:0.9 24:0.9 25:0.9 26:0.1 27:0.9 28:0.9 29:0.9 30:0.9 
1.0 1:0.9 2:0.9 3:0.9 4:0.9 5:0.9 6:0.9 7:0.9 8:0.9 9:0.9 10:0.9 11:0.1 12:0.9 13:0.9 14:0.9 15:0.9 16:0.9 17:0.9 18:0.9 19:0.9 20:0.9 21:0.1 22:0.9 23:0.9 24:0.9 25:0.9 26:0.1 27:0.9 28:0.9 29:0.9 30:0.9 
-1.0 1:0.9 2:0.9 3:0.9 4:0.9 5:0.9 6:0.1 7:0.9 8:0.9 9:0.9 10:0.9 11:0.9 12:0.9 13:0.9 14:0.9 15:0.9 16:0.1 17:0.9 18:0.9 19:0.9 20:0.9 21:0.1 22:0.9 23:0.9 24:0.9 25:0.9 26:0.9 27:0.9 28:0.9 29:0.9 30:0.9 
1.0 1:0.1 2:0.9 3:0.9 4:0.9 5:0.9 6:0.1 7:0.9 8:0.9 9:0.9 10:0.9 11:0.9 12:0.9 13:0.9 14:0.9 15:0.9 16:0.1 17:0.9 18:0.9 19:0.9 20:0.9 21:0.9 22:0.9 23:0.9 24:0.9 25:0.9 26:0.9 27:0.9 28:0.9 29:0.9 30:0.9 
-1.0 1:0.9 2:0.9 3:0.9 4:0.9 5:0.9 6:0.9 7:0.9 8:0.9 9:0.9 10:0.9 11:0.9 12:0.9 13:0.9 14:0.9 15:0.9 16:0.9 17:0.9 18:0.9 19:0.9 20:0.9 21:0.9 22:0.9 23:0.9 24:0.9 25:0.9 26:0.9 27:0.9 28:0.9 29:0.9 30:0.9 
-1.0 1:0.9 2:0.9 3:0.9 4:0.9 5:0.9 6:0.9 7:0.9 8:0.9 9:0.9 10:0.9 11:0.9 12:0.9 13:0.9 14:0.9 15:0.9 16:0.9 17:0.9 18:0.9 19:0.9 20:0.9 21:0.9 22:0.9 23:0.9 24:0.9 25:0.9 26:0.1 27:0.9 28:0.9 29:0.9 30:0.9 
1.0 1:0.9 2:0.9 3:0.9 4:0.9 5:0.9 6:0.9 7:0.9 8:0.9 9:0.9 10:0.9 11:0.9 12:0.9 13:0.9 14:0.9 15:0.9 16:0.9 17:0.9 18:0.9 19:0.9 20:0.9 21:0.1 22:0.9 23:0.9 24:0.9 25:0.9 26:0.1 27:0.9 28:0.9 29:0.9 30:0.9 
1.0 1:0.9 2:0.9 3:0.9 4:0.9 5:0.9 6:0.9 7:0.9 8:0.9 9:0.9 10:0.9 11:0.9 12:0.9 13:0.9 14:0.9 15:0.9 16:0.1 17:0.9 18:0.9 19:0.9 20:0.9 21:0.1 22:0.9 23:0.9 24:0.9 25:0.9 26:0.9 27:0.9 28:0.9 29:0.9 30:0.9 
1.0 1:0.1 2:0.9 3:0.9 4:0.9 5:0.9 6:0.1 7:0.9 8:0.9 9:0.9 10:0.9 11:0.9 12:0.9 13:0.9 14:0.9 15:0.9 16:0.9 17:0.9 18:0.9 19:0.9 20:0.9 21:0.9 22:0.9 23:0.9 24:0.9 25:0.9 26:0.9 27:0.9 28:0.9 29:0.9 30:0.9 
-1.0 1:0.9 2:0.9 3:0.1 4:0.9 5:0.9 6:0.9 7:0.9 8:0.9 9:0.9 10:0.9 11:0.9 12:0.9 13:0.9 14:0.9 15:0.9 16:0.9 17:0.9 18:0.9 19:0.9 20:0.9 21:0.9 22:0.9 23:0.9 24:0.9 25:0.9 26:0.9 27:0.9 28:0.9 29:0.9 30:0.9 
-1.0 1:0.9 2:0.9 3:0.9 4:0.9 5:0.9 6:0.9 7:0.9 8:0.9 9:0.9 10:0.9 11:0.9 12:0.9 13:0.9 14:0.9 15:0.9 16:0.1 17:0.9 18:0.9 19:0.9 20:0.9 21:0.9 22:0.9 23:0.9 24:0.9 25:0.9 26:0.9 27:0.9 28:0.9 29:0.9 30:0.9 
-1.0 1:0.9 2:0.9 3:0.9 4:0.9 5:0.9 6:0.9 7:0.9 8:0.9 9:0.9 10:0.9 11:0.1 12:0.9 13:0.9 14:0.9 15:0.9 16:0.9 17:0.9 18:0.9 19:0.9 20:0.9 21:0.9 22:0.9 23:0.9 24:0.9 25:0.9 26:0.1 27:0.9 28:0.9 29:0.9 30:0.9 
-1.0 1:0.9 2:0.9 3:0.9 4:0.9 5:0.9 6:0.1 7:0.9 8:0.9 9:0.9 10:0.9 11:0.9 12:0.9 13:0.9 14:0.9 15:0.9 16:0.9 17:0.9 18:0.9 19:0.9 20:0.9 21:0.1 22:0.9 23:0.9 24:0.9 25:0.9 26:0.1 27:0.9 28:0.9 29:0.9 30:0.9 
-1.0 1:0.1 2:0.9 3:0.9 4:0.9 5:0.9 6:0.9 7:0.9 8:0.9 9:0.9 10:0.9 11:0.9 12:0.9 13:0.9 14:0.9 15:0.9 16:0.1 17:0.9 18:0.9 19:0.9 20:0.9 21:0.1 22:0.9 23:0.9 24:0.9 25:0.9 26:0.1 27:0.9 28:0.9 29:0.9 30:0.9 
1.0 1:0.9 2:0.9 3:0.9 4:0.9 5:0.9 6:0.9 7:0.9 8:0.9 9:0.9 10:0.9 11:0.1 12:0.9 13:0.9 14:0.9 15:0.9 16:0.1 17:0.9 18:0.9 19:0.9 20:0.9 21:0.1 22:0.9 23:0.9 24:0.9 25:0.9 26:0.1 27:0.9 28:0.9 29:0.9 30:0.9 
-1.0 1:0.9 2:0.9 3:0.9 4:0.9 5:0.9 6:0.1 7:0.9 8:0.9 9:0.9 10:0.9 11:0.1 12:0.9 13:0.9 14:0.9 15:0.9 16:0.1 17:0.9 18:0.9 19:0.9 20:0.9 21:0.1 22:0.9 23:0.9 24:0.9 25:0.9 26:0.9 27:0.9 28:0.9 29:0.9 30:0.9 
-1.0 1:0.1 2:0.9 3:0.9 4:0.9 5:0.9 6:0.1 7:0.9 8:0.9 9:0.9 10:0.9 11:0.1 12:0.9 13:0.9 14:0.9 15:0.9 16:0.1 17:0.9 18:0.9 19:0.9 20:0.9 21:0.9 22:0.9 23:0.9 24:0.9 25:0.9 26:0.1 27:0.9 28:0.9 29:0.9 30:0.9 
-1.0 1:0.1 2:0.9 3:0.9 4:0.9 5:0.9 6:0.1 7:0.9 8:0.9 9:0.9 10:0.9 11:0.1 12:0.9 13:0.9 14:0.9 15:0.9 16:0.9 17:0.9 18:0.9 19:0.9 20:0.9 21:0.1 22:0.9 23:0.9 24:0.9 25:0.9 26:0.1 27:0.9 28:0.9 29:0.9 30:0.9 
-1.0 1:0.1 2:0.9 3:0.9 4:0.9 5:0.9 6:0.1 7:0.9 8:0.9 9:0.9 10:0.9 11:0.9 12:0.9 13:0.9 14:0.9 15:0.9 16:0.1 17:0.9 18:0.9 19:0.9 20:0.9 21:0.1 22:0.9 23:0.9 24:0.9 25:0.9 26:0.1 27:0.9 28:0.9 29:0.9 30:0.9 
-1.0 1:0.1 2:0.9 3:0.9 4:0.9 5:0.9 6:0.9 7:0.9 8:0.9 9:0.9 10:0.9 11:0.1 12:0.9 13:0.9 14:0.9 15:0.9 16:0.1 17:0.9 18:0.9 19:0.9 20:0.9 21:0.1 22:0.9 23:0.9 24:0.9 25:0.9 26:0.1 27:0.9 28:0.9 29:0.9 30:0.9 
1.0 1:0.9 2:0.9 3:0.9 4:0.9 5:0.9 6:0.1 7:0.9 8:0.9 9:0.9 10:0.9 11:0.1 12:0.9 13:0.9 14:0.9 15:0.9 16:0.1 17:0.9 18:0.9 19:0.9 20:0.9 21:0.1 22:0.9 23:0.9 24:0.9 25:0.9 26:0.1 27:0.9 28:0.9 29:0.9 30:0.9 
1.0 1:0.1 2:0.9 3:0.9 4:0.9 5:0.9 6:0.1 7:0.9 8:0.9 9:0.9 10:0.9 11:0.1 12:0.9 13:0.9 14:0.9 15:0.9 16:0.1 17:0.9 18:0.9 19:0.9 20:0.9 21:0.1 22:0.9 23:0.9 24:0.9 25:0.9 26:0.9 27:0.9 28:0.9 29:0.9 30:0.9 
1.0 1:0.1 2:0.9 3:0.9 4:0.9 5:0.9 6:0.1 7:0.9 8:0.9 9:0.9 10:0.9 11:0.9 12:0.9 13:0.9 14:0.9 15:0.9 16:0.9 17:0.9 18:0.9 19:0.9 20:0.9 21:0.9 22:0.9 23:0.9 24:0.9 25:0.9 26:0.9 27:0.9 28:0.9 29:0.9 30:0.9 
-1.0 1:0.9 2:0.9 3:0.9 4:0.9 5:0.9 6:0.9 7:0.9 8:0.9 9:0.9 10:0.9 11:0.9 12:0.9 13:0.9 14:0.9 15:0.9 16:0.9 17:0.9 18:0.9 19:0.9 20:0.9 21:0.9 22:0.9 23:0.9 24:0.9 25:0.9 26:0.9 27:0.9 28:0.9 29:0.9 30:0.9 
-1.0 1:0.9 2:0.9 3:0.9 4:0.9 5:0.9 6:0.9 7:0.9 8:0.9 9:0.9 10:0.9 11:0.9 12:0.9 13:0.1 14:0.9 15:0.9 16:0.9 17:0.9 18:0.9 19:0.9 20:0.9 21:0.9 22:0.9 23:0.9 24:0.9 25:0.9 26:0.9 27:0.9 28:0.9 29:0.9 30:0.9 
-1.0 1:0.9 2:0.9 3:0.9 4:0.9 5:0.9 6:0.9 7:0.9 8:0.1 9:0.9 10:0.9 11:0.9 12:0.9 13:0.9 14:0.9 15:0.9 16:0.9 17:0.9 18:0.9 19:0.9 20:0.9 21:0.9 22:0.9 23:0.9 24:0.9 25:0.9 26:0.1 27:0.9 28:0.9 29:0.9 30:0.9 
-1.0 1:0.9 2:0.9 3:0.1 4:0.9 5:0.9 6:0.9 7:0.9 8:0.9 9:0.9 10:0.9 11:0.9 12:0.9 13:0.9 14:0.9 15:0.9 16:0.9 17:0.9 18:0.9 19:0.9 20:0.9 21:0.1 22:0.9 23:0.9 24:0.9 25:0.9 26:0.1 27:0.9 28:0.9 29:0.9 30:0.9 
-1.0 1:0.9 2:0.9 3:0.9 4:0.9 5:0.9 6:0.9 7:0.9 8:0.9 9:0.9 10:0.9 11:0.9 12:0.9 13:0.9 14:0.9 15:0.9 16:0.1 17:0.9 18:0.9 19:0.9 20:0.9 21:0.1 22:0.9 23:0.9 24:0.9 25:0.9 26:0.1 27:0.9 28:0.9 29:0.9 30:0.9 
-1.0 1:0.9 2:0.9 3:0.9 4:0.9 5:0.9 6:0.9 7:0.9 8:0.9 9:0.9 10:0.9 11:0.1 12:0.9 13:0.9 14:0.9 15:0.9 16:0.1 17:0.9 18:0.9 19:0.9 20:0.9 21:0.1 22:0.9 23:0.9 24:0.9 25:0.9 26:0.1 27:0.9 28:0.9 29:0.9 30:0.9 
-1.0 1:0.9 2:0.9 3:0.9 4:0.9 5:0.9 6:0.1 7:0.9 8:0.9 9:0.9 10:0.9 11:0.1 12:0.9 13:0.9 14:0.9 15:0.9 16:0.1 17:0.9 18:0.9 19:0.9 20:0.9 21:0.1 22:0.9 23:0.9 24:0.9 25:0.9 26:0.1 27:0.9 28:0.9 29:0.9 30:0.9 
1.0 1:0.1 2:0.9 3:0.9 4:0.9 5:0.9 6:0.1 7:0.9 8:0.9 9:0.9 10:0.9 11:0.1 12:0.9 13:0.9 14:0.9 15:0.9 16:0.1 17:0.9 18:0.9 19:0.9 20:0.9 21:0.1 22:0.9 23:0.9 24:0.9 25:0.9 26:0.1 27:0.9 28:0.9 29:0.9 30:0.9 
-1.0 1:0.1 2:0.9 3:0.9 4:0.9 5:0.9 6:0.1 7:0.9 8:0.9 9:0.9 10:0.9 11:0.1 12:0.9 13:0.9 14:0.9 15:0.9 16:0.1 17:0.9 18:0.9 19:0.9 20:0.9 21:0.1 22:0.9 23:0.9 24:0.9 25:0.9 26:0.9 27:0.9 28:0.9 29:0.9 30:0.9 
1.0 1:0.1 2:0.9 3:0.9 4:0.9 5:0.9 6:0.1 7:0.9 8:0.9 9:0.9 10:0.9 11:0.1 12:0.9 13:0.9 14:0.9 15:0.9 16:0.1 17:0.9 18:0.9 19:0.9 20:0.9 21:0.9 22:0.9 23:0.9 24:0.9 25:0.9 26:0.1 27:0.9 28:0.9 29:0.9 30:0.9 
1.0 1:0.1 2:0.9 3:0.9 4:0.9 5:0.9 6:0.1 7:0.9 8:0.9 9:0.9 10:0.9 11:0.1 12:0.9 13:0.9 14:0.9 15:0.9 16:0.9 17:0.9 18:0.9 19:0.9 20:0.9 21:0.1 22:0.9 23:0.9 24:0.9 25:0.9 26:0.9 27:0.9 28:0.9 29:0.9 30:0.9 
-1.0 1:0.1 2:0.9 3:0.9 4:0.9 5:0.9 6:0.1 7:0.9 8:0.9 9:0.9 10:0.9 11:0.9 12:0.9 13:0.9 14:0.9 15:0.9 16:0.1 17:0.9 18:0.9 19:0.9 20:0.9 21:0.9 22:0.9 23:0.9 24:0.9 25:0.9 26:0.9 27:0.9 28:0.9 29:0.9 30:0.9 
0.6829515860921999 1:0.9 2:0.9 3:0.9 4:0.9 5:0.9 6:0.1 7:0.9 8:0.9 9:0.9 10:0.9 11:0.9 12:0.9 13:0.9 14:0.9 15:0.9 16:0.9 17:0.9 18:0.9 19:0.9 20:0.9 21:0.1 22:0.9 23:0.9 24:0.9 25:0.9 26:0.9 27:0.9 28:0.9 29:0.9 30:0.9 
-1.0 1:0.9 2:0.9 3:0.9 4:0.9 5:0.9 6:0.9 7:0.9 8:0.9 9:0.9 10:0.9 11:0.9 12:0.9 13:0.9 14:0.9 15:0.9 16:0.9 17:0.9 18:0.9 19:0.9 20:0.9 21:0.9 22:0.9 23:0.9 24:0.9 25:0.9 26:0.9 27:0.9 28:0.9 29:0.9 30:0.9 
-1.0 1:0.9 2:0.9 3:0.9 4:0.9 5:0.9 6:0.9 7:0.9 8:0.9 9:0.9 10:0.9 11:0.9 12:0.9 13:0.9 14:0.9 15:0.9 16:0.9 17:0.9 18:0.9 19:0.9 20:0.9 21:0.9 22:0.9 23:0.9 24:0.9 25:0.9 26:0.1 27:0.9 28:0.9 29:0.9 30:0.9 
-1.0 1:0.9 2:0.9 3:0.9 4:0.9 5:0.9 6:0.9 7:0.9 8:0.9 9:0.9 10:0.9 11:0.9 12:0.9 13:0.9 14:0.9 15:0.9 16:0.9 17:0.9 18:0.9 19:0.9 20:0.9 21:0.1 22:0.9 23:0.9 24:0.9 25:0.9 26:0.1 27:0.9 28:0.9 29:0.9 30:0.9 
-1.0 1:0.9 2:0.9 3:0.9 4:0.9 5:0.9 6:0.9 7:0.9 8:0.9 9:0.9 10:0.9 11:0.9 12:0.9 13:0.9 14:0.9 15:0.9 16:0.1 17:0.9 18:0.9 19:0.9 20:0.9 21:0.1 22:0.9 23:0.9 24:0.9 25:0.9 26:0.1 27:0.9 28:0.9 29:0.9 30:0.9 
1.0 1:0.9 2:0.9 3:0.9 4:0.9 5:0.9 6:0.9 7:0.9 8:0.9 9:0.9 10:0.9 11:0.1 12:0.9 13:0.9 14:0.9 15:0.9 16:0.1 17:0.9 18:0.9 19:0.9 20:0.9 21:0.1 22:0.9 23:0.9 24:0.9 25:0.9 26:0.1 27:0.9 28:0.9 29:0.9 30:0.9 
1.0 1:0.9 2:0.9 3:0.9 4:0.9 5:0.9 6:0.1 7:0.9 8:0.9 9:0.9 10:0.9 11:0.1 12:0.9 13:0.9 14:0.9 15:0.9 16:0.1 17:0.9 18:0.9 19:0.9 20:0.9 21:0.1 22:0.9 23:0.9 24:0.9 25:0.9 26:0.9 27:0.9 28:0.9 29:0.9 30:0.9 
-1.0 1:0.1 2:0.9 3:0.9 4:0.9 5:0.9 6:0.1 7:0.9 8:0.9 9:0.9 10:0.9 11:0.1 12:0.9 13:0.9 14:0.9 15:0.9 16:0.9 17:0.9 18:0.9 19:0.9 20:0.9 21:0.9 22:0.9 23:0.9 24:0.9 25:0.9 26:0.9 27:0.9 28:0.9 29:0.9 30:0.9 
-1.0 1:0.1 2:0.9 3:0.9 4:0.9 5:0.9 6:0.1 7:0.9 8:0.9 9:0.9 10:0.9 11:0.9 12:0.9 13:0.9 14:0.9 15:0.9 16:0.9 17:0.9 18:0.9 19:0.9 20:0.9 21:0.9 22:0.9 23:0.9 24:0.9 25:0.9 26:0.1 27:0.9 28:0.9 29:0.9 30:0.9 
1.0 1:0.1 2:0.9 3:0.9 4:0.9 5:0.9 6:0.9 7:0.9 8:0.9 9:0.9 10:0.9 11:0.9 12:0.9 13:0.9 14:0.9 15:0.9 16:0.9 17:0.9 18:0.9 19:0.9 20:0.9 21:0.1 22:0.9 23:0.9 24:0.9 25:0.9 26:0.1 27:0.9 28:0.9 29:0.9 30:0.9 
1.0 1:0.9 2:0.9 3:0.9 4:0.9 5:0.9 6:0.9 7:0.9 8:0.9 9:0.9 10:0.9 11:0.9 12:0.9 13:0.9 14:0.9 15:0.9 16:0.1 17:0.9 18:0.9 19:0.9 20:0.9 21:0.1 22:0.9 23:0.9 24:0.9 25:0.9 26:0.9 27:0.9 28:0.9 29:0.9 30:0.9 
0.7613636595461252 1:0.1 2:0.9 3:0.9 4:0.9 5:0.9 6:0.1 7:0.9 8:0.9 9:0.9 10:0.9 11:0.9 12:0.9 13:0.9 14:0.9 15:0.9 16:0.9 17:0.9 18:0.9 19:0.9 20:0.9 21:0.9 22:0.9 23:0.9 24:0.9 25:0.9 26:0.9 27:0.9 28:0.9 29:0.9 30:0.9 
-1.0 1:0.9 2:0.9 3:0.9 4:0.9 5:0.9 6:0.9 7:0.9 8:0.9 9:0.9 10:0.9 11:0.9 12:0.9 13:0.9 14:0.9 15:0.9 16:0.9 17:0.9 18:0.9 19:0.9 20:0.9 21:0.9 22:0.9 23:0.9 24:0.9 25:0.9 26:0.9 27:0.9 28:0.9 29:0.9 30:0.9 
-1.0 1:0.9 2:0.9 3:0.9 4:0.9 5:0.9 6:0.9 7:0.9 8:0.9 9:0.9 10:0.9 11:0.9 12:0.9 13:0.9 14:0.9 15:0.9 16:0.9 17:0.9 18:0.9 19:0.9 20:0.9 21:0.9 22:0.9 23:0.9 24:0.9 25:0.9 26:0.1 27:0.9 28:0.9 29:0.9 30:0.9 
-1.0 1:0.9 2:0.9 3:0.9 4:0.9 5:0.9 6:0.9 7:0.9 8:0.9 9:0.9 10:0.9 11:0.9 12:0.9 13:0.9 14:0.9 15:0.9 16:0.9 17:0.9 18:0.9 19:0.9 20:0.9 21:0.1 22:0.9 23:0.9 24:0.9 25:0.9 26:0.1 27:0.9 28:0.9 29:0.9 30:0.9 
1.0 1:0.9 2:0.9 3:0.9 4:0.9 5:0.9 6:0.9 7:0.9 8:0.9 9:0.9 10:0.9 11:0.9 12:0.9 13:0.9 14:0.9 15:0.9 16:0.1 17:0.9 18:0.9 19:0.9 20:0.9 21:0.1 22:0.9 23:0.9 24:0.9 25:0.9 26:0.1 27:0.9 28:0.9 29:0.9 30:0.9 
-1.0 1:0.9 2:0.9 3:0.1 4:0.9 5:0.9 6:0.9 7:0.9 8:0.1 9:0.9 10:0.9 11:0.9 12:0.9 13:0.9 14:0.9 15:0.9 16:0.9 17:0.9 18:0.9 19:0.9 20:0.9 21:0.9 22:0.9 23:0.9 24:0.9 25:0.9 26:0.9 27:0.9 28:0.9 29:0.9 30:0.9 
-1.0 1:0.9 2:0.9 3:0.9 4:0.1 5:0.9 6:0.9 7:0.9 8:0.9 9:0.9 10:0.9 11:0.9 12:0.9 13:0.9 14:0.9 15:0.9 16:0.9 17:0.9 18:0.9 19:0.9 20:0.9 21:0.9 22:0.9 23:0.9 24:0.9 25:0.9 26:0.9 27:0.1 28:0.9 29:0.9 30:0.9 
0.6054926207589418 1:0.9 2:0.9 3:0.9 4:0.9 5:0.9 6:0.9 7:0.9 8:0.9 9:0.9 10:0.9 11:0.9 12:0.9 13:0.9 14:0.9 15:0.9 16:0.9 17:0.9 18:0.9 19:0.9 20:0.9 21:0.1 22:0.9 23:0.9 24:0.9 25:0.1 26:0.9 27:0.9 28:0.9 29:0.9 30:0.9 
0.07223926627582222 1:0.1 2:0.9 3:0.9 4:0.9 5:0.1 6:0.9 7:0.9 8:0.9 9:0.9 10:0.9 11:0.9 12:0.9 13:0.9 14:0.9 15:0.9 16:0.9 17:0.9 18:0.9 19:0.9 20:0.9 21:0.9 22:0.9 23:0.9 24:0.9 25:0.9 26:0.9 27:0.9 28:0.9 29:0.9 30:0.9 
-1.0 1:0.9 2:0.9 3:0.9 4:0.9 5:0.9 6:0.9 7:0.9 8:0.9 9:0.9 10:0.9 11:0.9 12:0.9 13:0.9 14:0.9 15:0.9 16:0.9 17:0.9 18:0.9 19:0.9 20:0.9 21:0.9 22:0.9 23:0.9 24:0.9 25:0.9 26:0.9 27:0.9 28:0.9 29:0.9 30:0.9 
-1.0 1:0.9 2:0.9 3:0.9 4:0.9 5:0.9 6:0.1 7:0.9 8:0.9 9:0.9 10:0.9 11:0.9 12:0.9 13:0.9 14:0.9 15:0.9 16:0.9 17:0.9 18:0.9 19:0.9 20:0.9 21:0.9 22:0.9 23:0.9 24:0.9 25:0.9 26:0.9 27:0.9 28:0.9 29:0.9 30:0.9 
0.702151099085712 1:0.1 2:0.9 3:0.9 4:0.9 5:0.9 6:0.9 7:0.9 8:0.9 9:0.9 10:0.9 11:0.9 12:0.9 13:0.9 14:0.9 15:0.9 16:0.9 17:0.9 18:0.9 19:0.9 20:0.9 21:0.9 22:0.9 23:0.9 24:0.9 25:0.9 26:0.1 27:0.9 28:0.9 29:0.9 30:0.9 
-1.0 1:0.9 2:0.9 3:0.9 4:0.9 5:0.9 6:0.9 7:0.9 8:0.9 9:0.9 10:0.9 11:0.9 12:0.1 13:0.9 14:0.9 15:0.9 16:0.9 17:0.9 18:0.9 19:0.9 20:0.9 21:0.9 22:0.9 23:0.9 24:0.9 25:0.9 26:0.9 27:0.9 28:0.9 29:0.9 30:0.9 
-1.0 1:0.9 2:0.9 3:0.9 4:0.9 5:0.9 6:0.1 7:0.9 8:0.9 9:0.9 10:0.9 11:0.9 12:0.9 13:0.9 14:0.9 15:0.9 16:0.9 17:0.9 18:0.9 19:0.9 20:0.9 21:0.9 22:0.9 23:0.9 24:0.9 25:0.1 26:0.9 27:0.9 28:0.9 29:0.9 30:0.9 
-1.0 1:0.9 2:0.9 3:0.9 4:0.9 5:0.9 6:0.9 7:0.9 8:0.1 9:0.9 10:0.9 11:0.9 12:0.9 13:0.9 14:0.1 15:0.9 16:0.9 17:0.9 18:0.9 19:0.9 20:0.9 21:0.9 22:0.9 23:0.9 24:0.9 25:0.9 26:0.9 27:0.9 28:0.9 29:0.9 30:0.9 
0.020127505079069123 1:0.9 2:0.9 3:0.9 4:0.9 5:0.1 6:0.9 7:0.9 8:0.9 9:0.9 10:0.9 11:0.1 12:0.9 13:0.9 14:0.9 15:0.9 16:0.9 17:0.9 18:0.9 19:0.9 20:0.9 21:0.9 22:0.9 23:0.9 24:0.9 25:0.9 26:0.9 27:0.9 28:0.1 29:0.9 30:0.9 
0.014757438997504728 1:0.9 2:0.1 3:0.9 4:0.9 5:0.9 6:0.9 7:0.9 8:0.1 9:0.9 10:0.9 11:0.9 12:0.9 13:0.9 14:0.9 15:0.9 16:0.9 17:0.9 18:0.9 19:0.9 20:0.9 21:0.9 22:0.9 23:0.9 24:0.9 25:0.1 26:0.9 27:0.9 28:0.9 29:0.9 30:0.9 
-1.0 1:0.9 2:0.9 3:0.9 4:0.9 5:0.9 6:0.9 7:0.9 8:0.9 9:0.9 10:0.9 11:0.9 12:0.9 13:0.9 14:0.9 15:0.9 16:0.9 17:0.9 18:0.9 19:0.9 20:0.9 21:0.9 22:0.9 23:0.9 24:0.9 25:0.9 26:0.9 27:0.9 28:0.9 29:0.9 30:0.9 
1.0 1:0.9 2:0.9 3:0.9 4:0.9 5:0.9 6:0.9 7:0.9 8:0.9 9:0.9 10:0.9 11:0.9 12:0.9 13:0.9 14:0.9 15:0.9 16:0.9 17:0.9 18:0.9 19:0.9 20:0.9 21:0.9 22:0.9 23:0.9 24:0.9 25:0.9 26:0.1 27:0.9 28:0.9 29:0.9 30:0.9 
-1.0 1:0.9 2:0.9 3:0.9 4:0.9 5:0.9 6:0.9 7:0.9 8:0.9 9:0.9 10:0.9 11:0.9 12:0.9 13:0.9 14:0.9 15:0.9 16:0.1 17:0.9 18:0.9 19:0.9 20:0.9 21:0.9 22:0.9 23:0.9 24:0.9 25:0.9 26:0.9 27:0.9 28:0.9 29:0.9 30:0.9 
1.0 1:0.9 2:0.9 3:0.9 4:0.9 5:0.9 6:0.1 7:0.9 8:0.9 9:0.9 10:0.9 11:0.9 12:0.9 13:0.9 14:0.9 15:0.9 16:0.9 17:0.9 18:0.9 19:0.9 20:0.9 21:0.1 22:0.9 23:0.9 24:0.9 25:0.9 26:0.9 27:0.9 28:0.9 29:0.9 30:0.9 
-1.0 1:0.1 2:0.9 3:0.9 4:0.9 5:0.9 6:0.9 7:0.9 8:0.9 9:0.9 10:0.9 11:0.9 12:0.9 13:0.9 14:0.9 15:0.9 16:0.1 17:0.9 18:0.9 19:0.9 20:0.9 21:0.9 22:0.9 23:0.9 24:0.9 25:0.9 26:0.9 27:0.9 28:0.9 29:0.9 30:0.9 
0.6214689656517691 1:0.9 2:0.9 3:0.9 4:0.9 5:0.9 6:0.9 7:0.9 8:0.9 9:0.9 10:0.9 11:0.1 12:0.9 13:0.9 14:0.9 15:0.9 16:0.9 17:0.9 18:0.9 19:0.9 20:0.9 21:0.9 22:0.9 23:0.9 24:0.9 25:0.9 26:0.1 27:0.9 28:0.9 29:0.9 30:0.9 
1.0 1:0.9 2:0.9 3:0.9 4:0.9 5:0.9 6:0.1 7:0.9 8:0.9 9:0.9 10:0.9 11:0.9 12:0.9 13:0.9 14:0.9 15:0.9 16:0.9 17:0.9 18:0.9 19:0.9 20:0.9 21:0.1 22:0.9 23:0.9 24:0.9 25:0.9 26:0.9 27:0.9 28:0.9 29:0.9 30:0.9 
0.378932039180623 1:0.1 2:0.9 3:0.9 4:0.9 5:0.9 6:0.9 7:0.9 8:0.9 9:0.9 10:0.9 11:0.9 12:0.9 13:0.9 14:0.9 15:0.9 16:0.1 17:0.9 18:0.9 19:0.9 20:0.9 21:0.9 22:0.9 23:0.9 24:0.9 25:0.9 26:0.9 27:0.9 28:0.9 29:0.9 30:0.9 
-1.0 1:0.9 2:0.9 3:0.9 4:0.9 5:0.9 6:0.9 7:0.9 8:0.9 9:0.9 10:0.9 11:0.9 12:0.9 13:0.9 14:0.9 15:0.9 16:0.9 17:0.9 18:0.9 19:0.9 20:0.9 21:0.9 22:0.9 23:0.9 24:0.9 25:0.9 26:0.9 27:0.9 28:0.9 29:0.9 30:0.9 
1.0 1:0.9 2:0.9 3:0.9 4:0.9 5:0.9 6:0.9 7:0.9 8:0.9 9:0.9 10:0.9 11:0.9 12:0.9 13:0.9 14:0.9 15:0.9 16:0.9 17:0.9 18:0.9 19:0.9 20:0.9 21:0.9 22:0.9 23:0.9 24:0.9 25:0.9 26:0.1 27:0.9 28:0.9 29:0.9 30:0.9 
-1.0 1:0.9 2:0.9 3:0.9 4:0.9 5:0.9 6:0.9 7:0.9 8:0.9 9:0.9 10:0.9 11:0.1 12:0.9 13:0.9 14:0.9 15:0.9 16:0.9 17:0.9 18:0.9 19:0.9 20:0.9 21:0.9 22:0.9 23:0.9 24:0.9 25:0.9 26:0.9 27:0.9 28:0.9 29:0.9 30:0.9 
1.0 1:0.9 2:0.9 3:0.9 4:0.9 5:0.9 6:0.1 7:0.9 8:0.9 9:0.9 10:0.9 11:0.9 12:0.9 13:0.9 14:0.9 15:0.9 16:0.9 17:0.9 18:0.9 19:0.9 20:0.9 21:0.9 22:0.9 23:0.9 24:0.9 25:0.9 26:0.1 27:0.9 28:0.9 29:0.9 30:0.9 
0.25683932657007935 1:0.9 2:0.9 3:0.9 4:0.9 5:0.1 6:0.9 7:0.9 8:0.9 9:0.9 10:0.9 11:0.9 12:0.9 13:0.9 14:0.9 15:0.9 16:0.9 17:0.9 18:0.9 19:0.9 20:0.9 21:0.9 22:0.9 23:0.9 24:0.9 25:0.1 26:0.9 27:0.9 28:0.9 29:0.9 30:0.9 
0.8996152842649565 1:0.9 2:0.9 3:0.9 4:0.9 5:0.9 6:0.9 7:0.9 8:0.9 9:0.9 10:0.9 11:0.1 12:0.9 13:0.9 14:0.9 15:0.9 16:0.9 17:0.9 18:0.9 19:0.9 20:0.9 21:0.9 22:0.9 23:0.9 24:0.9 25:0.9 26:0.9 27:0.9 28:0.9 29:0.9 30:0.9 
-1.0 1:0.9 2:0.9 3:0.9 4:0.9 5:0.9 6:0.9 7:0.9 8:0.9 9:0.9 10:0.9 11:0.9 12:0.9 13:0.9 14:0.9 15:0.9 16:0.9 17:0.9 18:0.9 19:0.9 20:0.9 21:0.9 22:0.9 23:0.9 24:0.9 25:0.9 26:0.9 27:0.9 28:0.9 29:0.9 30:0.9 
1.0 1:0.9 2:0.9 3:0.9 4:0.9 5:0.9 6:0.9 7:0.9 8:0.9 9:0.9 10:0.9 11:0.9 12:0.9 13:0.9 14:0.9 15:0.9 16:0.9 17:0.9 18:0.9 19:0.9 20:0.9 21:0.9 22:0.9 23:0.9 24:0.9 25:0.9 26:0.1 27:0.9 28:0.9 29:0.9 30:0.9 
-1.0 1:0.9 2:0.9 3:0.9 4:0.9 5:0.9 6:0.9 7:0.9 8:0.9 9:0.9 10:0.9 11:0.9 12:0.9 13:0.9 14:0.9 15:0.9 16:0.9 17:0.9 18:0.9 19:0.9 20:0.1 21:0.9 22:0.9 23:0.9 24:0.9 25:0.9 26:0.9 27:0.9 28:0.9 29:0.9 30:0.9 
1.0 1:0.9 2:0.9 3:0.9 4:0.9 5:0.9 6:0.9 7:0.9 8:0.9 9:0.9 10:0.9 11:0.9 12:0.9 13:0.9 14:0.9 15:0.1 16:0.9 17:0.9 18:0.9 19:0.9 20:0.9 21:0.9 22:0.9 23:0.9 24:0.9 25:0.9 26:0.1 27:0.9 28:0.9 29:0.9 30:0.9 
0.04982815596595822 1:0.9 2:0.9 3:0.9 4:0.9 5:0.9 6:0.9 7:0.9 8:0.9 9:0.9 10:0.9 11:0.9 12:0.9 13:0.9 14:0.1 15:0.9 16:0.9 17:0.9 18:0.9 19:0.9 20:0.9 21:0.9 22:0.9 23:0.9 24:0.9 25:0.1 26:0.9 27:0.9 28:0.9 29:0.9 30:0.9 
-1.0 1:0.9 2:0.9 3:0.9 4:0.9 5:0.1 6:0.9 7:0.9 8:0.9 9:0.9 10:0.9 11:0.9 12:0.9 13:0.9 14:0.9 15:0.9 16:0.1 17:0.9 18:0.9 19:0.9 20:0.9 21:0.9 22:0.9 23:0.9 24:0.9 25:0.9 26:0.9 27:0.9 28:0.9 29:0.9 30:0.9 
-1.0 1:0.9 2:0.9 3:0.9 4:0.9 5:0.9 6:0.9 7:0.9 8:0.9 9:0.9 10:0.9 11:0.1 12:0.9 13:0.9 14:0.9 15:0.9 16:0.9 17:0.9 18:0.9 19:0.9 20:0.9 21:0.9 22:0.9 23:0.9 24:0.9 25:0.9 26:0.1 27:0.9 28:0.9 29:0.9 30:0.9 
1.0 1:0.9 2:0.9 3:0.9 4:0.9 5:0.9 6:0.1 7:0.9 8:0.9 9:0.9 10:0.9 11:0.9 12:0.9 13:0.9 14:0.9 15:0.9 16:0.9 17:0.9 18:0.9 19:0.9 20:0.9 21:0.1 22:0.9 23:0.9 24:0.9 25:0.9 26:0.1 27:0.9 28:0.9 29:0.9 30:0.9 
1.0 1:0.1 2:0.9 3:0.9 4:0.9 5:0.9 6:0.9 7:0.9 8:0.9 9:0.9 10:0.9 11:0.9 12:0.9 13:0.9 14:0.9 15:0.9 16:0.1 17:0.9 18:0.9 19:0.9 20:0.9 21:0.1 22:0.9 23:0.9 24:0.9 25:0.9 26:0.9 27:0.9 28:0.9 29:0.9 30:0.9 
-1.0 1:0.9 2:0.9 3:0.9 4:0.9 5:0.9 6:0.9 7:0.9 8:0.9 9:0.9 10:0.9 11:0.1 12:0.9 13:0.9 14:0.9 15:0.9 16:0.1 17:0.9 18:0.9 19:0.9 20:0.9 21:0.9 22:0.9 23:0.9 24:0.9 25:0.9 26:0.9 27:0.9 28:0.9 29:0.9 30:0.9 
1.0 1:0.1 2:0.9 3:0.9 4:0.9 5:0.9 6:0.1 7:0.9 8:0.9 9:0.9 10:0.9 11:0.9 12:0.9 13:0.9 14:0.9 15:0.9 16:0.9 17:0.9 18:0.9 19:0.9 20:0.9 21:0.1 22:0.9 23:0.9 24:0.9 25:0.9 26:0.9 27:0.9 28:0.9 29:0.9 30:0.9 
1.0 1:0.1 2:0.9 3:0.9 4:0.9 5:0.9 6:0.9 7:0.9 8:0.9 9:0.9 10:0.9 11:0.9 12:0.9 13:0.9 14:0.9 15:0.9 16:0.1 17:0.9 18:0.9 19:0.9 20:0.9 21:0.9 22:0.9 23:0.9 24:0.9 25:0.9 26:0.9 27:0.9 28:0.9 29:0.9 30:0.9 
-1.0 1:0.9 2:0.9 3:0.9 4:0.9 5:0.9 6:0.9 7:0.9 8:0.9 9:0.9 10:0.9 11:0.9 12:0.9 13:0.1 14:0.9 15:0.9 16:0.9 17:0.9 18:0.9 19:0.9 20:0.9 21:0.9 22:0.9 23:0.9 24:0.9 25:0.9 26:0.9 27:0.9 28:0.9 29:0.9 30:0.9 
1.0 1:0.9 2:0.9 3:0.9 4:0.9 5:0.9 6:0.9 7:0.9 8:0.1 9:0.9 10:0.9 11:0.9 12:0.9 13:0.9 14:0.9 15:0.9 16:0.9 17:0.9 18:0.9 19:0.9 20:0.9 21:0.9 22:0.9 23:0.9 24:0.9 25:0.9 26:0.1 27:0.9 28:0.9 29:0.9 30:0.9 
1.0 1:0.9 2:0.9 3:0.1 4:0.9 5:0.9 6:0.9 7:0.9 8:0.9 9:0.9 10:0.9 11:0.9 12:0.9 13:0.9 14:0.9 15:0.9 16:0.9 17:0.9 18:0.9 19:0.9 20:0.9 21:0.1 22:0.9 23:0.9 24:0.9 25:0.9 26:0.9 27:0.9 28:0.9 29:0.9 30:0.9 
-1.0 1:0.9 2:0.9 3:0.9 4:0.9 5:0.9 6:0.9 7:0.9 8:0.9 9:0.9 10:0.9 11:0.9 12:0.9 13:0.9 14:0.9 15:0.9 16:0.1 17:0.9 18:0.9 19:0.9 20:0.9 21:0.9 22:0.9 23:0.9 24:0.9 25:0.9 26:0.9 27:0.9 28:0.9 29:0.9 30:0.9 
-1.0 1:0.9 2:0.9 3:0.9 4:0.9 5:0.9 6:0.1 7:0.9 8:0.9 9:0.9 10:0.9 11:0.9 12:0.9 13:0.9 14:0.9 15:0.9 16:0.9 17:0.9 18:0.9 19:0.9 20:0.9 21:0.1 22:0.9 23:0.9 24:0.9 25:0.9 26:0.9 27:0.9 28:0.9 29:0.9 30:0.9 
1.0 1:0.1 2:0.9 3:0.9 4:0.9 5:0.9 6:0.9 7:0.9 8:0.9 9:0.9 10:0.9 11:0.9 12:0.9 13:0.9 14:0.9 15:0.9 16:0.1 17:0.9 18:0.9 19:0.9 20:0.9 21:0.9 22:0.9 23:0.9 24:0.9 25:0.9 26:0.1 27:0.9 28:0.9 29:0.9 30:0.9 
1.0 1:0.9 2:0.9 3:0.9 4:0.9 5:0.9 6:0.9 7:0.9 8:0.9 9:0.9 10:0.9 11:0.1 12:0.9 13:0.9 14:0.9 15:0.9 16:0.9 17:0.9 18:0.9 19:0.9 20:0.9 21:0.1 22:0.9 23:0.9 24:0.9 25:0.9 26:0.9 27:0.9 28:0.9 29:0.9 30:0.9 
1.0 1:0.9 2:0.9 3:0.9 4:0.9 5:0.9 6:0.1 7:0.9 8:0.9 9:0.9 10:0.9 11:0.9 12:0.9 13:0.9 14:0.9 15:0.9 16:0.1 17:0.9 18:0.9 19:0.9 20:0.9 21:0.9 22:0.9 23:0.9 24:0.9 25:0.9 26:0.9 27:0.9 28:0.9 29:0.9 30:0.9 
0.08498003126514475 1:0.1 2:0.9 3:0.9 4:0.9 5:0.9 6:0.9 7:0.9 8:0.9 9:0.9 10:0.9 11:0.1 12:0.9 13:0.9 14:0.9 15:0.9 16:0.9 17:0.9 18:0.9 19:0.9 20:0.9 21:0.9 22:0.9 23:0.9 24:0.9 25:0.9 26:0.9 27:0.9 28:0.9 29:0.9 30:0.9 
-1.0 1:0.9 2:0.9 3:0.9 4:0.9 5:0.9 6:0.9 7:0.1 8:0.9 9:0.9 10:0.9 11:0.9 12:0.9 13:0.9 14:0.9 15:0.9 16:0.9 17:0.9 18:0.9 19:0.9 20:0.9 21:0.9 22:0.9 23:0.9 24:0.9 25:0.9 26:0.9 27:0.9 28:0.9 29:0.9 30:0.9 
1.0 1:0.9 2:0.9 3:0.9 4:0.9 5:0.9 6:0.9 7:0.9 8:0.9 9:0.9 10:0.9 11:0.1 12:0.9 13:0.9 14:0.9 15:0.9 16:0.9 17:0.9 18:0.9 19:0.9 20:0.9 21:0.9 22:0.9 23:0.9 24:0.9 25:0.9 26:0.9 27:0.9 28:0.9 29:0.9 30:0.9 
-1.0 1:0.9 2:0.9 3:0.9 4:0.9 5:0.9 6:0.9 7:0.1 8:0.9 9:0.9 10:0.9 11:0.9 12:0.9 13:0.9 14:0.9 15:0.9 16:0.9 17:0.9 18:0.9 19:0.9 20:0.9 21:0.9 22:0.9 23:0.9 24:0.9 25:0.9 26:0.9 27:0.9 28:0.9 29:0.9 30:0.9 
1.0 1:0.9 2:0.9 3:0.9 4:0.9 5:0.9 6:0.9 7:0.9 8:0.9 9:0.9 10:0.9 11:0.9 12:0.9 13:0.9 14:0.9 15:0.9 16:0.1 17:0.9 18:0.9 19:0.9 20:0.9 21:0.9 22:0.9 23:0.9 24:0.9 25:0.9 26:0.9 27:0.9 28:0.9 29:0.9 30:0.9 
1.0 1:0.9 2:0.9 3:0.9 4:0.9 5:0.9 6:0.9 7:0.9 8:0.9 9:0.9 10:0.9 11:0.1 12:0.9 13:0.9 14:0.9 15:0.9 16:0.9 17:0.9 18:0.9 19:0.9 20:0.9 21:0.9 22:0.9 23:0.9 24:0.9 25:0.9 26:0.9 27:0.9 28:0.9 29:0.9 30:0.9 
1.0 1:0.9 2:0.9 3:0.9 4:0.9 5:0.9 6:0.9 7:0.9 8:0.1 9:0.9 10:0.9 11:0.9 12:0.9 13:0.9 14:0.9 15:0.9 16:0.9 17:0.9 18:0.9 19:0.9 20:0.9 21:0.9 22:0.9 23:0.9 24:0.9 25:0.9 26:0.9 27:0.9 28:0.9 29:0.9 30:0.9 
1.0 1:0.9 2:0.9 3:0.9 4:0.9 5:0.9 6:0.9 7:0.1 8:0.9 9:0.9 10:0.9 11:0.9 12:0.9 13:0.9 14:0.9 15:0.9 16:0.9 17:0.9 18:0.9 19:0.9 20:0.9 21:0.9 22:0.9 23:0.9 24:0.9 25:0.9 26:0.9 27:0.9 28:0.9 29:0.9 30:0.9 
0.5877660987701872 1:0.9 2:0.9 3:0.9 4:0.9 5:0.1 6:0.9 7:0.9 8:0.9 9:0.9 10:0.9 11:0.9 12:0.9 13:0.9 14:0.9 15:0.9 16:0.9 17:0.9 18:0.9 19:0.9 20:0.9 21:0.9 22:0.9 23:0.9 24:0.9 25:0.9 26:0.9 27:0.9 28:0.9 29:0.9 30:0.9 
-1.0 1:0.9 2:0.9 3:0.9 4:0.9 5:0.9 6:0.9 7:0.9 8:0.9 9:0.9 10:0.9 11:0.9 12:0.9 13:0.9 14:0.9 15:0.9 16:0.9 17:0.9 18:0.9 19:0.9 20:0.9 21:0.9 22:0.9 23:0.9 24:0.9 25:0.9 26:0.9 27:0.9 28:0.9 29:0.9 30:0.9 
0.10475884488138364 1:0.9 2:0.9 3:0.9 4:0.9 5:0.9 6:0.9 7:0.9 8:0.9 9:0.9 10:0.9 11:0.9 12:0.9 13:0.9 14:0.9 15:0.9 16:0.9 17:0.9 18:0.9 19:0.9 20:0.9 21:0.9 22:0.9 23:0.9 24:0.9 25:0.9 26:0.1 27:0.9 28:0.9 29:0.9 30:0.9 
0.9787486326247242 1:0.9 2:0.9 3:0.9 4:0.9 5:0.9 6:0.9 7:0.9 8:0.9 9:0.9 10:0.9 11:0.9 12:0.9 13:0.9 14:0.9 15:0.9 16:0.9 17:0.9 18:0.9 19:0.9 20:0.9 21:0.1 22:0.9 23:0.9 24:0.9 25:0.9 26:0.9 27:0.9 28:0.9 29:0.9 30:0.9 
-1.0 1:0.9 2:0.9 3:0.9 4:0.9 5:0.9 6:0.9 7:0.9 8:0.9 9:0.9 10:0.9 11:0.9 12:0.9 13:0.9 14:0.9 15:0.9 16:0.9 17:0.9 18:0.9 19:0.9 20:0.1 21:0.9 22:0.9 23:0.9 24:0.9 25:0.9 26:0.9 27:0.9 28:0.9 29:0.9 30:0.9 
-1.0 1:0.9 2:0.9 3:0.9 4:0.9 5:0.9 6:0.9 7:0.9 8:0.9 9:0.9 10:0.9 11:0.9 12:0.9 13:0.9 14:0.9 15:0.1 16:0.9 17:0.9 18:0.9 19:0.9 20:0.9 21:0.9 22:0.9 23:0.9 24:0.9 25:0.9 26:0.1 27:0.9 28:0.9 29:0.9 30:0.9 
0.1374458756621308 1:0.9 2:0.9 3:0.9 4:0.9 5:0.9 6:0.9 7:0.9 8:0.9 9:0.9 10:0.1 11:0.9 12:0.9 13:0.9 14:0.9 15:0.9 16:0.9 17:0.9 18:0.9 19:0.9 20:0.9 21:0.1 22:0.9 23:0.9 24:0.9 25:0.9 26:0.1 27:0.9 28:0.9 29:0.9 30:0.9 
-1.0 1:0.9 2:0.9 3:0.9 4:0.9 5:0.1 6:0.9 7:0.9 8:0.9 9:0.9 10:0.9 11:0.9 12:0.9 13:0.9 14:0.9 15:0.9 16:0.1 17:0.9 18:0.9 19:0.9 20:0.9 21:0.1 22:0.9 23:0.9 24:0.9 25:0.9 26:0.9 27:0.9 28:0.9 29:0.9 30:0.9 
-1.0 1:0.9 2:0.9 3:0.9 4:0.9 5:0.9 6:0.1 7:0.9 8:0.9 9:0.9 10:0.9 11:0.1 12:0.9 13:0.9 14:0.9 15:0.9 16:0.9 17:0.9 18:0.9 19:0.9 20:0.9 21:0.1 22:0.9 23:0.9 24:0.9 25:0.9 26:0.9 27:0.9 28:0.9 29:0.9 30:0.9 
-1.0 1:0.1 2:0.9 3:0.9 4:0.9 5:0.9 6:0.1 7:0.9 8:0.9 9:0.9 10:0.9 11:0.9 12:0.9 13:0.9 14:0.9 15:0.9 16:0.1 17:0.9 18:0.9 19:0.9 20:0.9 21:0.9 22:0.9 23:0.9 24:0.9 25:0.9 26:0.1 27:0.9 28:0.9 29:0.9 30:0.9 
-1.0 1:0.1 2:0.9 3:0.9 4:0.9 5:0.9 6:0.9 7:0.9 8:0.9 9:0.9 10:0.9 11:0.1 12:0.9 13:0.9 14:0.9 15:0.9 16:0.9 17:0.9 18:0.9 19:0.9 20:0.9 21:0.1 22:0.9 23:0.9 24:0.9 25:0.9 26:0.1 27:0.9 28:0.9 29:0.9 30:0.9 
-1.0 1:0.9 2:0.9 3:0.9 4:0.9 5:0.9 6:0.1 7:0.9 8:0.9 9:0.9 10:0.9 11:0.9 12:0.9 13:0.9 14:0.9 15:0.9 16:0.1 17:0.9 18:0.9 19:0.9 20:0.9 21:0.1 22:0.9 23:0.9 24:0.9 25:0.9 26:0.1 27:0.9 28:0.9 29:0.9 30:0.9 
1.0 1:0.1 2:0.9 3:0.9 4:0.9 5:0.9 6:0.9 7:0.9 8:0.9 9:0.9 10:0.9 11:0.1 12:0.9 13:0.9 14:0.9 15:0.9 16:0.1 17:0.9 18:0.9 19:0.9 20:0.9 21:0.1 22:0.9 23:0.9 24:0.9 25:0.9 26:0.1 27:0.9 28:0.9 29:0.9 30:0.9 
0.4797320563576996 1:0.9 2:0.9 3:0.9 4:0.9 5:0.9 6:0.1 7:0.9 8:0.9 9:0.9 10:0.9 11:0.1 12:0.9 13:0.9 14:0.9 15:0.9 16:0.1 17:0.9 18:0.9 19:0.9 20:0.9 21:0.1 22:0.9 23:0.9 24:0.9 25:0.9 26:0.9 27:0.9 28:0.9 29:0.9 30:0.9 
0.1970769299256753 1:0.1 2:0.9 3:0.9 4:0.9 5:0.9 6:0.1 7:0.9 8:0.9 9:0.9 10:0.9 11:0.1 12:0.9 13:0.9 14:0.9 15:0.9 16:0.1 17:0.9 18:0.9 19:0.9 20:0.9 21:0.9 22:0.9 23:0.9 24:0.9 25:0.9 26:0.9 27:0.9 28:0.9 29:0.9 30:0.9 
0.748925893403374 1:0.1 2:0.9 3:0.9 4:0.9 5:0.9 6:0.1 7:0.9 8:0.9 9:0.9 10:0.9 11:0.1 12:0.9 13:0.9 14:0.9 15:0.9 16:0.9 17:0.9 18:0.9 19:0.9 20:0.9 21:0.9 22:0.9 23:0.9 24:0.9 25:0.9 26:0.9 27:0.9 28:0.9 29:0.9 30:0.9 
1.0 1:0.9 2:0.9 3:0.1 4:0.9 5:0.9 6:0.9 7:0.9 8:0.1 9:0.9 10:0.9 11:0.9 12:0.9 13:0.9 14:0.9 15:0.9 16:0.9 17:0.9 18:0.9 19:0.9 20:0.9 21:0.9 22:0.9 23:0.9 24:0.9 25:0.9 26:0.9 27:0.9 28:0.9 29:0.9 30:0.9 
-1.0 1:0.1 2:0.9 3:0.9 4:0.9 5:0.9 6:0.1 7:0.9 8:0.9 9:0.9 10:0.9 11:0.9 12:0.9 13:0.9 14:0.9 15:0.9 16:0.9 17:0.9 18:0.9 19:0.9 20:0.9 21:0.9 22:0.9 23:0.9 24:0.9 25:0.9 26:0.9 27:0.9 28:0.9 29:0.9 30:0.9 
1.0 1:0.1 2:0.9 3:0.9 4:0.9 5:0.9 6:0.9 7:0.9 8:0.9 9:0.9 10:0.9 11:0.9 12:0.9 13:0.9 14:0.9 15:0.9 16:0.9 17:0.9 18:0.9 19:0.9 20:0.9 21:0.9 22:0.9 23:0.9 24:0.9 25:0.9 26:0.1 27:0.9 28:0.9 29:0.9 30:0.9 
0.060915304587981084 1:0.9 2:0.9 3:0.9 4:0.9 5:0.9 6:0.9 7:0.9 8:0.9 9:0.9 10:0.9 11:0.9 12:0.9 13:0.9 14:0.9 15:0.9 16:0.9 17:0.9 18:0.9 19:0.9 20:0.9 21:0.9 22:0.9 23:0.9 24:0.9 25:0.1 26:0.9 27:0.9 28:0.9 29:0.9 30:0.9 
1.0 1:0.9 2:0.9 3:0.9 4:0.9 5:0.9 6:0.9 7:0.9 8:0.9 9:0.9 10:0.9 11:0.9 12:0.9 13:0.9 14:0.9 15:0.9 16:0.9 17:0.9 18:0.9 19:0.9 20:0.9 21:0.1 22:0.9 23:0.9 24:0.9 25:0.9 26:0.9 27:0.9 28:0.9 29:0.9 30:0.9 
1.0 1:0.9 2:0.9 3:0.9 4:0.9 5:0.9 6:0.9 7:0.9 8:0.9 9:0.9 10:0.9 11:0.9 12:0.9 13:0.9 14:0.9 15:0.9 16:0.9 17:0.9 18:0.9 19:0.9 20:0.1 21:0.9 22:0.9 23:0.9 24:0.9 25:0.9 26:0.9 27:0.9 28:0.9 29:0.9 30:0.9 
1.0 1:0.9 2:0.9 3:0.9 4:0.9 5:0.9 6:0.9 7:0.9 8:0.9 9:0.9 10:0.9 11:0.9 12:0.9 13:0.9 14:0.9 15:0.9 16:0.1 17:0.9 18:0.9 19:0.9 20:0.9 21:0.9 22:0.9 23:0.9 24:0.9 25:0.9 26:0.9 27:0.9 28:0.9 29:0.9 30:0.9 
1.0 1:0.9 2:0.9 3:0.9 4:0.9 5:0.9 6:0.9 7:0.9 8:0.9 9:0.9 10:0.9 11:0.9 12:0.9 13:0.1 14:0.9 15:0.9 16:0.9 17:0.9 18:0.9 19:0.9 20:0.9 21:0.9 22:0.9 23:0.9 24:0.9 25:0.9 26:0.9 27:0.9 28:0.9 29:0.9 30:0.9 
1.0 1:0.9 2:0.9 3:0.9 4:0.9 5:0.9 6:0.9 7:0.9 8:0.9 9:0.9 10:0.9 11:0.1 12:0.9 13:0.9 14:0.9 15:0.9 16:0.9 17:0.9 18:0.9 19:0.9 20:0.9 21:0.9 22:0.9 23:0.9 24:0.9 25:0.9 26:0.9 27:0.9 28:0.9 29:0.9 30:0.9 
-1.0 1:0.9 2:0.9 3:0.9 4:0.9 5:0.9 6:0.9 7:0.9 8:0.1 9:0.9 10:0.9 11:0.9 12:0.9 13:0.9 14:0.9 15:0.9 16:0.9 17:0.9 18:0.9 19:0.9 20:0.9 21:0.9 22:0.9 23:0.9 24:0.9 25:0.9 26:0.9 27:0.9 28:0.9 29:0.9 30:0.9 
1.0 1:0.9 2:0.9 3:0.9 4:0.1 5:0.9 6:0.9 7:0.9 8:0.9 9:0.9 10:0.9 11:0.9 12:0.9 13:0.9 14:0.9 15:0.9 16:0.9 17:0.9 18:0.9 19:0.9 20:0.9 21:0.9 22:0.9 23:0.9 24:0.9 25:0.9 26:0.9 27:0.1 28:0.9 29:0.9 30:0.9 
1.0 1:0.9 2:0.9 3:0.1 4:0.9 5:0.9 6:0.9 7:0.9 8:0.9 9:0.9 10:0.9 11:0.9 12:0.9 13:0.9 14:0.9 15:0.9 16:0.9 17:0.9 18:0.9 19:0.9 20:0.9 21:0.9 22:0.9 23:0.9 24:0.9 25:0.9 26:0.1 27:0.9 28:0.9 29:0.9 30:0.9 
1.0 1:0.9 2:0.9 3:0.9 4:0.9 5:0.9 6:0.9 7:0.9 8:0.9 9:0.9 10:0.9 11:0.9 12:0.9 13:0.9 14:0.9 15:0.9 16:0.9 17:0.9 18:0.9 19:0.9 20:0.9 21:0.1 22:0.9 23:0.9 24:0.9 25:0.9 26:0.9 27:0.9 28:0.9 29:0.9 30:0.9 
1.0 1:0.9 2:0.9 3:0.9 4:0.9 5:0.9 6:0.9 7:0.9 8:0.9 9:0.9 10:0.9 11:0.9 12:0.9 13:0.9 14:0.9 15:0.9 16:0.9 17:0.9 18:0.9 19:0.9 20:0.1 21:0.9 22:0.9 23:0.9 24:0.9 25:0.9 26:0.9 27:0.9 28:0.9 29:0.9 30:0.9 
0.5958891985778921 1:0.9 2:0.9 3:0.9 4:0.9 5:0.9 6:0.9 7:0.9 8:0.9 9:0.9 10:0.9 11:0.9 12:0.9 13:0.9 14:0.9 15:0.9 16:0.1 17:0.9 18:0.9 19:0.9 20:0.9 21:0.9 22:0.9 23:0.9 24:0.9 25:0.9 26:0.9 27:0.9 28:0.9 29:0.9 30:0.9 
0.9329948928135835 1:0.9 2:0.9 3:0.9 4:0.9 5:0.9 6:0.9 7:0.9 8:0.9 9:0.9 10:0.9 11:0.9 12:0.9 13:0.9 14:0.1 15:0.9 16:0.9 17:0.9 18:0.9 19:0.9 20:0.9 21:0.9 22:0.9 23:0.9 24:0.9 25:0.9 26:0.9 27:0.9 28:0.9 29:0.9 30:0.9 
1.0 1:0.9 2:0.9 3:0.9 4:0.9 5:0.9 6:0.9 7:0.9 8:0.9 9:0.9 10:0.9 11:0.9 12:0.9 13:0.1 14:0.9 15:0.9 16:0.9 17:0.9 18:0.9 19:0.9 20:0.9 21:0.9 22:0.9 23:0.9 24:0.9 25:0.9 26:0.9 27:0.9 28:0.9 29:0.9 30:0.9 
1.0 1:0.9 2:0.9 3:0.9 4:0.9 5:0.9 6:0.9 7:0.9 8:0.9 9:0.9 10:0.9 11:0.9 12:0.1 13:0.9 14:0.9 15:0.9 16:0.9 17:0.9 18:0.9 19:0.9 20:0.9 21:0.9 22:0.9 23:0.9 24:0.9 25:0.9 26:0.9 27:0.9 28:0.9 29:0.9 30:0.9 
1.0 1:0.9 2:0.9 3:0.9 4:0.9 5:0.9 6:0.9 7:0.9 8:0.9 9:0.9 10:0.9 11:0.1 12:0.9 13:0.9 14:0.9 15:0.9 16:0.9 17:0.9 18:0.9 19:0.9 20:0.9 21:0.9 22:0.9 23:0.9 24:0.9 25:0.9 26:0.9 27:0.9 28:0.9 29:0.9 30:0.9 
0.9675676130126987 1:0.9 2:0.9 3:0.9 4:0.9 5:0.9 6:0.9 7:0.9 8:0.1 9:0.9 10:0.9 11:0.9 12:0.9 13:0.9 14:0.9 15:0.9 16:0.9 17:0.9 18:0.9 19:0.9 20:0.9 21:0.9 22:0.9 23:0.9 24:0.9 25:0.9 26:0.9 27:0.9 28:0.9 29:0.9 30:0.9 
1.0 1:0.9 2:0.9 3:0.9 4:0.9 5:0.9 6:0.9 7:0.1 8:0.9 9:0.9 10:0.9 11:0.9 12:0.9 13:0.9 14:0.9 15:0.9 16:0.9 17:0.9 18:0.9 19:0.9 20:0.9 21:0.9 22:0.9 23:0.9 24:0.9 25:0.9 26:0.9 27:0.9 28:0.9 29:0.9 30:0.9 
1.0 1:0.9 2:0.9 3:0.9 4:0.9 5:0.1 6:0.9 7:0.9 8:0.9 9:0.9 10:0.9 11:0.9 12:0.9 13:0.9 14:0.9 15:0.9 16:0.9 17:0.9 18:0.9 19:0.9 20:0.9 21:0.9 22:0.9 23:0.9 24:0.9 25:0.9 26:0.9 27:0.9 28:0.9 29:0.9 30:0.9 
1.0 1:0.9 2:0.9 3:0.9 4:0.9 5:0.9 6:0.9 7:0.9 8:0.9 9:0.9 10:0.9 11:0.9 12:0.9 13:0.9 14:0.9 15:0.9 16:0.9 17:0.9 18:0.9 19:0.9 20:0.9 21:0.9 22:0.9 23:0.9 24:0.9 25:0.9 26:0.9 27:0.9 28:0.9 29:0.9 30:0.9 
1.0 1:0.9 2:0.9 3:0.9 4:0.9 5:0.9 6:0.9 7:0.9 8:0.9 9:0.9 10:0.9 11:0.9 12:0.9 13:0.9 14:0.9 15:0.9 16:0.9 17:0.9 18:0.9 19:0.9 20:0.9 21:0.9 22:0.9 23:0.9 24:0.9 25:0.9 26:0.9 27:0.9 28:0.9 29:0.9 30:0.9 
1.0 1:0.9 2:0.9 3:0.9 4:0.9 5:0.9 6:0.9 7:0.9 8:0.9 9:0.9 10:0.9 11:0.9 12:0.9 13:0.9 14:0.9 15:0.9 16:0.9 17:0.9 18:0.9 19:0.9 20:0.9 21:0.9 22:0.9 23:0.9 24:0.9 25:0.9 26:0.9 27:0.9 28:0.9 29:0.9 30:0.9 
1.0 1:0.9 2:0.9 3:0.9 4:0.9 5:0.9 6:0.9 7:0.9 8:0.9 9:0.9 10:0.9 11:0.9 12:0.9 13:0.9 14:0.9 15:0.9 16:0.9 17:0.9 18:0.9 19:0.9 20:0.9 21:0.9 22:0.9 23:0.9 24:0.9 25:0.9 26:0.9 27:0.9 28:0.9 29:0.9 30:0.9 
1.0 1:0.9 2:0.9 3:0.9 4:0.9 5:0.9 6:0.9 7:0.9 8:0.9 9:0.9 10:0.9 11:0.9 12:0.9 13:0.9 14:0.9 15:0.9 16:0.9 17:0.9 18:0.9 19:0.9 20:0.9 21:0.9 22:0.9 23:0.9 24:0.9 25:0.9 26:0.9 27:0.9 28:0.9 29:0.9 30:0.9 
0.6701025546054457 1:0.9 2:0.9 3:0.9 4:0.9 5:0.9 6:0.9 7:0.9 8:0.9 9:0.9 10:0.9 11:0.9 12:0.9 13:0.9 14:0.9 15:0.9 16:0.9 17:0.9 18:0.9 19:0.9 20:0.9 21:0.9 22:0.9 23:0.9 24:0.9 25:0.9 26:0.9 27:0.9 28:0.9 29:0.9 30:0.9 
