encog,SVM,java,3.1.0,1,1400509615115
[SVM]
[SVM:PARAMS]
[SVM:SVM-PARAM]
inputCount=30
C=1
cacheSize=100
coef0=0
degree=3
eps=0.001
gamma=0.0333333333
kernelType=2
nrWeight=0
nu=0.5
p=0.1
probability=0
shrinking=1
svmType=3
weight=
weightLabel=
[SVM:SVM-MODEL]
svm_type epsilon_svr
kernel_type rbf
gamma 0.03333333333333333
nr_class 2
total_sv 139
rho -0.7996639380058748
SV
-1.0 1:0.9 2:0.9 3:0.9 4:0.9 5:0.9 6:0.1 7:0.9 8:0.9 9:0.9 10:0.9 11:0.9 12:0.9 13:0.9 14:0.9 15:0.9 16:0.9 17:0.9 18:0.9 19:0.9 20:0.9 21:0.1 22:0.9 23:0.9 24:0.9 25:0.9 26:0.1 27:0.9 28:0.9 29:0.9 30:0.9 
-1.0 1:0.1 2:0.9 3:0.9 4:0.9 5:0.9 6:0.9 7:0.9 8:0.9 9:0.9 10:0.9 11:0.9 12:0.9 13:0.9 14:0.9 15:0.9 16:0.1 17:0.9 18:0.9 19:0.9 20:0.9 21:0.1 22:0.9 23:0.9 24:0.9 25:0.9 26:0.1 27:0.9 28:0.9 29:0.9 30:0.9 
1.0 1:0.9 2:0.9 3:0.9 4:0.9 5:0.9 6:0.9 7:0.9 8:0.9 9:0.9 10:0.9 11:0.1 12:0.9 13:0.9 14:0.9 15:0.9 16:0.1 17:0.9 18:0.9 19:0.9 20:0.9 21:0.1 22:0.9 23:0.9 24:0.9 25:0.9 26:0.1 27:0.9 28:0.9 29:0.9 30:0.9 
-1.0 1:0.9 2:0.9 3:0.9 4:0.9 5:0.9 6:0.1 7:0.9 8:0.9 9:0.9 10:0.9 11:0.1 12:0.9 13:0.9 14:0.9 15:0.9 16:0.1 17:0.9 18:0.9 19:0.9 20:0.9 21:0.1 22:0.9 23:0.9 24:0.9 25:0.9 26:0.9 27:0.9 28:0.9 29:0.9 30:0.9 
-1.0 1:0.1 2:0.9 3:0.9 4:0.9 5:0.9 6:0.1 7:0.9 8:0.9 9:0.9 10:0.9 11:0.1 12:0.9 13:0.9 14:0.9 15:0.9 16:0.1 17:0.9 18:0.9 19:0.9 20:0.9 21:0.9 22:0.9 23:0.9 24:0.9 25:0.9 26:0.1 27:0.9 28:0.9 29:0.9 30:0.9 
-1.0 1:0.1 2:0.9 3:0.9 4:0.9 5:0.9 6:0.1 7:0.9 8:0.9 9:0.9 10:0.9 11:0.1 12:0.9 13:0.9 14:0.9 15:0.9 16:0.9 17:0.9 18:0.9 19:0.9 20:0.9 21:0.1 22:0.9 23:0.9 24:0.9 25:0.9 26:0.1 27:0.9 28:0.9 29:0.9 30:0.9 
-1.0 1:0.1 2:0.9 3:0.9 4:0.9 5:0.9 6:0.1 7:0.9 8:0.9 9:0.9 10:0.9 11:0.9 12:0.9 13:0.9 14:0.9 15:0.9 16:0.1 17:0.9 18:0.9 19:0.9 20:0.9 21:0.1 22:0.9 23:0.9 24:0.9 25:0.9 26:0.1 27:0.9 28:0.9 29:0.9 30:0.9 
-1.0 1:0.1 2:0.9 3:0.9 4:0.9 5:0.9 6:0.9 7:0.9 8:0.9 9:0.9 10:0.9 11:0.1 12:0.9 13:0.9 14:0.9 15:0.9 16:0.1 17:0.9 18:0.9 19:0.9 20:0.9 21:0.1 22:0.9 23:0.9 24:0.9 25:0.9 26:0.1 27:0.9 28:0.9 29:0.9 30:0.9 
1.0 1:0.9 2:0.9 3:0.9 4:0.9 5:0.9 6:0.1 7:0.9 8:0.9 9:0.9 10:0.9 11:0.1 12:0.9 13:0.9 14:0.9 15:0.9 16:0.1 17:0.9 18:0.9 19:0.9 20:0.9 21:0.1 22:0.9 23:0.9 24:0.9 25:0.9 26:0.1 27:0.9 28:0.9 29:0.9 30:0.9 
1.0 1:0.1 2:0.9 3:0.9 4:0.9 5:0.9 6:0.1 7:0.9 8:0.9 9:0.9 10:0.9 11:0.1 12:0.9 13:0.9 14:0.9 15:0.9 16:0.1 17:0.9 18:0.9 19:0.9 20:0.9 21:0.1 22:0.9 23:0.9 24:0.9 25:0.9 26:0.9 27:0.9 28:0.9 29:0.9 30:0.9 
1.0 1:0.1 2:0.9 3:0.9 4:0.9 5:0.9 6:0.1 7:0.9 8:0.9 9:0.9 10:0.9 11:0.9 12:0.9 13:0.9 14:0.9 15:0.9 16:0.9 17:0.9 18:0.9 19:0.9 20:0.9 21:0.9 22:0.9 23:0.9 24:0.9 25:0.9 26:0.9 27:0.9 28:0.9 29:0.9 30:0.9 
-1.0 1:0.9 2:0.9 3:0.9 4:0.9 5:0.9 6:0.9 7:0.9 8:0.9 9:0.9 10:0.9 11:0.9 12:0.9 13:0.9 14:0.9 15:0.9 16:0.9 17:0.9 18:0.9 19:0.9 20:0.9 21:0.9 22:0.9 23:0.9 24:0.9 25:0.9 26:0.9 27:0.9 28:0.9 29:0.9 30:0.9 
-1.0 1:0.9 2:0.9 3:0.9 4:0.9 5:0.9 6:0.9 7:0.9 8:0.9 9:0.9 10:0.9 11:0.9 12:0.9 13:0.1 14:0.9 15:0.9 16:0.9 17:0.9 18:0.9 19:0.9 20:0.9 21:0.9 22:0.9 23:0.9 24:0.9 25:0.9 26:0.9 27:0.9 28:0.9 29:0.9 30:0.9 
-1.0 1:0.9 2:0.9 3:0.9 4:0.9 5:0.9 6:0.9 7:0.9 8:0.1 9:0.9 10:0.9 11:0.9 12:0.9 13:0.9 14:0.9 15:0.9 16:0.9 17:0.9 18:0.9 19:0.9 20:0.9 21:0.9 22:0.9 23:0.9 24:0.9 25:0.9 26:0.1 27:0.9 28:0.9 29:0.9 30:0.9 
-1.0 1:0.9 2:0.9 3:0.1 4:0.9 5:0.9 6:0.9 7:0.9 8:0.9 9:0.9 10:0.9 11:0.9 12:0.9 13:0.9 14:0.9 15:0.9 16:0.9 17:0.9 18:0.9 19:0.9 20:0.9 21:0.1 22:0.9 23:0.9 24:0.9 25:0.9 26:0.1 27:0.9 28:0.9 29:0.9 30:0.9 
-1.0 1:0.9 2:0.9 3:0.9 4:0.9 5:0.9 6:0.9 7:0.9 8:0.9 9:0.9 10:0.9 11:0.9 12:0.9 13:0.9 14:0.9 15:0.9 16:0.1 17:0.9 18:0.9 19:0.9 20:0.9 21:0.1 22:0.9 23:0.9 24:0.9 25:0.9 26:0.1 27:0.9 28:0.9 29:0.9 30:0.9 
-1.0 1:0.9 2:0.9 3:0.9 4:0.9 5:0.9 6:0.9 7:0.9 8:0.9 9:0.9 10:0.9 11:0.1 12:0.9 13:0.9 14:0.9 15:0.9 16:0.1 17:0.9 18:0.9 19:0.9 20:0.9 21:0.1 22:0.9 23:0.9 24:0.9 25:0.9 26:0.1 27:0.9 28:0.9 29:0.9 30:0.9 
-1.0 1:0.9 2:0.9 3:0.9 4:0.9 5:0.9 6:0.1 7:0.9 8:0.9 9:0.9 10:0.9 11:0.1 12:0.9 13:0.9 14:0.9 15:0.9 16:0.1 17:0.9 18:0.9 19:0.9 20:0.9 21:0.1 22:0.9 23:0.9 24:0.9 25:0.9 26:0.1 27:0.9 28:0.9 29:0.9 30:0.9 
1.0 1:0.1 2:0.9 3:0.9 4:0.9 5:0.9 6:0.1 7:0.9 8:0.9 9:0.9 10:0.9 11:0.1 12:0.9 13:0.9 14:0.9 15:0.9 16:0.1 17:0.9 18:0.9 19:0.9 20:0.9 21:0.1 22:0.9 23:0.9 24:0.9 25:0.9 26:0.1 27:0.9 28:0.9 29:0.9 30:0.9 
-1.0 1:0.1 2:0.9 3:0.9 4:0.9 5:0.9 6:0.1 7:0.9 8:0.9 9:0.9 10:0.9 11:0.1 12:0.9 13:0.9 14:0.9 15:0.9 16:0.1 17:0.9 18:0.9 19:0.9 20:0.9 21:0.1 22:0.9 23:0.9 24:0.9 25:0.9 26:0.9 27:0.9 28:0.9 29:0.9 30:0.9 
1.0 1:0.1 2:0.9 3:0.9 4:0.9 5:0.9 6:0.1 7:0.9 8:0.9 9:0.9 10:0.9 11:0.1 12:0.9 13:0.9 14:0.9 15:0.9 16:0.1 17:0.9 18:0.9 19:0.9 20:0.9 21:0.9 22:0.9 23:0.9 24:0.9 25:0.9 26:0.1 27:0.9 28:0.9 29:0.9 30:0.9 
0.3233612373678751 1:0.1 2:0.9 3:0.9 4:0.9 5:0.9 6:0.1 7:0.9 8:0.9 9:0.9 10:0.9 11:0.1 12:0.9 13:0.9 14:0.9 15:0.9 16:0.9 17:0.9 18:0.9 19:0.9 20:0.9 21:0.1 22:0.9 23:0.9 24:0.9 25:0.9 26:0.9 27:0.9 28:0.9 29:0.9 30:0.9 
-1.0 1:0.1 2:0.9 3:0.9 4:0.9 5:0.9 6:0.1 7:0.9 8:0.9 9:0.9 10:0.9 11:0.9 12:0.9 13:0.9 14:0.9 15:0.9 16:0.1 17:0.9 18:0.9 19:0.9 20:0.9 21:0.9 22:0.9 23:0.9 24:0.9 25:0.9 26:0.9 27:0.9 28:0.9 29:0.9 30:0.9 
0.016833872255406782 1:0.1 2:0.9 3:0.9 4:0.9 5:0.9 6:0.9 7:0.9 8:0.9 9:0.9 10:0.9 11:0.1 12:0.9 13:0.9 14:0.9 15:0.9 16:0.9 17:0.9 18:0.9 19:0.9 20:0.9 21:0.9 22:0.9 23:0.9 24:0.9 25:0.9 26:0.1 27:0.9 28:0.9 29:0.9 30:0.9 
1.0 1:0.9 2:0.9 3:0.9 4:0.9 5:0.9 6:0.1 7:0.9 8:0.9 9:0.9 10:0.9 11:0.9 12:0.9 13:0.9 14:0.9 15:0.9 16:0.9 17:0.9 18:0.9 19:0.9 20:0.9 21:0.1 22:0.9 23:0.9 24:0.9 25:0.9 26:0.9 27:0.9 28:0.9 29:0.9 30:0.9 
-1.0 1:0.9 2:0.9 3:0.9 4:0.9 5:0.9 6:0.9 7:0.9 8:0.9 9:0.9 10:0.9 11:0.9 12:0.9 13:0.9 14:0.9 15:0.9 16:0.9 17:0.9 18:0.9 19:0.9 20:0.9 21:0.9 22:0.9 23:0.9 24:0.9 25:0.9 26:0.9 27:0.9 28:0.9 29:0.9 30:0.9 
-1.0 1:0.9 2:0.9 3:0.9 4:0.9 5:0.9 6:0.9 7:0.9 8:0.9 9:0.9 10:0.9 11:0.9 12:0.9 13:0.9 14:0.9 15:0.9 16:0.9 17:0.9 18:0.9 19:0.9 20:0.9 21:0.9 22:0.9 23:0.9 24:0.9 25:0.9 26:0.1 27:0.9 28:0.9 29:0.9 30:0.9 
-1.0 1:0.9 2:0.9 3:0.9 4:0.9 5:0.9 6:0.9 7:0.9 8:0.9 9:0.9 10:0.9 11:0.9 12:0.9 13:0.9 14:0.9 15:0.9 16:0.9 17:0.9 18:0.9 19:0.9 20:0.9 21:0.1 22:0.9 23:0.9 24:0.9 25:0.9 26:0.1 27:0.9 28:0.9 29:0.9 30:0.9 
-1.0 1:0.9 2:0.9 3:0.9 4:0.9 5:0.9 6:0.9 7:0.9 8:0.9 9:0.9 10:0.9 11:0.9 12:0.9 13:0.9 14:0.9 15:0.9 16:0.1 17:0.9 18:0.9 19:0.9 20:0.9 21:0.1 22:0.9 23:0.9 24:0.9 25:0.9 26:0.1 27:0.9 28:0.9 29:0.9 30:0.9 
1.0 1:0.9 2:0.9 3:0.9 4:0.9 5:0.9 6:0.9 7:0.9 8:0.9 9:0.9 10:0.9 11:0.1 12:0.9 13:0.9 14:0.9 15:0.9 16:0.1 17:0.9 18:0.9 19:0.9 20:0.9 21:0.1 22:0.9 23:0.9 24:0.9 25:0.9 26:0.1 27:0.9 28:0.9 29:0.9 30:0.9 
0.6334554635227214 1:0.9 2:0.9 3:0.9 4:0.9 5:0.9 6:0.1 7:0.9 8:0.9 9:0.9 10:0.9 11:0.1 12:0.9 13:0.9 14:0.9 15:0.9 16:0.1 17:0.9 18:0.9 19:0.9 20:0.9 21:0.1 22:0.9 23:0.9 24:0.9 25:0.9 26:0.9 27:0.9 28:0.9 29:0.9 30:0.9 
0.12482889419883803 1:0.1 2:0.9 3:0.9 4:0.9 5:0.9 6:0.1 7:0.9 8:0.9 9:0.9 10:0.9 11:0.1 12:0.9 13:0.9 14:0.9 15:0.9 16:0.1 17:0.9 18:0.9 19:0.9 20:0.9 21:0.9 22:0.9 23:0.9 24:0.9 25:0.9 26:0.9 27:0.9 28:0.9 29:0.9 30:0.9 
-1.0 1:0.1 2:0.9 3:0.9 4:0.9 5:0.9 6:0.1 7:0.9 8:0.9 9:0.9 10:0.9 11:0.1 12:0.9 13:0.9 14:0.9 15:0.9 16:0.9 17:0.9 18:0.9 19:0.9 20:0.9 21:0.9 22:0.9 23:0.9 24:0.9 25:0.9 26:0.9 27:0.9 28:0.9 29:0.9 30:0.9 
-1.0 1:0.1 2:0.9 3:0.9 4:0.9 5:0.9 6:0.1 7:0.9 8:0.9 9:0.9 10:0.9 11:0.9 12:0.9 13:0.9 14:0.9 15:0.9 16:0.9 17:0.9 18:0.9 19:0.9 20:0.9 21:0.9 22:0.9 23:0.9 24:0.9 25:0.9 26:0.1 27:0.9 28:0.9 29:0.9 30:0.9 
1.0 1:0.1 2:0.9 3:0.9 4:0.9 5:0.9 6:0.9 7:0.9 8:0.9 9:0.9 10:0.9 11:0.9 12:0.9 13:0.9 14:0.9 15:0.9 16:0.9 17:0.9 18:0.9 19:0.9 20:0.9 21:0.1 22:0.9 23:0.9 24:0.9 25:0.9 26:0.1 27:0.9 28:0.9 29:0.9 30:0.9 
0.012039061354800358 1:0.9 2:0.9 3:0.9 4:0.9 5:0.9 6:0.9 7:0.9 8:0.9 9:0.9 10:0.9 11:0.9 12:0.9 13:0.9 14:0.9 15:0.9 16:0.9 17:0.9 18:0.9 19:0.9 20:0.1 21:0.9 22:0.9 23:0.9 24:0.9 25:0.1 26:0.9 27:0.9 28:0.9 29:0.9 30:0.9 
1.0 1:0.9 2:0.9 3:0.9 4:0.9 5:0.9 6:0.9 7:0.9 8:0.9 9:0.9 10:0.9 11:0.9 12:0.9 13:0.9 14:0.9 15:0.9 16:0.1 17:0.9 18:0.9 19:0.9 20:0.9 21:0.1 22:0.9 23:0.9 24:0.9 25:0.9 26:0.9 27:0.9 28:0.9 29:0.9 30:0.9 
0.045079198198360586 1:0.9 2:0.9 3:0.9 4:0.9 5:0.9 6:0.1 7:0.9 8:0.9 9:0.9 10:0.9 11:0.1 12:0.9 13:0.9 14:0.9 15:0.9 16:0.9 17:0.9 18:0.9 19:0.9 20:0.9 21:0.9 22:0.9 23:0.9 24:0.9 25:0.9 26:0.9 27:0.9 28:0.9 29:0.9 30:0.9 
1.0 1:0.1 2:0.9 3:0.9 4:0.9 5:0.9 6:0.1 7:0.9 8:0.9 9:0.9 10:0.9 11:0.9 12:0.9 13:0.9 14:0.9 15:0.9 16:0.9 17:0.9 18:0.9 19:0.9 20:0.9 21:0.9 22:0.9 23:0.9 24:0.9 25:0.9 26:0.9 27:0.9 28:0.9 29:0.9 30:0.9 
-1.0 1:0.9 2:0.9 3:0.9 4:0.9 5:0.9 6:0.9 7:0.9 8:0.9 9:0.9 10:0.9 11:0.9 12:0.9 13:0.9 14:0.9 15:0.9 16:0.9 17:0.9 18:0.9 19:0.9 20:0.9 21:0.9 22:0.9 23:0.9 24:0.9 25:0.9 26:0.9 27:0.9 28:0.9 29:0.9 30:0.9 
-1.0 1:0.9 2:0.9 3:0.9 4:0.9 5:0.9 6:0.9 7:0.9 8:0.9 9:0.9 10:0.9 11:0.9 12:0.9 13:0.9 14:0.9 15:0.9 16:0.9 17:0.9 18:0.9 19:0.9 20:0.9 21:0.9 22:0.9 23:0.9 24:0.9 25:0.9 26:0.1 27:0.9 28:0.9 29:0.9 30:0.9 
-1.0 1:0.9 2:0.9 3:0.9 4:0.9 5:0.9 6:0.9 7:0.9 8:0.9 9:0.9 10:0.9 11:0.9 12:0.9 13:0.9 14:0.9 15:0.9 16:0.9 17:0.9 18:0.9 19:0.9 20:0.9 21:0.1 22:0.9 23:0.9 24:0.9 25:0.9 26:0.1 27:0.9 28:0.9 29:0.9 30:0.9 
1.0 1:0.9 2:0.9 3:0.9 4:0.9 5:0.9 6:0.9 7:0.9 8:0.9 9:0.9 10:0.9 11:0.9 12:0.9 13:0.9 14:0.9 15:0.9 16:0.1 17:0.9 18:0.9 19:0.9 20:0.9 21:0.1 22:0.9 23:0.9 24:0.9 25:0.9 26:0.1 27:0.9 28:0.9 29:0.9 30:0.9 
-1.0 1:0.9 2:0.9 3:0.1 4:0.9 5:0.9 6:0.9 7:0.9 8:0.1 9:0.9 10:0.9 11:0.9 12:0.9 13:0.9 14:0.9 15:0.9 16:0.9 17:0.9 18:0.9 19:0.9 20:0.9 21:0.9 22:0.9 23:0.9 24:0.9 25:0.9 26:0.9 27:0.9 28:0.9 29:0.9 30:0.9 
-1.0 1:0.9 2:0.9 3:0.9 4:0.1 5:0.9 6:0.9 7:0.9 8:0.9 9:0.9 10:0.9 11:0.9 12:0.9 13:0.9 14:0.9 15:0.9 16:0.9 17:0.9 18:0.9 19:0.9 20:0.9 21:0.9 22:0.9 23:0.9 24:0.9 25:0.9 26:0.9 27:0.1 28:0.9 29:0.9 30:0.9 
0.25072345892823533 1:0.9 2:0.9 3:0.9 4:0.9 5:0.9 6:0.9 7:0.9 8:0.9 9:0.9 10:0.9 11:0.9 12:0.9 13:0.9 14:0.9 15:0.9 16:0.9 17:0.9 18:0.9 19:0.9 20:0.9 21:0.1 22:0.9 23:0.9 24:0.9 25:0.1 26:0.9 27:0.9 28:0.9 29:0.9 30:0.9 
0.008924814780563771 1:0.9 2:0.9 3:0.9 4:0.9 5:0.9 6:0.9 7:0.9 8:0.9 9:0.9 10:0.9 11:0.9 12:0.9 13:0.9 14:0.9 15:0.9 16:0.1 17:0.9 18:0.9 19:0.9 20:0.1 21:0.9 22:0.9 23:0.9 24:0.9 25:0.9 26:0.9 27:0.9 28:0.9 29:0.9 30:0.9 
0.49314818546330824 1:0.9 2:0.9 3:0.9 4:0.9 5:0.9 6:0.9 7:0.9 8:0.9 9:0.9 10:0.9 11:0.9 12:0.1 13:0.9 14:0.9 15:0.9 16:0.1 17:0.9 18:0.9 19:0.9 20:0.9 21:0.9 22:0.9 23:0.9 24:0.9 25:0.9 26:0.9 27:0.9 28:0.9 29:0.9 30:0.9 
0.24012944877800196 1:0.9 2:0.9 3:0.9 4:0.9 5:0.9 6:0.9 7:0.9 8:0.1 9:0.9 10:0.9 11:0.9 12:0.1 13:0.9 14:0.9 15:0.9 16:0.9 17:0.9 18:0.9 19:0.9 20:0.9 21:0.9 22:0.9 23:0.9 24:0.9 25:0.9 26:0.9 27:0.9 28:0.9 29:0.9 30:0.9 
-1.0 1:0.9 2:0.9 3:0.9 4:0.9 5:0.9 6:0.9 7:0.9 8:0.9 9:0.9 10:0.9 11:0.9 12:0.9 13:0.9 14:0.9 15:0.9 16:0.9 17:0.9 18:0.9 19:0.9 20:0.9 21:0.9 22:0.9 23:0.9 24:0.9 25:0.9 26:0.9 27:0.9 28:0.9 29:0.9 30:0.9 
0.6925569669046172 1:0.9 2:0.9 3:0.9 4:0.9 5:0.9 6:0.9 7:0.9 8:0.9 9:0.9 10:0.9 11:0.9 12:0.9 13:0.9 14:0.9 15:0.9 16:0.9 17:0.9 18:0.9 19:0.9 20:0.9 21:0.9 22:0.9 23:0.9 24:0.9 25:0.9 26:0.1 27:0.9 28:0.9 29:0.9 30:0.9 
-1.0 1:0.9 2:0.9 3:0.9 4:0.9 5:0.9 6:0.1 7:0.9 8:0.9 9:0.9 10:0.9 11:0.9 12:0.9 13:0.9 14:0.9 15:0.9 16:0.9 17:0.9 18:0.9 19:0.9 20:0.9 21:0.9 22:0.9 23:0.9 24:0.9 25:0.9 26:0.9 27:0.9 28:0.9 29:0.9 30:0.9 
0.47684201945518184 1:0.1 2:0.9 3:0.9 4:0.9 5:0.9 6:0.9 7:0.9 8:0.9 9:0.9 10:0.9 11:0.9 12:0.9 13:0.9 14:0.9 15:0.9 16:0.9 17:0.9 18:0.9 19:0.9 20:0.9 21:0.9 22:0.9 23:0.9 24:0.9 25:0.9 26:0.1 27:0.9 28:0.9 29:0.9 30:0.9 
-1.0 1:0.9 2:0.9 3:0.9 4:0.9 5:0.9 6:0.9 7:0.9 8:0.9 9:0.9 10:0.9 11:0.9 12:0.1 13:0.9 14:0.9 15:0.9 16:0.9 17:0.9 18:0.9 19:0.9 20:0.9 21:0.9 22:0.9 23:0.9 24:0.9 25:0.9 26:0.9 27:0.9 28:0.9 29:0.9 30:0.9 
-1.0 1:0.9 2:0.9 3:0.9 4:0.9 5:0.9 6:0.1 7:0.9 8:0.9 9:0.9 10:0.9 11:0.9 12:0.9 13:0.9 14:0.9 15:0.9 16:0.9 17:0.9 18:0.9 19:0.9 20:0.9 21:0.9 22:0.9 23:0.9 24:0.9 25:0.1 26:0.9 27:0.9 28:0.9 29:0.9 30:0.9 
-1.0 1:0.9 2:0.9 3:0.9 4:0.9 5:0.9 6:0.9 7:0.9 8:0.1 9:0.9 10:0.9 11:0.9 12:0.9 13:0.9 14:0.1 15:0.9 16:0.9 17:0.9 18:0.9 19:0.9 20:0.9 21:0.9 22:0.9 23:0.9 24:0.9 25:0.9 26:0.9 27:0.9 28:0.9 29:0.9 30:0.9 
0.01935296168297488 1:0.9 2:0.9 3:0.9 4:0.9 5:0.9 6:0.1 7:0.9 8:0.9 9:0.9 10:0.9 11:0.9 12:0.1 13:0.9 14:0.9 15:0.9 16:0.9 17:0.9 18:0.9 19:0.9 20:0.9 21:0.9 22:0.9 23:0.9 24:0.9 25:0.9 26:0.9 27:0.9 28:0.9 29:0.1 30:0.9 
0.012714278119064802 1:0.9 2:0.9 3:0.9 4:0.9 5:0.1 6:0.9 7:0.9 8:0.9 9:0.9 10:0.9 11:0.1 12:0.9 13:0.9 14:0.9 15:0.9 16:0.9 17:0.9 18:0.9 19:0.9 20:0.9 21:0.9 22:0.9 23:0.9 24:0.9 25:0.9 26:0.9 27:0.9 28:0.1 29:0.9 30:0.9 
0.00799870130346687 1:0.9 2:0.1 3:0.9 4:0.9 5:0.9 6:0.9 7:0.9 8:0.1 9:0.9 10:0.9 11:0.9 12:0.9 13:0.9 14:0.9 15:0.9 16:0.9 17:0.9 18:0.9 19:0.9 20:0.9 21:0.9 22:0.9 23:0.9 24:0.9 25:0.1 26:0.9 27:0.9 28:0.9 29:0.9 30:0.9 
-1.0 1:0.9 2:0.9 3:0.9 4:0.9 5:0.9 6:0.9 7:0.9 8:0.9 9:0.9 10:0.9 11:0.9 12:0.9 13:0.9 14:0.9 15:0.9 16:0.9 17:0.9 18:0.9 19:0.9 20:0.9 21:0.9 22:0.9 23:0.9 24:0.9 25:0.9 26:0.9 27:0.9 28:0.9 29:0.9 30:0.9 
1.0 1:0.9 2:0.9 3:0.9 4:0.9 5:0.9 6:0.9 7:0.9 8:0.9 9:0.9 10:0.9 11:0.9 12:0.9 13:0.9 14:0.9 15:0.9 16:0.9 17:0.9 18:0.9 19:0.9 20:0.9 21:0.9 22:0.9 23:0.9 24:0.9 25:0.9 26:0.1 27:0.9 28:0.9 29:0.9 30:0.9 
-1.0 1:0.9 2:0.9 3:0.9 4:0.9 5:0.9 6:0.9 7:0.9 8:0.9 9:0.9 10:0.9 11:0.9 12:0.9 13:0.9 14:0.9 15:0.9 16:0.1 17:0.9 18:0.9 19:0.9 20:0.9 21:0.9 22:0.9 23:0.9 24:0.9 25:0.9 26:0.9 27:0.9 28:0.9 29:0.9 30:0.9 
1.0 1:0.9 2:0.9 3:0.9 4:0.9 5:0.9 6:0.1 7:0.9 8:0.9 9:0.9 10:0.9 11:0.9 12:0.9 13:0.9 14:0.9 15:0.9 16:0.9 17:0.9 18:0.9 19:0.9 20:0.9 21:0.1 22:0.9 23:0.9 24:0.9 25:0.9 26:0.9 27:0.9 28:0.9 29:0.9 30:0.9 
-1.0 1:0.1 2:0.9 3:0.9 4:0.9 5:0.9 6:0.9 7:0.9 8:0.9 9:0.9 10:0.9 11:0.9 12:0.9 13:0.9 14:0.9 15:0.9 16:0.1 17:0.9 18:0.9 19:0.9 20:0.9 21:0.9 22:0.9 23:0.9 24:0.9 25:0.9 26:0.9 27:0.9 28:0.9 29:0.9 30:0.9 
1.0 1:0.9 2:0.9 3:0.9 4:0.9 5:0.9 6:0.1 7:0.9 8:0.9 9:0.9 10:0.9 11:0.9 12:0.9 13:0.9 14:0.9 15:0.9 16:0.9 17:0.9 18:0.9 19:0.9 20:0.9 21:0.1 22:0.9 23:0.9 24:0.9 25:0.9 26:0.9 27:0.9 28:0.9 29:0.9 30:0.9 
-1.0 1:0.9 2:0.9 3:0.9 4:0.9 5:0.9 6:0.9 7:0.9 8:0.9 9:0.9 10:0.9 11:0.9 12:0.9 13:0.9 14:0.9 15:0.9 16:0.9 17:0.9 18:0.9 19:0.9 20:0.9 21:0.9 22:0.9 23:0.9 24:0.9 25:0.9 26:0.9 27:0.9 28:0.9 29:0.9 30:0.9 
1.0 1:0.9 2:0.9 3:0.9 4:0.9 5:0.9 6:0.9 7:0.9 8:0.9 9:0.9 10:0.9 11:0.9 12:0.9 13:0.9 14:0.9 15:0.9 16:0.9 17:0.9 18:0.9 19:0.9 20:0.9 21:0.9 22:0.9 23:0.9 24:0.9 25:0.9 26:0.1 27:0.9 28:0.9 29:0.9 30:0.9 
-1.0 1:0.9 2:0.9 3:0.9 4:0.9 5:0.9 6:0.9 7:0.9 8:0.9 9:0.9 10:0.9 11:0.1 12:0.9 13:0.9 14:0.9 15:0.9 16:0.9 17:0.9 18:0.9 19:0.9 20:0.9 21:0.9 22:0.9 23:0.9 24:0.9 25:0.9 26:0.9 27:0.9 28:0.9 29:0.9 30:0.9 
1.0 1:0.9 2:0.9 3:0.9 4:0.9 5:0.9 6:0.1 7:0.9 8:0.9 9:0.9 10:0.9 11:0.9 12:0.9 13:0.9 14:0.9 15:0.9 16:0.9 17:0.9 18:0.9 19:0.9 20:0.9 21:0.9 22:0.9 23:0.9 24:0.9 25:0.9 26:0.1 27:0.9 28:0.9 29:0.9 30:0.9 
0.525662795227559 1:0.9 2:0.9 3:0.9 4:0.9 5:0.1 6:0.9 7:0.9 8:0.9 9:0.9 10:0.9 11:0.9 12:0.9 13:0.9 14:0.9 15:0.9 16:0.9 17:0.9 18:0.9 19:0.9 20:0.9 21:0.9 22:0.9 23:0.9 24:0.9 25:0.1 26:0.9 27:0.9 28:0.9 29:0.9 30:0.9 
0.22683295279738466 1:0.9 2:0.9 3:0.9 4:0.9 5:0.9 6:0.9 7:0.9 8:0.9 9:0.9 10:0.9 11:0.9 12:0.9 13:0.9 14:0.9 15:0.9 16:0.1 17:0.9 18:0.9 19:0.9 20:0.9 21:0.9 22:0.9 23:0.9 24:0.9 25:0.9 26:0.9 27:0.9 28:0.9 29:0.9 30:0.9 
-1.0 1:0.9 2:0.9 3:0.9 4:0.9 5:0.9 6:0.9 7:0.9 8:0.9 9:0.9 10:0.9 11:0.9 12:0.9 13:0.9 14:0.9 15:0.9 16:0.9 17:0.9 18:0.9 19:0.9 20:0.9 21:0.9 22:0.9 23:0.9 24:0.9 25:0.9 26:0.9 27:0.9 28:0.9 29:0.9 30:0.9 
1.0 1:0.9 2:0.9 3:0.9 4:0.9 5:0.9 6:0.9 7:0.9 8:0.9 9:0.9 10:0.9 11:0.9 12:0.9 13:0.9 14:0.9 15:0.9 16:0.9 17:0.9 18:0.9 19:0.9 20:0.9 21:0.9 22:0.9 23:0.9 24:0.9 25:0.9 26:0.1 27:0.9 28:0.9 29:0.9 30:0.9 
-1.0 1:0.9 2:0.9 3:0.9 4:0.9 5:0.9 6:0.9 7:0.9 8:0.9 9:0.9 10:0.9 11:0.9 12:0.9 13:0.9 14:0.9 15:0.9 16:0.9 17:0.9 18:0.9 19:0.9 20:0.1 21:0.9 22:0.9 23:0.9 24:0.9 25:0.9 26:0.9 27:0.9 28:0.9 29:0.9 30:0.9 
1.0 1:0.9 2:0.9 3:0.9 4:0.9 5:0.9 6:0.9 7:0.9 8:0.9 9:0.9 10:0.9 11:0.9 12:0.9 13:0.9 14:0.9 15:0.1 16:0.9 17:0.9 18:0.9 19:0.9 20:0.9 21:0.9 22:0.9 23:0.9 24:0.9 25:0.9 26:0.1 27:0.9 28:0.9 29:0.9 30:0.9 
0.07143041894868536 1:0.9 2:0.9 3:0.9 4:0.9 5:0.9 6:0.9 7:0.9 8:0.9 9:0.9 10:0.9 11:0.9 12:0.9 13:0.9 14:0.1 15:0.9 16:0.9 17:0.9 18:0.9 19:0.9 20:0.9 21:0.9 22:0.9 23:0.9 24:0.9 25:0.1 26:0.9 27:0.9 28:0.9 29:0.9 30:0.9 
-1.0 1:0.9 2:0.9 3:0.9 4:0.9 5:0.1 6:0.9 7:0.9 8:0.9 9:0.9 10:0.9 11:0.9 12:0.9 13:0.9 14:0.9 15:0.9 16:0.1 17:0.9 18:0.9 19:0.9 20:0.9 21:0.9 22:0.9 23:0.9 24:0.9 25:0.9 26:0.9 27:0.9 28:0.9 29:0.9 30:0.9 
-1.0 1:0.9 2:0.9 3:0.9 4:0.9 5:0.9 6:0.9 7:0.9 8:0.9 9:0.9 10:0.9 11:0.1 12:0.9 13:0.9 14:0.9 15:0.9 16:0.9 17:0.9 18:0.9 19:0.9 20:0.9 21:0.9 22:0.9 23:0.9 24:0.9 25:0.9 26:0.1 27:0.9 28:0.9 29:0.9 30:0.9 
1.0 1:0.9 2:0.9 3:0.9 4:0.9 5:0.9 6:0.1 7:0.9 8:0.9 9:0.9 10:0.9 11:0.9 12:0.9 13:0.9 14:0.9 15:0.9 16:0.9 17:0.9 18:0.9 19:0.9 20:0.9 21:0.1 22:0.9 23:0.9 24:0.9 25:0.9 26:0.1 27:0.9 28:0.9 29:0.9 30:0.9 
1.0 1:0.1 2:0.9 3:0.9 4:0.9 5:0.9 6:0.9 7:0.9 8:0.9 9:0.9 10:0.9 11:0.9 12:0.9 13:0.9 14:0.9 15:0.9 16:0.1 17:0.9 18:0.9 19:0.9 20:0.9 21:0.1 22:0.9 23:0.9 24:0.9 25:0.9 26:0.9 27:0.9 28:0.9 29:0.9 30:0.9 
-1.0 1:0.9 2:0.9 3:0.9 4:0.9 5:0.9 6:0.9 7:0.9 8:0.9 9:0.9 10:0.9 11:0.1 12:0.9 13:0.9 14:0.9 15:0.9 16:0.1 17:0.9 18:0.9 19:0.9 20:0.9 21:0.9 22:0.9 23:0.9 24:0.9 25:0.9 26:0.9 27:0.9 28:0.9 29:0.9 30:0.9 
1.0 1:0.9 2:0.9 3:0.9 4:0.9 5:0.9 6:0.1 7:0.9 8:0.9 9:0.9 10:0.9 11:0.1 12:0.9 13:0.9 14:0.9 15:0.9 16:0.9 17:0.9 18:0.9 19:0.9 20:0.9 21:0.9 22:0.9 23:0.9 24:0.9 25:0.9 26:0.1 27:0.9 28:0.9 29:0.9 30:0.9 
0.8421180152307377 1:0.1 2:0.9 3:0.9 4:0.9 5:0.9 6:0.1 7:0.9 8:0.9 9:0.9 10:0.9 11:0.9 12:0.9 13:0.9 14:0.9 15:0.9 16:0.9 17:0.9 18:0.9 19:0.9 20:0.9 21:0.1 22:0.9 23:0.9 24:0.9 25:0.9 26:0.9 27:0.9 28:0.9 29:0.9 30:0.9 
-1.0 1:0.9 2:0.9 3:0.9 4:0.9 5:0.9 6:0.9 7:0.9 8:0.9 9:0.9 10:0.9 11:0.9 12:0.9 13:0.1 14:0.9 15:0.9 16:0.9 17:0.9 18:0.9 19:0.9 20:0.9 21:0.9 22:0.9 23:0.9 24:0.9 25:0.9 26:0.9 27:0.9 28:0.9 29:0.9 30:0.9 
1.0 1:0.9 2:0.9 3:0.9 4:0.9 5:0.9 6:0.9 7:0.9 8:0.1 9:0.9 10:0.9 11:0.9 12:0.9 13:0.9 14:0.9 15:0.9 16:0.9 17:0.9 18:0.9 19:0.9 20:0.9 21:0.9 22:0.9 23:0.9 24:0.9 25:0.9 26:0.1 27:0.9 28:0.9 29:0.9 30:0.9 
0.8029162957880323 1:0.9 2:0.9 3:0.1 4:0.9 5:0.9 6:0.9 7:0.9 8:0.9 9:0.9 10:0.9 11:0.9 12:0.9 13:0.9 14:0.9 15:0.9 16:0.9 17:0.9 18:0.9 19:0.9 20:0.9 21:0.1 22:0.9 23:0.9 24:0.9 25:0.9 26:0.9 27:0.9 28:0.9 29:0.9 30:0.9 
-1.0 1:0.9 2:0.9 3:0.9 4:0.9 5:0.9 6:0.9 7:0.9 8:0.9 9:0.9 10:0.9 11:0.9 12:0.9 13:0.9 14:0.9 15:0.9 16:0.1 17:0.9 18:0.9 19:0.9 20:0.9 21:0.9 22:0.9 23:0.9 24:0.9 25:0.9 26:0.9 27:0.9 28:0.9 29:0.9 30:0.9 
0.40227117054569145 1:0.9 2:0.9 3:0.9 4:0.9 5:0.9 6:0.9 7:0.9 8:0.9 9:0.9 10:0.9 11:0.1 12:0.9 13:0.9 14:0.9 15:0.9 16:0.9 17:0.9 18:0.9 19:0.9 20:0.9 21:0.9 22:0.9 23:0.9 24:0.9 25:0.9 26:0.1 27:0.9 28:0.9 29:0.9 30:0.9 
-1.0 1:0.9 2:0.9 3:0.9 4:0.9 5:0.9 6:0.1 7:0.9 8:0.9 9:0.9 10:0.9 11:0.9 12:0.9 13:0.9 14:0.9 15:0.9 16:0.9 17:0.9 18:0.9 19:0.9 20:0.9 21:0.1 22:0.9 23:0.9 24:0.9 25:0.9 26:0.9 27:0.9 28:0.9 29:0.9 30:0.9 
0.010147308814383861 1:0.9 2:0.9 3:0.9 4:0.9 5:0.1 6:0.9 7:0.9 8:0.9 9:0.9 10:0.9 11:0.9 12:0.9 13:0.9 14:0.9 15:0.9 16:0.9 17:0.9 18:0.9 19:0.9 20:0.1 21:0.9 22:0.9 23:0.9 24:0.9 25:0.9 26:0.9 27:0.9 28:0.9 29:0.9 30:0.1 
1.0 1:0.1 2:0.9 3:0.9 4:0.9 5:0.9 6:0.9 7:0.9 8:0.9 9:0.9 10:0.9 11:0.9 12:0.9 13:0.9 14:0.9 15:0.9 16:0.1 17:0.9 18:0.9 19:0.9 20:0.9 21:0.9 22:0.9 23:0.9 24:0.9 25:0.9 26:0.1 27:0.9 28:0.9 29:0.9 30:0.9 
1.0 1:0.9 2:0.9 3:0.9 4:0.9 5:0.9 6:0.9 7:0.9 8:0.9 9:0.9 10:0.9 11:0.1 12:0.9 13:0.9 14:0.9 15:0.9 16:0.9 17:0.9 18:0.9 19:0.9 20:0.9 21:0.1 22:0.9 23:0.9 24:0.9 25:0.9 26:0.9 27:0.9 28:0.9 29:0.9 30:0.9 
1.0 1:0.9 2:0.9 3:0.9 4:0.9 5:0.9 6:0.1 7:0.9 8:0.9 9:0.9 10:0.9 11:0.9 12:0.9 13:0.9 14:0.9 15:0.9 16:0.1 17:0.9 18:0.9 19:0.9 20:0.9 21:0.9 22:0.9 23:0.9 24:0.9 25:0.9 26:0.9 27:0.9 28:0.9 29:0.9 30:0.9 
-1.0 1:0.9 2:0.9 3:0.9 4:0.9 5:0.9 6:0.9 7:0.1 8:0.9 9:0.9 10:0.9 11:0.9 12:0.9 13:0.9 14:0.9 15:0.9 16:0.9 17:0.9 18:0.9 19:0.9 20:0.9 21:0.9 22:0.9 23:0.9 24:0.9 25:0.9 26:0.9 27:0.9 28:0.9 29:0.9 30:0.9 
1.0 1:0.9 2:0.9 3:0.9 4:0.9 5:0.9 6:0.9 7:0.9 8:0.9 9:0.9 10:0.9 11:0.9 12:0.9 13:0.9 14:0.9 15:0.9 16:0.1 17:0.9 18:0.9 19:0.9 20:0.9 21:0.9 22:0.9 23:0.9 24:0.9 25:0.9 26:0.9 27:0.9 28:0.9 29:0.9 30:0.9 
0.31092168172681106 1:0.9 2:0.9 3:0.9 4:0.9 5:0.9 6:0.9 7:0.9 8:0.1 9:0.9 10:0.9 11:0.9 12:0.9 13:0.9 14:0.9 15:0.9 16:0.9 17:0.9 18:0.9 19:0.9 20:0.9 21:0.9 22:0.9 23:0.9 24:0.9 25:0.9 26:0.9 27:0.9 28:0.9 29:0.9 30:0.9 
-1.0 1:0.9 2:0.9 3:0.9 4:0.9 5:0.9 6:0.9 7:0.1 8:0.9 9:0.9 10:0.9 11:0.9 12:0.9 13:0.9 14:0.9 15:0.9 16:0.9 17:0.9 18:0.9 19:0.9 20:0.9 21:0.9 22:0.9 23:0.9 24:0.9 25:0.9 26:0.9 27:0.9 28:0.9 29:0.9 30:0.9 
1.0 1:0.9 2:0.9 3:0.9 4:0.9 5:0.9 6:0.9 7:0.9 8:0.9 9:0.9 10:0.9 11:0.9 12:0.9 13:0.9 14:0.9 15:0.9 16:0.1 17:0.9 18:0.9 19:0.9 20:0.9 21:0.9 22:0.9 23:0.9 24:0.9 25:0.9 26:0.9 27:0.9 28:0.9 29:0.9 30:0.9 
1.0 1:0.9 2:0.9 3:0.9 4:0.9 5:0.9 6:0.9 7:0.9 8:0.1 9:0.9 10:0.9 11:0.9 12:0.9 13:0.9 14:0.9 15:0.9 16:0.9 17:0.9 18:0.9 19:0.9 20:0.9 21:0.9 22:0.9 23:0.9 24:0.9 25:0.9 26:0.9 27:0.9 28:0.9 29:0.9 30:0.9 
1.0 1:0.9 2:0.9 3:0.9 4:0.9 5:0.9 6:0.9 7:0.1 8:0.9 9:0.9 10:0.9 11:0.9 12:0.9 13:0.9 14:0.9 15:0.9 16:0.9 17:0.9 18:0.9 19:0.9 20:0.9 21:0.9 22:0.9 23:0.9 24:0.9 25:0.9 26:0.9 27:0.9 28:0.9 29:0.9 30:0.9 
0.3911529779218892 1:0.9 2:0.9 3:0.9 4:0.9 5:0.1 6:0.9 7:0.9 8:0.9 9:0.9 10:0.9 11:0.9 12:0.9 13:0.9 14:0.9 15:0.9 16:0.9 17:0.9 18:0.9 19:0.9 20:0.9 21:0.9 22:0.9 23:0.9 24:0.9 25:0.9 26:0.9 27:0.9 28:0.9 29:0.9 30:0.9 
-1.0 1:0.9 2:0.9 3:0.9 4:0.9 5:0.9 6:0.9 7:0.9 8:0.9 9:0.9 10:0.9 11:0.9 12:0.9 13:0.9 14:0.9 15:0.9 16:0.9 17:0.9 18:0.9 19:0.9 20:0.9 21:0.9 22:0.9 23:0.9 24:0.9 25:0.9 26:0.9 27:0.9 28:0.9 29:0.9 30:0.9 
1.0 1:0.9 2:0.9 3:0.9 4:0.9 5:0.9 6:0.9 7:0.9 8:0.9 9:0.9 10:0.9 11:0.9 12:0.9 13:0.9 14:0.9 15:0.9 16:0.9 17:0.9 18:0.9 19:0.9 20:0.9 21:0.9 22:0.9 23:0.9 24:0.9 25:0.9 26:0.1 27:0.9 28:0.9 29:0.9 30:0.9 
-1.0 1:0.9 2:0.9 3:0.9 4:0.9 5:0.9 6:0.9 7:0.9 8:0.9 9:0.9 10:0.9 11:0.9 12:0.9 13:0.9 14:0.9 15:0.9 16:0.9 17:0.9 18:0.9 19:0.9 20:0.1 21:0.9 22:0.9 23:0.9 24:0.9 25:0.9 26:0.9 27:0.9 28:0.9 29:0.9 30:0.9 
-1.0 1:0.9 2:0.9 3:0.9 4:0.9 5:0.9 6:0.9 7:0.9 8:0.9 9:0.9 10:0.9 11:0.9 12:0.9 13:0.9 14:0.9 15:0.1 16:0.9 17:0.9 18:0.9 19:0.9 20:0.9 21:0.9 22:0.9 23:0.9 24:0.9 25:0.9 26:0.1 27:0.9 28:0.9 29:0.9 30:0.9 
0.24717458602467918 1:0.9 2:0.9 3:0.9 4:0.9 5:0.9 6:0.9 7:0.9 8:0.9 9:0.9 10:0.1 11:0.9 12:0.9 13:0.9 14:0.9 15:0.9 16:0.9 17:0.9 18:0.9 19:0.9 20:0.9 21:0.1 22:0.9 23:0.9 24:0.9 25:0.9 26:0.1 27:0.9 28:0.9 29:0.9 30:0.9 
0.006389447647011525 1:0.9 2:0.9 3:0.9 4:0.9 5:0.9 6:0.1 7:0.9 8:0.9 9:0.9 10:0.9 11:0.9 12:0.9 13:0.9 14:0.9 15:0.9 16:0.9 17:0.1 18:0.9 19:0.9 20:0.9 21:0.9 22:0.1 23:0.9 24:0.9 25:0.9 26:0.9 27:0.9 28:0.9 29:0.9 30:0.9 
-1.0 1:0.9 2:0.9 3:0.9 4:0.9 5:0.1 6:0.9 7:0.9 8:0.9 9:0.9 10:0.9 11:0.9 12:0.9 13:0.9 14:0.9 15:0.9 16:0.1 17:0.9 18:0.9 19:0.9 20:0.9 21:0.1 22:0.9 23:0.9 24:0.9 25:0.9 26:0.9 27:0.9 28:0.9 29:0.9 30:0.9 
0.15215132258819952 1:0.9 2:0.9 3:0.9 4:0.9 5:0.9 6:0.9 7:0.9 8:0.9 9:0.9 10:0.9 11:0.1 12:0.9 13:0.9 14:0.9 15:0.9 16:0.1 17:0.9 18:0.9 19:0.9 20:0.9 21:0.9 22:0.9 23:0.9 24:0.9 25:0.9 26:0.1 27:0.9 28:0.9 29:0.9 30:0.9 
-1.0 1:0.9 2:0.9 3:0.9 4:0.9 5:0.9 6:0.1 7:0.9 8:0.9 9:0.9 10:0.9 11:0.1 12:0.9 13:0.9 14:0.9 15:0.9 16:0.9 17:0.9 18:0.9 19:0.9 20:0.9 21:0.1 22:0.9 23:0.9 24:0.9 25:0.9 26:0.9 27:0.9 28:0.9 29:0.9 30:0.9 
-1.0 1:0.1 2:0.9 3:0.9 4:0.9 5:0.9 6:0.1 7:0.9 8:0.9 9:0.9 10:0.9 11:0.9 12:0.9 13:0.9 14:0.9 15:0.9 16:0.1 17:0.9 18:0.9 19:0.9 20:0.9 21:0.9 22:0.9 23:0.9 24:0.9 25:0.9 26:0.1 27:0.9 28:0.9 29:0.9 30:0.9 
-1.0 1:0.1 2:0.9 3:0.9 4:0.9 5:0.9 6:0.9 7:0.9 8:0.9 9:0.9 10:0.9 11:0.1 12:0.9 13:0.9 14:0.9 15:0.9 16:0.9 17:0.9 18:0.9 19:0.9 20:0.9 21:0.1 22:0.9 23:0.9 24:0.9 25:0.9 26:0.1 27:0.9 28:0.9 29:0.9 30:0.9 
-1.0 1:0.9 2:0.9 3:0.9 4:0.9 5:0.9 6:0.1 7:0.9 8:0.9 9:0.9 10:0.9 11:0.9 12:0.9 13:0.9 14:0.9 15:0.9 16:0.1 17:0.9 18:0.9 19:0.9 20:0.9 21:0.1 22:0.9 23:0.9 24:0.9 25:0.9 26:0.1 27:0.9 28:0.9 29:0.9 30:0.9 
1.0 1:0.1 2:0.9 3:0.9 4:0.9 5:0.9 6:0.9 7:0.9 8:0.9 9:0.9 10:0.9 11:0.1 12:0.9 13:0.9 14:0.9 15:0.9 16:0.1 17:0.9 18:0.9 19:0.9 20:0.9 21:0.1 22:0.9 23:0.9 24:0.9 25:0.9 26:0.1 27:0.9 28:0.9 29:0.9 30:0.9 
0.265139029436065 1:0.9 2:0.9 3:0.9 4:0.9 5:0.9 6:0.1 7:0.9 8:0.9 9:0.9 10:0.9 11:0.1 12:0.9 13:0.9 14:0.9 15:0.9 16:0.1 17:0.9 18:0.9 19:0.9 20:0.9 21:0.1 22:0.9 23:0.9 24:0.9 25:0.9 26:0.9 27:0.9 28:0.9 29:0.9 30:0.9 
1.0 1:0.1 2:0.9 3:0.9 4:0.9 5:0.9 6:0.1 7:0.9 8:0.9 9:0.9 10:0.9 11:0.1 12:0.9 13:0.9 14:0.9 15:0.9 16:0.1 17:0.9 18:0.9 19:0.9 20:0.9 21:0.9 22:0.9 23:0.9 24:0.9 25:0.9 26:0.9 27:0.9 28:0.9 29:0.9 30:0.9 
0.20342855020795858 1:0.1 2:0.9 3:0.9 4:0.9 5:0.9 6:0.1 7:0.9 8:0.9 9:0.9 10:0.9 11:0.1 12:0.9 13:0.9 14:0.9 15:0.9 16:0.9 17:0.9 18:0.9 19:0.9 20:0.9 21:0.9 22:0.9 23:0.9 24:0.9 25:0.9 26:0.9 27:0.9 28:0.9 29:0.9 30:0.9 
0.40741507683660955 1:0.9 2:0.9 3:0.1 4:0.9 5:0.9 6:0.9 7:0.9 8:0.1 9:0.9 10:0.9 11:0.9 12:0.9 13:0.9 14:0.9 15:0.9 16:0.9 17:0.9 18:0.9 19:0.9 20:0.9 21:0.9 22:0.9 23:0.9 24:0.9 25:0.9 26:0.9 27:0.9 28:0.9 29:0.9 30:0.9 
-1.0 1:0.1 2:0.9 3:0.9 4:0.9 5:0.9 6:0.1 7:0.9 8:0.9 9:0.9 10:0.9 11:0.9 12:0.9 13:0.9 14:0.9 15:0.9 16:0.9 17:0.9 18:0.9 19:0.9 20:0.9 21:0.9 22:0.9 23:0.9 24:0.9 25:0.9 26:0.9 27:0.9 28:0.9 29:0.9 30:0.9 
1.0 1:0.1 2:0.9 3:0.9 4:0.9 5:0.9 6:0.9 7:0.9 8:0.9 9:0.9 10:0.9 11:0.9 12:0.9 13:0.9 14:0.9 15:0.9 16:0.9 17:0.9 18:0.9 19:0.9 20:0.9 21:0.9 22:0.9 23:0.9 24:0.9 25:0.9 26:0.1 27:0.9 28:0.9 29:0.9 30:0.9 
0.11948880076152693 1:0.9 2:0.9 3:0.9 4:0.9 5:0.9 6:0.9 7:0.9 8:0.9 9:0.9 10:0.9 11:0.9 12:0.9 13:0.9 14:0.9 15:0.9 16:0.9 17:0.9 18:0.9 19:0.9 20:0.9 21:0.9 22:0.9 23:0.9 24:0.9 25:0.1 26:0.9 27:0.9 28:0.9 29:0.9 30:0.9 
1.0 1:0.9 2:0.9 3:0.9 4:0.9 5:0.9 6:0.9 7:0.9 8:0.9 9:0.9 10:0.9 11:0.9 12:0.9 13:0.9 14:0.9 15:0.9 16:0.9 17:0.9 18:0.9 19:0.9 20:0.1 21:0.9 22:0.9 23:0.9 24:0.9 25:0.9 26:0.9 27:0.9 28:0.9 29:0.9 30:0.9 
1.0 1:0.9 2:0.9 3:0.9 4:0.9 5:0.9 6:0.9 7:0.9 8:0.9 9:0.9 10:0.9 11:0.9 12:0.9 13:0.9 14:0.9 15:0.9 16:0.1 17:0.9 18:0.9 19:0.9 20:0.9 21:0.9 22:0.9 23:0.9 24:0.9 25:0.9 26:0.9 27:0.9 28:0.9 29:0.9 30:0.9 
1.0 1:0.9 2:0.9 3:0.9 4:0.9 5:0.9 6:0.9 7:0.9 8:0.9 9:0.9 10:0.9 11:0.9 12:0.9 13:0.1 14:0.9 15:0.9 16:0.9 17:0.9 18:0.9 19:0.9 20:0.9 21:0.9 22:0.9 23:0.9 24:0.9 25:0.9 26:0.9 27:0.9 28:0.9 29:0.9 30:0.9 
-1.0 1:0.9 2:0.9 3:0.9 4:0.9 5:0.9 6:0.9 7:0.9 8:0.1 9:0.9 10:0.9 11:0.9 12:0.9 13:0.9 14:0.9 15:0.9 16:0.9 17:0.9 18:0.9 19:0.9 20:0.9 21:0.9 22:0.9 23:0.9 24:0.9 25:0.9 26:0.9 27:0.9 28:0.9 29:0.9 30:0.9 
1.0 1:0.9 2:0.9 3:0.9 4:0.1 5:0.9 6:0.9 7:0.9 8:0.9 9:0.9 10:0.9 11:0.9 12:0.9 13:0.9 14:0.9 15:0.9 16:0.9 17:0.9 18:0.9 19:0.9 20:0.9 21:0.9 22:0.9 23:0.9 24:0.9 25:0.9 26:0.9 27:0.1 28:0.9 29:0.9 30:0.9 
0.7857981936698036 1:0.9 2:0.9 3:0.1 4:0.9 5:0.9 6:0.9 7:0.9 8:0.9 9:0.9 10:0.9 11:0.9 12:0.9 13:0.9 14:0.9 15:0.9 16:0.9 17:0.9 18:0.9 19:0.9 20:0.9 21:0.9 22:0.9 23:0.9 24:0.9 25:0.9 26:0.1 27:0.9 28:0.9 29:0.9 30:0.9 
0.4778546898336151 1:0.9 2:0.9 3:0.9 4:0.9 5:0.9 6:0.9 7:0.9 8:0.9 9:0.9 10:0.9 11:0.9 12:0.9 13:0.9 14:0.9 15:0.9 16:0.9 17:0.9 18:0.9 19:0.9 20:0.9 21:0.1 22:0.9 23:0.9 24:0.9 25:0.9 26:0.9 27:0.9 28:0.9 29:0.9 30:0.9 
0.9709255764110444 1:0.9 2:0.9 3:0.9 4:0.9 5:0.9 6:0.9 7:0.9 8:0.9 9:0.9 10:0.9 11:0.9 12:0.9 13:0.9 14:0.9 15:0.9 16:0.9 17:0.9 18:0.9 19:0.9 20:0.1 21:0.9 22:0.9 23:0.9 24:0.9 25:0.9 26:0.9 27:0.9 28:0.9 29:0.9 30:0.9 
1.0 1:0.9 2:0.9 3:0.9 4:0.9 5:0.9 6:0.9 7:0.9 8:0.9 9:0.9 10:0.9 11:0.9 12:0.9 13:0.9 14:0.9 15:0.9 16:0.1 17:0.9 18:0.9 19:0.9 20:0.9 21:0.9 22:0.9 23:0.9 24:0.9 25:0.9 26:0.9 27:0.9 28:0.9 29:0.9 30:0.9 
0.9117144070948342 1:0.9 2:0.9 3:0.9 4:0.9 5:0.9 6:0.9 7:0.9 8:0.9 9:0.9 10:0.9 11:0.9 12:0.9 13:0.9 14:0.1 15:0.9 16:0.9 17:0.9 18:0.9 19:0.9 20:0.9 21:0.9 22:0.9 23:0.9 24:0.9 25:0.9 26:0.9 27:0.9 28:0.9 29:0.9 30:0.9 
1.0 1:0.9 2:0.9 3:0.9 4:0.9 5:0.9 6:0.9 7:0.9 8:0.9 9:0.9 10:0.9 11:0.9 12:0.9 13:0.1 14:0.9 15:0.9 16:0.9 17:0.9 18:0.9 19:0.9 20:0.9 21:0.9 22:0.9 23:0.9 24:0.9 25:0.9 26:0.9 27:0.9 28:0.9 29:0.9 30:0.9 
0.2565767483073736 1:0.9 2:0.9 3:0.9 4:0.9 5:0.9 6:0.9 7:0.9 8:0.9 9:0.9 10:0.9 11:0.9 12:0.1 13:0.9 14:0.9 15:0.9 16:0.9 17:0.9 18:0.9 19:0.9 20:0.9 21:0.9 22:0.9 23:0.9 24:0.9 25:0.9 26:0.9 27:0.9 28:0.9 29:0.9 30:0.9 
0.8698668813971734 1:0.9 2:0.9 3:0.9 4:0.9 5:0.9 6:0.9 7:0.9 8:0.9 9:0.9 10:0.9 11:0.1 12:0.9 13:0.9 14:0.9 15:0.9 16:0.9 17:0.9 18:0.9 19:0.9 20:0.9 21:0.9 22:0.9 23:0.9 24:0.9 25:0.9 26:0.9 27:0.9 28:0.9 29:0.9 30:0.9 
1.0 1:0.9 2:0.9 3:0.9 4:0.9 5:0.9 6:0.9 7:0.9 8:0.1 9:0.9 10:0.9 11:0.9 12:0.9 13:0.9 14:0.9 15:0.9 16:0.9 17:0.9 18:0.9 19:0.9 20:0.9 21:0.9 22:0.9 23:0.9 24:0.9 25:0.9 26:0.9 27:0.9 28:0.9 29:0.9 30:0.9 
1.0 1:0.9 2:0.9 3:0.9 4:0.9 5:0.9 6:0.9 7:0.1 8:0.9 9:0.9 10:0.9 11:0.9 12:0.9 13:0.9 14:0.9 15:0.9 16:0.9 17:0.9 18:0.9 19:0.9 20:0.9 21:0.9 22:0.9 23:0.9 24:0.9 25:0.9 26:0.9 27:0.9 28:0.9 29:0.9 30:0.9 
0.43062998044338646 1:0.9 2:0.9 3:0.9 4:0.9 5:0.9 6:0.1 7:0.9 8:0.9 9:0.9 10:0.9 11:0.9 12:0.9 13:0.9 14:0.9 15:0.9 16:0.9 17:0.9 18:0.9 19:0.9 20:0.9 21:0.9 22:0.9 23:0.9 24:0.9 25:0.9 26:0.9 27:0.9 28:0.9 29:0.9 30:0.9 
1.0 1:0.9 2:0.9 3:0.9 4:0.9 5:0.1 6:0.9 7:0.9 8:0.9 9:0.9 10:0.9 11:0.9 12:0.9 13:0.9 14:0.9 15:0.9 16:0.9 17:0.9 18:0.9 19:0.9 20:0.9 21:0.9 22:0.9 23:0.9 24:0.9 25:0.9 26:0.9 27:0.9 28:0.9 29:0.9 30:0.9 
0.9540045300261264 1:0.9 2:0.9 3:0.9 4:0.9 5:0.9 6:0.9 7:0.9 8:0.9 9:0.9 10:0.9 11:0.9 12:0.9 13:0.9 14:0.9 15:0.9 16:0.9 17:0.9 18:0.9 19:0.9 20:0.9 21:0.9 22:0.9 23:0.9 24:0.9 25:0.9 26:0.9 27:0.9 28:0.9 29:0.9 30:0.9 
