encog,SVM,java,3.1.0,1,1400509536450
[SVM]
[SVM:PARAMS]
[SVM:SVM-PARAM]
inputCount=30
C=1
cacheSize=100
coef0=0
degree=3
eps=0.001
gamma=0.0333333333
kernelType=2
nrWeight=0
nu=0.5
p=0.1
probability=0
shrinking=1
svmType=3
weight=
weightLabel=
[SVM:SVM-MODEL]
svm_type epsilon_svr
kernel_type rbf
gamma 0.03333333333333333
nr_class 2
total_sv 212
rho -0.800123288692776
SV
0.7276818700285537 1:0.9 2:0.9 3:0.9 4:0.9 5:0.9 6:0.9 7:0.9 8:0.1 9:0.9 10:0.9 11:0.9 12:0.9 13:0.9 14:0.9 15:0.9 16:0.1 17:0.9 18:0.9 19:0.9 20:0.9 21:0.9 22:0.9 23:0.9 24:0.9 25:0.9 26:0.1 27:0.9 28:0.9 29:0.9 30:0.9 
-1.0 1:0.9 2:0.9 3:0.1 4:0.9 5:0.9 6:0.9 7:0.9 8:0.9 9:0.9 10:0.9 11:0.1 12:0.9 13:0.9 14:0.9 15:0.9 16:0.9 17:0.9 18:0.9 19:0.9 20:0.9 21:0.1 22:0.9 23:0.9 24:0.9 25:0.9 26:0.9 27:0.9 28:0.9 29:0.9 30:0.9 
-1.0 1:0.9 2:0.9 3:0.9 4:0.9 5:0.9 6:0.1 7:0.9 8:0.9 9:0.9 10:0.9 11:0.9 12:0.9 13:0.9 14:0.9 15:0.9 16:0.1 17:0.9 18:0.9 19:0.9 20:0.9 21:0.9 22:0.9 23:0.9 24:0.9 25:0.9 26:0.1 27:0.9 28:0.9 29:0.9 30:0.9 
1.0 1:0.1 2:0.9 3:0.9 4:0.9 5:0.9 6:0.9 7:0.9 8:0.9 9:0.9 10:0.9 11:0.1 12:0.9 13:0.9 14:0.9 15:0.9 16:0.9 17:0.9 18:0.9 19:0.9 20:0.9 21:0.1 22:0.9 23:0.9 24:0.9 25:0.9 26:0.1 27:0.9 28:0.9 29:0.9 30:0.9 
1.0 1:0.9 2:0.9 3:0.9 4:0.9 5:0.9 6:0.1 7:0.9 8:0.9 9:0.9 10:0.9 11:0.9 12:0.9 13:0.9 14:0.9 15:0.9 16:0.1 17:0.9 18:0.9 19:0.9 20:0.9 21:0.1 22:0.9 23:0.9 24:0.9 25:0.9 26:0.9 27:0.9 28:0.9 29:0.9 30:0.9 
-1.0 1:0.9 2:0.9 3:0.9 4:0.9 5:0.9 6:0.1 7:0.9 8:0.9 9:0.9 10:0.9 11:0.1 12:0.9 13:0.9 14:0.9 15:0.9 16:0.9 17:0.9 18:0.9 19:0.9 20:0.9 21:0.9 22:0.9 23:0.9 24:0.9 25:0.9 26:0.9 27:0.9 28:0.9 29:0.9 30:0.9 
1.0 1:0.1 2:0.9 3:0.9 4:0.9 5:0.9 6:0.1 7:0.9 8:0.9 9:0.9 10:0.9 11:0.9 12:0.9 13:0.9 14:0.9 15:0.9 16:0.9 17:0.9 18:0.9 19:0.9 20:0.9 21:0.9 22:0.9 23:0.9 24:0.9 25:0.9 26:0.1 27:0.9 28:0.9 29:0.9 30:0.9 
-1.0 1:0.9 2:0.9 3:0.9 4:0.9 5:0.9 6:0.9 7:0.9 8:0.9 9:0.9 10:0.9 11:0.9 12:0.9 13:0.9 14:0.9 15:0.9 16:0.1 17:0.9 18:0.9 19:0.9 20:0.9 21:0.9 22:0.9 23:0.9 24:0.9 25:0.9 26:0.9 27:0.9 28:0.9 29:0.9 30:0.9 
-1.0 1:0.9 2:0.9 3:0.9 4:0.9 5:0.9 6:0.9 7:0.9 8:0.9 9:0.9 10:0.9 11:0.1 12:0.9 13:0.9 14:0.9 15:0.9 16:0.9 17:0.9 18:0.9 19:0.9 20:0.9 21:0.9 22:0.9 23:0.9 24:0.9 25:0.9 26:0.1 27:0.9 28:0.9 29:0.9 30:0.9 
-1.0 1:0.9 2:0.9 3:0.9 4:0.9 5:0.9 6:0.1 7:0.9 8:0.9 9:0.9 10:0.9 11:0.9 12:0.9 13:0.9 14:0.9 15:0.9 16:0.9 17:0.9 18:0.9 19:0.9 20:0.9 21:0.1 22:0.9 23:0.9 24:0.9 25:0.9 26:0.1 27:0.9 28:0.9 29:0.9 30:0.9 
-1.0 1:0.1 2:0.9 3:0.9 4:0.9 5:0.9 6:0.9 7:0.9 8:0.9 9:0.9 10:0.9 11:0.9 12:0.9 13:0.9 14:0.9 15:0.9 16:0.1 17:0.9 18:0.9 19:0.9 20:0.9 21:0.1 22:0.9 23:0.9 24:0.9 25:0.9 26:0.1 27:0.9 28:0.9 29:0.9 30:0.9 
-1.0 1:0.9 2:0.9 3:0.9 4:0.9 5:0.9 6:0.9 7:0.9 8:0.9 9:0.9 10:0.9 11:0.1 12:0.9 13:0.9 14:0.9 15:0.9 16:0.1 17:0.9 18:0.9 19:0.9 20:0.9 21:0.1 22:0.9 23:0.9 24:0.9 25:0.9 26:0.1 27:0.9 28:0.9 29:0.9 30:0.9 
1.0 1:0.9 2:0.9 3:0.9 4:0.9 5:0.9 6:0.1 7:0.9 8:0.9 9:0.9 10:0.9 11:0.1 12:0.9 13:0.9 14:0.9 15:0.9 16:0.1 17:0.9 18:0.9 19:0.9 20:0.9 21:0.1 22:0.9 23:0.9 24:0.9 25:0.9 26:0.1 27:0.9 28:0.9 29:0.9 30:0.9 
-1.0 1:0.1 2:0.9 3:0.9 4:0.9 5:0.9 6:0.1 7:0.9 8:0.9 9:0.9 10:0.9 11:0.1 12:0.9 13:0.9 14:0.9 15:0.9 16:0.1 17:0.9 18:0.9 19:0.9 20:0.9 21:0.1 22:0.9 23:0.9 24:0.9 25:0.9 26:0.9 27:0.9 28:0.9 29:0.9 30:0.9 
0.07254487438277923 1:0.1 2:0.9 3:0.9 4:0.9 5:0.9 6:0.1 7:0.9 8:0.9 9:0.9 10:0.9 11:0.1 12:0.9 13:0.9 14:0.9 15:0.9 16:0.1 17:0.9 18:0.9 19:0.9 20:0.9 21:0.9 22:0.9 23:0.9 24:0.9 25:0.9 26:0.1 27:0.9 28:0.9 29:0.9 30:0.9 
1.0 1:0.1 2:0.9 3:0.9 4:0.9 5:0.9 6:0.1 7:0.9 8:0.9 9:0.9 10:0.9 11:0.9 12:0.9 13:0.9 14:0.9 15:0.9 16:0.1 17:0.9 18:0.9 19:0.9 20:0.9 21:0.9 22:0.9 23:0.9 24:0.9 25:0.9 26:0.9 27:0.9 28:0.9 29:0.9 30:0.9 
-1.0 1:0.9 2:0.9 3:0.9 4:0.9 5:0.9 6:0.9 7:0.9 8:0.9 9:0.9 10:0.9 11:0.9 12:0.9 13:0.9 14:0.9 15:0.9 16:0.9 17:0.9 18:0.9 19:0.9 20:0.9 21:0.9 22:0.9 23:0.9 24:0.9 25:0.9 26:0.9 27:0.9 28:0.9 29:0.9 30:0.9 
-1.0 1:0.9 2:0.9 3:0.9 4:0.9 5:0.9 6:0.9 7:0.9 8:0.9 9:0.9 10:0.9 11:0.9 12:0.9 13:0.9 14:0.9 15:0.9 16:0.1 17:0.9 18:0.9 19:0.9 20:0.9 21:0.9 22:0.9 23:0.9 24:0.9 25:0.9 26:0.9 27:0.9 28:0.9 29:0.9 30:0.9 
1.0 1:0.9 2:0.9 3:0.9 4:0.9 5:0.9 6:0.9 7:0.9 8:0.9 9:0.9 10:0.9 11:0.1 12:0.9 13:0.9 14:0.9 15:0.9 16:0.9 17:0.9 18:0.9 19:0.9 20:0.9 21:0.9 22:0.9 23:0.9 24:0.9 25:0.9 26:0.1 27:0.9 28:0.9 29:0.9 30:0.9 
-1.0 1:0.1 2:0.9 3:0.9 4:0.9 5:0.9 6:0.9 7:0.9 8:0.9 9:0.9 10:0.9 11:0.9 12:0.9 13:0.9 14:0.9 15:0.9 16:0.1 17:0.9 18:0.9 19:0.9 20:0.9 21:0.9 22:0.9 23:0.9 24:0.9 25:0.9 26:0.9 27:0.9 28:0.9 29:0.9 30:0.9 
-1.0 1:0.9 2:0.9 3:0.9 4:0.9 5:0.9 6:0.9 7:0.9 8:0.9 9:0.9 10:0.9 11:0.1 12:0.9 13:0.9 14:0.9 15:0.9 16:0.9 17:0.9 18:0.9 19:0.9 20:0.9 21:0.9 22:0.9 23:0.9 24:0.9 25:0.9 26:0.1 27:0.9 28:0.9 29:0.9 30:0.9 
1.0 1:0.9 2:0.9 3:0.9 4:0.9 5:0.9 6:0.1 7:0.9 8:0.9 9:0.9 10:0.9 11:0.9 12:0.9 13:0.9 14:0.9 15:0.9 16:0.9 17:0.9 18:0.9 19:0.9 20:0.9 21:0.1 22:0.9 23:0.9 24:0.9 25:0.9 26:0.1 27:0.9 28:0.9 29:0.9 30:0.9 
1.0 1:0.1 2:0.9 3:0.9 4:0.9 5:0.9 6:0.9 7:0.9 8:0.9 9:0.9 10:0.9 11:0.9 12:0.9 13:0.9 14:0.9 15:0.9 16:0.1 17:0.9 18:0.9 19:0.9 20:0.9 21:0.1 22:0.9 23:0.9 24:0.9 25:0.9 26:0.9 27:0.9 28:0.9 29:0.9 30:0.9 
-1.0 1:0.1 2:0.9 3:0.9 4:0.9 5:0.9 6:0.9 7:0.9 8:0.9 9:0.9 10:0.9 11:0.9 12:0.9 13:0.9 14:0.9 15:0.9 16:0.9 17:0.9 18:0.9 19:0.9 20:0.9 21:0.9 22:0.9 23:0.9 24:0.9 25:0.9 26:0.9 27:0.9 28:0.9 29:0.9 30:0.9 
-1.0 1:0.9 2:0.9 3:0.9 4:0.9 5:0.9 6:0.9 7:0.9 8:0.9 9:0.9 10:0.9 11:0.9 12:0.9 13:0.9 14:0.9 15:0.9 16:0.9 17:0.9 18:0.9 19:0.9 20:0.9 21:0.1 22:0.9 23:0.9 24:0.9 25:0.9 26:0.9 27:0.9 28:0.9 29:0.9 30:0.9 
1.0 1:0.9 2:0.9 3:0.9 4:0.9 5:0.9 6:0.9 7:0.9 8:0.9 9:0.9 10:0.9 11:0.9 12:0.9 13:0.9 14:0.9 15:0.9 16:0.1 17:0.9 18:0.9 19:0.9 20:0.9 21:0.9 22:0.9 23:0.9 24:0.9 25:0.9 26:0.1 27:0.9 28:0.9 29:0.9 30:0.9 
-1.0 1:0.9 2:0.9 3:0.9 4:0.9 5:0.9 6:0.9 7:0.9 8:0.9 9:0.9 10:0.9 11:0.1 12:0.9 13:0.9 14:0.9 15:0.9 16:0.9 17:0.9 18:0.9 19:0.9 20:0.9 21:0.1 22:0.9 23:0.9 24:0.9 25:0.9 26:0.9 27:0.9 28:0.9 29:0.9 30:0.9 
-1.0 1:0.9 2:0.9 3:0.9 4:0.9 5:0.9 6:0.1 7:0.9 8:0.9 9:0.9 10:0.9 11:0.9 12:0.9 13:0.9 14:0.9 15:0.9 16:0.1 17:0.9 18:0.9 19:0.9 20:0.9 21:0.9 22:0.9 23:0.9 24:0.9 25:0.9 26:0.1 27:0.9 28:0.9 29:0.9 30:0.9 
1.0 1:0.1 2:0.9 3:0.9 4:0.9 5:0.9 6:0.9 7:0.9 8:0.9 9:0.9 10:0.9 11:0.1 12:0.9 13:0.9 14:0.9 15:0.9 16:0.9 17:0.9 18:0.9 19:0.9 20:0.9 21:0.1 22:0.9 23:0.9 24:0.9 25:0.9 26:0.1 27:0.9 28:0.9 29:0.9 30:0.9 
-1.0 1:0.9 2:0.9 3:0.9 4:0.9 5:0.9 6:0.1 7:0.9 8:0.9 9:0.9 10:0.9 11:0.9 12:0.9 13:0.9 14:0.9 15:0.9 16:0.1 17:0.9 18:0.9 19:0.9 20:0.9 21:0.1 22:0.9 23:0.9 24:0.9 25:0.9 26:0.9 27:0.9 28:0.9 29:0.9 30:0.9 
-1.0 1:0.1 2:0.9 3:0.9 4:0.9 5:0.9 6:0.1 7:0.9 8:0.9 9:0.9 10:0.9 11:0.9 12:0.9 13:0.9 14:0.9 15:0.9 16:0.1 17:0.9 18:0.9 19:0.9 20:0.9 21:0.9 22:0.9 23:0.9 24:0.9 25:0.9 26:0.9 27:0.9 28:0.9 29:0.9 30:0.9 
-1.0 1:0.9 2:0.9 3:0.9 4:0.9 5:0.9 6:0.9 7:0.9 8:0.9 9:0.9 10:0.9 11:0.1 12:0.9 13:0.9 14:0.9 15:0.9 16:0.9 17:0.9 18:0.9 19:0.9 20:0.9 21:0.9 22:0.9 23:0.9 24:0.9 25:0.9 26:0.9 27:0.9 28:0.9 29:0.9 30:0.9 
-1.0 1:0.9 2:0.9 3:0.9 4:0.9 5:0.9 6:0.9 7:0.9 8:0.9 9:0.9 10:0.9 11:0.1 12:0.9 13:0.9 14:0.9 15:0.9 16:0.9 17:0.9 18:0.9 19:0.9 20:0.9 21:0.9 22:0.9 23:0.9 24:0.9 25:0.9 26:0.9 27:0.9 28:0.9 29:0.9 30:0.9 
0.6551235251315654 1:0.9 2:0.9 3:0.9 4:0.9 5:0.9 6:0.1 7:0.9 8:0.9 9:0.9 10:0.9 11:0.9 12:0.9 13:0.9 14:0.9 15:0.9 16:0.9 17:0.9 18:0.9 19:0.9 20:0.9 21:0.9 22:0.9 23:0.9 24:0.9 25:0.9 26:0.1 27:0.9 28:0.9 29:0.9 30:0.9 
-1.0 1:0.1 2:0.9 3:0.9 4:0.9 5:0.9 6:0.9 7:0.9 8:0.9 9:0.9 10:0.9 11:0.9 12:0.9 13:0.9 14:0.9 15:0.9 16:0.9 17:0.9 18:0.9 19:0.9 20:0.9 21:0.1 22:0.9 23:0.9 24:0.9 25:0.9 26:0.9 27:0.9 28:0.9 29:0.9 30:0.9 
1.0 1:0.9 2:0.9 3:0.9 4:0.9 5:0.9 6:0.9 7:0.9 8:0.9 9:0.9 10:0.9 11:0.9 12:0.9 13:0.9 14:0.9 15:0.9 16:0.1 17:0.9 18:0.9 19:0.9 20:0.9 21:0.9 22:0.9 23:0.9 24:0.9 25:0.9 26:0.1 27:0.9 28:0.9 29:0.9 30:0.9 
-1.0 1:0.9 2:0.9 3:0.9 4:0.9 5:0.9 6:0.9 7:0.9 8:0.9 9:0.9 10:0.9 11:0.1 12:0.9 13:0.9 14:0.9 15:0.9 16:0.9 17:0.9 18:0.9 19:0.9 20:0.9 21:0.1 22:0.9 23:0.9 24:0.9 25:0.9 26:0.9 27:0.9 28:0.9 29:0.9 30:0.9 
1.0 1:0.9 2:0.9 3:0.9 4:0.9 5:0.9 6:0.1 7:0.9 8:0.9 9:0.9 10:0.9 11:0.9 12:0.9 13:0.9 14:0.9 15:0.9 16:0.1 17:0.9 18:0.9 19:0.9 20:0.9 21:0.9 22:0.9 23:0.9 24:0.9 25:0.9 26:0.1 27:0.9 28:0.9 29:0.9 30:0.9 
-1.0 1:0.1 2:0.9 3:0.9 4:0.9 5:0.9 6:0.9 7:0.9 8:0.9 9:0.9 10:0.9 11:0.1 12:0.9 13:0.9 14:0.9 15:0.9 16:0.9 17:0.9 18:0.9 19:0.9 20:0.9 21:0.1 22:0.9 23:0.9 24:0.9 25:0.9 26:0.9 27:0.9 28:0.9 29:0.9 30:0.9 
1.0 1:0.9 2:0.9 3:0.9 4:0.9 5:0.9 6:0.1 7:0.9 8:0.9 9:0.9 10:0.9 11:0.9 12:0.9 13:0.9 14:0.9 15:0.9 16:0.1 17:0.9 18:0.9 19:0.9 20:0.9 21:0.9 22:0.9 23:0.9 24:0.9 25:0.9 26:0.1 27:0.9 28:0.9 29:0.9 30:0.9 
0.26236542993399276 1:0.1 2:0.9 3:0.9 4:0.9 5:0.9 6:0.9 7:0.9 8:0.9 9:0.9 10:0.9 11:0.1 12:0.9 13:0.9 14:0.9 15:0.9 16:0.9 17:0.9 18:0.9 19:0.9 20:0.9 21:0.1 22:0.9 23:0.9 24:0.9 25:0.9 26:0.9 27:0.9 28:0.9 29:0.9 30:0.9 
0.7547750623966456 1:0.9 2:0.9 3:0.9 4:0.9 5:0.9 6:0.1 7:0.9 8:0.9 9:0.9 10:0.9 11:0.9 12:0.9 13:0.9 14:0.9 15:0.9 16:0.1 17:0.9 18:0.9 19:0.9 20:0.9 21:0.9 22:0.9 23:0.9 24:0.9 25:0.9 26:0.9 27:0.9 28:0.9 29:0.9 30:0.9 
-1.0 1:0.1 2:0.9 3:0.9 4:0.9 5:0.9 6:0.9 7:0.9 8:0.9 9:0.9 10:0.9 11:0.9 12:0.9 13:0.9 14:0.9 15:0.9 16:0.9 17:0.9 18:0.9 19:0.9 20:0.9 21:0.9 22:0.9 23:0.9 24:0.9 25:0.9 26:0.9 27:0.9 28:0.9 29:0.9 30:0.9 
-1.0 1:0.9 2:0.9 3:0.9 4:0.9 5:0.9 6:0.9 7:0.9 8:0.9 9:0.9 10:0.9 11:0.9 12:0.9 13:0.9 14:0.9 15:0.9 16:0.9 17:0.9 18:0.9 19:0.9 20:0.9 21:0.9 22:0.9 23:0.9 24:0.9 25:0.9 26:0.1 27:0.9 28:0.9 29:0.9 30:0.9 
-1.0 1:0.9 2:0.9 3:0.9 4:0.9 5:0.9 6:0.9 7:0.9 8:0.9 9:0.9 10:0.9 11:0.9 12:0.9 13:0.9 14:0.9 15:0.9 16:0.9 17:0.9 18:0.9 19:0.9 20:0.9 21:0.1 22:0.9 23:0.9 24:0.9 25:0.9 26:0.1 27:0.9 28:0.9 29:0.9 30:0.9 
1.0 1:0.9 2:0.9 3:0.9 4:0.9 5:0.9 6:0.9 7:0.9 8:0.9 9:0.9 10:0.9 11:0.9 12:0.9 13:0.9 14:0.9 15:0.9 16:0.1 17:0.9 18:0.9 19:0.9 20:0.9 21:0.1 22:0.9 23:0.9 24:0.9 25:0.9 26:0.1 27:0.9 28:0.9 29:0.9 30:0.9 
-1.0 1:0.1 2:0.9 3:0.9 4:0.9 5:0.9 6:0.1 7:0.9 8:0.9 9:0.9 10:0.9 11:0.9 12:0.9 13:0.9 14:0.9 15:0.9 16:0.9 17:0.9 18:0.9 19:0.9 20:0.9 21:0.9 22:0.9 23:0.9 24:0.9 25:0.9 26:0.9 27:0.9 28:0.9 29:0.9 30:0.9 
-1.0 1:0.9 2:0.9 3:0.9 4:0.9 5:0.9 6:0.9 7:0.9 8:0.9 9:0.9 10:0.9 11:0.9 12:0.9 13:0.9 14:0.9 15:0.9 16:0.9 17:0.9 18:0.9 19:0.9 20:0.9 21:0.1 22:0.9 23:0.9 24:0.9 25:0.9 26:0.9 27:0.9 28:0.9 29:0.9 30:0.9 
-1.0 1:0.9 2:0.9 3:0.9 4:0.9 5:0.9 6:0.9 7:0.9 8:0.9 9:0.9 10:0.9 11:0.9 12:0.9 13:0.9 14:0.9 15:0.9 16:0.1 17:0.9 18:0.9 19:0.9 20:0.9 21:0.9 22:0.9 23:0.9 24:0.9 25:0.9 26:0.1 27:0.9 28:0.9 29:0.9 30:0.9 
1.0 1:0.9 2:0.9 3:0.9 4:0.9 5:0.9 6:0.9 7:0.9 8:0.9 9:0.9 10:0.9 11:0.1 12:0.9 13:0.9 14:0.9 15:0.9 16:0.9 17:0.9 18:0.9 19:0.9 20:0.9 21:0.1 22:0.9 23:0.9 24:0.9 25:0.9 26:0.1 27:0.9 28:0.9 29:0.9 30:0.9 
-1.0 1:0.9 2:0.9 3:0.9 4:0.9 5:0.9 6:0.1 7:0.9 8:0.9 9:0.9 10:0.9 11:0.9 12:0.9 13:0.9 14:0.9 15:0.9 16:0.1 17:0.9 18:0.9 19:0.9 20:0.9 21:0.1 22:0.9 23:0.9 24:0.9 25:0.9 26:0.9 27:0.9 28:0.9 29:0.9 30:0.9 
0.09737071355466108 1:0.9 2:0.9 3:0.9 4:0.9 5:0.9 6:0.1 7:0.9 8:0.9 9:0.9 10:0.9 11:0.1 12:0.9 13:0.9 14:0.9 15:0.9 16:0.9 17:0.9 18:0.9 19:0.9 20:0.9 21:0.1 22:0.9 23:0.9 24:0.9 25:0.9 26:0.9 27:0.9 28:0.9 29:0.9 30:0.9 
1.0 1:0.1 2:0.9 3:0.9 4:0.9 5:0.9 6:0.1 7:0.9 8:0.9 9:0.9 10:0.9 11:0.9 12:0.9 13:0.9 14:0.9 15:0.9 16:0.1 17:0.9 18:0.9 19:0.9 20:0.9 21:0.9 22:0.9 23:0.9 24:0.9 25:0.9 26:0.9 27:0.9 28:0.9 29:0.9 30:0.9 
-1.0 1:0.9 2:0.9 3:0.9 4:0.9 5:0.9 6:0.9 7:0.9 8:0.9 9:0.9 10:0.9 11:0.9 12:0.9 13:0.9 14:0.9 15:0.9 16:0.9 17:0.9 18:0.9 19:0.9 20:0.9 21:0.9 22:0.9 23:0.9 24:0.9 25:0.9 26:0.9 27:0.9 28:0.9 29:0.9 30:0.9 
-1.0 1:0.9 2:0.9 3:0.9 4:0.9 5:0.9 6:0.9 7:0.9 8:0.9 9:0.9 10:0.9 11:0.9 12:0.9 13:0.9 14:0.9 15:0.9 16:0.9 17:0.9 18:0.9 19:0.9 20:0.9 21:0.9 22:0.9 23:0.9 24:0.9 25:0.9 26:0.1 27:0.9 28:0.9 29:0.9 30:0.9 
1.0 1:0.9 2:0.9 3:0.9 4:0.9 5:0.9 6:0.9 7:0.9 8:0.9 9:0.9 10:0.9 11:0.9 12:0.9 13:0.9 14:0.9 15:0.9 16:0.9 17:0.9 18:0.9 19:0.9 20:0.9 21:0.1 22:0.9 23:0.9 24:0.9 25:0.9 26:0.1 27:0.9 28:0.9 29:0.9 30:0.9 
1.0 1:0.9 2:0.9 3:0.9 4:0.9 5:0.9 6:0.9 7:0.9 8:0.9 9:0.9 10:0.9 11:0.9 12:0.9 13:0.9 14:0.9 15:0.9 16:0.1 17:0.9 18:0.9 19:0.9 20:0.9 21:0.1 22:0.9 23:0.9 24:0.9 25:0.9 26:0.9 27:0.9 28:0.9 29:0.9 30:0.9 
0.33154050960834747 1:0.9 2:0.9 3:0.9 4:0.9 5:0.9 6:0.1 7:0.9 8:0.9 9:0.9 10:0.9 11:0.1 12:0.9 13:0.9 14:0.9 15:0.9 16:0.9 17:0.9 18:0.9 19:0.9 20:0.9 21:0.9 22:0.9 23:0.9 24:0.9 25:0.9 26:0.9 27:0.9 28:0.9 29:0.9 30:0.9 
0.28744537206288134 1:0.1 2:0.9 3:0.9 4:0.9 5:0.9 6:0.1 7:0.9 8:0.9 9:0.9 10:0.9 11:0.9 12:0.9 13:0.9 14:0.9 15:0.9 16:0.9 17:0.9 18:0.9 19:0.9 20:0.9 21:0.9 22:0.9 23:0.9 24:0.9 25:0.9 26:0.9 27:0.9 28:0.9 29:0.9 30:0.9 
-1.0 1:0.9 2:0.9 3:0.1 4:0.9 5:0.9 6:0.9 7:0.9 8:0.9 9:0.9 10:0.9 11:0.9 12:0.9 13:0.9 14:0.9 15:0.9 16:0.9 17:0.9 18:0.9 19:0.9 20:0.9 21:0.9 22:0.9 23:0.9 24:0.9 25:0.9 26:0.9 27:0.9 28:0.9 29:0.9 30:0.9 
-1.0 1:0.9 2:0.9 3:0.9 4:0.9 5:0.9 6:0.9 7:0.9 8:0.9 9:0.9 10:0.9 11:0.9 12:0.9 13:0.9 14:0.9 15:0.9 16:0.1 17:0.9 18:0.9 19:0.9 20:0.9 21:0.9 22:0.9 23:0.9 24:0.9 25:0.9 26:0.9 27:0.9 28:0.9 29:0.9 30:0.9 
-1.0 1:0.9 2:0.9 3:0.9 4:0.9 5:0.9 6:0.9 7:0.9 8:0.9 9:0.9 10:0.9 11:0.1 12:0.9 13:0.9 14:0.9 15:0.9 16:0.9 17:0.9 18:0.9 19:0.9 20:0.9 21:0.9 22:0.9 23:0.9 24:0.9 25:0.9 26:0.1 27:0.9 28:0.9 29:0.9 30:0.9 
-1.0 1:0.9 2:0.9 3:0.9 4:0.9 5:0.9 6:0.1 7:0.9 8:0.9 9:0.9 10:0.9 11:0.9 12:0.9 13:0.9 14:0.9 15:0.9 16:0.9 17:0.9 18:0.9 19:0.9 20:0.9 21:0.1 22:0.9 23:0.9 24:0.9 25:0.9 26:0.1 27:0.9 28:0.9 29:0.9 30:0.9 
-1.0 1:0.1 2:0.9 3:0.9 4:0.9 5:0.9 6:0.9 7:0.9 8:0.9 9:0.9 10:0.9 11:0.9 12:0.9 13:0.9 14:0.9 15:0.9 16:0.1 17:0.9 18:0.9 19:0.9 20:0.9 21:0.1 22:0.9 23:0.9 24:0.9 25:0.9 26:0.1 27:0.9 28:0.9 29:0.9 30:0.9 
1.0 1:0.9 2:0.9 3:0.9 4:0.9 5:0.9 6:0.9 7:0.9 8:0.9 9:0.9 10:0.9 11:0.1 12:0.9 13:0.9 14:0.9 15:0.9 16:0.1 17:0.9 18:0.9 19:0.9 20:0.9 21:0.1 22:0.9 23:0.9 24:0.9 25:0.9 26:0.1 27:0.9 28:0.9 29:0.9 30:0.9 
-1.0 1:0.9 2:0.9 3:0.9 4:0.9 5:0.9 6:0.1 7:0.9 8:0.9 9:0.9 10:0.9 11:0.1 12:0.9 13:0.9 14:0.9 15:0.9 16:0.1 17:0.9 18:0.9 19:0.9 20:0.9 21:0.1 22:0.9 23:0.9 24:0.9 25:0.9 26:0.9 27:0.9 28:0.9 29:0.9 30:0.9 
-1.0 1:0.1 2:0.9 3:0.9 4:0.9 5:0.9 6:0.1 7:0.9 8:0.9 9:0.9 10:0.9 11:0.1 12:0.9 13:0.9 14:0.9 15:0.9 16:0.1 17:0.9 18:0.9 19:0.9 20:0.9 21:0.9 22:0.9 23:0.9 24:0.9 25:0.9 26:0.1 27:0.9 28:0.9 29:0.9 30:0.9 
-1.0 1:0.1 2:0.9 3:0.9 4:0.9 5:0.9 6:0.1 7:0.9 8:0.9 9:0.9 10:0.9 11:0.1 12:0.9 13:0.9 14:0.9 15:0.9 16:0.9 17:0.9 18:0.9 19:0.9 20:0.9 21:0.1 22:0.9 23:0.9 24:0.9 25:0.9 26:0.1 27:0.9 28:0.9 29:0.9 30:0.9 
-1.0 1:0.1 2:0.9 3:0.9 4:0.9 5:0.9 6:0.1 7:0.9 8:0.9 9:0.9 10:0.9 11:0.9 12:0.9 13:0.9 14:0.9 15:0.9 16:0.1 17:0.9 18:0.9 19:0.9 20:0.9 21:0.1 22:0.9 23:0.9 24:0.9 25:0.9 26:0.1 27:0.9 28:0.9 29:0.9 30:0.9 
-1.0 1:0.1 2:0.9 3:0.9 4:0.9 5:0.9 6:0.9 7:0.9 8:0.9 9:0.9 10:0.9 11:0.1 12:0.9 13:0.9 14:0.9 15:0.9 16:0.1 17:0.9 18:0.9 19:0.9 20:0.9 21:0.1 22:0.9 23:0.9 24:0.9 25:0.9 26:0.1 27:0.9 28:0.9 29:0.9 30:0.9 
1.0 1:0.9 2:0.9 3:0.9 4:0.9 5:0.9 6:0.1 7:0.9 8:0.9 9:0.9 10:0.9 11:0.1 12:0.9 13:0.9 14:0.9 15:0.9 16:0.1 17:0.9 18:0.9 19:0.9 20:0.9 21:0.1 22:0.9 23:0.9 24:0.9 25:0.9 26:0.1 27:0.9 28:0.9 29:0.9 30:0.9 
1.0 1:0.1 2:0.9 3:0.9 4:0.9 5:0.9 6:0.1 7:0.9 8:0.9 9:0.9 10:0.9 11:0.1 12:0.9 13:0.9 14:0.9 15:0.9 16:0.1 17:0.9 18:0.9 19:0.9 20:0.9 21:0.1 22:0.9 23:0.9 24:0.9 25:0.9 26:0.9 27:0.9 28:0.9 29:0.9 30:0.9 
1.0 1:0.1 2:0.9 3:0.9 4:0.9 5:0.9 6:0.1 7:0.9 8:0.9 9:0.9 10:0.9 11:0.9 12:0.9 13:0.9 14:0.9 15:0.9 16:0.9 17:0.9 18:0.9 19:0.9 20:0.9 21:0.9 22:0.9 23:0.9 24:0.9 25:0.9 26:0.9 27:0.9 28:0.9 29:0.9 30:0.9 
-1.0 1:0.9 2:0.9 3:0.9 4:0.9 5:0.9 6:0.9 7:0.9 8:0.9 9:0.9 10:0.9 11:0.9 12:0.9 13:0.9 14:0.9 15:0.9 16:0.9 17:0.9 18:0.9 19:0.9 20:0.9 21:0.9 22:0.9 23:0.9 24:0.9 25:0.9 26:0.9 27:0.9 28:0.9 29:0.9 30:0.9 
-1.0 1:0.9 2:0.9 3:0.9 4:0.9 5:0.9 6:0.9 7:0.9 8:0.9 9:0.9 10:0.9 11:0.9 12:0.9 13:0.1 14:0.9 15:0.9 16:0.9 17:0.9 18:0.9 19:0.9 20:0.9 21:0.9 22:0.9 23:0.9 24:0.9 25:0.9 26:0.9 27:0.9 28:0.9 29:0.9 30:0.9 
-1.0 1:0.9 2:0.9 3:0.9 4:0.9 5:0.9 6:0.9 7:0.9 8:0.1 9:0.9 10:0.9 11:0.9 12:0.9 13:0.9 14:0.9 15:0.9 16:0.9 17:0.9 18:0.9 19:0.9 20:0.9 21:0.9 22:0.9 23:0.9 24:0.9 25:0.9 26:0.1 27:0.9 28:0.9 29:0.9 30:0.9 
-1.0 1:0.9 2:0.9 3:0.1 4:0.9 5:0.9 6:0.9 7:0.9 8:0.9 9:0.9 10:0.9 11:0.9 12:0.9 13:0.9 14:0.9 15:0.9 16:0.9 17:0.9 18:0.9 19:0.9 20:0.9 21:0.1 22:0.9 23:0.9 24:0.9 25:0.9 26:0.1 27:0.9 28:0.9 29:0.9 30:0.9 
-1.0 1:0.9 2:0.9 3:0.9 4:0.9 5:0.9 6:0.9 7:0.9 8:0.9 9:0.9 10:0.9 11:0.9 12:0.9 13:0.9 14:0.9 15:0.9 16:0.1 17:0.9 18:0.9 19:0.9 20:0.9 21:0.1 22:0.9 23:0.9 24:0.9 25:0.9 26:0.1 27:0.9 28:0.9 29:0.9 30:0.9 
-1.0 1:0.9 2:0.9 3:0.9 4:0.9 5:0.9 6:0.9 7:0.9 8:0.9 9:0.9 10:0.9 11:0.1 12:0.9 13:0.9 14:0.9 15:0.9 16:0.1 17:0.9 18:0.9 19:0.9 20:0.9 21:0.1 22:0.9 23:0.9 24:0.9 25:0.9 26:0.1 27:0.9 28:0.9 29:0.9 30:0.9 
-1.0 1:0.9 2:0.9 3:0.9 4:0.9 5:0.9 6:0.1 7:0.9 8:0.9 9:0.9 10:0.9 11:0.1 12:0.9 13:0.9 14:0.9 15:0.9 16:0.1 17:0.9 18:0.9 19:0.9 20:0.9 21:0.1 22:0.9 23:0.9 24:0.9 25:0.9 26:0.1 27:0.9 28:0.9 29:0.9 30:0.9 
1.0 1:0.1 2:0.9 3:0.9 4:0.9 5:0.9 6:0.1 7:0.9 8:0.9 9:0.9 10:0.9 11:0.1 12:0.9 13:0.9 14:0.9 15:0.9 16:0.1 17:0.9 18:0.9 19:0.9 20:0.9 21:0.1 22:0.9 23:0.9 24:0.9 25:0.9 26:0.1 27:0.9 28:0.9 29:0.9 30:0.9 
-1.0 1:0.1 2:0.9 3:0.9 4:0.9 5:0.9 6:0.1 7:0.9 8:0.9 9:0.9 10:0.9 11:0.1 12:0.9 13:0.9 14:0.9 15:0.9 16:0.1 17:0.9 18:0.9 19:0.9 20:0.9 21:0.1 22:0.9 23:0.9 24:0.9 25:0.9 26:0.9 27:0.9 28:0.9 29:0.9 30:0.9 
1.0 1:0.1 2:0.9 3:0.9 4:0.9 5:0.9 6:0.1 7:0.9 8:0.9 9:0.9 10:0.9 11:0.1 12:0.9 13:0.9 14:0.9 15:0.9 16:0.1 17:0.9 18:0.9 19:0.9 20:0.9 21:0.9 22:0.9 23:0.9 24:0.9 25:0.9 26:0.1 27:0.9 28:0.9 29:0.9 30:0.9 
1.0 1:0.1 2:0.9 3:0.9 4:0.9 5:0.9 6:0.1 7:0.9 8:0.9 9:0.9 10:0.9 11:0.1 12:0.9 13:0.9 14:0.9 15:0.9 16:0.9 17:0.9 18:0.9 19:0.9 20:0.9 21:0.1 22:0.9 23:0.9 24:0.9 25:0.9 26:0.9 27:0.9 28:0.9 29:0.9 30:0.9 
-1.0 1:0.1 2:0.9 3:0.9 4:0.9 5:0.9 6:0.1 7:0.9 8:0.9 9:0.9 10:0.9 11:0.9 12:0.9 13:0.9 14:0.9 15:0.9 16:0.1 17:0.9 18:0.9 19:0.9 20:0.9 21:0.9 22:0.9 23:0.9 24:0.9 25:0.9 26:0.9 27:0.9 28:0.9 29:0.9 30:0.9 
0.03829157640357979 1:0.9 2:0.9 3:0.9 4:0.9 5:0.9 6:0.1 7:0.9 8:0.9 9:0.9 10:0.9 11:0.9 12:0.9 13:0.9 14:0.9 15:0.9 16:0.9 17:0.9 18:0.9 19:0.9 20:0.9 21:0.1 22:0.9 23:0.9 24:0.9 25:0.9 26:0.9 27:0.9 28:0.9 29:0.9 30:0.9 
0.5922709449746739 1:0.1 2:0.9 3:0.9 4:0.9 5:0.9 6:0.9 7:0.9 8:0.9 9:0.9 10:0.9 11:0.9 12:0.9 13:0.9 14:0.9 15:0.9 16:0.1 17:0.9 18:0.9 19:0.9 20:0.9 21:0.9 22:0.9 23:0.9 24:0.9 25:0.9 26:0.9 27:0.9 28:0.9 29:0.9 30:0.9 
-1.0 1:0.9 2:0.9 3:0.9 4:0.9 5:0.9 6:0.9 7:0.9 8:0.9 9:0.9 10:0.9 11:0.9 12:0.9 13:0.9 14:0.9 15:0.9 16:0.9 17:0.9 18:0.9 19:0.9 20:0.9 21:0.9 22:0.9 23:0.9 24:0.9 25:0.9 26:0.9 27:0.9 28:0.9 29:0.9 30:0.9 
-1.0 1:0.9 2:0.9 3:0.9 4:0.9 5:0.9 6:0.9 7:0.9 8:0.9 9:0.9 10:0.9 11:0.9 12:0.9 13:0.9 14:0.9 15:0.9 16:0.9 17:0.9 18:0.9 19:0.9 20:0.9 21:0.9 22:0.9 23:0.9 24:0.9 25:0.9 26:0.1 27:0.9 28:0.9 29:0.9 30:0.9 
-1.0 1:0.9 2:0.9 3:0.9 4:0.9 5:0.9 6:0.9 7:0.9 8:0.9 9:0.9 10:0.9 11:0.9 12:0.9 13:0.9 14:0.9 15:0.9 16:0.9 17:0.9 18:0.9 19:0.9 20:0.9 21:0.1 22:0.9 23:0.9 24:0.9 25:0.9 26:0.1 27:0.9 28:0.9 29:0.9 30:0.9 
-1.0 1:0.9 2:0.9 3:0.9 4:0.9 5:0.9 6:0.9 7:0.9 8:0.9 9:0.9 10:0.9 11:0.9 12:0.9 13:0.9 14:0.9 15:0.9 16:0.1 17:0.9 18:0.9 19:0.9 20:0.9 21:0.1 22:0.9 23:0.9 24:0.9 25:0.9 26:0.1 27:0.9 28:0.9 29:0.9 30:0.9 
1.0 1:0.9 2:0.9 3:0.9 4:0.9 5:0.9 6:0.9 7:0.9 8:0.9 9:0.9 10:0.9 11:0.1 12:0.9 13:0.9 14:0.9 15:0.9 16:0.1 17:0.9 18:0.9 19:0.9 20:0.9 21:0.1 22:0.9 23:0.9 24:0.9 25:0.9 26:0.1 27:0.9 28:0.9 29:0.9 30:0.9 
1.0 1:0.9 2:0.9 3:0.9 4:0.9 5:0.9 6:0.1 7:0.9 8:0.9 9:0.9 10:0.9 11:0.1 12:0.9 13:0.9 14:0.9 15:0.9 16:0.1 17:0.9 18:0.9 19:0.9 20:0.9 21:0.1 22:0.9 23:0.9 24:0.9 25:0.9 26:0.9 27:0.9 28:0.9 29:0.9 30:0.9 
-1.0 1:0.1 2:0.9 3:0.9 4:0.9 5:0.9 6:0.1 7:0.9 8:0.9 9:0.9 10:0.9 11:0.1 12:0.9 13:0.9 14:0.9 15:0.9 16:0.9 17:0.9 18:0.9 19:0.9 20:0.9 21:0.9 22:0.9 23:0.9 24:0.9 25:0.9 26:0.9 27:0.9 28:0.9 29:0.9 30:0.9 
-1.0 1:0.1 2:0.9 3:0.9 4:0.9 5:0.9 6:0.1 7:0.9 8:0.9 9:0.9 10:0.9 11:0.9 12:0.9 13:0.9 14:0.9 15:0.9 16:0.9 17:0.9 18:0.9 19:0.9 20:0.9 21:0.9 22:0.9 23:0.9 24:0.9 25:0.9 26:0.1 27:0.9 28:0.9 29:0.9 30:0.9 
1.0 1:0.1 2:0.9 3:0.9 4:0.9 5:0.9 6:0.9 7:0.9 8:0.9 9:0.9 10:0.9 11:0.9 12:0.9 13:0.9 14:0.9 15:0.9 16:0.9 17:0.9 18:0.9 19:0.9 20:0.9 21:0.1 22:0.9 23:0.9 24:0.9 25:0.9 26:0.1 27:0.9 28:0.9 29:0.9 30:0.9 
1.0 1:0.9 2:0.9 3:0.9 4:0.9 5:0.9 6:0.9 7:0.9 8:0.9 9:0.9 10:0.9 11:0.9 12:0.9 13:0.9 14:0.9 15:0.9 16:0.1 17:0.9 18:0.9 19:0.9 20:0.9 21:0.1 22:0.9 23:0.9 24:0.9 25:0.9 26:0.9 27:0.9 28:0.9 29:0.9 30:0.9 
1.0 1:0.1 2:0.9 3:0.9 4:0.9 5:0.9 6:0.1 7:0.9 8:0.9 9:0.9 10:0.9 11:0.9 12:0.9 13:0.9 14:0.9 15:0.9 16:0.9 17:0.9 18:0.9 19:0.9 20:0.9 21:0.9 22:0.9 23:0.9 24:0.9 25:0.9 26:0.9 27:0.9 28:0.9 29:0.9 30:0.9 
-1.0 1:0.9 2:0.9 3:0.9 4:0.9 5:0.9 6:0.9 7:0.9 8:0.9 9:0.9 10:0.9 11:0.9 12:0.9 13:0.9 14:0.9 15:0.9 16:0.9 17:0.9 18:0.9 19:0.9 20:0.9 21:0.9 22:0.9 23:0.9 24:0.9 25:0.9 26:0.9 27:0.9 28:0.9 29:0.9 30:0.9 
-1.0 1:0.9 2:0.9 3:0.9 4:0.9 5:0.9 6:0.9 7:0.9 8:0.9 9:0.9 10:0.9 11:0.9 12:0.9 13:0.9 14:0.9 15:0.9 16:0.9 17:0.9 18:0.9 19:0.9 20:0.9 21:0.9 22:0.9 23:0.9 24:0.9 25:0.9 26:0.1 27:0.9 28:0.9 29:0.9 30:0.9 
-1.0 1:0.9 2:0.9 3:0.9 4:0.9 5:0.9 6:0.9 7:0.9 8:0.9 9:0.9 10:0.9 11:0.9 12:0.9 13:0.9 14:0.9 15:0.9 16:0.9 17:0.9 18:0.9 19:0.9 20:0.9 21:0.1 22:0.9 23:0.9 24:0.9 25:0.9 26:0.1 27:0.9 28:0.9 29:0.9 30:0.9 
1.0 1:0.9 2:0.9 3:0.9 4:0.9 5:0.9 6:0.9 7:0.9 8:0.9 9:0.9 10:0.9 11:0.9 12:0.9 13:0.9 14:0.9 15:0.9 16:0.1 17:0.9 18:0.9 19:0.9 20:0.9 21:0.1 22:0.9 23:0.9 24:0.9 25:0.9 26:0.1 27:0.9 28:0.9 29:0.9 30:0.9 
-1.0 1:0.9 2:0.9 3:0.1 4:0.9 5:0.9 6:0.9 7:0.9 8:0.1 9:0.9 10:0.9 11:0.9 12:0.9 13:0.9 14:0.9 15:0.9 16:0.9 17:0.9 18:0.9 19:0.9 20:0.9 21:0.9 22:0.9 23:0.9 24:0.9 25:0.9 26:0.9 27:0.9 28:0.9 29:0.9 30:0.9 
-1.0 1:0.9 2:0.9 3:0.9 4:0.1 5:0.9 6:0.9 7:0.9 8:0.9 9:0.9 10:0.9 11:0.9 12:0.9 13:0.9 14:0.9 15:0.9 16:0.9 17:0.9 18:0.9 19:0.9 20:0.9 21:0.9 22:0.9 23:0.9 24:0.9 25:0.9 26:0.9 27:0.1 28:0.9 29:0.9 30:0.9 
0.007528395973889816 1:0.9 2:0.9 3:0.1 4:0.9 5:0.9 6:0.9 7:0.9 8:0.9 9:0.9 10:0.9 11:0.9 12:0.9 13:0.9 14:0.9 15:0.9 16:0.9 17:0.9 18:0.9 19:0.9 20:0.9 21:0.9 22:0.9 23:0.9 24:0.9 25:0.9 26:0.1 27:0.9 28:0.9 29:0.9 30:0.1 
0.3022143099988762 1:0.9 2:0.9 3:0.9 4:0.9 5:0.9 6:0.9 7:0.9 8:0.9 9:0.9 10:0.9 11:0.9 12:0.9 13:0.9 14:0.9 15:0.9 16:0.9 17:0.9 18:0.9 19:0.9 20:0.9 21:0.1 22:0.9 23:0.9 24:0.9 25:0.1 26:0.9 27:0.9 28:0.9 29:0.9 30:0.9 
0.07945312228365446 1:0.1 2:0.9 3:0.9 4:0.9 5:0.1 6:0.9 7:0.9 8:0.9 9:0.9 10:0.9 11:0.9 12:0.9 13:0.9 14:0.9 15:0.9 16:0.9 17:0.9 18:0.9 19:0.9 20:0.9 21:0.9 22:0.9 23:0.9 24:0.9 25:0.9 26:0.9 27:0.9 28:0.9 29:0.9 30:0.9 
-1.0 1:0.9 2:0.9 3:0.9 4:0.9 5:0.9 6:0.9 7:0.9 8:0.9 9:0.9 10:0.9 11:0.9 12:0.9 13:0.9 14:0.9 15:0.9 16:0.9 17:0.9 18:0.9 19:0.9 20:0.9 21:0.9 22:0.9 23:0.9 24:0.9 25:0.9 26:0.9 27:0.9 28:0.9 29:0.9 30:0.9 
0.49258474741662583 1:0.9 2:0.9 3:0.9 4:0.9 5:0.9 6:0.9 7:0.9 8:0.9 9:0.9 10:0.9 11:0.9 12:0.9 13:0.9 14:0.9 15:0.9 16:0.9 17:0.9 18:0.9 19:0.9 20:0.9 21:0.9 22:0.9 23:0.9 24:0.9 25:0.9 26:0.1 27:0.9 28:0.9 29:0.9 30:0.9 
0.8445402149710766 1:0.9 2:0.9 3:0.9 4:0.9 5:0.9 6:0.9 7:0.9 8:0.9 9:0.9 10:0.9 11:0.1 12:0.9 13:0.9 14:0.9 15:0.9 16:0.9 17:0.9 18:0.9 19:0.9 20:0.9 21:0.9 22:0.9 23:0.9 24:0.9 25:0.9 26:0.9 27:0.9 28:0.9 29:0.9 30:0.9 
-1.0 1:0.9 2:0.9 3:0.9 4:0.9 5:0.9 6:0.1 7:0.9 8:0.9 9:0.9 10:0.9 11:0.9 12:0.9 13:0.9 14:0.9 15:0.9 16:0.9 17:0.9 18:0.9 19:0.9 20:0.9 21:0.9 22:0.9 23:0.9 24:0.9 25:0.9 26:0.9 27:0.9 28:0.9 29:0.9 30:0.9 
-1.0 1:0.9 2:0.9 3:0.9 4:0.9 5:0.9 6:0.9 7:0.9 8:0.9 9:0.9 10:0.9 11:0.9 12:0.1 13:0.9 14:0.9 15:0.9 16:0.9 17:0.9 18:0.9 19:0.9 20:0.9 21:0.9 22:0.9 23:0.9 24:0.9 25:0.9 26:0.9 27:0.9 28:0.9 29:0.9 30:0.9 
0.010374659058889112 1:0.9 2:0.9 3:0.9 4:0.9 5:0.9 6:0.9 7:0.9 8:0.1 9:0.9 10:0.9 11:0.9 12:0.9 13:0.9 14:0.9 15:0.9 16:0.9 17:0.9 18:0.9 19:0.9 20:0.9 21:0.9 22:0.9 23:0.9 24:0.9 25:0.9 26:0.9 27:0.1 28:0.9 29:0.9 30:0.9 
-1.0 1:0.9 2:0.9 3:0.9 4:0.9 5:0.9 6:0.1 7:0.9 8:0.9 9:0.9 10:0.9 11:0.9 12:0.9 13:0.9 14:0.9 15:0.9 16:0.9 17:0.9 18:0.9 19:0.9 20:0.9 21:0.9 22:0.9 23:0.9 24:0.9 25:0.1 26:0.9 27:0.9 28:0.9 29:0.9 30:0.9 
0.017994707435547312 1:0.9 2:0.1 3:0.9 4:0.9 5:0.9 6:0.9 7:0.9 8:0.9 9:0.9 10:0.9 11:0.9 12:0.9 13:0.9 14:0.9 15:0.9 16:0.9 17:0.9 18:0.9 19:0.9 20:0.9 21:0.1 22:0.9 23:0.9 24:0.9 25:0.9 26:0.9 27:0.1 28:0.9 29:0.9 30:0.9 
-1.0 1:0.9 2:0.9 3:0.9 4:0.9 5:0.9 6:0.9 7:0.9 8:0.1 9:0.9 10:0.9 11:0.9 12:0.9 13:0.9 14:0.1 15:0.9 16:0.9 17:0.9 18:0.9 19:0.9 20:0.9 21:0.9 22:0.9 23:0.9 24:0.9 25:0.9 26:0.9 27:0.9 28:0.9 29:0.9 30:0.9 
0.01576312431523242 1:0.9 2:0.9 3:0.9 4:0.9 5:0.1 6:0.9 7:0.9 8:0.9 9:0.9 10:0.9 11:0.1 12:0.9 13:0.9 14:0.9 15:0.9 16:0.9 17:0.9 18:0.9 19:0.9 20:0.9 21:0.9 22:0.9 23:0.9 24:0.9 25:0.9 26:0.9 27:0.9 28:0.1 29:0.9 30:0.9 
0.011072882349017004 1:0.9 2:0.9 3:0.1 4:0.9 5:0.9 6:0.9 7:0.9 8:0.9 9:0.1 10:0.9 11:0.9 12:0.9 13:0.9 14:0.9 15:0.9 16:0.9 17:0.9 18:0.9 19:0.9 20:0.9 21:0.9 22:0.9 23:0.9 24:0.9 25:0.9 26:0.1 27:0.9 28:0.9 29:0.9 30:0.9 
0.14636784853417226 1:0.9 2:0.9 3:0.9 4:0.1 5:0.9 6:0.9 7:0.9 8:0.9 9:0.9 10:0.9 11:0.9 12:0.9 13:0.9 14:0.9 15:0.9 16:0.9 17:0.9 18:0.9 19:0.9 20:0.9 21:0.1 22:0.9 23:0.9 24:0.9 25:0.9 26:0.9 27:0.9 28:0.9 29:0.9 30:0.9 
1.0 1:0.9 2:0.9 3:0.9 4:0.9 5:0.9 6:0.9 7:0.9 8:0.9 9:0.9 10:0.9 11:0.1 12:0.9 13:0.9 14:0.9 15:0.9 16:0.9 17:0.9 18:0.9 19:0.9 20:0.9 21:0.9 22:0.9 23:0.9 24:0.9 25:0.9 26:0.9 27:0.9 28:0.9 29:0.9 30:0.9 
-1.0 1:0.9 2:0.9 3:0.9 4:0.9 5:0.9 6:0.9 7:0.9 8:0.9 9:0.9 10:0.9 11:0.9 12:0.9 13:0.9 14:0.9 15:0.9 16:0.9 17:0.9 18:0.9 19:0.9 20:0.9 21:0.9 22:0.9 23:0.9 24:0.9 25:0.9 26:0.9 27:0.9 28:0.9 29:0.9 30:0.9 
1.0 1:0.9 2:0.9 3:0.9 4:0.9 5:0.9 6:0.9 7:0.9 8:0.9 9:0.9 10:0.9 11:0.9 12:0.9 13:0.9 14:0.9 15:0.9 16:0.9 17:0.9 18:0.9 19:0.9 20:0.9 21:0.9 22:0.9 23:0.9 24:0.9 25:0.9 26:0.1 27:0.9 28:0.9 29:0.9 30:0.9 
-1.0 1:0.9 2:0.9 3:0.9 4:0.9 5:0.9 6:0.9 7:0.9 8:0.9 9:0.9 10:0.9 11:0.9 12:0.9 13:0.9 14:0.9 15:0.9 16:0.1 17:0.9 18:0.9 19:0.9 20:0.9 21:0.9 22:0.9 23:0.9 24:0.9 25:0.9 26:0.9 27:0.9 28:0.9 29:0.9 30:0.9 
0.6230674129314016 1:0.9 2:0.9 3:0.9 4:0.9 5:0.9 6:0.9 7:0.9 8:0.9 9:0.9 10:0.9 11:0.1 12:0.9 13:0.9 14:0.9 15:0.9 16:0.9 17:0.9 18:0.9 19:0.9 20:0.9 21:0.9 22:0.9 23:0.9 24:0.9 25:0.9 26:0.1 27:0.9 28:0.9 29:0.9 30:0.9 
1.0 1:0.9 2:0.9 3:0.9 4:0.9 5:0.9 6:0.1 7:0.9 8:0.9 9:0.9 10:0.9 11:0.9 12:0.9 13:0.9 14:0.9 15:0.9 16:0.9 17:0.9 18:0.9 19:0.9 20:0.9 21:0.1 22:0.9 23:0.9 24:0.9 25:0.9 26:0.9 27:0.9 28:0.9 29:0.9 30:0.9 
-1.0 1:0.1 2:0.9 3:0.9 4:0.9 5:0.9 6:0.9 7:0.9 8:0.9 9:0.9 10:0.9 11:0.9 12:0.9 13:0.9 14:0.9 15:0.9 16:0.1 17:0.9 18:0.9 19:0.9 20:0.9 21:0.9 22:0.9 23:0.9 24:0.9 25:0.9 26:0.9 27:0.9 28:0.9 29:0.9 30:0.9 
0.9820648618733148 1:0.9 2:0.9 3:0.9 4:0.9 5:0.9 6:0.1 7:0.9 8:0.9 9:0.9 10:0.9 11:0.9 12:0.9 13:0.9 14:0.9 15:0.9 16:0.9 17:0.9 18:0.9 19:0.9 20:0.9 21:0.1 22:0.9 23:0.9 24:0.9 25:0.9 26:0.9 27:0.9 28:0.9 29:0.9 30:0.9 
1.0 1:0.1 2:0.9 3:0.9 4:0.9 5:0.9 6:0.9 7:0.9 8:0.9 9:0.9 10:0.9 11:0.9 12:0.9 13:0.9 14:0.9 15:0.9 16:0.1 17:0.9 18:0.9 19:0.9 20:0.9 21:0.9 22:0.9 23:0.9 24:0.9 25:0.9 26:0.9 27:0.9 28:0.9 29:0.9 30:0.9 
1.0 1:0.9 2:0.9 3:0.9 4:0.9 5:0.9 6:0.9 7:0.9 8:0.9 9:0.9 10:0.9 11:0.1 12:0.9 13:0.9 14:0.9 15:0.9 16:0.9 17:0.9 18:0.9 19:0.9 20:0.9 21:0.9 22:0.9 23:0.9 24:0.9 25:0.9 26:0.9 27:0.9 28:0.9 29:0.9 30:0.9 
-1.0 1:0.9 2:0.9 3:0.9 4:0.9 5:0.9 6:0.9 7:0.9 8:0.9 9:0.9 10:0.9 11:0.9 12:0.9 13:0.9 14:0.9 15:0.9 16:0.9 17:0.9 18:0.9 19:0.9 20:0.9 21:0.9 22:0.9 23:0.9 24:0.9 25:0.9 26:0.9 27:0.9 28:0.9 29:0.9 30:0.9 
1.0 1:0.9 2:0.9 3:0.9 4:0.9 5:0.9 6:0.9 7:0.9 8:0.9 9:0.9 10:0.9 11:0.9 12:0.9 13:0.9 14:0.9 15:0.9 16:0.9 17:0.9 18:0.9 19:0.9 20:0.9 21:0.9 22:0.9 23:0.9 24:0.9 25:0.9 26:0.1 27:0.9 28:0.9 29:0.9 30:0.9 
-1.0 1:0.9 2:0.9 3:0.9 4:0.9 5:0.9 6:0.9 7:0.9 8:0.9 9:0.9 10:0.9 11:0.1 12:0.9 13:0.9 14:0.9 15:0.9 16:0.9 17:0.9 18:0.9 19:0.9 20:0.9 21:0.9 22:0.9 23:0.9 24:0.9 25:0.9 26:0.9 27:0.9 28:0.9 29:0.9 30:0.9 
1.0 1:0.9 2:0.9 3:0.9 4:0.9 5:0.9 6:0.1 7:0.9 8:0.9 9:0.9 10:0.9 11:0.9 12:0.9 13:0.9 14:0.9 15:0.9 16:0.9 17:0.9 18:0.9 19:0.9 20:0.9 21:0.9 22:0.9 23:0.9 24:0.9 25:0.9 26:0.1 27:0.9 28:0.9 29:0.9 30:0.9 
0.6158670532643483 1:0.9 2:0.9 3:0.9 4:0.9 5:0.1 6:0.9 7:0.9 8:0.9 9:0.9 10:0.9 11:0.9 12:0.9 13:0.9 14:0.9 15:0.9 16:0.9 17:0.9 18:0.9 19:0.9 20:0.9 21:0.9 22:0.9 23:0.9 24:0.9 25:0.1 26:0.9 27:0.9 28:0.9 29:0.9 30:0.9 
1.0 1:0.9 2:0.9 3:0.9 4:0.9 5:0.9 6:0.9 7:0.9 8:0.9 9:0.9 10:0.9 11:0.9 12:0.9 13:0.9 14:0.9 15:0.9 16:0.1 17:0.9 18:0.9 19:0.9 20:0.9 21:0.9 22:0.9 23:0.9 24:0.9 25:0.9 26:0.9 27:0.9 28:0.9 29:0.9 30:0.9 
1.0 1:0.9 2:0.9 3:0.9 4:0.9 5:0.9 6:0.9 7:0.9 8:0.9 9:0.9 10:0.9 11:0.1 12:0.9 13:0.9 14:0.9 15:0.9 16:0.9 17:0.9 18:0.9 19:0.9 20:0.9 21:0.9 22:0.9 23:0.9 24:0.9 25:0.9 26:0.9 27:0.9 28:0.9 29:0.9 30:0.9 
1.0 1:0.9 2:0.9 3:0.9 4:0.9 5:0.9 6:0.9 7:0.1 8:0.9 9:0.9 10:0.9 11:0.9 12:0.9 13:0.9 14:0.9 15:0.9 16:0.9 17:0.9 18:0.9 19:0.9 20:0.9 21:0.9 22:0.9 23:0.9 24:0.9 25:0.9 26:0.9 27:0.9 28:0.9 29:0.9 30:0.9 
0.2299979064402143 1:0.9 2:0.9 3:0.9 4:0.9 5:0.1 6:0.9 7:0.9 8:0.9 9:0.9 10:0.9 11:0.9 12:0.9 13:0.9 14:0.9 15:0.9 16:0.9 17:0.9 18:0.9 19:0.9 20:0.9 21:0.9 22:0.9 23:0.9 24:0.9 25:0.9 26:0.9 27:0.9 28:0.9 29:0.9 30:0.9 
-1.0 1:0.9 2:0.9 3:0.9 4:0.9 5:0.9 6:0.9 7:0.9 8:0.9 9:0.9 10:0.9 11:0.9 12:0.9 13:0.9 14:0.9 15:0.9 16:0.9 17:0.9 18:0.9 19:0.9 20:0.9 21:0.9 22:0.9 23:0.9 24:0.9 25:0.9 26:0.9 27:0.9 28:0.9 29:0.9 30:0.9 
1.0 1:0.9 2:0.9 3:0.9 4:0.9 5:0.9 6:0.9 7:0.9 8:0.9 9:0.9 10:0.9 11:0.9 12:0.9 13:0.9 14:0.9 15:0.9 16:0.9 17:0.9 18:0.9 19:0.9 20:0.9 21:0.9 22:0.9 23:0.9 24:0.9 25:0.9 26:0.1 27:0.9 28:0.9 29:0.9 30:0.9 
-1.0 1:0.9 2:0.9 3:0.9 4:0.9 5:0.9 6:0.9 7:0.9 8:0.9 9:0.9 10:0.9 11:0.9 12:0.9 13:0.9 14:0.9 15:0.9 16:0.9 17:0.9 18:0.9 19:0.9 20:0.1 21:0.9 22:0.9 23:0.9 24:0.9 25:0.9 26:0.9 27:0.9 28:0.9 29:0.9 30:0.9 
1.0 1:0.9 2:0.9 3:0.9 4:0.9 5:0.9 6:0.9 7:0.9 8:0.9 9:0.9 10:0.9 11:0.9 12:0.9 13:0.9 14:0.9 15:0.1 16:0.9 17:0.9 18:0.9 19:0.9 20:0.9 21:0.9 22:0.9 23:0.9 24:0.9 25:0.9 26:0.1 27:0.9 28:0.9 29:0.9 30:0.9 
0.014379849963724467 1:0.9 2:0.9 3:0.9 4:0.9 5:0.9 6:0.9 7:0.9 8:0.9 9:0.9 10:0.9 11:0.9 12:0.9 13:0.9 14:0.1 15:0.9 16:0.9 17:0.9 18:0.9 19:0.9 20:0.9 21:0.9 22:0.9 23:0.9 24:0.9 25:0.1 26:0.9 27:0.9 28:0.9 29:0.9 30:0.9 
-1.0 1:0.9 2:0.9 3:0.9 4:0.9 5:0.1 6:0.9 7:0.9 8:0.9 9:0.9 10:0.9 11:0.9 12:0.9 13:0.9 14:0.9 15:0.9 16:0.1 17:0.9 18:0.9 19:0.9 20:0.9 21:0.9 22:0.9 23:0.9 24:0.9 25:0.9 26:0.9 27:0.9 28:0.9 29:0.9 30:0.9 
-1.0 1:0.9 2:0.9 3:0.9 4:0.9 5:0.9 6:0.9 7:0.9 8:0.9 9:0.9 10:0.9 11:0.1 12:0.9 13:0.9 14:0.9 15:0.9 16:0.9 17:0.9 18:0.9 19:0.9 20:0.9 21:0.9 22:0.9 23:0.9 24:0.9 25:0.9 26:0.1 27:0.9 28:0.9 29:0.9 30:0.9 
1.0 1:0.9 2:0.9 3:0.9 4:0.9 5:0.9 6:0.1 7:0.9 8:0.9 9:0.9 10:0.9 11:0.9 12:0.9 13:0.9 14:0.9 15:0.9 16:0.9 17:0.9 18:0.9 19:0.9 20:0.9 21:0.1 22:0.9 23:0.9 24:0.9 25:0.9 26:0.1 27:0.9 28:0.9 29:0.9 30:0.9 
1.0 1:0.1 2:0.9 3:0.9 4:0.9 5:0.9 6:0.9 7:0.9 8:0.9 9:0.9 10:0.9 11:0.9 12:0.9 13:0.9 14:0.9 15:0.9 16:0.1 17:0.9 18:0.9 19:0.9 20:0.9 21:0.1 22:0.9 23:0.9 24:0.9 25:0.9 26:0.9 27:0.9 28:0.9 29:0.9 30:0.9 
-1.0 1:0.9 2:0.9 3:0.9 4:0.9 5:0.9 6:0.9 7:0.9 8:0.9 9:0.9 10:0.9 11:0.1 12:0.9 13:0.9 14:0.9 15:0.9 16:0.1 17:0.9 18:0.9 19:0.9 20:0.9 21:0.9 22:0.9 23:0.9 24:0.9 25:0.9 26:0.9 27:0.9 28:0.9 29:0.9 30:0.9 
1.0 1:0.1 2:0.9 3:0.9 4:0.9 5:0.9 6:0.1 7:0.9 8:0.9 9:0.9 10:0.9 11:0.9 12:0.9 13:0.9 14:0.9 15:0.9 16:0.9 17:0.9 18:0.9 19:0.9 20:0.9 21:0.1 22:0.9 23:0.9 24:0.9 25:0.9 26:0.9 27:0.9 28:0.9 29:0.9 30:0.9 
1.0 1:0.1 2:0.9 3:0.9 4:0.9 5:0.9 6:0.9 7:0.9 8:0.9 9:0.9 10:0.9 11:0.9 12:0.9 13:0.9 14:0.9 15:0.9 16:0.1 17:0.9 18:0.9 19:0.9 20:0.9 21:0.9 22:0.9 23:0.9 24:0.9 25:0.9 26:0.9 27:0.9 28:0.9 29:0.9 30:0.9 
-1.0 1:0.9 2:0.9 3:0.9 4:0.9 5:0.9 6:0.9 7:0.9 8:0.9 9:0.9 10:0.9 11:0.9 12:0.9 13:0.1 14:0.9 15:0.9 16:0.9 17:0.9 18:0.9 19:0.9 20:0.9 21:0.9 22:0.9 23:0.9 24:0.9 25:0.9 26:0.9 27:0.9 28:0.9 29:0.9 30:0.9 
0.4363454023328317 1:0.9 2:0.9 3:0.9 4:0.9 5:0.9 6:0.9 7:0.9 8:0.1 9:0.9 10:0.9 11:0.9 12:0.9 13:0.9 14:0.9 15:0.9 16:0.9 17:0.9 18:0.9 19:0.9 20:0.9 21:0.9 22:0.9 23:0.9 24:0.9 25:0.9 26:0.1 27:0.9 28:0.9 29:0.9 30:0.9 
1.0 1:0.9 2:0.9 3:0.1 4:0.9 5:0.9 6:0.9 7:0.9 8:0.9 9:0.9 10:0.9 11:0.9 12:0.9 13:0.9 14:0.9 15:0.9 16:0.9 17:0.9 18:0.9 19:0.9 20:0.9 21:0.1 22:0.9 23:0.9 24:0.9 25:0.9 26:0.9 27:0.9 28:0.9 29:0.9 30:0.9 
-1.0 1:0.9 2:0.9 3:0.9 4:0.9 5:0.9 6:0.9 7:0.9 8:0.9 9:0.9 10:0.9 11:0.9 12:0.9 13:0.9 14:0.9 15:0.9 16:0.1 17:0.9 18:0.9 19:0.9 20:0.9 21:0.9 22:0.9 23:0.9 24:0.9 25:0.9 26:0.9 27:0.9 28:0.9 29:0.9 30:0.9 
-1.0 1:0.9 2:0.9 3:0.9 4:0.9 5:0.9 6:0.1 7:0.9 8:0.9 9:0.9 10:0.9 11:0.9 12:0.9 13:0.9 14:0.9 15:0.9 16:0.9 17:0.9 18:0.9 19:0.9 20:0.9 21:0.1 22:0.9 23:0.9 24:0.9 25:0.9 26:0.9 27:0.9 28:0.9 29:0.9 30:0.9 
1.0 1:0.1 2:0.9 3:0.9 4:0.9 5:0.9 6:0.9 7:0.9 8:0.9 9:0.9 10:0.9 11:0.9 12:0.9 13:0.9 14:0.9 15:0.9 16:0.1 17:0.9 18:0.9 19:0.9 20:0.9 21:0.9 22:0.9 23:0.9 24:0.9 25:0.9 26:0.1 27:0.9 28:0.9 29:0.9 30:0.9 
1.0 1:0.9 2:0.9 3:0.9 4:0.9 5:0.9 6:0.9 7:0.9 8:0.9 9:0.9 10:0.9 11:0.1 12:0.9 13:0.9 14:0.9 15:0.9 16:0.9 17:0.9 18:0.9 19:0.9 20:0.9 21:0.1 22:0.9 23:0.9 24:0.9 25:0.9 26:0.9 27:0.9 28:0.9 29:0.9 30:0.9 
1.0 1:0.9 2:0.9 3:0.9 4:0.9 5:0.9 6:0.1 7:0.9 8:0.9 9:0.9 10:0.9 11:0.9 12:0.9 13:0.9 14:0.9 15:0.9 16:0.1 17:0.9 18:0.9 19:0.9 20:0.9 21:0.9 22:0.9 23:0.9 24:0.9 25:0.9 26:0.9 27:0.9 28:0.9 29:0.9 30:0.9 
-1.0 1:0.9 2:0.9 3:0.9 4:0.9 5:0.9 6:0.9 7:0.1 8:0.9 9:0.9 10:0.9 11:0.9 12:0.9 13:0.9 14:0.9 15:0.9 16:0.9 17:0.9 18:0.9 19:0.9 20:0.9 21:0.9 22:0.9 23:0.9 24:0.9 25:0.9 26:0.9 27:0.9 28:0.9 29:0.9 30:0.9 
0.10003628658675132 1:0.9 2:0.9 3:0.9 4:0.9 5:0.9 6:0.9 7:0.9 8:0.9 9:0.9 10:0.9 11:0.9 12:0.9 13:0.9 14:0.9 15:0.9 16:0.9 17:0.9 18:0.9 19:0.9 20:0.9 21:0.1 22:0.9 23:0.9 24:0.9 25:0.9 26:0.9 27:0.9 28:0.9 29:0.9 30:0.9 
1.0 1:0.9 2:0.9 3:0.9 4:0.9 5:0.9 6:0.9 7:0.9 8:0.9 9:0.9 10:0.9 11:0.9 12:0.9 13:0.9 14:0.9 15:0.9 16:0.1 17:0.9 18:0.9 19:0.9 20:0.9 21:0.9 22:0.9 23:0.9 24:0.9 25:0.9 26:0.9 27:0.9 28:0.9 29:0.9 30:0.9 
1.0 1:0.9 2:0.9 3:0.9 4:0.9 5:0.9 6:0.9 7:0.9 8:0.9 9:0.9 10:0.9 11:0.1 12:0.9 13:0.9 14:0.9 15:0.9 16:0.9 17:0.9 18:0.9 19:0.9 20:0.9 21:0.9 22:0.9 23:0.9 24:0.9 25:0.9 26:0.9 27:0.9 28:0.9 29:0.9 30:0.9 
1.0 1:0.9 2:0.9 3:0.9 4:0.9 5:0.9 6:0.9 7:0.9 8:0.1 9:0.9 10:0.9 11:0.9 12:0.9 13:0.9 14:0.9 15:0.9 16:0.9 17:0.9 18:0.9 19:0.9 20:0.9 21:0.9 22:0.9 23:0.9 24:0.9 25:0.9 26:0.9 27:0.9 28:0.9 29:0.9 30:0.9 
-1.0 1:0.9 2:0.9 3:0.9 4:0.9 5:0.9 6:0.9 7:0.1 8:0.9 9:0.9 10:0.9 11:0.9 12:0.9 13:0.9 14:0.9 15:0.9 16:0.9 17:0.9 18:0.9 19:0.9 20:0.9 21:0.9 22:0.9 23:0.9 24:0.9 25:0.9 26:0.9 27:0.9 28:0.9 29:0.9 30:0.9 
1.0 1:0.9 2:0.9 3:0.9 4:0.9 5:0.9 6:0.9 7:0.9 8:0.9 9:0.9 10:0.9 11:0.9 12:0.9 13:0.9 14:0.9 15:0.9 16:0.9 17:0.9 18:0.9 19:0.9 20:0.9 21:0.1 22:0.9 23:0.9 24:0.9 25:0.9 26:0.9 27:0.9 28:0.9 29:0.9 30:0.9 
1.0 1:0.9 2:0.9 3:0.9 4:0.9 5:0.9 6:0.9 7:0.9 8:0.9 9:0.9 10:0.9 11:0.9 12:0.9 13:0.9 14:0.9 15:0.9 16:0.9 17:0.9 18:0.9 19:0.9 20:0.1 21:0.9 22:0.9 23:0.9 24:0.9 25:0.9 26:0.9 27:0.9 28:0.9 29:0.9 30:0.9 
0.7431779336973983 1:0.9 2:0.9 3:0.9 4:0.9 5:0.9 6:0.9 7:0.9 8:0.9 9:0.9 10:0.9 11:0.9 12:0.9 13:0.9 14:0.9 15:0.9 16:0.1 17:0.9 18:0.9 19:0.9 20:0.9 21:0.9 22:0.9 23:0.9 24:0.9 25:0.9 26:0.9 27:0.9 28:0.9 29:0.9 30:0.9 
1.0 1:0.9 2:0.9 3:0.9 4:0.9 5:0.9 6:0.9 7:0.9 8:0.9 9:0.9 10:0.9 11:0.9 12:0.9 13:0.1 14:0.9 15:0.9 16:0.9 17:0.9 18:0.9 19:0.9 20:0.9 21:0.9 22:0.9 23:0.9 24:0.9 25:0.9 26:0.9 27:0.9 28:0.9 29:0.9 30:0.9 
1.0 1:0.9 2:0.9 3:0.9 4:0.9 5:0.9 6:0.9 7:0.9 8:0.9 9:0.9 10:0.9 11:0.1 12:0.9 13:0.9 14:0.9 15:0.9 16:0.9 17:0.9 18:0.9 19:0.9 20:0.9 21:0.9 22:0.9 23:0.9 24:0.9 25:0.9 26:0.9 27:0.9 28:0.9 29:0.9 30:0.9 
0.8161765793611274 1:0.9 2:0.9 3:0.9 4:0.9 5:0.9 6:0.9 7:0.9 8:0.1 9:0.9 10:0.9 11:0.9 12:0.9 13:0.9 14:0.9 15:0.9 16:0.9 17:0.9 18:0.9 19:0.9 20:0.9 21:0.9 22:0.9 23:0.9 24:0.9 25:0.9 26:0.9 27:0.9 28:0.9 29:0.9 30:0.9 
1.0 1:0.9 2:0.9 3:0.9 4:0.9 5:0.9 6:0.9 7:0.1 8:0.9 9:0.9 10:0.9 11:0.9 12:0.9 13:0.9 14:0.9 15:0.9 16:0.9 17:0.9 18:0.9 19:0.9 20:0.9 21:0.9 22:0.9 23:0.9 24:0.9 25:0.9 26:0.9 27:0.9 28:0.9 29:0.9 30:0.9 
1.0 1:0.9 2:0.9 3:0.9 4:0.9 5:0.1 6:0.9 7:0.9 8:0.9 9:0.9 10:0.9 11:0.9 12:0.9 13:0.9 14:0.9 15:0.9 16:0.9 17:0.9 18:0.9 19:0.9 20:0.9 21:0.9 22:0.9 23:0.9 24:0.9 25:0.9 26:0.9 27:0.9 28:0.9 29:0.9 30:0.9 
0.9353432179343387 1:0.9 2:0.9 3:0.1 4:0.9 5:0.9 6:0.9 7:0.9 8:0.9 9:0.9 10:0.9 11:0.9 12:0.9 13:0.9 14:0.9 15:0.9 16:0.9 17:0.9 18:0.9 19:0.9 20:0.9 21:0.9 22:0.9 23:0.9 24:0.9 25:0.9 26:0.9 27:0.9 28:0.9 29:0.9 30:0.9 
1.0 1:0.9 2:0.9 3:0.9 4:0.9 5:0.9 6:0.9 7:0.9 8:0.9 9:0.9 10:0.9 11:0.9 12:0.9 13:0.9 14:0.9 15:0.9 16:0.9 17:0.9 18:0.9 19:0.9 20:0.9 21:0.9 22:0.9 23:0.9 24:0.9 25:0.9 26:0.9 27:0.9 28:0.9 29:0.9 30:0.9 
1.0 1:0.9 2:0.9 3:0.9 4:0.9 5:0.9 6:0.9 7:0.9 8:0.9 9:0.9 10:0.9 11:0.9 12:0.9 13:0.9 14:0.9 15:0.9 16:0.9 17:0.9 18:0.9 19:0.9 20:0.9 21:0.9 22:0.9 23:0.9 24:0.9 25:0.9 26:0.9 27:0.9 28:0.9 29:0.9 30:0.9 
1.0 1:0.9 2:0.9 3:0.9 4:0.9 5:0.9 6:0.9 7:0.9 8:0.9 9:0.9 10:0.9 11:0.9 12:0.9 13:0.9 14:0.9 15:0.9 16:0.9 17:0.9 18:0.9 19:0.9 20:0.9 21:0.9 22:0.9 23:0.9 24:0.9 25:0.9 26:0.9 27:0.9 28:0.9 29:0.9 30:0.9 
1.0 1:0.9 2:0.9 3:0.9 4:0.9 5:0.9 6:0.9 7:0.9 8:0.9 9:0.9 10:0.9 11:0.9 12:0.9 13:0.9 14:0.9 15:0.9 16:0.9 17:0.9 18:0.9 19:0.9 20:0.9 21:0.9 22:0.9 23:0.9 24:0.9 25:0.9 26:0.9 27:0.9 28:0.9 29:0.9 30:0.9 
1.0 1:0.9 2:0.9 3:0.9 4:0.9 5:0.9 6:0.9 7:0.9 8:0.9 9:0.9 10:0.9 11:0.9 12:0.9 13:0.9 14:0.9 15:0.9 16:0.9 17:0.9 18:0.9 19:0.9 20:0.9 21:0.9 22:0.9 23:0.9 24:0.9 25:0.9 26:0.9 27:0.9 28:0.9 29:0.9 30:0.9 
1.0 1:0.9 2:0.9 3:0.9 4:0.9 5:0.9 6:0.9 7:0.9 8:0.9 9:0.9 10:0.9 11:0.9 12:0.9 13:0.9 14:0.9 15:0.9 16:0.9 17:0.9 18:0.9 19:0.9 20:0.9 21:0.9 22:0.9 23:0.9 24:0.9 25:0.9 26:0.9 27:0.9 28:0.9 29:0.9 30:0.9 
1.0 1:0.9 2:0.9 3:0.9 4:0.9 5:0.9 6:0.9 7:0.9 8:0.9 9:0.9 10:0.9 11:0.9 12:0.9 13:0.9 14:0.9 15:0.9 16:0.9 17:0.9 18:0.9 19:0.9 20:0.9 21:0.9 22:0.9 23:0.9 24:0.9 25:0.9 26:0.9 27:0.9 28:0.9 29:0.9 30:0.9 
0.007603056005582424 1:0.9 2:0.9 3:0.9 4:0.9 5:0.9 6:0.9 7:0.9 8:0.9 9:0.9 10:0.9 11:0.9 12:0.9 13:0.9 14:0.9 15:0.9 16:0.9 17:0.9 18:0.9 19:0.9 20:0.9 21:0.9 22:0.9 23:0.9 24:0.9 25:0.9 26:0.9 27:0.9 28:0.9 29:0.9 30:0.9 
-1.0 1:0.9 2:0.9 3:0.9 4:0.9 5:0.9 6:0.9 7:0.9 8:0.9 9:0.9 10:0.9 11:0.9 12:0.9 13:0.9 14:0.9 15:0.9 16:0.9 17:0.9 18:0.9 19:0.9 20:0.9 21:0.9 22:0.9 23:0.9 24:0.9 25:0.9 26:0.9 27:0.9 28:0.9 29:0.9 30:0.9 
1.0 1:0.9 2:0.9 3:0.9 4:0.9 5:0.9 6:0.9 7:0.9 8:0.9 9:0.9 10:0.9 11:0.9 12:0.9 13:0.9 14:0.9 15:0.9 16:0.9 17:0.9 18:0.9 19:0.9 20:0.9 21:0.9 22:0.9 23:0.9 24:0.9 25:0.9 26:0.1 27:0.9 28:0.9 29:0.9 30:0.9 
1.0 1:0.9 2:0.9 3:0.9 4:0.9 5:0.9 6:0.9 7:0.9 8:0.9 9:0.9 10:0.9 11:0.9 12:0.9 13:0.9 14:0.9 15:0.9 16:0.9 17:0.9 18:0.9 19:0.9 20:0.9 21:0.1 22:0.9 23:0.9 24:0.9 25:0.9 26:0.9 27:0.9 28:0.9 29:0.9 30:0.9 
-1.0 1:0.9 2:0.9 3:0.9 4:0.9 5:0.9 6:0.9 7:0.9 8:0.9 9:0.9 10:0.9 11:0.9 12:0.9 13:0.9 14:0.9 15:0.9 16:0.9 17:0.9 18:0.9 19:0.9 20:0.1 21:0.9 22:0.9 23:0.9 24:0.9 25:0.9 26:0.9 27:0.9 28:0.9 29:0.9 30:0.9 
0.09606285468642435 1:0.9 2:0.9 3:0.9 4:0.9 5:0.9 6:0.9 7:0.9 8:0.9 9:0.9 10:0.9 11:0.9 12:0.9 13:0.9 14:0.9 15:0.9 16:0.1 17:0.9 18:0.9 19:0.9 20:0.9 21:0.9 22:0.9 23:0.9 24:0.9 25:0.9 26:0.9 27:0.1 28:0.9 29:0.9 30:0.9 
-1.0 1:0.9 2:0.9 3:0.9 4:0.9 5:0.9 6:0.9 7:0.9 8:0.9 9:0.9 10:0.9 11:0.9 12:0.9 13:0.9 14:0.9 15:0.1 16:0.9 17:0.9 18:0.9 19:0.9 20:0.9 21:0.9 22:0.9 23:0.9 24:0.9 25:0.9 26:0.1 27:0.9 28:0.9 29:0.9 30:0.9 
0.01507707644138269 1:0.9 2:0.9 3:0.9 4:0.9 5:0.9 6:0.9 7:0.9 8:0.9 9:0.9 10:0.9 11:0.1 12:0.9 13:0.9 14:0.9 15:0.9 16:0.9 17:0.9 18:0.9 19:0.9 20:0.9 21:0.9 22:0.1 23:0.9 24:0.9 25:0.9 26:0.9 27:0.1 28:0.9 29:0.9 30:0.9 
0.14109153410740882 1:0.9 2:0.9 3:0.9 4:0.9 5:0.9 6:0.9 7:0.9 8:0.9 9:0.9 10:0.1 11:0.9 12:0.9 13:0.9 14:0.9 15:0.9 16:0.9 17:0.9 18:0.9 19:0.9 20:0.9 21:0.1 22:0.9 23:0.9 24:0.9 25:0.9 26:0.1 27:0.9 28:0.9 29:0.9 30:0.9 
-1.0 1:0.9 2:0.9 3:0.9 4:0.9 5:0.1 6:0.9 7:0.9 8:0.9 9:0.9 10:0.9 11:0.9 12:0.9 13:0.9 14:0.9 15:0.9 16:0.1 17:0.9 18:0.9 19:0.9 20:0.9 21:0.1 22:0.9 23:0.9 24:0.9 25:0.9 26:0.9 27:0.9 28:0.9 29:0.9 30:0.9 
-1.0 1:0.9 2:0.9 3:0.9 4:0.9 5:0.9 6:0.1 7:0.9 8:0.9 9:0.9 10:0.9 11:0.1 12:0.9 13:0.9 14:0.9 15:0.9 16:0.9 17:0.9 18:0.9 19:0.9 20:0.9 21:0.1 22:0.9 23:0.9 24:0.9 25:0.9 26:0.9 27:0.9 28:0.9 29:0.9 30:0.9 
-1.0 1:0.1 2:0.9 3:0.9 4:0.9 5:0.9 6:0.1 7:0.9 8:0.9 9:0.9 10:0.9 11:0.9 12:0.9 13:0.9 14:0.9 15:0.9 16:0.1 17:0.9 18:0.9 19:0.9 20:0.9 21:0.9 22:0.9 23:0.9 24:0.9 25:0.9 26:0.1 27:0.9 28:0.9 29:0.9 30:0.9 
-1.0 1:0.1 2:0.9 3:0.9 4:0.9 5:0.9 6:0.9 7:0.9 8:0.9 9:0.9 10:0.9 11:0.1 12:0.9 13:0.9 14:0.9 15:0.9 16:0.9 17:0.9 18:0.9 19:0.9 20:0.9 21:0.1 22:0.9 23:0.9 24:0.9 25:0.9 26:0.1 27:0.9 28:0.9 29:0.9 30:0.9 
-1.0 1:0.9 2:0.9 3:0.9 4:0.9 5:0.9 6:0.1 7:0.9 8:0.9 9:0.9 10:0.9 11:0.9 12:0.9 13:0.9 14:0.9 15:0.9 16:0.1 17:0.9 18:0.9 19:0.9 20:0.9 21:0.1 22:0.9 23:0.9 24:0.9 25:0.9 26:0.1 27:0.9 28:0.9 29:0.9 30:0.9 
1.0 1:0.1 2:0.9 3:0.9 4:0.9 5:0.9 6:0.9 7:0.9 8:0.9 9:0.9 10:0.9 11:0.1 12:0.9 13:0.9 14:0.9 15:0.9 16:0.1 17:0.9 18:0.9 19:0.9 20:0.9 21:0.1 22:0.9 23:0.9 24:0.9 25:0.9 26:0.1 27:0.9 28:0.9 29:0.9 30:0.9 
0.8151871523419227 1:0.9 2:0.9 3:0.9 4:0.9 5:0.9 6:0.1 7:0.9 8:0.9 9:0.9 10:0.9 11:0.1 12:0.9 13:0.9 14:0.9 15:0.9 16:0.1 17:0.9 18:0.9 19:0.9 20:0.9 21:0.1 22:0.9 23:0.9 24:0.9 25:0.9 26:0.9 27:0.9 28:0.9 29:0.9 30:0.9 
0.06949226894893754 1:0.1 2:0.9 3:0.9 4:0.9 5:0.9 6:0.1 7:0.9 8:0.9 9:0.9 10:0.9 11:0.1 12:0.9 13:0.9 14:0.9 15:0.9 16:0.1 17:0.9 18:0.9 19:0.9 20:0.9 21:0.9 22:0.9 23:0.9 24:0.9 25:0.9 26:0.9 27:0.9 28:0.9 29:0.9 30:0.9 
0.8631181168800598 1:0.1 2:0.9 3:0.9 4:0.9 5:0.9 6:0.1 7:0.9 8:0.9 9:0.9 10:0.9 11:0.1 12:0.9 13:0.9 14:0.9 15:0.9 16:0.9 17:0.9 18:0.9 19:0.9 20:0.9 21:0.9 22:0.9 23:0.9 24:0.9 25:0.9 26:0.9 27:0.9 28:0.9 29:0.9 30:0.9 
1.0 1:0.9 2:0.9 3:0.1 4:0.9 5:0.9 6:0.9 7:0.9 8:0.1 9:0.9 10:0.9 11:0.9 12:0.9 13:0.9 14:0.9 15:0.9 16:0.9 17:0.9 18:0.9 19:0.9 20:0.9 21:0.9 22:0.9 23:0.9 24:0.9 25:0.9 26:0.9 27:0.9 28:0.9 29:0.9 30:0.9 
-1.0 1:0.1 2:0.9 3:0.9 4:0.9 5:0.9 6:0.1 7:0.9 8:0.9 9:0.9 10:0.9 11:0.9 12:0.9 13:0.9 14:0.9 15:0.9 16:0.9 17:0.9 18:0.9 19:0.9 20:0.9 21:0.9 22:0.9 23:0.9 24:0.9 25:0.9 26:0.9 27:0.9 28:0.9 29:0.9 30:0.9 
0.7756554402409667 1:0.1 2:0.9 3:0.9 4:0.9 5:0.9 6:0.9 7:0.9 8:0.9 9:0.9 10:0.9 11:0.9 12:0.9 13:0.9 14:0.9 15:0.9 16:0.9 17:0.9 18:0.9 19:0.9 20:0.9 21:0.9 22:0.9 23:0.9 24:0.9 25:0.9 26:0.1 27:0.9 28:0.9 29:0.9 30:0.9 
0.056299457962358024 1:0.9 2:0.9 3:0.9 4:0.9 5:0.9 6:0.9 7:0.9 8:0.9 9:0.9 10:0.9 11:0.9 12:0.9 13:0.9 14:0.9 15:0.9 16:0.9 17:0.9 18:0.9 19:0.9 20:0.9 21:0.9 22:0.9 23:0.9 24:0.9 25:0.1 26:0.9 27:0.9 28:0.9 29:0.9 30:0.9 
1.0 1:0.9 2:0.9 3:0.9 4:0.9 5:0.9 6:0.9 7:0.9 8:0.9 9:0.9 10:0.9 11:0.9 12:0.9 13:0.9 14:0.9 15:0.9 16:0.9 17:0.9 18:0.9 19:0.9 20:0.9 21:0.1 22:0.9 23:0.9 24:0.9 25:0.9 26:0.9 27:0.9 28:0.9 29:0.9 30:0.9 
1.0 1:0.9 2:0.9 3:0.9 4:0.9 5:0.9 6:0.9 7:0.9 8:0.9 9:0.9 10:0.9 11:0.9 12:0.9 13:0.9 14:0.9 15:0.9 16:0.9 17:0.9 18:0.9 19:0.9 20:0.1 21:0.9 22:0.9 23:0.9 24:0.9 25:0.9 26:0.9 27:0.9 28:0.9 29:0.9 30:0.9 
0.09472418087852237 1:0.9 2:0.9 3:0.9 4:0.9 5:0.9 6:0.9 7:0.9 8:0.9 9:0.9 10:0.9 11:0.9 12:0.9 13:0.9 14:0.9 15:0.9 16:0.1 17:0.9 18:0.9 19:0.9 20:0.9 21:0.9 22:0.9 23:0.9 24:0.9 25:0.9 26:0.9 27:0.9 28:0.9 29:0.9 30:0.9 
0.9640827232609404 1:0.9 2:0.9 3:0.9 4:0.9 5:0.9 6:0.9 7:0.9 8:0.9 9:0.9 10:0.9 11:0.9 12:0.9 13:0.9 14:0.1 15:0.9 16:0.9 17:0.9 18:0.9 19:0.9 20:0.9 21:0.9 22:0.9 23:0.9 24:0.9 25:0.9 26:0.9 27:0.9 28:0.9 29:0.9 30:0.9 
1.0 1:0.9 2:0.9 3:0.9 4:0.9 5:0.9 6:0.9 7:0.9 8:0.9 9:0.9 10:0.9 11:0.9 12:0.9 13:0.1 14:0.9 15:0.9 16:0.9 17:0.9 18:0.9 19:0.9 20:0.9 21:0.9 22:0.9 23:0.9 24:0.9 25:0.9 26:0.9 27:0.9 28:0.9 29:0.9 30:0.9 
1.0 1:0.9 2:0.9 3:0.9 4:0.9 5:0.9 6:0.9 7:0.9 8:0.9 9:0.9 10:0.9 11:0.9 12:0.1 13:0.9 14:0.9 15:0.9 16:0.9 17:0.9 18:0.9 19:0.9 20:0.9 21:0.9 22:0.9 23:0.9 24:0.9 25:0.9 26:0.9 27:0.9 28:0.9 29:0.9 30:0.9 
1.0 1:0.9 2:0.9 3:0.9 4:0.9 5:0.9 6:0.9 7:0.9 8:0.9 9:0.9 10:0.9 11:0.1 12:0.9 13:0.9 14:0.9 15:0.9 16:0.9 17:0.9 18:0.9 19:0.9 20:0.9 21:0.9 22:0.9 23:0.9 24:0.9 25:0.9 26:0.9 27:0.9 28:0.9 29:0.9 30:0.9 
-1.0 1:0.9 2:0.9 3:0.9 4:0.9 5:0.9 6:0.9 7:0.9 8:0.1 9:0.9 10:0.9 11:0.9 12:0.9 13:0.9 14:0.9 15:0.9 16:0.9 17:0.9 18:0.9 19:0.9 20:0.9 21:0.9 22:0.9 23:0.9 24:0.9 25:0.9 26:0.9 27:0.9 28:0.9 29:0.9 30:0.9 
0.8578457430453826 1:0.9 2:0.9 3:0.9 4:0.1 5:0.9 6:0.9 7:0.9 8:0.9 9:0.9 10:0.9 11:0.9 12:0.9 13:0.9 14:0.9 15:0.9 16:0.9 17:0.9 18:0.9 19:0.9 20:0.9 21:0.9 22:0.9 23:0.9 24:0.9 25:0.9 26:0.9 27:0.1 28:0.9 29:0.9 30:0.9 
1.0 1:0.9 2:0.9 3:0.1 4:0.9 5:0.9 6:0.9 7:0.9 8:0.9 9:0.9 10:0.9 11:0.9 12:0.9 13:0.9 14:0.9 15:0.9 16:0.9 17:0.9 18:0.9 19:0.9 20:0.9 21:0.9 22:0.9 23:0.9 24:0.9 25:0.9 26:0.1 27:0.9 28:0.9 29:0.9 30:0.9 
