encog,SVM,java,3.1.0,1,1400510058661
[SVM]
[SVM:PARAMS]
[SVM:SVM-PARAM]
inputCount=30
C=1
cacheSize=100
coef0=0
degree=3
eps=0.001
gamma=0.0333333333
kernelType=2
nrWeight=0
nu=0.5
p=0.1
probability=0
shrinking=1
svmType=3
weight=
weightLabel=
[SVM:SVM-MODEL]
svm_type epsilon_svr
kernel_type rbf
gamma 0.03333333333333333
nr_class 2
total_sv 55
rho -0.5307681190541058
SV
1.0 1:0.7000000000000036 2:0.5799999999999986 3:0.5799999999999986 4:0.5799999999999986 5:0.5799999999999986 6:0.5 7:0.5799999999999986 8:0.5799999999999986 9:0.5799999999999986 10:0.5799999999999986 11:0.7000000000000036 12:0.5799999999999986 13:0.5799999999999986 14:0.5799999999999986 15:0.5799999999999986 16:0.5799999999999986 17:0.5799999999999986 18:0.5799999999999986 19:0.5799999999999986 20:0.5799999999999986 21:0.7000000000000036 22:0.5799999999999986 23:0.5799999999999986 24:0.5799999999999986 25:0.5799999999999986 26:0.5799999999999986 27:0.5799999999999986 28:0.5799999999999986 29:0.5799999999999986 30:0.5799999999999986 
-1.0 1:0.7000000000000036 2:0.5799999999999986 3:0.5799999999999986 4:0.5799999999999986 5:0.5799999999999986 6:0.5799999999999986 7:0.5799999999999986 8:0.5799999999999986 9:0.5799999999999986 10:0.5799999999999986 11:0.5799999999999986 12:0.5799999999999986 13:0.5799999999999986 14:0.5799999999999986 15:0.5799999999999986 16:0.5 17:0.5799999999999986 18:0.5799999999999986 19:0.5799999999999986 20:0.5799999999999986 21:0.5799999999999986 22:0.5799999999999986 23:0.5799999999999986 24:0.5799999999999986 25:0.5799999999999986 26:0.5 27:0.5799999999999986 28:0.5799999999999986 29:0.5799999999999986 30:0.5799999999999986 
-0.09426235115643318 1:0.5799999999999986 2:0.5799999999999986 3:0.5799999999999986 4:0.5799999999999986 5:0.5799999999999986 6:0.5799999999999986 7:0.5799999999999986 8:0.5799999999999986 9:0.5799999999999986 10:0.5799999999999986 11:0.5 12:0.5799999999999986 13:0.5799999999999986 14:0.5799999999999986 15:0.5799999999999986 16:0.5799999999999986 17:0.5799999999999986 18:0.5799999999999986 19:0.5799999999999986 20:0.5799999999999986 21:0.5 22:0.5799999999999986 23:0.5799999999999986 24:0.5799999999999986 25:0.5799999999999986 26:0.4200000000000015 27:0.5799999999999986 28:0.5799999999999986 29:0.5799999999999986 30:0.5799999999999986 
1.0 1:0.4200000000000015 2:0.5799999999999986 3:0.5799999999999986 4:0.5799999999999986 5:0.5799999999999986 6:0.4200000000000015 7:0.5799999999999986 8:0.5799999999999986 9:0.5799999999999986 10:0.5799999999999986 11:0.5 12:0.5799999999999986 13:0.5799999999999986 14:0.5799999999999986 15:0.5799999999999986 16:0.4200000000000015 17:0.5799999999999986 18:0.5799999999999986 19:0.5799999999999986 20:0.5799999999999986 21:0.4200000000000015 22:0.5799999999999986 23:0.5799999999999986 24:0.5799999999999986 25:0.5799999999999986 26:0.4200000000000015 27:0.5799999999999986 28:0.5799999999999986 29:0.5799999999999986 30:0.5799999999999986 
-1.0 1:0.5799999999999986 2:0.5799999999999986 3:0.7000000000000036 4:0.5799999999999986 5:0.5799999999999986 6:0.5799999999999986 7:0.5799999999999986 8:0.5 9:0.5799999999999986 10:0.5799999999999986 11:0.5799999999999986 12:0.5799999999999986 13:0.5799999999999986 14:0.5799999999999986 15:0.5799999999999986 16:0.5799999999999986 17:0.5799999999999986 18:0.5799999999999986 19:0.5799999999999986 20:0.5799999999999986 21:0.5 22:0.5799999999999986 23:0.5799999999999986 24:0.5799999999999986 25:0.5799999999999986 26:0.5 27:0.5799999999999986 28:0.5799999999999986 29:0.5799999999999986 30:0.5799999999999986 
-1.0 1:0.5799999999999986 2:0.5799999999999986 3:0.5 4:0.5799999999999986 5:0.5799999999999986 6:0.5799999999999986 7:0.5799999999999986 8:0.5799999999999986 9:0.5799999999999986 10:0.5799999999999986 11:0.5799999999999986 12:0.5799999999999986 13:0.5799999999999986 14:0.5799999999999986 15:0.5799999999999986 16:0.5 17:0.5799999999999986 18:0.5799999999999986 19:0.5799999999999986 20:0.5799999999999986 21:0.5 22:0.5799999999999986 23:0.5799999999999986 24:0.5799999999999986 25:0.5799999999999986 26:0.4200000000000015 27:0.5799999999999986 28:0.5799999999999986 29:0.5799999999999986 30:0.5799999999999986 
-1.0 1:0.5799999999999986 2:0.5799999999999986 3:0.5799999999999986 4:0.5799999999999986 5:0.5799999999999986 6:0.5 7:0.5799999999999986 8:0.5799999999999986 9:0.5799999999999986 10:0.5799999999999986 11:0.5 12:0.5799999999999986 13:0.5799999999999986 14:0.5799999999999986 15:0.5799999999999986 16:0.4200000000000015 17:0.5799999999999986 18:0.5799999999999986 19:0.5799999999999986 20:0.5799999999999986 21:0.2999999999999965 22:0.5799999999999986 23:0.5799999999999986 24:0.5799999999999986 25:0.5799999999999986 26:0.4200000000000015 27:0.5799999999999986 28:0.5799999999999986 29:0.5799999999999986 30:0.5799999999999986 
1.0 1:0.2999999999999965 2:0.5799999999999986 3:0.5799999999999986 4:0.5799999999999986 5:0.5799999999999986 6:0.4200000000000015 7:0.5799999999999986 8:0.5799999999999986 9:0.5799999999999986 10:0.5799999999999986 11:0.2999999999999965 12:0.5799999999999986 13:0.5799999999999986 14:0.5799999999999986 15:0.5799999999999986 16:0.5 17:0.5799999999999986 18:0.5799999999999986 19:0.5799999999999986 20:0.5799999999999986 21:0.5 22:0.5799999999999986 23:0.5799999999999986 24:0.5799999999999986 25:0.5799999999999986 26:0.5 27:0.5799999999999986 28:0.5799999999999986 29:0.5799999999999986 30:0.5799999999999986 
-1.0 1:0.2999999999999965 2:0.5799999999999986 3:0.5799999999999986 4:0.5799999999999986 5:0.5799999999999986 6:0.5 7:0.5799999999999986 8:0.5799999999999986 9:0.5799999999999986 10:0.5799999999999986 11:0.5 12:0.5799999999999986 13:0.5799999999999986 14:0.5799999999999986 15:0.5799999999999986 16:0.5 17:0.5799999999999986 18:0.5799999999999986 19:0.5799999999999986 20:0.5799999999999986 21:0.7000000000000036 22:0.5799999999999986 23:0.5799999999999986 24:0.5799999999999986 25:0.5799999999999986 26:0.5 27:0.5799999999999986 28:0.5799999999999986 29:0.5799999999999986 30:0.5799999999999986 
-1.0 1:0.5 2:0.5799999999999986 3:0.5799999999999986 4:0.5799999999999986 5:0.5799999999999986 6:0.5 7:0.5799999999999986 8:0.5799999999999986 9:0.5799999999999986 10:0.5799999999999986 11:0.5 12:0.5799999999999986 13:0.5799999999999986 14:0.5799999999999986 15:0.5799999999999986 16:0.7000000000000036 17:0.5799999999999986 18:0.5799999999999986 19:0.5799999999999986 20:0.5799999999999986 21:0.5 22:0.5799999999999986 23:0.5799999999999986 24:0.5799999999999986 25:0.5799999999999986 26:0.4200000000000015 27:0.5799999999999986 28:0.5799999999999986 29:0.5799999999999986 30:0.5799999999999986 
-1.0 1:0.5799999999999986 2:0.5799999999999986 3:0.5 4:0.5799999999999986 5:0.5799999999999986 6:0.5799999999999986 7:0.5799999999999986 8:0.7000000000000036 9:0.5799999999999986 10:0.5799999999999986 11:0.5799999999999986 12:0.5799999999999986 13:0.5 14:0.5799999999999986 15:0.5799999999999986 16:0.5799999999999986 17:0.5799999999999986 18:0.4200000000000015 19:0.5799999999999986 20:0.5799999999999986 21:0.5799999999999986 22:0.5799999999999986 23:0.4200000000000015 24:0.5799999999999986 25:0.5799999999999986 26:0.5799999999999986 27:0.5799999999999986 28:0.5799999999999986 29:0.5799999999999986 30:0.5799999999999986 
-1.0 1:0.5799999999999986 2:0.5799999999999986 3:0.4200000000000015 4:0.5799999999999986 5:0.5799999999999986 6:0.5799999999999986 7:0.5799999999999986 8:0.4200000000000015 9:0.5799999999999986 10:0.5799999999999986 11:0.5799999999999986 12:0.5799999999999986 13:0.5799999999999986 14:0.5799999999999986 15:0.5799999999999986 16:0.4200000000000015 17:0.5799999999999986 18:0.5799999999999986 19:0.5799999999999986 20:0.5799999999999986 21:0.5799999999999986 22:0.5799999999999986 23:0.5799999999999986 24:0.5799999999999986 25:0.5799999999999986 26:0.5 27:0.5799999999999986 28:0.5799999999999986 29:0.5799999999999986 30:0.5799999999999986 
-1.0 1:0.4200000000000015 2:0.5799999999999986 3:0.5799999999999986 4:0.5799999999999986 5:0.5799999999999986 6:0.5799999999999986 7:0.5799999999999986 8:0.5799999999999986 9:0.5799999999999986 10:0.5799999999999986 11:0.5 12:0.5799999999999986 13:0.5799999999999986 14:0.5799999999999986 15:0.5799999999999986 16:0.4200000000000015 17:0.5799999999999986 18:0.5799999999999986 19:0.5799999999999986 20:0.5799999999999986 21:0.5799999999999986 22:0.5799999999999986 23:0.5799999999999986 24:0.5799999999999986 25:0.5799999999999986 26:0.5799999999999986 27:0.5799999999999986 28:0.5799999999999986 29:0.5799999999999986 30:0.5799999999999986 
-1.0 1:0.4200000000000015 2:0.5799999999999986 3:0.5799999999999986 4:0.5799999999999986 5:0.5799999999999986 6:0.5799999999999986 7:0.5799999999999986 8:0.5799999999999986 9:0.5799999999999986 10:0.5799999999999986 11:0.5799999999999986 12:0.5799999999999986 13:0.5799999999999986 14:0.5799999999999986 15:0.5799999999999986 16:0.21999999999999786 17:0.5799999999999986 18:0.5799999999999986 19:0.5799999999999986 20:0.5799999999999986 21:0.5 22:0.5799999999999986 23:0.5799999999999986 24:0.5799999999999986 25:0.5799999999999986 26:0.5 27:0.5799999999999986 28:0.5799999999999986 29:0.5799999999999986 30:0.5799999999999986 
-1.0 1:0.5799999999999986 2:0.5799999999999986 3:0.5799999999999986 4:0.5799999999999986 5:0.5799999999999986 6:0.5799999999999986 7:0.5799999999999986 8:0.5799999999999986 9:0.5799999999999986 10:0.5799999999999986 11:0.21999999999999786 12:0.5799999999999986 13:0.5799999999999986 14:0.5799999999999986 15:0.5799999999999986 16:0.5 17:0.5799999999999986 18:0.5799999999999986 19:0.5799999999999986 20:0.5799999999999986 21:0.5 22:0.5799999999999986 23:0.5799999999999986 24:0.5799999999999986 25:0.5799999999999986 26:0.2999999999999965 27:0.5799999999999986 28:0.5799999999999986 29:0.5799999999999986 30:0.5799999999999986 
-1.0 1:0.5799999999999986 2:0.5799999999999986 3:0.2999999999999965 4:0.5799999999999986 5:0.5799999999999986 6:0.5799999999999986 7:0.5799999999999986 8:0.2999999999999965 9:0.5799999999999986 10:0.5799999999999986 11:0.5799999999999986 12:0.5799999999999986 13:0.5 14:0.5799999999999986 15:0.5799999999999986 16:0.5799999999999986 17:0.5799999999999986 18:0.5799999999999986 19:0.5799999999999986 20:0.5799999999999986 21:0.5799999999999986 22:0.5799999999999986 23:0.4200000000000015 24:0.5799999999999986 25:0.5799999999999986 26:0.5799999999999986 27:0.5799999999999986 28:0.5799999999999986 29:0.5799999999999986 30:0.5799999999999986 
-1.0 1:0.5799999999999986 2:0.5799999999999986 3:0.5799999999999986 4:0.5799999999999986 5:0.5799999999999986 6:0.5799999999999986 7:0.5799999999999986 8:0.5799999999999986 9:0.5799999999999986 10:0.4200000000000015 11:0.5799999999999986 12:0.5799999999999986 13:0.5799999999999986 14:0.5799999999999986 15:0.5799999999999986 16:0.5799999999999986 17:0.5799999999999986 18:0.4200000000000015 19:0.5799999999999986 20:0.5799999999999986 21:0.5799999999999986 22:0.5799999999999986 23:0.5799999999999986 24:0.5799999999999986 25:0.5799999999999986 26:0.5799999999999986 27:0.5799999999999986 28:0.5799999999999986 29:0.5799999999999986 30:0.5799999999999986 
-1.0 1:0.5799999999999986 2:0.5799999999999986 3:0.5799999999999986 4:0.5799999999999986 5:0.4200000000000015 6:0.5799999999999986 7:0.5799999999999986 8:0.5799999999999986 9:0.5799999999999986 10:0.5799999999999986 11:0.5799999999999986 12:0.5799999999999986 13:0.4200000000000015 14:0.5799999999999986 15:0.5799999999999986 16:0.5799999999999986 17:0.5799999999999986 18:0.5799999999999986 19:0.5799999999999986 20:0.5799999999999986 21:0.5799999999999986 22:0.5799999999999986 23:0.5799999999999986 24:0.5799999999999986 25:0.5799999999999986 26:0.1 27:0.5799999999999986 28:0.5799999999999986 29:0.5799999999999986 30:0.5799999999999986 
-1.0 1:0.5799999999999986 2:0.5799999999999986 3:0.4200000000000015 4:0.5799999999999986 5:0.5799999999999986 6:0.5799999999999986 7:0.5799999999999986 8:0.5799999999999986 9:0.5799999999999986 10:0.5799999999999986 11:0.5799999999999986 12:0.5799999999999986 13:0.5799999999999986 14:0.5799999999999986 15:0.5799999999999986 16:0.1 17:0.5799999999999986 18:0.5799999999999986 19:0.5799999999999986 20:0.5799999999999986 21:0.2999999999999965 22:0.5799999999999986 23:0.5799999999999986 24:0.5799999999999986 25:0.5799999999999986 26:0.4200000000000015 27:0.5799999999999986 28:0.5799999999999986 29:0.5799999999999986 30:0.5799999999999986 
-1.0 1:0.5799999999999986 2:0.5799999999999986 3:0.5799999999999986 4:0.5799999999999986 5:0.5799999999999986 6:0.5799999999999986 7:0.5799999999999986 8:0.5799999999999986 9:0.5799999999999986 10:0.5799999999999986 11:0.1 12:0.5799999999999986 13:0.5799999999999986 14:0.5799999999999986 15:0.5799999999999986 16:0.2999999999999965 17:0.5799999999999986 18:0.5799999999999986 19:0.5799999999999986 20:0.5799999999999986 21:0.4200000000000015 22:0.5799999999999986 23:0.5799999999999986 24:0.5799999999999986 25:0.5799999999999986 26:0.21999999999999786 27:0.5799999999999986 28:0.5799999999999986 29:0.5799999999999986 30:0.5799999999999986 
-1.0 1:0.5799999999999986 2:0.5799999999999986 3:0.5799999999999986 4:0.5799999999999986 5:0.5799999999999986 6:0.1 7:0.5799999999999986 8:0.5799999999999986 9:0.5799999999999986 10:0.5799999999999986 11:0.2999999999999965 12:0.5799999999999986 13:0.5799999999999986 14:0.5799999999999986 15:0.5799999999999986 16:0.4200000000000015 17:0.5799999999999986 18:0.5799999999999986 19:0.5799999999999986 20:0.5799999999999986 21:0.21999999999999786 22:0.5799999999999986 23:0.5799999999999986 24:0.5799999999999986 25:0.5799999999999986 26:0.1 27:0.5799999999999986 28:0.5799999999999986 29:0.5799999999999986 30:0.5799999999999986 
1.0 1:0.2999999999999965 2:0.5799999999999986 3:0.5799999999999986 4:0.5799999999999986 5:0.5799999999999986 6:0.4200000000000015 7:0.5799999999999986 8:0.5799999999999986 9:0.5799999999999986 10:0.5799999999999986 11:0.21999999999999786 12:0.5799999999999986 13:0.5799999999999986 14:0.5799999999999986 15:0.5799999999999986 16:0.1 17:0.5799999999999986 18:0.5799999999999986 19:0.5799999999999986 20:0.5799999999999986 21:0.21999999999999786 22:0.5799999999999986 23:0.5799999999999986 24:0.5799999999999986 25:0.5799999999999986 26:0.4200000000000015 27:0.5799999999999986 28:0.5799999999999986 29:0.5799999999999986 30:0.5799999999999986 
1.0 1:0.4200000000000015 2:0.5799999999999986 3:0.5799999999999986 4:0.5799999999999986 5:0.5799999999999986 6:0.21999999999999786 7:0.5799999999999986 8:0.5799999999999986 9:0.5799999999999986 10:0.5799999999999986 11:0.1 12:0.5799999999999986 13:0.5799999999999986 14:0.5799999999999986 15:0.5799999999999986 16:0.21999999999999786 17:0.5799999999999986 18:0.5799999999999986 19:0.5799999999999986 20:0.5799999999999986 21:0.4200000000000015 22:0.5799999999999986 23:0.5799999999999986 24:0.5799999999999986 25:0.5799999999999986 26:0.5799999999999986 27:0.5799999999999986 28:0.5799999999999986 29:0.5799999999999986 30:0.5799999999999986 
-1.0 1:0.5799999999999986 2:0.5799999999999986 3:0.5799999999999986 4:0.1 5:0.5799999999999986 6:0.5799999999999986 7:0.5799999999999986 8:0.5799999999999986 9:0.21999999999999786 10:0.5799999999999986 11:0.5799999999999986 12:0.5799999999999986 13:0.5799999999999986 14:0.4200000000000015 15:0.5799999999999986 16:0.5799999999999986 17:0.5799999999999986 18:0.5799999999999986 19:0.5799999999999986 20:0.5799999999999986 21:0.5799999999999986 22:0.5799999999999986 23:0.5799999999999986 24:0.5799999999999986 25:0.5799999999999986 26:0.5799999999999986 27:0.5 28:0.5799999999999986 29:0.5799999999999986 30:0.5799999999999986 
-1.0 1:0.4200000000000015 2:0.5799999999999986 3:0.5799999999999986 4:0.5799999999999986 5:0.5799999999999986 6:0.5799999999999986 7:0.5799999999999986 8:0.5799999999999986 9:0.5799999999999986 10:0.5799999999999986 11:0.5799999999999986 12:0.5799999999999986 13:0.5799999999999986 14:0.5 15:0.5799999999999986 16:0.5799999999999986 17:0.5799999999999986 18:0.2999999999999965 19:0.5799999999999986 20:0.5799999999999986 21:0.5799999999999986 22:0.5799999999999986 23:0.5799999999999986 24:0.5799999999999986 25:0.5799999999999986 26:0.5799999999999986 27:0.5799999999999986 28:0.5799999999999986 29:0.5799999999999986 30:0.5799999999999986 
-1.0 1:0.5799999999999986 2:0.5799999999999986 3:0.5799999999999986 4:0.5799999999999986 5:0.5799999999999986 6:0.5 7:0.5799999999999986 8:0.5799999999999986 9:0.5799999999999986 10:0.2999999999999965 11:0.5799999999999986 12:0.5799999999999986 13:0.5799999999999986 14:0.5799999999999986 15:0.5799999999999986 16:0.5799999999999986 17:0.5799999999999986 18:0.5799999999999986 19:0.5799999999999986 20:0.5799999999999986 21:0.5799999999999986 22:0.5799999999999986 23:0.2999999999999965 24:0.5799999999999986 25:0.5799999999999986 26:0.5799999999999986 27:0.5799999999999986 28:0.5799999999999986 29:0.5799999999999986 30:0.5799999999999986 
-1.0 1:0.5799999999999986 2:0.5799999999999986 3:0.5799999999999986 4:0.5799999999999986 5:0.5799999999999986 6:0.5799999999999986 7:0.5799999999999986 8:0.5799999999999986 9:0.5799999999999986 10:0.5799999999999986 11:0.5799999999999986 12:0.5799999999999986 13:0.5799999999999986 14:0.5799999999999986 15:0.5799999999999986 16:0.5799999999999986 17:0.5799999999999986 18:0.5799999999999986 19:0.5799999999999986 20:0.5799999999999986 21:0.5799999999999986 22:0.5799999999999986 23:0.5799999999999986 24:0.5799999999999986 25:0.5799999999999986 26:0.5799999999999986 27:0.5799999999999986 28:0.5799999999999986 29:0.5799999999999986 30:0.5799999999999986 
1.0 1:0.5799999999999986 2:0.5799999999999986 3:0.5799999999999986 4:0.5799999999999986 5:0.5799999999999986 6:0.5799999999999986 7:0.5799999999999986 8:0.5799999999999986 9:0.5799999999999986 10:0.5799999999999986 11:0.5799999999999986 12:0.5799999999999986 13:0.5799999999999986 14:0.5799999999999986 15:0.5799999999999986 16:0.5799999999999986 17:0.5799999999999986 18:0.5799999999999986 19:0.5799999999999986 20:0.5799999999999986 21:0.5799999999999986 22:0.5799999999999986 23:0.5799999999999986 24:0.5799999999999986 25:0.5799999999999986 26:0.5799999999999986 27:0.5799999999999986 28:0.5799999999999986 29:0.5799999999999986 30:0.5799999999999986 
1.0 1:0.5799999999999986 2:0.5799999999999986 3:0.5799999999999986 4:0.5799999999999986 5:0.5799999999999986 6:0.5799999999999986 7:0.5799999999999986 8:0.5799999999999986 9:0.5799999999999986 10:0.5799999999999986 11:0.5799999999999986 12:0.5799999999999986 13:0.5799999999999986 14:0.5799999999999986 15:0.5799999999999986 16:0.5799999999999986 17:0.5799999999999986 18:0.5799999999999986 19:0.5799999999999986 20:0.5799999999999986 21:0.9 22:0.5799999999999986 23:0.5799999999999986 24:0.5799999999999986 25:0.5799999999999986 26:0.7000000000000036 27:0.5799999999999986 28:0.5799999999999986 29:0.5799999999999986 30:0.5799999999999986 
1.0 1:0.5799999999999986 2:0.5799999999999986 3:0.5799999999999986 4:0.5799999999999986 5:0.5799999999999986 6:0.5799999999999986 7:0.5799999999999986 8:0.5799999999999986 9:0.5799999999999986 10:0.5799999999999986 11:0.5799999999999986 12:0.5799999999999986 13:0.5799999999999986 14:0.5799999999999986 15:0.5799999999999986 16:0.9 17:0.5799999999999986 18:0.5799999999999986 19:0.5799999999999986 20:0.5799999999999986 21:0.7000000000000036 22:0.5799999999999986 23:0.5799999999999986 24:0.5799999999999986 25:0.5799999999999986 26:0.7800000000000021 27:0.5799999999999986 28:0.5799999999999986 29:0.5799999999999986 30:0.5799999999999986 
1.0 1:0.5799999999999986 2:0.5799999999999986 3:0.5799999999999986 4:0.5799999999999986 5:0.5799999999999986 6:0.5799999999999986 7:0.5799999999999986 8:0.5799999999999986 9:0.5799999999999986 10:0.5799999999999986 11:0.9 12:0.5799999999999986 13:0.5799999999999986 14:0.5799999999999986 15:0.5799999999999986 16:0.7000000000000036 17:0.5799999999999986 18:0.5799999999999986 19:0.5799999999999986 20:0.5799999999999986 21:0.7800000000000021 22:0.5799999999999986 23:0.5799999999999986 24:0.5799999999999986 25:0.5799999999999986 26:0.7800000000000021 27:0.5799999999999986 28:0.5799999999999986 29:0.5799999999999986 30:0.5799999999999986 
-0.4016319584193236 1:0.7800000000000021 2:0.5799999999999986 3:0.5799999999999986 4:0.5799999999999986 5:0.5799999999999986 6:0.7800000000000021 7:0.5799999999999986 8:0.5799999999999986 9:0.5799999999999986 10:0.5799999999999986 11:0.5799999999999986 12:0.5799999999999986 13:0.5799999999999986 14:0.5799999999999986 15:0.5799999999999986 16:0.7000000000000036 17:0.5799999999999986 18:0.5799999999999986 19:0.5799999999999986 20:0.5799999999999986 21:0.7000000000000036 22:0.5799999999999986 23:0.5799999999999986 24:0.5799999999999986 25:0.5799999999999986 26:0.5799999999999986 27:0.5799999999999986 28:0.5799999999999986 29:0.5799999999999986 30:0.5799999999999986 
1.0 1:0.5799999999999986 2:0.5799999999999986 3:0.5799999999999986 4:0.5799999999999986 5:0.5799999999999986 6:0.5799999999999986 7:0.7000000000000036 8:0.5799999999999986 9:0.5799999999999986 10:0.5799999999999986 11:0.5799999999999986 12:0.7000000000000036 13:0.5799999999999986 14:0.5799999999999986 15:0.5799999999999986 16:0.5799999999999986 17:0.5799999999999986 18:0.5799999999999986 19:0.5799999999999986 20:0.5799999999999986 21:0.5799999999999986 22:0.5 23:0.5799999999999986 24:0.5799999999999986 25:0.5799999999999986 26:0.5799999999999986 27:0.5799999999999986 28:0.5799999999999986 29:0.5799999999999986 30:0.5799999999999986 
1.0 1:0.7000000000000036 2:0.5799999999999986 3:0.5799999999999986 4:0.5799999999999986 5:0.5799999999999986 6:0.7000000000000036 7:0.5799999999999986 8:0.5799999999999986 9:0.5799999999999986 10:0.5799999999999986 11:0.5799999999999986 12:0.5799999999999986 13:0.5799999999999986 14:0.5799999999999986 15:0.5799999999999986 16:0.5 17:0.5799999999999986 18:0.5799999999999986 19:0.5799999999999986 20:0.5799999999999986 21:0.5799999999999986 22:0.5799999999999986 23:0.5799999999999986 24:0.5799999999999986 25:0.7000000000000036 26:0.5799999999999986 27:0.5799999999999986 28:0.5799999999999986 29:0.5799999999999986 30:0.5799999999999986 
1.0 1:0.7000000000000036 2:0.5799999999999986 3:0.5799999999999986 4:0.5799999999999986 5:0.5799999999999986 6:0.5799999999999986 7:0.5799999999999986 8:0.5799999999999986 9:0.5799999999999986 10:0.5799999999999986 11:0.5 12:0.5799999999999986 13:0.5799999999999986 14:0.5799999999999986 15:0.5799999999999986 16:0.5799999999999986 17:0.5799999999999986 18:0.5799999999999986 19:0.5799999999999986 20:0.7000000000000036 21:0.5799999999999986 22:0.5799999999999986 23:0.5799999999999986 24:0.5799999999999986 25:0.5799999999999986 26:0.7000000000000036 27:0.5799999999999986 28:0.5799999999999986 29:0.5799999999999986 30:0.5799999999999986 
1.0 1:0.5799999999999986 2:0.5799999999999986 3:0.5799999999999986 4:0.5799999999999986 5:0.5799999999999986 6:0.5799999999999986 7:0.5799999999999986 8:0.7000000000000036 9:0.5799999999999986 10:0.5799999999999986 11:0.5799999999999986 12:0.5799999999999986 13:0.5799999999999986 14:0.7000000000000036 15:0.5799999999999986 16:0.5799999999999986 17:0.5799999999999986 18:0.5799999999999986 19:0.7800000000000021 20:0.5799999999999986 21:0.5799999999999986 22:0.5799999999999986 23:0.5799999999999986 24:0.7000000000000036 25:0.5799999999999986 26:0.5799999999999986 27:0.5799999999999986 28:0.5799999999999986 29:0.5799999999999986 30:0.5799999999999986 
1.0 1:0.5799999999999986 2:0.5799999999999986 3:0.7800000000000021 4:0.5799999999999986 5:0.5799999999999986 6:0.5799999999999986 7:0.5799999999999986 8:0.7000000000000036 9:0.5799999999999986 10:0.5799999999999986 11:0.5799999999999986 12:0.5799999999999986 13:0.5799999999999986 14:0.5799999999999986 15:0.7000000000000036 16:0.5799999999999986 17:0.5799999999999986 18:0.5799999999999986 19:0.5799999999999986 20:0.5799999999999986 21:0.5 22:0.5799999999999986 23:0.5799999999999986 24:0.5799999999999986 25:0.5799999999999986 26:0.5 27:0.5799999999999986 28:0.5799999999999986 29:0.5799999999999986 30:0.5799999999999986 
1.0 1:0.5 2:0.5799999999999986 3:0.5799999999999986 4:0.5799999999999986 5:0.5799999999999986 6:0.7000000000000036 7:0.5799999999999986 8:0.5799999999999986 9:0.5799999999999986 10:0.5799999999999986 11:0.5799999999999986 12:0.5799999999999986 13:0.5799999999999986 14:0.5799999999999986 15:0.5799999999999986 16:0.5799999999999986 17:0.5799999999999986 18:0.5799999999999986 19:0.5799999999999986 20:0.5799999999999986 21:0.5 22:0.5799999999999986 23:0.5799999999999986 24:0.5799999999999986 25:0.5799999999999986 26:0.5799999999999986 27:0.5799999999999986 28:0.5799999999999986 29:0.5799999999999986 30:0.5799999999999986 
1.0 1:0.7000000000000036 2:0.5799999999999986 3:0.5799999999999986 4:0.5799999999999986 5:0.5799999999999986 6:0.5799999999999986 7:0.5799999999999986 8:0.5799999999999986 9:0.5799999999999986 10:0.5799999999999986 11:0.5799999999999986 12:0.5799999999999986 13:0.5799999999999986 14:0.5799999999999986 15:0.5799999999999986 16:0.5 17:0.5799999999999986 18:0.5799999999999986 19:0.5799999999999986 20:0.5799999999999986 21:0.5799999999999986 22:0.5799999999999986 23:0.5799999999999986 24:0.5799999999999986 25:0.5799999999999986 26:0.7000000000000036 27:0.5799999999999986 28:0.5799999999999986 29:0.5799999999999986 30:0.5799999999999986 
0.49589430957575675 1:0.5799999999999986 2:0.5799999999999986 3:0.5799999999999986 4:0.5799999999999986 5:0.5799999999999986 6:0.5799999999999986 7:0.5799999999999986 8:0.5799999999999986 9:0.5799999999999986 10:0.5799999999999986 11:0.5 12:0.5799999999999986 13:0.5799999999999986 14:0.5799999999999986 15:0.5799999999999986 16:0.5799999999999986 17:0.5799999999999986 18:0.5799999999999986 19:0.5799999999999986 20:0.5799999999999986 21:0.7000000000000036 22:0.5799999999999986 23:0.5799999999999986 24:0.5799999999999986 25:0.5799999999999986 26:0.7000000000000036 27:0.5799999999999986 28:0.5799999999999986 29:0.5799999999999986 30:0.5799999999999986 
1.0 1:0.7000000000000036 2:0.5799999999999986 3:0.5799999999999986 4:0.5799999999999986 5:0.5799999999999986 6:0.7000000000000036 7:0.5799999999999986 8:0.5799999999999986 9:0.5799999999999986 10:0.5799999999999986 11:0.7000000000000036 12:0.5799999999999986 13:0.5799999999999986 14:0.5799999999999986 15:0.5799999999999986 16:0.7000000000000036 17:0.5799999999999986 18:0.5799999999999986 19:0.5799999999999986 20:0.5799999999999986 21:0.7000000000000036 22:0.5799999999999986 23:0.5799999999999986 24:0.5799999999999986 25:0.5799999999999986 26:0.7000000000000036 27:0.5799999999999986 28:0.5799999999999986 29:0.5799999999999986 30:0.5799999999999986 
1.0 1:0.7000000000000036 2:0.5799999999999986 3:0.5799999999999986 4:0.5799999999999986 5:0.5799999999999986 6:0.7000000000000036 7:0.5799999999999986 8:0.5799999999999986 9:0.5799999999999986 10:0.5799999999999986 11:0.7000000000000036 12:0.5799999999999986 13:0.5799999999999986 14:0.5799999999999986 15:0.5799999999999986 16:0.7000000000000036 17:0.5799999999999986 18:0.5799999999999986 19:0.5799999999999986 20:0.5799999999999986 21:0.7800000000000021 22:0.5799999999999986 23:0.5799999999999986 24:0.5799999999999986 25:0.5799999999999986 26:0.5799999999999986 27:0.5799999999999986 28:0.5799999999999986 29:0.5799999999999986 30:0.5799999999999986 
-1.0 1:0.7000000000000036 2:0.5799999999999986 3:0.5799999999999986 4:0.5799999999999986 5:0.5799999999999986 6:0.7800000000000021 7:0.5799999999999986 8:0.5799999999999986 9:0.5799999999999986 10:0.5799999999999986 11:0.5799999999999986 12:0.5799999999999986 13:0.5799999999999986 14:0.5799999999999986 15:0.5799999999999986 16:0.7800000000000021 17:0.5799999999999986 18:0.5799999999999986 19:0.5799999999999986 20:0.5799999999999986 21:0.7000000000000036 22:0.5799999999999986 23:0.5799999999999986 24:0.5799999999999986 25:0.5799999999999986 26:0.7000000000000036 27:0.5799999999999986 28:0.5799999999999986 29:0.5799999999999986 30:0.5799999999999986 
1.0 1:0.7800000000000021 2:0.5799999999999986 3:0.5799999999999986 4:0.5799999999999986 5:0.5799999999999986 6:0.5799999999999986 7:0.5799999999999986 8:0.5799999999999986 9:0.5799999999999986 10:0.5799999999999986 11:0.7800000000000021 12:0.5799999999999986 13:0.5799999999999986 14:0.5799999999999986 15:0.5799999999999986 16:0.7000000000000036 17:0.5799999999999986 18:0.5799999999999986 19:0.5799999999999986 20:0.5799999999999986 21:0.7000000000000036 22:0.5799999999999986 23:0.5799999999999986 24:0.5799999999999986 25:0.5799999999999986 26:0.5 27:0.5799999999999986 28:0.5799999999999986 29:0.5799999999999986 30:0.5799999999999986 
1.0 1:0.7000000000000036 2:0.5799999999999986 3:0.5799999999999986 4:0.5799999999999986 5:0.5799999999999986 6:0.5 7:0.5799999999999986 8:0.5799999999999986 9:0.5799999999999986 10:0.5799999999999986 11:0.7000000000000036 12:0.5799999999999986 13:0.5799999999999986 14:0.5799999999999986 15:0.5799999999999986 16:0.5799999999999986 17:0.5799999999999986 18:0.5799999999999986 19:0.5799999999999986 20:0.5799999999999986 21:0.5 22:0.5799999999999986 23:0.5799999999999986 24:0.5799999999999986 25:0.5799999999999986 26:0.5799999999999986 27:0.5799999999999986 28:0.5799999999999986 29:0.5799999999999986 30:0.5799999999999986 
1.0 1:0.5799999999999986 2:0.5799999999999986 3:0.5799999999999986 4:0.5799999999999986 5:0.5799999999999986 6:0.7000000000000036 7:0.5799999999999986 8:0.5799999999999986 9:0.5799999999999986 10:0.5799999999999986 11:0.5799999999999986 12:0.5799999999999986 13:0.5799999999999986 14:0.5799999999999986 15:0.5799999999999986 16:0.5799999999999986 17:0.5799999999999986 18:0.5799999999999986 19:0.5799999999999986 20:0.5799999999999986 21:0.5 22:0.5799999999999986 23:0.5799999999999986 24:0.5799999999999986 25:0.5799999999999986 26:0.5 27:0.5799999999999986 28:0.5799999999999986 29:0.5799999999999986 30:0.5799999999999986 
1.0 1:0.5799999999999986 2:0.5799999999999986 3:0.5799999999999986 4:0.5 5:0.5799999999999986 6:0.5799999999999986 7:0.5799999999999986 8:0.5799999999999986 9:0.5 10:0.5799999999999986 11:0.5799999999999986 12:0.5799999999999986 13:0.5799999999999986 14:0.7000000000000036 15:0.5799999999999986 16:0.5799999999999986 17:0.5799999999999986 18:0.5799999999999986 19:0.5 20:0.5799999999999986 21:0.5799999999999986 22:0.5799999999999986 23:0.5799999999999986 24:0.5799999999999986 25:0.5799999999999986 26:0.5799999999999986 27:0.5799999999999986 28:0.5799999999999986 29:0.5799999999999986 30:0.5799999999999986 
1.0 1:0.5799999999999986 2:0.5799999999999986 3:0.5799999999999986 4:0.5799999999999986 5:0.5799999999999986 6:0.5799999999999986 7:0.5799999999999986 8:0.5799999999999986 9:0.5799999999999986 10:0.7000000000000036 11:0.5799999999999986 12:0.5799999999999986 13:0.5799999999999986 14:0.5799999999999986 15:0.5799999999999986 16:0.5799999999999986 17:0.5799999999999986 18:0.5799999999999986 19:0.5799999999999986 20:0.5799999999999986 21:0.5799999999999986 22:0.5799999999999986 23:0.5799999999999986 24:0.5799999999999986 25:0.5799999999999986 26:0.5 27:0.5799999999999986 28:0.5799999999999986 29:0.5799999999999986 30:0.5799999999999986 
1.0 1:0.5799999999999986 2:0.5799999999999986 3:0.5799999999999986 4:0.5799999999999986 5:0.5799999999999986 6:0.5 7:0.5799999999999986 8:0.5799999999999986 9:0.5799999999999986 10:0.5799999999999986 11:0.7000000000000036 12:0.5799999999999986 13:0.5799999999999986 14:0.5799999999999986 15:0.5799999999999986 16:0.5799999999999986 17:0.5799999999999986 18:0.5799999999999986 19:0.5799999999999986 20:0.5799999999999986 21:0.5799999999999986 22:0.5799999999999986 23:0.5799999999999986 24:0.5799999999999986 25:0.5799999999999986 26:0.5799999999999986 27:0.5799999999999986 28:0.5799999999999986 29:0.5799999999999986 30:0.5799999999999986 
1.0 1:0.5 2:0.5799999999999986 3:0.5799999999999986 4:0.5799999999999986 5:0.5799999999999986 6:0.7000000000000036 7:0.5799999999999986 8:0.5799999999999986 9:0.5799999999999986 10:0.5799999999999986 11:0.5799999999999986 12:0.5799999999999986 13:0.5799999999999986 14:0.5799999999999986 15:0.5799999999999986 16:0.5799999999999986 17:0.5799999999999986 18:0.5799999999999986 19:0.5799999999999986 20:0.5799999999999986 21:0.5799999999999986 22:0.5799999999999986 23:0.5799999999999986 24:0.5799999999999986 25:0.5799999999999986 26:0.7000000000000036 27:0.5799999999999986 28:0.5799999999999986 29:0.5799999999999986 30:0.5799999999999986 
1.0 1:0.5 2:0.5799999999999986 3:0.5799999999999986 4:0.5799999999999986 5:0.5799999999999986 6:0.5799999999999986 7:0.5799999999999986 8:0.5799999999999986 9:0.5799999999999986 10:0.5799999999999986 11:0.5799999999999986 12:0.5799999999999986 13:0.5799999999999986 14:0.5799999999999986 15:0.5799999999999986 16:0.5 17:0.5799999999999986 18:0.5799999999999986 19:0.5799999999999986 20:0.5799999999999986 21:0.5799999999999986 22:0.5799999999999986 23:0.5799999999999986 24:0.5799999999999986 25:0.5 26:0.5799999999999986 27:0.5799999999999986 28:0.5799999999999986 29:0.5799999999999986 30:0.5799999999999986 
-1.0 1:0.5799999999999986 2:0.5799999999999986 3:0.5799999999999986 4:0.5799999999999986 5:0.5799999999999986 6:0.5799999999999986 7:0.5 8:0.5799999999999986 9:0.5799999999999986 10:0.5799999999999986 11:0.5799999999999986 12:0.5799999999999986 13:0.7000000000000036 14:0.5799999999999986 15:0.5799999999999986 16:0.5799999999999986 17:0.5799999999999986 18:0.5 19:0.5799999999999986 20:0.5799999999999986 21:0.5799999999999986 22:0.5799999999999986 23:0.5799999999999986 24:0.5799999999999986 25:0.5799999999999986 26:0.5 27:0.5799999999999986 28:0.5799999999999986 29:0.5799999999999986 30:0.5799999999999986 
-1.0 1:0.5799999999999986 2:0.5 3:0.5799999999999986 4:0.5799999999999986 5:0.5799999999999986 6:0.5799999999999986 7:0.5799999999999986 8:0.7000000000000036 9:0.5799999999999986 10:0.5799999999999986 11:0.5799999999999986 12:0.5799999999999986 13:0.5 14:0.5799999999999986 15:0.5799999999999986 16:0.5799999999999986 17:0.5799999999999986 18:0.5799999999999986 19:0.5799999999999986 20:0.5799999999999986 21:0.5 22:0.5799999999999986 23:0.5799999999999986 24:0.5799999999999986 25:0.5799999999999986 26:0.4200000000000015 27:0.5799999999999986 28:0.5799999999999986 29:0.5799999999999986 30:0.5799999999999986 
-1.0 1:0.5799999999999986 2:0.5799999999999986 3:0.5799999999999986 4:0.5799999999999986 5:0.5 6:0.5799999999999986 7:0.5799999999999986 8:0.5799999999999986 9:0.5799999999999986 10:0.5799999999999986 11:0.5799999999999986 12:0.5799999999999986 13:0.5799999999999986 14:0.5799999999999986 15:0.5799999999999986 16:0.5 17:0.5799999999999986 18:0.5799999999999986 19:0.5799999999999986 20:0.5799999999999986 21:0.5 22:0.5799999999999986 23:0.5799999999999986 24:0.5799999999999986 25:0.5799999999999986 26:0.5799999999999986 27:0.5799999999999986 28:0.5799999999999986 29:0.5799999999999986 30:0.5799999999999986 
-1.0 1:0.5799999999999986 2:0.5799999999999986 3:0.5799999999999986 4:0.5799999999999986 5:0.5799999999999986 6:0.5 7:0.5799999999999986 8:0.5799999999999986 9:0.5799999999999986 10:0.5799999999999986 11:0.5799999999999986 12:0.5799999999999986 13:0.5799999999999986 14:0.5799999999999986 15:0.5799999999999986 16:0.5799999999999986 17:0.5799999999999986 18:0.5799999999999986 19:0.5799999999999986 20:0.5799999999999986 21:0.5799999999999986 22:0.5799999999999986 23:0.5799999999999986 24:0.5799999999999986 25:0.5799999999999986 26:0.5 27:0.5799999999999986 28:0.5799999999999986 29:0.5799999999999986 30:0.5799999999999986 
