encog,SVM,java,3.1.0,1,1400508558162
[SVM]
[SVM:PARAMS]
[SVM:SVM-PARAM]
inputCount=30
C=1
cacheSize=100
coef0=0
degree=3
eps=0.001
gamma=0.0333333333
kernelType=2
nrWeight=0
nu=0.5
p=0.1
probability=0
shrinking=1
svmType=3
weight=
weightLabel=
[SVM:SVM-MODEL]
svm_type epsilon_svr
kernel_type rbf
gamma 0.03333333333333333
nr_class 2
total_sv 14
rho -0.7346184097057166
SV
-1.0 1:0.7418604651162791 2:0.8209302325581396 3:0.8209302325581396 4:0.8209302325581396 5:0.8209302325581396 6:0.7465116279069768 7:0.8209302325581396 8:0.8209302325581396 9:0.8209302325581396 10:0.8209302325581396 11:0.7558139534883721 12:0.8209302325581396 13:0.8209302325581396 14:0.8209302325581396 15:0.8209302325581396 16:0.7511627906976744 17:0.8209302325581396 18:0.8209302325581396 19:0.8209302325581396 20:0.8209302325581396 21:0.8209302325581396 22:0.8209302325581396 23:0.8209302325581396 24:0.8209302325581396 25:0.8209302325581396 26:0.7372093023255814 27:0.8209302325581396 28:0.8209302325581396 29:0.8209302325581396 30:0.8209302325581396 
-1.0 1:0.7465116279069768 2:0.8209302325581396 3:0.8209302325581396 4:0.8209302325581396 5:0.8209302325581396 6:0.7558139534883721 7:0.8209302325581396 8:0.8209302325581396 9:0.8209302325581396 10:0.8209302325581396 11:0.7511627906976744 12:0.8209302325581396 13:0.8209302325581396 14:0.8209302325581396 15:0.8209302325581396 16:0.8209302325581396 17:0.8209302325581396 18:0.8209302325581396 19:0.8209302325581396 20:0.8209302325581396 21:0.7372093023255814 22:0.8209302325581396 23:0.8209302325581396 24:0.8209302325581396 25:0.8209302325581396 26:0.6348837209302325 27:0.8209302325581396 28:0.8209302325581396 29:0.8209302325581396 30:0.8209302325581396 
-1.0 1:0.6534883720930232 2:0.8209302325581396 3:0.8209302325581396 4:0.8209302325581396 5:0.8209302325581396 6:0.6488372093023256 7:0.8209302325581396 8:0.8209302325581396 9:0.8209302325581396 10:0.8209302325581396 11:0.6581395348837209 12:0.8209302325581396 13:0.8209302325581396 14:0.8209302325581396 15:0.8209302325581396 16:0.6767441860465115 17:0.8209302325581396 18:0.8209302325581396 19:0.8209302325581396 20:0.8209302325581396 21:0.672093023255814 22:0.8209302325581396 23:0.8209302325581396 24:0.8209302325581396 25:0.8209302325581396 26:0.6441860465116279 27:0.8209302325581396 28:0.8209302325581396 29:0.8209302325581396 30:0.8209302325581396 
-1.0 1:0.8209302325581396 2:0.8209302325581396 3:0.7930232558139535 4:0.8209302325581396 5:0.8209302325581396 6:0.8209302325581396 7:0.8209302325581396 8:0.8116279069767443 9:0.8209302325581396 10:0.8209302325581396 11:0.8209302325581396 12:0.8209302325581396 13:0.8302325581395349 14:0.8209302325581396 15:0.8209302325581396 16:0.8209302325581396 17:0.8209302325581396 18:0.8023255813953488 19:0.8209302325581396 20:0.8209302325581396 21:0.8209302325581396 22:0.8209302325581396 23:0.7372093023255814 24:0.8209302325581396 25:0.8209302325581396 26:0.8209302325581396 27:0.8209302325581396 28:0.8209302325581396 29:0.8209302325581396 30:0.8209302325581396 
-1.0 1:0.8209302325581396 2:0.8209302325581396 3:0.8209302325581396 4:0.8209302325581396 5:0.8023255813953488 6:0.8209302325581396 7:0.8209302325581396 8:0.8209302325581396 9:0.8209302325581396 10:0.7372093023255814 11:0.8209302325581396 12:0.8209302325581396 13:0.8209302325581396 14:0.8209302325581396 15:0.8209302325581396 16:0.8209302325581396 17:0.8209302325581396 18:0.6395348837209303 19:0.8209302325581396 20:0.8209302325581396 21:0.8209302325581396 22:0.8209302325581396 23:0.8209302325581396 24:0.8209302325581396 25:0.8209302325581396 26:0.7418604651162791 27:0.8209302325581396 28:0.8209302325581396 29:0.8209302325581396 30:0.8209302325581396 
-1.0 1:0.8209302325581396 2:0.8209302325581396 3:0.8209302325581396 4:0.8209302325581396 5:0.7372093023255814 6:0.8209302325581396 7:0.8209302325581396 8:0.8209302325581396 9:0.8209302325581396 10:0.8209302325581396 11:0.8209302325581396 12:0.8209302325581396 13:0.6395348837209303 14:0.8209302325581396 15:0.8209302325581396 16:0.8209302325581396 17:0.8209302325581396 18:0.8209302325581396 19:0.8209302325581396 20:0.8209302325581396 21:0.7418604651162791 22:0.8209302325581396 23:0.8209302325581396 24:0.8209302325581396 25:0.8209302325581396 26:0.1 27:0.8209302325581396 28:0.8209302325581396 29:0.8209302325581396 30:0.8209302325581396 
-1.0 1:0.8209302325581396 2:0.8209302325581396 3:0.8209302325581396 4:0.8209302325581396 5:0.8209302325581396 6:0.8209302325581396 7:0.8209302325581396 8:0.6395348837209303 9:0.8209302325581396 10:0.8209302325581396 11:0.8209302325581396 12:0.8209302325581396 13:0.8209302325581396 14:0.8209302325581396 15:0.8209302325581396 16:0.7418604651162791 17:0.8209302325581396 18:0.8209302325581396 19:0.8209302325581396 20:0.8209302325581396 21:0.1 22:0.8209302325581396 23:0.8209302325581396 24:0.8209302325581396 25:0.8209302325581396 26:0.4255813953488372 27:0.8209302325581396 28:0.8209302325581396 29:0.8209302325581396 30:0.8209302325581396 
1.0 1:0.8209302325581396 2:0.8906976744186047 3:0.8209302325581396 4:0.8209302325581396 5:0.8209302325581396 6:0.8209302325581396 7:0.8860465116279069 8:0.8209302325581396 9:0.8209302325581396 10:0.8209302325581396 11:0.8209302325581396 12:0.8674418604651163 13:0.8209302325581396 14:0.8209302325581396 15:0.8209302325581396 16:0.8209302325581396 17:0.8302325581395349 18:0.8209302325581396 19:0.8209302325581396 20:0.8209302325581396 21:0.8209302325581396 22:0.8302325581395349 23:0.8209302325581396 24:0.8209302325581396 25:0.8209302325581396 26:0.8209302325581396 27:0.8209302325581396 28:0.8209302325581396 29:0.8209302325581396 30:0.8209302325581396 
1.0 1:0.8906976744186047 2:0.8209302325581396 3:0.8209302325581396 4:0.8209302325581396 5:0.8209302325581396 6:0.8813953488372093 7:0.8209302325581396 8:0.8209302325581396 9:0.8209302325581396 10:0.8209302325581396 11:0.8906976744186047 12:0.8209302325581396 13:0.8209302325581396 14:0.8209302325581396 15:0.8209302325581396 16:0.8488372093023256 17:0.8209302325581396 18:0.8209302325581396 19:0.8209302325581396 20:0.8209302325581396 21:0.8534883720930233 22:0.8209302325581396 23:0.8209302325581396 24:0.8209302325581396 25:0.8209302325581396 26:0.8395348837209302 27:0.8209302325581396 28:0.8209302325581396 29:0.8209302325581396 30:0.8209302325581396 
1.0 1:0.8209302325581396 2:0.8209302325581396 3:0.8209302325581396 4:0.8953488372093024 5:0.8209302325581396 6:0.8209302325581396 7:0.8209302325581396 8:0.8209302325581396 9:0.8767441860465116 10:0.8209302325581396 11:0.8209302325581396 12:0.8209302325581396 13:0.8209302325581396 14:0.8906976744186047 15:0.8209302325581396 16:0.8209302325581396 17:0.8209302325581396 18:0.8209302325581396 19:0.8906976744186047 20:0.8209302325581396 21:0.8209302325581396 22:0.8209302325581396 23:0.8209302325581396 24:0.8813953488372093 25:0.8209302325581396 26:0.8209302325581396 27:0.8209302325581396 28:0.8209302325581396 29:0.8209302325581396 30:0.8209302325581396 
1.0 1:0.8209302325581396 2:0.8209302325581396 3:0.8441860465116279 4:0.8209302325581396 5:0.8209302325581396 6:0.8209302325581396 7:0.8209302325581396 8:0.8348837209302326 9:0.8209302325581396 10:0.8209302325581396 11:0.8209302325581396 12:0.8209302325581396 13:0.8302325581395349 14:0.8209302325581396 15:0.8209302325581396 16:0.8209302325581396 17:0.8209302325581396 18:0.8348837209302326 19:0.8209302325581396 20:0.8209302325581396 21:0.8209302325581396 22:0.8209302325581396 23:0.858139534883721 24:0.8209302325581396 25:0.8209302325581396 26:0.8209302325581396 27:0.8209302325581396 28:0.8209302325581396 29:0.8209302325581396 30:0.8209302325581396 
1.0 1:0.8209302325581396 2:0.8209302325581396 3:0.8209302325581396 4:0.8209302325581396 5:0.8302325581395349 6:0.8209302325581396 7:0.8209302325581396 8:0.8209302325581396 9:0.8209302325581396 10:0.8209302325581396 11:0.8720930232558141 12:0.8209302325581396 13:0.8209302325581396 14:0.8209302325581396 15:0.8209302325581396 16:0.8209302325581396 17:0.8209302325581396 18:0.8209302325581396 19:0.8209302325581396 20:0.8813953488372093 21:0.8209302325581396 22:0.8209302325581396 23:0.8209302325581396 24:0.8209302325581396 25:0.8209302325581396 26:0.8209302325581396 27:0.8209302325581396 28:0.8209302325581396 29:0.8209302325581396 30:0.8209302325581396 
1.0 1:0.8534883720930233 2:0.8209302325581396 3:0.8209302325581396 4:0.8209302325581396 5:0.8209302325581396 6:0.8953488372093024 7:0.8209302325581396 8:0.8209302325581396 9:0.8209302325581396 10:0.8209302325581396 11:0.8488372093023256 12:0.8209302325581396 13:0.8209302325581396 14:0.8209302325581396 15:0.8209302325581396 16:0.8953488372093024 17:0.8209302325581396 18:0.8209302325581396 19:0.8209302325581396 20:0.8209302325581396 21:0.8441860465116279 22:0.8209302325581396 23:0.8209302325581396 24:0.8209302325581396 25:0.8209302325581396 26:0.8395348837209302 27:0.8209302325581396 28:0.8209302325581396 29:0.8209302325581396 30:0.8209302325581396 
1.0 1:0.9 2:0.8209302325581396 3:0.8209302325581396 4:0.8209302325581396 5:0.8209302325581396 6:0.8767441860465116 7:0.8209302325581396 8:0.8209302325581396 9:0.8209302325581396 10:0.8209302325581396 11:0.8209302325581396 12:0.8209302325581396 13:0.8209302325581396 14:0.8209302325581396 15:0.8209302325581396 16:0.8441860465116279 17:0.8209302325581396 18:0.8209302325581396 19:0.8209302325581396 20:0.8209302325581396 21:0.8813953488372093 22:0.8209302325581396 23:0.8209302325581396 24:0.8209302325581396 25:0.8209302325581396 26:0.8209302325581396 27:0.8209302325581396 28:0.8209302325581396 29:0.8209302325581396 30:0.8209302325581396 
