encog,SVM,java,3.1.0,1,1400510089595
[SVM]
[SVM:PARAMS]
[SVM:SVM-PARAM]
inputCount=30
C=1
cacheSize=100
coef0=0
degree=3
eps=0.001
gamma=0.0333333333
kernelType=2
nrWeight=0
nu=0.5
p=0.1
probability=0
shrinking=1
svmType=3
weight=
weightLabel=
[SVM:SVM-MODEL]
svm_type epsilon_svr
kernel_type rbf
gamma 0.03333333333333333
nr_class 2
total_sv 60
rho -0.5065228882803035
SV
1.0 1:0.8272727272727284 2:0.5363636363636358 3:0.5363636363636358 4:0.5363636363636358 5:0.5363636363636358 6:0.7181818181818211 7:0.5363636363636358 8:0.5363636363636358 9:0.5363636363636358 10:0.5363636363636358 11:0.8272727272727284 12:0.5363636363636358 13:0.5363636363636358 14:0.5363636363636358 15:0.5363636363636358 16:0.7181818181818211 17:0.5363636363636358 18:0.5363636363636358 19:0.5363636363636358 20:0.5363636363636358 21:0.9 22:0.5363636363636358 23:0.5363636363636358 24:0.5363636363636358 25:0.5363636363636358 26:0.6454545454545496 27:0.5363636363636358 28:0.5363636363636358 29:0.5363636363636358 30:0.5363636363636358 
1.0 1:0.5363636363636358 2:0.5363636363636358 3:0.5363636363636358 4:0.5363636363636358 5:0.5363636363636358 6:0.5363636363636358 7:0.5363636363636358 8:0.5363636363636358 9:0.5363636363636358 10:0.5363636363636358 11:0.6454545454545496 12:0.5363636363636358 13:0.5363636363636358 14:0.5363636363636358 15:0.5363636363636358 16:0.5363636363636358 17:0.5363636363636358 18:0.5363636363636358 19:0.5363636363636358 20:0.5363636363636358 21:0.5363636363636358 22:0.5363636363636358 23:0.5363636363636358 24:0.5363636363636358 25:0.5363636363636358 26:0.4636363636363642 27:0.5363636363636358 28:0.5363636363636358 29:0.5363636363636358 30:0.5363636363636358 
1.0 1:0.5363636363636358 2:0.5363636363636358 3:0.5363636363636358 4:0.5363636363636358 5:0.5363636363636358 6:0.6454545454545496 7:0.5363636363636358 8:0.5363636363636358 9:0.5363636363636358 10:0.5363636363636358 11:0.5363636363636358 12:0.5363636363636358 13:0.5363636363636358 14:0.5363636363636358 15:0.5363636363636358 16:0.5363636363636358 17:0.5363636363636358 18:0.5363636363636358 19:0.5363636363636358 20:0.5363636363636358 21:0.4636363636363642 22:0.5363636363636358 23:0.5363636363636358 24:0.5363636363636358 25:0.5363636363636358 26:0.8272727272727284 27:0.5363636363636358 28:0.5363636363636358 29:0.5363636363636358 30:0.5363636363636358 
1.0 1:0.6454545454545496 2:0.5363636363636358 3:0.5363636363636358 4:0.5363636363636358 5:0.5363636363636358 6:0.5363636363636358 7:0.5363636363636358 8:0.5363636363636358 9:0.5363636363636358 10:0.5363636363636358 11:0.5363636363636358 12:0.5363636363636358 13:0.5363636363636358 14:0.5363636363636358 15:0.5363636363636358 16:0.4636363636363642 17:0.5363636363636358 18:0.5363636363636358 19:0.5363636363636358 20:0.5363636363636358 21:0.8272727272727284 22:0.5363636363636358 23:0.5363636363636358 24:0.5363636363636358 25:0.5363636363636358 26:0.7181818181818211 27:0.5363636363636358 28:0.5363636363636358 29:0.5363636363636358 30:0.5363636363636358 
1.0 1:0.5363636363636358 2:0.5363636363636358 3:0.5363636363636358 4:0.5363636363636358 5:0.5363636363636358 6:0.5363636363636358 7:0.5363636363636358 8:0.5363636363636358 9:0.5363636363636358 10:0.5363636363636358 11:0.4636363636363642 12:0.5363636363636358 13:0.5363636363636358 14:0.5363636363636358 15:0.5363636363636358 16:0.8272727272727284 17:0.5363636363636358 18:0.5363636363636358 19:0.5363636363636358 20:0.5363636363636358 21:0.7181818181818211 22:0.5363636363636358 23:0.5363636363636358 24:0.5363636363636358 25:0.5363636363636358 26:0.7181818181818211 27:0.5363636363636358 28:0.5363636363636358 29:0.5363636363636358 30:0.5363636363636358 
1.0 1:0.5363636363636358 2:0.5363636363636358 3:0.5363636363636358 4:0.5363636363636358 5:0.5363636363636358 6:0.5363636363636358 7:0.5363636363636358 8:0.5363636363636358 9:0.5363636363636358 10:0.5363636363636358 11:0.5363636363636358 12:0.5363636363636358 13:0.5363636363636358 14:0.5363636363636358 15:0.5363636363636358 16:0.5363636363636358 17:0.5363636363636358 18:0.5363636363636358 19:0.5363636363636358 20:0.5363636363636358 21:0.5363636363636358 22:0.5363636363636358 23:0.5363636363636358 24:0.5363636363636358 25:0.5363636363636358 26:0.5363636363636358 27:0.5363636363636358 28:0.5363636363636358 29:0.5363636363636358 30:0.5363636363636358 
-1.0 1:0.6454545454545496 2:0.5363636363636358 3:0.5363636363636358 4:0.5363636363636358 5:0.5363636363636358 6:0.6454545454545496 7:0.5363636363636358 8:0.5363636363636358 9:0.5363636363636358 10:0.5363636363636358 11:0.6454545454545496 12:0.5363636363636358 13:0.5363636363636358 14:0.5363636363636358 15:0.5363636363636358 16:0.6454545454545496 17:0.5363636363636358 18:0.5363636363636358 19:0.5363636363636358 20:0.5363636363636358 21:0.6454545454545496 22:0.5363636363636358 23:0.5363636363636358 24:0.5363636363636358 25:0.5363636363636358 26:0.5363636363636358 27:0.5363636363636358 28:0.5363636363636358 29:0.5363636363636358 30:0.5363636363636358 
1.0 1:0.6454545454545496 2:0.5363636363636358 3:0.5363636363636358 4:0.5363636363636358 5:0.5363636363636358 6:0.6454545454545496 7:0.5363636363636358 8:0.5363636363636358 9:0.5363636363636358 10:0.5363636363636358 11:0.6454545454545496 12:0.5363636363636358 13:0.5363636363636358 14:0.5363636363636358 15:0.5363636363636358 16:0.5363636363636358 17:0.5363636363636358 18:0.5363636363636358 19:0.5363636363636358 20:0.5363636363636358 21:0.39090909090909265 22:0.5363636363636358 23:0.5363636363636358 24:0.5363636363636358 25:0.5363636363636358 26:0.5363636363636358 27:0.5363636363636358 28:0.5363636363636358 29:0.5363636363636358 30:0.5363636363636358 
0.08460346027559305 1:0.5363636363636358 2:0.5363636363636358 3:0.6454545454545496 4:0.5363636363636358 5:0.5363636363636358 6:0.5363636363636358 7:0.5363636363636358 8:0.6454545454545496 9:0.5363636363636358 10:0.5363636363636358 11:0.5363636363636358 12:0.5363636363636358 13:0.6454545454545496 14:0.5363636363636358 15:0.5363636363636358 16:0.5363636363636358 17:0.5363636363636358 18:0.6454545454545496 19:0.5363636363636358 20:0.5363636363636358 21:0.5363636363636358 22:0.5363636363636358 23:0.5363636363636358 24:0.5363636363636358 25:0.5363636363636358 26:0.5363636363636358 27:0.5363636363636358 28:0.5363636363636358 29:0.5363636363636358 30:0.5363636363636358 
-1.0 1:0.5363636363636358 2:0.5363636363636358 3:0.6454545454545496 4:0.5363636363636358 5:0.5363636363636358 6:0.5363636363636358 7:0.5363636363636358 8:0.6454545454545496 9:0.5363636363636358 10:0.5363636363636358 11:0.5363636363636358 12:0.5363636363636358 13:0.5363636363636358 14:0.5363636363636358 15:0.5363636363636358 16:0.5363636363636358 17:0.5363636363636358 18:0.5363636363636358 19:0.5363636363636358 20:0.5363636363636358 21:0.6454545454545496 22:0.5363636363636358 23:0.5363636363636358 24:0.5363636363636358 25:0.5363636363636358 26:0.6454545454545496 27:0.5363636363636358 28:0.5363636363636358 29:0.5363636363636358 30:0.5363636363636358 
1.0 1:0.5363636363636358 2:0.5363636363636358 3:0.6454545454545496 4:0.5363636363636358 5:0.5363636363636358 6:0.5363636363636358 7:0.5363636363636358 8:0.5363636363636358 9:0.5363636363636358 10:0.5363636363636358 11:0.5363636363636358 12:0.5363636363636358 13:0.5363636363636358 14:0.5363636363636358 15:0.5363636363636358 16:0.6454545454545496 17:0.5363636363636358 18:0.5363636363636358 19:0.5363636363636358 20:0.5363636363636358 21:0.6454545454545496 22:0.5363636363636358 23:0.5363636363636358 24:0.5363636363636358 25:0.5363636363636358 26:0.4636363636363642 27:0.5363636363636358 28:0.5363636363636358 29:0.5363636363636358 30:0.5363636363636358 
-1.0 1:0.6454545454545496 2:0.5363636363636358 3:0.5363636363636358 4:0.5363636363636358 5:0.5363636363636358 6:0.5363636363636358 7:0.5363636363636358 8:0.5363636363636358 9:0.5363636363636358 10:0.5363636363636358 11:0.5363636363636358 12:0.5363636363636358 13:0.5363636363636358 14:0.5363636363636358 15:0.5363636363636358 16:0.4636363636363642 17:0.5363636363636358 18:0.5363636363636358 19:0.5363636363636358 20:0.5363636363636358 21:0.5363636363636358 22:0.5363636363636358 23:0.5363636363636358 24:0.5363636363636358 25:0.5363636363636358 26:0.4636363636363642 27:0.5363636363636358 28:0.5363636363636358 29:0.5363636363636358 30:0.5363636363636358 
1.0 1:0.39090909090909265 2:0.5363636363636358 3:0.5363636363636358 4:0.5363636363636358 5:0.5363636363636358 6:0.39090909090909265 7:0.5363636363636358 8:0.5363636363636358 9:0.5363636363636358 10:0.5363636363636358 11:0.4636363636363642 12:0.5363636363636358 13:0.5363636363636358 14:0.5363636363636358 15:0.5363636363636358 16:0.39090909090909265 17:0.5363636363636358 18:0.5363636363636358 19:0.5363636363636358 20:0.5363636363636358 21:0.39090909090909265 22:0.5363636363636358 23:0.5363636363636358 24:0.5363636363636358 25:0.5363636363636358 26:0.39090909090909265 27:0.5363636363636358 28:0.5363636363636358 29:0.5363636363636358 30:0.5363636363636358 
-1.0 1:0.5363636363636358 2:0.5363636363636358 3:0.6454545454545496 4:0.5363636363636358 5:0.5363636363636358 6:0.5363636363636358 7:0.5363636363636358 8:0.4636363636363642 9:0.5363636363636358 10:0.5363636363636358 11:0.5363636363636358 12:0.5363636363636358 13:0.5363636363636358 14:0.5363636363636358 15:0.5363636363636358 16:0.5363636363636358 17:0.5363636363636358 18:0.5363636363636358 19:0.5363636363636358 20:0.5363636363636358 21:0.4636363636363642 22:0.5363636363636358 23:0.5363636363636358 24:0.5363636363636358 25:0.5363636363636358 26:0.4636363636363642 27:0.5363636363636358 28:0.5363636363636358 29:0.5363636363636358 30:0.5363636363636358 
-1.0 1:0.5363636363636358 2:0.5363636363636358 3:0.4636363636363642 4:0.5363636363636358 5:0.5363636363636358 6:0.5363636363636358 7:0.5363636363636358 8:0.5363636363636358 9:0.5363636363636358 10:0.5363636363636358 11:0.5363636363636358 12:0.5363636363636358 13:0.5363636363636358 14:0.5363636363636358 15:0.5363636363636358 16:0.4636363636363642 17:0.5363636363636358 18:0.5363636363636358 19:0.5363636363636358 20:0.5363636363636358 21:0.4636363636363642 22:0.5363636363636358 23:0.5363636363636358 24:0.5363636363636358 25:0.5363636363636358 26:0.39090909090909265 27:0.5363636363636358 28:0.5363636363636358 29:0.5363636363636358 30:0.5363636363636358 
-1.0 1:0.5363636363636358 2:0.5363636363636358 3:0.5363636363636358 4:0.5363636363636358 5:0.5363636363636358 6:0.4636363636363642 7:0.5363636363636358 8:0.5363636363636358 9:0.5363636363636358 10:0.5363636363636358 11:0.4636363636363642 12:0.5363636363636358 13:0.5363636363636358 14:0.5363636363636358 15:0.5363636363636358 16:0.39090909090909265 17:0.5363636363636358 18:0.5363636363636358 19:0.5363636363636358 20:0.5363636363636358 21:0.28181818181817886 22:0.5363636363636358 23:0.5363636363636358 24:0.5363636363636358 25:0.5363636363636358 26:0.39090909090909265 27:0.5363636363636358 28:0.5363636363636358 29:0.5363636363636358 30:0.5363636363636358 
1.0 1:0.28181818181817886 2:0.5363636363636358 3:0.5363636363636358 4:0.5363636363636358 5:0.5363636363636358 6:0.39090909090909265 7:0.5363636363636358 8:0.5363636363636358 9:0.5363636363636358 10:0.5363636363636358 11:0.28181818181817886 12:0.5363636363636358 13:0.5363636363636358 14:0.5363636363636358 15:0.5363636363636358 16:0.4636363636363642 17:0.5363636363636358 18:0.5363636363636358 19:0.5363636363636358 20:0.5363636363636358 21:0.4636363636363642 22:0.5363636363636358 23:0.5363636363636358 24:0.5363636363636358 25:0.5363636363636358 26:0.4636363636363642 27:0.5363636363636358 28:0.5363636363636358 29:0.5363636363636358 30:0.5363636363636358 
-1.0 1:0.28181818181817886 2:0.5363636363636358 3:0.5363636363636358 4:0.5363636363636358 5:0.5363636363636358 6:0.4636363636363642 7:0.5363636363636358 8:0.5363636363636358 9:0.5363636363636358 10:0.5363636363636358 11:0.4636363636363642 12:0.5363636363636358 13:0.5363636363636358 14:0.5363636363636358 15:0.5363636363636358 16:0.4636363636363642 17:0.5363636363636358 18:0.5363636363636358 19:0.5363636363636358 20:0.5363636363636358 21:0.6454545454545496 22:0.5363636363636358 23:0.5363636363636358 24:0.5363636363636358 25:0.5363636363636358 26:0.4636363636363642 27:0.5363636363636358 28:0.5363636363636358 29:0.5363636363636358 30:0.5363636363636358 
-1.0 1:0.4636363636363642 2:0.5363636363636358 3:0.5363636363636358 4:0.5363636363636358 5:0.5363636363636358 6:0.4636363636363642 7:0.5363636363636358 8:0.5363636363636358 9:0.5363636363636358 10:0.5363636363636358 11:0.4636363636363642 12:0.5363636363636358 13:0.5363636363636358 14:0.5363636363636358 15:0.5363636363636358 16:0.6454545454545496 17:0.5363636363636358 18:0.5363636363636358 19:0.5363636363636358 20:0.5363636363636358 21:0.4636363636363642 22:0.5363636363636358 23:0.5363636363636358 24:0.5363636363636358 25:0.5363636363636358 26:0.39090909090909265 27:0.5363636363636358 28:0.5363636363636358 29:0.5363636363636358 30:0.5363636363636358 
-1.0 1:0.5363636363636358 2:0.5363636363636358 3:0.4636363636363642 4:0.5363636363636358 5:0.5363636363636358 6:0.5363636363636358 7:0.5363636363636358 8:0.6454545454545496 9:0.5363636363636358 10:0.5363636363636358 11:0.5363636363636358 12:0.5363636363636358 13:0.4636363636363642 14:0.5363636363636358 15:0.5363636363636358 16:0.5363636363636358 17:0.5363636363636358 18:0.39090909090909265 19:0.5363636363636358 20:0.5363636363636358 21:0.5363636363636358 22:0.5363636363636358 23:0.39090909090909265 24:0.5363636363636358 25:0.5363636363636358 26:0.5363636363636358 27:0.5363636363636358 28:0.5363636363636358 29:0.5363636363636358 30:0.5363636363636358 
-0.9023850991442189 1:0.5363636363636358 2:0.5363636363636358 3:0.39090909090909265 4:0.5363636363636358 5:0.5363636363636358 6:0.5363636363636358 7:0.5363636363636358 8:0.39090909090909265 9:0.5363636363636358 10:0.5363636363636358 11:0.5363636363636358 12:0.5363636363636358 13:0.5363636363636358 14:0.5363636363636358 15:0.5363636363636358 16:0.39090909090909265 17:0.5363636363636358 18:0.5363636363636358 19:0.5363636363636358 20:0.5363636363636358 21:0.5363636363636358 22:0.5363636363636358 23:0.5363636363636358 24:0.5363636363636358 25:0.5363636363636358 26:0.4636363636363642 27:0.5363636363636358 28:0.5363636363636358 29:0.5363636363636358 30:0.5363636363636358 
-1.0 1:0.39090909090909265 2:0.5363636363636358 3:0.5363636363636358 4:0.5363636363636358 5:0.5363636363636358 6:0.5363636363636358 7:0.5363636363636358 8:0.5363636363636358 9:0.5363636363636358 10:0.5363636363636358 11:0.4636363636363642 12:0.5363636363636358 13:0.5363636363636358 14:0.5363636363636358 15:0.5363636363636358 16:0.39090909090909265 17:0.5363636363636358 18:0.5363636363636358 19:0.5363636363636358 20:0.5363636363636358 21:0.5363636363636358 22:0.5363636363636358 23:0.5363636363636358 24:0.5363636363636358 25:0.5363636363636358 26:0.5363636363636358 27:0.5363636363636358 28:0.5363636363636358 29:0.5363636363636358 30:0.5363636363636358 
-1.0 1:0.39090909090909265 2:0.5363636363636358 3:0.5363636363636358 4:0.5363636363636358 5:0.5363636363636358 6:0.5363636363636358 7:0.5363636363636358 8:0.5363636363636358 9:0.5363636363636358 10:0.5363636363636358 11:0.5363636363636358 12:0.5363636363636358 13:0.5363636363636358 14:0.5363636363636358 15:0.5363636363636358 16:0.20909090909090733 17:0.5363636363636358 18:0.5363636363636358 19:0.5363636363636358 20:0.5363636363636358 21:0.4636363636363642 22:0.5363636363636358 23:0.5363636363636358 24:0.5363636363636358 25:0.5363636363636358 26:0.4636363636363642 27:0.5363636363636358 28:0.5363636363636358 29:0.5363636363636358 30:0.5363636363636358 
-1.0 1:0.5363636363636358 2:0.5363636363636358 3:0.5363636363636358 4:0.5363636363636358 5:0.5363636363636358 6:0.5363636363636358 7:0.5363636363636358 8:0.5363636363636358 9:0.5363636363636358 10:0.5363636363636358 11:0.20909090909090733 12:0.5363636363636358 13:0.5363636363636358 14:0.5363636363636358 15:0.5363636363636358 16:0.4636363636363642 17:0.5363636363636358 18:0.5363636363636358 19:0.5363636363636358 20:0.5363636363636358 21:0.4636363636363642 22:0.5363636363636358 23:0.5363636363636358 24:0.5363636363636358 25:0.5363636363636358 26:0.28181818181817886 27:0.5363636363636358 28:0.5363636363636358 29:0.5363636363636358 30:0.5363636363636358 
-1.0 1:0.5363636363636358 2:0.5363636363636358 3:0.28181818181817886 4:0.5363636363636358 5:0.5363636363636358 6:0.5363636363636358 7:0.5363636363636358 8:0.28181818181817886 9:0.5363636363636358 10:0.5363636363636358 11:0.5363636363636358 12:0.5363636363636358 13:0.4636363636363642 14:0.5363636363636358 15:0.5363636363636358 16:0.5363636363636358 17:0.5363636363636358 18:0.5363636363636358 19:0.5363636363636358 20:0.5363636363636358 21:0.5363636363636358 22:0.5363636363636358 23:0.39090909090909265 24:0.5363636363636358 25:0.5363636363636358 26:0.5363636363636358 27:0.5363636363636358 28:0.5363636363636358 29:0.5363636363636358 30:0.5363636363636358 
-1.0 1:0.5363636363636358 2:0.5363636363636358 3:0.5363636363636358 4:0.5363636363636358 5:0.5363636363636358 6:0.5363636363636358 7:0.5363636363636358 8:0.5363636363636358 9:0.5363636363636358 10:0.39090909090909265 11:0.5363636363636358 12:0.5363636363636358 13:0.5363636363636358 14:0.5363636363636358 15:0.5363636363636358 16:0.5363636363636358 17:0.5363636363636358 18:0.39090909090909265 19:0.5363636363636358 20:0.5363636363636358 21:0.5363636363636358 22:0.5363636363636358 23:0.5363636363636358 24:0.5363636363636358 25:0.5363636363636358 26:0.5363636363636358 27:0.5363636363636358 28:0.5363636363636358 29:0.5363636363636358 30:0.5363636363636358 
-1.0 1:0.5363636363636358 2:0.5363636363636358 3:0.5363636363636358 4:0.5363636363636358 5:0.39090909090909265 6:0.5363636363636358 7:0.5363636363636358 8:0.5363636363636358 9:0.5363636363636358 10:0.5363636363636358 11:0.5363636363636358 12:0.5363636363636358 13:0.39090909090909265 14:0.5363636363636358 15:0.5363636363636358 16:0.5363636363636358 17:0.5363636363636358 18:0.5363636363636358 19:0.5363636363636358 20:0.5363636363636358 21:0.5363636363636358 22:0.5363636363636358 23:0.5363636363636358 24:0.5363636363636358 25:0.5363636363636358 26:0.1 27:0.5363636363636358 28:0.5363636363636358 29:0.5363636363636358 30:0.5363636363636358 
-1.0 1:0.5363636363636358 2:0.5363636363636358 3:0.39090909090909265 4:0.5363636363636358 5:0.5363636363636358 6:0.5363636363636358 7:0.5363636363636358 8:0.5363636363636358 9:0.5363636363636358 10:0.5363636363636358 11:0.5363636363636358 12:0.5363636363636358 13:0.5363636363636358 14:0.5363636363636358 15:0.5363636363636358 16:0.1 17:0.5363636363636358 18:0.5363636363636358 19:0.5363636363636358 20:0.5363636363636358 21:0.28181818181817886 22:0.5363636363636358 23:0.5363636363636358 24:0.5363636363636358 25:0.5363636363636358 26:0.39090909090909265 27:0.5363636363636358 28:0.5363636363636358 29:0.5363636363636358 30:0.5363636363636358 
-1.0 1:0.5363636363636358 2:0.5363636363636358 3:0.5363636363636358 4:0.5363636363636358 5:0.5363636363636358 6:0.5363636363636358 7:0.5363636363636358 8:0.5363636363636358 9:0.5363636363636358 10:0.5363636363636358 11:0.1 12:0.5363636363636358 13:0.5363636363636358 14:0.5363636363636358 15:0.5363636363636358 16:0.28181818181817886 17:0.5363636363636358 18:0.5363636363636358 19:0.5363636363636358 20:0.5363636363636358 21:0.39090909090909265 22:0.5363636363636358 23:0.5363636363636358 24:0.5363636363636358 25:0.5363636363636358 26:0.20909090909090733 27:0.5363636363636358 28:0.5363636363636358 29:0.5363636363636358 30:0.5363636363636358 
-1.0 1:0.5363636363636358 2:0.5363636363636358 3:0.5363636363636358 4:0.5363636363636358 5:0.5363636363636358 6:0.1 7:0.5363636363636358 8:0.5363636363636358 9:0.5363636363636358 10:0.5363636363636358 11:0.28181818181817886 12:0.5363636363636358 13:0.5363636363636358 14:0.5363636363636358 15:0.5363636363636358 16:0.39090909090909265 17:0.5363636363636358 18:0.5363636363636358 19:0.5363636363636358 20:0.5363636363636358 21:0.20909090909090733 22:0.5363636363636358 23:0.5363636363636358 24:0.5363636363636358 25:0.5363636363636358 26:0.1 27:0.5363636363636358 28:0.5363636363636358 29:0.5363636363636358 30:0.5363636363636358 
1.0 1:0.28181818181817886 2:0.5363636363636358 3:0.5363636363636358 4:0.5363636363636358 5:0.5363636363636358 6:0.39090909090909265 7:0.5363636363636358 8:0.5363636363636358 9:0.5363636363636358 10:0.5363636363636358 11:0.20909090909090733 12:0.5363636363636358 13:0.5363636363636358 14:0.5363636363636358 15:0.5363636363636358 16:0.1 17:0.5363636363636358 18:0.5363636363636358 19:0.5363636363636358 20:0.5363636363636358 21:0.20909090909090733 22:0.5363636363636358 23:0.5363636363636358 24:0.5363636363636358 25:0.5363636363636358 26:0.39090909090909265 27:0.5363636363636358 28:0.5363636363636358 29:0.5363636363636358 30:0.5363636363636358 
0.5684628683541357 1:0.39090909090909265 2:0.5363636363636358 3:0.5363636363636358 4:0.5363636363636358 5:0.5363636363636358 6:0.20909090909090733 7:0.5363636363636358 8:0.5363636363636358 9:0.5363636363636358 10:0.5363636363636358 11:0.1 12:0.5363636363636358 13:0.5363636363636358 14:0.5363636363636358 15:0.5363636363636358 16:0.20909090909090733 17:0.5363636363636358 18:0.5363636363636358 19:0.5363636363636358 20:0.5363636363636358 21:0.39090909090909265 22:0.5363636363636358 23:0.5363636363636358 24:0.5363636363636358 25:0.5363636363636358 26:0.5363636363636358 27:0.5363636363636358 28:0.5363636363636358 29:0.5363636363636358 30:0.5363636363636358 
-1.0 1:0.5363636363636358 2:0.5363636363636358 3:0.5363636363636358 4:0.1 5:0.5363636363636358 6:0.5363636363636358 7:0.5363636363636358 8:0.5363636363636358 9:0.20909090909090733 10:0.5363636363636358 11:0.5363636363636358 12:0.5363636363636358 13:0.5363636363636358 14:0.39090909090909265 15:0.5363636363636358 16:0.5363636363636358 17:0.5363636363636358 18:0.5363636363636358 19:0.5363636363636358 20:0.5363636363636358 21:0.5363636363636358 22:0.5363636363636358 23:0.5363636363636358 24:0.5363636363636358 25:0.5363636363636358 26:0.5363636363636358 27:0.4636363636363642 28:0.5363636363636358 29:0.5363636363636358 30:0.5363636363636358 
-1.0 1:0.39090909090909265 2:0.5363636363636358 3:0.5363636363636358 4:0.5363636363636358 5:0.5363636363636358 6:0.5363636363636358 7:0.5363636363636358 8:0.5363636363636358 9:0.5363636363636358 10:0.5363636363636358 11:0.5363636363636358 12:0.5363636363636358 13:0.5363636363636358 14:0.4636363636363642 15:0.5363636363636358 16:0.5363636363636358 17:0.5363636363636358 18:0.28181818181817886 19:0.5363636363636358 20:0.5363636363636358 21:0.5363636363636358 22:0.5363636363636358 23:0.5363636363636358 24:0.5363636363636358 25:0.5363636363636358 26:0.5363636363636358 27:0.5363636363636358 28:0.5363636363636358 29:0.5363636363636358 30:0.5363636363636358 
-1.0 1:0.5363636363636358 2:0.5363636363636358 3:0.5363636363636358 4:0.5363636363636358 5:0.5363636363636358 6:0.4636363636363642 7:0.5363636363636358 8:0.5363636363636358 9:0.5363636363636358 10:0.28181818181817886 11:0.5363636363636358 12:0.5363636363636358 13:0.5363636363636358 14:0.5363636363636358 15:0.5363636363636358 16:0.5363636363636358 17:0.5363636363636358 18:0.5363636363636358 19:0.5363636363636358 20:0.5363636363636358 21:0.5363636363636358 22:0.5363636363636358 23:0.28181818181817886 24:0.5363636363636358 25:0.5363636363636358 26:0.5363636363636358 27:0.5363636363636358 28:0.5363636363636358 29:0.5363636363636358 30:0.5363636363636358 
-1.0 1:0.5363636363636358 2:0.5363636363636358 3:0.5363636363636358 4:0.5363636363636358 5:0.5363636363636358 6:0.5363636363636358 7:0.5363636363636358 8:0.5363636363636358 9:0.5363636363636358 10:0.5363636363636358 11:0.5363636363636358 12:0.5363636363636358 13:0.5363636363636358 14:0.5363636363636358 15:0.5363636363636358 16:0.5363636363636358 17:0.5363636363636358 18:0.5363636363636358 19:0.5363636363636358 20:0.5363636363636358 21:0.5363636363636358 22:0.5363636363636358 23:0.5363636363636358 24:0.5363636363636358 25:0.5363636363636358 26:0.5363636363636358 27:0.5363636363636358 28:0.5363636363636358 29:0.5363636363636358 30:0.5363636363636358 
1.0 1:0.5363636363636358 2:0.5363636363636358 3:0.5363636363636358 4:0.5363636363636358 5:0.5363636363636358 6:0.5363636363636358 7:0.5363636363636358 8:0.5363636363636358 9:0.5363636363636358 10:0.5363636363636358 11:0.5363636363636358 12:0.5363636363636358 13:0.5363636363636358 14:0.5363636363636358 15:0.5363636363636358 16:0.5363636363636358 17:0.5363636363636358 18:0.5363636363636358 19:0.5363636363636358 20:0.5363636363636358 21:0.5363636363636358 22:0.5363636363636358 23:0.5363636363636358 24:0.5363636363636358 25:0.5363636363636358 26:0.5363636363636358 27:0.5363636363636358 28:0.5363636363636358 29:0.5363636363636358 30:0.5363636363636358 
1.0 1:0.5363636363636358 2:0.5363636363636358 3:0.5363636363636358 4:0.5363636363636358 5:0.5363636363636358 6:0.5363636363636358 7:0.5363636363636358 8:0.5363636363636358 9:0.5363636363636358 10:0.5363636363636358 11:0.5363636363636358 12:0.5363636363636358 13:0.5363636363636358 14:0.5363636363636358 15:0.5363636363636358 16:0.5363636363636358 17:0.5363636363636358 18:0.5363636363636358 19:0.5363636363636358 20:0.5363636363636358 21:0.8272727272727284 22:0.5363636363636358 23:0.5363636363636358 24:0.5363636363636358 25:0.5363636363636358 26:0.6454545454545496 27:0.5363636363636358 28:0.5363636363636358 29:0.5363636363636358 30:0.5363636363636358 
1.0 1:0.5363636363636358 2:0.5363636363636358 3:0.5363636363636358 4:0.5363636363636358 5:0.5363636363636358 6:0.5363636363636358 7:0.5363636363636358 8:0.5363636363636358 9:0.5363636363636358 10:0.5363636363636358 11:0.5363636363636358 12:0.5363636363636358 13:0.5363636363636358 14:0.5363636363636358 15:0.5363636363636358 16:0.8272727272727284 17:0.5363636363636358 18:0.5363636363636358 19:0.5363636363636358 20:0.5363636363636358 21:0.6454545454545496 22:0.5363636363636358 23:0.5363636363636358 24:0.5363636363636358 25:0.5363636363636358 26:0.7181818181818211 27:0.5363636363636358 28:0.5363636363636358 29:0.5363636363636358 30:0.5363636363636358 
0.24931877051449017 1:0.5363636363636358 2:0.5363636363636358 3:0.5363636363636358 4:0.5363636363636358 5:0.5363636363636358 6:0.5363636363636358 7:0.5363636363636358 8:0.5363636363636358 9:0.5363636363636358 10:0.5363636363636358 11:0.8272727272727284 12:0.5363636363636358 13:0.5363636363636358 14:0.5363636363636358 15:0.5363636363636358 16:0.6454545454545496 17:0.5363636363636358 18:0.5363636363636358 19:0.5363636363636358 20:0.5363636363636358 21:0.7181818181818211 22:0.5363636363636358 23:0.5363636363636358 24:0.5363636363636358 25:0.5363636363636358 26:0.7181818181818211 27:0.5363636363636358 28:0.5363636363636358 29:0.5363636363636358 30:0.5363636363636358 
-1.0 1:0.7181818181818211 2:0.5363636363636358 3:0.5363636363636358 4:0.5363636363636358 5:0.5363636363636358 6:0.7181818181818211 7:0.5363636363636358 8:0.5363636363636358 9:0.5363636363636358 10:0.5363636363636358 11:0.5363636363636358 12:0.5363636363636358 13:0.5363636363636358 14:0.5363636363636358 15:0.5363636363636358 16:0.6454545454545496 17:0.5363636363636358 18:0.5363636363636358 19:0.5363636363636358 20:0.5363636363636358 21:0.6454545454545496 22:0.5363636363636358 23:0.5363636363636358 24:0.5363636363636358 25:0.5363636363636358 26:0.5363636363636358 27:0.5363636363636358 28:0.5363636363636358 29:0.5363636363636358 30:0.5363636363636358 
1.0 1:0.5363636363636358 2:0.5363636363636358 3:0.5363636363636358 4:0.5363636363636358 5:0.5363636363636358 6:0.5363636363636358 7:0.6454545454545496 8:0.5363636363636358 9:0.5363636363636358 10:0.5363636363636358 11:0.5363636363636358 12:0.6454545454545496 13:0.5363636363636358 14:0.5363636363636358 15:0.5363636363636358 16:0.5363636363636358 17:0.5363636363636358 18:0.5363636363636358 19:0.5363636363636358 20:0.5363636363636358 21:0.5363636363636358 22:0.4636363636363642 23:0.5363636363636358 24:0.5363636363636358 25:0.5363636363636358 26:0.5363636363636358 27:0.5363636363636358 28:0.5363636363636358 29:0.5363636363636358 30:0.5363636363636358 
1.0 1:0.6454545454545496 2:0.5363636363636358 3:0.5363636363636358 4:0.5363636363636358 5:0.5363636363636358 6:0.6454545454545496 7:0.5363636363636358 8:0.5363636363636358 9:0.5363636363636358 10:0.5363636363636358 11:0.5363636363636358 12:0.5363636363636358 13:0.5363636363636358 14:0.5363636363636358 15:0.5363636363636358 16:0.4636363636363642 17:0.5363636363636358 18:0.5363636363636358 19:0.5363636363636358 20:0.5363636363636358 21:0.5363636363636358 22:0.5363636363636358 23:0.5363636363636358 24:0.5363636363636358 25:0.6454545454545496 26:0.5363636363636358 27:0.5363636363636358 28:0.5363636363636358 29:0.5363636363636358 30:0.5363636363636358 
1.0 1:0.6454545454545496 2:0.5363636363636358 3:0.5363636363636358 4:0.5363636363636358 5:0.5363636363636358 6:0.5363636363636358 7:0.5363636363636358 8:0.5363636363636358 9:0.5363636363636358 10:0.5363636363636358 11:0.4636363636363642 12:0.5363636363636358 13:0.5363636363636358 14:0.5363636363636358 15:0.5363636363636358 16:0.5363636363636358 17:0.5363636363636358 18:0.5363636363636358 19:0.5363636363636358 20:0.6454545454545496 21:0.5363636363636358 22:0.5363636363636358 23:0.5363636363636358 24:0.5363636363636358 25:0.5363636363636358 26:0.6454545454545496 27:0.5363636363636358 28:0.5363636363636358 29:0.5363636363636358 30:0.5363636363636358 
1.0 1:0.5363636363636358 2:0.5363636363636358 3:0.5363636363636358 4:0.5363636363636358 5:0.5363636363636358 6:0.5363636363636358 7:0.5363636363636358 8:0.6454545454545496 9:0.5363636363636358 10:0.5363636363636358 11:0.5363636363636358 12:0.5363636363636358 13:0.5363636363636358 14:0.6454545454545496 15:0.5363636363636358 16:0.5363636363636358 17:0.5363636363636358 18:0.5363636363636358 19:0.7181818181818211 20:0.5363636363636358 21:0.5363636363636358 22:0.5363636363636358 23:0.5363636363636358 24:0.6454545454545496 25:0.5363636363636358 26:0.5363636363636358 27:0.5363636363636358 28:0.5363636363636358 29:0.5363636363636358 30:0.5363636363636358 
1.0 1:0.5363636363636358 2:0.5363636363636358 3:0.7181818181818211 4:0.5363636363636358 5:0.5363636363636358 6:0.5363636363636358 7:0.5363636363636358 8:0.6454545454545496 9:0.5363636363636358 10:0.5363636363636358 11:0.5363636363636358 12:0.5363636363636358 13:0.5363636363636358 14:0.5363636363636358 15:0.6454545454545496 16:0.5363636363636358 17:0.5363636363636358 18:0.5363636363636358 19:0.5363636363636358 20:0.5363636363636358 21:0.4636363636363642 22:0.5363636363636358 23:0.5363636363636358 24:0.5363636363636358 25:0.5363636363636358 26:0.4636363636363642 27:0.5363636363636358 28:0.5363636363636358 29:0.5363636363636358 30:0.5363636363636358 
1.0 1:0.4636363636363642 2:0.5363636363636358 3:0.5363636363636358 4:0.5363636363636358 5:0.5363636363636358 6:0.6454545454545496 7:0.5363636363636358 8:0.5363636363636358 9:0.5363636363636358 10:0.5363636363636358 11:0.5363636363636358 12:0.5363636363636358 13:0.5363636363636358 14:0.5363636363636358 15:0.5363636363636358 16:0.5363636363636358 17:0.5363636363636358 18:0.5363636363636358 19:0.5363636363636358 20:0.5363636363636358 21:0.4636363636363642 22:0.5363636363636358 23:0.5363636363636358 24:0.5363636363636358 25:0.5363636363636358 26:0.5363636363636358 27:0.5363636363636358 28:0.5363636363636358 29:0.5363636363636358 30:0.5363636363636358 
1.0 1:0.6454545454545496 2:0.5363636363636358 3:0.5363636363636358 4:0.5363636363636358 5:0.5363636363636358 6:0.6454545454545496 7:0.5363636363636358 8:0.5363636363636358 9:0.5363636363636358 10:0.5363636363636358 11:0.6454545454545496 12:0.5363636363636358 13:0.5363636363636358 14:0.5363636363636358 15:0.5363636363636358 16:0.6454545454545496 17:0.5363636363636358 18:0.5363636363636358 19:0.5363636363636358 20:0.5363636363636358 21:0.6454545454545496 22:0.5363636363636358 23:0.5363636363636358 24:0.5363636363636358 25:0.5363636363636358 26:0.6454545454545496 27:0.5363636363636358 28:0.5363636363636358 29:0.5363636363636358 30:0.5363636363636358 
1.0 1:0.6454545454545496 2:0.5363636363636358 3:0.5363636363636358 4:0.5363636363636358 5:0.5363636363636358 6:0.6454545454545496 7:0.5363636363636358 8:0.5363636363636358 9:0.5363636363636358 10:0.5363636363636358 11:0.6454545454545496 12:0.5363636363636358 13:0.5363636363636358 14:0.5363636363636358 15:0.5363636363636358 16:0.6454545454545496 17:0.5363636363636358 18:0.5363636363636358 19:0.5363636363636358 20:0.5363636363636358 21:0.7181818181818211 22:0.5363636363636358 23:0.5363636363636358 24:0.5363636363636358 25:0.5363636363636358 26:0.5363636363636358 27:0.5363636363636358 28:0.5363636363636358 29:0.5363636363636358 30:0.5363636363636358 
-1.0 1:0.6454545454545496 2:0.5363636363636358 3:0.5363636363636358 4:0.5363636363636358 5:0.5363636363636358 6:0.7181818181818211 7:0.5363636363636358 8:0.5363636363636358 9:0.5363636363636358 10:0.5363636363636358 11:0.5363636363636358 12:0.5363636363636358 13:0.5363636363636358 14:0.5363636363636358 15:0.5363636363636358 16:0.7181818181818211 17:0.5363636363636358 18:0.5363636363636358 19:0.5363636363636358 20:0.5363636363636358 21:0.6454545454545496 22:0.5363636363636358 23:0.5363636363636358 24:0.5363636363636358 25:0.5363636363636358 26:0.6454545454545496 27:0.5363636363636358 28:0.5363636363636358 29:0.5363636363636358 30:0.5363636363636358 
1.0 1:0.6454545454545496 2:0.5363636363636358 3:0.5363636363636358 4:0.5363636363636358 5:0.5363636363636358 6:0.4636363636363642 7:0.5363636363636358 8:0.5363636363636358 9:0.5363636363636358 10:0.5363636363636358 11:0.6454545454545496 12:0.5363636363636358 13:0.5363636363636358 14:0.5363636363636358 15:0.5363636363636358 16:0.5363636363636358 17:0.5363636363636358 18:0.5363636363636358 19:0.5363636363636358 20:0.5363636363636358 21:0.4636363636363642 22:0.5363636363636358 23:0.5363636363636358 24:0.5363636363636358 25:0.5363636363636358 26:0.5363636363636358 27:0.5363636363636358 28:0.5363636363636358 29:0.5363636363636358 30:0.5363636363636358 
1.0 1:0.5363636363636358 2:0.5363636363636358 3:0.5363636363636358 4:0.5363636363636358 5:0.5363636363636358 6:0.6454545454545496 7:0.5363636363636358 8:0.5363636363636358 9:0.5363636363636358 10:0.5363636363636358 11:0.5363636363636358 12:0.5363636363636358 13:0.5363636363636358 14:0.5363636363636358 15:0.5363636363636358 16:0.5363636363636358 17:0.5363636363636358 18:0.5363636363636358 19:0.5363636363636358 20:0.5363636363636358 21:0.4636363636363642 22:0.5363636363636358 23:0.5363636363636358 24:0.5363636363636358 25:0.5363636363636358 26:0.4636363636363642 27:0.5363636363636358 28:0.5363636363636358 29:0.5363636363636358 30:0.5363636363636358 
1.0 1:0.5363636363636358 2:0.5363636363636358 3:0.5363636363636358 4:0.4636363636363642 5:0.5363636363636358 6:0.5363636363636358 7:0.5363636363636358 8:0.5363636363636358 9:0.4636363636363642 10:0.5363636363636358 11:0.5363636363636358 12:0.5363636363636358 13:0.5363636363636358 14:0.6454545454545496 15:0.5363636363636358 16:0.5363636363636358 17:0.5363636363636358 18:0.5363636363636358 19:0.4636363636363642 20:0.5363636363636358 21:0.5363636363636358 22:0.5363636363636358 23:0.5363636363636358 24:0.5363636363636358 25:0.5363636363636358 26:0.5363636363636358 27:0.5363636363636358 28:0.5363636363636358 29:0.5363636363636358 30:0.5363636363636358 
1.0 1:0.5363636363636358 2:0.5363636363636358 3:0.5363636363636358 4:0.5363636363636358 5:0.5363636363636358 6:0.5363636363636358 7:0.5363636363636358 8:0.5363636363636358 9:0.5363636363636358 10:0.6454545454545496 11:0.5363636363636358 12:0.5363636363636358 13:0.5363636363636358 14:0.5363636363636358 15:0.5363636363636358 16:0.5363636363636358 17:0.5363636363636358 18:0.5363636363636358 19:0.5363636363636358 20:0.5363636363636358 21:0.5363636363636358 22:0.5363636363636358 23:0.5363636363636358 24:0.5363636363636358 25:0.5363636363636358 26:0.4636363636363642 27:0.5363636363636358 28:0.5363636363636358 29:0.5363636363636358 30:0.5363636363636358 
1.0 1:0.5363636363636358 2:0.5363636363636358 3:0.5363636363636358 4:0.5363636363636358 5:0.5363636363636358 6:0.4636363636363642 7:0.5363636363636358 8:0.5363636363636358 9:0.5363636363636358 10:0.5363636363636358 11:0.6454545454545496 12:0.5363636363636358 13:0.5363636363636358 14:0.5363636363636358 15:0.5363636363636358 16:0.5363636363636358 17:0.5363636363636358 18:0.5363636363636358 19:0.5363636363636358 20:0.5363636363636358 21:0.5363636363636358 22:0.5363636363636358 23:0.5363636363636358 24:0.5363636363636358 25:0.5363636363636358 26:0.5363636363636358 27:0.5363636363636358 28:0.5363636363636358 29:0.5363636363636358 30:0.5363636363636358 
1.0 1:0.4636363636363642 2:0.5363636363636358 3:0.5363636363636358 4:0.5363636363636358 5:0.5363636363636358 6:0.5363636363636358 7:0.5363636363636358 8:0.5363636363636358 9:0.5363636363636358 10:0.5363636363636358 11:0.5363636363636358 12:0.5363636363636358 13:0.5363636363636358 14:0.5363636363636358 15:0.5363636363636358 16:0.4636363636363642 17:0.5363636363636358 18:0.5363636363636358 19:0.5363636363636358 20:0.5363636363636358 21:0.5363636363636358 22:0.5363636363636358 23:0.5363636363636358 24:0.5363636363636358 25:0.4636363636363642 26:0.5363636363636358 27:0.5363636363636358 28:0.5363636363636358 29:0.5363636363636358 30:0.5363636363636358 
-1.0 1:0.5363636363636358 2:0.5363636363636358 3:0.5363636363636358 4:0.5363636363636358 5:0.5363636363636358 6:0.5363636363636358 7:0.4636363636363642 8:0.5363636363636358 9:0.5363636363636358 10:0.5363636363636358 11:0.5363636363636358 12:0.5363636363636358 13:0.6454545454545496 14:0.5363636363636358 15:0.5363636363636358 16:0.5363636363636358 17:0.5363636363636358 18:0.4636363636363642 19:0.5363636363636358 20:0.5363636363636358 21:0.5363636363636358 22:0.5363636363636358 23:0.5363636363636358 24:0.5363636363636358 25:0.5363636363636358 26:0.4636363636363642 27:0.5363636363636358 28:0.5363636363636358 29:0.5363636363636358 30:0.5363636363636358 
-1.0 1:0.5363636363636358 2:0.4636363636363642 3:0.5363636363636358 4:0.5363636363636358 5:0.5363636363636358 6:0.5363636363636358 7:0.5363636363636358 8:0.6454545454545496 9:0.5363636363636358 10:0.5363636363636358 11:0.5363636363636358 12:0.5363636363636358 13:0.4636363636363642 14:0.5363636363636358 15:0.5363636363636358 16:0.5363636363636358 17:0.5363636363636358 18:0.5363636363636358 19:0.5363636363636358 20:0.5363636363636358 21:0.4636363636363642 22:0.5363636363636358 23:0.5363636363636358 24:0.5363636363636358 25:0.5363636363636358 26:0.39090909090909265 27:0.5363636363636358 28:0.5363636363636358 29:0.5363636363636358 30:0.5363636363636358 
-1.0 1:0.5363636363636358 2:0.5363636363636358 3:0.5363636363636358 4:0.5363636363636358 5:0.4636363636363642 6:0.5363636363636358 7:0.5363636363636358 8:0.5363636363636358 9:0.5363636363636358 10:0.5363636363636358 11:0.5363636363636358 12:0.5363636363636358 13:0.5363636363636358 14:0.5363636363636358 15:0.5363636363636358 16:0.4636363636363642 17:0.5363636363636358 18:0.5363636363636358 19:0.5363636363636358 20:0.5363636363636358 21:0.4636363636363642 22:0.5363636363636358 23:0.5363636363636358 24:0.5363636363636358 25:0.5363636363636358 26:0.5363636363636358 27:0.5363636363636358 28:0.5363636363636358 29:0.5363636363636358 30:0.5363636363636358 
-1.0 1:0.5363636363636358 2:0.5363636363636358 3:0.5363636363636358 4:0.5363636363636358 5:0.5363636363636358 6:0.4636363636363642 7:0.5363636363636358 8:0.5363636363636358 9:0.5363636363636358 10:0.5363636363636358 11:0.5363636363636358 12:0.5363636363636358 13:0.5363636363636358 14:0.5363636363636358 15:0.5363636363636358 16:0.5363636363636358 17:0.5363636363636358 18:0.5363636363636358 19:0.5363636363636358 20:0.5363636363636358 21:0.5363636363636358 22:0.5363636363636358 23:0.5363636363636358 24:0.5363636363636358 25:0.5363636363636358 26:0.4636363636363642 27:0.5363636363636358 28:0.5363636363636358 29:0.5363636363636358 30:0.5363636363636358 
