encog,SVM,java,3.1.0,1,1400509240635
[SVM]
[SVM:PARAMS]
[SVM:SVM-PARAM]
inputCount=30
C=1
cacheSize=100
coef0=0
degree=3
eps=0.001
gamma=0.0333333333
kernelType=2
nrWeight=0
nu=0.5
p=0.1
probability=0
shrinking=1
svmType=3
weight=
weightLabel=
[SVM:SVM-MODEL]
svm_type epsilon_svr
kernel_type rbf
gamma 0.03333333333333333
nr_class 2
total_sv 79
rho -0.6071424786732678
SV
-1.0 1:0.45862068965517255 2:0.6793103448275863 3:0.6793103448275863 4:0.6793103448275863 5:0.6793103448275863 6:0.6793103448275863 7:0.6793103448275863 8:0.6793103448275863 9:0.6793103448275863 10:0.6793103448275863 11:0.6793103448275863 12:0.6793103448275863 13:0.6793103448275863 14:0.6793103448275863 15:0.6793103448275863 16:0.5321839080459771 17:0.6793103448275863 18:0.6793103448275863 19:0.6793103448275863 20:0.6793103448275863 21:0.5321839080459771 22:0.6793103448275863 23:0.6793103448275863 24:0.6793103448275863 25:0.6793103448275863 26:0.5321839080459771 27:0.6793103448275863 28:0.6793103448275863 29:0.6793103448275863 30:0.6793103448275863 
1.0 1:0.6793103448275863 2:0.6793103448275863 3:0.6793103448275863 4:0.6793103448275863 5:0.6793103448275863 6:0.6793103448275863 7:0.6793103448275863 8:0.6793103448275863 9:0.6793103448275863 10:0.6793103448275863 11:0.5321839080459771 12:0.6793103448275863 13:0.6793103448275863 14:0.6793103448275863 15:0.6793103448275863 16:0.5321839080459771 17:0.6793103448275863 18:0.6793103448275863 19:0.6793103448275863 20:0.6793103448275863 21:0.5321839080459771 22:0.6793103448275863 23:0.6793103448275863 24:0.6793103448275863 25:0.6793103448275863 26:0.45862068965517255 27:0.6793103448275863 28:0.6793103448275863 29:0.6793103448275863 30:0.6793103448275863 
-1.0 1:0.5321839080459771 2:0.6793103448275863 3:0.6793103448275863 4:0.6793103448275863 5:0.6793103448275863 6:0.45862068965517255 7:0.6793103448275863 8:0.6793103448275863 9:0.6793103448275863 10:0.6793103448275863 11:0.7528735632183908 12:0.6793103448275863 13:0.6793103448275863 14:0.6793103448275863 15:0.6793103448275863 16:0.5321839080459771 17:0.6793103448275863 18:0.6793103448275863 19:0.6793103448275863 20:0.6793103448275863 21:0.6793103448275863 22:0.6793103448275863 23:0.6793103448275863 24:0.6793103448275863 25:0.6793103448275863 26:0.5321839080459771 27:0.6793103448275863 28:0.6793103448275863 29:0.6793103448275863 30:0.6793103448275863 
-1.0 1:0.45862068965517255 2:0.6793103448275863 3:0.6793103448275863 4:0.6793103448275863 5:0.6793103448275863 6:0.7528735632183908 7:0.6793103448275863 8:0.6793103448275863 9:0.6793103448275863 10:0.6793103448275863 11:0.5321839080459771 12:0.6793103448275863 13:0.6793103448275863 14:0.6793103448275863 15:0.6793103448275863 16:0.6793103448275863 17:0.6793103448275863 18:0.6793103448275863 19:0.6793103448275863 20:0.6793103448275863 21:0.5321839080459771 22:0.6793103448275863 23:0.6793103448275863 24:0.6793103448275863 25:0.6793103448275863 26:0.45862068965517255 27:0.6793103448275863 28:0.6793103448275863 29:0.6793103448275863 30:0.6793103448275863 
1.0 1:0.7528735632183908 2:0.6793103448275863 3:0.6793103448275863 4:0.6793103448275863 5:0.6793103448275863 6:0.5321839080459771 7:0.6793103448275863 8:0.6793103448275863 9:0.6793103448275863 10:0.6793103448275863 11:0.6793103448275863 12:0.6793103448275863 13:0.6793103448275863 14:0.6793103448275863 15:0.6793103448275863 16:0.5321839080459771 17:0.6793103448275863 18:0.6793103448275863 19:0.6793103448275863 20:0.6793103448275863 21:0.45862068965517255 22:0.6793103448275863 23:0.6793103448275863 24:0.6793103448275863 25:0.6793103448275863 26:0.45862068965517255 27:0.6793103448275863 28:0.6793103448275863 29:0.6793103448275863 30:0.6793103448275863 
-1.0 1:0.6793103448275863 2:0.6793103448275863 3:0.6793103448275863 4:0.6793103448275863 5:0.6793103448275863 6:0.6793103448275863 7:0.6793103448275863 8:0.6793103448275863 9:0.6793103448275863 10:0.6793103448275863 11:0.6793103448275863 12:0.6793103448275863 13:0.6793103448275863 14:0.6793103448275863 15:0.6793103448275863 16:0.7528735632183908 17:0.6793103448275863 18:0.6793103448275863 19:0.6793103448275863 20:0.6793103448275863 21:0.7528735632183908 22:0.6793103448275863 23:0.6793103448275863 24:0.6793103448275863 25:0.6793103448275863 26:0.7528735632183908 27:0.6793103448275863 28:0.6793103448275863 29:0.6793103448275863 30:0.6793103448275863 
-0.705364100730146 1:0.6793103448275863 2:0.6793103448275863 3:0.7528735632183908 4:0.6793103448275863 5:0.6793103448275863 6:0.6793103448275863 7:0.6793103448275863 8:0.7528735632183908 9:0.6793103448275863 10:0.6793103448275863 11:0.6793103448275863 12:0.6793103448275863 13:0.7528735632183908 14:0.6793103448275863 15:0.6793103448275863 16:0.6793103448275863 17:0.6793103448275863 18:0.6057471264367817 19:0.6793103448275863 20:0.6793103448275863 21:0.6793103448275863 22:0.6793103448275863 23:0.6793103448275863 24:0.6793103448275863 25:0.6793103448275863 26:0.7528735632183908 27:0.6793103448275863 28:0.6793103448275863 29:0.6793103448275863 30:0.6793103448275863 
-1.0 1:0.6793103448275863 2:0.6793103448275863 3:0.7528735632183908 4:0.6793103448275863 5:0.6793103448275863 6:0.6793103448275863 7:0.6793103448275863 8:0.7528735632183908 9:0.6793103448275863 10:0.6793103448275863 11:0.6793103448275863 12:0.6793103448275863 13:0.6057471264367817 14:0.6793103448275863 15:0.6793103448275863 16:0.6793103448275863 17:0.6793103448275863 18:0.6793103448275863 19:0.6793103448275863 20:0.6793103448275863 21:0.7528735632183908 22:0.6793103448275863 23:0.6793103448275863 24:0.6793103448275863 25:0.6793103448275863 26:0.6057471264367817 27:0.6793103448275863 28:0.6793103448275863 29:0.6793103448275863 30:0.6793103448275863 
-1.0 1:0.6793103448275863 2:0.6793103448275863 3:0.7528735632183908 4:0.6793103448275863 5:0.6793103448275863 6:0.6793103448275863 7:0.6793103448275863 8:0.6057471264367817 9:0.6793103448275863 10:0.6793103448275863 11:0.6793103448275863 12:0.6793103448275863 13:0.6793103448275863 14:0.6793103448275863 15:0.6793103448275863 16:0.7528735632183908 17:0.6793103448275863 18:0.6793103448275863 19:0.6793103448275863 20:0.6793103448275863 21:0.6057471264367817 22:0.6793103448275863 23:0.6793103448275863 24:0.6793103448275863 25:0.6793103448275863 26:0.5321839080459771 27:0.6793103448275863 28:0.6793103448275863 29:0.6793103448275863 30:0.6793103448275863 
-1.0 1:0.6793103448275863 2:0.6793103448275863 3:0.6793103448275863 4:0.6793103448275863 5:0.6793103448275863 6:0.7528735632183908 7:0.6793103448275863 8:0.6793103448275863 9:0.6793103448275863 10:0.6793103448275863 11:0.6057471264367817 12:0.6793103448275863 13:0.6793103448275863 14:0.6793103448275863 15:0.6793103448275863 16:0.5321839080459771 17:0.6793103448275863 18:0.6793103448275863 19:0.6793103448275863 20:0.6793103448275863 21:0.5321839080459771 22:0.6793103448275863 23:0.6793103448275863 24:0.6793103448275863 25:0.6793103448275863 26:0.6793103448275863 27:0.6793103448275863 28:0.6793103448275863 29:0.6793103448275863 30:0.6793103448275863 
1.0 1:0.7528735632183908 2:0.6793103448275863 3:0.6793103448275863 4:0.6793103448275863 5:0.6793103448275863 6:0.6057471264367817 7:0.6793103448275863 8:0.6793103448275863 9:0.6793103448275863 10:0.6793103448275863 11:0.5321839080459771 12:0.6793103448275863 13:0.6793103448275863 14:0.6793103448275863 15:0.6793103448275863 16:0.5321839080459771 17:0.6793103448275863 18:0.6793103448275863 19:0.6793103448275863 20:0.6793103448275863 21:0.6793103448275863 22:0.6793103448275863 23:0.6793103448275863 24:0.6793103448275863 25:0.6793103448275863 26:0.5321839080459771 27:0.6793103448275863 28:0.6793103448275863 29:0.6793103448275863 30:0.6793103448275863 
1.0 1:0.6057471264367817 2:0.6793103448275863 3:0.6793103448275863 4:0.6793103448275863 5:0.6793103448275863 6:0.5321839080459771 7:0.6793103448275863 8:0.6793103448275863 9:0.6793103448275863 10:0.6793103448275863 11:0.5321839080459771 12:0.6793103448275863 13:0.6793103448275863 14:0.6793103448275863 15:0.6793103448275863 16:0.6793103448275863 17:0.6793103448275863 18:0.6793103448275863 19:0.6793103448275863 20:0.6793103448275863 21:0.5321839080459771 22:0.6793103448275863 23:0.6793103448275863 24:0.6793103448275863 25:0.6793103448275863 26:0.8264367816091954 27:0.6793103448275863 28:0.6793103448275863 29:0.6793103448275863 30:0.6793103448275863 
-1.0 1:0.5321839080459771 2:0.6793103448275863 3:0.6793103448275863 4:0.6793103448275863 5:0.6793103448275863 6:0.5321839080459771 7:0.6793103448275863 8:0.6793103448275863 9:0.6793103448275863 10:0.6793103448275863 11:0.6793103448275863 12:0.6793103448275863 13:0.6793103448275863 14:0.6793103448275863 15:0.6793103448275863 16:0.5321839080459771 17:0.6793103448275863 18:0.6793103448275863 19:0.6793103448275863 20:0.6793103448275863 21:0.8264367816091954 22:0.6793103448275863 23:0.6793103448275863 24:0.6793103448275863 25:0.6793103448275863 26:0.8264367816091954 27:0.6793103448275863 28:0.6793103448275863 29:0.6793103448275863 30:0.6793103448275863 
1.0 1:0.5321839080459771 2:0.6793103448275863 3:0.6793103448275863 4:0.6793103448275863 5:0.6793103448275863 6:0.8264367816091954 7:0.6793103448275863 8:0.6793103448275863 9:0.6793103448275863 10:0.6793103448275863 11:0.8264367816091954 12:0.6793103448275863 13:0.6793103448275863 14:0.6793103448275863 15:0.6793103448275863 16:0.5321839080459771 17:0.6793103448275863 18:0.6793103448275863 19:0.6793103448275863 20:0.6793103448275863 21:0.6793103448275863 22:0.6793103448275863 23:0.6793103448275863 24:0.6793103448275863 25:0.6793103448275863 26:0.7528735632183908 27:0.6793103448275863 28:0.6793103448275863 29:0.6793103448275863 30:0.6793103448275863 
1.0 1:0.6793103448275863 2:0.6793103448275863 3:0.5321839080459771 4:0.6793103448275863 5:0.6793103448275863 6:0.6793103448275863 7:0.6793103448275863 8:0.6793103448275863 9:0.6793103448275863 10:0.6793103448275863 11:0.6793103448275863 12:0.6793103448275863 13:0.7528735632183908 14:0.6793103448275863 15:0.6793103448275863 16:0.6793103448275863 17:0.6793103448275863 18:0.8264367816091954 19:0.6793103448275863 20:0.6793103448275863 21:0.6793103448275863 22:0.6793103448275863 23:0.8264367816091954 24:0.6793103448275863 25:0.6793103448275863 26:0.6793103448275863 27:0.6793103448275863 28:0.6793103448275863 29:0.6793103448275863 30:0.6793103448275863 
-1.0 1:0.6793103448275863 2:0.6793103448275863 3:0.8264367816091954 4:0.6793103448275863 5:0.6793103448275863 6:0.6793103448275863 7:0.6793103448275863 8:0.6793103448275863 9:0.6793103448275863 10:0.6793103448275863 11:0.8264367816091954 12:0.6793103448275863 13:0.6793103448275863 14:0.6793103448275863 15:0.6793103448275863 16:0.6793103448275863 17:0.6793103448275863 18:0.6793103448275863 19:0.6793103448275863 20:0.6793103448275863 21:0.7528735632183908 22:0.6793103448275863 23:0.6793103448275863 24:0.6793103448275863 25:0.6793103448275863 26:0.7528735632183908 27:0.6793103448275863 28:0.6793103448275863 29:0.6793103448275863 30:0.6793103448275863 
-1.0 1:0.6793103448275863 2:0.6793103448275863 3:0.6793103448275863 4:0.6793103448275863 5:0.6793103448275863 6:0.8264367816091954 7:0.6793103448275863 8:0.6793103448275863 9:0.6793103448275863 10:0.6793103448275863 11:0.6793103448275863 12:0.6793103448275863 13:0.6793103448275863 14:0.6793103448275863 15:0.6793103448275863 16:0.7528735632183908 17:0.6793103448275863 18:0.6793103448275863 19:0.6793103448275863 20:0.6793103448275863 21:0.7528735632183908 22:0.6793103448275863 23:0.6793103448275863 24:0.6793103448275863 25:0.6793103448275863 26:0.5321839080459771 27:0.6793103448275863 28:0.6793103448275863 29:0.6793103448275863 30:0.6793103448275863 
-1.0 1:0.8264367816091954 2:0.6793103448275863 3:0.6793103448275863 4:0.6793103448275863 5:0.6793103448275863 6:0.6793103448275863 7:0.6793103448275863 8:0.6793103448275863 9:0.6793103448275863 10:0.6793103448275863 11:0.7528735632183908 12:0.6793103448275863 13:0.6793103448275863 14:0.6793103448275863 15:0.6793103448275863 16:0.7528735632183908 17:0.6793103448275863 18:0.6793103448275863 19:0.6793103448275863 20:0.6793103448275863 21:0.5321839080459771 22:0.6793103448275863 23:0.6793103448275863 24:0.6793103448275863 25:0.6793103448275863 26:0.5321839080459771 27:0.6793103448275863 28:0.6793103448275863 29:0.6793103448275863 30:0.6793103448275863 
1.0 1:0.7528735632183908 2:0.6793103448275863 3:0.6793103448275863 4:0.6793103448275863 5:0.6793103448275863 6:0.5321839080459771 7:0.6793103448275863 8:0.6793103448275863 9:0.6793103448275863 10:0.6793103448275863 11:0.5321839080459771 12:0.6793103448275863 13:0.6793103448275863 14:0.6793103448275863 15:0.6793103448275863 16:0.45862068965517255 17:0.6793103448275863 18:0.6793103448275863 19:0.6793103448275863 20:0.6793103448275863 21:0.6057471264367817 22:0.6793103448275863 23:0.6793103448275863 24:0.6793103448275863 25:0.6793103448275863 26:0.6793103448275863 27:0.6793103448275863 28:0.6793103448275863 29:0.6793103448275863 30:0.6793103448275863 
1.0 1:0.5321839080459771 2:0.6793103448275863 3:0.6793103448275863 4:0.6793103448275863 5:0.6793103448275863 6:0.5321839080459771 7:0.6793103448275863 8:0.6793103448275863 9:0.6793103448275863 10:0.6793103448275863 11:0.45862068965517255 12:0.6793103448275863 13:0.6793103448275863 14:0.6793103448275863 15:0.6793103448275863 16:0.6057471264367817 17:0.6793103448275863 18:0.6793103448275863 19:0.6793103448275863 20:0.6793103448275863 21:0.6793103448275863 22:0.6793103448275863 23:0.6793103448275863 24:0.6793103448275863 25:0.6793103448275863 26:0.8264367816091954 27:0.6793103448275863 28:0.6793103448275863 29:0.6793103448275863 30:0.6793103448275863 
-1.0 1:0.5321839080459771 2:0.6793103448275863 3:0.6793103448275863 4:0.6793103448275863 5:0.6793103448275863 6:0.45862068965517255 7:0.6793103448275863 8:0.6793103448275863 9:0.6793103448275863 10:0.6793103448275863 11:0.6057471264367817 12:0.6793103448275863 13:0.6793103448275863 14:0.6793103448275863 15:0.6793103448275863 16:0.6793103448275863 17:0.6793103448275863 18:0.6793103448275863 19:0.6793103448275863 20:0.6793103448275863 21:0.8264367816091954 22:0.6793103448275863 23:0.6793103448275863 24:0.6793103448275863 25:0.6793103448275863 26:0.8264367816091954 27:0.6793103448275863 28:0.6793103448275863 29:0.6793103448275863 30:0.6793103448275863 
-1.0 1:0.6793103448275863 2:0.6793103448275863 3:0.6793103448275863 4:0.6793103448275863 5:0.7528735632183908 6:0.6793103448275863 7:0.6793103448275863 8:0.6793103448275863 9:0.6793103448275863 10:0.6793103448275863 11:0.6793103448275863 12:0.6793103448275863 13:0.7528735632183908 14:0.6793103448275863 15:0.6793103448275863 16:0.6793103448275863 17:0.6793103448275863 18:0.6793103448275863 19:0.6793103448275863 20:0.6793103448275863 21:0.7528735632183908 22:0.6793103448275863 23:0.6793103448275863 24:0.6793103448275863 25:0.6793103448275863 26:0.7528735632183908 27:0.6793103448275863 28:0.6793103448275863 29:0.6793103448275863 30:0.6793103448275863 
-1.0 1:0.6793103448275863 2:0.6793103448275863 3:0.7528735632183908 4:0.6793103448275863 5:0.6793103448275863 6:0.6793103448275863 7:0.6793103448275863 8:0.6793103448275863 9:0.6793103448275863 10:0.6793103448275863 11:0.7528735632183908 12:0.6793103448275863 13:0.6793103448275863 14:0.6793103448275863 15:0.6793103448275863 16:0.7528735632183908 17:0.6793103448275863 18:0.6793103448275863 19:0.6793103448275863 20:0.6793103448275863 21:0.5321839080459771 22:0.6793103448275863 23:0.6793103448275863 24:0.6793103448275863 25:0.6793103448275863 26:0.6793103448275863 27:0.6793103448275863 28:0.6793103448275863 29:0.6793103448275863 30:0.6793103448275863 
-1.0 1:0.7528735632183908 2:0.6793103448275863 3:0.6793103448275863 4:0.6793103448275863 5:0.6793103448275863 6:0.7528735632183908 7:0.6793103448275863 8:0.6793103448275863 9:0.6793103448275863 10:0.6793103448275863 11:0.5321839080459771 12:0.6793103448275863 13:0.6793103448275863 14:0.6793103448275863 15:0.6793103448275863 16:0.6793103448275863 17:0.6793103448275863 18:0.6793103448275863 19:0.6793103448275863 20:0.6793103448275863 21:0.5321839080459771 22:0.6793103448275863 23:0.6793103448275863 24:0.6793103448275863 25:0.6793103448275863 26:0.6793103448275863 27:0.6793103448275863 28:0.6793103448275863 29:0.6793103448275863 30:0.6793103448275863 
1.0 1:0.7528735632183908 2:0.6793103448275863 3:0.6793103448275863 4:0.6793103448275863 5:0.6793103448275863 6:0.5321839080459771 7:0.6793103448275863 8:0.6793103448275863 9:0.6793103448275863 10:0.6793103448275863 11:0.6793103448275863 12:0.6793103448275863 13:0.6793103448275863 14:0.6793103448275863 15:0.6793103448275863 16:0.5321839080459771 17:0.6793103448275863 18:0.6793103448275863 19:0.6793103448275863 20:0.6793103448275863 21:0.6793103448275863 22:0.6793103448275863 23:0.6793103448275863 24:0.6793103448275863 25:0.6793103448275863 26:0.45862068965517255 27:0.6793103448275863 28:0.6793103448275863 29:0.6793103448275863 30:0.6793103448275863 
-1.0 1:0.6793103448275863 2:0.6793103448275863 3:0.5321839080459771 4:0.6793103448275863 5:0.6793103448275863 6:0.6793103448275863 7:0.6793103448275863 8:0.6793103448275863 9:0.6793103448275863 10:0.6793103448275863 11:0.6793103448275863 12:0.6793103448275863 13:0.45862068965517255 14:0.6793103448275863 15:0.6793103448275863 16:0.6793103448275863 17:0.6793103448275863 18:0.7528735632183908 19:0.6793103448275863 20:0.6793103448275863 21:0.6793103448275863 22:0.6793103448275863 23:0.6793103448275863 24:0.6793103448275863 25:0.6793103448275863 26:0.6793103448275863 27:0.6793103448275863 28:0.6793103448275863 29:0.6793103448275863 30:0.6793103448275863 
-1.0 1:0.6793103448275863 2:0.6793103448275863 3:0.6793103448275863 4:0.6793103448275863 5:0.6793103448275863 6:0.6793103448275863 7:0.6793103448275863 8:0.6793103448275863 9:0.45862068965517255 10:0.6793103448275863 11:0.6793103448275863 12:0.6793103448275863 13:0.6793103448275863 14:0.7528735632183908 15:0.6793103448275863 16:0.6793103448275863 17:0.6793103448275863 18:0.6793103448275863 19:0.6793103448275863 20:0.6793103448275863 21:0.6793103448275863 22:0.6793103448275863 23:0.6793103448275863 24:0.6793103448275863 25:0.6793103448275863 26:0.6793103448275863 27:0.38505747126436796 28:0.6793103448275863 29:0.6793103448275863 30:0.6793103448275863 
-1.0 1:0.6793103448275863 2:0.6793103448275863 3:0.6793103448275863 4:0.6793103448275863 5:0.6793103448275863 6:0.6793103448275863 7:0.6793103448275863 8:0.6793103448275863 9:0.6793103448275863 10:0.6793103448275863 11:0.6793103448275863 12:0.6793103448275863 13:0.6793103448275863 14:0.6793103448275863 15:0.6793103448275863 16:0.6793103448275863 17:0.6793103448275863 18:0.6793103448275863 19:0.6793103448275863 20:0.6793103448275863 21:0.6793103448275863 22:0.6793103448275863 23:0.6793103448275863 24:0.6793103448275863 25:0.6793103448275863 26:0.6793103448275863 27:0.6793103448275863 28:0.6793103448275863 29:0.6793103448275863 30:0.6793103448275863 
-1.0 1:0.6793103448275863 2:0.6793103448275863 3:0.6793103448275863 4:0.6793103448275863 5:0.6793103448275863 6:0.6793103448275863 7:0.6793103448275863 8:0.6793103448275863 9:0.6793103448275863 10:0.6793103448275863 11:0.6793103448275863 12:0.6793103448275863 13:0.6793103448275863 14:0.6793103448275863 15:0.6793103448275863 16:0.6793103448275863 17:0.6793103448275863 18:0.6793103448275863 19:0.6793103448275863 20:0.6793103448275863 21:0.6793103448275863 22:0.6793103448275863 23:0.6793103448275863 24:0.6793103448275863 25:0.6793103448275863 26:0.38505747126436796 27:0.6793103448275863 28:0.6793103448275863 29:0.6793103448275863 30:0.6793103448275863 
-1.0 1:0.6793103448275863 2:0.6793103448275863 3:0.6793103448275863 4:0.6793103448275863 5:0.6793103448275863 6:0.6793103448275863 7:0.6793103448275863 8:0.6793103448275863 9:0.6793103448275863 10:0.6793103448275863 11:0.6793103448275863 12:0.6793103448275863 13:0.6793103448275863 14:0.6793103448275863 15:0.6793103448275863 16:0.6793103448275863 17:0.6793103448275863 18:0.6793103448275863 19:0.6793103448275863 20:0.6793103448275863 21:0.38505747126436796 22:0.6793103448275863 23:0.6793103448275863 24:0.6793103448275863 25:0.6793103448275863 26:0.1 27:0.6793103448275863 28:0.6793103448275863 29:0.6793103448275863 30:0.6793103448275863 
-1.0 1:0.6793103448275863 2:0.6793103448275863 3:0.6793103448275863 4:0.6793103448275863 5:0.6793103448275863 6:0.6793103448275863 7:0.6793103448275863 8:0.6793103448275863 9:0.6793103448275863 10:0.6793103448275863 11:0.6793103448275863 12:0.6793103448275863 13:0.6793103448275863 14:0.6793103448275863 15:0.6793103448275863 16:0.38505747126436796 17:0.6793103448275863 18:0.6793103448275863 19:0.6793103448275863 20:0.6793103448275863 21:0.1 22:0.6793103448275863 23:0.6793103448275863 24:0.6793103448275863 25:0.6793103448275863 26:0.24712643678160917 27:0.6793103448275863 28:0.6793103448275863 29:0.6793103448275863 30:0.6793103448275863 
-1.0 1:0.6793103448275863 2:0.6793103448275863 3:0.6793103448275863 4:0.6793103448275863 5:0.6793103448275863 6:0.38505747126436796 7:0.6793103448275863 8:0.6793103448275863 9:0.6793103448275863 10:0.6793103448275863 11:0.1 12:0.6793103448275863 13:0.6793103448275863 14:0.6793103448275863 15:0.6793103448275863 16:0.24712643678160917 17:0.6793103448275863 18:0.6793103448275863 19:0.6793103448275863 20:0.6793103448275863 21:0.38505747126436796 22:0.6793103448275863 23:0.6793103448275863 24:0.6793103448275863 25:0.6793103448275863 26:0.45862068965517255 27:0.6793103448275863 28:0.6793103448275863 29:0.6793103448275863 30:0.6793103448275863 
-1.0 1:0.1 2:0.6793103448275863 3:0.6793103448275863 4:0.6793103448275863 5:0.6793103448275863 6:0.24712643678160917 7:0.6793103448275863 8:0.6793103448275863 9:0.6793103448275863 10:0.6793103448275863 11:0.38505747126436796 12:0.6793103448275863 13:0.6793103448275863 14:0.6793103448275863 15:0.6793103448275863 16:0.45862068965517255 17:0.6793103448275863 18:0.6793103448275863 19:0.6793103448275863 20:0.6793103448275863 21:0.17356321839080457 22:0.6793103448275863 23:0.6793103448275863 24:0.6793103448275863 25:0.6793103448275863 26:0.38505747126436796 27:0.6793103448275863 28:0.6793103448275863 29:0.6793103448275863 30:0.6793103448275863 
-1.0 1:0.38505747126436796 2:0.6793103448275863 3:0.6793103448275863 4:0.6793103448275863 5:0.6793103448275863 6:0.45862068965517255 7:0.6793103448275863 8:0.6793103448275863 9:0.6793103448275863 10:0.6793103448275863 11:0.17356321839080457 12:0.6793103448275863 13:0.6793103448275863 14:0.6793103448275863 15:0.6793103448275863 16:0.38505747126436796 17:0.6793103448275863 18:0.6793103448275863 19:0.6793103448275863 20:0.6793103448275863 21:0.31149425287356336 22:0.6793103448275863 23:0.6793103448275863 24:0.6793103448275863 25:0.6793103448275863 26:0.5321839080459771 27:0.6793103448275863 28:0.6793103448275863 29:0.6793103448275863 30:0.6793103448275863 
1.0 1:0.45862068965517255 2:0.6793103448275863 3:0.6793103448275863 4:0.6793103448275863 5:0.6793103448275863 6:0.17356321839080457 7:0.6793103448275863 8:0.6793103448275863 9:0.6793103448275863 10:0.6793103448275863 11:0.38505747126436796 12:0.6793103448275863 13:0.6793103448275863 14:0.6793103448275863 15:0.6793103448275863 16:0.31149425287356336 17:0.6793103448275863 18:0.6793103448275863 19:0.6793103448275863 20:0.6793103448275863 21:0.5321839080459771 22:0.6793103448275863 23:0.6793103448275863 24:0.6793103448275863 25:0.6793103448275863 26:0.31149425287356336 27:0.6793103448275863 28:0.6793103448275863 29:0.6793103448275863 30:0.6793103448275863 
-1.0 1:0.6793103448275863 2:0.17356321839080457 3:0.6793103448275863 4:0.6793103448275863 5:0.6793103448275863 6:0.6793103448275863 7:0.38505747126436796 8:0.6793103448275863 9:0.6793103448275863 10:0.6793103448275863 11:0.6793103448275863 12:0.31149425287356336 13:0.6793103448275863 14:0.6793103448275863 15:0.6793103448275863 16:0.6793103448275863 17:0.5321839080459771 18:0.6793103448275863 19:0.6793103448275863 20:0.6793103448275863 21:0.6793103448275863 22:0.31149425287356336 23:0.6793103448275863 24:0.6793103448275863 25:0.6793103448275863 26:0.6793103448275863 27:0.6793103448275863 28:0.6793103448275863 29:0.6793103448275863 30:0.6793103448275863 
1.0 1:0.17356321839080457 2:0.6793103448275863 3:0.6793103448275863 4:0.6793103448275863 5:0.6793103448275863 6:0.38505747126436796 7:0.6793103448275863 8:0.6793103448275863 9:0.6793103448275863 10:0.6793103448275863 11:0.31149425287356336 12:0.6793103448275863 13:0.6793103448275863 14:0.6793103448275863 15:0.6793103448275863 16:0.5321839080459771 17:0.6793103448275863 18:0.6793103448275863 19:0.6793103448275863 20:0.6793103448275863 21:0.31149425287356336 22:0.6793103448275863 23:0.6793103448275863 24:0.6793103448275863 25:0.6793103448275863 26:0.6793103448275863 27:0.6793103448275863 28:0.6793103448275863 29:0.6793103448275863 30:0.38505747126436796 
-1.0 1:0.38505747126436796 2:0.6793103448275863 3:0.6793103448275863 4:0.6793103448275863 5:0.6793103448275863 6:0.31149425287356336 7:0.6793103448275863 8:0.6793103448275863 9:0.6793103448275863 10:0.6793103448275863 11:0.5321839080459771 12:0.6793103448275863 13:0.6793103448275863 14:0.6793103448275863 15:0.6793103448275863 16:0.31149425287356336 17:0.6793103448275863 18:0.6793103448275863 19:0.6793103448275863 20:0.6793103448275863 21:0.6793103448275863 22:0.6793103448275863 23:0.6793103448275863 24:0.6793103448275863 25:0.38505747126436796 26:0.6793103448275863 27:0.6793103448275863 28:0.6793103448275863 29:0.6793103448275863 30:0.6793103448275863 
-1.0 1:0.6793103448275863 2:0.6793103448275863 3:0.6793103448275863 4:0.6793103448275863 5:0.6793103448275863 6:0.6793103448275863 7:0.6793103448275863 8:0.38505747126436796 9:0.6793103448275863 10:0.6793103448275863 11:0.6793103448275863 12:0.6793103448275863 13:0.6793103448275863 14:0.45862068965517255 15:0.6793103448275863 16:0.6793103448275863 17:0.6793103448275863 18:0.6793103448275863 19:0.6057471264367817 20:0.6793103448275863 21:0.6793103448275863 22:0.6793103448275863 23:0.6793103448275863 24:0.5321839080459771 25:0.6793103448275863 26:0.6793103448275863 27:0.6793103448275863 28:0.6793103448275863 29:0.6793103448275863 30:0.6793103448275863 
-1.0 1:0.6793103448275863 2:0.38505747126436796 3:0.6793103448275863 4:0.6793103448275863 5:0.6793103448275863 6:0.6793103448275863 7:0.6793103448275863 8:0.45862068965517255 9:0.6793103448275863 10:0.6793103448275863 11:0.6793103448275863 12:0.6793103448275863 13:0.6057471264367817 14:0.6793103448275863 15:0.6793103448275863 16:0.6793103448275863 17:0.6793103448275863 18:0.5321839080459771 19:0.6793103448275863 20:0.6793103448275863 21:0.6793103448275863 22:0.6793103448275863 23:0.6793103448275863 24:0.6793103448275863 25:0.45862068965517255 26:0.6793103448275863 27:0.6793103448275863 28:0.6793103448275863 29:0.6793103448275863 30:0.6793103448275863 
-0.29463589926985395 1:0.6793103448275863 2:0.6793103448275863 3:0.45862068965517255 4:0.6793103448275863 5:0.6793103448275863 6:0.6793103448275863 7:0.6793103448275863 8:0.6057471264367817 9:0.6793103448275863 10:0.6793103448275863 11:0.6793103448275863 12:0.6793103448275863 13:0.5321839080459771 14:0.6793103448275863 15:0.6793103448275863 16:0.6793103448275863 17:0.6793103448275863 18:0.6793103448275863 19:0.6793103448275863 20:0.45862068965517255 21:0.6793103448275863 22:0.6793103448275863 23:0.6793103448275863 24:0.6793103448275863 25:0.6793103448275863 26:0.38505747126436796 27:0.6793103448275863 28:0.6793103448275863 29:0.6793103448275863 30:0.6793103448275863 
-1.0 1:0.6793103448275863 2:0.6793103448275863 3:0.6793103448275863 4:0.6793103448275863 5:0.6793103448275863 6:0.38505747126436796 7:0.6793103448275863 8:0.6793103448275863 9:0.6793103448275863 10:0.6793103448275863 11:0.5321839080459771 12:0.6793103448275863 13:0.6793103448275863 14:0.6793103448275863 15:0.6793103448275863 16:0.6793103448275863 17:0.6793103448275863 18:0.6793103448275863 19:0.6793103448275863 20:0.6793103448275863 21:0.6793103448275863 22:0.6793103448275863 23:0.6793103448275863 24:0.6793103448275863 25:0.6793103448275863 26:0.6793103448275863 27:0.6793103448275863 28:0.6793103448275863 29:0.6793103448275863 30:0.6793103448275863 
1.0 1:0.6793103448275863 2:0.6793103448275863 3:0.6793103448275863 4:0.6793103448275863 5:0.6793103448275863 6:0.6793103448275863 7:0.6793103448275863 8:0.6793103448275863 9:0.6793103448275863 10:0.6793103448275863 11:0.6793103448275863 12:0.6793103448275863 13:0.6793103448275863 14:0.6793103448275863 15:0.6793103448275863 16:0.45862068965517255 17:0.6793103448275863 18:0.6793103448275863 19:0.6793103448275863 20:0.6793103448275863 21:0.6057471264367817 22:0.6793103448275863 23:0.6793103448275863 24:0.6793103448275863 25:0.6793103448275863 26:0.6057471264367817 27:0.6793103448275863 28:0.6793103448275863 29:0.6793103448275863 30:0.6793103448275863 
-1.0 1:0.6793103448275863 2:0.6793103448275863 3:0.6793103448275863 4:0.6793103448275863 5:0.6793103448275863 6:0.6793103448275863 7:0.6793103448275863 8:0.6793103448275863 9:0.6793103448275863 10:0.6793103448275863 11:0.45862068965517255 12:0.6793103448275863 13:0.6793103448275863 14:0.6793103448275863 15:0.6793103448275863 16:0.6057471264367817 17:0.6793103448275863 18:0.6793103448275863 19:0.6793103448275863 20:0.6793103448275863 21:0.6057471264367817 22:0.6793103448275863 23:0.6793103448275863 24:0.6793103448275863 25:0.6793103448275863 26:0.7528735632183908 27:0.6793103448275863 28:0.6793103448275863 29:0.6793103448275863 30:0.6793103448275863 
-1.0 1:0.6793103448275863 2:0.6793103448275863 3:0.6793103448275863 4:0.6793103448275863 5:0.6793103448275863 6:0.45862068965517255 7:0.6793103448275863 8:0.6793103448275863 9:0.6793103448275863 10:0.6793103448275863 11:0.6057471264367817 12:0.6793103448275863 13:0.6793103448275863 14:0.6793103448275863 15:0.6793103448275863 16:0.6057471264367817 17:0.6793103448275863 18:0.6793103448275863 19:0.6793103448275863 20:0.6793103448275863 21:0.7528735632183908 22:0.6793103448275863 23:0.6793103448275863 24:0.6793103448275863 25:0.6793103448275863 26:0.5321839080459771 27:0.6793103448275863 28:0.6793103448275863 29:0.6793103448275863 30:0.6793103448275863 
-1.0 1:0.7528735632183908 2:0.6793103448275863 3:0.6793103448275863 4:0.6793103448275863 5:0.6793103448275863 6:0.5321839080459771 7:0.6793103448275863 8:0.6793103448275863 9:0.6793103448275863 10:0.6793103448275863 11:0.45862068965517255 12:0.6793103448275863 13:0.6793103448275863 14:0.6793103448275863 15:0.6793103448275863 16:0.6793103448275863 17:0.6793103448275863 18:0.6793103448275863 19:0.6793103448275863 20:0.6793103448275863 21:0.6793103448275863 22:0.6793103448275863 23:0.6793103448275863 24:0.6793103448275863 25:0.6793103448275863 26:0.7528735632183908 27:0.6793103448275863 28:0.6793103448275863 29:0.6793103448275863 30:0.6793103448275863 
1.0 1:0.5321839080459771 2:0.6793103448275863 3:0.6793103448275863 4:0.6793103448275863 5:0.6793103448275863 6:0.45862068965517255 7:0.6793103448275863 8:0.6793103448275863 9:0.6793103448275863 10:0.6793103448275863 11:0.6793103448275863 12:0.6793103448275863 13:0.6793103448275863 14:0.6793103448275863 15:0.6793103448275863 16:0.6793103448275863 17:0.6793103448275863 18:0.6793103448275863 19:0.6793103448275863 20:0.6793103448275863 21:0.7528735632183908 22:0.6793103448275863 23:0.6793103448275863 24:0.6793103448275863 25:0.6793103448275863 26:0.5321839080459771 27:0.6793103448275863 28:0.6793103448275863 29:0.6793103448275863 30:0.6793103448275863 
1.0 1:0.45862068965517255 2:0.6793103448275863 3:0.6793103448275863 4:0.6793103448275863 5:0.6793103448275863 6:0.6793103448275863 7:0.6793103448275863 8:0.6793103448275863 9:0.6793103448275863 10:0.6793103448275863 11:0.6793103448275863 12:0.6793103448275863 13:0.6793103448275863 14:0.6793103448275863 15:0.6793103448275863 16:0.7528735632183908 17:0.6793103448275863 18:0.6793103448275863 19:0.6793103448275863 20:0.6793103448275863 21:0.5321839080459771 22:0.6793103448275863 23:0.6793103448275863 24:0.6793103448275863 25:0.6793103448275863 26:0.7528735632183908 27:0.6793103448275863 28:0.6793103448275863 29:0.6793103448275863 30:0.6793103448275863 
-1.0 1:0.6793103448275863 2:0.6793103448275863 3:0.6793103448275863 4:0.6793103448275863 5:0.6793103448275863 6:0.6793103448275863 7:0.6793103448275863 8:0.6793103448275863 9:0.6793103448275863 10:0.6793103448275863 11:0.7528735632183908 12:0.6793103448275863 13:0.6793103448275863 14:0.6793103448275863 15:0.6793103448275863 16:0.5321839080459771 17:0.6793103448275863 18:0.6793103448275863 19:0.6793103448275863 20:0.6793103448275863 21:0.7528735632183908 22:0.6793103448275863 23:0.6793103448275863 24:0.6793103448275863 25:0.6793103448275863 26:0.8264367816091954 27:0.6793103448275863 28:0.6793103448275863 29:0.6793103448275863 30:0.6793103448275863 
1.0 1:0.6793103448275863 2:0.6793103448275863 3:0.6793103448275863 4:0.6793103448275863 5:0.6793103448275863 6:0.7528735632183908 7:0.6793103448275863 8:0.6793103448275863 9:0.6793103448275863 10:0.6793103448275863 11:0.5321839080459771 12:0.6793103448275863 13:0.6793103448275863 14:0.6793103448275863 15:0.6793103448275863 16:0.7528735632183908 17:0.6793103448275863 18:0.6793103448275863 19:0.6793103448275863 20:0.6793103448275863 21:0.8264367816091954 22:0.6793103448275863 23:0.6793103448275863 24:0.6793103448275863 25:0.6793103448275863 26:0.5321839080459771 27:0.6793103448275863 28:0.6793103448275863 29:0.6793103448275863 30:0.6793103448275863 
1.0 1:0.7528735632183908 2:0.6793103448275863 3:0.6793103448275863 4:0.6793103448275863 5:0.6793103448275863 6:0.8264367816091954 7:0.6793103448275863 8:0.6793103448275863 9:0.6793103448275863 10:0.6793103448275863 11:0.5321839080459771 12:0.6793103448275863 13:0.6793103448275863 14:0.6793103448275863 15:0.6793103448275863 16:0.8264367816091954 17:0.6793103448275863 18:0.6793103448275863 19:0.6793103448275863 20:0.6793103448275863 21:0.6057471264367817 22:0.6793103448275863 23:0.6793103448275863 24:0.6793103448275863 25:0.6793103448275863 26:0.6793103448275863 27:0.6793103448275863 28:0.6793103448275863 29:0.6793103448275863 30:0.6793103448275863 
1.0 1:0.8264367816091954 2:0.6793103448275863 3:0.6793103448275863 4:0.6793103448275863 5:0.6793103448275863 6:0.5321839080459771 7:0.6793103448275863 8:0.6793103448275863 9:0.6793103448275863 10:0.6793103448275863 11:0.8264367816091954 12:0.6793103448275863 13:0.6793103448275863 14:0.6793103448275863 15:0.6793103448275863 16:0.6057471264367817 17:0.6793103448275863 18:0.6793103448275863 19:0.6793103448275863 20:0.6793103448275863 21:0.6793103448275863 22:0.6793103448275863 23:0.6793103448275863 24:0.6793103448275863 25:0.6793103448275863 26:0.8264367816091954 27:0.6793103448275863 28:0.6793103448275863 29:0.6793103448275863 30:0.6793103448275863 
-1.0 1:0.6793103448275863 2:0.6793103448275863 3:0.6793103448275863 4:0.6793103448275863 5:0.6793103448275863 6:0.8264367816091954 7:0.6793103448275863 8:0.6793103448275863 9:0.6793103448275863 10:0.6793103448275863 11:0.8264367816091954 12:0.6793103448275863 13:0.6793103448275863 14:0.6793103448275863 15:0.6793103448275863 16:0.7528735632183908 17:0.6793103448275863 18:0.6793103448275863 19:0.6793103448275863 20:0.6793103448275863 21:0.8264367816091954 22:0.6793103448275863 23:0.6793103448275863 24:0.6793103448275863 25:0.6793103448275863 26:0.8264367816091954 27:0.6793103448275863 28:0.6793103448275863 29:0.6793103448275863 30:0.6793103448275863 
0.479150452849253 1:0.7528735632183908 2:0.6793103448275863 3:0.6793103448275863 4:0.6793103448275863 5:0.6793103448275863 6:0.8264367816091954 7:0.6793103448275863 8:0.6793103448275863 9:0.6793103448275863 10:0.6793103448275863 11:0.8264367816091954 12:0.6793103448275863 13:0.6793103448275863 14:0.6793103448275863 15:0.6793103448275863 16:0.6057471264367817 17:0.6793103448275863 18:0.6793103448275863 19:0.6793103448275863 20:0.6793103448275863 21:0.6793103448275863 22:0.6793103448275863 23:0.6793103448275863 24:0.6793103448275863 25:0.6793103448275863 26:0.7528735632183908 27:0.6793103448275863 28:0.6793103448275863 29:0.6793103448275863 30:0.6793103448275863 
-1.0 1:0.8264367816091954 2:0.6793103448275863 3:0.6793103448275863 4:0.6793103448275863 5:0.6793103448275863 6:0.8264367816091954 7:0.6793103448275863 8:0.6793103448275863 9:0.6793103448275863 10:0.6793103448275863 11:0.6057471264367817 12:0.6793103448275863 13:0.6793103448275863 14:0.6793103448275863 15:0.6793103448275863 16:0.6793103448275863 17:0.6793103448275863 18:0.6793103448275863 19:0.6793103448275863 20:0.6793103448275863 21:0.7528735632183908 22:0.6793103448275863 23:0.6793103448275863 24:0.6793103448275863 25:0.6793103448275863 26:0.8264367816091954 27:0.6793103448275863 28:0.6793103448275863 29:0.6793103448275863 30:0.6793103448275863 
1.0 1:0.6793103448275863 2:0.6793103448275863 3:0.6793103448275863 4:0.6057471264367817 5:0.6793103448275863 6:0.6793103448275863 7:0.6793103448275863 8:0.6793103448275863 9:0.6793103448275863 10:0.6793103448275863 11:0.6793103448275863 12:0.6793103448275863 13:0.6793103448275863 14:0.7528735632183908 15:0.6793103448275863 16:0.6793103448275863 17:0.6793103448275863 18:0.6793103448275863 19:0.8264367816091954 20:0.6793103448275863 21:0.6793103448275863 22:0.6793103448275863 23:0.6793103448275863 24:0.6057471264367817 25:0.6793103448275863 26:0.6793103448275863 27:0.6793103448275863 28:0.6793103448275863 29:0.6793103448275863 30:0.6793103448275863 
1.0 1:0.6793103448275863 2:0.6793103448275863 3:0.6793103448275863 4:0.6793103448275863 5:0.6793103448275863 6:0.6057471264367817 7:0.6793103448275863 8:0.6793103448275863 9:0.6793103448275863 10:0.6793103448275863 11:0.6793103448275863 12:0.6793103448275863 13:0.6793103448275863 14:0.6793103448275863 15:0.6793103448275863 16:0.6057471264367817 17:0.6793103448275863 18:0.6793103448275863 19:0.6793103448275863 20:0.6793103448275863 21:0.7528735632183908 22:0.6793103448275863 23:0.6793103448275863 24:0.6793103448275863 25:0.6793103448275863 26:0.6057471264367817 27:0.6793103448275863 28:0.6793103448275863 29:0.6793103448275863 30:0.6793103448275863 
1.0 1:0.6793103448275863 2:0.6793103448275863 3:0.6793103448275863 4:0.6793103448275863 5:0.6793103448275863 6:0.6057471264367817 7:0.6793103448275863 8:0.6793103448275863 9:0.6793103448275863 10:0.6793103448275863 11:0.7528735632183908 12:0.6793103448275863 13:0.6793103448275863 14:0.6793103448275863 15:0.6793103448275863 16:0.6057471264367817 17:0.6793103448275863 18:0.6793103448275863 19:0.6793103448275863 20:0.6793103448275863 21:0.9 22:0.6793103448275863 23:0.6793103448275863 24:0.6793103448275863 25:0.6793103448275863 26:0.6793103448275863 27:0.6793103448275863 28:0.6793103448275863 29:0.6793103448275863 30:0.6793103448275863 
1.0 1:0.6057471264367817 2:0.6793103448275863 3:0.6793103448275863 4:0.6793103448275863 5:0.6793103448275863 6:0.7528735632183908 7:0.6793103448275863 8:0.6793103448275863 9:0.6793103448275863 10:0.6793103448275863 11:0.6057471264367817 12:0.6793103448275863 13:0.6793103448275863 14:0.6793103448275863 15:0.6793103448275863 16:0.9 17:0.6793103448275863 18:0.6793103448275863 19:0.6793103448275863 20:0.6793103448275863 21:0.6793103448275863 22:0.6793103448275863 23:0.6793103448275863 24:0.6793103448275863 25:0.6793103448275863 26:0.8264367816091954 27:0.6793103448275863 28:0.6793103448275863 29:0.6793103448275863 30:0.6793103448275863 
1.0 1:0.6057471264367817 2:0.6793103448275863 3:0.6793103448275863 4:0.6793103448275863 5:0.6793103448275863 6:0.9 7:0.6793103448275863 8:0.6793103448275863 9:0.6793103448275863 10:0.6793103448275863 11:0.6793103448275863 12:0.6793103448275863 13:0.6793103448275863 14:0.6793103448275863 15:0.6793103448275863 16:0.8264367816091954 17:0.6793103448275863 18:0.6793103448275863 19:0.6793103448275863 20:0.6793103448275863 21:0.9 22:0.6793103448275863 23:0.6793103448275863 24:0.6793103448275863 25:0.6793103448275863 26:0.8264367816091954 27:0.6793103448275863 28:0.6793103448275863 29:0.6793103448275863 30:0.6793103448275863 
-1.0 1:0.9 2:0.6793103448275863 3:0.6793103448275863 4:0.6793103448275863 5:0.6793103448275863 6:0.6793103448275863 7:0.6793103448275863 8:0.6793103448275863 9:0.6793103448275863 10:0.6793103448275863 11:0.8264367816091954 12:0.6793103448275863 13:0.6793103448275863 14:0.6793103448275863 15:0.6793103448275863 16:0.9 17:0.6793103448275863 18:0.6793103448275863 19:0.6793103448275863 20:0.6793103448275863 21:0.8264367816091954 22:0.6793103448275863 23:0.6793103448275863 24:0.6793103448275863 25:0.6793103448275863 26:0.9 27:0.6793103448275863 28:0.6793103448275863 29:0.6793103448275863 30:0.6793103448275863 
1.0 1:0.6793103448275863 2:0.6793103448275863 3:0.9 4:0.6793103448275863 5:0.6793103448275863 6:0.6793103448275863 7:0.6793103448275863 8:0.8264367816091954 9:0.6793103448275863 10:0.6793103448275863 11:0.6793103448275863 12:0.6793103448275863 13:0.9 14:0.6793103448275863 15:0.6793103448275863 16:0.6793103448275863 17:0.6793103448275863 18:0.6793103448275863 19:0.6793103448275863 20:0.6793103448275863 21:0.6793103448275863 22:0.6793103448275863 23:0.6793103448275863 24:0.6793103448275863 25:0.6793103448275863 26:0.6793103448275863 27:0.6793103448275863 28:0.6793103448275863 29:0.6793103448275863 30:0.6793103448275863 
1.0 1:0.6793103448275863 2:0.6793103448275863 3:0.6793103448275863 4:0.6793103448275863 5:0.6793103448275863 6:0.6793103448275863 7:0.6793103448275863 8:0.6793103448275863 9:0.6793103448275863 10:0.6793103448275863 11:0.6793103448275863 12:0.6793103448275863 13:0.6793103448275863 14:0.6793103448275863 15:0.6793103448275863 16:0.9 17:0.6793103448275863 18:0.6793103448275863 19:0.6793103448275863 20:0.6793103448275863 21:0.7528735632183908 22:0.6793103448275863 23:0.6793103448275863 24:0.6793103448275863 25:0.6793103448275863 26:0.6793103448275863 27:0.6793103448275863 28:0.6793103448275863 29:0.6793103448275863 30:0.6793103448275863 
1.0 1:0.6793103448275863 2:0.6793103448275863 3:0.6793103448275863 4:0.6793103448275863 5:0.6793103448275863 6:0.6793103448275863 7:0.6793103448275863 8:0.6793103448275863 9:0.6793103448275863 10:0.6793103448275863 11:0.9 12:0.6793103448275863 13:0.6793103448275863 14:0.6793103448275863 15:0.6793103448275863 16:0.7528735632183908 17:0.6793103448275863 18:0.6793103448275863 19:0.6793103448275863 20:0.6793103448275863 21:0.6793103448275863 22:0.6793103448275863 23:0.6793103448275863 24:0.6793103448275863 25:0.6793103448275863 26:0.8264367816091954 27:0.6793103448275863 28:0.6793103448275863 29:0.6793103448275863 30:0.6793103448275863 
1.0 1:0.6793103448275863 2:0.6793103448275863 3:0.6793103448275863 4:0.6793103448275863 5:0.6793103448275863 6:0.6793103448275863 7:0.8264367816091954 8:0.6793103448275863 9:0.6793103448275863 10:0.6793103448275863 11:0.6793103448275863 12:0.9 13:0.6793103448275863 14:0.6793103448275863 15:0.6793103448275863 16:0.6793103448275863 17:0.8264367816091954 18:0.6793103448275863 19:0.6793103448275863 20:0.6793103448275863 21:0.6793103448275863 22:0.8264367816091954 23:0.6793103448275863 24:0.6793103448275863 25:0.6793103448275863 26:0.6793103448275863 27:0.6793103448275863 28:0.6793103448275863 29:0.6793103448275863 30:0.6793103448275863 
1.0 1:0.8264367816091954 2:0.6793103448275863 3:0.6793103448275863 4:0.6793103448275863 5:0.6793103448275863 6:0.9 7:0.6793103448275863 8:0.6793103448275863 9:0.6793103448275863 10:0.6793103448275863 11:0.8264367816091954 12:0.6793103448275863 13:0.6793103448275863 14:0.6793103448275863 15:0.6793103448275863 16:0.8264367816091954 17:0.6793103448275863 18:0.6793103448275863 19:0.6793103448275863 20:0.6793103448275863 21:0.6793103448275863 22:0.6793103448275863 23:0.6793103448275863 24:0.6793103448275863 25:0.9 26:0.6793103448275863 27:0.6793103448275863 28:0.6793103448275863 29:0.6793103448275863 30:0.6793103448275863 
1.0 1:0.9 2:0.6793103448275863 3:0.6793103448275863 4:0.6793103448275863 5:0.6793103448275863 6:0.8264367816091954 7:0.6793103448275863 8:0.6793103448275863 9:0.6793103448275863 10:0.6793103448275863 11:0.8264367816091954 12:0.6793103448275863 13:0.6793103448275863 14:0.6793103448275863 15:0.6793103448275863 16:0.6793103448275863 17:0.6793103448275863 18:0.6793103448275863 19:0.6793103448275863 20:0.9 21:0.6793103448275863 22:0.6793103448275863 23:0.6793103448275863 24:0.6793103448275863 25:0.6793103448275863 26:0.9 27:0.6793103448275863 28:0.6793103448275863 29:0.6793103448275863 30:0.6793103448275863 
1.0 1:0.6793103448275863 2:0.6793103448275863 3:0.9 4:0.6793103448275863 5:0.6793103448275863 6:0.6793103448275863 7:0.6793103448275863 8:0.9 9:0.6793103448275863 10:0.6793103448275863 11:0.6793103448275863 12:0.6793103448275863 13:0.6793103448275863 14:0.6793103448275863 15:0.6793103448275863 16:0.6793103448275863 17:0.6793103448275863 18:0.6793103448275863 19:0.6793103448275863 20:0.6793103448275863 21:0.7528735632183908 22:0.6793103448275863 23:0.6793103448275863 24:0.6793103448275863 25:0.6793103448275863 26:0.7528735632183908 27:0.6793103448275863 28:0.6793103448275863 29:0.6793103448275863 30:0.6793103448275863 
1.0 1:0.6793103448275863 2:0.7528735632183908 3:0.6793103448275863 4:0.6793103448275863 5:0.6793103448275863 6:0.6793103448275863 7:0.7528735632183908 8:0.6793103448275863 9:0.6793103448275863 10:0.6793103448275863 11:0.6793103448275863 12:0.9 13:0.6793103448275863 14:0.6793103448275863 15:0.6793103448275863 16:0.6793103448275863 17:0.6793103448275863 18:0.6793103448275863 19:0.6793103448275863 20:0.6793103448275863 21:0.6793103448275863 22:0.8264367816091954 23:0.6793103448275863 24:0.6793103448275863 25:0.6793103448275863 26:0.6793103448275863 27:0.6793103448275863 28:0.6793103448275863 29:0.6793103448275863 30:0.6793103448275863 
1.0 1:0.6793103448275863 2:0.6793103448275863 3:0.6793103448275863 4:0.6793103448275863 5:0.9 6:0.6793103448275863 7:0.6793103448275863 8:0.6793103448275863 9:0.6793103448275863 10:0.6793103448275863 11:0.7528735632183908 12:0.6793103448275863 13:0.6793103448275863 14:0.6793103448275863 15:0.6793103448275863 16:0.6793103448275863 17:0.6793103448275863 18:0.6793103448275863 19:0.6793103448275863 20:0.6793103448275863 21:0.6793103448275863 22:0.6793103448275863 23:0.6793103448275863 24:0.6793103448275863 25:0.6793103448275863 26:0.6793103448275863 27:0.6793103448275863 28:0.6793103448275863 29:0.6793103448275863 30:0.6793103448275863 
1.0 1:0.6793103448275863 2:0.6793103448275863 3:0.6793103448275863 4:0.6793103448275863 5:0.6793103448275863 6:0.7528735632183908 7:0.6793103448275863 8:0.6793103448275863 9:0.6793103448275863 10:0.6793103448275863 11:0.6793103448275863 12:0.6793103448275863 13:0.6793103448275863 14:0.6793103448275863 15:0.6793103448275863 16:0.6793103448275863 17:0.6793103448275863 18:0.6793103448275863 19:0.6793103448275863 20:0.6793103448275863 21:0.6793103448275863 22:0.6793103448275863 23:0.6793103448275863 24:0.6793103448275863 25:0.6793103448275863 26:0.8264367816091954 27:0.6793103448275863 28:0.6793103448275863 29:0.6793103448275863 30:0.6793103448275863 
1.0 1:0.6793103448275863 2:0.6793103448275863 3:0.6793103448275863 4:0.6793103448275863 5:0.6793103448275863 6:0.6793103448275863 7:0.6793103448275863 8:0.6793103448275863 9:0.6793103448275863 10:0.6793103448275863 11:0.6793103448275863 12:0.6793103448275863 13:0.6793103448275863 14:0.6793103448275863 15:0.6793103448275863 16:0.8264367816091954 17:0.6793103448275863 18:0.6793103448275863 19:0.6793103448275863 20:0.6793103448275863 21:0.8264367816091954 22:0.6793103448275863 23:0.6793103448275863 24:0.6793103448275863 25:0.6793103448275863 26:0.6793103448275863 27:0.6793103448275863 28:0.6793103448275863 29:0.6793103448275863 30:0.6793103448275863 
1.0 1:0.8264367816091954 2:0.6793103448275863 3:0.6793103448275863 4:0.6793103448275863 5:0.6793103448275863 6:0.6793103448275863 7:0.6793103448275863 8:0.6793103448275863 9:0.6793103448275863 10:0.6793103448275863 11:0.9 12:0.6793103448275863 13:0.6793103448275863 14:0.6793103448275863 15:0.6793103448275863 16:0.6793103448275863 17:0.6793103448275863 18:0.6793103448275863 19:0.6793103448275863 20:0.6793103448275863 21:0.8264367816091954 22:0.6793103448275863 23:0.6793103448275863 24:0.6793103448275863 25:0.6793103448275863 26:0.8264367816091954 27:0.6793103448275863 28:0.6793103448275863 29:0.6793103448275863 30:0.6793103448275863 
1.0 1:0.6793103448275863 2:0.6793103448275863 3:0.6793103448275863 4:0.6793103448275863 5:0.6793103448275863 6:0.9 7:0.6793103448275863 8:0.6793103448275863 9:0.6793103448275863 10:0.6793103448275863 11:0.6793103448275863 12:0.6793103448275863 13:0.6793103448275863 14:0.6793103448275863 15:0.6793103448275863 16:0.8264367816091954 17:0.6793103448275863 18:0.6793103448275863 19:0.6793103448275863 20:0.6793103448275863 21:0.8264367816091954 22:0.6793103448275863 23:0.6793103448275863 24:0.6793103448275863 25:0.6793103448275863 26:0.9 27:0.6793103448275863 28:0.6793103448275863 29:0.6793103448275863 30:0.6793103448275863 
-1.0 1:0.9 2:0.6793103448275863 3:0.6793103448275863 4:0.6793103448275863 5:0.6793103448275863 6:0.6793103448275863 7:0.6793103448275863 8:0.6793103448275863 9:0.6793103448275863 10:0.6793103448275863 11:0.8264367816091954 12:0.6793103448275863 13:0.6793103448275863 14:0.6793103448275863 15:0.6793103448275863 16:0.8264367816091954 17:0.6793103448275863 18:0.6793103448275863 19:0.6793103448275863 20:0.6793103448275863 21:0.9 22:0.6793103448275863 23:0.6793103448275863 24:0.6793103448275863 25:0.6793103448275863 26:0.9 27:0.6793103448275863 28:0.6793103448275863 29:0.6793103448275863 30:0.6793103448275863 
1.0 1:0.6793103448275863 2:0.6793103448275863 3:0.6793103448275863 4:0.6793103448275863 5:0.6793103448275863 6:0.8264367816091954 7:0.6793103448275863 8:0.6793103448275863 9:0.6793103448275863 10:0.6793103448275863 11:0.8264367816091954 12:0.6793103448275863 13:0.6793103448275863 14:0.6793103448275863 15:0.6793103448275863 16:0.9 17:0.6793103448275863 18:0.6793103448275863 19:0.6793103448275863 20:0.6793103448275863 21:0.9 22:0.6793103448275863 23:0.6793103448275863 24:0.6793103448275863 25:0.6793103448275863 26:0.6793103448275863 27:0.6793103448275863 28:0.6793103448275863 29:0.6793103448275863 30:0.6793103448275863 
-0.479150452849253 1:0.8264367816091954 2:0.6793103448275863 3:0.6793103448275863 4:0.6793103448275863 5:0.6793103448275863 6:0.8264367816091954 7:0.6793103448275863 8:0.6793103448275863 9:0.6793103448275863 10:0.6793103448275863 11:0.9 12:0.6793103448275863 13:0.6793103448275863 14:0.6793103448275863 15:0.6793103448275863 16:0.9 17:0.6793103448275863 18:0.6793103448275863 19:0.6793103448275863 20:0.6793103448275863 21:0.6793103448275863 22:0.6793103448275863 23:0.6793103448275863 24:0.6793103448275863 25:0.6793103448275863 26:0.9 27:0.6793103448275863 28:0.6793103448275863 29:0.6793103448275863 30:0.6793103448275863 
1.0 1:0.9 2:0.6793103448275863 3:0.6793103448275863 4:0.6793103448275863 5:0.6793103448275863 6:0.6793103448275863 7:0.6793103448275863 8:0.6793103448275863 9:0.6793103448275863 10:0.6793103448275863 11:0.9 12:0.6793103448275863 13:0.6793103448275863 14:0.6793103448275863 15:0.6793103448275863 16:0.6793103448275863 17:0.6793103448275863 18:0.6793103448275863 19:0.6793103448275863 20:0.6793103448275863 21:0.6793103448275863 22:0.6793103448275863 23:0.6793103448275863 24:0.6793103448275863 25:0.6793103448275863 26:0.8264367816091954 27:0.6793103448275863 28:0.6793103448275863 29:0.6793103448275863 30:0.6793103448275863 
1.0 1:0.6793103448275863 2:0.6793103448275863 3:0.6793103448275863 4:0.6793103448275863 5:0.6793103448275863 6:0.9 7:0.6793103448275863 8:0.6793103448275863 9:0.6793103448275863 10:0.6793103448275863 11:0.6793103448275863 12:0.6793103448275863 13:0.6793103448275863 14:0.6793103448275863 15:0.6793103448275863 16:0.6793103448275863 17:0.6793103448275863 18:0.6793103448275863 19:0.6793103448275863 20:0.6793103448275863 21:0.8264367816091954 22:0.6793103448275863 23:0.6793103448275863 24:0.6793103448275863 25:0.6793103448275863 26:0.9 27:0.6793103448275863 28:0.6793103448275863 29:0.6793103448275863 30:0.6793103448275863 
