encog,SVM,java,3.1.0,1,1400509995307
[SVM]
[SVM:PARAMS]
[SVM:SVM-PARAM]
inputCount=30
C=1
cacheSize=100
coef0=0
degree=3
eps=0.001
gamma=0.0333333333
kernelType=2
nrWeight=0
nu=0.5
p=0.1
probability=0
shrinking=1
svmType=3
weight=
weightLabel=
[SVM:SVM-MODEL]
svm_type epsilon_svr
kernel_type rbf
gamma 0.03333333333333333
nr_class 2
total_sv 55
rho -0.5104941712561731
SV
-1.0 1:0.47333333333333394 2:0.47333333333333394 3:0.47333333333333394 4:0.47333333333333394 5:0.47333333333333394 6:0.47333333333333394 7:0.47333333333333394 8:0.47333333333333394 9:0.47333333333333394 10:0.47333333333333394 11:0.47333333333333394 12:0.47333333333333394 13:0.47333333333333394 14:0.47333333333333394 15:0.47333333333333394 16:0.47333333333333394 17:0.47333333333333394 18:0.47333333333333394 19:0.47333333333333394 20:0.47333333333333394 21:0.47333333333333394 22:0.47333333333333394 23:0.47333333333333394 24:0.47333333333333394 25:0.47333333333333394 26:0.47333333333333394 27:0.47333333333333394 28:0.47333333333333394 29:0.47333333333333394 30:0.47333333333333394 
1.0 1:0.47333333333333394 2:0.47333333333333394 3:0.47333333333333394 4:0.47333333333333394 5:0.47333333333333394 6:0.47333333333333394 7:0.47333333333333394 8:0.47333333333333394 9:0.47333333333333394 10:0.47333333333333394 11:0.47333333333333394 12:0.47333333333333394 13:0.47333333333333394 14:0.47333333333333394 15:0.47333333333333394 16:0.47333333333333394 17:0.47333333333333394 18:0.47333333333333394 19:0.47333333333333394 20:0.47333333333333394 21:0.47333333333333394 22:0.47333333333333394 23:0.47333333333333394 24:0.47333333333333394 25:0.47333333333333394 26:0.47333333333333394 27:0.47333333333333394 28:0.47333333333333394 29:0.47333333333333394 30:0.47333333333333394 
0.05786060593871829 1:0.47333333333333394 2:0.47333333333333394 3:0.47333333333333394 4:0.47333333333333394 5:0.47333333333333394 6:0.47333333333333394 7:0.47333333333333394 8:0.47333333333333394 9:0.47333333333333394 10:0.47333333333333394 11:0.47333333333333394 12:0.47333333333333394 13:0.47333333333333394 14:0.47333333333333394 15:0.47333333333333394 16:0.47333333333333394 17:0.47333333333333394 18:0.47333333333333394 19:0.47333333333333394 20:0.47333333333333394 21:0.47333333333333394 22:0.47333333333333394 23:0.47333333333333394 24:0.47333333333333394 25:0.47333333333333394 26:0.9 27:0.47333333333333394 28:0.47333333333333394 29:0.47333333333333394 30:0.47333333333333394 
1.0 1:0.47333333333333394 2:0.47333333333333394 3:0.47333333333333394 4:0.47333333333333394 5:0.47333333333333394 6:0.47333333333333394 7:0.47333333333333394 8:0.47333333333333394 9:0.47333333333333394 10:0.47333333333333394 11:0.47333333333333394 12:0.47333333333333394 13:0.47333333333333394 14:0.47333333333333394 15:0.47333333333333394 16:0.47333333333333394 17:0.47333333333333394 18:0.47333333333333394 19:0.47333333333333394 20:0.47333333333333394 21:0.9 22:0.47333333333333394 23:0.47333333333333394 24:0.47333333333333394 25:0.47333333333333394 26:0.6333333333333396 27:0.47333333333333394 28:0.47333333333333394 29:0.47333333333333394 30:0.47333333333333394 
1.0 1:0.47333333333333394 2:0.47333333333333394 3:0.47333333333333394 4:0.47333333333333394 5:0.47333333333333394 6:0.47333333333333394 7:0.47333333333333394 8:0.47333333333333394 9:0.47333333333333394 10:0.47333333333333394 11:0.47333333333333394 12:0.47333333333333394 13:0.47333333333333394 14:0.47333333333333394 15:0.47333333333333394 16:0.9 17:0.47333333333333394 18:0.47333333333333394 19:0.47333333333333394 20:0.47333333333333394 21:0.6333333333333396 22:0.47333333333333394 23:0.47333333333333394 24:0.47333333333333394 25:0.47333333333333394 26:0.7400000000000038 27:0.47333333333333394 28:0.47333333333333394 29:0.47333333333333394 30:0.47333333333333394 
1.0 1:0.47333333333333394 2:0.47333333333333394 3:0.47333333333333394 4:0.47333333333333394 5:0.47333333333333394 6:0.47333333333333394 7:0.47333333333333394 8:0.47333333333333394 9:0.47333333333333394 10:0.47333333333333394 11:0.9 12:0.47333333333333394 13:0.47333333333333394 14:0.47333333333333394 15:0.47333333333333394 16:0.6333333333333396 17:0.47333333333333394 18:0.47333333333333394 19:0.47333333333333394 20:0.47333333333333394 21:0.7400000000000038 22:0.47333333333333394 23:0.47333333333333394 24:0.47333333333333394 25:0.47333333333333394 26:0.7400000000000038 27:0.47333333333333394 28:0.47333333333333394 29:0.47333333333333394 30:0.47333333333333394 
-0.3907911830399686 1:0.47333333333333394 2:0.47333333333333394 3:0.47333333333333394 4:0.47333333333333394 5:0.47333333333333394 6:0.9 7:0.47333333333333394 8:0.47333333333333394 9:0.47333333333333394 10:0.47333333333333394 11:0.6333333333333396 12:0.47333333333333394 13:0.47333333333333394 14:0.47333333333333394 15:0.47333333333333394 16:0.7400000000000038 17:0.47333333333333394 18:0.47333333333333394 19:0.47333333333333394 20:0.47333333333333394 21:0.7400000000000038 22:0.47333333333333394 23:0.47333333333333394 24:0.47333333333333394 25:0.47333333333333394 26:0.7400000000000038 27:0.47333333333333394 28:0.47333333333333394 29:0.47333333333333394 30:0.47333333333333394 
-1.0 1:0.7400000000000038 2:0.47333333333333394 3:0.47333333333333394 4:0.47333333333333394 5:0.47333333333333394 6:0.7400000000000038 7:0.47333333333333394 8:0.47333333333333394 9:0.47333333333333394 10:0.47333333333333394 11:0.47333333333333394 12:0.47333333333333394 13:0.47333333333333394 14:0.47333333333333394 15:0.47333333333333394 16:0.6333333333333396 17:0.47333333333333394 18:0.47333333333333394 19:0.47333333333333394 20:0.47333333333333394 21:0.6333333333333396 22:0.47333333333333394 23:0.47333333333333394 24:0.47333333333333394 25:0.47333333333333394 26:0.47333333333333394 27:0.47333333333333394 28:0.47333333333333394 29:0.47333333333333394 30:0.47333333333333394 
1.0 1:0.47333333333333394 2:0.47333333333333394 3:0.47333333333333394 4:0.47333333333333394 5:0.47333333333333394 6:0.47333333333333394 7:0.6333333333333396 8:0.47333333333333394 9:0.47333333333333394 10:0.47333333333333394 11:0.47333333333333394 12:0.6333333333333396 13:0.47333333333333394 14:0.47333333333333394 15:0.47333333333333394 16:0.47333333333333394 17:0.47333333333333394 18:0.47333333333333394 19:0.47333333333333394 20:0.47333333333333394 21:0.47333333333333394 22:0.3666666666666698 23:0.47333333333333394 24:0.47333333333333394 25:0.47333333333333394 26:0.47333333333333394 27:0.47333333333333394 28:0.47333333333333394 29:0.47333333333333394 30:0.47333333333333394 
1.0 1:0.6333333333333396 2:0.47333333333333394 3:0.47333333333333394 4:0.47333333333333394 5:0.47333333333333394 6:0.6333333333333396 7:0.47333333333333394 8:0.47333333333333394 9:0.47333333333333394 10:0.47333333333333394 11:0.47333333333333394 12:0.47333333333333394 13:0.47333333333333394 14:0.47333333333333394 15:0.47333333333333394 16:0.3666666666666698 17:0.47333333333333394 18:0.47333333333333394 19:0.47333333333333394 20:0.47333333333333394 21:0.47333333333333394 22:0.47333333333333394 23:0.47333333333333394 24:0.47333333333333394 25:0.6333333333333396 26:0.47333333333333394 27:0.47333333333333394 28:0.47333333333333394 29:0.47333333333333394 30:0.47333333333333394 
1.0 1:0.6333333333333396 2:0.47333333333333394 3:0.47333333333333394 4:0.47333333333333394 5:0.47333333333333394 6:0.47333333333333394 7:0.47333333333333394 8:0.47333333333333394 9:0.47333333333333394 10:0.47333333333333394 11:0.3666666666666698 12:0.47333333333333394 13:0.47333333333333394 14:0.47333333333333394 15:0.47333333333333394 16:0.47333333333333394 17:0.47333333333333394 18:0.47333333333333394 19:0.47333333333333394 20:0.6333333333333396 21:0.47333333333333394 22:0.47333333333333394 23:0.47333333333333394 24:0.47333333333333394 25:0.47333333333333394 26:0.6333333333333396 27:0.47333333333333394 28:0.47333333333333394 29:0.47333333333333394 30:0.47333333333333394 
1.0 1:0.47333333333333394 2:0.47333333333333394 3:0.47333333333333394 4:0.47333333333333394 5:0.47333333333333394 6:0.3666666666666698 7:0.47333333333333394 8:0.47333333333333394 9:0.47333333333333394 10:0.47333333333333394 11:0.47333333333333394 12:0.47333333333333394 13:0.47333333333333394 14:0.47333333333333394 15:0.6333333333333396 16:0.47333333333333394 17:0.47333333333333394 18:0.47333333333333394 19:0.47333333333333394 20:0.47333333333333394 21:0.6333333333333396 22:0.47333333333333394 23:0.47333333333333394 24:0.47333333333333394 25:0.47333333333333394 26:0.7400000000000038 27:0.47333333333333394 28:0.47333333333333394 29:0.47333333333333394 30:0.47333333333333394 
1.0 1:0.47333333333333394 2:0.47333333333333394 3:0.47333333333333394 4:0.47333333333333394 5:0.47333333333333394 6:0.47333333333333394 7:0.47333333333333394 8:0.6333333333333396 9:0.47333333333333394 10:0.47333333333333394 11:0.47333333333333394 12:0.47333333333333394 13:0.47333333333333394 14:0.6333333333333396 15:0.47333333333333394 16:0.47333333333333394 17:0.47333333333333394 18:0.47333333333333394 19:0.7400000000000038 20:0.47333333333333394 21:0.47333333333333394 22:0.47333333333333394 23:0.47333333333333394 24:0.6333333333333396 25:0.47333333333333394 26:0.47333333333333394 27:0.47333333333333394 28:0.47333333333333394 29:0.47333333333333394 30:0.47333333333333394 
-1.0 1:0.47333333333333394 2:0.6333333333333396 3:0.47333333333333394 4:0.47333333333333394 5:0.47333333333333394 6:0.47333333333333394 7:0.47333333333333394 8:0.6333333333333396 9:0.47333333333333394 10:0.47333333333333394 11:0.47333333333333394 12:0.47333333333333394 13:0.7400000000000038 14:0.47333333333333394 15:0.47333333333333394 16:0.47333333333333394 17:0.47333333333333394 18:0.6333333333333396 19:0.47333333333333394 20:0.47333333333333394 21:0.47333333333333394 22:0.47333333333333394 23:0.47333333333333394 24:0.47333333333333394 25:0.6333333333333396 26:0.47333333333333394 27:0.47333333333333394 28:0.47333333333333394 29:0.47333333333333394 30:0.47333333333333394 
1.0 1:0.47333333333333394 2:0.47333333333333394 3:0.7400000000000038 4:0.47333333333333394 5:0.47333333333333394 6:0.47333333333333394 7:0.47333333333333394 8:0.6333333333333396 9:0.47333333333333394 10:0.47333333333333394 11:0.47333333333333394 12:0.47333333333333394 13:0.47333333333333394 14:0.47333333333333394 15:0.6333333333333396 16:0.47333333333333394 17:0.47333333333333394 18:0.47333333333333394 19:0.47333333333333394 20:0.47333333333333394 21:0.3666666666666698 22:0.47333333333333394 23:0.47333333333333394 24:0.47333333333333394 25:0.47333333333333394 26:0.3666666666666698 27:0.47333333333333394 28:0.47333333333333394 29:0.47333333333333394 30:0.47333333333333394 
-1.0 1:0.47333333333333394 2:0.47333333333333394 3:0.47333333333333394 4:0.47333333333333394 5:0.47333333333333394 6:0.3666666666666698 7:0.47333333333333394 8:0.47333333333333394 9:0.47333333333333394 10:0.47333333333333394 11:0.3666666666666698 12:0.47333333333333394 13:0.47333333333333394 14:0.47333333333333394 15:0.47333333333333394 16:0.6333333333333396 17:0.47333333333333394 18:0.47333333333333394 19:0.47333333333333394 20:0.47333333333333394 21:0.47333333333333394 22:0.47333333333333394 23:0.47333333333333394 24:0.47333333333333394 25:0.47333333333333394 26:0.47333333333333394 27:0.47333333333333394 28:0.47333333333333394 29:0.47333333333333394 30:0.47333333333333394 
1.0 1:0.3666666666666698 2:0.47333333333333394 3:0.47333333333333394 4:0.47333333333333394 5:0.47333333333333394 6:0.6333333333333396 7:0.47333333333333394 8:0.47333333333333394 9:0.47333333333333394 10:0.47333333333333394 11:0.47333333333333394 12:0.47333333333333394 13:0.47333333333333394 14:0.47333333333333394 15:0.47333333333333394 16:0.47333333333333394 17:0.47333333333333394 18:0.47333333333333394 19:0.47333333333333394 20:0.47333333333333394 21:0.3666666666666698 22:0.47333333333333394 23:0.47333333333333394 24:0.47333333333333394 25:0.47333333333333394 26:0.47333333333333394 27:0.47333333333333394 28:0.47333333333333394 29:0.47333333333333394 30:0.47333333333333394 
1.0 1:0.6333333333333396 2:0.47333333333333394 3:0.47333333333333394 4:0.47333333333333394 5:0.47333333333333394 6:0.47333333333333394 7:0.47333333333333394 8:0.47333333333333394 9:0.47333333333333394 10:0.47333333333333394 11:0.47333333333333394 12:0.47333333333333394 13:0.47333333333333394 14:0.47333333333333394 15:0.47333333333333394 16:0.3666666666666698 17:0.47333333333333394 18:0.47333333333333394 19:0.47333333333333394 20:0.47333333333333394 21:0.47333333333333394 22:0.47333333333333394 23:0.47333333333333394 24:0.47333333333333394 25:0.47333333333333394 26:0.6333333333333396 27:0.47333333333333394 28:0.47333333333333394 29:0.47333333333333394 30:0.47333333333333394 
1.0 1:0.47333333333333394 2:0.47333333333333394 3:0.47333333333333394 4:0.47333333333333394 5:0.47333333333333394 6:0.47333333333333394 7:0.47333333333333394 8:0.47333333333333394 9:0.47333333333333394 10:0.47333333333333394 11:0.3666666666666698 12:0.47333333333333394 13:0.47333333333333394 14:0.47333333333333394 15:0.47333333333333394 16:0.47333333333333394 17:0.47333333333333394 18:0.47333333333333394 19:0.47333333333333394 20:0.47333333333333394 21:0.6333333333333396 22:0.47333333333333394 23:0.47333333333333394 24:0.47333333333333394 25:0.47333333333333394 26:0.6333333333333396 27:0.47333333333333394 28:0.47333333333333394 29:0.47333333333333394 30:0.47333333333333394 
1.0 1:0.47333333333333394 2:0.47333333333333394 3:0.47333333333333394 4:0.47333333333333394 5:0.47333333333333394 6:0.3666666666666698 7:0.47333333333333394 8:0.47333333333333394 9:0.47333333333333394 10:0.47333333333333394 11:0.47333333333333394 12:0.47333333333333394 13:0.47333333333333394 14:0.47333333333333394 15:0.47333333333333394 16:0.6333333333333396 17:0.47333333333333394 18:0.47333333333333394 19:0.47333333333333394 20:0.47333333333333394 21:0.6333333333333396 22:0.47333333333333394 23:0.47333333333333394 24:0.47333333333333394 25:0.47333333333333394 26:0.6333333333333396 27:0.47333333333333394 28:0.47333333333333394 29:0.47333333333333394 30:0.47333333333333394 
1.0 1:0.6333333333333396 2:0.47333333333333394 3:0.47333333333333394 4:0.47333333333333394 5:0.47333333333333394 6:0.6333333333333396 7:0.47333333333333394 8:0.47333333333333394 9:0.47333333333333394 10:0.47333333333333394 11:0.6333333333333396 12:0.47333333333333394 13:0.47333333333333394 14:0.47333333333333394 15:0.47333333333333394 16:0.6333333333333396 17:0.47333333333333394 18:0.47333333333333394 19:0.47333333333333394 20:0.47333333333333394 21:0.6333333333333396 22:0.47333333333333394 23:0.47333333333333394 24:0.47333333333333394 25:0.47333333333333394 26:0.6333333333333396 27:0.47333333333333394 28:0.47333333333333394 29:0.47333333333333394 30:0.47333333333333394 
1.0 1:0.6333333333333396 2:0.47333333333333394 3:0.47333333333333394 4:0.47333333333333394 5:0.47333333333333394 6:0.6333333333333396 7:0.47333333333333394 8:0.47333333333333394 9:0.47333333333333394 10:0.47333333333333394 11:0.6333333333333396 12:0.47333333333333394 13:0.47333333333333394 14:0.47333333333333394 15:0.47333333333333394 16:0.6333333333333396 17:0.47333333333333394 18:0.47333333333333394 19:0.47333333333333394 20:0.47333333333333394 21:0.7400000000000038 22:0.47333333333333394 23:0.47333333333333394 24:0.47333333333333394 25:0.47333333333333394 26:0.47333333333333394 27:0.47333333333333394 28:0.47333333333333394 29:0.47333333333333394 30:0.47333333333333394 
-1.0 1:0.6333333333333396 2:0.47333333333333394 3:0.47333333333333394 4:0.47333333333333394 5:0.47333333333333394 6:0.7400000000000038 7:0.47333333333333394 8:0.47333333333333394 9:0.47333333333333394 10:0.47333333333333394 11:0.47333333333333394 12:0.47333333333333394 13:0.47333333333333394 14:0.47333333333333394 15:0.47333333333333394 16:0.7400000000000038 17:0.47333333333333394 18:0.47333333333333394 19:0.47333333333333394 20:0.47333333333333394 21:0.6333333333333396 22:0.47333333333333394 23:0.47333333333333394 24:0.47333333333333394 25:0.47333333333333394 26:0.6333333333333396 27:0.47333333333333394 28:0.47333333333333394 29:0.47333333333333394 30:0.47333333333333394 
1.0 1:0.7400000000000038 2:0.47333333333333394 3:0.47333333333333394 4:0.47333333333333394 5:0.47333333333333394 6:0.47333333333333394 7:0.47333333333333394 8:0.47333333333333394 9:0.47333333333333394 10:0.47333333333333394 11:0.7400000000000038 12:0.47333333333333394 13:0.47333333333333394 14:0.47333333333333394 15:0.47333333333333394 16:0.6333333333333396 17:0.47333333333333394 18:0.47333333333333394 19:0.47333333333333394 20:0.47333333333333394 21:0.6333333333333396 22:0.47333333333333394 23:0.47333333333333394 24:0.47333333333333394 25:0.47333333333333394 26:0.3666666666666698 27:0.47333333333333394 28:0.47333333333333394 29:0.47333333333333394 30:0.47333333333333394 
-1.0 1:0.7400000000000038 2:0.47333333333333394 3:0.47333333333333394 4:0.47333333333333394 5:0.47333333333333394 6:0.6333333333333396 7:0.47333333333333394 8:0.47333333333333394 9:0.47333333333333394 10:0.47333333333333394 11:0.6333333333333396 12:0.47333333333333394 13:0.47333333333333394 14:0.47333333333333394 15:0.47333333333333394 16:0.3666666666666698 17:0.47333333333333394 18:0.47333333333333394 19:0.47333333333333394 20:0.47333333333333394 21:0.6333333333333396 22:0.47333333333333394 23:0.47333333333333394 24:0.47333333333333394 25:0.47333333333333394 26:0.47333333333333394 27:0.47333333333333394 28:0.47333333333333394 29:0.47333333333333394 30:0.47333333333333394 
1.0 1:0.6333333333333396 2:0.47333333333333394 3:0.47333333333333394 4:0.47333333333333394 5:0.47333333333333394 6:0.3666666666666698 7:0.47333333333333394 8:0.47333333333333394 9:0.47333333333333394 10:0.47333333333333394 11:0.6333333333333396 12:0.47333333333333394 13:0.47333333333333394 14:0.47333333333333394 15:0.47333333333333394 16:0.47333333333333394 17:0.47333333333333394 18:0.47333333333333394 19:0.47333333333333394 20:0.47333333333333394 21:0.3666666666666698 22:0.47333333333333394 23:0.47333333333333394 24:0.47333333333333394 25:0.47333333333333394 26:0.47333333333333394 27:0.47333333333333394 28:0.47333333333333394 29:0.47333333333333394 30:0.47333333333333394 
-1.0 1:0.47333333333333394 2:0.47333333333333394 3:0.47333333333333394 4:0.47333333333333394 5:0.47333333333333394 6:0.3666666666666698 7:0.47333333333333394 8:0.47333333333333394 9:0.47333333333333394 10:0.47333333333333394 11:0.47333333333333394 12:0.47333333333333394 13:0.47333333333333394 14:0.47333333333333394 15:0.47333333333333394 16:0.6333333333333396 17:0.47333333333333394 18:0.47333333333333394 19:0.47333333333333394 20:0.47333333333333394 21:0.47333333333333394 22:0.47333333333333394 23:0.47333333333333394 24:0.47333333333333394 25:0.47333333333333394 26:0.47333333333333394 27:0.47333333333333394 28:0.47333333333333394 29:0.47333333333333394 30:0.47333333333333394 
-1.0 1:0.3666666666666698 2:0.47333333333333394 3:0.47333333333333394 4:0.47333333333333394 5:0.47333333333333394 6:0.47333333333333394 7:0.47333333333333394 8:0.47333333333333394 9:0.47333333333333394 10:0.47333333333333394 11:0.6333333333333396 12:0.47333333333333394 13:0.47333333333333394 14:0.47333333333333394 15:0.47333333333333394 16:0.47333333333333394 17:0.47333333333333394 18:0.47333333333333394 19:0.47333333333333394 20:0.47333333333333394 21:0.47333333333333394 22:0.47333333333333394 23:0.47333333333333394 24:0.47333333333333394 25:0.47333333333333394 26:0.3666666666666698 27:0.47333333333333394 28:0.47333333333333394 29:0.47333333333333394 30:0.47333333333333394 
1.0 1:0.47333333333333394 2:0.47333333333333394 3:0.47333333333333394 4:0.47333333333333394 5:0.47333333333333394 6:0.6333333333333396 7:0.47333333333333394 8:0.47333333333333394 9:0.47333333333333394 10:0.47333333333333394 11:0.47333333333333394 12:0.47333333333333394 13:0.47333333333333394 14:0.47333333333333394 15:0.47333333333333394 16:0.47333333333333394 17:0.47333333333333394 18:0.47333333333333394 19:0.47333333333333394 20:0.47333333333333394 21:0.3666666666666698 22:0.47333333333333394 23:0.47333333333333394 24:0.47333333333333394 25:0.47333333333333394 26:0.3666666666666698 27:0.47333333333333394 28:0.47333333333333394 29:0.47333333333333394 30:0.47333333333333394 
-1.0 1:0.6333333333333396 2:0.47333333333333394 3:0.47333333333333394 4:0.47333333333333394 5:0.47333333333333394 6:0.47333333333333394 7:0.47333333333333394 8:0.47333333333333394 9:0.47333333333333394 10:0.47333333333333394 11:0.47333333333333394 12:0.47333333333333394 13:0.47333333333333394 14:0.47333333333333394 15:0.47333333333333394 16:0.3666666666666698 17:0.47333333333333394 18:0.47333333333333394 19:0.47333333333333394 20:0.47333333333333394 21:0.3666666666666698 22:0.47333333333333394 23:0.47333333333333394 24:0.47333333333333394 25:0.47333333333333394 26:0.6333333333333396 27:0.47333333333333394 28:0.47333333333333394 29:0.47333333333333394 30:0.47333333333333394 
1.0 1:0.47333333333333394 2:0.47333333333333394 3:0.47333333333333394 4:0.3666666666666698 5:0.47333333333333394 6:0.47333333333333394 7:0.47333333333333394 8:0.47333333333333394 9:0.3666666666666698 10:0.47333333333333394 11:0.47333333333333394 12:0.47333333333333394 13:0.47333333333333394 14:0.6333333333333396 15:0.47333333333333394 16:0.47333333333333394 17:0.47333333333333394 18:0.47333333333333394 19:0.3666666666666698 20:0.47333333333333394 21:0.47333333333333394 22:0.47333333333333394 23:0.47333333333333394 24:0.47333333333333394 25:0.47333333333333394 26:0.47333333333333394 27:0.47333333333333394 28:0.47333333333333394 29:0.47333333333333394 30:0.47333333333333394 
-1.0 1:0.47333333333333394 2:0.47333333333333394 3:0.3666666666666698 4:0.47333333333333394 5:0.47333333333333394 6:0.47333333333333394 7:0.47333333333333394 8:0.47333333333333394 9:0.47333333333333394 10:0.47333333333333394 11:0.47333333333333394 12:0.47333333333333394 13:0.47333333333333394 14:0.47333333333333394 15:0.6333333333333396 16:0.47333333333333394 17:0.47333333333333394 18:0.47333333333333394 19:0.47333333333333394 20:0.47333333333333394 21:0.47333333333333394 22:0.47333333333333394 23:0.47333333333333394 24:0.47333333333333394 25:0.47333333333333394 26:0.47333333333333394 27:0.47333333333333394 28:0.47333333333333394 29:0.47333333333333394 30:0.47333333333333394 
1.0 1:0.47333333333333394 2:0.47333333333333394 3:0.47333333333333394 4:0.47333333333333394 5:0.47333333333333394 6:0.47333333333333394 7:0.47333333333333394 8:0.47333333333333394 9:0.47333333333333394 10:0.6333333333333396 11:0.47333333333333394 12:0.47333333333333394 13:0.47333333333333394 14:0.47333333333333394 15:0.47333333333333394 16:0.47333333333333394 17:0.47333333333333394 18:0.47333333333333394 19:0.47333333333333394 20:0.47333333333333394 21:0.47333333333333394 22:0.47333333333333394 23:0.47333333333333394 24:0.47333333333333394 25:0.47333333333333394 26:0.3666666666666698 27:0.47333333333333394 28:0.47333333333333394 29:0.47333333333333394 30:0.47333333333333394 
1.0 1:0.47333333333333394 2:0.47333333333333394 3:0.47333333333333394 4:0.47333333333333394 5:0.47333333333333394 6:0.3666666666666698 7:0.47333333333333394 8:0.47333333333333394 9:0.47333333333333394 10:0.47333333333333394 11:0.6333333333333396 12:0.47333333333333394 13:0.47333333333333394 14:0.47333333333333394 15:0.47333333333333394 16:0.47333333333333394 17:0.47333333333333394 18:0.47333333333333394 19:0.47333333333333394 20:0.47333333333333394 21:0.47333333333333394 22:0.47333333333333394 23:0.47333333333333394 24:0.47333333333333394 25:0.47333333333333394 26:0.47333333333333394 27:0.47333333333333394 28:0.47333333333333394 29:0.47333333333333394 30:0.47333333333333394 
1.0 1:0.3666666666666698 2:0.47333333333333394 3:0.47333333333333394 4:0.47333333333333394 5:0.47333333333333394 6:0.6333333333333396 7:0.47333333333333394 8:0.47333333333333394 9:0.47333333333333394 10:0.47333333333333394 11:0.47333333333333394 12:0.47333333333333394 13:0.47333333333333394 14:0.47333333333333394 15:0.47333333333333394 16:0.47333333333333394 17:0.47333333333333394 18:0.47333333333333394 19:0.47333333333333394 20:0.47333333333333394 21:0.47333333333333394 22:0.47333333333333394 23:0.47333333333333394 24:0.47333333333333394 25:0.47333333333333394 26:0.6333333333333396 27:0.47333333333333394 28:0.47333333333333394 29:0.47333333333333394 30:0.47333333333333394 
1.0 1:0.6333333333333396 2:0.47333333333333394 3:0.47333333333333394 4:0.47333333333333394 5:0.47333333333333394 6:0.47333333333333394 7:0.47333333333333394 8:0.47333333333333394 9:0.47333333333333394 10:0.47333333333333394 11:0.47333333333333394 12:0.47333333333333394 13:0.47333333333333394 14:0.47333333333333394 15:0.47333333333333394 16:0.47333333333333394 17:0.47333333333333394 18:0.47333333333333394 19:0.47333333333333394 20:0.47333333333333394 21:0.6333333333333396 22:0.47333333333333394 23:0.47333333333333394 24:0.47333333333333394 25:0.47333333333333394 26:0.6333333333333396 27:0.47333333333333394 28:0.47333333333333394 29:0.47333333333333394 30:0.47333333333333394 
1.0 1:0.47333333333333394 2:0.47333333333333394 3:0.47333333333333394 4:0.47333333333333394 5:0.47333333333333394 6:0.47333333333333394 7:0.47333333333333394 8:0.47333333333333394 9:0.47333333333333394 10:0.47333333333333394 11:0.47333333333333394 12:0.47333333333333394 13:0.47333333333333394 14:0.47333333333333394 15:0.47333333333333394 16:0.6333333333333396 17:0.47333333333333394 18:0.47333333333333394 19:0.47333333333333394 20:0.47333333333333394 21:0.6333333333333396 22:0.47333333333333394 23:0.47333333333333394 24:0.47333333333333394 25:0.47333333333333394 26:0.6333333333333396 27:0.47333333333333394 28:0.47333333333333394 29:0.47333333333333394 30:0.47333333333333394 
-1.0 1:0.47333333333333394 2:0.47333333333333394 3:0.6333333333333396 4:0.47333333333333394 5:0.47333333333333394 6:0.47333333333333394 7:0.47333333333333394 8:0.6333333333333396 9:0.47333333333333394 10:0.47333333333333394 11:0.47333333333333394 12:0.47333333333333394 13:0.6333333333333396 14:0.47333333333333394 15:0.47333333333333394 16:0.47333333333333394 17:0.47333333333333394 18:0.6333333333333396 19:0.47333333333333394 20:0.47333333333333394 21:0.47333333333333394 22:0.47333333333333394 23:0.47333333333333394 24:0.47333333333333394 25:0.47333333333333394 26:0.47333333333333394 27:0.47333333333333394 28:0.47333333333333394 29:0.47333333333333394 30:0.47333333333333394 
-1.0 1:0.47333333333333394 2:0.47333333333333394 3:0.6333333333333396 4:0.47333333333333394 5:0.47333333333333394 6:0.47333333333333394 7:0.47333333333333394 8:0.6333333333333396 9:0.47333333333333394 10:0.47333333333333394 11:0.47333333333333394 12:0.47333333333333394 13:0.47333333333333394 14:0.47333333333333394 15:0.47333333333333394 16:0.47333333333333394 17:0.47333333333333394 18:0.47333333333333394 19:0.47333333333333394 20:0.47333333333333394 21:0.3666666666666698 22:0.47333333333333394 23:0.47333333333333394 24:0.47333333333333394 25:0.47333333333333394 26:0.47333333333333394 27:0.47333333333333394 28:0.47333333333333394 29:0.47333333333333394 30:0.47333333333333394 
-0.593800045096769 1:0.47333333333333394 2:0.47333333333333394 3:0.47333333333333394 4:0.47333333333333394 5:0.47333333333333394 6:0.3666666666666698 7:0.47333333333333394 8:0.47333333333333394 9:0.47333333333333394 10:0.47333333333333394 11:0.3666666666666698 12:0.47333333333333394 13:0.47333333333333394 14:0.47333333333333394 15:0.47333333333333394 16:0.3666666666666698 17:0.47333333333333394 18:0.47333333333333394 19:0.47333333333333394 20:0.47333333333333394 21:0.47333333333333394 22:0.47333333333333394 23:0.47333333333333394 24:0.47333333333333394 25:0.47333333333333394 26:0.47333333333333394 27:0.47333333333333394 28:0.47333333333333394 29:0.47333333333333394 30:0.47333333333333394 
-1.0 1:0.47333333333333394 2:0.3666666666666698 3:0.47333333333333394 4:0.47333333333333394 5:0.47333333333333394 6:0.47333333333333394 7:0.3666666666666698 8:0.47333333333333394 9:0.47333333333333394 10:0.47333333333333394 11:0.47333333333333394 12:0.47333333333333394 13:0.47333333333333394 14:0.47333333333333394 15:0.47333333333333394 16:0.47333333333333394 17:0.47333333333333394 18:0.47333333333333394 19:0.47333333333333394 20:0.47333333333333394 21:0.47333333333333394 22:0.3666666666666698 23:0.47333333333333394 24:0.47333333333333394 25:0.47333333333333394 26:0.47333333333333394 27:0.47333333333333394 28:0.47333333333333394 29:0.47333333333333394 30:0.47333333333333394 
1.0 1:0.3666666666666698 2:0.47333333333333394 3:0.47333333333333394 4:0.47333333333333394 5:0.47333333333333394 6:0.47333333333333394 7:0.47333333333333394 8:0.47333333333333394 9:0.47333333333333394 10:0.47333333333333394 11:0.47333333333333394 12:0.47333333333333394 13:0.47333333333333394 14:0.47333333333333394 15:0.47333333333333394 16:0.3666666666666698 17:0.47333333333333394 18:0.47333333333333394 19:0.47333333333333394 20:0.47333333333333394 21:0.47333333333333394 22:0.47333333333333394 23:0.47333333333333394 24:0.47333333333333394 25:0.3666666666666698 26:0.47333333333333394 27:0.47333333333333394 28:0.47333333333333394 29:0.47333333333333394 30:0.47333333333333394 
-1.0 1:0.47333333333333394 2:0.47333333333333394 3:0.47333333333333394 4:0.47333333333333394 5:0.47333333333333394 6:0.47333333333333394 7:0.47333333333333394 8:0.47333333333333394 9:0.47333333333333394 10:0.47333333333333394 11:0.3666666666666698 12:0.47333333333333394 13:0.47333333333333394 14:0.47333333333333394 15:0.47333333333333394 16:0.47333333333333394 17:0.47333333333333394 18:0.47333333333333394 19:0.47333333333333394 20:0.3666666666666698 21:0.47333333333333394 22:0.47333333333333394 23:0.47333333333333394 24:0.47333333333333394 25:0.47333333333333394 26:0.6333333333333396 27:0.47333333333333394 28:0.47333333333333394 29:0.47333333333333394 30:0.47333333333333394 
-1.0 1:0.47333333333333394 2:0.47333333333333394 3:0.3666666666666698 4:0.47333333333333394 5:0.47333333333333394 6:0.47333333333333394 7:0.47333333333333394 8:0.47333333333333394 9:0.47333333333333394 10:0.47333333333333394 11:0.47333333333333394 12:0.3666666666666698 13:0.47333333333333394 14:0.47333333333333394 15:0.47333333333333394 16:0.47333333333333394 17:0.47333333333333394 18:0.6333333333333396 19:0.47333333333333394 20:0.47333333333333394 21:0.47333333333333394 22:0.47333333333333394 23:0.3666666666666698 24:0.47333333333333394 25:0.47333333333333394 26:0.47333333333333394 27:0.47333333333333394 28:0.47333333333333394 29:0.47333333333333394 30:0.47333333333333394 
-1.0 1:0.47333333333333394 2:0.47333333333333394 3:0.47333333333333394 4:0.47333333333333394 5:0.47333333333333394 6:0.47333333333333394 7:0.3666666666666698 8:0.47333333333333394 9:0.47333333333333394 10:0.47333333333333394 11:0.47333333333333394 12:0.47333333333333394 13:0.6333333333333396 14:0.47333333333333394 15:0.47333333333333394 16:0.47333333333333394 17:0.47333333333333394 18:0.3666666666666698 19:0.47333333333333394 20:0.47333333333333394 21:0.47333333333333394 22:0.47333333333333394 23:0.47333333333333394 24:0.47333333333333394 25:0.47333333333333394 26:0.3666666666666698 27:0.47333333333333394 28:0.47333333333333394 29:0.47333333333333394 30:0.47333333333333394 
-1.0 1:0.47333333333333394 2:0.3666666666666698 3:0.47333333333333394 4:0.47333333333333394 5:0.47333333333333394 6:0.47333333333333394 7:0.47333333333333394 8:0.6333333333333396 9:0.47333333333333394 10:0.47333333333333394 11:0.47333333333333394 12:0.47333333333333394 13:0.3666666666666698 14:0.47333333333333394 15:0.47333333333333394 16:0.47333333333333394 17:0.47333333333333394 18:0.47333333333333394 19:0.47333333333333394 20:0.47333333333333394 21:0.3666666666666698 22:0.47333333333333394 23:0.47333333333333394 24:0.47333333333333394 25:0.47333333333333394 26:0.26000000000000567 27:0.47333333333333394 28:0.47333333333333394 29:0.47333333333333394 30:0.47333333333333394 
-1.0 1:0.47333333333333394 2:0.26000000000000567 3:0.47333333333333394 4:0.47333333333333394 5:0.47333333333333394 6:0.47333333333333394 7:0.26000000000000567 8:0.47333333333333394 9:0.47333333333333394 10:0.47333333333333394 11:0.47333333333333394 12:0.3666666666666698 13:0.47333333333333394 14:0.47333333333333394 15:0.47333333333333394 16:0.47333333333333394 17:0.47333333333333394 18:0.47333333333333394 19:0.47333333333333394 20:0.47333333333333394 21:0.47333333333333394 22:0.47333333333333394 23:0.47333333333333394 24:0.47333333333333394 25:0.47333333333333394 26:0.47333333333333394 27:0.47333333333333394 28:0.47333333333333394 29:0.47333333333333394 30:0.47333333333333394 
-1.0 1:0.26000000000000567 2:0.47333333333333394 3:0.47333333333333394 4:0.47333333333333394 5:0.47333333333333394 6:0.3666666666666698 7:0.47333333333333394 8:0.47333333333333394 9:0.47333333333333394 10:0.47333333333333394 11:0.47333333333333394 12:0.47333333333333394 13:0.47333333333333394 14:0.47333333333333394 15:0.47333333333333394 16:0.47333333333333394 17:0.47333333333333394 18:0.47333333333333394 19:0.47333333333333394 20:0.47333333333333394 21:0.47333333333333394 22:0.47333333333333394 23:0.47333333333333394 24:0.47333333333333394 25:0.3666666666666698 26:0.47333333333333394 27:0.47333333333333394 28:0.47333333333333394 29:0.47333333333333394 30:0.47333333333333394 
-1.0 1:0.47333333333333394 2:0.47333333333333394 3:0.47333333333333394 4:0.47333333333333394 5:0.47333333333333394 6:0.47333333333333394 7:0.47333333333333394 8:0.47333333333333394 9:0.47333333333333394 10:0.47333333333333394 11:0.47333333333333394 12:0.47333333333333394 13:0.47333333333333394 14:0.47333333333333394 15:0.47333333333333394 16:0.3666666666666698 17:0.47333333333333394 18:0.47333333333333394 19:0.47333333333333394 20:0.47333333333333394 21:0.47333333333333394 22:0.3666666666666698 23:0.47333333333333394 24:0.47333333333333394 25:0.47333333333333394 26:0.47333333333333394 27:0.47333333333333394 28:0.47333333333333394 29:0.47333333333333394 30:0.47333333333333394 
-1.0 1:0.47333333333333394 2:0.47333333333333394 3:0.47333333333333394 4:0.47333333333333394 5:0.3666666666666698 6:0.47333333333333394 7:0.47333333333333394 8:0.47333333333333394 9:0.47333333333333394 10:0.47333333333333394 11:0.3666666666666698 12:0.47333333333333394 13:0.47333333333333394 14:0.47333333333333394 15:0.47333333333333394 16:0.47333333333333394 17:0.47333333333333394 18:0.47333333333333394 19:0.47333333333333394 20:0.3666666666666698 21:0.47333333333333394 22:0.47333333333333394 23:0.47333333333333394 24:0.47333333333333394 25:0.47333333333333394 26:0.47333333333333394 27:0.47333333333333394 28:0.47333333333333394 29:0.47333333333333394 30:0.47333333333333394 
-0.07326937780198073 1:0.47333333333333394 2:0.47333333333333394 3:0.47333333333333394 4:0.47333333333333394 5:0.47333333333333394 6:0.3666666666666698 7:0.47333333333333394 8:0.47333333333333394 9:0.47333333333333394 10:0.47333333333333394 11:0.47333333333333394 12:0.47333333333333394 13:0.47333333333333394 14:0.47333333333333394 15:0.3666666666666698 16:0.47333333333333394 17:0.47333333333333394 18:0.47333333333333394 19:0.47333333333333394 20:0.47333333333333394 21:0.47333333333333394 22:0.47333333333333394 23:0.47333333333333394 24:0.47333333333333394 25:0.47333333333333394 26:0.3666666666666698 27:0.47333333333333394 28:0.47333333333333394 29:0.47333333333333394 30:0.47333333333333394 
-1.0 1:0.47333333333333394 2:0.47333333333333394 3:0.47333333333333394 4:0.47333333333333394 5:0.3666666666666698 6:0.47333333333333394 7:0.47333333333333394 8:0.47333333333333394 9:0.47333333333333394 10:0.47333333333333394 11:0.47333333333333394 12:0.47333333333333394 13:0.47333333333333394 14:0.47333333333333394 15:0.47333333333333394 16:0.3666666666666698 17:0.47333333333333394 18:0.47333333333333394 19:0.47333333333333394 20:0.47333333333333394 21:0.3666666666666698 22:0.47333333333333394 23:0.47333333333333394 24:0.47333333333333394 25:0.47333333333333394 26:0.47333333333333394 27:0.47333333333333394 28:0.47333333333333394 29:0.47333333333333394 30:0.47333333333333394 
-1.0 1:0.47333333333333394 2:0.47333333333333394 3:0.47333333333333394 4:0.47333333333333394 5:0.47333333333333394 6:0.47333333333333394 7:0.47333333333333394 8:0.47333333333333394 9:0.47333333333333394 10:0.47333333333333394 11:0.3666666666666698 12:0.47333333333333394 13:0.47333333333333394 14:0.47333333333333394 15:0.47333333333333394 16:0.47333333333333394 17:0.47333333333333394 18:0.47333333333333394 19:0.47333333333333394 20:0.47333333333333394 21:0.47333333333333394 22:0.47333333333333394 23:0.47333333333333394 24:0.47333333333333394 25:0.47333333333333394 26:0.47333333333333394 27:0.47333333333333394 28:0.47333333333333394 29:0.47333333333333394 30:0.47333333333333394 
-1.0 1:0.47333333333333394 2:0.47333333333333394 3:0.47333333333333394 4:0.47333333333333394 5:0.47333333333333394 6:0.3666666666666698 7:0.47333333333333394 8:0.47333333333333394 9:0.47333333333333394 10:0.47333333333333394 11:0.47333333333333394 12:0.47333333333333394 13:0.47333333333333394 14:0.47333333333333394 15:0.47333333333333394 16:0.47333333333333394 17:0.47333333333333394 18:0.47333333333333394 19:0.47333333333333394 20:0.47333333333333394 21:0.47333333333333394 22:0.47333333333333394 23:0.47333333333333394 24:0.47333333333333394 25:0.47333333333333394 26:0.3666666666666698 27:0.47333333333333394 28:0.47333333333333394 29:0.47333333333333394 30:0.47333333333333394 
-1.0 1:0.47333333333333394 2:0.47333333333333394 3:0.47333333333333394 4:0.47333333333333394 5:0.47333333333333394 6:0.47333333333333394 7:0.47333333333333394 8:0.47333333333333394 9:0.47333333333333394 10:0.47333333333333394 11:0.47333333333333394 12:0.47333333333333394 13:0.3666666666666698 14:0.47333333333333394 15:0.47333333333333394 16:0.47333333333333394 17:0.47333333333333394 18:0.47333333333333394 19:0.47333333333333394 20:0.47333333333333394 21:0.47333333333333394 22:0.47333333333333394 23:0.47333333333333394 24:0.47333333333333394 25:0.47333333333333394 26:0.47333333333333394 27:0.47333333333333394 28:0.47333333333333394 29:0.47333333333333394 30:0.47333333333333394 
