encog,SVM,java,3.1.0,1,1400508741923
[SVM]
[SVM:PARAMS]
[SVM:SVM-PARAM]
inputCount=30
C=1
cacheSize=100
coef0=0
degree=3
eps=0.001
gamma=0.0333333333
kernelType=2
nrWeight=0
nu=0.5
p=0.1
probability=0
shrinking=1
svmType=3
weight=
weightLabel=
[SVM:SVM-MODEL]
svm_type epsilon_svr
kernel_type rbf
gamma 0.03333333333333333
nr_class 2
total_sv 53
rho -0.7104082247791291
SV
-1.0 1:0.7400000000000001 2:0.7400000000000001 3:0.7400000000000001 4:0.7400000000000001 5:0.7400000000000001 6:0.7400000000000001 7:0.7400000000000001 8:0.7400000000000001 9:0.7400000000000001 10:0.7400000000000001 11:0.7400000000000001 12:0.7400000000000001 13:0.7400000000000001 14:0.7400000000000001 15:0.7400000000000001 16:0.7400000000000001 17:0.7400000000000001 18:0.7400000000000001 19:0.7400000000000001 20:0.7400000000000001 21:0.7400000000000001 22:0.7400000000000001 23:0.7400000000000001 24:0.7400000000000001 25:0.7400000000000001 26:0.7400000000000001 27:0.7400000000000001 28:0.7400000000000001 29:0.7400000000000001 30:0.7400000000000001 
1.0 1:0.7400000000000001 2:0.7400000000000001 3:0.7400000000000001 4:0.7400000000000001 5:0.7400000000000001 6:0.7400000000000001 7:0.7400000000000001 8:0.7400000000000001 9:0.7400000000000001 10:0.7400000000000001 11:0.7400000000000001 12:0.7400000000000001 13:0.7400000000000001 14:0.7400000000000001 15:0.7400000000000001 16:0.7400000000000001 17:0.7400000000000001 18:0.7400000000000001 19:0.7400000000000001 20:0.7400000000000001 21:0.7400000000000001 22:0.7400000000000001 23:0.7400000000000001 24:0.7400000000000001 25:0.7400000000000001 26:0.7933333333333333 27:0.7400000000000001 28:0.7400000000000001 29:0.7400000000000001 30:0.7400000000000001 
-1.0 1:0.7400000000000001 2:0.7400000000000001 3:0.7400000000000001 4:0.7400000000000001 5:0.7400000000000001 6:0.7400000000000001 7:0.7400000000000001 8:0.7400000000000001 9:0.7400000000000001 10:0.7400000000000001 11:0.7400000000000001 12:0.7400000000000001 13:0.7400000000000001 14:0.7400000000000001 15:0.7400000000000001 16:0.7400000000000001 17:0.7400000000000001 18:0.7400000000000001 19:0.7400000000000001 20:0.7400000000000001 21:0.7933333333333333 22:0.7400000000000001 23:0.7400000000000001 24:0.7400000000000001 25:0.7400000000000001 26:0.8466666666666667 27:0.7400000000000001 28:0.7400000000000001 29:0.7400000000000001 30:0.7400000000000001 
1.0 1:0.7400000000000001 2:0.7400000000000001 3:0.7400000000000001 4:0.7400000000000001 5:0.7400000000000001 6:0.7400000000000001 7:0.7400000000000001 8:0.7400000000000001 9:0.7400000000000001 10:0.7400000000000001 11:0.7933333333333333 12:0.7400000000000001 13:0.7400000000000001 14:0.7400000000000001 15:0.7400000000000001 16:0.8466666666666667 17:0.7400000000000001 18:0.7400000000000001 19:0.7400000000000001 20:0.7400000000000001 21:0.5533333333333333 22:0.7400000000000001 23:0.7400000000000001 24:0.7400000000000001 25:0.7400000000000001 26:0.6866666666666666 27:0.7400000000000001 28:0.7400000000000001 29:0.7400000000000001 30:0.7400000000000001 
1.0 1:0.7400000000000001 2:0.7400000000000001 3:0.7400000000000001 4:0.7400000000000001 5:0.7400000000000001 6:0.7933333333333333 7:0.7400000000000001 8:0.7400000000000001 9:0.7400000000000001 10:0.7400000000000001 11:0.8466666666666667 12:0.7400000000000001 13:0.7400000000000001 14:0.7400000000000001 15:0.7400000000000001 16:0.5533333333333333 17:0.7400000000000001 18:0.7400000000000001 19:0.7400000000000001 20:0.7400000000000001 21:0.6866666666666666 22:0.7400000000000001 23:0.7400000000000001 24:0.7400000000000001 25:0.7400000000000001 26:0.7933333333333333 27:0.7400000000000001 28:0.7400000000000001 29:0.7400000000000001 30:0.7400000000000001 
0.29140989288515784 1:0.7933333333333333 2:0.7400000000000001 3:0.7400000000000001 4:0.7400000000000001 5:0.7400000000000001 6:0.8466666666666667 7:0.7400000000000001 8:0.7400000000000001 9:0.7400000000000001 10:0.7400000000000001 11:0.5533333333333333 12:0.7400000000000001 13:0.7400000000000001 14:0.7400000000000001 15:0.7400000000000001 16:0.6866666666666666 17:0.7400000000000001 18:0.7400000000000001 19:0.7400000000000001 20:0.7400000000000001 21:0.7933333333333333 22:0.7400000000000001 23:0.7400000000000001 24:0.7400000000000001 25:0.7400000000000001 26:0.8466666666666667 27:0.7400000000000001 28:0.7400000000000001 29:0.7400000000000001 30:0.7400000000000001 
-1.0 1:0.5533333333333333 2:0.7400000000000001 3:0.7400000000000001 4:0.7400000000000001 5:0.7400000000000001 6:0.6866666666666666 7:0.7400000000000001 8:0.7400000000000001 9:0.7400000000000001 10:0.7400000000000001 11:0.7933333333333333 12:0.7400000000000001 13:0.7400000000000001 14:0.7400000000000001 15:0.7400000000000001 16:0.8466666666666667 17:0.7400000000000001 18:0.7400000000000001 19:0.7400000000000001 20:0.7400000000000001 21:0.8200000000000001 22:0.7400000000000001 23:0.7400000000000001 24:0.7400000000000001 25:0.7400000000000001 26:0.7133333333333334 27:0.7400000000000001 28:0.7400000000000001 29:0.7400000000000001 30:0.7400000000000001 
-1.0 1:0.6866666666666666 2:0.7400000000000001 3:0.7400000000000001 4:0.7400000000000001 5:0.7400000000000001 6:0.7933333333333333 7:0.7400000000000001 8:0.7400000000000001 9:0.7400000000000001 10:0.7400000000000001 11:0.8466666666666667 12:0.7400000000000001 13:0.7400000000000001 14:0.7400000000000001 15:0.7400000000000001 16:0.8200000000000001 17:0.7400000000000001 18:0.7400000000000001 19:0.7400000000000001 20:0.7400000000000001 21:0.7133333333333334 22:0.7400000000000001 23:0.7400000000000001 24:0.7400000000000001 25:0.7400000000000001 26:0.5 27:0.7400000000000001 28:0.7400000000000001 29:0.7400000000000001 30:0.7400000000000001 
1.0 1:0.7400000000000001 2:0.8466666666666667 3:0.7400000000000001 4:0.7400000000000001 5:0.7400000000000001 6:0.7400000000000001 7:0.8200000000000001 8:0.7400000000000001 9:0.7400000000000001 10:0.7400000000000001 11:0.7400000000000001 12:0.7133333333333334 13:0.7400000000000001 14:0.7400000000000001 15:0.7400000000000001 16:0.7400000000000001 17:0.5 18:0.7400000000000001 19:0.7400000000000001 20:0.7400000000000001 21:0.7400000000000001 22:0.5 23:0.7400000000000001 24:0.7400000000000001 25:0.7400000000000001 26:0.7400000000000001 27:0.7400000000000001 28:0.7400000000000001 29:0.7400000000000001 30:0.7400000000000001 
-1.0 1:0.7133333333333334 2:0.7400000000000001 3:0.7400000000000001 4:0.7400000000000001 5:0.7400000000000001 6:0.5 7:0.7400000000000001 8:0.7400000000000001 9:0.7400000000000001 10:0.7400000000000001 11:0.5 12:0.7400000000000001 13:0.7400000000000001 14:0.7400000000000001 15:0.7400000000000001 16:0.7400000000000001 17:0.7400000000000001 18:0.7400000000000001 19:0.7400000000000001 20:0.8200000000000001 21:0.7400000000000001 22:0.7400000000000001 23:0.7400000000000001 24:0.7400000000000001 25:0.7400000000000001 26:0.8200000000000001 27:0.7400000000000001 28:0.7400000000000001 29:0.7400000000000001 30:0.7400000000000001 
-1.0 1:0.7400000000000001 2:0.8200000000000001 3:0.7400000000000001 4:0.7400000000000001 5:0.7400000000000001 6:0.7400000000000001 7:0.7400000000000001 8:0.8200000000000001 9:0.7400000000000001 10:0.7400000000000001 11:0.7400000000000001 12:0.7400000000000001 13:0.6066666666666667 14:0.7400000000000001 15:0.7400000000000001 16:0.7400000000000001 17:0.7400000000000001 18:0.7933333333333333 19:0.7400000000000001 20:0.7400000000000001 21:0.7400000000000001 22:0.7400000000000001 23:0.7400000000000001 24:0.7400000000000001 25:0.7400000000000001 26:0.7400000000000001 27:0.7400000000000001 28:0.7400000000000001 29:0.7400000000000001 30:0.7400000000000001 
1.0 1:0.7400000000000001 2:0.7400000000000001 3:0.7933333333333333 4:0.7400000000000001 5:0.7400000000000001 6:0.7400000000000001 7:0.7400000000000001 8:0.7400000000000001 9:0.7400000000000001 10:0.7400000000000001 11:0.7400000000000001 12:0.7400000000000001 13:0.7400000000000001 14:0.7400000000000001 15:0.7400000000000001 16:0.4733333333333334 17:0.7400000000000001 18:0.7400000000000001 19:0.7400000000000001 20:0.7400000000000001 21:0.6599999999999999 22:0.7400000000000001 23:0.7400000000000001 24:0.7400000000000001 25:0.7400000000000001 26:0.7400000000000001 27:0.7400000000000001 28:0.7400000000000001 29:0.7400000000000001 30:0.7400000000000001 
1.0 1:0.7400000000000001 2:0.7400000000000001 3:0.7400000000000001 4:0.7400000000000001 5:0.7400000000000001 6:0.4733333333333334 7:0.7400000000000001 8:0.7400000000000001 9:0.7400000000000001 10:0.7400000000000001 11:0.6599999999999999 12:0.7400000000000001 13:0.7400000000000001 14:0.7400000000000001 15:0.7400000000000001 16:0.7400000000000001 17:0.7400000000000001 18:0.7400000000000001 19:0.7400000000000001 20:0.7400000000000001 21:0.8200000000000001 22:0.7400000000000001 23:0.7400000000000001 24:0.7400000000000001 25:0.7400000000000001 26:0.7933333333333333 27:0.7400000000000001 28:0.7400000000000001 29:0.7400000000000001 30:0.7400000000000001 
-1.0 1:0.7400000000000001 2:0.7400000000000001 3:0.7400000000000001 4:0.7400000000000001 5:0.7400000000000001 6:0.8200000000000001 7:0.7400000000000001 8:0.7400000000000001 9:0.7400000000000001 10:0.7400000000000001 11:0.7933333333333333 12:0.7400000000000001 13:0.7400000000000001 14:0.7400000000000001 15:0.7400000000000001 16:0.8200000000000001 17:0.7400000000000001 18:0.7400000000000001 19:0.7400000000000001 20:0.7400000000000001 21:0.7400000000000001 22:0.7400000000000001 23:0.7400000000000001 24:0.7400000000000001 25:0.7400000000000001 26:0.7133333333333334 27:0.7400000000000001 28:0.7400000000000001 29:0.7400000000000001 30:0.7400000000000001 
1.0 1:0.8200000000000001 2:0.7400000000000001 3:0.7400000000000001 4:0.7400000000000001 5:0.7400000000000001 6:0.7400000000000001 7:0.7400000000000001 8:0.7400000000000001 9:0.7400000000000001 10:0.7400000000000001 11:0.7133333333333334 12:0.7400000000000001 13:0.7400000000000001 14:0.7400000000000001 15:0.7400000000000001 16:0.5266666666666667 17:0.7400000000000001 18:0.7400000000000001 19:0.7400000000000001 20:0.7400000000000001 21:0.7133333333333334 22:0.7400000000000001 23:0.7400000000000001 24:0.7400000000000001 25:0.7400000000000001 26:0.7133333333333334 27:0.7400000000000001 28:0.7400000000000001 29:0.7400000000000001 30:0.7400000000000001 
1.0 1:0.5266666666666667 2:0.7400000000000001 3:0.7400000000000001 4:0.7400000000000001 5:0.7400000000000001 6:0.7133333333333334 7:0.7400000000000001 8:0.7400000000000001 9:0.7400000000000001 10:0.7400000000000001 11:0.7133333333333334 12:0.7400000000000001 13:0.7400000000000001 14:0.7400000000000001 15:0.7400000000000001 16:0.8200000000000001 17:0.7400000000000001 18:0.7400000000000001 19:0.7400000000000001 20:0.7400000000000001 21:0.7400000000000001 22:0.7400000000000001 23:0.7400000000000001 24:0.7400000000000001 25:0.7400000000000001 26:0.7933333333333333 27:0.7400000000000001 28:0.7400000000000001 29:0.7400000000000001 30:0.7400000000000001 
1.0 1:0.8200000000000001 2:0.7400000000000001 3:0.7400000000000001 4:0.7400000000000001 5:0.7400000000000001 6:0.7400000000000001 7:0.7400000000000001 8:0.7400000000000001 9:0.7400000000000001 10:0.7400000000000001 11:0.7933333333333333 12:0.7400000000000001 13:0.7400000000000001 14:0.7400000000000001 15:0.7400000000000001 16:0.8466666666666667 17:0.7400000000000001 18:0.7400000000000001 19:0.7400000000000001 20:0.7400000000000001 21:0.7666666666666667 22:0.7400000000000001 23:0.7400000000000001 24:0.7400000000000001 25:0.7400000000000001 26:0.6599999999999999 27:0.7400000000000001 28:0.7400000000000001 29:0.7400000000000001 30:0.7400000000000001 
1.0 1:0.7933333333333333 2:0.7400000000000001 3:0.7400000000000001 4:0.7400000000000001 5:0.7400000000000001 6:0.8466666666666667 7:0.7400000000000001 8:0.7400000000000001 9:0.7400000000000001 10:0.7400000000000001 11:0.7666666666666667 12:0.7400000000000001 13:0.7400000000000001 14:0.7400000000000001 15:0.7400000000000001 16:0.6599999999999999 17:0.7400000000000001 18:0.7400000000000001 19:0.7400000000000001 20:0.7400000000000001 21:0.8466666666666667 22:0.7400000000000001 23:0.7400000000000001 24:0.7400000000000001 25:0.7400000000000001 26:0.7933333333333333 27:0.7400000000000001 28:0.7400000000000001 29:0.7400000000000001 30:0.7400000000000001 
-0.5738341848857318 1:0.8466666666666667 2:0.7400000000000001 3:0.7400000000000001 4:0.7400000000000001 5:0.7400000000000001 6:0.7666666666666667 7:0.7400000000000001 8:0.7400000000000001 9:0.7400000000000001 10:0.7400000000000001 11:0.6599999999999999 12:0.7400000000000001 13:0.7400000000000001 14:0.7400000000000001 15:0.7400000000000001 16:0.8466666666666667 17:0.7400000000000001 18:0.7400000000000001 19:0.7400000000000001 20:0.7400000000000001 21:0.7933333333333333 22:0.7400000000000001 23:0.7400000000000001 24:0.7400000000000001 25:0.7400000000000001 26:0.8466666666666667 27:0.7400000000000001 28:0.7400000000000001 29:0.7400000000000001 30:0.7400000000000001 
-1.0 1:0.6599999999999999 2:0.7400000000000001 3:0.7400000000000001 4:0.7400000000000001 5:0.7400000000000001 6:0.8466666666666667 7:0.7400000000000001 8:0.7400000000000001 9:0.7400000000000001 10:0.7400000000000001 11:0.7933333333333333 12:0.7400000000000001 13:0.7400000000000001 14:0.7400000000000001 15:0.7400000000000001 16:0.8466666666666667 17:0.7400000000000001 18:0.7400000000000001 19:0.7400000000000001 20:0.7400000000000001 21:0.6066666666666667 22:0.7400000000000001 23:0.7400000000000001 24:0.7400000000000001 25:0.7400000000000001 26:0.6333333333333333 27:0.7400000000000001 28:0.7400000000000001 29:0.7400000000000001 30:0.7400000000000001 
1.0 1:0.8466666666666667 2:0.7400000000000001 3:0.7400000000000001 4:0.7400000000000001 5:0.7400000000000001 6:0.7933333333333333 7:0.7400000000000001 8:0.7400000000000001 9:0.7400000000000001 10:0.7400000000000001 11:0.8466666666666667 12:0.7400000000000001 13:0.7400000000000001 14:0.7400000000000001 15:0.7400000000000001 16:0.6066666666666667 17:0.7400000000000001 18:0.7400000000000001 19:0.7400000000000001 20:0.7400000000000001 21:0.6333333333333333 22:0.7400000000000001 23:0.7400000000000001 24:0.7400000000000001 25:0.7400000000000001 26:0.5533333333333333 27:0.7400000000000001 28:0.7400000000000001 29:0.7400000000000001 30:0.7400000000000001 
-1.0 1:0.7933333333333333 2:0.7400000000000001 3:0.7400000000000001 4:0.7400000000000001 5:0.7400000000000001 6:0.8466666666666667 7:0.7400000000000001 8:0.7400000000000001 9:0.7400000000000001 10:0.7400000000000001 11:0.6066666666666667 12:0.7400000000000001 13:0.7400000000000001 14:0.7400000000000001 15:0.7400000000000001 16:0.6333333333333333 17:0.7400000000000001 18:0.7400000000000001 19:0.7400000000000001 20:0.7400000000000001 21:0.5533333333333333 22:0.7400000000000001 23:0.7400000000000001 24:0.7400000000000001 25:0.7400000000000001 26:0.8733333333333334 27:0.7400000000000001 28:0.7400000000000001 29:0.7400000000000001 30:0.7400000000000001 
1.0 1:0.6066666666666667 2:0.7400000000000001 3:0.7400000000000001 4:0.7400000000000001 5:0.7400000000000001 6:0.6333333333333333 7:0.7400000000000001 8:0.7400000000000001 9:0.7400000000000001 10:0.7400000000000001 11:0.5533333333333333 12:0.7400000000000001 13:0.7400000000000001 14:0.7400000000000001 15:0.7400000000000001 16:0.8733333333333334 17:0.7400000000000001 18:0.7400000000000001 19:0.7400000000000001 20:0.7400000000000001 21:0.5 22:0.7400000000000001 23:0.7400000000000001 24:0.7400000000000001 25:0.7400000000000001 26:0.7933333333333333 27:0.7400000000000001 28:0.7400000000000001 29:0.7400000000000001 30:0.7400000000000001 
1.0 1:0.5533333333333333 2:0.7400000000000001 3:0.7400000000000001 4:0.7400000000000001 5:0.7400000000000001 6:0.8733333333333334 7:0.7400000000000001 8:0.7400000000000001 9:0.7400000000000001 10:0.7400000000000001 11:0.5 12:0.7400000000000001 13:0.7400000000000001 14:0.7400000000000001 15:0.7400000000000001 16:0.7933333333333333 17:0.7400000000000001 18:0.7400000000000001 19:0.7400000000000001 20:0.7400000000000001 21:0.8733333333333334 22:0.7400000000000001 23:0.7400000000000001 24:0.7400000000000001 25:0.7400000000000001 26:0.7666666666666667 27:0.7400000000000001 28:0.7400000000000001 29:0.7400000000000001 30:0.7400000000000001 
1.0 1:0.8733333333333334 2:0.7400000000000001 3:0.7400000000000001 4:0.7400000000000001 5:0.7400000000000001 6:0.5 7:0.7400000000000001 8:0.7400000000000001 9:0.7400000000000001 10:0.7400000000000001 11:0.7933333333333333 12:0.7400000000000001 13:0.7400000000000001 14:0.7400000000000001 15:0.7400000000000001 16:0.8733333333333334 17:0.7400000000000001 18:0.7400000000000001 19:0.7400000000000001 20:0.7400000000000001 21:0.7666666666666667 22:0.7400000000000001 23:0.7400000000000001 24:0.7400000000000001 25:0.7400000000000001 26:0.8466666666666667 27:0.7400000000000001 28:0.7400000000000001 29:0.7400000000000001 30:0.7400000000000001 
1.0 1:0.7400000000000001 2:0.7400000000000001 3:0.7400000000000001 4:0.8733333333333334 5:0.7400000000000001 6:0.7400000000000001 7:0.7400000000000001 8:0.7400000000000001 9:0.7666666666666667 10:0.7400000000000001 11:0.7400000000000001 12:0.7400000000000001 13:0.7400000000000001 14:0.8466666666666667 15:0.7400000000000001 16:0.7400000000000001 17:0.7400000000000001 18:0.7400000000000001 19:0.8466666666666667 20:0.7400000000000001 21:0.7400000000000001 22:0.7400000000000001 23:0.7400000000000001 24:0.7933333333333333 25:0.7400000000000001 26:0.7400000000000001 27:0.7400000000000001 28:0.7400000000000001 29:0.7400000000000001 30:0.7400000000000001 
-1.0 1:0.7400000000000001 2:0.7400000000000001 3:0.8466666666666667 4:0.7400000000000001 5:0.7400000000000001 6:0.7400000000000001 7:0.7400000000000001 8:0.8466666666666667 9:0.7400000000000001 10:0.7400000000000001 11:0.7400000000000001 12:0.7400000000000001 13:0.7933333333333333 14:0.7400000000000001 15:0.7400000000000001 16:0.7400000000000001 17:0.7400000000000001 18:0.7400000000000001 19:0.7400000000000001 20:0.8466666666666667 21:0.7400000000000001 22:0.7400000000000001 23:0.7400000000000001 24:0.7400000000000001 25:0.7400000000000001 26:0.7933333333333333 27:0.7400000000000001 28:0.7400000000000001 29:0.7400000000000001 30:0.7400000000000001 
1.0 1:0.7400000000000001 2:0.7400000000000001 3:0.7933333333333333 4:0.7400000000000001 5:0.7400000000000001 6:0.7400000000000001 7:0.7400000000000001 8:0.7400000000000001 9:0.7400000000000001 10:0.8466666666666667 11:0.7400000000000001 12:0.7400000000000001 13:0.7400000000000001 14:0.7400000000000001 15:0.7400000000000001 16:0.7933333333333333 17:0.7400000000000001 18:0.7400000000000001 19:0.7400000000000001 20:0.7400000000000001 21:0.5 22:0.7400000000000001 23:0.7400000000000001 24:0.7400000000000001 25:0.7400000000000001 26:0.7933333333333333 27:0.7400000000000001 28:0.7400000000000001 29:0.7400000000000001 30:0.7400000000000001 
-1.0 1:0.7933333333333333 2:0.7400000000000001 3:0.7400000000000001 4:0.7400000000000001 5:0.7400000000000001 6:0.5 7:0.7400000000000001 8:0.7400000000000001 9:0.7400000000000001 10:0.7400000000000001 11:0.7933333333333333 12:0.7400000000000001 13:0.7400000000000001 14:0.7400000000000001 15:0.7400000000000001 16:0.8200000000000001 17:0.7400000000000001 18:0.7400000000000001 19:0.7400000000000001 20:0.7400000000000001 21:0.8200000000000001 22:0.7400000000000001 23:0.7400000000000001 24:0.7400000000000001 25:0.7400000000000001 26:0.7666666666666667 27:0.7400000000000001 28:0.7400000000000001 29:0.7400000000000001 30:0.7400000000000001 
-1.0 1:0.5 2:0.7400000000000001 3:0.7400000000000001 4:0.7400000000000001 5:0.7400000000000001 6:0.7933333333333333 7:0.7400000000000001 8:0.7400000000000001 9:0.7400000000000001 10:0.7400000000000001 11:0.8200000000000001 12:0.7400000000000001 13:0.7400000000000001 14:0.7400000000000001 15:0.7400000000000001 16:0.8200000000000001 17:0.7400000000000001 18:0.7400000000000001 19:0.7400000000000001 20:0.7400000000000001 21:0.7666666666666667 22:0.7400000000000001 23:0.7400000000000001 24:0.7400000000000001 25:0.7400000000000001 26:0.58 27:0.7400000000000001 28:0.7400000000000001 29:0.7400000000000001 30:0.7400000000000001 
-1.0 1:0.7933333333333333 2:0.7400000000000001 3:0.7400000000000001 4:0.7400000000000001 5:0.7400000000000001 6:0.8200000000000001 7:0.7400000000000001 8:0.7400000000000001 9:0.7400000000000001 10:0.7400000000000001 11:0.8200000000000001 12:0.7400000000000001 13:0.7400000000000001 14:0.7400000000000001 15:0.7400000000000001 16:0.7666666666666667 17:0.7400000000000001 18:0.7400000000000001 19:0.7400000000000001 20:0.7400000000000001 21:0.58 22:0.7400000000000001 23:0.7400000000000001 24:0.7400000000000001 25:0.7400000000000001 26:0.5266666666666667 27:0.7400000000000001 28:0.7400000000000001 29:0.7400000000000001 30:0.7400000000000001 
-1.0 1:0.8200000000000001 2:0.7400000000000001 3:0.7400000000000001 4:0.7400000000000001 5:0.7400000000000001 6:0.8200000000000001 7:0.7400000000000001 8:0.7400000000000001 9:0.7400000000000001 10:0.7400000000000001 11:0.7666666666666667 12:0.7400000000000001 13:0.7400000000000001 14:0.7400000000000001 15:0.7400000000000001 16:0.58 17:0.7400000000000001 18:0.7400000000000001 19:0.7400000000000001 20:0.7400000000000001 21:0.5266666666666667 22:0.7400000000000001 23:0.7400000000000001 24:0.7400000000000001 25:0.7400000000000001 26:0.5 27:0.7400000000000001 28:0.7400000000000001 29:0.7400000000000001 30:0.7400000000000001 
0.28242429200057384 1:0.7400000000000001 2:0.7400000000000001 3:0.58 4:0.7400000000000001 5:0.7400000000000001 6:0.7400000000000001 7:0.7400000000000001 8:0.5266666666666667 9:0.7400000000000001 10:0.7400000000000001 11:0.7400000000000001 12:0.7400000000000001 13:0.5 14:0.7400000000000001 15:0.7400000000000001 16:0.7400000000000001 17:0.7400000000000001 18:0.5266666666666667 19:0.7400000000000001 20:0.7400000000000001 21:0.7400000000000001 22:0.7400000000000001 23:0.6599999999999999 24:0.7400000000000001 25:0.7400000000000001 26:0.7400000000000001 27:0.7400000000000001 28:0.7400000000000001 29:0.7400000000000001 30:0.7400000000000001 
1.0 1:0.7400000000000001 2:0.7400000000000001 3:0.5 4:0.7400000000000001 5:0.7400000000000001 6:0.7400000000000001 7:0.7400000000000001 8:0.5266666666666667 9:0.7400000000000001 10:0.7400000000000001 11:0.7400000000000001 12:0.7400000000000001 13:0.6599999999999999 14:0.7400000000000001 15:0.7400000000000001 16:0.7400000000000001 17:0.7400000000000001 18:0.7400000000000001 19:0.7400000000000001 20:0.7400000000000001 21:0.8200000000000001 22:0.7400000000000001 23:0.7400000000000001 24:0.7400000000000001 25:0.7400000000000001 26:0.7666666666666667 27:0.7400000000000001 28:0.7400000000000001 29:0.7400000000000001 30:0.7400000000000001 
1.0 1:0.7400000000000001 2:0.7400000000000001 3:0.6599999999999999 4:0.7400000000000001 5:0.7400000000000001 6:0.7400000000000001 7:0.7400000000000001 8:0.7400000000000001 9:0.7400000000000001 10:0.7400000000000001 11:0.8200000000000001 12:0.7400000000000001 13:0.7400000000000001 14:0.7400000000000001 15:0.7400000000000001 16:0.7666666666666667 17:0.7400000000000001 18:0.7400000000000001 19:0.7400000000000001 20:0.7400000000000001 21:0.8466666666666667 22:0.7400000000000001 23:0.7400000000000001 24:0.7400000000000001 25:0.7400000000000001 26:0.6599999999999999 27:0.7400000000000001 28:0.7400000000000001 29:0.7400000000000001 30:0.7400000000000001 
-1.0 1:0.7400000000000001 2:0.7400000000000001 3:0.7400000000000001 4:0.7400000000000001 5:0.7400000000000001 6:0.8200000000000001 7:0.7400000000000001 8:0.7400000000000001 9:0.7400000000000001 10:0.7400000000000001 11:0.7666666666666667 12:0.7400000000000001 13:0.7400000000000001 14:0.7400000000000001 15:0.7400000000000001 16:0.8466666666666667 17:0.7400000000000001 18:0.7400000000000001 19:0.7400000000000001 20:0.7400000000000001 21:0.6599999999999999 22:0.7400000000000001 23:0.7400000000000001 24:0.7400000000000001 25:0.7400000000000001 26:0.8200000000000001 27:0.7400000000000001 28:0.7400000000000001 29:0.7400000000000001 30:0.7400000000000001 
-1.0 1:0.8200000000000001 2:0.7400000000000001 3:0.7400000000000001 4:0.7400000000000001 5:0.7400000000000001 6:0.7666666666666667 7:0.7400000000000001 8:0.7400000000000001 9:0.7400000000000001 10:0.7400000000000001 11:0.8466666666666667 12:0.7400000000000001 13:0.7400000000000001 14:0.7400000000000001 15:0.7400000000000001 16:0.6599999999999999 17:0.7400000000000001 18:0.7400000000000001 19:0.7400000000000001 20:0.7400000000000001 21:0.8200000000000001 22:0.7400000000000001 23:0.7400000000000001 24:0.7400000000000001 25:0.7400000000000001 26:0.5266666666666667 27:0.7400000000000001 28:0.7400000000000001 29:0.7400000000000001 30:0.7400000000000001 
-1.0 1:0.8466666666666667 2:0.7400000000000001 3:0.7400000000000001 4:0.7400000000000001 5:0.7400000000000001 6:0.6599999999999999 7:0.7400000000000001 8:0.7400000000000001 9:0.7400000000000001 10:0.7400000000000001 11:0.8200000000000001 12:0.7400000000000001 13:0.7400000000000001 14:0.7400000000000001 15:0.7400000000000001 16:0.5266666666666667 17:0.7400000000000001 18:0.7400000000000001 19:0.7400000000000001 20:0.7400000000000001 21:0.58 22:0.7400000000000001 23:0.7400000000000001 24:0.7400000000000001 25:0.7400000000000001 26:0.7666666666666667 27:0.7400000000000001 28:0.7400000000000001 29:0.7400000000000001 30:0.7400000000000001 
1.0 1:0.58 2:0.7400000000000001 3:0.7400000000000001 4:0.7400000000000001 5:0.7400000000000001 6:0.7666666666666667 7:0.7400000000000001 8:0.7400000000000001 9:0.7400000000000001 10:0.7400000000000001 11:0.5533333333333333 12:0.7400000000000001 13:0.7400000000000001 14:0.7400000000000001 15:0.7400000000000001 16:0.7400000000000001 17:0.7400000000000001 18:0.7400000000000001 19:0.7400000000000001 20:0.6333333333333333 21:0.7400000000000001 22:0.7400000000000001 23:0.7400000000000001 24:0.7400000000000001 25:0.7400000000000001 26:0.7933333333333333 27:0.7400000000000001 28:0.7400000000000001 29:0.7400000000000001 30:0.7400000000000001 
-1.0 1:0.7400000000000001 2:0.7400000000000001 3:0.5533333333333333 4:0.7400000000000001 5:0.7400000000000001 6:0.7400000000000001 7:0.7400000000000001 8:0.7400000000000001 9:0.7400000000000001 10:0.7400000000000001 11:0.7400000000000001 12:0.6333333333333333 13:0.7400000000000001 14:0.7400000000000001 15:0.7400000000000001 16:0.7400000000000001 17:0.7400000000000001 18:0.7933333333333333 19:0.7400000000000001 20:0.7400000000000001 21:0.7400000000000001 22:0.7400000000000001 23:0.8200000000000001 24:0.7400000000000001 25:0.7400000000000001 26:0.7400000000000001 27:0.7400000000000001 28:0.7400000000000001 29:0.7400000000000001 30:0.7400000000000001 
-1.0 1:0.7400000000000001 2:0.6333333333333333 3:0.7400000000000001 4:0.7400000000000001 5:0.7400000000000001 6:0.7400000000000001 7:0.7400000000000001 8:0.7933333333333333 9:0.7400000000000001 10:0.7400000000000001 11:0.7400000000000001 12:0.7400000000000001 13:0.8200000000000001 14:0.7400000000000001 15:0.7400000000000001 16:0.7400000000000001 17:0.7400000000000001 18:0.7400000000000001 19:0.7400000000000001 20:0.7400000000000001 21:0.58 22:0.7400000000000001 23:0.7400000000000001 24:0.7400000000000001 25:0.7400000000000001 26:0.6066666666666667 27:0.7400000000000001 28:0.7400000000000001 29:0.7400000000000001 30:0.7400000000000001 
1.0 1:0.7400000000000001 2:0.7400000000000001 3:0.7400000000000001 4:0.7400000000000001 5:0.7400000000000001 6:0.58 7:0.7400000000000001 8:0.7400000000000001 9:0.7400000000000001 10:0.7400000000000001 11:0.6066666666666667 12:0.7400000000000001 13:0.7400000000000001 14:0.7400000000000001 15:0.7400000000000001 16:0.58 17:0.7400000000000001 18:0.7400000000000001 19:0.7400000000000001 20:0.7400000000000001 21:0.6866666666666666 22:0.7400000000000001 23:0.7400000000000001 24:0.7400000000000001 25:0.7400000000000001 26:0.7400000000000001 27:0.7400000000000001 28:0.7400000000000001 29:0.7400000000000001 30:0.7400000000000001 
-1.0 1:0.7400000000000001 2:0.6066666666666667 3:0.7400000000000001 4:0.7400000000000001 5:0.7400000000000001 6:0.7400000000000001 7:0.58 8:0.7400000000000001 9:0.7400000000000001 10:0.7400000000000001 11:0.7400000000000001 12:0.6866666666666666 13:0.7400000000000001 14:0.7400000000000001 15:0.7400000000000001 16:0.7400000000000001 17:0.7400000000000001 18:0.7400000000000001 19:0.7400000000000001 20:0.7400000000000001 21:0.7400000000000001 22:0.8200000000000001 23:0.7400000000000001 24:0.7400000000000001 25:0.7400000000000001 26:0.7400000000000001 27:0.7400000000000001 28:0.7400000000000001 29:0.7400000000000001 30:0.7400000000000001 
1.0 1:0.7400000000000001 2:0.7400000000000001 3:0.7400000000000001 4:0.7400000000000001 5:0.5 6:0.7400000000000001 7:0.7400000000000001 8:0.7400000000000001 9:0.7400000000000001 10:0.7400000000000001 11:0.7400000000000001 12:0.7400000000000001 13:0.7400000000000001 14:0.7400000000000001 15:0.7400000000000001 16:0.7400000000000001 17:0.7400000000000001 18:0.7400000000000001 19:0.7400000000000001 20:0.7933333333333333 21:0.7400000000000001 22:0.7400000000000001 23:0.7400000000000001 24:0.7400000000000001 25:0.7400000000000001 26:0.7400000000000001 27:0.7400000000000001 28:0.7400000000000001 29:0.7400000000000001 30:0.7400000000000001 
1.0 1:0.7400000000000001 2:0.7400000000000001 3:0.7400000000000001 4:0.7400000000000001 5:0.7400000000000001 6:0.7400000000000001 7:0.7400000000000001 8:0.7400000000000001 9:0.7400000000000001 10:0.7933333333333333 11:0.7400000000000001 12:0.7400000000000001 13:0.7400000000000001 14:0.7400000000000001 15:0.7400000000000001 16:0.7400000000000001 17:0.7400000000000001 18:0.7400000000000001 19:0.7400000000000001 20:0.7400000000000001 21:0.8733333333333334 22:0.7400000000000001 23:0.7400000000000001 24:0.7400000000000001 25:0.7400000000000001 26:0.6333333333333333 27:0.7400000000000001 28:0.7400000000000001 29:0.7400000000000001 30:0.7400000000000001 
1.0 1:0.7400000000000001 2:0.7400000000000001 3:0.7400000000000001 4:0.7400000000000001 5:0.7400000000000001 6:0.7400000000000001 7:0.7400000000000001 8:0.7400000000000001 9:0.7400000000000001 10:0.7400000000000001 11:0.8733333333333334 12:0.7400000000000001 13:0.7400000000000001 14:0.7400000000000001 15:0.7400000000000001 16:0.6333333333333333 17:0.7400000000000001 18:0.7400000000000001 19:0.7400000000000001 20:0.7400000000000001 21:0.8733333333333334 22:0.7400000000000001 23:0.7400000000000001 24:0.7400000000000001 25:0.7400000000000001 26:0.6066666666666667 27:0.7400000000000001 28:0.7400000000000001 29:0.7400000000000001 30:0.7400000000000001 
-1.0 1:0.7400000000000001 2:0.7400000000000001 3:0.7400000000000001 4:0.7400000000000001 5:0.7400000000000001 6:0.8733333333333334 7:0.7400000000000001 8:0.7400000000000001 9:0.7400000000000001 10:0.7400000000000001 11:0.6333333333333333 12:0.7400000000000001 13:0.7400000000000001 14:0.7400000000000001 15:0.7400000000000001 16:0.8733333333333334 17:0.7400000000000001 18:0.7400000000000001 19:0.7400000000000001 20:0.7400000000000001 21:0.6066666666666667 22:0.7400000000000001 23:0.7400000000000001 24:0.7400000000000001 25:0.7400000000000001 26:0.8733333333333334 27:0.7400000000000001 28:0.7400000000000001 29:0.7400000000000001 30:0.7400000000000001 
-1.0 1:0.8733333333333334 2:0.7400000000000001 3:0.7400000000000001 4:0.7400000000000001 5:0.7400000000000001 6:0.6333333333333333 7:0.7400000000000001 8:0.7400000000000001 9:0.7400000000000001 10:0.7400000000000001 11:0.8733333333333334 12:0.7400000000000001 13:0.7400000000000001 14:0.7400000000000001 15:0.7400000000000001 16:0.6066666666666667 17:0.7400000000000001 18:0.7400000000000001 19:0.7400000000000001 20:0.7400000000000001 21:0.8733333333333334 22:0.7400000000000001 23:0.7400000000000001 24:0.7400000000000001 25:0.7400000000000001 26:0.58 27:0.7400000000000001 28:0.7400000000000001 29:0.7400000000000001 30:0.7400000000000001 
1.0 1:0.6333333333333333 2:0.7400000000000001 3:0.7400000000000001 4:0.7400000000000001 5:0.7400000000000001 6:0.8733333333333334 7:0.7400000000000001 8:0.7400000000000001 9:0.7400000000000001 10:0.7400000000000001 11:0.6066666666666667 12:0.7400000000000001 13:0.7400000000000001 14:0.7400000000000001 15:0.7400000000000001 16:0.8733333333333334 17:0.7400000000000001 18:0.7400000000000001 19:0.7400000000000001 20:0.7400000000000001 21:0.58 22:0.7400000000000001 23:0.7400000000000001 24:0.7400000000000001 25:0.7400000000000001 26:0.5533333333333333 27:0.7400000000000001 28:0.7400000000000001 29:0.7400000000000001 30:0.7400000000000001 
-1.0 1:0.8733333333333334 2:0.7400000000000001 3:0.7400000000000001 4:0.7400000000000001 5:0.7400000000000001 6:0.58 7:0.7400000000000001 8:0.7400000000000001 9:0.7400000000000001 10:0.7400000000000001 11:0.5533333333333333 12:0.7400000000000001 13:0.7400000000000001 14:0.7400000000000001 15:0.7400000000000001 16:0.9 17:0.7400000000000001 18:0.7400000000000001 19:0.7400000000000001 20:0.7400000000000001 21:0.7666666666666667 22:0.7400000000000001 23:0.7400000000000001 24:0.7400000000000001 25:0.7400000000000001 26:0.7400000000000001 27:0.7400000000000001 28:0.7400000000000001 29:0.7400000000000001 30:0.7400000000000001 
1.0 1:0.9 2:0.7400000000000001 3:0.7400000000000001 4:0.7400000000000001 5:0.7400000000000001 6:0.7666666666666667 7:0.7400000000000001 8:0.7400000000000001 9:0.7400000000000001 10:0.7400000000000001 11:0.7400000000000001 12:0.7400000000000001 13:0.7400000000000001 14:0.7400000000000001 15:0.7400000000000001 16:0.58 17:0.7400000000000001 18:0.7400000000000001 19:0.7400000000000001 20:0.7400000000000001 21:0.7933333333333333 22:0.7400000000000001 23:0.7400000000000001 24:0.7400000000000001 25:0.7400000000000001 26:0.7400000000000001 27:0.7400000000000001 28:0.7400000000000001 29:0.7400000000000001 30:0.7400000000000001 
-1.0 1:0.7400000000000001 2:0.7400000000000001 3:0.7400000000000001 4:0.7400000000000001 5:0.7400000000000001 6:0.7400000000000001 7:0.7400000000000001 8:0.9 9:0.7400000000000001 10:0.7400000000000001 11:0.7400000000000001 12:0.7400000000000001 13:0.7133333333333334 14:0.7400000000000001 15:0.7400000000000001 16:0.7400000000000001 17:0.7400000000000001 18:0.6866666666666666 19:0.7400000000000001 20:0.7400000000000001 21:0.7400000000000001 22:0.7400000000000001 23:0.7133333333333334 24:0.7400000000000001 25:0.7400000000000001 26:0.7400000000000001 27:0.7400000000000001 28:0.7400000000000001 29:0.7400000000000001 30:0.7400000000000001 
-1.0 1:0.7400000000000001 2:0.7400000000000001 3:0.7400000000000001 4:0.7400000000000001 5:0.7133333333333334 6:0.7400000000000001 7:0.7400000000000001 8:0.7400000000000001 9:0.7400000000000001 10:0.6866666666666666 11:0.7400000000000001 12:0.7400000000000001 13:0.7400000000000001 14:0.7400000000000001 15:0.7133333333333334 16:0.7400000000000001 17:0.7400000000000001 18:0.7400000000000001 19:0.7400000000000001 20:0.7400000000000001 21:0.7400000000000001 22:0.7400000000000001 23:0.44666666666666666 24:0.7400000000000001 25:0.7400000000000001 26:0.7400000000000001 27:0.7400000000000001 28:0.7400000000000001 29:0.7400000000000001 30:0.7400000000000001 
