encog,SVM,java,3.1.0,1,1400407107391
[SVM]
[SVM:PARAMS]
[SVM:SVM-PARAM]
inputCount=30
C=1
cacheSize=100
coef0=0
degree=3
eps=0.001
gamma=0.0333333333
kernelType=2
nrWeight=0
nu=0.5
p=0.1
probability=0
shrinking=1
svmType=3
weight=
weightLabel=
[SVM:SVM-MODEL]
svm_type epsilon_svr
kernel_type rbf
gamma 0.03333333333333333
nr_class 2
total_sv 86
rho -0.20424898575403974
SV
1.0 1:0.1 2:0.1 3:0.1 4:0.1 5:0.1 6:0.1 7:0.1 8:0.1 9:0.1 10:0.1 11:0.1 12:0.1 13:0.1 14:0.1 15:0.1 16:0.1 17:0.1 18:0.1 19:0.1 20:0.1 21:0.1 22:0.1 23:0.1 24:0.1 25:0.1 26:0.1 27:0.1 28:0.1 29:0.1 30:0.1 
-0.20684134912497087 1:0.1 2:0.1 3:0.1 4:0.1 5:0.1 6:0.1 7:0.1 8:0.1 9:0.1 10:0.1 11:0.1 12:0.1 13:0.1 14:0.1 15:0.1 16:0.9 17:0.1 18:0.1 19:0.1 20:0.1 21:0.1 22:0.1 23:0.1 24:0.1 25:0.1 26:0.1 27:0.1 28:0.1 29:0.1 30:0.1 
1.0 1:0.1 2:0.1 3:0.1 4:0.1 5:0.1 6:0.1 7:0.1 8:0.1 9:0.1 10:0.1 11:0.1 12:0.1 13:0.1 14:0.1 15:0.1 16:0.1 17:0.1 18:0.1 19:0.1 20:0.1 21:0.1 22:0.1 23:0.1 24:0.1 25:0.1 26:0.1 27:0.1 28:0.1 29:0.1 30:0.1 
1.0 1:0.1 2:0.1 3:0.1 4:0.1 5:0.1 6:0.1 7:0.1 8:0.1 9:0.1 10:0.1 11:0.1 12:0.1 13:0.1 14:0.1 15:0.1 16:0.9 17:0.1 18:0.1 19:0.1 20:0.1 21:0.1 22:0.1 23:0.1 24:0.1 25:0.1 26:0.1 27:0.1 28:0.1 29:0.1 30:0.1 
-0.6909384190967014 1:0.1 2:0.1 3:0.1 4:0.1 5:0.1 6:0.1 7:0.1 8:0.1 9:0.1 10:0.1 11:0.1 12:0.1 13:0.9 14:0.1 15:0.1 16:0.1 17:0.1 18:0.1 19:0.1 20:0.1 21:0.1 22:0.1 23:0.1 24:0.1 25:0.1 26:0.1 27:0.1 28:0.9 29:0.1 30:0.1 
-0.7379916231294247 1:0.1 2:0.1 3:0.1 4:0.1 5:0.1 6:0.1 7:0.1 8:0.1 9:0.1 10:0.1 11:0.9 12:0.1 13:0.1 14:0.1 15:0.1 16:0.1 17:0.1 18:0.1 19:0.1 20:0.1 21:0.1 22:0.1 23:0.1 24:0.1 25:0.1 26:0.9 27:0.1 28:0.1 29:0.1 30:0.1 
-0.6605139220618093 1:0.1 2:0.1 3:0.1 4:0.1 5:0.1 6:0.9 7:0.1 8:0.1 9:0.1 10:0.1 11:0.1 12:0.1 13:0.1 14:0.1 15:0.1 16:0.1 17:0.1 18:0.1 19:0.1 20:0.1 21:0.9 22:0.1 23:0.1 24:0.1 25:0.1 26:0.1 27:0.1 28:0.1 29:0.1 30:0.1 
1.0 1:0.1 2:0.1 3:0.1 4:0.1 5:0.1 6:0.1 7:0.1 8:0.1 9:0.1 10:0.1 11:0.1 12:0.1 13:0.1 14:0.1 15:0.1 16:0.1 17:0.1 18:0.1 19:0.1 20:0.1 21:0.1 22:0.1 23:0.1 24:0.1 25:0.1 26:0.1 27:0.1 28:0.1 29:0.1 30:0.1 
-1.0 1:0.1 2:0.1 3:0.1 4:0.1 5:0.1 6:0.1 7:0.1 8:0.1 9:0.1 10:0.1 11:0.1 12:0.1 13:0.1 14:0.1 15:0.1 16:0.9 17:0.1 18:0.1 19:0.1 20:0.1 21:0.1 22:0.1 23:0.1 24:0.1 25:0.1 26:0.1 27:0.1 28:0.1 29:0.1 30:0.1 
1.0 1:0.1 2:0.1 3:0.1 4:0.1 5:0.1 6:0.1 7:0.1 8:0.1 9:0.1 10:0.1 11:0.1 12:0.1 13:0.1 14:0.1 15:0.1 16:0.1 17:0.1 18:0.1 19:0.1 20:0.1 21:0.1 22:0.1 23:0.1 24:0.1 25:0.1 26:0.1 27:0.1 28:0.1 29:0.1 30:0.1 
-0.022477929201224038 1:0.1 2:0.1 3:0.1 4:0.1 5:0.1 6:0.1 7:0.1 8:0.1 9:0.1 10:0.1 11:0.1 12:0.1 13:0.1 14:0.1 15:0.1 16:0.1 17:0.9 18:0.1 19:0.1 20:0.1 21:0.1 22:0.1 23:0.1 24:0.1 25:0.1 26:0.1 27:0.1 28:0.1 29:0.1 30:0.1 
-1.0 1:0.1 2:0.1 3:0.1 4:0.1 5:0.1 6:0.1 7:0.1 8:0.1 9:0.1 10:0.1 11:0.1 12:0.1 13:0.1 14:0.1 15:0.1 16:0.9 17:0.1 18:0.1 19:0.1 20:0.1 21:0.1 22:0.1 23:0.1 24:0.1 25:0.1 26:0.1 27:0.1 28:0.1 29:0.1 30:0.1 
1.0 1:0.1 2:0.1 3:0.1 4:0.1 5:0.1 6:0.1 7:0.1 8:0.1 9:0.1 10:0.1 11:0.1 12:0.1 13:0.1 14:0.1 15:0.1 16:0.1 17:0.1 18:0.1 19:0.1 20:0.1 21:0.1 22:0.1 23:0.1 24:0.1 25:0.1 26:0.1 27:0.1 28:0.1 29:0.1 30:0.1 
-1.0 1:0.1 2:0.1 3:0.1 4:0.1 5:0.1 6:0.1 7:0.1 8:0.1 9:0.1 10:0.1 11:0.1 12:0.1 13:0.1 14:0.1 15:0.1 16:0.1 17:0.1 18:0.1 19:0.1 20:0.1 21:0.9 22:0.1 23:0.1 24:0.1 25:0.1 26:0.1 27:0.1 28:0.1 29:0.1 30:0.1 
1.0 1:0.1 2:0.1 3:0.1 4:0.1 5:0.1 6:0.1 7:0.1 8:0.1 9:0.1 10:0.1 11:0.1 12:0.1 13:0.1 14:0.1 15:0.1 16:0.1 17:0.9 18:0.1 19:0.1 20:0.1 21:0.1 22:0.1 23:0.1 24:0.1 25:0.1 26:0.1 27:0.1 28:0.1 29:0.1 30:0.1 
-0.12583691724331703 1:0.1 2:0.1 3:0.9 4:0.1 5:0.1 6:0.1 7:0.1 8:0.1 9:0.1 10:0.1 11:0.1 12:0.1 13:0.1 14:0.1 15:0.1 16:0.1 17:0.9 18:0.1 19:0.1 20:0.1 21:0.1 22:0.1 23:0.1 24:0.1 25:0.1 26:0.1 27:0.1 28:0.1 29:0.1 30:0.1 
1.0 1:0.1 2:0.1 3:0.1 4:0.1 5:0.1 6:0.1 7:0.1 8:0.1 9:0.9 10:0.1 11:0.1 12:0.1 13:0.1 14:0.1 15:0.1 16:0.1 17:0.1 18:0.1 19:0.1 20:0.1 21:0.1 22:0.1 23:0.1 24:0.1 25:0.1 26:0.1 27:0.1 28:0.1 29:0.1 30:0.1 
-0.13580577902306679 1:0.1 2:0.1 3:0.1 4:0.1 5:0.1 6:0.1 7:0.9 8:0.1 9:0.1 10:0.1 11:0.1 12:0.1 13:0.1 14:0.1 15:0.1 16:0.1 17:0.1 18:0.1 19:0.1 20:0.1 21:0.1 22:0.1 23:0.1 24:0.1 25:0.1 26:0.1 27:0.1 28:0.1 29:0.9 30:0.1 
-1.0 1:0.1 2:0.1 3:0.1 4:0.1 5:0.1 6:0.1 7:0.1 8:0.1 9:0.1 10:0.1 11:0.1 12:0.1 13:0.1 14:0.1 15:0.1 16:0.1 17:0.1 18:0.1 19:0.1 20:0.1 21:0.9 22:0.1 23:0.1 24:0.1 25:0.1 26:0.1 27:0.1 28:0.1 29:0.1 30:0.1 
-1.0 1:0.1 2:0.1 3:0.1 4:0.1 5:0.1 6:0.1 7:0.1 8:0.1 9:0.1 10:0.1 11:0.1 12:0.1 13:0.1 14:0.1 15:0.1 16:0.1 17:0.9 18:0.1 19:0.1 20:0.1 21:0.1 22:0.1 23:0.1 24:0.1 25:0.1 26:0.1 27:0.1 28:0.1 29:0.1 30:0.1 
-1.0 1:0.1 2:0.1 3:0.1 4:0.1 5:0.1 6:0.1 7:0.1 8:0.1 9:0.1 10:0.1 11:0.1 12:0.1 13:0.1 14:0.1 15:0.1 16:0.9 17:0.1 18:0.1 19:0.1 20:0.1 21:0.1 22:0.1 23:0.1 24:0.1 25:0.1 26:0.1 27:0.1 28:0.1 29:0.1 30:0.1 
1.0 1:0.1 2:0.1 3:0.1 4:0.1 5:0.1 6:0.1 7:0.1 8:0.1 9:0.1 10:0.1 11:0.1 12:0.1 13:0.1 14:0.1 15:0.1 16:0.1 17:0.1 18:0.1 19:0.1 20:0.1 21:0.1 22:0.1 23:0.1 24:0.1 25:0.1 26:0.1 27:0.1 28:0.1 29:0.1 30:0.1 
1.0 1:0.1 2:0.1 3:0.1 4:0.1 5:0.1 6:0.1 7:0.1 8:0.1 9:0.1 10:0.1 11:0.1 12:0.1 13:0.1 14:0.1 15:0.1 16:0.1 17:0.1 18:0.1 19:0.1 20:0.1 21:0.9 22:0.1 23:0.1 24:0.1 25:0.1 26:0.1 27:0.1 28:0.1 29:0.1 30:0.1 
-0.7320726138699944 1:0.1 2:0.1 3:0.1 4:0.1 5:0.1 6:0.1 7:0.1 8:0.1 9:0.1 10:0.1 11:0.1 12:0.1 13:0.1 14:0.1 15:0.1 16:0.1 17:0.1 18:0.1 19:0.9 20:0.1 21:0.1 22:0.1 23:0.1 24:0.1 25:0.1 26:0.1 27:0.1 28:0.1 29:0.9 30:0.1 
-0.11473223132508234 1:0.1 2:0.1 3:0.1 4:0.1 5:0.1 6:0.1 7:0.1 8:0.1 9:0.1 10:0.1 11:0.1 12:0.1 13:0.1 14:0.1 15:0.1 16:0.9 17:0.1 18:0.1 19:0.1 20:0.1 21:0.1 22:0.1 23:0.1 24:0.1 25:0.1 26:0.9 27:0.1 28:0.1 29:0.1 30:0.1 
1.0 1:0.1 2:0.1 3:0.1 4:0.1 5:0.1 6:0.1 7:0.1 8:0.1 9:0.1 10:0.1 11:0.1 12:0.9 13:0.1 14:0.1 15:0.1 16:0.1 17:0.1 18:0.1 19:0.1 20:0.1 21:0.1 22:0.9 23:0.1 24:0.1 25:0.1 26:0.1 27:0.1 28:0.1 29:0.1 30:0.1 
-0.22814688919332862 1:0.1 2:0.1 3:0.1 4:0.1 5:0.1 6:0.1 7:0.1 8:0.1 9:0.9 10:0.1 11:0.1 12:0.1 13:0.1 14:0.1 15:0.1 16:0.1 17:0.1 18:0.1 19:0.9 20:0.1 21:0.1 22:0.1 23:0.1 24:0.1 25:0.1 26:0.1 27:0.1 28:0.9 29:0.1 30:0.1 
-0.04655033604529463 1:0.1 2:0.1 3:0.1 4:0.1 5:0.1 6:0.1 7:0.9 8:0.1 9:0.1 10:0.1 11:0.1 12:0.1 13:0.1 14:0.1 15:0.1 16:0.1 17:0.9 18:0.1 19:0.1 20:0.1 21:0.1 22:0.1 23:0.1 24:0.1 25:0.1 26:0.9 27:0.1 28:0.1 29:0.1 30:0.1 
-0.041868625733321764 1:0.1 2:0.1 3:0.1 4:0.1 5:0.1 6:0.9 7:0.1 8:0.1 9:0.1 10:0.1 11:0.1 12:0.1 13:0.1 14:0.1 15:0.1 16:0.9 17:0.1 18:0.1 19:0.1 20:0.1 21:0.1 22:0.1 23:0.1 24:0.1 25:0.9 26:0.1 27:0.1 28:0.1 29:0.1 30:0.1 
-0.18266921900036967 1:0.1 2:0.1 3:0.1 4:0.1 5:0.1 6:0.1 7:0.1 8:0.9 9:0.1 10:0.1 11:0.1 12:0.1 13:0.1 14:0.1 15:0.1 16:0.1 17:0.9 18:0.1 19:0.1 20:0.1 21:0.1 22:0.1 23:0.1 24:0.1 25:0.1 26:0.1 27:0.1 28:0.1 29:0.1 30:0.1 
-0.3169356411848081 1:0.1 2:0.1 3:0.9 4:0.1 5:0.1 6:0.1 7:0.1 8:0.1 9:0.1 10:0.1 11:0.1 12:0.9 13:0.1 14:0.1 15:0.1 16:0.1 17:0.1 18:0.1 19:0.1 20:0.1 21:0.1 22:0.1 23:0.1 24:0.1 25:0.1 26:0.1 27:0.1 28:0.1 29:0.1 30:0.1 
1.0 1:0.9 2:0.1 3:0.1 4:0.1 5:0.1 6:0.1 7:0.1 8:0.1 9:0.1 10:0.1 11:0.1 12:0.1 13:0.1 14:0.1 15:0.1 16:0.1 17:0.1 18:0.1 19:0.1 20:0.1 21:0.1 22:0.1 23:0.1 24:0.1 25:0.1 26:0.1 27:0.1 28:0.1 29:0.1 30:0.1 
-0.18666010627752386 1:0.1 2:0.1 3:0.1 4:0.1 5:0.1 6:0.1 7:0.1 8:0.1 9:0.1 10:0.1 11:0.1 12:0.1 13:0.1 14:0.1 15:0.1 16:0.1 17:0.1 18:0.1 19:0.1 20:0.1 21:0.1 22:0.1 23:0.1 24:0.1 25:0.1 26:0.1 27:0.1 28:0.1 29:0.9 30:0.1 
-0.20699969833784687 1:0.1 2:0.1 3:0.1 4:0.1 5:0.1 6:0.1 7:0.1 8:0.1 9:0.1 10:0.1 11:0.1 12:0.1 13:0.1 14:0.1 15:0.1 16:0.1 17:0.1 18:0.1 19:0.1 20:0.1 21:0.1 22:0.1 23:0.1 24:0.9 25:0.1 26:0.1 27:0.1 28:0.1 29:0.1 30:0.1 
1.0 1:0.1 2:0.1 3:0.1 4:0.1 5:0.1 6:0.1 7:0.1 8:0.1 9:0.1 10:0.1 11:0.1 12:0.1 13:0.1 14:0.1 15:0.1 16:0.1 17:0.1 18:0.1 19:0.1 20:0.1 21:0.9 22:0.1 23:0.1 24:0.1 25:0.1 26:0.1 27:0.1 28:0.1 29:0.1 30:0.1 
-0.8025795772850272 1:0.1 2:0.1 3:0.1 4:0.1 5:0.1 6:0.1 7:0.1 8:0.1 9:0.1 10:0.1 11:0.1 12:0.1 13:0.1 14:0.1 15:0.1 16:0.1 17:0.1 18:0.1 19:0.9 20:0.1 21:0.1 22:0.1 23:0.1 24:0.1 25:0.1 26:0.1 27:0.1 28:0.1 29:0.9 30:0.1 
-0.28399680811342265 1:0.1 2:0.1 3:0.1 4:0.1 5:0.1 6:0.1 7:0.1 8:0.1 9:0.1 10:0.1 11:0.1 12:0.1 13:0.1 14:0.1 15:0.1 16:0.1 17:0.1 18:0.9 19:0.1 20:0.1 21:0.1 22:0.1 23:0.1 24:0.1 25:0.1 26:0.1 27:0.1 28:0.9 29:0.1 30:0.1 
-0.9809500353963782 1:0.1 2:0.1 3:0.1 4:0.1 5:0.1 6:0.1 7:0.1 8:0.1 9:0.1 10:0.1 11:0.1 12:0.1 13:0.1 14:0.1 15:0.1 16:0.9 17:0.1 18:0.1 19:0.1 20:0.1 21:0.1 22:0.1 23:0.1 24:0.1 25:0.1 26:0.9 27:0.1 28:0.1 29:0.1 30:0.1 
-0.3565769766910679 1:0.1 2:0.1 3:0.1 4:0.1 5:0.1 6:0.1 7:0.1 8:0.1 9:0.1 10:0.1 11:0.1 12:0.1 13:0.1 14:0.9 15:0.1 16:0.1 17:0.1 18:0.1 19:0.1 20:0.1 21:0.1 22:0.1 23:0.1 24:0.9 25:0.1 26:0.1 27:0.1 28:0.1 29:0.1 30:0.1 
-0.4592434091420272 1:0.1 2:0.1 3:0.1 4:0.1 5:0.1 6:0.1 7:0.1 8:0.1 9:0.1 10:0.1 11:0.1 12:0.9 13:0.1 14:0.1 15:0.1 16:0.1 17:0.1 18:0.1 19:0.1 20:0.1 21:0.1 22:0.9 23:0.1 24:0.1 25:0.1 26:0.1 27:0.1 28:0.1 29:0.1 30:0.1 
-0.6152770275922989 1:0.1 2:0.1 3:0.1 4:0.1 5:0.1 6:0.1 7:0.1 8:0.1 9:0.9 10:0.1 11:0.1 12:0.1 13:0.1 14:0.1 15:0.1 16:0.1 17:0.1 18:0.1 19:0.9 20:0.1 21:0.1 22:0.1 23:0.1 24:0.1 25:0.1 26:0.1 27:0.1 28:0.1 29:0.1 30:0.1 
-0.16553662419023557 1:0.1 2:0.1 3:0.1 4:0.1 5:0.1 6:0.1 7:0.1 8:0.9 9:0.1 10:0.1 11:0.1 12:0.1 13:0.1 14:0.1 15:0.1 16:0.1 17:0.1 18:0.9 19:0.1 20:0.1 21:0.1 22:0.1 23:0.1 24:0.1 25:0.1 26:0.1 27:0.1 28:0.1 29:0.1 30:0.1 
-0.07100833658177737 1:0.1 2:0.1 3:0.1 4:0.1 5:0.1 6:0.1 7:0.9 8:0.1 9:0.1 10:0.1 11:0.1 12:0.1 13:0.1 14:0.1 15:0.1 16:0.1 17:0.9 18:0.1 19:0.1 20:0.1 21:0.1 22:0.1 23:0.1 24:0.1 25:0.1 26:0.1 27:0.1 28:0.1 29:0.1 30:0.1 
1.0 1:0.1 2:0.1 3:0.1 4:0.1 5:0.1 6:0.9 7:0.1 8:0.1 9:0.1 10:0.1 11:0.1 12:0.1 13:0.1 14:0.1 15:0.1 16:0.9 17:0.1 18:0.1 19:0.1 20:0.1 21:0.1 22:0.1 23:0.1 24:0.1 25:0.1 26:0.1 27:0.1 28:0.1 29:0.1 30:0.1 
-0.2662679651084907 1:0.1 2:0.1 3:0.1 4:0.9 5:0.1 6:0.1 7:0.1 8:0.1 9:0.1 10:0.1 11:0.1 12:0.1 13:0.1 14:0.9 15:0.1 16:0.1 17:0.1 18:0.1 19:0.1 20:0.1 21:0.1 22:0.1 23:0.1 24:0.1 25:0.1 26:0.1 27:0.1 28:0.1 29:0.9 30:0.1 
-0.678192919473732 1:0.9 2:0.1 3:0.1 4:0.1 5:0.1 6:0.1 7:0.1 8:0.1 9:0.1 10:0.1 11:0.9 12:0.1 13:0.1 14:0.1 15:0.1 16:0.1 17:0.1 18:0.1 19:0.1 20:0.1 21:0.1 22:0.1 23:0.1 24:0.1 25:0.1 26:0.9 27:0.1 28:0.1 29:0.1 30:0.1 
-1.0 1:0.1 2:0.1 3:0.1 4:0.1 5:0.1 6:0.9 7:0.1 8:0.1 9:0.1 10:0.1 11:0.1 12:0.1 13:0.1 14:0.1 15:0.1 16:0.1 17:0.1 18:0.1 19:0.1 20:0.1 21:0.9 22:0.1 23:0.1 24:0.1 25:0.1 26:0.1 27:0.1 28:0.1 29:0.1 30:0.1 
-0.19809243366495008 1:0.1 2:0.1 3:0.1 4:0.9 5:0.1 6:0.1 7:0.1 8:0.1 9:0.1 10:0.1 11:0.1 12:0.1 13:0.1 14:0.1 15:0.1 16:0.1 17:0.1 18:0.1 19:0.9 20:0.1 21:0.1 22:0.1 23:0.1 24:0.1 25:0.1 26:0.1 27:0.1 28:0.1 29:0.1 30:0.1 
-0.14677044020361144 1:0.1 2:0.1 3:0.9 4:0.1 5:0.1 6:0.1 7:0.1 8:0.1 9:0.1 10:0.1 11:0.1 12:0.1 13:0.1 14:0.1 15:0.1 16:0.1 17:0.1 18:0.9 19:0.1 20:0.1 21:0.1 22:0.1 23:0.1 24:0.1 25:0.1 26:0.1 27:0.1 28:0.1 29:0.1 30:0.1 
-0.7942062459394518 1:0.9 2:0.1 3:0.1 4:0.1 5:0.1 6:0.1 7:0.1 8:0.1 9:0.1 10:0.1 11:0.1 12:0.1 13:0.1 14:0.1 15:0.1 16:0.9 17:0.1 18:0.1 19:0.1 20:0.1 21:0.1 22:0.1 23:0.1 24:0.1 25:0.1 26:0.1 27:0.1 28:0.1 29:0.1 30:0.1 
-0.01775446744421235 1:0.1 2:0.1 3:0.1 4:0.1 5:0.1 6:0.1 7:0.1 8:0.1 9:0.1 10:0.1 11:0.1 12:0.1 13:0.9 14:0.1 15:0.1 16:0.1 17:0.1 18:0.1 19:0.1 20:0.1 21:0.1 22:0.1 23:0.1 24:0.1 25:0.1 26:0.1 27:0.1 28:0.1 29:0.1 30:0.1 
-0.3086126926574418 1:0.1 2:0.1 3:0.1 4:0.1 5:0.1 6:0.1 7:0.1 8:0.1 9:0.9 10:0.1 11:0.1 12:0.1 13:0.1 14:0.1 15:0.1 16:0.1 17:0.1 18:0.1 19:0.1 20:0.1 21:0.1 22:0.1 23:0.1 24:0.1 25:0.1 26:0.1 27:0.1 28:0.1 29:0.1 30:0.1 
1.0 1:0.1 2:0.1 3:0.1 4:0.1 5:0.1 6:0.1 7:0.1 8:0.1 9:0.1 10:0.1 11:0.1 12:0.1 13:0.1 14:0.1 15:0.1 16:0.1 17:0.1 18:0.1 19:0.1 20:0.1 21:0.1 22:0.1 23:0.1 24:0.1 25:0.1 26:0.1 27:0.1 28:0.1 29:0.1 30:0.1 
-1.0 1:0.1 2:0.1 3:0.1 4:0.1 5:0.1 6:0.1 7:0.1 8:0.1 9:0.1 10:0.1 11:0.1 12:0.1 13:0.1 14:0.1 15:0.1 16:0.1 17:0.1 18:0.1 19:0.1 20:0.1 21:0.1 22:0.1 23:0.1 24:0.1 25:0.1 26:0.1 27:0.1 28:0.1 29:0.9 30:0.1 
1.0 1:0.1 2:0.1 3:0.1 4:0.1 5:0.1 6:0.1 7:0.1 8:0.1 9:0.1 10:0.1 11:0.1 12:0.1 13:0.1 14:0.1 15:0.1 16:0.1 17:0.1 18:0.1 19:0.1 20:0.1 21:0.1 22:0.1 23:0.1 24:0.1 25:0.1 26:0.1 27:0.1 28:0.9 29:0.1 30:0.1 
1.0 1:0.1 2:0.1 3:0.1 4:0.1 5:0.1 6:0.1 7:0.1 8:0.1 9:0.1 10:0.1 11:0.1 12:0.1 13:0.1 14:0.1 15:0.1 16:0.1 17:0.1 18:0.1 19:0.1 20:0.1 21:0.1 22:0.1 23:0.1 24:0.1 25:0.1 26:0.9 27:0.1 28:0.1 29:0.9 30:0.1 
-0.034801068347520614 1:0.1 2:0.1 3:0.1 4:0.1 5:0.1 6:0.1 7:0.1 8:0.1 9:0.1 10:0.1 11:0.1 12:0.1 13:0.1 14:0.1 15:0.1 16:0.1 17:0.1 18:0.1 19:0.1 20:0.1 21:0.1 22:0.1 23:0.1 24:0.9 25:0.1 26:0.1 27:0.9 28:0.1 29:0.9 30:0.1 
-0.4742012406245058 1:0.1 2:0.1 3:0.1 4:0.1 5:0.1 6:0.1 7:0.1 8:0.1 9:0.1 10:0.1 11:0.1 12:0.1 13:0.1 14:0.1 15:0.1 16:0.1 17:0.1 18:0.9 19:0.1 20:0.1 21:0.9 22:0.1 23:0.9 24:0.1 25:0.1 26:0.1 27:0.1 28:0.1 29:0.1 30:0.1 
1.0 1:0.1 2:0.1 3:0.1 4:0.1 5:0.1 6:0.1 7:0.1 8:0.1 9:0.1 10:0.1 11:0.1 12:0.1 13:0.1 14:0.1 15:0.1 16:0.9 17:0.1 18:0.1 19:0.9 20:0.1 21:0.9 22:0.1 23:0.1 24:0.1 25:0.1 26:0.1 27:0.1 28:0.1 29:0.1 30:0.1 
-0.42367395491666526 1:0.1 2:0.1 3:0.1 4:0.1 5:0.1 6:0.1 7:0.1 8:0.1 9:0.1 10:0.1 11:0.1 12:0.1 13:0.1 14:0.9 15:0.1 16:0.1 17:0.9 18:0.1 19:0.9 20:0.1 21:0.1 22:0.1 23:0.1 24:0.1 25:0.1 26:0.1 27:0.1 28:0.1 29:0.9 30:0.1 
1.0 1:0.1 2:0.1 3:0.1 4:0.1 5:0.1 6:0.1 7:0.1 8:0.1 9:0.1 10:0.1 11:0.1 12:0.1 13:0.9 14:0.1 15:0.1 16:0.9 17:0.1 18:0.9 19:0.1 20:0.1 21:0.1 22:0.1 23:0.1 24:0.1 25:0.1 26:0.1 27:0.1 28:0.9 29:0.1 30:0.1 
1.0 1:0.1 2:0.1 3:0.1 4:0.1 5:0.1 6:0.1 7:0.1 8:0.1 9:0.1 10:0.1 11:0.9 12:0.1 13:0.1 14:0.9 15:0.1 16:0.9 17:0.1 18:0.1 19:0.1 20:0.1 21:0.1 22:0.1 23:0.1 24:0.1 25:0.1 26:0.9 27:0.1 28:0.1 29:0.9 30:0.1 
-0.010363998906901714 1:0.1 2:0.1 3:0.1 4:0.1 5:0.1 6:0.1 7:0.1 8:0.1 9:0.9 10:0.1 11:0.1 12:0.9 13:0.1 14:0.9 15:0.1 16:0.1 17:0.1 18:0.1 19:0.1 20:0.1 21:0.1 22:0.1 23:0.1 24:0.9 25:0.1 26:0.1 27:0.9 28:0.1 29:0.9 30:0.1 
-0.6575720889229483 1:0.1 2:0.1 3:0.1 4:0.1 5:0.1 6:0.9 7:0.1 8:0.1 9:0.9 10:0.1 11:0.9 12:0.1 13:0.1 14:0.1 15:0.1 16:0.1 17:0.1 18:0.1 19:0.1 20:0.1 21:0.9 22:0.1 23:0.1 24:0.9 25:0.1 26:0.9 27:0.1 28:0.1 29:0.1 30:0.1 
-0.4603395483092705 1:0.1 2:0.1 3:0.1 4:0.9 5:0.1 6:0.1 7:0.9 8:0.1 9:0.9 10:0.1 11:0.1 12:0.1 13:0.1 14:0.1 15:0.1 16:0.1 17:0.1 18:0.1 19:0.9 20:0.1 21:0.1 22:0.9 23:0.1 24:0.9 25:0.1 26:0.1 27:0.1 28:0.1 29:0.1 30:0.1 
1.0 1:0.1 2:0.1 3:0.9 4:0.1 5:0.1 6:0.9 7:0.1 8:0.9 9:0.1 10:0.1 11:0.1 12:0.1 13:0.1 14:0.1 15:0.1 16:0.1 17:0.1 18:0.9 19:0.1 20:0.1 21:0.9 22:0.1 23:0.9 24:0.1 25:0.1 26:0.1 27:0.1 28:0.1 29:0.1 30:0.1 
1.0 1:0.9 2:0.1 3:0.1 4:0.9 5:0.1 6:0.9 7:0.1 8:0.1 9:0.1 10:0.1 11:0.1 12:0.1 13:0.1 14:0.1 15:0.1 16:0.9 17:0.1 18:0.1 19:0.9 20:0.1 21:0.9 22:0.1 23:0.1 24:0.1 25:0.1 26:0.1 27:0.1 28:0.1 29:0.9 30:0.1 
-0.1685004248135312 1:0.9 2:0.1 3:0.9 4:0.1 5:0.1 6:0.1 7:0.1 8:0.1 9:0.1 10:0.1 11:0.1 12:0.1 13:0.9 14:0.1 15:0.1 16:0.9 17:0.1 18:0.9 19:0.1 20:0.1 21:0.1 22:0.1 23:0.1 24:0.1 25:0.1 26:0.9 27:0.1 28:0.9 29:0.1 30:0.1 
1.0 1:0.9 2:0.1 3:0.1 4:0.1 5:0.1 6:0.1 7:0.1 8:0.1 9:0.1 10:0.1 11:0.9 12:0.1 13:0.1 14:0.9 15:0.1 16:0.9 17:0.1 18:0.1 19:0.1 20:0.1 21:0.1 22:0.1 23:0.1 24:0.9 25:0.1 26:0.9 27:0.1 28:0.1 29:0.1 30:0.1 
-0.1397097770009466 1:0.1 2:0.1 3:0.1 4:0.1 5:0.1 6:0.1 7:0.1 8:0.1 9:0.9 10:0.1 11:0.1 12:0.9 13:0.1 14:0.9 15:0.1 16:0.1 17:0.1 18:0.1 19:0.1 20:0.1 21:0.1 22:0.9 23:0.1 24:0.9 25:0.1 26:0.1 27:0.1 28:0.1 29:0.9 30:0.1 
-0.0330009543714902 1:0.1 2:0.1 3:0.1 4:0.1 5:0.1 6:0.1 7:0.1 8:0.9 9:0.1 10:0.1 11:0.9 12:0.1 13:0.9 14:0.1 15:0.1 16:0.1 17:0.1 18:0.1 19:0.1 20:0.1 21:0.9 22:0.1 23:0.9 24:0.1 25:0.1 26:0.1 27:0.1 28:0.9 29:0.1 30:0.1 
1.0 1:0.1 2:0.1 3:0.1 4:0.1 5:0.1 6:0.9 7:0.1 8:0.1 9:0.9 10:0.1 11:0.9 12:0.1 13:0.1 14:0.1 15:0.1 16:0.1 17:0.1 18:0.1 19:0.9 20:0.1 21:0.9 22:0.1 23:0.1 24:0.1 25:0.1 26:0.9 27:0.1 28:0.1 29:0.1 30:0.1 
1.0 1:0.1 2:0.1 3:0.1 4:0.9 5:0.1 6:0.1 7:0.9 8:0.1 9:0.9 10:0.1 11:0.1 12:0.1 13:0.1 14:0.1 15:0.1 16:0.1 17:0.9 18:0.1 19:0.9 20:0.1 21:0.1 22:0.1 23:0.1 24:0.9 25:0.1 26:0.1 27:0.1 28:0.1 29:0.9 30:0.1 
-0.1775170275913108 1:0.1 2:0.1 3:0.9 4:0.1 5:0.1 6:0.9 7:0.1 8:0.9 9:0.1 10:0.1 11:0.1 12:0.1 13:0.1 14:0.1 15:0.1 16:0.9 17:0.1 18:0.9 19:0.1 20:0.1 21:0.1 22:0.1 23:0.9 24:0.1 25:0.1 26:0.1 27:0.1 28:0.9 29:0.1 30:0.9 
-0.497234118242131 1:0.9 2:0.1 3:0.1 4:0.9 5:0.1 6:0.9 7:0.1 8:0.1 9:0.1 10:0.1 11:0.1 12:0.1 13:0.1 14:0.9 15:0.1 16:0.9 17:0.1 18:0.1 19:0.1 20:0.1 21:0.9 22:0.1 23:0.1 24:0.1 25:0.1 26:0.9 27:0.1 28:0.9 29:0.1 30:0.1 
-0.05325144299362757 1:0.1 2:0.9 3:0.1 4:0.9 5:0.1 6:0.1 7:0.1 8:0.1 9:0.1 10:0.1 11:0.1 12:0.9 13:0.1 14:0.9 15:0.1 16:0.1 17:0.1 18:0.1 19:0.9 20:0.1 21:0.1 22:0.1 23:0.1 24:0.9 25:0.1 26:0.9 27:0.1 28:0.1 29:0.1 30:0.1 
-0.31665789769380515 1:0.9 2:0.1 3:0.1 4:0.1 5:0.1 6:0.1 7:0.1 8:0.1 9:0.9 10:0.1 11:0.9 12:0.1 13:0.1 14:0.1 15:0.1 16:0.9 17:0.1 18:0.1 19:0.1 20:0.1 21:0.9 22:0.1 23:0.9 24:0.1 25:0.1 26:0.1 27:0.1 28:0.1 29:0.1 30:0.1 
-0.23628315073334216 1:0.1 2:0.1 3:0.1 4:0.1 5:0.1 6:0.1 7:0.9 8:0.1 9:0.9 10:0.1 11:0.1 12:0.1 13:0.1 14:0.9 15:0.1 16:0.1 17:0.1 18:0.1 19:0.9 20:0.1 21:0.9 22:0.1 23:0.1 24:0.1 25:0.1 26:0.1 27:0.1 28:0.1 29:0.1 30:0.1 
-0.0645292867707352 1:0.1 2:0.1 3:0.1 4:0.1 5:0.1 6:0.9 7:0.1 8:0.9 9:0.1 10:0.1 11:0.1 12:0.1 13:0.9 14:0.1 15:0.1 16:0.1 17:0.1 18:0.9 19:0.1 20:0.9 21:0.1 22:0.1 23:0.1 24:0.1 25:0.1 26:0.1 27:0.1 28:0.1 29:0.1 30:0.1 
-0.03440041268409304 1:0.1 2:0.1 3:0.1 4:0.1 5:0.9 6:0.1 7:0.9 8:0.1 9:0.1 10:0.1 11:0.1 12:0.9 13:0.1 14:0.1 15:0.1 16:0.1 17:0.9 18:0.1 19:0.9 20:0.1 21:0.1 22:0.1 23:0.1 24:0.1 25:0.1 26:0.1 27:0.1 28:0.1 29:0.1 30:0.1 
-0.4889621960702902 1:0.1 2:0.1 3:0.1 4:0.9 5:0.1 6:0.9 7:0.1 8:0.1 9:0.1 10:0.1 11:0.9 12:0.1 13:0.1 14:0.1 15:0.1 16:0.9 17:0.1 18:0.9 19:0.1 20:0.1 21:0.1 22:0.1 23:0.1 24:0.1 25:0.1 26:0.1 27:0.1 28:0.1 29:0.1 30:0.1 
-0.01757605984198605 1:0.1 2:0.1 3:0.9 4:0.1 5:0.1 6:0.1 7:0.1 8:0.9 9:0.1 10:0.9 11:0.1 12:0.1 13:0.1 14:0.1 15:0.1 16:0.1 17:0.1 18:0.1 19:0.1 20:0.1 21:0.1 22:0.1 23:0.1 24:0.1 25:0.1 26:0.1 27:0.1 28:0.1 29:0.1 30:0.1 
-0.3180444339025882 1:0.9 2:0.1 3:0.1 4:0.1 5:0.1 6:0.9 7:0.1 8:0.9 9:0.1 10:0.1 11:0.1 12:0.1 13:0.1 14:0.1 15:0.1 16:0.1 17:0.1 18:0.1 19:0.1 20:0.1 21:0.1 22:0.1 23:0.1 24:0.1 25:0.1 26:0.1 27:0.1 28:0.1 29:0.1 30:0.1 
-0.18638788516977123 1:0.9 2:0.1 3:0.1 4:0.1 5:0.1 6:0.1 7:0.1 8:0.1 9:0.1 10:0.1 11:0.1 12:0.1 13:0.1 14:0.1 15:0.1 16:0.1 17:0.1 18:0.1 19:0.1 20:0.1 21:0.1 22:0.1 23:0.1 24:0.1 25:0.1 26:0.1 27:0.1 28:0.1 29:0.1 30:0.1 
-1.0 1:0.1 2:0.1 3:0.1 4:0.1 5:0.1 6:0.1 7:0.1 8:0.1 9:0.1 10:0.1 11:0.1 12:0.1 13:0.1 14:0.1 15:0.1 16:0.1 17:0.1 18:0.1 19:0.1 20:0.1 21:0.1 22:0.1 23:0.1 24:0.1 25:0.1 26:0.1 27:0.1 28:0.1 29:0.1 30:0.1 
-0.4248857727603301 1:0.1 2:0.1 3:0.1 4:0.1 5:0.1 6:0.1 7:0.1 8:0.1 9:0.1 10:0.1 11:0.1 12:0.1 13:0.1 14:0.1 15:0.1 16:0.1 17:0.1 18:0.1 19:0.1 20:0.1 21:0.1 22:0.1 23:0.1 24:0.1 25:0.1 26:0.1 27:0.1 28:0.1 29:0.1 30:0.1 
