encog,BasicNetwork,java,3.1.0,1,1400000626198
[BASIC]
[BASIC:PARAMS]
[BASIC:NETWORK]
beginTraining=0
connectionLimit=0
contextTargetOffset=0,0,0,0
contextTargetSize=0,0,0,0
endTraining=3
hasContext=f
inputCount=30
layerCounts=1,11,7,31
layerFeedCounts=1,10,6,30
layerContextCount=0,0,0,0
layerIndex=0,1,12,19
output=0.3161851095,0.6503863005,0.1817613844,0.5374588868,0.7579910071,0.4625048071,-0.6566184891,0.4823208485,0.4433318922,0.3420696023,0.5077210476,1,0.3701679816,0.4490421591,0.6688696444,0.4481285978,0.2172288404,0.7001821162,1,0.3700100301,0.3700100301,0.3700100301,0.3700100301,0.3700100301,0.3700100301,0.3700100301,0.3700100301,0.3700100301,0.3700100301,0.3700100301,0.3700100301,0.3700100301,0.3700100301,0.3700100301,0.3700100301,0.3700100301,0.3700100301,0.3700100301,0.3700100301,0.3700100301,0.3700100301,0.3700100301,0.3700100301,0.3700100301,0.3700100301,0.3700100301,0.3700100301,0.3700100301,0.3700100301,1
outputCount=1
weightIndex=0,11,81,267
weights=0.1149375858,0.1687742544,0.1693296409,0.0882828013,-0.0523366507,0.0603076099,0.0878470069,0.2041470166,0.1569544003,0.268961634,-0.1952701021,0.1011266609,0.1363638758,0.3023140635,0.1737124951,0.2377935224,0.1653929357,0.2297859109,-0.0302152512,0.4037135275,0.1763501895,0.3553235718,-0.0034517525,-0.0213601369,-0.2477761605,0.1813809137,0.3557714652,0.3600721612,-0.0102902439,0.3472310479,0.1214972098,-0.0230511446,0.094777989,0.109319918,0.3375761058,0.3865524265,0.2410276575,0.0205826533,0.4415136385,0.4927417109,0.3508377628,-0.0387322431,0.1716553893,0.1671259435,0.2904678744,-0.1301469794,-0.423452809,-0.3928591457,0.0194029662,-0.2407329582,-0.2464150866,-0.0621881003,-0.2617141039,0.0513709279,0.3775380651,0.0181961527,0.2081046482,-0.0430773908,0.0989132454,0.172129801,0.2917871158,0.1255390454,0.2993828785,0.3855299146,-0.0463422699,0.0542927449,-0.0889754385,0.3947875009,0.0421194961,0.3861785107,0.4260565684,0.4500811005,0.1491529156,-0.4600526204,0.3376939423,0.2177591254,0.3263773604,0.3910451295,0.2758606357,0.3249265821,-0.3441070865,0.0935773034,0.088247468,0.0134499791,0.0270844854,0.0127763157,0.2158681477,0.1909317539,0.0343474045,0.0672615073,0.1243302798,0.0821222914,-0.0763105317,0.1200626744,0.0327204719,-0.0671276824,-0.1129942349,0.171582902,0.1782495903,0.1449880955,-0.0838548686,-0.1384420542,0.2173110756,-0.0571931344,-0.0898035017,0.2168712195,0.1292543259,0.0665073605,0.1156212858,0.0608523585,-0.0838397885,-0.2383466809,0.2015838062,-0.1329878507,-0.0293744938,0.1031386584,0.2003697234,-0.0992500079,-0.0162250898,-0.12421744,0.0946358746,-0.0094955808,-0.0177170097,0.1896730728,0.1555348133,0.1115409124,0.2165965266,0.1665646622,0.14428116,0.0682684064,0.0821403314,-0.0861155991,-0.0350555515,0.078504803,0.1317323094,0.1316318181,0.0415772271,0.1093163242,-0.0316464583,-0.0411394672,0.2069214911,-0.0565301844,-0.1655928824,0.1077572133,0.1580437011,-0.0385189126,0.1924711512,-0.0285110682,0.0730226693,-0.0877443722,-0.0028051211,0.0702280976,0.2277383462,-0.0322819033,0.1716899133,-0.0468245765,0.217933428,0.2150122816,0.1125501148,0.0305801006,0.1051378802,0.126205382,-0.1061604731,0.0062040094,0.1229606128,-0.0475735557,0.1629747139,0.024757732,0.2222608342,-0.039553883,-0.0613114867,0.0966018148,-0.0302281436,0.0973074584,0.220353457,-0.0595320429,-0.0054077495,0.1862688281,0.0711512456,-0.035555555,0.1468389016,0.0706042393,0.0332565733,-0.0367261904,0.1885230121,0.0087494421,0.193440746,0.2309271782,-0.0235570301,0.209667361,0.2080989862,-0.0904363261,0.2776762262,0.2518163848,-0.0501351288,0.1404627662,0.0693085827,-0.0186029943,0.1164099967,0.0498521579,-0.0649153213,-0.0882402239,0.0405370883,0.2255082851,-0.4302154454,-0.0043232898,-0.0900111521,0.2141164277,-0.1051032121,0.0828372265,0.0857448544,0.0629176375,-0.1003936121,0.0825053098,-0.0731226381,-0.0073927865,0.049426723,-0.0881845248,0.0726589627,0.1643709127,0.0900974715,0.2208479956,-0.1339061771,0.1226007237,0.0919770726,-0.1323657983,-0.0315737847,0.0902174574,0.1477954162,0.074726908,0.2074836615,-0.0722413529,-0.1107113584,0.0602111082,0.1822680985,-0.2060511934,0.0694228637,-0.0225411468,0.0290894748,0.1319087148,-0.0026253938,0.1835047757,0.0004003852,-0.0984150009,0.0745814408,0.0154661604,0.1494790289,-0.0135545949,0.2122592659,0.143008739,0.1576178823,0.1924362435,0.2278134327,0.1824668046,0.1351513683,-0.0630546116,0.1487929512,-0.0394945991,0.1641172585,0.2288651024,-0.0285973076,-0.1012701502,0.0621874278,0.1644441561,0.0377335484,-0.1020063892,0.0391357508
biasActivation=0,1,1,1
[BASIC:ACTIVATION]
"ActivationTANH"
"ActivationTANH"
"ActivationTANH"
"ActivationLinear"
