encog,BasicNetwork,java,3.1.0,1,1400520813552
[BASIC]
[BASIC:PARAMS]
[BASIC:NETWORK]
beginTraining=0
connectionLimit=0
contextTargetOffset=0,0,0
contextTargetSize=0,0,0
endTraining=2
hasContext=f
inputCount=30
layerCounts=1,8,31
layerFeedCounts=1,7,30
layerContextCount=0,0,0
layerIndex=0,1,9
output=0.4720394172,-0.9986086172,0.6819732045,0.8813865241,0.6933369335,0.8785051645,0.833831853,-0.9989709213,1,0.4733333333,0.4733333333,0.4733333333,0.3666666667,0.4733333333,0.4733333333,0.4733333333,0.4733333333,0.4733333333,0.4733333333,0.4733333333,0.4733333333,0.4733333333,0.4733333333,0.4733333333,0.6333333333,0.4733333333,0.4733333333,0.4733333333,0.4733333333,0.4733333333,0.4733333333,0.4733333333,0.4733333333,0.4733333333,0.4733333333,0.4733333333,0.4733333333,0.4733333333,0.4733333333,1
outputCount=1
weightIndex=0,8,225
weights=0.0541757791,0.1129758714,0.2315934962,0.2116557707,0.2367617227,0.2662667206,0.0889749636,-0.2022617098,-0.2563016486,-0.1677998482,-0.4017092532,-0.1225761257,-0.1501357639,-0.224702915,-0.2437593386,-0.3596455521,-0.1141895006,-0.4006581378,-0.1103657905,-0.4095022527,-0.2460115042,-0.3697238689,-0.0925778448,-0.2129225586,-0.4103480727,-0.188170753,-0.3878266793,-0.1110927205,-0.1482377609,-0.2200268541,-0.2129258381,-0.1509615812,-0.41847626,-0.4548036774,-0.3336027366,-0.1243546152,-0.1027602825,-0.1239386325,-0.1727767611,0.0494554847,-0.0089268358,0.2161232094,0.0102495677,0.183385896,0.1241853652,-0.0965792821,0.0402633199,-0.0304588266,0.0514890919,0.2379592234,0.214215959,0.1604301559,0.3159451653,0.2087885515,-0.0436270788,0.2443966266,0.1069741665,-0.0270293302,0.0839061543,0.0037596418,-0.1079431264,0.2051034603,0.3020265603,-0.1046419523,0.2757894329,-0.0894903894,0.0434048381,0.1710389089,-0.0596342468,-0.4279310095,0.2256040638,-0.0497666254,-0.0619949884,-0.01635105,0.1283506279,0.1147511713,0.2727550877,-0.0627087576,0.1032831633,0.2188047065,-0.0565473243,-0.0629203739,-0.0782534898,0.2824605858,0.1058447755,0.0160340556,0.0306714051,-0.0120773932,0.2178601599,0.1033228834,0.1027641928,0.1907256998,0.1332091904,-0.046743388,0.1342897156,-0.0434716761,0.2852609964,0.2077366696,0.2370826166,0.2390120568,0.024382857,0.1553267527,-0.0650469641,-0.073121966,0.1871678467,0.0254004538,0.2435906284,0.0334804869,0.1226313946,-0.035845901,0.1640965541,0.1154409627,0.1540441804,0.0309394526,-0.081025204,-0.0763501455,-0.0312143824,0.2527933142,0.0612618097,-0.0966814873,0.148347422,0.1154837818,0.0406383464,0.1444061866,-0.0544540974,0.0178851035,0.1414825658,-0.0158340833,0.14297325,-0.0550404829,0.0253530632,0.0565979211,-0.0584773903,0.0417124824,0.2442418569,0.1740545167,0.2197892719,-0.0027797889,0.1077852159,0.0053059172,0.1883091227,0.2718133733,0.0788106422,0.0951006175,0.0372912767,0.0637898698,0.1993543764,-0.0061647204,0.1881186815,0.005805588,0.0294120289,0.0725201648,0.082699315,0.1628881152,0.1209521807,-0.0306741026,0.2828331075,0.042381496,0.2173017119,0.133431444,-0.0173855877,-0.0116648017,-0.0021843981,-0.0090102349,0.0395646325,-0.0630252103,0.192274731,0.2773120521,0.2147406358,-0.0472986533,0.128050845,0.1922874859,-0.0826098642,0.0875866216,0.1229493304,0.23165625,-0.074996098,0.1213181325,0.2033372206,0.1251882477,0.0629438872,0.0791870296,0.1373825097,0.2365895147,0.150849298,0.1422986728,0.2722703014,-0.0610183937,0.1415998201,0.2012101847,0.0571056466,-0.0571238094,0.234057718,-0.3529377644,-0.2019366786,-0.2360110715,-0.2263129917,-0.2316618111,-0.2716726015,-0.1110490628,-0.2105420949,-0.450846098,-0.2124696527,-0.1606477208,-0.4078045772,-0.2938427813,-0.353121296,-0.1419493136,-0.1091273922,-0.1356495471,-0.3487603991,-0.265209074,-0.3836654558,-0.2763584124,-0.2101657627,-0.1934323408,-0.3734404081,-0.1580575445,-0.4345285851,-0.1611183513,-0.3455390232,-0.3226572872,-0.1773334282,-0.2882672129,-0.1474310059
biasActivation=0,1,1
[BASIC:ACTIVATION]
"ActivationTANH"
"ActivationTANH"
"ActivationLinear"
