encog,BasicNetwork,java,3.1.0,1,1400521121091
[BASIC]
[BASIC:PARAMS]
[BASIC:NETWORK]
beginTraining=0
connectionLimit=0
contextTargetOffset=0,0,0,0
contextTargetSize=0,0,0,0
endTraining=3
hasContext=f
inputCount=30
layerCounts=1,10,6,31
layerFeedCounts=1,9,5,30
layerContextCount=0,0,0,0
layerIndex=0,1,11,17
output=0.4730920075,0.7026443109,0.8640706352,0.5117543339,0.6188743968,0.7909509557,0.484938529,0.5693523372,0.5406050577,0.5066732815,1,0.7976877654,0.9273734896,0.9303422549,0.8797634654,0.9618588018,1,0.4733333333,0.4733333333,0.4733333333,0.3666666667,0.4733333333,0.4733333333,0.4733333333,0.4733333333,0.4733333333,0.4733333333,0.4733333333,0.4733333333,0.4733333333,0.4733333333,0.4733333333,0.6333333333,0.4733333333,0.4733333333,0.4733333333,0.4733333333,0.4733333333,0.4733333333,0.4733333333,0.4733333333,0.4733333333,0.4733333333,0.4733333333,0.4733333333,0.4733333333,0.4733333333,1
outputCount=1
weightIndex=0,10,64,219
weights=0.0946235414,0.140430276,0.2776521154,0.0175184908,0.2715320885,0.076628953,0.1688803588,0.0996107271,0.0701187864,-0.2641720261,0.1018577827,0.4683691157,0.1522173648,0.4488242488,0.2482278407,-0.4183329796,0.1735573391,0.2400145151,0.1359521958,-0.004941206,0.3530552088,0.4864393528,0.1935960173,0.102427543,0.103770976,0.1114929969,0.3728766114,-0.2375987159,0.0927696652,-0.1423378544,-0.0220141482,0.2184645013,0.3094369492,0.3118267693,0.3697525046,0.418648099,0.2850019091,0.0582226892,0.2710952909,-0.1863505368,0.1053987714,-0.0355070412,-0.0005248978,-0.0198993737,0.033875897,0.4636854257,0.2872365767,0.4338458523,-0.0378571268,0.1715462211,0.1068652339,-0.2033875135,0.4225256694,0.2355269697,0.0959868749,0.2116124522,0.366311981,-0.5782648619,0.4424641582,0.0705013596,-0.0206719639,0.2162044492,0.4838376075,-0.4964457204,-0.0179318248,0.2230095817,0.0587091793,0.257385895,0.0741644453,0.274320226,-0.0486744377,-0.073304051,0.1320822653,-0.0467773714,0.211055887,0.0809072368,-0.0345550918,0.1857118148,0.045169305,0.0883725379,0.0669229803,0.0239587696,-0.0663814099,0.0379007942,-0.0054429625,0.1685853635,0.070418084,0.1336941663,0.0308443366,0.2370042295,-0.0569852635,0.0571096041,0.013932352,-0.0378194995,0.1194004706,0.2397993437,0.1044667048,0.2024703671,-0.0480705118,0.0336518812,0.0160096431,0.0819193567,0.2207255159,0.0684276529,0.0401330634,0.1810329401,-0.0611725413,0.2385958424,0.1163796978,-0.0197081494,0.189187204,0.2683040502,0.1547362261,0.0464586331,0.0987964847,0.3028364547,0.0176560313,0.1520217716,0.0074938779,0.0580043913,-0.0196840032,0.0191820575,0.0736326349,0.1180961642,0.0677684648,0.198495996,-0.0180218307,0.1771391622,0.1521199154,-0.0399940531,0.1601986378,0.1567146104,0.1941586172,0.0118046561,-0.0201539469,0.0681517066,0.1741511227,-0.0383283384,-0.0714447076,-0.0382955824,0.2670281179,0.2164969953,0.2743736013,0.0572179287,0.1633192841,0.0894721026,0.1395478972,0.2360425219,0.0235292734,0.2316357988,0.2591158981,0.2177551936,0.2672005164,0.1806478115,0.0737864805,0.0691751641,-0.0983272877,0.020672248,0.1059524277,0.0431234761,0.130206916,0.1280951623,0.2119945177,0.1091932215,0.2782169836,0.1855998873,-0.0120044216,0.1976925642,0.068701552,0.0844232656,0.1822821412,0.2202248469,0.0120324911,0.2132109641,0.1000283657,0.1579647368,-0.0049827316,0.1392979449,0.0235773833,0.2239903733,-0.0489608719,0.281383898,0.0240288036,-0.0182287528,-0.010979179,0.0256435656,0.0415534569,-0.0872456523,0.2696827177,-0.0068772285,-0.0438091001,0.2058093059,0.0230736918,0.2201875975,0.1397969876,0.1074764585,0.0721690717,0.2448457662,0.0627092993,0.1839842451,0.1574863174,0.2440009686,-0.0447921245,-0.0209874043,-0.0670579103,0.1366376002,0.2053518096,0.2915875495,0.045517248,0.267344673,0.1062652247,0.1931370905,0.1994525927,-0.0558404847,0.2827123023,0.0223434744,0.2540846805,0.1566262328,0.1717724757
biasActivation=0,1,1,1
[BASIC:ACTIVATION]
"ActivationTANH"
"ActivationTANH"
"ActivationTANH"
"ActivationLinear"
