encog,BasicNetwork,java,3.1.0,1,1400520466966
[BASIC]
[BASIC:PARAMS]
[BASIC:NETWORK]
beginTraining=0
connectionLimit=0
contextTargetOffset=0,0,0
contextTargetSize=0,0,0
endTraining=2
hasContext=f
inputCount=30
layerCounts=1,8,31
layerFeedCounts=1,7,30
layerContextCount=0,0,0
layerIndex=0,1,9
output=0.4888069071,0.9328038024,0.9098948099,-0.9951508805,0.9353617973,0.9111585026,0.9614490399,0.8795555699,1,0.4733333333,0.4733333333,0.4733333333,0.3666666667,0.4733333333,0.4733333333,0.4733333333,0.4733333333,0.4733333333,0.4733333333,0.4733333333,0.4733333333,0.4733333333,0.4733333333,0.4733333333,0.6333333333,0.4733333333,0.4733333333,0.4733333333,0.4733333333,0.4733333333,0.4733333333,0.4733333333,0.4733333333,0.4733333333,0.4733333333,0.4733333333,0.4733333333,0.4733333333,0.4733333333,1
outputCount=1
weightIndex=0,8,225
weights=0.1605612603,0.1201982472,0.1218385847,0.1657848192,0.2491602374,0.1007693948,0.1759678023,-0.2371520176,-0.0456579337,0.209674546,0.1990161485,0.3228735165,-0.0433061558,0.20154662,0.1704562131,0.2265826822,0.3001489524,0.0851352364,0.0620187192,0.2004064042,-0.0124954367,0.0124805786,0.168515362,0.0380797801,0.3098675352,0.0947324841,0.2711417441,0.0680945484,0.1813827549,-0.0149337998,-0.0368235605,0.2753861226,0.0811452844,0.0470879059,0.3178059016,0.0127664549,0.0497649827,0.0385489876,-0.0867139213,0.0191191333,0.0163990548,0.0617054175,0.3229800936,-0.0347220366,-0.0047559023,0.0355631088,0.1680932266,0.1535181685,0.0245713891,0.0138897854,0.0009835528,0.0313994478,0.1882076368,0.0316900841,0.1655216247,0.0918887504,0.0323627513,0.123478034,0.1455663259,0.0072295742,0.1451626471,0.129680558,0.2854663731,0.1286676684,0.1701497371,0.1212334574,0.102810047,0.1331367036,0.315838551,0.0548453739,-0.0174473383,-0.0511722502,-0.2472329561,-0.1523723572,-0.312604541,-0.0343226645,-0.0556657043,-0.0693835057,-0.0801397522,-0.1193533742,-0.2260961598,-0.3459698043,-0.1957454357,-0.2872125194,-0.3423921618,-0.1034400177,-0.3016631065,-0.0894879673,-0.1752150987,-0.2670187522,-0.213424102,-0.1743180218,-0.0111294347,-0.0586953206,-0.317138475,-0.2454032081,-0.2151325757,-0.1590433852,-0.3687618712,-0.291558251,-0.3926992319,-0.043451601,0.0426101732,0.1363188262,0.3149254712,0.0916381821,0.2571718078,0.3096529889,0.1990299347,0.2683862083,0.2662285853,0.0957328305,0.2044727849,0.2375570257,0.2535469662,-0.0357681102,-0.0096463323,-0.0261581744,0.0775953353,0.2796757224,-0.0253577439,0.2375975269,-0.032531377,0.1876789236,-0.010474872,0.1102672732,0.0720121695,0.1534134763,0.2962978582,0.1294877681,0.2116518627,-0.2767016651,0.001795952,0.1047736198,-0.0030173455,0.0236366577,0.2290480142,0.2260454,0.2728052134,0.2574019432,0.0129511605,0.1213947561,0.3100092641,0.0417294217,0.0404082652,0.0062353284,0.0877154721,0.1635947197,0.0395325377,0.0718554472,0.05281173,0.025253703,0.1289651172,0.1176948146,0.2186983746,0.1719317718,0.2430343698,-0.0442818788,0.2874471342,0.0221620732,0.2128518779,0.1177993371,-0.1754962762,0.1190086731,-0.0176202209,0.0107857656,0.0949606094,-0.0318250955,0.0836619258,-0.0402025196,0.0184309471,0.0467232499,0.1646014218,0.2004994913,0.321968287,0.0177847402,0.006441529,0.1339481541,-0.0480047039,0.3002468263,0.3057264129,0.3118699267,0.1617824961,0.0448572494,0.06699353,0.2900617471,0.1784198626,0.2653154808,0.1065110612,0.1635713045,0.1326134164,0.2632544672,0.1018150155,0.1960836097,0.0983693262,-0.0173226285,0.1293906811,0.2641005716,0.0872772043,0.1563581697,0.0720823585,0.1497543434,0.0043203838,0.0079820907,-0.0090795832,-0.007825498,0.0283962842,0.0933748962,0.0895511566,0.3017550984,0.1742893021,0.2071278104,0.0464419771,0.1747252112,0.0193440272,0.0203898411,0.1425115606,0.2948208479,0.1357156724,0.1377199842,0.3130679916,0.2257542341,0.0560068191,0.1642333614,-0.3316755378
biasActivation=0,1,1
[BASIC:ACTIVATION]
"ActivationTANH"
"ActivationTANH"
"ActivationLinear"
