encog,BasicNetwork,java,3.1.0,1,1400516020127
[BASIC]
[BASIC:PARAMS]
[BASIC:NETWORK]
beginTraining=0
connectionLimit=0
contextTargetOffset=0,0,0,0
contextTargetSize=0,0,0,0
endTraining=3
hasContext=f
inputCount=30
layerCounts=1,2,6,31
layerFeedCounts=1,1,5,30
layerContextCount=0,0,0,0
layerIndex=0,1,3,9
output=0.6604438425,0.9889297735,1,0.9990942467,0.9999035184,0.9990046813,0.9986666138,0.9999999583,1,0.6793103448,0.6793103448,0.6793103448,0.6793103448,0.4586206897,0.6793103448,0.6793103448,0.6793103448,0.6793103448,0.6793103448,0.3850574713,0.6793103448,0.6793103448,0.6793103448,0.6793103448,0.532183908,0.6793103448,0.6793103448,0.6793103448,0.6793103448,0.6793103448,0.6793103448,0.6793103448,0.6793103448,0.6793103448,0.6793103448,0.6793103448,0.6793103448,0.6793103448,0.6793103448,1
outputCount=1
weightIndex=0,2,8,163
weights=0.3319002752,0.4653743735,0.6217462979,0.2784297523,0.4838388181,0.5124249472,0.2881710958,0.4126903279,0.5635149343,-0.0859765202,-0.09564374,0.1942696885,-0.0334084083,0.4898704985,-0.0051378952,0.2124807781,0.2142669695,0.2591915293,0.8179715652,0.1302866259,0.036851481,-0.0780560249,0.1335962073,0.754618098,-0.0006649908,-0.0642014296,0.0138301106,-0.0624854747,0.9043982438,0.1573852137,0.1471630506,0.0827436361,0.0323703657,0.7307487494,0.1409900265,0.2018235534,0.1115583671,0.0462489613,0.151753774,0.2701759343,0.1402120928,0.013162853,0.2034054011,0.1075107643,0.9576545116,0.2264427514,0.0201778424,0.0365402057,0.1396537036,0.9516872637,0.0660505639,0.0083276776,0.0820902558,-0.0642784281,0.791511738,0.1945404572,0.1213864731,0.2787293789,-0.0547638164,1.04065847,0.2435970072,0.2258332083,0.2083580119,0.1842747267,0.7231597902,0.1010446888,0.2950381034,0.2778790176,0.0336386074,0.0751244318,0.6455172611,-0.0228901579,0.1223295614,-0.0096552991,0.254434388,1.0674721573,-0.0794486594,-0.0892190429,0.1504889191,-0.084014273,0.8742152057,0.022960722,-0.0348693674,-0.0398839134,-0.0394152003,0.5175745106,0.1865366606,0.0717710118,0.0353851804,0.2186374803,0.7509598946,0.0479618311,0.1113162391,-0.0242737772,-0.0171793073,0.7224430389,0.0350405948,0.0980491204,0.2425258574,0.0441928437,0.2663791011,0.7278887693,-0.0894082266,0.0272086898,0.1083243054,0.0910062764,0.9120618288,0.0337856101,0.0589496869,0.2143631343,0.0223638555,1.005654939,0.22621329,0.2496144228,0.2314898734,-0.0592908489,0.591996892,-0.0447575107,-0.0425097604,0.2008653718,-0.079687527,0.8564763678,0.1071163602,0.0519918797,0.1049702383,-0.0055063753,0.4088028862,0.2272173678,0.1831275909,-0.0653418418,0.0105262992,-0.196872062,0.4955399003,0.3836252566,0.3419408723,0.6372265751,0.2928593386,0.4948145366,0.2973969692,0.435551817,0.4241999451,0.4792127186,0.4159994595,0.5067711764,0.642088775,0.4462069412,0.6256527746,0.3195109173,0.4993776863,0.4558005607,0.5541393456,0.3873195949,0.6219517503,0.4309775141,0.3636348893,0.6129001125,0.3970058631,0.3420473054,0.3903156583,0.4328766415,0.3390337541,0.3864655439,-0.0612005956
biasActivation=0,1,1,1
[BASIC:ACTIVATION]
"ActivationTANH"
"ActivationTANH"
"ActivationTANH"
"ActivationLinear"
