encog,BasicNetwork,java,3.1.0,1,1400515760749
[BASIC]
[BASIC:PARAMS]
[BASIC:NETWORK]
beginTraining=0
connectionLimit=0
contextTargetOffset=0,0,0,0
contextTargetSize=0,0,0,0
endTraining=3
hasContext=f
inputCount=30
layerCounts=1,2,9,31
layerFeedCounts=1,1,8,30
layerContextCount=0,0,0,0
layerIndex=0,1,3,12
output=0.661211039,0.9452410962,1,0.8479148328,0.9999998527,0.5906201103,0.6003436458,0.5076657918,0.9999993001,-0.1291429865,0.5251799972,1,0.6793103448,0.6793103448,0.6793103448,0.8264367816,0.6793103448,0.6793103448,0.6793103448,0.6793103448,0.6057471264,0.6793103448,0.6793103448,0.6793103448,0.6793103448,0.6793103448,0.6793103448,0.8264367816,0.6793103448,0.6793103448,0.6793103448,0.6793103448,0.6793103448,0.6057471264,0.6793103448,0.6793103448,0.6793103448,0.6793103448,0.6793103448,0.6793103448,0.6793103448,0.6793103448,1
outputCount=1
weightIndex=0,2,11,259
weights=0.5193098291,0.3040893964,0.1790450187,0.398143343,0.3784839548,0.2592960874,0.2900421,0.4878348049,0.2542119181,0.4391064325,0.0230762624,0.6630730498,0.2008059826,0.0728008635,-0.0435683502,-0.1179398173,0.410671993,0.1432250362,-0.1574997932,-0.1807909305,0.0749534756,0.4194241907,0.2617763494,-0.0044696493,-0.0597770518,0.0169938105,0.6435485154,-0.1243959029,-0.0243905125,-0.2448887083,-0.1062563412,0.5479854855,0.1430245474,-0.2462934025,-0.2232885366,0.0902649201,0.4536563385,-0.0522071406,-0.2096575823,-0.1677481131,-0.1817009496,-0.1991730527,0.3218594875,0.5729860521,0.4787341053,0.3209355969,0.276506562,0.1078237156,0.57401119,0.5532231487,0.3040107861,0.513107182,0.4162964793,0.297323502,0.2478512683,0.2356733227,0.3752001521,0.3931238922,0.3233239778,0.2977874325,0.3344794491,0.5294263924,0.315583914,0.4802340351,0.4678780344,0.3862202637,0.2640026633,0.1907793195,0.511114416,0.4286103805,0.4832678741,0.3570865206,0.4486550019,0.6205520887,-0.0719954395,-0.0543543316,-0.1808640527,0.0538674263,0.3864268089,-0.1174847038,-0.0116439159,-0.0343613408,-0.0236443057,0.6697015727,-0.0019274288,-0.2338192905,0.0645957859,-0.130782907,0.5399213265,0.0560816226,-0.134034777,-0.1690751637,-0.205489819,0.6519815359,-0.0638779673,-0.156617482,-0.1698220928,-0.1745751915,0.5657970286,-0.2616657547,-0.1014844647,-0.1240800228,-0.2510312983,-0.0174696032,0.6031215952,0.024575329,-0.1318159151,-0.0860241451,-0.0527898715,0.6209045427,-0.2704223336,-0.2015697263,-0.2050464643,0.0603906909,0.6237180659,-0.2318989348,0.0125292204,-0.0675613629,0.0628047443,0.712299854,-0.0932176494,-0.2675473277,-0.1804748355,-0.2349362883,0.3606692116,0.0233852169,-0.0547308347,0.0821666944,0.029280909,0.4888556059,-0.2152837675,-0.0514364374,-0.2851076439,-0.1153220103,-0.0636302337,0.4242318308,-0.2209576837,-0.0187567452,-0.0076466926,-0.1252855859,0.4823194307,-0.2112498841,0.0270460282,-0.2076947748,-0.1302085584,0.6681193575,-0.1145736379,-0.151100682,-0.219060324,0.0325988797,0.6690240297,-0.1904710985,-0.1208295826,-0.0960980859,0.0255872832,0.7103429846,-0.1943336653,-0.0316057329,0.0106385729,0.0696095705,0.4336369609,-0.0745085417,-0.2818052748,0.0867333923,-0.1466255986,-0.3125557249,-0.0732411281,0.2437825621,0.5053042266,0.527923783,0.5159582592,0.2224977158,0.2575270934,0.3262223687,0.2484712064,0.5298687254,0.4184663181,0.5295036121,0.5008870206,0.2023499326,0.5256824173,0.4592291173,0.3006887078,0.4608574426,0.2706481534,0.4558558128,0.2911441592,0.4599812776,0.4552917037,0.1572294394,0.2753278552,0.1545872109,0.2029595829,0.3968891154,0.1692836284,0.3962676112,0.2832835841,0.6411269361,-0.2887280365,-0.3036869031,-0.0660681931,-0.2312538008,0.6155989785,0.0439515084,-0.1207493072,-0.1356041064,0.0374274978,0.6561462729,-0.1959772738,-0.1696578907,-0.2301751092,-0.0217639405,0.3813442221,-0.0571677157,-0.0540772008,-0.2080380023,-0.0899249726,0.5825988648,-0.0662136167,-0.2250404679,-0.2904554284,-0.302621634,0.5397768462,-0.0552263647,-0.1250895159,-0.2662610603,-0.2889791494,0.0091529179,0.6183747844,-0.2688068771,-0.1063068867,-0.06533437,-0.062235325,0.4534315472,-0.0041500766,-0.0836497833,-0.269477635,0.0033735416,0.7043132685,-0.0512536532,-0.0762423665,-0.2793901649,-0.0229588785,0.5240389995,0.0233944099,0.0724392127,-0.0444923468,-0.1295677844,0.3719042284,-0.1550379867,-0.0007128318,-0.0536485002,0.0277965001,0.5680189497,-0.1124246353,-0.0219323284,-0.1041267617,-0.0946196656,-0.4395992041
biasActivation=0,1,1,1
[BASIC:ACTIVATION]
"ActivationTANH"
"ActivationTANH"
"ActivationTANH"
"ActivationLinear"
