encog,BasicNetwork,java,3.1.0,1,1400329857325
[BASIC]
[BASIC:PARAMS]
[BASIC:NETWORK]
beginTraining=0
connectionLimit=0
contextTargetOffset=0,0,0,0
contextTargetSize=0,0,0,0
endTraining=3
hasContext=f
inputCount=30
layerCounts=1,2,12,31
layerFeedCounts=1,1,11,30
layerContextCount=0,0,0,0
layerIndex=0,1,3,15
output=0,0,1,0,0,0,0,0,0,0,0,0,0,0,1,0,0,0,0,0,0,0,0,0,0,0,0,0,0,0,0,0,0,0,0,0,0,0,0,0,0,0,0,0,0,1
outputCount=1
weightIndex=0,2,14,355
weights=0.4273770226,0.7196657737,0.2764898939,0.5162476594,0.4881084281,0.4394528064,-1.8548425167,0.5470029121,0.5221912113,0.3689586215,0.7089266931,0.4379289212,0.3897942954,0.0985123472,0.0482603987,0.0309391555,0.0809477769,0.2029129502,0.1193932065,0.143339586,-0.0453608585,-0.0394462858,-0.0532372783,-0.0082392111,-0.2100182979,0.1595903676,0.1807519738,0.1567770002,-0.1324971689,0.0552158734,-0.0738252507,-0.2827368843,-0.1087044365,0.1559927016,0.1522858451,-0.0321237868,-0.1645583964,0.3665761717,-0.1837166586,0.0451616744,0.1118121191,0.1461439925,0.1575995029,-0.2270343879,-0.2088236806,0.0688051962,-0.0794038949,0.1706467059,0.0844890807,0.0076966873,0.0702226189,0.0411899777,0.0885393163,-0.0754054255,0.2960512124,0.050779854,-0.1214773435,0.0376616147,0.1833739845,0.1309410028,-0.0747458336,0.2448075777,-0.1547274161,-0.147402356,-0.1400228223,0.1890418738,0.0788476307,-0.0716888108,0.0605317743,-0.0022221125,0.0952900028,0.0986181569,0.1692341237,-0.0294747693,-0.3608800497,0.062404645,0.0971475159,0.0396612971,0.0718580151,0.0286011219,-0.1528733521,-0.012576589,0.175275312,0.1840100532,0.0147152156,-0.2349717976,0.0905121904,0.0097980006,0.1240193847,-0.1199128343,-0.0569438202,0.1950935048,-0.1227053644,0.1945134244,0.0513121078,-0.13709666,0.2003317984,0.0723832317,-0.077433299,0.2979921053,-0.1364207978,0.0552683759,0.1486656022,-0.0305191665,0.0957625837,-0.0956206595,-0.1858112285,0.1053230134,-0.139695988,-0.16006231,-0.0441079848,0.0113692811,0.178250677,-0.124323832,-0.035701808,0.0775207995,-0.1624465955,0.0533161583,0.1952089573,0.0047536745,0.1111995842,0.0189880366,-0.1000074143,0.3616686715,0.192247771,0.1820803422,-0.0885455321,0.0049286128,0.1514887303,-0.0032752832,0.2706589743,-0.1060874147,0.0296322308,0.1121127418,-0.1004656872,0.0287602028,0.024016393,-0.3438101769,-0.7465439186,-0.6774098296,-0.2399410379,-0.1868506259,-0.7915484936,-0.1501511643,-0.6744442652,-0.0218951232,-0.7316349645,-0.2227836313,-0.6225179233,-0.0277521597,-0.2260519914,-0.7412980831,-0.4510778791,-0.7141800462,-0.3005764595,-0.831977483,-0.1720093644,-0.0344074288,-0.8744947723,-0.785877894,-0.3155812434,-1.7826648526,-0.2272771169,-1.8986396868,-0.0306274412,-0.7240896204,-0.4817718401,-0.1845359083,-0.0702361627,0.2009533504,-0.0996840807,0.0820318677,-0.135339248,0.1072192737,-0.1027596179,-0.0683744287,-0.0274408915,-0.0853221219,0.4103961926,0.1368055161,0.0914846169,-0.1144830497,0.0958457537,-0.0400209858,0.0314462554,0.2497991917,0.0468184745,-0.0210021153,-0.129738928,0.1724759711,0.0919756813,-0.1113779193,0.1501334943,0.0489036631,0.1377754924,-0.0390698323,0.0277229948,-0.0189927593,-0.0971676642,-0.046125171,0.0842764908,-0.1263742488,0.1503725783,-0.1427262926,0.2039793434,0.0871550302,-0.016604149,0.0093004925,-0.1442085745,0.1656064325,-0.1115575918,-0.1206926595,-0.0194548751,-0.0891784103,-0.1407601873,0.0177425726,0.0468134007,-0.3160489312,-0.0609845422,0.2082456821,0.0041422658,0.149948706,-0.0371106298,0.1477352455,-0.1298823754,0.0670666518,0.1587334529,-0.1698129444,0.1168740308,-0.208786128,0.1360619024,-0.065077377,-0.1520615064,0.0291839589,-0.1225097049,0.036841869,0.0329010334,0.1882226201,0.0154625844,0.1885372028,-0.2067455763,-0.0424527874,0.206351981,0.1143119576,-0.0560961985,-0.167491395,0.1332730574,0.4186303358,0.1113051043,-0.0146741556,0.1521835154,0.1333959193,0.096180167,-0.0968611002,0.3041232421,0.0199456378,0.0666552007,0.1553670933,0.0776302836,0.0280082596,-0.1532632892,-0.4864519839,-0.017477579,0.0523989106,-0.0612512814,-0.2024732073,-0.0866836973,-0.1336043153,-0.0354188757,0.0773039212,-0.1148764418,0.1747476491,0.0282519195,0.0329876923,-0.0327894784,-0.0917948805,0.0113630952,-0.1058227966,0.1174599994,-0.2719165189,0.0351658147,-0.0018315809,-0.2925898799,0.1698293543,-0.2641292544,0.1735405261,0.0509245228,0.0968751201,0.1462261627,-0.083476478,0.1336956856,-0.0792487568,-0.2989084738,-0.121692483,-0.2248679543,0.3477869266,-0.2074148215,-0.1610246946,-0.030059006,0.0697351973,0.198868891,-0.3014769967,0.428261113,-0.2684600206,-0.1026708757,-0.0596981001,0.0703245363,0.1318681937,-0.2504938398,0.1608203974,-0.020247994,-0.1634428606,-0.0354097581,0.0334735956,-0.1428496643,-0.1395101081,0.1997964221,0.003480065,-0.088185217,-0.1566127317,-0.0898391913,0.1083181872,-0.1702656716,-0.4818551055,0.0442889652,-0.0732361229,0.0005941382,0.1681583814,-0.1613292527,0.1833934811,0.0986185087,0.0046102431,-0.1824186746,0.1326645638,-0.2008767792,-0.0345554601,0.0426199432,-0.0083618239,0.0839408426,0.0014934268,0.3687194731,-0.0292646226,-0.1305207682,-0.1646585636,0.1316659901,0.096796624,-0.0919123846,0.1537691466,-0.1224522742,0.1176496931,-0.1098857613,0.1282435287,0.1706727981,-0.2253386749,-0.192407592
biasActivation=0,1,1,1
[BASIC:ACTIVATION]
"ActivationTANH"
"ActivationTANH"
"ActivationTANH"
"ActivationLinear"
