encog,BasicNetwork,java,3.1.0,1,1400304072290
[BASIC]
[BASIC:PARAMS]
[BASIC:NETWORK]
beginTraining=0
connectionLimit=0
contextTargetOffset=0,0,0,0
contextTargetSize=0,0,0,0
endTraining=3
hasContext=f
inputCount=30
layerCounts=1,4,6,31
layerFeedCounts=1,3,5,30
layerContextCount=0,0,0,0
layerIndex=0,1,5,11
output=0.6115735902,0.8029064207,0.9119123558,0.8675471073,1,0.7928003622,0.9976639948,0.9635509915,0.5309989478,0.8841928557,1,0.5977375566,0.5977375566,0.5977375566,0.5977375566,0.5977375566,0.5977375566,0.5977375566,0.5977375566,0.5977375566,0.5977375566,0.5977375566,0.5977375566,0.5977375566,0.5977375566,0.5977375566,0.5977375566,0.5977375566,0.5977375566,0.5977375566,0.5977375566,0.5977375566,0.5977375566,0.5977375566,0.5977375566,0.5977375566,0.5977375566,0.5977375566,0.5977375566,0.5977375566,0.5977375566,1
outputCount=1
weightIndex=0,4,22,177
weights=0.3977611631,0.217429668,0.2094647186,0.0120690144,0.1956702111,0.4207896768,0.2191882573,0.6954295527,0.2772324964,-0.2937941992,0.3883274782,0.3300529817,0.5288172361,0.5238158526,0.2601814171,-0.1161232417,0.1908003815,0.3765135139,0.2860985012,0.5464111939,0.5101863289,-0.2207409156,0.3529480204,-0.1265808627,0.161310834,0.1056167336,0.288755379,0.1719907504,0.2289968232,0.1551307478,-0.0104008877,0.2696662714,-0.0642401402,0.4407908709,0.345935282,0.2536632106,0.3065390807,-0.1123300909,0.1130159555,0.1160976878,0.2771254087,0.3238532939,0.2543485399,0.2466707695,-0.7667014522,0.3434147725,-0.8422885788,0.2822827405,0.2928419218,0.4042532888,0.3540707869,-2.9655709449,0.3609196145,0.2066167213,0.1820355074,0.1086848279,0.1900262123,0.3227265514,0.3838426631,0.0718567715,0.2803251308,0.0888273003,0.1101545188,0.1428537012,0.1860529329,0.3175019083,0.0604676573,0.172576688,0.3142698859,0.321364837,0.1143698535,0.2791922204,0.3408872628,0.3828173111,0.0631100896,0.277591444,0.3988998233,0.2699442911,0.3628487997,0.1384691053,0.0945867568,0.2716807529,-0.3909631723,-0.2488066668,-0.0546903114,0.1742070412,-0.1556661043,0.3931451976,-0.1675566559,-0.0343242643,0.0459207321,-0.0318135829,0.1206827582,-0.0042011545,0.1515292931,-0.2075823592,0.0310393073,0.1946494864,-0.0044896116,0.3108297542,-0.123865775,0.0642779878,0.2935492364,0.0453539987,0.1833943872,-0.188524108,0.397212018,0.0868192827,0.3056767187,0.1214053007,0.1579439415,0.203981211,0.2024650012,0.2253941108,0.3574318625,0.1146084342,-0.4199041365,0.1899079409,0.1226558969,0.1880643808,0.1082934345,0.2009251728,0.192624426,-0.4483114652,0.36558935,-0.3394521535,0.215181364,0.4091468191,0.4157000588,0.3960085619,-0.509306671,0.1502571601,-0.5382520126,0.4363644848,0.4442599242,0.4484326341,0.4244213899,-0.4872316704,0.3527118828,-0.5400644484,0.4046276757,0.1130698835,0.3820543631,0.4454146011,-0.5836220175,-0.9949648889,-0.2668578224,0.1260888936,0.072243442,0.0453641045,-0.0990416438,0.143624668,0.2499045304,-0.2331001244,0.3180596525,-0.2075914779,0.3076977415,0.0360473976,0.2175650261,0.0335002543,-0.0188594531,0.0600358368,-0.2343831731,0.0397496809,0.1612701148,0.2163723544,0.3374933459,0.2420844118,0.2763176792,0.2030781312,0.1451628113,0.0406977053,0.3722269353,0.0128236977,0.2877600043,0.0628098907,-0.3675524805
biasActivation=0,1,1,1
[BASIC:ACTIVATION]
"ActivationTANH"
"ActivationTANH"
"ActivationTANH"
"ActivationLinear"
