encog,BasicNetwork,java,3.1.0,1,1400516530675
[BASIC]
[BASIC:PARAMS]
[BASIC:NETWORK]
beginTraining=0
connectionLimit=0
contextTargetOffset=0,0,0,0
contextTargetSize=0,0,0,0
endTraining=3
hasContext=f
inputCount=30
layerCounts=1,3,6,31
layerFeedCounts=1,2,5,30
layerContextCount=0,0,0,0
layerIndex=0,1,4,10
output=0.8884774709,0.9492217017,0.9729913416,1,0.5781609796,0.9998842572,0.8489183101,0.9999981453,-0.2946728763,1,0.9,0.9,0.9,0.9,0.1,0.9,0.9,0.9,0.9,0.9,0.9,0.9,0.9,0.9,0.9,0.9,0.9,0.9,0.9,0.1,0.9,0.9,0.9,0.9,0.9,0.9,0.9,0.9,0.9,0.9,1
outputCount=1
weightIndex=0,3,15,170
weights=0.4559772689,0.5870707781,0.4106114906,0.5003985559,0.5575468512,0.5282600823,0.6219558178,0.550718948,0.0689425674,0.6357676139,0.3635491833,0.6780077805,0.5436055372,0.5209770496,0.4488312359,0.0163472992,0.0944297765,-0.1651359559,-0.0245963617,0.0384192721,0.5661937602,-0.2229692488,0.1028786223,-0.1817120372,-0.1571389923,0.0718496048,-0.059466835,0.0089274887,0.0360110747,-0.0440423491,0.5904830196,0.0268418032,-0.121414919,-0.214278766,-0.2358072753,0.5353571781,0.0347870439,-0.2437202378,0.0663343955,0.0894439555,0.5314593906,0.107372633,-0.1603284152,-0.2514131737,0.0590707481,-0.3029787824,0.3916456133,0.0330217382,0.238247466,0.0316060798,0.1558976852,0.4317560315,0.097483851,0.2634065886,0.0867337624,0.0694428992,0.236151328,0.2808439743,0.1106568825,0.3830882141,0.1177430108,0.4002116609,0.2505095864,0.0442529474,0.114570897,0.1724061182,0.2219305216,0.0479001342,0.3790066538,0.0339903632,0.1828290468,0.4340158706,0.0310510324,0.2387991144,0.1304015557,0.2210412579,-0.106319798,0.2758264458,-0.1468032576,-0.0099345711,-0.2560411878,0.00838315,0.7919577486,0.1455977017,0.1774684349,-0.0064770111,-0.0403706437,-0.1540940929,-0.1795145066,-0.2220607533,0.0062155062,0.1828519896,0.5154340866,0.0179693812,-0.2231147406,0.0129536508,0.1295811504,0.3334671438,0.0625507607,-0.1156559101,-0.2148002179,0.2782920254,0.2147079487,-0.1303457982,0.0491260395,-0.029250982,-0.1276471416,0.1509940093,0.3839951391,0.2838902066,0.4002048429,0.2159853216,1.1705518017,0.3446338667,0.1581300992,0.1847562488,0.3980596624,0.3157390551,0.3099788625,0.3243740671,0.2823738053,0.3326284734,0.0840404238,0.5398242042,0.1065214219,0.4401660571,0.2925340928,0.3876823238,0.5442398289,0.2196138802,0.1387620422,0.287004293,0.082977039,0.2424912623,0.1117769577,0.2536121242,0.1652766363,0.1802998353,-0.0718474953,0.4455642766,-0.2829149003,-0.1725594339,0.0288961113,0.0109545539,0.5861666574,-0.2460282044,-0.0052658402,-0.0416323519,-0.0104834425,0.088515956,-0.0774613912,-0.1120223419,-0.0375754614,0.0585005218,0.3728022109,-0.0329763297,-0.1054862161,0.0005420281,-0.1530710768,0.3718611269,-0.2405569791,-0.1338388507,-0.169951795,-0.2311159358,0.4248977068,-0.2029624715,-0.2660445422,-0.0017061195,-0.0444677335,-0.2558907957
biasActivation=0,1,1,1
[BASIC:ACTIVATION]
"ActivationTANH"
"ActivationTANH"
"ActivationTANH"
"ActivationLinear"
