encog,BasicNetwork,java,3.1.0,1,1400515946628
[BASIC]
[BASIC:PARAMS]
[BASIC:NETWORK]
beginTraining=0
connectionLimit=0
contextTargetOffset=0,0,0,0
contextTargetSize=0,0,0,0
endTraining=3
hasContext=f
inputCount=30
layerCounts=1,2,11,31
layerFeedCounts=1,1,10,30
layerContextCount=0,0,0,0
layerIndex=0,1,3,14
output=0.7041543957,0.9745075726,1,0.4642431882,0.7234303644,0.2727686053,0.8364980861,0.2964477087,0.4633421677,0.6843784743,0.4407007966,0.5577783945,-0.0597401614,1,0.6793103448,0.7528735632,0.6793103448,0.6793103448,0.6793103448,0.6793103448,0.532183908,0.6793103448,0.6793103448,0.6793103448,0.6793103448,0.7528735632,0.6793103448,0.6793103448,0.6793103448,0.6793103448,0.8264367816,0.6793103448,0.6793103448,0.6793103448,0.6793103448,0.532183908,0.6793103448,0.6793103448,0.6793103448,0.6793103448,0.8264367816,0.6793103448,0.6793103448,0.6793103448,1
outputCount=1
weightIndex=0,2,13,323
weights=0.4699171424,0.4175554862,0.4011467357,0.5791851559,-0.0186660402,0.5441615478,-0.024201615,0.6192579506,0.3706700048,0.4968270495,0.4798696952,0.137374212,0.1076794377,-0.1112093442,-0.0170621211,0.1819631095,-0.159041307,-0.0014102838,0.2241650022,-0.1706670551,-0.0751510927,0.0471591025,-0.009647654,0.2688855248,0.0633363296,0.1366580925,0.1966278858,0.0469670518,0.1193115158,-0.090961332,-0.0102748625,-0.1003382004,-0.1422243865,0.0296609009,-0.1462811426,-0.1717752797,0.0922411609,0.0521505288,0.3208326178,0.0453116534,-0.17644675,-0.0308475087,0.122114285,0.0966041859,0.0297103168,0.020368469,-0.0172232043,0.0692625329,0.112818377,0.205230421,0.157583896,-0.0739743361,-0.1034803933,0.0622821278,0.1598014652,-0.1139492933,-0.026532917,-0.1644951988,0.041392741,-0.1160799855,-0.0892276993,-0.0017736579,-0.0249753818,0.1297287869,0.2856934236,-0.0043301916,0.1772398054,-0.0126854782,-0.1092167821,0.2972800617,0.1864095609,0.1215615797,0.0819455488,0.1257707904,-0.0252638833,0.231723835,-0.1281991175,-0.0367740361,-0.1705926346,-0.0883411401,0.2179494684,-0.1083705957,0.0450507801,-0.0473571399,0.0561755643,0.3903694409,-0.0120451684,0.0108291415,0.1863868897,-0.0176638599,0.2980466062,0.0184412002,-0.0882724849,0.0210890999,0.068964376,0.05643624,0.0547841521,-0.0901139231,-0.124900925,0.0803626214,0.1229565007,0.049715012,-0.1335148935,0.0451584786,-0.1471025213,-0.2448270919,0.1182433629,0.1142417483,0.0414437281,-0.0394975146,-0.1638748515,0.2832802766,0.0981353157,0.1109600838,0.0464692694,0.1445860602,0.0188120354,-0.0845417304,0.0772332698,0.0009299505,-0.0163750363,0.3045770907,0.1647883492,-0.0345448821,-0.1180415689,0.1919353299,0.1725833156,-0.0744863548,0.0658830892,0.1808924282,-0.0951065737,0.0918466492,-0.0472581237,0.0395489846,0.0657813605,-0.1368994116,0.1597966186,0.1641368336,0.1878526961,0.1096064511,0.0574276818,-0.0335562257,0.1331199342,-0.0058622384,0.0251565478,-0.1115788521,-0.0081051745,0.2840095735,0.1484584185,0.1459719067,-0.0848418368,0.036399317,0.1697173848,-0.0817630903,-0.0635352012,0.109372876,-0.0780821613,-0.0154685629,-0.0244187213,-0.1497145449,0.0469138824,0.1393157687,0.1725683812,-0.1518458248,0.1114499953,-0.1476988962,-0.0545834904,-0.3891815634,0.1568951563,0.0628233866,0.1679339615,-0.1138722568,0.1231317013,0.2343205797,0.1961698264,0.1705560411,0.0330605559,-0.0961463369,-0.0039740346,-0.0329050444,0.0436022968,-0.0740746705,0.1663362916,-0.0243415174,-0.1095031925,-0.1210601658,0.0343930401,0.0104976139,0.0995077387,-0.1336789895,-0.072243216,0.0795009761,0.0240755042,0.2553968618,0.1594461164,0.1336934089,-0.1619279476,-0.0300625247,-0.2987186713,-0.0146950034,-0.0315701047,-0.0096624093,-0.1763542189,-0.0020712594,0.2386551483,-0.1392576666,-0.0223886817,0.0396652807,0.0351420715,0.0816189305,0.1628544516,-0.1743567904,0.0643135347,-0.0990466366,0.0054692937,0.0551499108,-0.033364846,0.082465615,-0.1428329844,0.3368019647,0.1685101597,0.0998643664,-0.0387536147,0.0602687791,0.2353456614,0.1754723168,0.0177653979,0.046120356,0.1731614293,-0.013274307,-0.060562712,0.1700579509,0.001275394,-0.0673719649,0.1684717886,0.1674718117,-0.110486478,0.0859003393,0.1040118256,0.1152714011,0.2988973843,0.1325697384,0.133267992,0.0338646957,0.0568716682,0.0538075316,0.0479056561,-0.0797493214,0.0029904801,0.1653769414,0.2291753488,0.0813728307,-0.1614338128,0.1226657591,-0.0546769952,0.1264926193,-0.1610568026,0.0027007475,-0.0229186064,-0.1366619905,-0.5187418811,0.1937172257,0.1476078656,0.051019908,0.119741983,-0.1084692944,0.0284376711,-0.1491073722,0.1482146621,-0.0470857429,0.1740264869,0.3239510455,-0.0609944577,-0.1365472045,0.0618676434,0.046608023,0.091122732,0.0630144207,0.1346469501,-0.1587568225,0.0228002868,0.2588484598,-0.0767236341,-0.0280504582,0.0334704897,0.1843192237,-0.0056040071,0.0715704059,-0.0757226327,-0.0163668211,0.1183775601,-0.3875789881,-0.0003196611,0.0399987723,0.103204477,0.0603746795,-0.0623160397,0.0042405841,0.0090347314,0.1810571366,-0.1464553044,-0.1221214214,0.3319892657,0.0808759947,-0.0802821603,-0.0113167639,0.0564524511,0.2528501037,0.0163525505,-0.0945069384,-0.1127460679,0.0140318306,0.0543238802,-0.0869877419,0.0469261189,-0.0418281447,-0.0805629161,0.1802607764,0.0802913856,-0.0370263466,-0.1552356424,0.1691360432,-0.5357361105
biasActivation=0,1,1,1
[BASIC:ACTIVATION]
"ActivationTANH"
"ActivationTANH"
"ActivationTANH"
"ActivationLinear"
